NN;3
fastlinearlayer;784;49;TanH
0.014360237610586885;-0.06837378845837899;0.0020477493732998786;-0.019554109554572305;-0.005854803899706981;0.03978160205418074;0.01526654657816122;-0.013092695547301664;-0.008316370485910635;0.07468059701425925;0.06167771880959971;-0.033105693953121004;-0.06410892810435864;0.023628008599767505;-0.0923215073454041;0.03659964046134706;-0.08654108107080112;0.014517018475593751;0.043066957132339045;0.018429432148778097;-0.0998955436550652;0.0470791883175484;0.012292077198404305;-0.027746813635605966;0.09182084362079998;-0.07586552966369071;-0.054296289770837496;-0.07334621223102056;0.03612712152623604;-0.017158823921884683;0.09080258376317049;0.010177499031897616;-0.03668178629457615;0.0259460137708018;-0.05650969397488379;-0.01741604652635778;-0.08228509260109391;0.05303406308495853;-0.020680635471165124;-0.033903822489288624;0.08891388780939036;-0.0082212203025894;-0.015256875319674859;-0.02334943160300189;-0.056962290117324836;0.02919200581516329;-0.011634162678538076;0.05514689878727094;-0.04601519116840505;0.033628472168901274;0.0825653302720096;-0.040127038268442286;0.050342006815461166;-0.03935860602933643;-0.0877312124763491;-0.07409273751792876;0.09718825263106107;0.06386075255276735;-0.03563326964430101;-0.012177166929706634;0.015408329576402077;0.05315929255281185;-0.04383096415992223;-0.05580518831298245;0.008670754469821351;-0.08887295742842885;0.07301537229948515;0.05694063208117828;-0.06070116196530062;0.07432132346176512;-0.05047480730499723;0.03256999608583486;-0.09047933065362704;0.014516735755204624;0.050847728013705656;0.0034348968081037434;0.04271913306160294;0.01995516497133018;0.053912007478362195;-0.09102037904253515;0.06468188790502258;-0.023404213074249267;0.02867682511295358;0.07699072435197793;0.08485138985906973;-0.05063493888214679;0.019380780813999493;0.004847067029143462;-0.02242513829026127;-0.0365932788618198;0.02579224691607765;-0.05923022614904199;-0.03664566886232638;-0.014668199161405895;-0.015540617558941025;0.06507227259500731;-0.009903405696544548;-0.09553138718127417;0.015634988872129912;0.021978846226005183;-0.030954883808613873;-0.07064198368119803;-0.018914905605313323;0.020958344276084895;0.07485163795403488;0.006014320363667364;-0.07903884977469636;-0.02698159636773019;0.06352628492669096;-0.05930242815242468;-0.0038675035586954315;0.05898990494789788;0.08781462066712711;0.0600211245434252;-0.040966585111212185;-0.040918824116228984;-0.09234785690212387;0.005600774807798262;-0.0150868796649382;0.08412798226059087;-0.07858570944017225;-0.03469523832591022;-0.0969142245370614;0.006843531132323055;-0.002833555114407041;-0.09549624199505527;0.028180479042937107;0.09306847982002639;-0.09608607446782802;-0.002679108552984366;-0.008608728013120154;-0.06697908783687292;-0.057147998404984725;0.05788172366246913;-0.028272853618278013;-0.02745364052582333;-0.02138412598023745;-0.028435746597649428;-0.07273797825917441;-0.055632199368015695;0.07053068761630385;-0.07375107445958709;0.026384768938949837;0.09933564429335565;-0.09613846288762361;0.043568628186016756;0.07904919540422206;-0.018171857390017546;-0.08117636237292235;0.08958184303624941;-0.05462789494983551;0.07691180146967824;0.049211301508766264;0.09032518270914935;-0.06599028164434369;-0.08371342868266785;0.02591280011253555;0.008757044577691261;0.026082020779799986;-0.0332667687046103;-0.08676606593072365;0.0617863773037145;-0.0038207547563589295;0.015601405755096082;0.016361862839272018;0.027515984117649966;-0.0996020280042163;0.052059579995847816;-0.037384912331004896;-0.07350747634328939;-0.0424088765098835;-0.051654928698939465;-0.017306544590469916;-0.09704351601900857;0.030617974164699552;-0.058985940421318085;-0.008071837665004189;-0.09390778082555327;-0.09240585766074193;-0.08780844160294066;0.0715317520005036;-0.02872208259947416;-0.016858400005930668;0.0708214396649883;-0.05015187795918794;-0.09866437441777871;-0.06036133831277586;0.03391641360827696;0.083602507127124;-0.052218773601598815;0.028469988373049315;-0.09219194953043773;-0.06084850231332988;0.0920744629638576;-0.048723405799237424;-0.030603245475590055;0.015565364818117607;-0.007961489533206505;-0.09823674545664784;0.07104300704235042;-0.0455382386673798;-0.0019071037425513828;-0.04107158162723197;-0.008179787968340619;-0.013039001017787589;0.07649905909262393;-0.011270927436378279;-0.013733354866602451;0.03388701073249008;-0.05104373076062361;0.003501017182226566;0.08734952479819053;-0.06825110158549277;0.093195378029109;-0.0027577478562936233;-0.05755406413582329;-0.03527443633174484;0.0615461298038183;0.07674900148533448;-0.05539125981682955;-0.004788635691875419;0.019234636186426225;-0.007096919006089738;-0.03621313142282515;-0.004617478273332476;0.07368351530545823;0.07216250970150635;0.0780405066543566;-0.021469108430409452;0.0069452525322068045;-0.05276420666546903;-0.09487739209651484;-0.07006177071386488;0.0039861932470456485;0.08895962304360788;-0.06688985710325217;-0.06143298942701562;-0.010954696123870662;-0.06242303022872586;0.05250082956917656;-0.07200662451957827;-0.047820894771634946;0.031772033715577394;0.0852453495743238;-0.012879690068303352;0.08324592366050426;-0.0024953789532736596;0.07841595413781398;-0.0782924080170321;-0.04780179267122047;0.05545820563274725;0.09810751358473653;-0.08358143321901144;-0.04652465676815609;-0.023919784260918227;0.019307047925571766;-0.0844234812235315;-0.07500097708500056;-0.05957576539799902;-0.05120099766886239;-0.08461098200239676;-0.013336888155893286;-0.09001547991406615;-0.03155119372100866;-0.0680002707180116;-0.07323299175259478;-0.08153733914787459;-0.08435117136280537;-0.01714942849376217;-0.02170397041260847;-0.0972587334334387;-0.035168104658937764;0.06772230050890297;0.0024038186671300633;0.07037677624924861;0.010418994222566372;-0.05026133763847348;0.07025354271606074;0.08919859681801418;0.04400723907089489;-0.061044353926640094;0.041616583824159656;0.04763241245545394;-0.05995132180823361;0.06924555570413599;-0.05076685513314763;0.07199519708343921;0.03729849799643293;0.08552148154315636;-0.022175092304999772;0.07454843337614586;-0.09556341319096245;0.00933931011414649;0.04155773907220504;0.0020713880224427837;-0.03802481377752582;-0.017361051044923033;0.008995584869846933;-0.02390767633050742;-0.012715324227428663;0.08731739756059269;0.00996071212268546;0.08045250402901001;0.10393842210135586;-0.01219186087007951;0.054803905387343456;-0.0363533641253147;-0.08938131216615135;-0.006295049305108391;-0.09415226882094745;0.05311424005780428;-0.004078948688411822;-0.08834474352461572;-0.020176479404460587;-0.00832696804424757;0.08012108436797213;0.07580606582675355;-0.020766518392014217;0.06379930570871858;0.09614803732077565;-0.020682490456968475;-0.07660864276518765;0.029110335110599753;0.007077636145561286;-0.092689460529075;-0.020573500908480435;-0.04579442059966911;0.04573125156685772;-0.03594512456596115;0.09587318640557269;0.04126535357947829;-0.07500083255308412;-0.0913521646011257;0.02955465417074887;0.062411464884532995;-0.09486437917263668;-0.013537451250413399;-0.017192411086859535;-0.011280149139670199;-0.008187987253405197;-0.05523052684331503;0.01908411857944273;0.017683292002874308;0.041585953178506475;0.0499689164194492;-0.01611336610591492;-0.011665396562328543;-0.07375238230056845;0.06699537384593272;-0.07316381153057808;0.03987086732760544;0.04006708705392585;0.0862688199427843;-0.023551949339186508;-0.09118191779905957;0.007967457496917891;0.0870616333283848;-0.07081125429746732;0.05421477854852071;0.06663380690823308;0.08278439521385113;-0.06428997794837846;0.058757453873864184;-0.0498454147233371;-0.08650666159164155;-0.01870258570227919;-0.08917387012002463;-0.03353107179957021;-0.023713797787190457;-0.032707426282921344;0.08494541477987229;0.08085128289065988;0.09324094402851718;-0.005574359623200444;0.023272382809220758;-0.0026398592448692395;7.688107953909784E-4;0.03926921443486775;0.01895329275418999;0.03825486222160672;0.009996383711356284;0.040637627638620034;0.09312018422879906;0.027535590558656273;-0.07623114916519295;-0.01935424873850051;0.08177672109177372;-0.02981498517942057;0.08533344145183808;-0.04940057616923575;-0.09786711132623035;-0.06948204673451747;-0.07955296300311003;0.019635298139014382;-0.07307066054915326;-0.027764173003693358;-0.07148906329395002;0.07821512538977096;0.039725275250828564;-0.07277226499583547;0.03220598129189799;0.05017317742797499;0.008488310445340928;0.036693907363317284;-0.07832363084080743;0.095172435625291;-0.04954459743150906;0.0503739647357304;-0.07750596380273485;-0.060168556892544495;-0.014442009817902902;0.0027036162636281794;-0.06902645824010242;-0.07413153262630978;-0.03307873390533423;-0.05516687934419142;-0.05906759165812143;-0.012634812093330328;0.012269877025602248;0.07510156875407549;-0.022964857275641588;-0.030428020419279757;0.037153341165373006;0.07054021925274445;0.026204719059135056;-0.032264942953704565;0.08165593203422658;0.02008190104603766;-0.03279358620713261;0.03879674434849121;0.04651694640060943;-0.04816741485135728;-0.0960082125061509;-0.033871804859794456;0.024177027281000404;-0.03041908341754883;0.09508136330739257;-0.03969604798190103;0.015653074591435393;-0.02988139870505635;0.0821527954960624;0.06796652205492786;0.018572473563144135;-0.02572067333448289;-0.07020171532183753;-0.08711238257857264;-0.07736999267905338;0.09267200720227321;0.026565627527885202;-0.06648779220023457;-0.05386831004327536;0.017199896224591546;0.07760739117953878;0.08335743531424808;-0.08368525421671077;0.08149011501811464;-0.044320443102171564;0.07133685214796968;-0.05048520561367668;-0.031107061882945628;-0.022199833196789417;-0.05161067932947393;-0.02919271932593184;0.09103158674051626;0.08581691659944124;0.0843306874125073;-0.07204600223698322;-0.028064871423535673;0.027817327060992447;-0.04913532086979264;-0.03577227694711186;0.025948271529380514;-0.06084644382855857;-0.09674137892315193;0.005110135251158488;-0.056586211140776145;-0.07454615498522299;-0.04046694925058392;-0.07478905015782268;0.06807015688077744;0.041021285188123494;-0.015302223125937073;-0.04570262600020469;-0.018023010884564903;0.07242218630655588;0.06901640475319208;0.0356990528928854;0.07322221468106266;-0.08730084194644012;-0.09225953741219799;-0.08358718863619018;-0.07016972602822301;-0.06769358756247829;0.06759614513066572;0.047841581690364045;0.009270623060205672;-0.0844932014451296;0.008582267949582854;0.0066720875572257;-0.047302516626323086;5.64429192802227E-4;0.06959273460237765;0.02128460230692696;-0.09739049158564396;-0.07243415024311158;-0.08746641560167298;0.05177782731141119;-0.051965573677569064;-0.013824059676243818;-0.043801787012118946;0.023536738332805222;-0.05298505672690446;0.0446625710736481;0.006768737264398051;0.05701907221688258;-0.038809109538307435;-0.016126154261713217;0.08934984197566477;0.09944787853499214;0.08674820297787454;-0.0758546849449149;0.07913877403666884;-0.04386188968230813;0.0861862156604259;0.06338128235115664;-0.06694466724634603;-0.07874804762494889;0.017595097856423263;-0.09816305070676155;-0.07928104133181559;0.010197929641635838;0.06939888834553933;0.07692683625901535;0.054508843048932866;-0.01078331310938356;-0.011635180095619342;-0.009838650722437026;-0.07698202580297353;0.0073517046381007456;-0.039286130045698135;0.07095736398760556;-0.08892933952350507;0.09539777468654026;-0.08740770356703939;0.030425059278928482;-0.09325322559971937;4.336534979648559E-4;0.09061707341809386;-0.0023248342774429857;0.007028552228775516;0.09962722528070105;0.08376241050882317;-0.06719637789049486;0.02438685043343319;-0.012336626625381961;0.04861518960472329;-0.015169143837364363;-0.01915080703345174;0.08865715533946628;-0.008222371843585726;-0.026742490357209145;-0.01235844543573718;-0.06300019939253805;0.05043311210562766;0.06794964714000397;-0.07155873859016654;0.05869235834694713;-0.026238322420938192;0.07130350913613881;-0.06266086515738971;0.05267502563900181;0.004105110680381745;0.0991974396165125;0.08533325180136253;0.07212902139563547;-0.041751189911979215;0.06234253122312165;0.05657694725362167;-0.09412338277349677;-0.09090424381548608;-0.05261681497137264;0.032185408015976906;0.058207158472352645;0.06589297752325361;0.0983573838557986;-0.030513115312592036;0.03313378793480611;0.056527128891989166;0.018477589828647736;-0.09515772688508276;0.0360943934449765;0.01660703690971739;-0.014781830521644806;-0.09909429799890193;-0.06138122746596384;0.09526528621938471;-0.09414425598647974;-0.030196730634273403;-0.012620091156427996;0.006329190313641209;-0.02136508963458454;-0.07255380580833207;0.024158784712007567;0.07565259521224152;-0.07831448493125626;0.04244344918632009;0.07624661648154382;-0.052587894078554354;-0.09572733521441619;-0.03264823167467305;0.08769489184419452;-0.08464292688389366;0.07804671596770943;0.06992563353466538;0.05056533864247967;0.054059612604310886;-0.09170671759969772;-0.03563271776564192;-0.06382004672523559;-0.04983541395099629;-0.09481677811596081;0.04257670296125751;0.026370966515720295;0.03363960851169931;-0.04497734132003384;0.005401642912758756;0.044730886822825056;-0.09097494102357262;0.05150296125088877;-0.006112402390881094;0.08786245721612737;0.08668405511089092;0.0269507647062463;-0.07947216964190114;-0.04337132227687901;-0.08594751534796288;0.08357794258303777;0.06039249428927149;-0.020604249074609005;0.044746586052026915;0.02244155816171263;-0.0726074185348271;-0.052567974895048476;-0.06627589384715855;-0.04241749364434022;0.03369425584273503;-0.09025014153686693;0.022479669183434053;-0.07990347794405568;0.051144595346298644;0.01975456001405171;0.007304941510802271;0.060489744069680745;-0.054207655063218146;0.07036560043001303;-0.03068176315895131;0.05940747402632629;-0.04086209596117443;0.07526660542912186;-0.0442854605906871;-0.09111582725447714;-0.010616668150668085;0.050155367044285526;-0.03898450561285092;0.09359345362470692;-0.027317644373764674;-0.0060061689496410525;-0.09168059872986434;-0.02790190013142313;0.06439035215518327;0.07025811121338019;0.03055121918641404;-0.04189995106399372;0.020314367959235982;-0.011811526262516761;0.05171257518545952;-0.09830959917118523;-0.02203689923445251;-0.015960648485866313;-0.031868254295238096;0.07059942042007428;0.0377969197150653;0.002329334529506011;0.029713682739990144;-0.06855347809897779;0.044477840868746676;0.07671573470031556;0.052541710911971184;-0.006135653591044815;0.012006857099453372;0.07766959550883024;0.09459339167864894;0.04587913690614928;-0.08703640010662964;0.06725152149951777;0.03440393892274357;-0.06871723833691945;0.07555160671711167;0.06793287959332925;0.04712109965806807;0.017352486203289844;-0.051369217115523495;-0.05039066606032155;0.013129437521691004;0.03441489120674049;0.0019228473988534417;0.06085088475259351;-0.05069966415269925;-0.09290412441681735;-0.042738658012950605;0.06015182668059749;0.04024198881764124;-0.014429349395178842;0.01984162225172506;-0.052819215337372195;0.06954940751810856;0.07681374595991228;-0.09052913925524056;0.09403070210023931;0.05105442897058002;0.07584901282612808;0.09181804408015001;0.07646882604957544;0.06007569536492066;-0.0030003879572401138;0.009663978987609206;-0.09481326586340932;0.06466867203350901;0.00513802016431493;-0.08584871653499981;0.057050313788557044;-0.043124367356791884;0.04693603551411307;0.09603439581216566;-0.09365023767280362;0.01438641173687516;-0.05163120174974869;-0.016094287191285958;0.095283612087975;-0.0017499123784111199;0.060904853982813235;0.047476776208301166;-0.014768732952468036;0.0668288430405844;0.07880379602711834;0.05704864980520286;0.07439221349215731;0.054974390830059026;-0.08029357264231389;-0.043461517410535104;-0.07506979681689847;-0.014716895552350171;-0.041132361037778856;0.016257140479444387;0.09475327505822968;-0.05395847168318735;-0.09115506495624677;-0.08954207109593919;0.021229704850666112;-0.025202233352304797;0.09934871032178534;0.017421835709963824;0.0987719147847969;-0.060387087242855124;-0.0375066049403725;0.06292667667180356;-0.035963299471823945;0.014849646757580636;-0.09094427351341101;0.03935361351581087;-0.024535019238405804;-0.026537938195368184;0.013844571235715156;0.06783947855925454;0.09278495649227786;0.05745280780357751;0.09454376588629523;0.08354196018854573;-0.03825504976059809;0.06439900450807506;-0.006387979895310635;-0.08353292348748259;-0.007251448327373549;0.027479146200716405;-0.011569463597917242;-0.0823188324669511;-0.029075330472764227;0.06056275185376722;-0.04688936833988705;0.006992374976179763;-0.040045672334021315;0.02949744820546152;0.07368799762324876;0.07742382239361728;0.06464865609831176;-0.0405179239043424;0.07365969890072818;-0.06090628527261532;-0.044379033570941175;1.0054529536735088E-4;0.051059775786439894;-0.04357334661389626;0.03456035778420893;0.010653106230959343;-0.006245893397493889;-0.026677742110419234;-0.049020432602121924;-0.09836587427730425;-0.0774342200440806;0.03863707586286859;0.007058882872978637;-0.048583973142657444;0.021115088683933754;-0.046407538400574246;-0.0585987519770371;-0.046995286136940755;-0.05398287722096852;-0.01699496968438648;0.008062975999279402;-0.061370885970505926;0.0013469421699436955;0.002968444833000828;0.03344340457998716;-0.09588586672187557;0.02751044371205658;0.022529527722910253;-0.03775194643601335;-0.04632636124229404;-0.046662594105843946;-0.08221402072432647;-0.010991873224898452;0.02127577080705674;-0.07756679141473652;0.03594809454882063;-0.086327491327638;-0.03715982523180735;-0.08514231816035019;0.03713420664048997;-0.08613489830206034;-0.028273233373249353;-0.08168900787191083;0.00825313962932287;0.04002806588832724;-0.03771586195244571;0.07808453884888998;-0.05298800982529285;0.06342984972983938;0.08378928434393415;0.015535327889281712;-0.011489386409102676;0.04675904255146634;-0.05278061520842919;0.0972429017809749;-0.03595918156842386;-0.08269173407912601;0.0039104010795815766;-0.06896635323684219;-0.04776462606483144;0.07051037781441531;0.05389213630031898;-0.0321288147793419;-0.025827811281468598;-0.08106780584033324;-0.006453761381085217;0.07982327004924474;0.04508999567895209;0.06028970153908606;0.007915650068363317;-0.04745160702328886;-0.055985198108130255;-0.046486703397512;0.03538882867039654;0.026705287221811595;-0.03643191892271723;-0.016192504143809974;0.05408673864576225;-0.03375754997176403;0.0737991166169799;-0.1090356933921448;0.09765040209159866;-0.09388248626879955;-0.06581856438209883;0.040317288382171364;-0.0785308096184663;0.05141480399289248;-0.04832256493434382;-0.005637140167640075;0.018400698584015118;-0.024645038614824376;0.009986565180427495;0.0011353551378556303;-0.02583357236254295;-0.09809127192715521;0.023233301989161365;-0.05865288003567045;0.04074907261065955;0.07136849149437596;0.06435210971607618;0.020952015081734124;-0.08992715319735879;0.062370494120690546;0.048908393799775934;-0.00383188304427669;-0.0648985118096343;-0.002018856245102972;-0.02272742619633806;0.012149189295494611;-0.033907581266107906;0.09773204268192133;-0.04598186499126726;0.04179224096418387;-0.019785395919854575;0.08342750735871983;0.02614869523225412;0.08467749972493839;0.09293666863037316;0.026165894214870016;0.02516808245463549;0.045844824060644766;0.04252121912967974;0.07436017636284822;-0.043001157949248414;-0.031070097414116104;-0.03949341858796742;0.09665889399689113;-0.09711806290283181;0.08976429167931939;0.03780421752778218;-0.0702711779581772;-0.015776433112102594;0.03704189576272207;-0.07003990235558183;-0.003545617322080031;-0.03746701772133418;-0.04661547447275003;0.014946296722786566;0.008721727260515079;0.07605665738053746;-0.07047206783388339;-0.07113685662380718;-3.964472583749651E-5;0.09538742363303591;-0.07381326322930444;0.03638067273515545;-0.05473385000064202;0.014950002108010375;0.00950931600503378;-0.02043387056434938;0.01284117022988115;-0.06455068535434946;0.0669161597007363;-0.0625455838046315;0.038042440128408433;-0.07217028772249846;-0.09890074755589377;-0.07557382517937551;-0.001474423670276638;0.0015004847323616115;0.09411386896389855;0.06828710637894474;-0.08684397219572627;0.012371789080779008;-0.0940533097758076;0.06740066957594826;-0.09983157760856734;-0.08292500432000675;-0.050479981770416994;-0.0783460336833289;0.07937072980915828;-0.032307006780355;0.0620935178761745;-0.032884160320894106;0.03967206522202218;0.008607706553756856;0.004202942684517521;-0.028515061878083375;-0.07451401094877541;-0.03891156562257973;-0.07204949505992891;0.028424467977722766;-0.004519822923004198;-0.04899512253262247;-0.0664066827276229;0.042240662429604975;0.07627223214778538;-0.030328773245281587;-0.009050836428779959;-0.01870575153379234;-0.01827667687040688;-0.08553899108219079;-2.4557024524903475E-4;0.06661606260735937;-2.642181783559235E-4;0.06694930372419068;-0.025026399030913114;0.025288566086131087;-1.1330706739497329E-4;-0.0773233753685951;-0.030408153116223077;0.050762925452635055;-0.048827690080683175;-0.08510822823758984;-0.010462480310012729;-0.05231149917777236;0.062425748637351564;-0.059478693621875786;0.015168367548665806;0.044463484954718316;-0.08544360849491107;0.10092007792748647;-0.04904135408988572;-0.05607400061942985;-0.030813995095478542;0.030369996742714678;-0.061144179600445436;0.0466239844924131;-0.05570683687919275;0.024185856004467217;-0.0019641118540992407;0.07389559680900766;-0.09805725107672857;-0.027758863918403733;-0.02718818573595674;0.0124562469058276;7.051499339602341E-4;0.08859905175866267;0.06741792368843325;0.0387158207308961;0.02204786430096195;-0.015505086042019932;-0.0922922923768825;-0.039398230070411114;0.06076347044259821;-0.06496483827057468;-0.08000484611479969;-0.09278882797875308;0.01786014124779473;-0.09100677578581798;0.021422332664492935;-0.05607593361632774;0.03088134601072404;-0.07189667262265509;0.07786140094229155;-0.005176487653564348;-0.0992290815252083;-0.05796372279851329;-0.03787583174590265;0.01922366364235825;-0.08679296979241709;0.06661079289342745;-0.07246539383888133;-0.011947103332255418;0.034130655529419976;-0.08918094765644494;-3.816894572270637E-4;-0.05086314448640371;0.0700649766735583;-0.009337341957648106;0.08980167430183295;0.03366507296070088;0.06974001823362713;-0.0909736488021595;-0.07005994866564821;0.013987254520315143;0.09911921847457442;-0.08233631712963609;0.08614280382820731;-0.004583510105543595;0.01708353169808476;-0.08131876394881925;0.040862998000381595;0.012207475639964922;0.047386289835132225;0.032847026535566946;-0.06578476830083842;0.01693479199268652;-0.013895359940722949;-0.01461905862122658;-0.04372692695470978;0.09184869685165349;-0.002986056751545482;-0.06522122263327654;-0.05699464509596685;-0.06407187602009339;-0.06670019674870085;-0.09585418135583917;-0.05762935185806121;0.06190500762889448;-0.08960223676818652;-0.0888343263612174;-0.07570448817498726;-0.06535558392460541;0.05358568880098367;-0.04477888964548388;0.02637730455392171;-0.05714458424678627;-0.03245710382176896;0.07120223390255984;-0.021947776319525398;0.028110012713061048;-0.037768288376062664;-0.035227233713268025;-0.06267783032704193;-0.08617361823204607;-0.08865726156617457;0.03814297689246127;-0.07906324920774205;-0.05728705616874263;0.029069285930199317;0.02708452420118805;0.02796611065712005;-0.09958581589706497;-0.04405556098327915;0.029710205467751022;0.08706800105352705;0.052955481110060806;-0.03730308588424009;-0.06482202205687497;0.07198030046703276;-0.025606554570505806;-0.013444137228106631;0.05991625949843445;-0.05943056707843054;-0.0207512572994818;0.06335773668089145;-0.024652003231948737;0.06422256721496489;0.06797091654807536;-0.03906577063295616;-0.04506758909680269;0.09652071743303697;0.07868637676835186;-0.08817363288503949;0.07363145488379108;0.037876478043254114;0.08211688246348955;0.07429148592051338;-0.061768457224046336;0.09807600353413201;0.0015930452724118582;0.022407886355859552;0.041136776657740404;0.005427313787578811;-0.031095038352856097;-0.09097416461064592;0.02383573340859077;0.007635426793234409;0.0055521898491452115;-0.05298242681579515;-0.04184854041294564;-0.046947682236590765;-0.09600624027180345;0.09052732287735951;0.027491475249213332;-0.028073062147331893;-0.09110181153824842;-0.0837787383846266;0.008097777767105005;-0.042344787984211756;-0.0016065484091953158;-0.09546243688414868;-0.04970316627378453;0.04803003686571744;-0.03468299826052522;-0.07906364619784592;0.05974957678343759;-0.09350871252777129;0.09846576349273115;0.09714974046367922;-0.021298573613345112;0.0033758003187173563;0.06384614019504817;-0.08756819784664567;0.06723226179084163;0.09716739202178457;-0.014076006073029945;0.08000789351484247;0.07200416079908475;-0.09966110706085429;0.0027373491743289957;0.05812642540095747;-0.057573100138163746;-0.03049808484308457;-0.08273830789519593;-0.061075442588477837;0.05943415252615572;-0.04296707647880467;-0.07000814525534504;-0.05150352544382297;0.0916890601314346;0.0698671590540034;-0.06816170492563052;0.05743096979478132;-0.06483810081481459;0.02505949238082622;0.006643598093484054;-0.08793851861655172;0.044380065064896695;-0.018965583626829208;-0.03756751961593583;-0.03428393236429653;-0.03632190553709316;0.06883605965274162;0.06266178573348832;0.009967420426661988;0.05844764312779491;-0.07662182970670413;-0.04252950732183913;-0.0941171421644199;0.046387502348789855;0.014694138265517284;0.014929701185599262;-0.08472567129066391;-0.07124641436214206;-0.020813026821593292;0.05229264615861126;0.031948408285213864;-0.07839105180565549;-0.049120685196772845;0.06724468411738221;-0.08704369724561625;-0.012926247274564623;0.09266343763698451;-0.030846693296347635;0.009843844884686342;-0.0770781115691692;-0.004124016537838199;-0.021539970574207826;0.04520997530418783;0.07303016506849971;0.027503173435056344;0.09060583817558165;0.02983160968054438;-0.09128090888423118;0.03878686006939017;0.07287453145601883;-0.0601099189503759;-0.07903660164730207;-0.03299389692563014;-0.042322388193571904;0.001757462347826963;0.07892385842477845;-0.07706151005927658;0.046237621305602605;0.005929362907807989;0.011197276230543188;-0.027889840869367882;0.08983812899894958;0.08827493078678378;-0.012933504769894924;-0.08395423633698207;0.07107374514772549;-0.08871315980632247;0.09775039083276674;0.07351850324417239;-0.014899882403121706;0.04533131169881929;0.03765387570555931;0.061800114675133994;0.020883925162657024;-0.050101900338909204;0.08561789912131662;-0.02208913774093417;-0.05754712003908183;-0.045149517364696815;0.08616944034628476;-0.02013044496927703;0.0701457297354322;0.0416752865621291;0.030771519909125467;0.06794352822313349;0.06186226614665444;0.02473286325455107;0.039073187028061146;0.06514140048470934;-0.06569940057072507;-0.02315679109790085;-0.013463477686771558;0.06894044696487323;-0.042936987261596476;-0.025327848438520165;-0.05273628363711998;-0.039314267935557506;0.06741892778395689;0.04051350405540283;0.07518213953688532;-0.06195072852106287;0.06405659779912432;-0.09897512920158776;0.0018718826815123102;-0.035513245360081755;-0.08073954649829018;0.06427254637893695;-0.05186577241474508;4.8758653137186136E-4;0.010161124048889872;0.050981518632655015;-0.04475835292803498;0.034824843079357515;-0.05001457181035092;0.025785471715858044;-0.08381219490601516;-0.08419469597230492;0.019306377338144554;0.02847677427765477;0.006937565765975928;-0.017480567830528468;-0.0027068273133939724;0.005256485513567569;-0.08232303336403879;0.0960913853611019;-0.007038791721299703;0.03998436121912921;0.08406324858077963;0.0709290136352295;0.07642206812243127;-0.014571152077449231;-0.08152515304147825;-0.09402614070614189;-0.08986647669696007;0.09451707999762154;0.04126137680050079;0.015951151041019823;0.07989293761341903;-0.006724377737059722;0.062063363718058734;-0.09968879338384183;-0.050614614235085;0.09991765195086325;-0.08233410418415409;-0.026719044937588185;-0.024020238549650408;0.01112462939891623;-0.01829110667910054;-0.04625125979344533;-0.09441870144782341;-0.018930999975416363;-0.0532898502134789;-0.04734419765946829;0.09763283411281606;0.09777330367416695;-0.040649964477016076;-0.04458152339579984;0.006364788311218866;-0.03563981857856047;-0.09827846878172292;-0.09682178531485451;0.06204519212314738;-0.01969762657439525;0.07258021387513519;-0.025948459046611833;-0.04777033866272473;0.022672710828789563;0.06859424870853165;0.06438009204259307;-0.09698857876476386;-0.07260587148483631;0.06559441084549483;0.06998060278709856;-0.0397287074713476;-0.029510342991566615;0.09982406232144045;-0.032605101880589876;0.07092768623686116;-0.05066757668996833;-0.05081082622001261;0.09513990582931978;-0.035813380573734274;0.06389565173730857;0.014508298489058172;0.034957654421863826;0.03279170114736479;-0.016867893318674443;0.013091117570259006;-0.0383249887800434;0.028556265215084503;0.09770744252758487;0.045732495634512815;0.06035430732960245;0.0690585084616965;-0.022106500415649696;0.020426773374157436;-0.08314255307928589;-0.05671492011585595;0.011134699544029791;0.05673811767636905;0.04107147518356319;0.059649030868714925;0.06257322564667384;0.08474096705753328;0.08620619815757191;-0.0973013311687468;0.006299006381830424;-0.02372999655582883;-0.0199558216459029;-0.03563244417982454;0.05659972899272253;0.07617016269688437;0.05619072441874953;0.07522450115902238;0.09921083509903172;-0.06645336678662889;-0.014676089403964254;-0.06427641908889942;0.022565522280146827;0.03301486645237156;-0.09355544850948368;0.047454109660408667;0.049044730757250965;-0.07404944532494213;-0.041873778468552336;0.044390665936743345;0.06622716583819563;-0.03826034362985906;0.00976525655603036;0.024143081878019057;-0.041860712420179996;0.019028376975492783;-0.007169265468968081;0.07920643587281953;-0.06349469954972933;0.010613811887223296;0.04808706975214411;0.09143174752553537;0.07951070788114942;-0.08907631470108907;-0.05308133341737547;-0.019290484012347148;-0.02680015355131833;0.055113144358151844;0.09552916726686864;-0.06317345552867012;-0.003968328615142999;-0.06742617234292922;0.08244655927484726;-0.04122470068722011;-0.08120874435464605;0.09721152836793054;-0.09397451178102181;6.874055727398992E-4;0.012715328512218876;-0.05130379448786502;-0.044302730876870935;-0.046916347654991024;0.03074228090240458;-0.08628801967192888;-0.006780129130469367;0.024123989124290285;-0.011237841244619906;0.027207126678486543;-0.0660720755124526;-0.07914248080619923;-0.053133322717633935;-0.08635592066073972;0.0279827195215199;0.030472516854738813;-0.009400797566984503;-0.03175055771182618;0.04162220337883857;0.0015464029325004958;0.012204768124881332;-0.06173603280864046;0.03841098961871492;-0.07470423203338827;0.09188006069032961;-0.09580742340676712;-0.03950965164044112;-0.08317364036212652;0.07902343312577467;0.06105434836340534;0.023116372893448377;0.03823641768966649;-0.0822076745611504;-0.03803277097696118;0.06941190178096893;-0.003756879593620636;-0.011774062441048058;0.08387742477779701;-0.008100735382968446;0.04002293356770945;0.09786116491640554;-0.028049783190244846;-0.029957829333454526;-0.053427089530551426;-0.08840941168015694;-0.08412376528967459;-0.08829462821393518;0.08090832293100436;-0.060411226995398144;-0.08610064467603275;0.08823991895243871;0.02763669362879052;-0.029550607608787405;0.09577527384617399;-0.036799422192233054;0.02173003079513211;-0.09976260257624613;-0.0410845864079387;0.02194082621142233;-0.020040260999267565;-0.034698327131859795;-0.0025454668095530666;0.008532368341683087;-0.06784509095273443;-0.029621089019566477;-0.06563292479268427;-0.04869535355482058;0.05238608119374647;-0.07288359466423273;-0.047150605570733736;-0.00263133273396268;0.0905422540872269;0.07553308353955207;-0.0727925966355779;0.04115661096674376;0.002877166524558949;-0.07557646727372531;0.053933640512850684;-0.04061097603517574;0.09560578109472799;0.007767988649362873;0.022025851008148176;0.051854878190422;0.009206051272227685;-0.03431059409271375;0.03511608883818027;0.08408205972262395;-0.03148294362634334;0.015820135336719703;0.010975597324004216;0.02829935019676442;-0.007246874308383471;0.05538915743967216;-0.0760866111296618;-0.01928123933649346;-0.017140564226968334;-0.058273111256170865;-0.032073470353219925;-0.08016729892230333;-0.002314362590121196;-0.047533982038289874;0.042577591664824666;0.0011996376450837377;-0.0581072738201153;0.08469705900636709;0.029100528549890495;0.03551305324939551;0.04888284287641744;-0.06869232303518073;0.0765036730507868;-0.03373409800373286;-0.052602215181457294;-0.02878411235290336;0.07659603942768038;-0.03943003285060258;-0.03183633760419762;0.011376530837798804;-0.04293931518677544;0.07742576441837733;0.0038986743886337953;-0.06605601717003819;-0.048068709201943456;-0.045623820860955185;-0.006302963577875316;-0.08136849450912412;0.06741023903201383;0.09548970758174198;0.005541634429537136;0.07491414615116798;0.09461416199564464;0.0685106353823021;0.039838242686304405;-0.08340428639950721;-6.566835543815994E-4;-0.015489510894490388;0.04338530716633722;0.007224216617630165;0.012963039832313056;0.04984713099299159;-0.01934845188151492;-0.09177597152058801;0.05049373559434001;-0.019836807950105725;0.04849716924401402;-0.04070738145984177;0.020126935290712775;0.018195668764830197;-0.09765225889555085;-0.0033177391559489912;0.06424535030613218;0.08686826004662002;0.08371587111899964;-0.09395243141884098;-0.01874299038037404;0.09043198584406141;-0.0862411857495336;-0.08539211845401562;-0.09711140067890323;-0.09279073722145169;0.02923984701894608;-0.02252508150593895;0.061411855439497245;0.018708298534973435;-0.08373624293761651;0.06978529876638442;0.06734605813875147;-0.03632415617577687;0.03430708071309058;-0.0930942717670302;-0.08213619999091544;-0.03557463882394081;-0.044400923771689374;-0.07476863523627461;0.022532241825378937;-0.07738682118425969;0.08484910941300526;-0.02938159939021305;0.07399902891776046;0.02806029058236574;-0.061822964611432475;-0.08878005792691175;-0.09106469704143576;0.09679670447689344;0.07806332746797473;-0.04983598927160595;0.021397634888968946;-0.07988183828224167;-0.049515417548023466;0.018138466184202645;0.06665151579909717;0.02562646750771081;0.021116655594341803;-0.0646121198971287;7.216271855824965E-4;-0.04227123322919558;0.054668705362603785;-0.07163333523346911;0.07487954452032822;0.03640136468962118;0.0974945698698818;-0.033148403067974556;0.05338004466020554;-0.095493659202501;0.04513450080486536;0.06068368509227176;0.08124587265097451;0.0682377530483692;0.09359224734346296;0.06488948783573475;0.012730815241730255;0.03898002669986471;-0.016876175778549732;0.06745180899720193;0.08333794401036208;-0.06636770001854692;-0.03160472106660684;-0.04289910863148329;-0.03454726097597163;-0.07077344787168806;0.001199923556317345;0.007719640575909212;0.04973939271882206;0.06518268241181009;0.06867385630086602;0.04623891940541349;-0.04741573998386047;0.05394170370398004;0.02824358705301061;-0.009631787698309201;0.03602140425437371;0.03696527911988062;0.03173536192816273;0.05163635932856854;0.09394587708635285;-0.05361982728214917;0.033220905210071976;0.022893935588470526;-0.04237309964951201;0.03389943266395882;0.019414930937372205;0.009305698396932715;0.03658162812641246;0.03184495868176267;0.05430112377998345;-0.040447989358233676;-0.04479384049624474;-0.07740818540608756;-0.07421978071859404;-0.055218119655371295;-0.07157710958014878;0.0763556418290743;0.06918293599336406;-0.04440477416079554;0.023219375208959163;-0.06570723216738751;0.005545859282720878;-0.021563908701578215;-0.030594525576976932;-0.029769706642810544;0.09644858084161383;-0.04105198346885367;0.015415779583559898;0.07363459456774253;0.05786942756653812;0.09359579006188312;-0.05567935745862483;-0.05770475941551282;-0.035559862980551575;0.035010946668664486;0.10047058114230145;-0.0361070559953996;0.01931303524161028;-0.06406127424966343;0.03225019123719996;0.06952227196134049;0.025914243397912075;-0.019495207878060736;0.0938281823150674;0.024060062496177165;-0.010162400945664177;0.046052419538424226;0.08289391758690869;0.09246050564204804;-0.056945023622519575;-0.08058363078238814;0.06096728733351917;-0.0524156972723975;0.0755321673874888;0.01941908934310224;0.09822476663080262;0.016551011529447338;0.0974919483439147;0.05809882909241603;0.04609040321840701;-0.01993845288615007;0.06141901882379271;0.041914769336097994;-0.051588310371114186;-0.07359398788588366;0.008521708021144587;-0.05822012960510949;0.055843515694735474;0.08015438985563703;0.01403357407585351;-0.08126749576723584;0.0896615748413405;0.079947236351518;0.020770788538805096;-0.0844718201120904;-0.02037644623326525;0.07820400534204394;-0.03946902706244058;0.05931002635039437;0.052078154822337255;0.002268468936132787;0.09773144629321308;0.11792985922971068;0.06059018319282533;0.011172626638703284;-0.03828084671012781;0.07618486635542422;0.08700938400650186;0.033007013582547505;0.08583895431163338;0.07077357884352402;0.0010575762020150921;0.0093247027007031;-0.05511602092654578;0.08693018930118768;-0.04269679165744982;-0.09161172850082516;0.006456271992289495;-0.06518354088973402;0.003955178224425376;0.05890121019772562;0.01401956958687818;0.008372956108163607;0.004448545688050363;-0.036371578504501005;0.045999952453232955;0.04413224586122629;-0.08283592648531324;0.0272828605571577;0.06771356017552725;0.007547624633242737;-0.09475913916841357;0.02644269375098697;-0.002429329630364812;-0.006837200466787559;0.028773641743534785;-0.06965576661197284;0.0029964897492319336;0.0588710672264974;0.07111644685240222;0.0466625724586203;-0.09729132945735655;-0.033373701055532515;-0.066415624296893;0.0015063564095659124;0.06595639450285365;-0.05061202749280275;0.06591378893952389;-0.049538410376280435;0.006160418554069416;0.07321264305759213;-0.034319511940553465;-0.056831627376477296;-0.09208113459663368;0.022524594054657707;-0.06931308426521682;0.06818318780809479;0.05462401781888545;-0.054006690068412126;-0.06625800177018029;-0.03831557507793442;0.016196709469371955;-0.093462858535284;-0.06224218091980153;0.07794469093639633;0.03788315341976385;-0.02093023267597003;-3.505390326039902E-4;-0.0905841255549123;0.031924633558131466;0.015807251992499466;0.014387557799611473;-0.06172445767965445;-0.03971832370882427;0.07968730769648719;0.016729571917333062;-0.020695887150380465;-0.10071411741424764;0.05729731609368801;-0.04728071528885448;0.0976585671275001;-0.03437094754907742;-0.0696587787584502;0.05798269244493618;-0.05337520705240293;0.10847707307825318;0.04497977091212247;0.08095059087197067;-0.09264782790079618;0.12198307547498377;-0.014969768418169892;-0.05199311568979938;0.03043523108361045;0.07890317468389105;-0.0825541724289714;0.05962653332815109;-0.010862668753531703;-0.020665633863902293;-0.0032053082650377;-0.06972451428582448;0.0069707246833285485;0.05864551515801614;0.06544491257032534;-0.08073140149049825;0.10030611461708265;-0.006817408869751576;-0.049383519139369135;-0.07830559895504152;-0.06458001035772543;0.06349201267861937;-0.06609112624638282;-0.02397688377365911;0.08431536489432868;0.003583628447483511;0.04209801223663719;0.023229663701666684;-0.024214491626073812;0.08694578736021108;0.06279898575742099;0.09680641011831365;-0.08666401985212074;-0.09658041754138579;0.0941983033568564;-0.04547081866066183;0.03210150311846801;-0.07099420823940046;0.03563019750015603;-0.09054782693288083;-0.022377052812532234;0.005329664654990079;-0.11297766876015282;-0.03214010451955208;-0.06630611017235014;-0.10327514118767515;-0.06198531079863282;-0.054961750455838974;-0.05042442434121356;0.05387754595011612;0.07280122968059913;0.06875947968147633;0.08903797126871892;0.05676328921679865;-0.08780610857223908;0.00928681683382229;-0.011386978217216005;0.00717437522572157;-0.006240301426864688;-0.07363187895562084;0.06207733321867572;0.03744015930623937;0.011182947272039164;0.08066674541447084;0.0745779326738634;-0.07292255480844062;0.004493208352148284;0.07783085719104288;0.02723908834549458;-0.012155465165513633;0.03210389665959145;0.09793787506502097;-0.10721574401590352;-0.08625980867732377;-0.05446449886142856;0.09970197444935043;-0.05024509459950218;0.024467950134589963;-0.08827891932245409;-0.018648637154215143;0.07124067924282175;-0.07975327054976204;-0.04131952926686609;0.058979169069632964;0.01217567234819972;-0.1229013414426185;0.08337628421354064;0.01743601211891048;0.09498404013019172;-0.11134285400458169;-0.06396364972529223;-0.07526058822913408;-0.011358865023988822;0.01701086278259701;-0.10388073311362578;-0.003730537431827253;0.0668674580782201;0.006558117088575519;0.006141121489234876;-0.04649794966133284;0.05269885409442463;-0.04090822176145688;-0.042655011328067094;-0.08243516291588089;0.09143349442111426;-0.03852022457325813;0.039649606435324294;0.09367520480323359;0.10167324210767498;-0.0201467174846003;-0.019029817203224997;0.07584809019700726;-0.04979309441711559;-0.001573489412471315;-0.0894975041939573;0.0036456198619370748;0.014502412629619809;0.030384672892968676;0.08123205302940197;-0.0861035179252991;-0.026509760985064697;0.013698350849852303;-0.09295351143345619;0.10663410184172159;0.04983514542826967;-0.017447703665570413;0.12684553889760472;-0.02432508666722353;-0.09167770787776595;-0.028387026205707135;0.0643449136477891;-0.09148356140355107;0.06969017207437678;-0.09232982721730687;0.02587321904591482;0.030426839510605364;-0.08436270275386117;0.07798523031204697;0.08850752473733156;0.07305174982865206;-0.027424729913376127;-0.08312112833028866;-0.04806429395729161;-0.017143750504866145;0.0020607717381203165;0.08986460194994506;-0.08537352902018584;0.09068707375417653;0.05903132171768412;-0.08090714446747117;-0.00590083591386038;-0.07943046281140372;0.10536334297803186;-0.028426035547932906;-0.08331076508027443;0.035490395062099216;-0.05721620165159396;-0.0638920695965824;-0.09808468830846657;0.0786976790611044;0.008854639488440485;0.022363622983390348;0.03934010068235221;-0.002416481792228481;0.08274041164905427;0.030364222940107134;0.00910471497014952;0.10210438679768628;-0.021727122732515092;0.07245634714218398;-0.03708278643108218;0.06374251433695645;-0.01338485363999716;-0.04016489250059169;-0.08510031296619601;0.025661956036780745;0.08357088563384227;0.026727278397221024;0.011687197723349259;0.06728787262062944;-0.02126181188377433;-0.09268992793105509;-0.012559481238023206;-0.016355498948893755;0.06679002528181159;0.00934446744700206;0.10182359303958971;-0.047792583287009235;0.003183910415074157;-0.018301756803906218;0.011256956523596928;-0.04111507558120502;0.06149106720609974;-0.1034574408363163;-0.09911754483455325;0.06494296277923887;0.055576827150547;-0.08446634675809267;-0.09360505243914773;9.0819503217383E-4;-0.0882434075765797;0.03388366070763347;0.027624221412864535;0.06813964797361835;0.047367400428391326;0.09390959719320952;-0.004595751901830548;0.07399904650868341;-0.020438568539355658;0.09578096825171563;-0.048866531386409305;-0.008825338988657663;0.051968445029441715;0.07584625420476199;-0.006958993913489164;-0.04317520254506431;0.07176580293939537;0.08327272132453487;-0.08881586122692739;-0.0011753977881249992;-0.040887088871728657;0.09735768847081105;0.07490628734443461;-0.05653681182359336;-0.0162512795295781;-0.10479753042291406;-0.0029124644508271213;0.0642828929611544;0.06672010716470919;-0.0015751307616634663;-0.08934915716881386;-0.08389645254438627;-0.02309721848346287;0.09202279009907895;0.03337440677568473;0.06438518539234554;-0.0619926207992577;0.10308838984576646;0.03935291160669495;-0.08438650574926904;-0.018701660817119558;-0.004272394714793981;-0.00574749987182788;-0.011844809178317432;0.03664671684510601;-0.025499492831334243;0.02865489073941622;0.08912836912730678;-0.05682011831429696;-0.03374561793023493;-0.09698690545366465;6.22557713331892E-4;-0.04164657335899838;0.055245676168781385;-0.0355696641979808;-0.0010552746306992376;0.06619941799578694;-0.020069348151028944;-0.022427964647432425;-0.0919253995731774;0.06329363539973996;-0.018850896188035413;-0.0794159782495854;0.04672514380386211;0.08515603532920879;-0.06557357120614174;0.03905303016758593;-0.0931332416657562;0.09162712160510954;0.08416751078626836;0.04175972646185778;-0.07601308324969286;-0.05024827523860017;0.09834559739818256;-0.04681101321452975;-0.0666197886599698;0.029455639268475206;0.010993820073946371;-0.09772928037574113;-0.0686637858935722;-0.05787293322018079;-0.09274209164088112;0.06368172735676428;0.04724175920828193;-0.06469959150593783;-0.07185646233606503;-0.09050413784211504;0.03364935384848378;-0.043078685400691305;0.019559866030787878;0.009902581861096339;0.012912667173357529;-0.11229235858531945;-0.018544361331299043;-0.011239167398182094;0.0708901113046235;-0.012826891557987923;-0.09824375354171744;-0.019373499194430845;0.06484132275238427;-0.06778768342398353;-0.0331466709191209;0.06967432821739494;-0.026011651697652374;0.06954568842696093;0.11742936402205767;-0.053190827140998966;-0.008887446340730992;-0.07035706134155825;-0.03456925839996443;0.050200150514367506;-0.10906295301314874;0.001824200678544704;0.11458021691313723;-0.13188436094986436;-0.04812691162141446;-0.066624730122452;0.08572752233005523;0.0026746493392869456;-0.036369296782282824;0.10797686378842505;0.057407760347390285;0.09670243694478889;0.00770776352158219;0.07623136177276921;-0.06637635933631589;0.13186140050414222;-0.05314917464948636;-0.11007888351862252;-0.018286387176443677;-0.12183632623765646;-0.045199238198743004;0.06035239382607502;0.10611887745350455;0.06809959896669662;-0.018320610798189262;0.06380821855410575;-0.01654686209754105;0.01065811702809521;0.006387862452439455;0.04620523854556215;0.09232718657734451;0.06651307370128465;-0.05270991189799317;-0.0053016685590212675;-0.06764118902235079;0.09111265495138146;0.03605546945524081;-0.10532354634983414;-0.06378832873630558;-0.04473514853644655;0.0870572303025217;-0.06313998025376039;0.01821039810063363;-0.01606078419613316;-0.0031583224037384982;0.011559434173738352;0.024257766375113093;0.05975415363514228;0.060315007822430336;-0.06112826897364323;-0.15137180554702725;-0.03388577531050418;-0.20250715739612324;0.045527912572868735;0.06648300432089081;-0.07259181106844233;0.08633499541855957;0.044603147955063815;0.013108564731525597;0.0068467487002709234;-0.0838418431056751;0.02261105683376103;-0.07664784887901913;-0.042889143983967745;0.1841335673256824;0.03753293557481725;-0.06887253306730716;-0.07451099482424015;-0.18966453841391492;0.046746423700541787;-0.03604040696850821;-0.029715390581769106;-0.17156652854657367;-0.08101167627920429;0.033242251721392016;-0.05658047293720197;-0.07862285001837344;-0.09188859403144808;0.025691637749994563;0.06532159245903435;0.044102731066706126;0.005866050785981997;0.04809197835114349;0.03679818099170278;0.045284018202037625;0.07536724210017802;0.042305079447569345;-0.06747952145572199;-0.005303961296749665;-0.07482054625254395;-0.08502707936766553;0.0035907488938547744;0.272605483400639;5.133486875576498E-4;-0.038020895824735314;-0.0019423198621852397;-0.03984207774346728;0.009373359777356148;-0.012888510578706117;-0.06058260612603444;-0.10214664240006995;-0.06792849391084832;0.0725543117528397;0.009368611807302694;0.007083423202474118;-0.01011041209987268;0.0923532189876632;-0.06891695419804021;-0.09257495950625728;0.0753145542279441;-0.051799875963078404;-0.08898054019792782;0.0324919681999138;0.011841278611577922;0.07852493016472702;-0.05608774652202203;0.07609755197981494;-0.02011331521772252;-0.014457322052944472;0.07676189674008313;-0.029646323400667404;-0.1557988826188895;0.03536331065646778;-0.09785889101873531;0.09983947732446677;-0.09741750495974068;-0.13454336613653484;0.021067504283340227;0.03734826578515337;-0.037546142237563376;0.016035964256151582;0.029573556498157502;-0.03363774299040104;0.09142553344221008;0.12925351391964737;0.00605013478187583;-0.05714989395053879;0.05808891201203904;-0.0677282424257917;-0.09372881317137988;-0.0902813952434432;0.2519265920108629;0.028935137170873773;0.07887231259706791;-0.02199432920221278;0.053731361311262126;0.04614846989475839;0.05697127478770315;-0.2030932028915326;-0.11469656748936884;-0.06007051992598756;0.09197432165039816;-0.004843324207704053;-0.0408058147542169;-0.042666396416737466;0.012829007862730345;-0.00799630414656929;0.012244071361789356;0.05890331439562344;-0.09213787280097345;0.045711020844290844;0.0906700267212258;-0.05655577811265912;0.04751160231744759;0.016910522718870415;0.0012988604071190028;-0.11360491252059207;0.025079571017187774;-0.04842333689678054;0.04749923037252784;4.241240616591291E-5;-0.04606791784269196;-0.1338053715517823;0.07474292978889763;-0.08323370107265864;0.05866006522594202;-0.11307315878885603;-0.0022477418895389604;0.01595111065932736;0.023178003608873097;-0.026538958267022527;0.03743850213596105;-0.061281301171971184;-0.012877022386773454;0.054373278032803445;0.012204363602899856;0.05283117444811843;0.08213632381005569;-0.09834459250644671;0.06627075808636894;0.15010835904911474;-0.06921562650363182;-0.043748916961657135;0.10370889636197869;0.026273489524692505;0.04682238360332252;-0.03933858676252042;-0.1941465056250016;-0.10595322382437636;-0.06295515385179329;0.07401750224967932;0.029402571146190937;-0.04128429463258929;0.04497930789250513;-0.042828932359820646;0.06613280392352115;-0.09129386468704642;0.059144611407168264;-0.058580721184513115;-0.011259934266677039;-0.048038420929997064;-0.005471639664436134;0.023614230389749604;-0.0391936153339794;-0.0040831213996166335;-0.1077568706361779;-0.020711360631515397;0.03974233089675578;-0.09517401468841459;0.0025447048412201674;-0.0732527250451417;0.036589621433793074;0.05386834495330617;-0.0314899128783549;0.08499533790669404;0.08466061038281857;0.0699745088423345;-0.08193201508328364;-0.0077039777997081945;0.053910218112137955;0.10912201141572658;-0.07812620998111981;0.044582601245725134;-0.10642974741179963;-0.030015012265886935;0.040047401252993456;-0.055125355237944235;0.08111273087161591;-0.060310952403699575;0.16088896126278007;-0.09107918744831633;0.08507977472745858;-0.043704651843085994;-0.007777786326994418;0.08199116061994464;-0.002707988108046292;-0.15225109961505828;-0.04852933504639825;0.027511375936787732;-0.022507011665283874;0.06507421973729714;0.052804622326119995;0.039400654894025465;-0.03372533328374581;-0.02621421426569387;0.026453007732754122;0.018135380170983796;0.058840322376486474;0.08886313602896838;-0.015552434376876185;-0.08954085280656442;0.0418076811173736;0.07760728649603152;0.060127849070252544;0.07119876921421464;0.023722656716816712;-0.10326239922163762;0.0017654039733679715;0.07681722041999421;0.09636051156942513;0.015866030945908785;-0.033215821551736684;-0.014140339605340632;0.04110193147568377;0.04162853410128317;-0.044230893396033144;0.0633864727867992;0.04487979064124176;0.09049998119107806;-0.0025067899337201643;-0.024328462162950815;0.08255814707512521;-0.027895406322021102;0.01883539985125288;0.0696172823631362;0.07263895106992435;-0.0021917475302639516;0.04033021467856649;0.03520348115634309;-0.06388635635361911;0.0644010099649472;-0.0017096746556890434;0.014179814916821241;-0.047288514308789664;-0.05313021385449728;-0.17811941664598532;-0.05018364295425507;0.08000601270233607;-0.038692738969550465;0.04760242499934869;0.06781590604536565;0.008789039175861237;-0.03761324034054728;-0.0852179290040279;-0.00982795937359441;0.10106611019437425;-0.008901652107437099;-0.08837756162154148;-0.04137003310176699;0.0677291549106111;0.024530874622755067;-0.011213479859737445;-0.012756900388567723;0.1365957040451446;0.03133275301435941;-0.09198406917099367;-0.08637482678669109;-0.04058856623854062;-0.022691420740588195;0.07276721063228998;-0.021871661115884705;0.09088472983302552;0.11661555873274694;-0.07547438138450455;0.09264623678330658;-0.04456228703016381;-0.05335950249914363;0.019640058098172042;-0.04283274393096315;0.032995804735847116;-0.04901998492491474;0.059108094230890224;0.08385680220687701;0.05637665273187825;-0.051362459125879174;-0.06138388076340138;0.08904190616503942;5.579968819140746E-4;-0.09333134302920187;0.07567082285572155;0.07192738516279806;-0.04772308960746481;-0.08749953058112771;0.09187855352672555;0.027534034518259427;-0.00986993982796976;0.011427595462944634;-0.0036857462392113774;0.053778986811234844;0.0971968287314751;0.0913890386700444;0.09495604218209548;0.028703716279203075;-0.0542873641304373;0.022545066054918177;-0.0366609639020772;0.05635681697311034;0.07880504625138018;-0.08923860726086946;0.07726844466970015;-0.07549860440283868;0.06170572433184515;-0.012641736309915523;0.05979152213386782;0.059011382041719455;-0.06713407571649269;0.012722993347016105;0.0361101262322887;0.06915078412176504;-0.0069366140985508635;0.014493357598405905;0.05135678107453158;0.07639500039888163;-0.06634480194564536;0.0712807106505757;0.10276898351741284;0.08999157124851799;-0.07738472707753263;-0.03572801501470662;-0.003748220404103324;-0.06743574129498468;-0.014568447070888191;-0.04681075069859525;-0.10654343305994377;0.04743138231396232;-0.04978447978368612;-0.001382517484507911;-0.02501861450127038;0.07102352164400079;-0.06702297103337643;-0.09551880731843425;0.035596745753746675;0.05611304222047537;0.0011371796731921115;0.00584035898063251;-0.09078337816407893;0.08822869641901246;0.1012158475108193;0.08108301237708342;-0.046466364293516055;-0.09694973811216756;0.042463341548198114;0.08014086740304319;0.023880040335697017;0.023550121662101454;-0.016877288226260227;-0.035618478392552555;-0.045751007498841326;0.035062120883070765;0.07323135378719321;-0.08986200968524106;-0.05549175302407242;0.04446656016096354;0.014117765627908157;-0.07332206322396895;-0.04007754226790694;0.04445926420592083;1.8506888265856704E-4;0.07947259464832004;-0.042968619081781796;-0.013962607684651388;0.05562717632750934;-0.053179429033999;-0.06928346575752332;-0.08015361896795425;-0.08460396424648499;0.049444191768135776;-0.05616481019345989;0.0030969311949915084;0.07965145583776943;0.03183057925334526;-0.038940795642875774;-0.0775452855393869;-0.06905234038768275;-0.013831749029008213;0.04415785324052537;0.08147551606068025;-0.09571791715850042;-0.03199835558149334;0.05099293492418643;-0.049275096646597655;0.06447338423372533;-0.04433245920055104;-8.214773945885584E-5;-0.08424307371371646;-0.03388842730997592;-0.012951390815715615;-0.005335962694565961;-0.026765664878810175;-0.024183518301185394;0.061649795435657864;-0.0780710252232242;-0.035851272277068136;0.04562118562496334;-0.08133146430072166;0.08071665084017225;-0.060558201472887964;0.032101911009280094;0.09575545498555707;0.016174035736191205;0.06144273755051197;-0.08014827968126133;-0.10050613216796549;-0.08493591741529906;-0.05617497898038871;0.02700564000018953;0.030760589405490882;-0.041099737847506396;0.08707640714418631;-0.033171741154385516;-0.09362405840843134;-0.0574030282880307;0.004634839595418174;0.035507753827139034;0.09722520894466899;0.022588955330796797;0.050469762738679584;0.00472257075665034;0.0760509890142674;-0.08551718592968136;-0.03319795083130613;0.08582215197679723;0.0013500035081033842;0.07211268391757546;0.08115020503839097;-0.08135562493146917;-0.08447692579243209;0.06836495878148098;0.08308859789801216;-0.050666557365541674;-0.088864548313326;-0.025996640042238454;0.01634955710069481;-0.06956035898343486;-0.06169005056920331;-0.013354956884160397;-0.07867663845375042;-0.04011624682914199;-0.033640933643662364;0.047842164048568656;-0.026512154849304432;-0.0823789454815708;0.022057511266151852;0.0862950568910084;0.07571241089422577;-0.04523920689793798;-0.05791640970714766;0.08881987478171244;0.07908241124038158;-0.047900110526834815;0.050505467783102706;0.08711145718200128;0.03717676683461297;-0.04957066253188637;-0.010090598803754952;-0.009479024976668023;0.03933075603095464;-0.01646789998582448;-0.04714960278651004;0.013978651728709608;0.040191986923612366;-0.0923189413382906;-0.08750022302111123;-0.08740123282680037;0.08915401909592789;0.03331225890900956;0.054417339502355014;0.011147882050714214;-0.03470625423658;-0.042390740780935174;0.007939272125141983;0.035960862649757466;0.005547378975705334;-0.006206744466509286;0.07694074383802635;-0.05438737030823066;-0.06084955176505687;0.003967781827409254;0.07119109205518852;-0.03725063101851518;-0.08470228544642097;0.02900417656346985;-0.09613444047773141;-0.014421988563484908;-0.034971704280104904;-0.030807928259486195;-0.06840340521017355;-0.0538890046628078;0.09964282915769496;0.08374085213963195;0.08510404510364364;0.05499689906429811;0.05757097732540714;-0.0029073484089383594;0.024077165574346887;-0.079671079694507;-0.03711201737042316;-0.03311710114983822;0.007289698779934392;-0.08040278910225673;0.07937856493240278;-0.03923101232849471;-0.026150154198356687;0.08093891342829856;0.09178691344923076;-0.06231970447153708;0.02445028196330154;-0.03561186772944032;-0.01293330645279138;-0.07093183342999974;-0.09738183935024979;-0.056874047696337485;-0.06436895837698808;-0.07984408158066765;0.07596509924387274;0.08473042186927476;-0.02739743405896569;-0.06881116890881485;0.017437197846178656;0.03242657149117972;0.0790633474715779;0.09868418061254047;0.08656502223160045;0.08633639683207314;0.06330494370927567;-0.043318801862425094;0.01071361660861285;0.08472887443291488;0.0420783835508175;-0.08200891133275633;-0.03366751044373799;-0.04775650304464634;0.042317019253612864;0.09307313388612298;0.06259966564713354;0.06899712223290458;0.041483409965865914;0.0566548394841562;0.059903354341316745;0.07199001976904287;-0.01922524776851668;0.018102309142597278;0.021844537256452856;-0.01690116050266821;-0.02145708761629532;-0.012054238503342932;0.09683489515498678;-0.015680153201299826;-0.003928112499891556;-0.09753997453992831;0.04184323735509421;-0.05098104909321919;-0.031172204935068712;-0.04508542838932679;-0.04635450562676682;-0.02681831735069895;-0.062291110546522394;-0.07317650410775534;7.47373887860503E-5;-0.09333679800820449;-0.019704451385793173;-0.08080447582199946;-0.048728838054085816;0.08443829664062238;-0.057899712427089356;0.08378401087360315;-0.08906791046319339;0.057851386606443955;-0.03218226382589649;-0.045663062479821576;0.047561975145392676;-0.07413347719275734;0.03257467046659343;-0.022153082642203087;-0.07427760607057068;0.0663173737504085;0.07317997852394345;0.04580118796802515;0.03728206664560735;0.06715725095784505;0.09101154161845589;0.07965354871862891;0.0033804760623127707;0.003140350523822357;-0.04659423720470819;0.05637297694116932;-0.021473721500873198;0.025369654198546757;0.06255098743424117;0.0731019808745922;0.06010261181443086;-0.010953640322757516;0.07088236634566361;0.08752174980781441;0.061764569495823776;-0.040130799854922475;-0.05368381542991046;0.07132249777655282;-0.09491820410561173;0.011086172118428024;-0.03940289293701696;-0.008170912508616032;0.0039400360668940225;-2.0344081843979891E-4;0.06611917895296149;-0.00722775867319232;0.04316948234064254;-0.04852978992743285;0.07420962293237128;-0.02362254887494572;-0.038485919310142884;0.03974539476628545;0.044660392239429435;-0.017051794636653107;-0.07029505386756622;-0.03250309984965418;0.05976677317238949;-0.026342623974212723;-0.061214864529237197;-0.050421456223648055;0.009247324719109063;0.011680291965726602;-0.028125423925648103;0.09260704737309988;-0.03143924291677158;0.04242075323977895;-0.00516558523184918;-0.023424218355976686;-0.01572536179681506;0.0314676636390723;0.0365667219398611;-0.05540412538368477;0.009622378980642776;0.05569717233544193;0.07365644844048469;0.03502937438916972;-0.09311957483417024;-0.048062428464601833;0.01042170470705128;0.024158675097799356;0.03733487117546886;-0.05575911397902715;-0.07518863820562573;-0.01135053162322813;0.04919355406811335;-0.05593225507857579;-0.07613362457046122;-0.08044121489253751;0.03229930478585997;0.02393597594652657;-0.009941274643578512;0.04117913901975986;-0.04309931355277698;0.023302582635242076;0.011288719835137616;-0.0651290441606416;-0.06974429835534757;0.04968459931965409;0.02234737856086342;0.07162851654544315;2.9047074375874223E-4;0.029615787760300275;-0.021800333693972485;-0.10594793696326404;-0.025075094633186988;-0.030481253954677826;0.0635601966815029;-0.08976850692391299;-0.09086847893875637;0.07858096530209703;0.10189239382276398;0.021729878310759197;0.08563363356479269;0.024815554935219378;-0.09064768368516413;-0.021287304236545897;0.04158991665305464;0.009979770348077371;0.06837318953387636;-0.08139824478846687;0.018526599727640466;0.01552977893938021;0.03793096842963473;-0.059930178383371856;-0.02437350603001364;0.08968541602146178;-0.11680967675172262;-0.051395159344588076;0.0965673622242611;-0.14470774063299102;-0.0622930750975519;0.011100700287070664;-0.003114538743378362;0.054873472724535334;0.014781723201587242;-0.05150456163117192;-0.045517004666109466;0.010683635412040376;-0.039468210517636854;-0.0044041866125235415;0.021263925586361743;0.0660986212798793;0.09514860685566899;0.02682577317847331;-0.08396220926706353;-0.0858489305476394;0.02537025374220299;0.03994642005574255;0.049484884916164595;-0.00725946439711577;0.060079521101523876;0.09259079567913506;-0.12406726685287711;-0.09467667171143523;0.0569345285838567;-0.05939622383829789;0.0027144239764505724;-0.04663091440224582;0.14119503609976455;0.07956961400421714;-0.11172902993306658;-0.04167931458446821;-0.009565996965861594;0.029843550945907557;0.04423442237232358;-0.036731773764141266;-0.030473311399931265;-0.02190306170182637;0.03967465910477331;-0.01588044355518863;0.04844520584275635;-0.004606089351999652;0.011154383932586939;0.14431354595948162;-0.024890512137911328;-0.10205727239607826;-0.07017786423426567;-0.07375307037899616;-0.26198934463755597;0.005035455255012236;-0.0538943132234559;-0.047968119332836325;-0.08839874433109446;-0.07552988774141615;-0.058764461391546445;-0.05873819565665639;-0.05022697977931615;-0.08598923961351179;-0.10768953839601847;0.11900292749263493;0.043029018350931446;0.02356266519340592;0.11270493693764573;-0.13048782640795964;0.10022806268855632;-0.06398932820536689;0.03350330744741794;0.1680085601525567;0.024784381441487632;-0.05006649622171;0.04558609119701272;-0.02907674687957367;0.03722260948870251;0.16511709164342786;-0.04907990134742006;-0.007748117631103656;0.03771050342822716;0.034889825144956914;0.32119315324099845;-0.2620037398811212;-0.017998474851577358;-0.020273246309011624;-0.08087342632113398;0.04238248427121506;0.04209506062259156;0.08161342621176694;-0.04034495496078319;-0.04751160941725942;0.04219260424444016;0.1486442692228165;0.09438731152792407;0.04279840948613049;0.09294947449950533;0.09257192248687;-0.09899329273787469;0.037086509219628465;-0.03929369330522873;-0.18738192901152115;-0.055502037070708436;-0.03968008130643058;0.02962173154337646;-0.10353520672480271;-0.03635140997561156;0.054027457335059155;-0.025067516827538775;0.041001204508773224;-0.28258697324024024;0.03636187236199342;0.1239379243601852;0.07229165817229873;0.18096619454169385;-0.01042102053645754;-0.12068323111540284;-0.049354143717803875;-0.06589890708100905;0.12415400622478362;0.24352011163454895;-0.0739309460794731;-0.07693159031924462;0.12254171209179729;-0.19437442584734546;0.03448952386272262;-0.02025121263289582;-0.07391848841309154;0.03157592605734701;0.05432949087708764;0.03709078489760626;0.2595103759256743;-0.2964782392040375;0.06863909130812487;-0.12001680808544367;-0.10084492641827442;0.02250686884398077;0.024531554840293013;0.09901799385929048;-0.04835859687155923;0.14992503403138116;0.010644780869569496;0.05707847043811621;-0.04531758080823563;-0.03210559508893673;0.14628688323069022;-0.030675291346299212;0.03256842341171726;0.0994089510197814;-0.021067343283146925;-0.1629249028001481;-0.006251248761022275;0.05013238855608199;0.05726916497097395;0.004646498321110619;-0.008526661265068548;-0.08996057572369674;0.006184020430447682;-0.009896949562765617;-0.28700569899998646;-0.0637277370958166;0.08162396378904202;0.007065487049054533;0.22809858205816638;-0.19892709620997545;0.04396787938068233;0.07651871043025564;-0.011319304826827041;0.12032642682792426;0.26629806757614666;0.09154804114495621;-0.09044064584012387;0.025217035174821583;-0.13492571257841596;-0.05905712435001056;0.06256192808217667;9.8908873692385E-4;-0.028714277309441975;-0.022657378966999982;0.025505172683939342;0.10747552652436064;-0.1698081019735315;-0.06762709298079192;-0.17068791594209573;-0.027314570811316448;0.008792675792364707;-0.09264311281362314;0.032084007845530255;-0.11997742506657744;0.05046930874732774;0.02604447435333984;0.09050676517396705;-0.08529022568394377;0.04903647851210159;0.17907870342875865;-0.047050113035271526;0.06898513162897901;-0.0669108591338898;0.004112379094328116;-0.05049206510342405;0.03338271263988436;0.006725671117700258;0.0757808238721743;-0.03004261081681306;0.05882360397602562;-8.200833495486937E-4;-0.07275282252358786;-0.040731219351660665;-0.4334961242660614;0.05306423813889825;-0.11882524983601755;0.12805073948926646;0.07583514972898422;-0.23776846011043926;0.03249518729879985;0.007441048582843369;-0.14480802934242024;0.08966877886361584;0.1012792969913693;0.0969162682742081;-0.025330696923237795;0.08360731643085537;-0.1992801652993108;-0.0203624283547947;-0.0899028740414816;0.06247385598592486;0.05048778433101748;0.02669836902916248;0.17443346101547122;0.0561195927859991;0.024213412837472713;-0.03046672266657794;0.06345765134701864;0.031239066812118757;-0.013021666295679085;-0.1575813128645091;0.0020660866364882596;-0.14672305507621877;0.21580425673627449;0.18364427581337506;0.09032304027609157;-0.024413710044330888;0.05780079661619173;-0.03136838851021335;-0.02911152889688725;0.07993972696943212;-0.12576368237383007;-0.021678700091714295;0.10230535292265441;0.11076604138481765;0.1101146203343672;-0.04083882615031466;-0.18259158193044928;0.23164314791782237;-0.0823123246299346;0.01234063975087384;0.09487252504270402;-0.4412342917589153;0.047052868925570035;-0.12145366050269665;0.12042053989381578;0.21478830877781546;-0.27720335358595977;0.023101123694735482;0.0662856540376521;-0.04805161875344204;0.010168140294239427;-0.1695486385114743;0.20253083709961486;-0.019924078055384906;0.05166987910824442;-0.18909525849595482;0.017949224806011015;0.10904116649537925;0.14962083217875585;-0.06755866413722715;0.18496545132812128;0.4439320583429303;-0.18143188480399597;-0.06491942143032242;0.1417075861199543;0.0271115911999989;0.11348845422145042;0.08519465741144154;-0.23216711326185457;-0.1367877533295531;-0.1382603457274021;0.2562569392437281;0.17214705808899977;-0.1681793953730919;-0.1990307066695365;0.18220617580622825;0.03434737114777449;-0.0408775707626806;-0.0032598557158811862;-0.1744707141288415;0.039314140638552306;0.21264532255216329;0.0801331940193747;-0.10778555616281996;-0.0268827618525676;-0.09024992352536208;0.30411204793506097;0.06473777258889937;0.040069580786043134;0.0344587806599991;-0.4946158434110659;0.03371826827373904;-0.25474435642548343;0.2137855858507175;0.031678629544282084;-0.27601569746475946;-0.03493455163281769;0.2337699480511811;-0.11399961469510675;-0.07012345986571449;-0.10313448312423111;0.1368298125871247;0.06657203719582422;0.046508778517625214;-0.20882994305099697;-0.04487050044627307;0.03163662232822545;-0.03883782494887342;-0.11055778503997726;0.13794336834187573;0.3713302814829834;-0.18055422987781458;-0.02471825830956253;0.09453107181873377;-0.057861600522530914;0.03741927513605852;0.002567367317597124;-0.2764618918308141;-0.19285147504037783;-0.1451208442987714;0.10902372536914372;0.0718581304590686;-0.11625677838906548;-0.12877651040425153;0.13673740162519302;0.05007237562404318;-0.16867514703756933;0.1555007471818169;-0.23202040960575773;-0.08373468068801004;0.22088558812725256;0.06716579774922148;-0.25061811845640436;-0.0955243780174539;-0.18951762777319686;0.0763490389216288;-0.002527963731238724;-0.13300848771473275;-0.06676593954547198;-0.4510813946328627;0.13009208581353998;-0.20239322167631774;0.1642595721096541;0.024651184401607327;-0.014814678730800937;0.07884152518434408;0.20656919273498567;-0.2834588097661283;0.02450746851052;-0.31676515437925234;0.3232020183656702;0.10885838686698227;-0.004157837371237023;-0.11665021471330603;0.017828385884343694;0.18595698668999294;0.040001399816738455;0.023797348819596345;0.004509078285228974;0.014571810847236237;-0.2798847469527888;-0.09280576122037469;0.20942774665756478;-0.15723433320837832;0.04901939294224513;-0.05885270136327126;-0.48998929360453297;-0.05004249113368138;0.006043454835688239;0.056336519510595595;-0.01769912784934078;-0.09836919706232522;0.0068024909011060175;0.041905320018355584;0.09972780037479431;-0.012059060474943484;0.20965236032882753;-0.175453095776143;-0.08734443708259777;0.2217826122907127;0.012207750347090637;-0.24004683786003042;-0.07113638671441673;-0.15884103387603893;-0.17287557196072983;0.11227431797152122;-0.17504449211463302;-0.0067912075938245655;-0.16244473240668483;0.11929400237746532;0.09516286539317198;0.06424825706122334;-0.019745964774045523;0.05521846308685419;-0.09363447100097692;0.05794623698811797;-0.22026122250526872;0.10943003060183336;-0.21030865056819809;0.13401173225377247;-0.0063173708493090815;-0.052602053630056864;-0.17746701787558855;-0.18538238898929016;0.2453943711580114;0.1903743442197567;0.09517299357734942;0.17934760632339478;-0.127592218594348;-0.0625457775722898;0.06669963211969356;0.1261909242771459;-0.05075540313161233;-0.0881765347770672;-0.15433159803617963;-0.4011841766122283;0.21670962948138545;0.18296002157435598;0.08893097384313221;0.096633103274856;-0.2111384403474369;0.08937764075686674;0.1381398466802741;-0.01902762500175502;-0.024750973200909805;0.30018235101498963;-0.24558495395861496;-0.07423142039974841;0.21131276787515088;-0.026483201896160324;-0.21910588328381503;0.05079222857251202;-0.030174378308151156;-0.2547784995752487;0.05184081307686489;-0.16045240629261895;0.10344041221396598;0.03298906657704982;0.13627482682189165;0.43968229467636905;-0.007160322216762899;-0.038064128591947764;0.11763240371575766;-0.12741061999344747;-0.1155676630505421;-0.06714006610265952;-0.03435038165183993;-0.21562247842924465;0.00357151157980904;-0.08901566996178424;-0.04061917534691964;0.055080627009542006;0.02802231694275729;0.26855498166771846;-0.003618993351314114;0.04545618954729872;0.09542681628693224;-0.4146749969880527;-0.07913028010465652;0.07309447457417574;0.06712205747653933;-0.15516459126458884;-0.1614461956455203;-0.03527945042950693;-0.2374337071503578;0.3275351230055386;0.04420676957595066;0.039138033254376536;0.0659362677631286;-0.2142495327094174;-0.0028486393303646875;0.0050353308681161685;0.06324073793952047;0.07077382629794121;0.3048464507691246;-0.2542901580053379;-0.005435656921337209;0.21500701224802132;-0.22720134319972035;-0.21112728251284896;0.20631488109267043;0.13673677757938127;-0.107416260255848;0.1346637727912611;-0.11091308534984497;0.030325969856142176;0.13860980117833108;0.29508027900703065;0.5924005988628042;-0.10945758095078917;-0.15736504466133425;0.06657588755733429;-0.00854929722680648;-0.2359951530252586;-0.006994735317548113;0.07138187666052402;-0.21754715246388834;-0.03872963304442816;-0.08271018522669818;-0.08494362061025226;0.312985878578381;0.13964772163922984;0.2658220740373728;0.021613563377664423;0.03713255551414374;0.09560681972140044;-0.38544098691366974;-0.10598066689086703;0.014975249379298157;0.03901390074034837;-0.14662189104708528;-0.11316410854203277;-0.013819184295021006;-0.03669598815726768;0.4393056612789704;-0.022908951948264877;0.07312416729580959;-0.11044059061718642;-0.2794689585039185;0.10180032022165768;0.12453119580473841;0.11103215945324099;0.2122794728087722;0.1974721774110985;-0.24501186602120303;-0.012513210044831939;0.0819893363084691;-0.21519941765736475;-0.03823893622045218;0.3276721736263026;-0.05773979753024206;-0.01994454289588448;0.11671592344540682;-0.05245296845657839;0.02893870464361885;0.06724242761361404;0.202816640614235;0.8699777462332055;-0.16250296546877027;-0.2722129879500848;0.03192172367109045;-0.09642752303983165;-0.12231958815864348;0.10800960776146373;0.10723765770295428;-0.22108700406358253;-0.0657195575314185;0.07759515164321246;-0.21686570056520071;0.30400490415135156;0.29828185121106165;0.018753019864266238;0.03259517983027295;-0.0016415326514073647;0.08746768890835149;0.018217830006150758;-0.21211100433820865;0.04949926677118272;0.005035721020751087;-0.15863551723318894;-0.08811729730353988;-0.14414101757094294;0.07732013171049056;0.4342088727223092;-0.039250196427794516;-0.1894489760508257;-0.2972339586192745;-0.18868745246520374;0.04429250281332034;0.051728528161441675;0.23226826389646618;0.18294956685490546;0.016519427030207815;-0.2500167613830297;0.03956513659691193;0.30733058398206936;0.013103523486573485;-0.06070286280069995;0.21424926289698432;-0.11175864289576758;-0.14960162507947508;0.3560249940639324;-0.0030281088901921976;-0.05823563581295038;0.18745789049278208;0.033318049797334964;0.6217383935111607;-0.2841695279798342;-0.05934626546450484;-0.11814923491600757;-0.12387784535055685;-0.18733031291094648;0.2556107121416766;0.05050061764591817;-0.18769861344191455;-0.008626232802458377;-0.06804357664946106;-0.10655096630719108;0.30267988628822395;0.33018754499463343;0.060449114408514325;0.06454185268804793;-0.12675713282314485;0.16494483293250112;0.35419943319164016;-0.20863317442820553;0.0026716223627749566;0.13053228555567886;-0.12528203707989663;-0.18092731583158683;-0.12409578472319069;0.015778374552939893;0.4437845197566466;-0.06475588876055668;-0.2563722942452136;-0.19235743067092045;0.12704135924280774;0.054584786792253176;0.028592556954794;0.3832902813461236;0.07003263626074704;-0.14439591129952106;-0.10411499699204176;0.07686999640365767;0.3544465354308871;0.06146040670270803;0.006931359230888006;0.1985442016592048;-0.059941989835966894;-0.1786424845380034;0.3445998155655102;-0.1036696732441567;0.002189884474671572;-0.14208867566036745;0.051663591481112686;0.32579411070091796;-0.20835169902208522;-0.007150881789069761;-0.07606911611960562;-0.18982985954536855;-0.03990907135840146;0.09055528719138997;0.20284256902821274;-0.11079017866481937;-0.002472106486442834;-0.08543650819576892;-0.029581486391979377;-0.07428793578081308;0.31711901592913916;0.21652236086970472;0.08778068578472843;-0.05994474247386724;0.1331680776962684;0.3945144468095462;-0.14956024245997232;0.1670785140101494;0.385837023488786;-0.1554550285068653;-0.1458564059742435;-0.19202412662802731;0.2967957049953721;0.06902943722605336;-0.35445543896483916;-0.3467728336442002;-0.05218668371918583;-0.0030802253035081915;-0.017711990397503905;0.1668883476225667;0.4167035022536396;-0.06807148232201066;-0.11324373685845725;-0.2632475370845687;-0.12558055616689703;0.4726009328560792;0.3160995356183366;-0.23406789214212156;-0.10473531412620726;-0.1516069705777518;-0.5654636961501466;0.5291614331590004;-0.09114161423086951;0.005786746455991244;-0.6688552156238069;-0.10150443148704774;-0.13085502742180577;-0.15658656339788282;0.10389241138165245;-0.04564419027218082;-0.2558614718810896;0.22832305139878578;-0.15999645174466282;0.20368547665575984;-0.1884313584692698;0.0019797785685669567;-0.04812724450681047;-0.019522821770922193;-0.07983129212612554;0.05573885422080747;0.3202596126570965;-0.07661902175320087;0.07807009676331571;-0.006841655968849345;0.7166691474049273;-0.24521474819988479;0.2809131946125777;0.37211378183519034;-0.2472360562999573;-0.08354230030720944;-0.10450641299497539;-0.041326944150720996;-0.17331909801947165;-0.34449543553528666;-0.1773726451687776;0.1699924387666755;0.03392363012721448;0.004554263322295374;0.1852645648900044;0.5190642824487685;-0.08118160919175266;-0.22263328583925243;-0.11713088011013184;-0.017736823462522724;0.4630591460976439;0.46163753763414345;-0.4742188925169259;-0.4216191845901595;-0.36666229169736997;-0.8264625454298131;0.5636185176238924;-0.30990257908775826;-0.10579359065683877;-0.8461730015282833;-0.1671664625943826;-0.6140729351859741;0.04612036192839964;-0.02925858098118539;-0.07156083723632038;-0.40713399953796897;0.18157199937116048;-0.1269596861376727;0.1718944633461648;-0.23720898129794898;0.11970069901651881;-0.07324868917729993;0.19835441279757338;-0.011081179215617413;-0.10522871393439982;0.26960600938825063;-0.11945617386669664;0.09675248795741755;-0.06513498689947397;0.8451882462997091;-0.1823044606734662;0.21965132453150665;0.33668113203960953;-0.32220600011580025;0.17883214229219985;-0.2714115846407397;-0.47085357068719735;-0.3684487579430796;-0.3276408061273341;-0.04677940204425642;0.26872592959705127;0.05219666236037966;0.1613611952447739;-0.04094155754594332;0.5966618492377157;-0.061487126505629715;-0.2353247431931739;-0.18400032161111693;0.03607561300674131;0.3374070680996323;0.2793843502337928;-0.4816012879287484;-0.3453279532950569;-0.6091533507171696;-0.5967931917510403;0.3744641468551716;-0.4507663204892685;-0.19870882106611498;-0.7613689706853958;-0.34021582286651797;-0.6784186387666437;0.11720642820201377;0.05450171958352785;-0.05959720246296421;-0.38274758400430264;0.06758546619214391;-0.15615562947395745;0.21077793437921544;-0.2670925792770612;0.07205871901181894;-0.014024339551118996;0.2991781670644288;-0.12457527781499897;-0.15813929220025819;0.17600235862965;-0.14007262278926277;-0.050462907689535444;0.338946799574065;0.9876199092438762;-0.2351419481112352;0.35622289565419996;0.2634495661719271;-0.3251232332811958;0.08577492484048244;-0.2409293425264306;-0.57196052528099;-0.26514526171347175;-0.05326691618040197;-0.1560136755717285;0.28591391403373095;0.10233809881269802;0.26095182211779283;0.10800869734009562;0.49901836637271924;-0.12140205955174241;-0.3492915176504772;-0.18383025568960412;0.041953499548080045;0.507694275841411;0.0631689646414316;-0.49213752225928376;-0.1577876659065817;-0.4216030187447312;0.06974703508457952;0.2550921096447327;-0.5759881920624382;-0.01805221947317821;-0.45650450327959674;-0.31596904382335805;-0.4314465868599422;0.13402073261914887;0.15235062819885153;0.15959114175293718;-0.16482082693792907;0.012562886122682596;-0.17471583526756854;0.07394095429285906;-0.25705881165539946;-0.04514207710811328;-0.07739086527394644;0.23033795718809014;-0.5963025251625064;-0.12574174995644521;0.2455567372831992;-0.22151263557664652;0.03604562491121876;0.4322338013256754;0.780172566736799;-0.4713315837389379;0.4743364084204469;0.20353593029440697;-0.11468674956188786;0.09885645735505098;-0.24315974586041145;-0.4210309455515257;-0.1402815245695863;0.023461746033037186;0.03448944360120905;0.2335561468419851;0.024059755872396785;0.18242865342210454;0.11505043416483261;0.32633499585740605;0.07346246828207863;-0.09556913137277362;-0.0450024393365892;-0.11169186003566184;0.5063700670229775;0.006460935336569202;-0.5357029298428416;-0.26898693867041285;-0.23746082359163606;0.16512799009955043;0.13331950414587254;-0.5214625799385411;-0.00800278775332878;-0.42048132258755744;-0.057958304145000555;-0.07224088871089047;0.19978324552404156;0.23205608081850207;-0.05621839648589609;-0.0066746366299200565;-0.10814066636377742;-0.14407309694640627;-0.0018397505564866016;-0.26333449952328697;-0.07177020939499051;0.060306178702565404;0.18153687411155775;-0.5530532421712512;-0.12969022968218083;0.16892831237244318;-0.27021299422384665;0.0055414328265360685;0.3493372428333623;0.5893648262585975;-0.47022701795490135;0.4780179937538601;0.20518596055881294;-0.15855907726516583;-0.01815023795113339;-0.05406472474909216;-0.342640826045654;-0.11189897613536774;-0.004022702467847054;-0.11575927663861478;0.1460192708370682;0.07063191596199574;0.014135494111620768;0.13222283174393853;0.28144187528183384;0.0030078154480871846;0.08806317492071411;0.02131484465286878;-0.0889950761070734;0.36368714701296284;-0.1443599731517912;-0.15191921398197014;-0.2032121644507411;0.053709242981239386;0.2727627189356673;-0.04784719174049464;-0.31516068222621085;-0.0597353787200489;-0.2421416529124909;-0.10761742837771184;-0.1697078104938075;-0.052427338263260806;0.02240118147340766;-0.07327973010062211;0.08811152656335056;0.004069468999781768;-0.18563392471785184;-0.03283355743514635;-0.05796986125812945;0.04543129270233465;0.07176325851277233;0.1527697976983789;-0.3854694169687479;-0.2791425439155394;0.01826027663783535;-0.14446350661920312;0.08040528044735998;0.16772826472724547;0.4553041145676853;-0.3657841916873046;0.3530466609126968;0.26154676780606284;-0.10910441669363279;0.026970278460377903;0.024001102596394732;-0.12837571068789022;-0.11275224498860585;-0.031554918103487185;0.13520977743049048;0.07233069228241117;0.07079579095724386;0.024386843120624172;0.18960690897624238;0.177842838403851;-0.14917416709655704;0.12452474062703217;0.031793797409136945;0.06171050465209832;0.4020262472944885;-0.14218364560039798;0.025206895151162166;0.008837384065349091;0.05103257878728013;-0.06102082608055457;-0.13908560009158288;0.13685077481706734;0.10581781462651489;-0.26067612407289703;0.008200449715816332;-0.1764329533616942;-0.17971329494245508;0.17738938049585481;0.19971340294201365;0.14569495952356176;-0.03412926475958054;-0.19425882487173254;0.07266157704842521;0.03259071398224911;0.028641927753027915;-0.0278916565863063;0.13526099437244013;-0.19147248719712043;-0.12494056242313756;-0.12052526478024175;-0.15303299397895453;0.03742094227355452;0.2151965240381901;0.13479441048221155;-0.2696450201886635;0.16418004720516605;0.07314689627130837;-0.019673447260080492;0.10584014985505838;-0.019477565588830487;-0.2182551273980573;-0.07150608476337121;-0.043601099140839476;0.08932729379020503;-0.02855492625692263;0.13904026593347582;0.002640692130048886;-0.012131994793569894;0.15970321381118624;-0.0831497648013233;0.07465617494749555;0.016375970603063728;-0.09727717874664674;0.14702407511126386;-0.09507660337601848;0.10271818178976143;-0.009137238815662436;0.07871007030033164;-0.028532975356800147;0.05194393358706098;0.08218011179725179;0.06288945271942813;-0.02401994745172088;0.05382824517871169;0.0012640016661461982;-0.10293743716742326;0.11563835712318907;0.12552442017619522;0.18913733254121204;0.05146578701920957;-0.09324295634879742;0.03350780369719579;-0.08869249667676353;-0.07006435612542748;-0.08997105749439219;0.1419380597168466;0.07102522381201429;-0.03973159451393402;0.09478751442880572;-0.06315706031378346;0.09223055216249716;-0.052842806854454846;0.17891336648208608;0.045996536743813037;0.015146248382037297;0.06848821577271853;-0.07344095753413259;0.018138505033490675;0.05362361358371266;-0.02346644995193617;-0.19134204071835836;0.07755535210947544;-0.009844159596591658;0.003581724969560101;-0.07172216136695476;-0.08120142145659154;-0.07811269461382084;-0.01056249439745428;-0.05338517214273557;-0.014453533891996898;0.025934992317396415;0.015919252581550712;-0.08586985286039031;-0.0606152329559654;0.0668547275634409;-0.039518591567976234;-0.0901885279681136;0.14579365624316656;-0.05913905000224812;0.031617223294298474;-0.028583598481874483;-0.04881065960759752;-0.07357667978287079;0.15322007694429188;-0.11754139500625035;-0.006835025206888588;0.11970843385390094;0.003300030170153823;0.02024485645483707;0.06690008617390787;-0.00939960144719351;0.0953004594478331;0.014165389317257658;0.06340912103541474;0.025702495762557728;0.06562267581890652;-0.1095507698440733;0.11083987441824007;0.007906487377364605;0.017702042857737747;-0.028381618986743223;0.10484517203033272;0.04643340167645858;-0.11426733998106922;-0.05149934188285909;4.909479830675524E-4;0.04224671557459365;-5.238189720885239E-4;-0.05239375544292372;-0.07555693659628573;-0.04506562214956316;0.025671669544111438;0.051156640568184406;-0.029101149698667454;-0.023158291935658666;-0.030665501303592173;0.03836093984299959;0.004873450892241264;-0.00915305562967256;0.05141469959872227;0.06537922468251758;0.0402549619910375;0.09604412336837849;0.08432793580544329;0.053564864163037886;-0.03361893532704822;0.053066182893289814;0.03844469451217619;-0.008895082968910305;0.041436586063191984;0.0925362665994369;0.08402233502841963;-0.008952710499833707;-0.05179167912424193;-0.013387521528878624;0.01608474034128212;0.06859186711985116;0.0119310225126867;0.037733805930003604;0.08038253943938897;0.029778998046410904;0.017745996420873454;-0.0626443989685448;0.02337606801075902;0.05850812734408879;0.06508611633473935;-0.007810503863055211;-0.09530634204452205;-0.017623561028289325;-0.01951753624766751;-0.06274908477888787;-0.06278838560780607;0.07477898363163703;-0.02961653016889071;0.006650200238938285;-0.09347404917988772;-0.09124050789963478;0.026789715513232372;-0.08573194225749951;-0.019466676908615213;-0.05363856380037327;4.140587938913781E-4;-0.08855626943812366;0.05845789305111243;-0.0024048797725359367;-0.01709240728772203;-0.05895020069309762;-1.264820413587192E-4;0.07092904487570481;-0.014127335659424256;0.08678034283051422;-0.02963225569725124;0.08611640422169664;0.08830623667179921;0.041954238955405676;-0.01734053628883707;-0.06964576677906298;0.05696163017793748;-0.09204080213918116;-0.022151083231015112;-0.06046657059311085;0.027598508746983497;0.07550178080212777;-0.093332309123353;-0.020511276073150064;-0.013767119478875614;-0.09414259905097122;0.010728718107870835;-0.07275129675823398;0.05038710767562829;0.012120318263266344;-0.09622371203121344;-0.047714201956504936;-0.04966010466389406;-0.05954636860387335;0.05293602439426534;-0.0022337099465394167;-0.08962370162283458;0.05133929938825363;0.059964907447735166;0.06180030690037777;-0.06996228668009437;8.28124626445853E-4;-0.05749873478132533;0.07869181997821159;0.06537189705150023;0.02178975368184677;0.015314771680571118;-0.07803913062193685;-0.05808960368228964;-0.011527174781458746;-0.01986921856702914;0.06469566963282597;-0.05556415853390611;-0.0386389769958003;0.04266298558853468;0.006312467526816759;-0.07318763994967217;0.061107120279124905;0.034648442487663855;-0.01238280487858387;-0.018698422629121275;-0.035368443602261365;8.695419998238363E-4;0.05445729424449272;0.03801911622452642;0.019521273821994423;0.08958764993067564;-0.011028293847277104;-0.003815386611226518;-0.024720289236070753;0.08379316324950467;0.04084088205553557;0.055371703323700366;-0.08542317338923025;-0.06754453899147903;0.05853676681696737;0.04675802869591028;-0.015500932254606206;0.08177293572842995;0.02057282140053654;-0.035624772939383514;-0.07220060404833102;0.006422989021216255;-0.033245993428902096;0.09635895032628414;0.014147269136075377;-0.059187981727768874;-0.0705732214823731;-0.043801148563282745;-0.028621345168117207;0.010325421203672858;0.06472911129809344;0.013988582974075237;-0.08325397715829752;-0.03742238466077144;-0.01615952839937973;0.049722667578326774;-0.0867498056566859;-0.09182463811447705;0.048791644489228334;0.015132627927386101;0.013141276624487169;0.06248902627674294;-0.01119822017412541;0.04735134130901393;0.0504113615118819;-0.08536589709289992;-0.06884697217753027;0.04846888688139993;0.05274105753608921;0.010092224973883753;-0.026449113238121547;-0.05545684412694825;-0.07223072620541816;0.014194242123914192;-0.020463906333447513;0.09218415676845473;0.04697496599566827;-0.09045246207985218;-0.03058186807867075;0.03925596646489783;0.023963836691912283;-0.0467235615262154;0.09604357929881788;-0.09016241564299216;0.09732672806695332;0.09023559571220023;0.02943780774173873;-0.004877703667520215;-0.08939873178718068;0.09779233588369583;-0.06541441553865748;-0.07635351828123191;0.09633408917366175;0.002543029352556524;0.05302938634601011;0.052934986748876686;0.053700317255958085;0.03274052329793223;0.0898926749597745;0.03567666194240896;-0.06907353378318798;0.020268672931828807;-0.016249607188611067;0.0170441217265038;-0.052500955695135895;-0.09902023596008391;-0.09809857077019274;-0.10042938111556789;0.07179019714386005;-0.024245075877528926;0.1166173145708532;-0.06081506673890025;0.08024859680320037;0.023023609104271592;0.026235346883218217;-0.12886472606356053;-0.036475938346430654;0.037558483631455475;-0.03777664420060399;-0.05682742367470639;-0.05650329874379591;-0.012832347747263974;0.0754140671545029;-0.08182060789346056;-0.14747291914067784;0.06585639766312261;0.07531070044856863;0.05922217208329102;0.15450165075537417;-0.082700325334922;0.06939396700084903;-0.03946936262690387;0.11839882747241529;0.06035123095276103;0.08891583805749696;-0.10903019700380942;-0.060241068731454656;-0.095905381605255;-0.07768923113833083;0.0678873900811754;0.10818523441143606;0.024766995786896433;-0.030078382731180835;-0.07784430068468041;-0.03524105180507028;-0.03245174646644329;-0.032434383796899044;-0.03726529409218669;-0.0770650880359002;0.04071662706631492;0.09538988874783147;-0.043172731455979114;0.11291731265798911;1.74204388124134E-4;-0.10975489340005001;-0.15913779068526246;9.627134320535084E-4;0.10840555290773354;-0.043316039911628135;0.03106175632499085;0.06596463915554529;-0.036450356253491766;0.05353438424325866;0.06903573479038658;-0.2639030173427582;0.0043715964347245135;-0.190868125204907;0.06651039772001559;-0.054047220240958045;0.10449563001345176;-0.020317009839264863;-0.11198922024882214;0.014805990425591185;-0.1388590485129878;-0.06953762204819273;0.2613950038292171;0.02591685606686421;0.2800435541821663;0.016584873801062685;-0.03208025767616894;0.09870122817940986;0.10077290901129289;0.016744316551551133;0.4136561884789275;-0.1658980771818197;0.05010886940721464;0.02390219126189662;-0.06832168696553806;0.0045028926857426516;-0.19548835341909773;-0.13705205059093212;0.07409430463352462;-0.12381795928456187;0.08952102364563139;0.2114064099657274;-0.07940008880106705;0.12106795277044291;-0.01280891044283398;0.03236613910260511;-0.0670846577925138;-0.09368107280348383;0.19820286336121876;-0.11501444152163488;-0.19899863081447816;-0.15522427693833396;0.08640267875518606;0.02549090571010898;0.09483876771518336;0.18098729185562387;0.03888851603840037;0.010049713232814018;0.0035489718399909337;-0.06382372323213786;-0.5277309535618266;-0.14662643219253998;-0.27728219226147316;-0.10474520336471177;-0.19085397248759703;0.1514477745345034;-0.07739424878060026;-0.1034755723632025;-0.1552044900277478;-0.45136615462948243;-0.04405848033349426;0.43336996213011564;0.019398297498521407;0.23832015948223398;-0.0010493588646708263;-0.07840692362250493;-0.011673030303574458;-0.0186414653909991;0.0770847913843363;0.4067363152015902;-0.10905842955907928;0.050945388336003296;-0.04578019365195162;-0.2965951016448895;-0.09232490689596774;-0.26746083280074445;-0.10984710584700699;0.04456818325179787;0.07745993744535734;0.05823046696509439;0.5395939320395113;-0.39705901434451263;-0.004185066511370969;-0.0681448229502289;0.05619232887804339;-0.03120471614768101;-0.11301981722941674;0.16272296317203636;-0.06602820170858073;-0.301428930385495;-0.10582410395249799;0.271734034106008;-0.1531033808899599;-0.06644418460799104;0.24797210031050604;0.2615112323671624;0.07999041304770706;0.01150642866127809;0.02845207243943489;-0.5223636419804125;-0.05256847688523267;-0.14947270478491956;0.13432558233444966;-0.12535106643574312;0.25960354458132984;0.01126723250426844;-0.10461220476401861;-0.15959052634351326;-0.5001659277111229;-0.23028115708274902;0.22002170438562202;-0.0702348673477389;0.37319477291134195;-0.10223926963575211;-0.01938670255253606;0.12915855249494235;-0.06264505478733794;0.17095829907686416;0.5150102684306584;-0.08400555904047272;-0.011316603189991207;0.08260601843424796;-0.27389549925598944;-0.201221705002586;-0.051585544582655345;0.0050590424629091395;-0.02975905726963776;-0.034144570455939306;-4.89980663466079E-4;0.4833176955743975;-0.4624513650678596;0.02679470358478482;-0.061849572885096835;0.1338968083039464;0.11631070263153613;-0.29814017353979655;0.14017632680872877;0.014890369832892575;-0.22432952979351312;-0.03843398437612572;0.24603683471441326;-0.020333813239282437;-0.004184197085392229;0.2936371119102595;0.20323363002983025;-0.10730663600681731;-0.11750786276953008;-0.0019332711588469001;-0.19034613504271286;-0.03829070442105032;-0.15990932242269296;0.03694718341421673;-0.20892698450371533;0.39756895230154704;-0.08062393933124348;-0.15955692938121938;-0.022534420276114946;-0.8018301424482757;-0.12508681207323522;0.20912223627761264;-0.02030668236043263;0.38602513666314253;-0.10638858863325093;0.0390101094501803;0.033855493046113384;0.019423176200134208;0.14215340322296363;0.36296458746616755;0.061392129211211274;-0.07873202020954445;0.02352517414444722;-0.3441756463980704;-0.17298217614622086;0.01500980206552219;0.1088117873456635;-0.051772467578101;0.1645392697837922;0.3201430477038224;0.10870132843040159;-0.2529560725145286;-0.13402327963444743;0.015903518237396774;0.004431769838918607;-0.12904582954971786;-0.18565189135205795;0.13338313479979394;-0.044503379681162754;-0.004171973941876084;0.19295109030687568;0.1815343273842932;-0.03713322961840463;0.08784133170583684;0.27448656524432324;0.0841414555178322;-0.13668820479279423;0.0634318208110235;0.007476149712967531;0.04773358207799656;0.03491175965745838;0.16143462792350352;-0.025339549365074356;-0.13820672663691935;0.6525604635747497;0.05012980374392255;-0.12947671726289003;0.050607540315927645;-0.9531959287601016;-0.08441470901999897;-0.12589649331678401;0.1305259695735964;0.33715800875486795;-0.30783099321574087;-0.05318232157136375;-0.040051772907673165;-0.1442274097495633;0.06762313478022468;0.09487359376071845;0.0634369741711438;-0.07792667934895715;0.3128435915842514;-0.6038116135130183;-0.12595375831877856;0.2174720444191239;0.08555152402241098;-0.08011239271728518;0.25130571615379016;0.5388121195910862;0.0455769552628608;-0.1541135160385838;0.03690059124646145;-0.016901371898451985;0.1061196005877147;-0.003313728586190008;-0.26097433296377903;0.11602799707757666;-0.2955831987533484;0.1956942933034012;0.2570337653996414;0.02875888676890216;-0.18661122128174173;0.15342159848298767;0.22120586952079097;0.0019084684084032172;-0.0362520912047841;0.24063602815701257;-0.03236431760891104;0.1940180955788896;0.04995856849410908;-0.022920815432573932;0.10601451834683655;-0.23593063887041263;0.5044586859499726;0.026412681385218875;-0.11250985262821991;0.18885322531399168;-1.052651036634959;0.11383737376426752;-0.20237554600835517;0.3589551688671696;0.07114389402284557;-0.378520499598901;-0.12498574517818375;0.016662798642534383;-0.2288220103337909;0.1480228112177018;-0.13787211969954755;0.20691591692000427;-0.07876807172502771;0.13474487669075955;-0.5618967495726982;-0.05679891145068509;0.24800314746791666;0.11649314721080724;-0.10211720299425857;0.13267427621278222;0.766705281829088;-0.3100783425152441;0.08657049803008907;0.14686955862398043;-0.07665824447845851;0.022009362909646904;-0.08032267248707296;-0.3928547186508266;0.02510635736993103;-0.36776682559221074;0.37571089364955923;0.39690038364121916;-0.012450693933449566;-0.14967787821442122;0.19930510558034223;0.23870729832440093;-0.1640671265364005;0.18146657065367144;-0.16722562191217138;-0.03334169213735127;0.021737411381698577;0.2507088691183748;-0.22202773217206748;-0.07806753018886502;-0.23424177323991374;0.2858066871796822;-0.005507970796215349;-0.2121927613901467;0.10337444065934732;-1.121574661482917;0.06592392621733774;-0.30118175957474425;0.3787212245655426;-0.4173763169563845;-0.2080031531772035;-0.0868534468609357;0.12332888443346197;-0.4654245386104911;0.17536637499522756;-0.3787738098453159;0.4321982551846873;0.11932386375339792;-0.00825156604071451;-0.3808528040236181;-0.12154252447707305;0.38020302563973135;0.07125544031138936;-0.17963178167888913;0.15331216939422307;0.4148273435190835;-0.21742293537343615;0.09723431018389296;0.10538490595284115;-0.2310434579567088;-0.004324646825797738;-0.03112670718121979;-0.5174577551599667;0.16053557506130856;-0.34207807421454967;0.3004135769376548;0.14892937834807954;-0.28683877358266824;-0.10984307735678252;0.33025597850845423;0.15892587517732765;-0.23557491828356386;0.40404428094426276;-0.10941328312650156;-0.016488345305220652;0.277442419619011;0.3512524969628357;-0.5713598160026142;-0.07468524540114148;-0.11995220534443586;0.08649470096433726;0.18753464358693303;-0.2849960636333747;0.10857054455594758;-0.44132634347172167;0.21591033015697236;-0.18575728330197142;0.21195078010070437;-0.2779386457736129;-0.16862129579899465;-0.3447915986993348;0.1084543706201118;-0.535912835767777;0.26268834485905124;-0.6285311473623195;0.26394820121749446;-0.05933775209157867;-0.1157266730113241;-0.1517321348652557;-0.1787427479426187;0.46320258190101504;0.16003885691415173;-0.016835933123872195;0.12808832682935575;-0.4857913227070549;-0.03201603240601715;0.2809726141365307;0.2595902733208368;-0.37489740990017956;-0.04627240902649238;-0.10799615823362718;-0.5313603818919803;0.43280019466267644;0.014647124812166788;0.04467793512821222;0.12885872062646303;-0.3481544355011821;-0.13493001717199773;0.251226745957786;0.2085577982604069;-0.10127300969770181;0.5626485176959364;-0.3722333851180751;-0.07337488745067734;0.25815562098173306;0.20686981455234696;-0.7648629878809965;0.08791834759089455;0.07533708183872297;-0.20092190387289066;0.27159866385381;-0.24663358883693456;0.06807536867861054;-0.055416992196460395;0.49858731174425025;0.6150385973176085;0.09861168690912013;-0.33612000968039796;-0.021106216356622815;-0.2540500979920068;-0.1386650767113866;-0.45826542479549376;0.1823901406681955;-0.8075701009273932;0.15729906613809477;0.00733528361176066;-0.18703755468445546;-0.20231076267002793;-0.13237005248247355;0.4171880326980869;0.15093694392418652;-0.17532251976490484;0.04117983335389493;-0.5801838669895831;0.09497154136751747;0.3378962002625981;0.08371652298984858;-0.325136923995307;-0.04573990238444448;-0.07696692637955214;-0.30008008160661287;0.920259987366172;0.21946698777434298;0.06872173738753924;0.13892645236467063;-0.3811986686419059;0.0370272947141273;0.09839202949647755;0.14738001921338173;0.0378070617345429;0.7164316873116393;-0.44572300210955246;-0.11168839955366082;0.3036625684916744;0.05760815708829739;-0.7280489900983814;-0.07838219849094491;-0.010035007097298973;-0.14548549582074755;0.43075015100052294;-0.19098494076227268;-0.05584983738189504;0.3330979522602312;0.4959534824652707;1.1521195961474808;-0.07933633020871074;-0.29650761723204005;0.2425546874945564;-0.18563070715013721;-0.19368600054306698;-0.23436429140319479;0.2696702261254041;-1.0636769444488332;0.012990949418679487;-0.01761136162172905;-0.37650418243712;0.16694224550641037;0.002154096500433203;0.2996183929869933;0.06903280056640702;-0.11173977690752677;0.13631534539052048;-0.9071487631603882;0.13131140419292733;0.21342259764448962;0.14774406068523013;-0.09664899823279964;-0.2867438619117616;-0.20210688358935455;-0.15402718809239013;1.1794337576423357;0.12840914056462865;0.013539012819410525;0.047597247787971;-0.4020766422303762;-0.0191321830643321;0.14436920084649907;0.11277943580384854;0.13769248182284546;0.8134414629718928;-0.5397894455249687;-0.12475260716235537;0.5189893075366514;-0.1031666124137495;-0.4215431498272263;0.23088167470370746;0.003818183596417488;0.01131987064731022;0.41575021340685225;-0.25971618775647004;-0.1778568991030087;0.4070710503221483;0.47531561229422664;1.9353571558796907;-0.3074308222415454;-0.5153286578588958;0.30394103911311154;0.05068485645043149;-0.33839233661873735;0.18253875532816036;0.1633704565645081;-0.744737156450382;0.07453021938508182;0.07876486778554848;-0.5053212663611093;0.6592566711620033;0.2700320129960725;0.21149850033732112;-0.03737777621120066;-0.08760913136024796;-0.04179429146472184;-0.4483823564043046;-0.028143841019529853;0.03855646504183142;0.023862505150994345;-0.17581416280766224;-0.4139164191931082;-0.07837461129261197;0.15555102343800487;1.3654302768982127;0.2741874335001072;-0.04296366103116247;-0.279475510075628;-0.5339910821142402;0.21872522280222703;0.18270010131103168;0.2930696685538534;0.33767387123538495;0.5769137941306338;-0.48565259881168005;-0.05844096089929117;0.6493188384459548;-0.3291416404661121;-0.11771515410184619;0.6518820986355736;0.03580307783791081;-0.03449730707883332;0.36872913595499673;-0.046792395600651966;-0.18051956799169422;0.39522276710092136;0.4253632837034364;2.075541917399866;-0.5273104169748215;-0.39449677795802107;0.10205229311611776;0.01755283004905666;-0.5645063796488536;0.45631272844481124;0.3645848219614101;-0.3684663274239681;0.08768443861440452;0.10399812310699394;-0.3524265007342223;0.9925701260572619;0.3004732982268485;0.1130507393921845;-0.06036464440908232;-0.07335205375572611;0.033659