NN;2
fastlinearlayer;784;40;TanH
0.020400713254353706;-0.01245730335664523;-0.0652313651255011;-0.011133225604262914;-0.08539412328613663;0.050410248379455985;-0.045808928259460084;0.0593339157655661;0.040842568496737536;-0.00836094446688318;-0.09098003773731296;-0.008731016152554852;0.04442570147141098;0.09921064296608093;-0.0618934034791125;0.032596137245529955;-0.009444566360599232;0.013804305655902252;0.06581250902967892;0.049562289080133354;0.09556719058018023;0.06004708345710322;-0.06674051073786585;0.057987111551205894;0.05818163127164036;-0.022236228374880124;-0.07042041080642564;-0.045486980359809186;-0.009245320524339212;0.05322691941931795;-0.07683489299657609;0.04785519951536271;-0.04947247765887424;0.05040682870600913;-0.007081402400844677;-0.009948425647711229;0.0708765851650825;-0.05777843849783631;-0.040497128780694405;-0.09228716428060023;0.08247185758037731;0.06165040051191148;0.03589937740842139;0.007619781506994633;0.09726855899203521;-0.08263624336233495;-0.08710412915327155;-0.03185448121419439;-0.02009273378665459;0.09711979230496842;-0.07309776498625278;0.006996852566031289;0.04461787443294568;0.021706632674647536;0.06659294534513369;-0.007937261453445865;-1.6806157452935178E-4;0.05142656009536967;0.005469132066229301;0.02137128779801878;-0.07056733406083854;0.06734601345171734;0.08310859146106439;0.004339772071370734;0.07400493790556575;0.052545599433191675;0.08641577627973532;0.04302461718546602;0.012085283945753741;0.07337007400089313;0.030871801046943426;0.013371420256538924;0.041411902580018284;0.060678362597221314;-0.05821555560969863;-0.05353506585488513;-0.03982535730544448;-0.008906455407211994;0.035538136467478276;0.00977906680408476;-0.09031459190074174;0.06318862432689809;-0.021381079987218388;-0.014923996438700599;-0.0691976622411915;-0.09315350368112835;0.04338273048539984;0.07868679486752975;7.680578382102399E-4;0.061657781757556734;0.0643537443843272;0.02242105693425618;0.09224923391954307;0.07796553712123683;0.009004550481149162;0.09033399932434202;-0.07466314287444419;-0.08865035703796849;-0.09214296666763591;0.07734266168151724;-0.0012037766488271345;-0.04612320792190026;0.08573240615507002;-0.06952410703811503;0.021316954218252263;0.06535049258700429;-0.0069988039810642555;-0.019875639532249384;-0.0572370147522111;0.004561070999076128;0.03683324691956541;-0.028709447079013753;-0.014577437027185364;0.060535669330314706;0.012447713911166142;0.09483876863523391;0.0752582569524595;0.0837882511559846;-0.06563692487939062;0.018745124549734676;-0.07048107729285835;0.08199553145186031;-0.02814447414979966;-0.050985216243852154;-0.02112670926205254;0.005089776142762001;-0.058737365809297476;-0.00848292205583534;-1.4544760196522066E-6;-0.07072763695726599;-0.0323703491558026;-0.03470051950053568;0.09956728404990078;0.06879950804633048;-0.08462546526380295;-0.022480178775128493;0.07005532366632966;-0.005956851631328489;0.07534346110692072;0.03207664421229145;0.07099170888850315;-0.08725905661636624;0.04606083725064647;-0.0891407734377062;-0.089791299686466;-0.04875372155772726;0.014979288452740255;0.05499755538044507;-0.0749082066600047;0.03577825677031654;0.03972966478831064;0.04611235841782113;0.06382969218402071;-0.026328293733179395;-0.07062896400006524;0.08756506616617873;-0.03333567140111196;-0.06537281965764194;-0.07435929872345477;0.08570784547870022;-0.05950632073906362;-0.022579192346750654;0.07924004153006114;-0.010246854788361376;0.01787404448774936;0.03209293561320567;0.09009665074117582;0.0035452663832173936;-0.06199503765338628;-0.05196285245970982;-0.05255619652452115;0.014669094634963215;-0.06664274385828411;0.0680666737903105;0.07514025627888765;-0.05126794059146003;-0.098009875002787;-0.016604383535491346;-0.07174184577015663;-0.05463255221849111;-0.0611988456188221;0.0648889688742029;-0.07566698237860181;0.08948444479359616;0.06677629086675749;-0.005687406717821822;-0.025386259435768554;-0.05748189477238124;-0.0317601086008632;0.09558323738709573;0.01531260449082697;0.07367936115319751;-0.08389534366655399;0.06601852696604468;-0.06114473516243982;-0.008794973509762508;-0.09487831533781095;-0.09241303850267407;-0.07486924439182113;0.07360779561194433;0.06876549291816933;-2.2307474402287475E-4;-0.0887327602794411;-0.0783476558476287;0.07325891113635419;-0.020818944029952435;-0.03845670909335348;-0.018830293500837536;0.058659408357896764;0.08686821379157514;-0.06520341699983095;-0.05711617792769324;-0.09029149436679018;0.0700951742774519;-0.03537272152566687;-0.09943363850471032;-0.09582249628491978;0.0644610029547755;-0.031709674860778914;-0.07304371496416062;0.09411750028813656;-0.024842948311309218;0.027945458470097273;0.055009835993536205;0.08710936845529751;0.05821695505023214;-0.02809280500498211;0.05915054302811923;0.027513768006775297;-0.09823336735537024;-0.04410515941639817;0.03651921652732823;-0.022278849271385903;0.0072742914396159986;0.04428248383464045;-0.011776049064789906;0.09940174484960321;-0.029199577866732537;-0.008650998615363753;5.901360211219425E-4;-0.0952000431176706;-0.065098268900015;-0.03319783536492564;0.08436719621400332;0.09364050147786615;-0.004079100099881133;0.0584959929963102;-0.01696795872354906;0.07162012613362143;0.0904785415345207;-0.06868858001769447;-0.029676352113983825;0.02489198241973714;0.00789246970927375;-0.02031592953097175;0.09774855716406913;-0.03601333667411624;0.06967045372937614;0.038052006328192584;-0.03537174157311972;-0.04493780558630403;-0.03923980226975268;0.012105726520391463;-0.05065082264217622;-0.0488459452284695;-0.0392006502884428;-0.08996182387107461;0.04061267610050964;0.023425159226205028;-0.02463450433010614;0.07379474049247034;0.0686850682530773;-0.0075841356034050955;-0.032773840308104304;0.01032325125867431;-0.06335240190029792;0.059293968786765294;-0.012411175090990462;0.02282397455636087;0.051646467525817696;-0.08177819321085229;-0.019153927838479842;0.007156860283410227;-0.025906382763366056;-0.03771667550822253;-0.09270829889207469;-0.09521931760640896;-0.030427856263587752;-0.051382137848970943;0.08787575577828133;-0.0469076716799651;0.004491412286952129;-0.07463088281810853;0.004595085436948226;0.0730199205035694;0.09378894057770337;-0.09343786571965376;0.025640379388245427;-0.008002073895122502;-0.02077889536143611;-0.046646696718674635;0.08664618271580343;-0.07478283917707987;0.010613115836212009;0.05528036297713407;-0.028059114800175075;0.05687478973312657;0.02710903363322581;0.011512401955640919;-0.004203277844724546;0.021424322165120108;0.03842177536697017;-0.08790014056153167;0.08367977527007339;-0.015174384478859174;-0.09391690675407094;0.019224514198253773;0.05349997940374493;-0.0742051209055321;0.024693599029754015;0.024354750033163272;-0.056814040274740775;0.023017028066072948;4.525030701972854E-4;0.03935048973295602;0.015325867932005605;-0.039590319287501834;-0.03213516548316289;0.057158002580549094;0.09908781345065817;-0.0989307394484301;-0.04742560908700695;-0.06927077611393216;0.06606691921920985;0.06843720194425004;-0.08692795145678021;-0.013192408817587029;0.09446231302941502;0.02537144971648042;-0.01992232109335501;-0.042821957171723414;3.271171891092023E-4;0.005396436900573565;-0.012209837778853427;-0.09008297742837715;-0.031181532013149327;0.04395311314055103;0.005137386026368845;-0.019357521847295847;0.08544750237400772;-0.09035107458623387;0.06702623484604195;-0.09623614009292279;0.06732935954800695;0.03550783153508141;-0.0944073992880731;-0.05626787765114858;-0.005566820444650483;0.0502202898191878;0.08145138176683192;0.03254297990159988;0.07871433095084787;-0.05203980643736324;-0.04690839063073591;-0.0622894413397074;0.0771682231587533;0.09592948968202863;0.0013436991577644025;0.033821651425623045;-0.06658115056639885;0.022825017101582065;0.0067598237968977265;-0.01222508176008738;-0.0015378369388474172;-0.04993186591502805;0.09751488284964277;-0.07917307190880479;-0.07703548655608734;0.04406312092666784;-0.007920811938963324;-0.01015784769917294;0.03851267227129504;-0.0025528505023141024;-0.019531540273982878;-0.03145702420751027;-0.06113618799392977;0.010340312395985346;-0.09450617098227132;0.028759702400728976;0.06119551715336896;-0.028404383665921754;-0.05598815968417079;-0.07831946664259688;0.06735578956922061;0.04004897254640702;-0.011825555405900384;-0.04089841249861699;0.02511303290746647;0.025769199117650854;0.026679001748750347;-0.028728230263094456;-0.012982452078018361;-0.057953353043153966;-0.04176710110271793;0.015328859480972096;-0.09529272107821823;-0.09424120159183316;0.08494590657837292;-0.08248685445838443;-0.06814643504487547;0.07653142564716797;-0.09003883678312977;-0.08725741968161622;0.022652307862550985;0.0922915157645465;-0.030610143153777927;0.09976568114605769;-0.047057516616184694;-0.0295783821474334;-0.06338875949504111;0.07241152740755163;-0.0485438736501443;-0.06099015690180812;0.053522632329825875;-0.049160224471793315;-0.06893166326360872;0.06809988275761111;-0.03821057541038804;0.0127906382072972;-0.07995270832201676;-0.09905901857271987;-0.06590492814264703;-0.07516510654814011;0.09330422171930908;0.08523795501844789;-0.09460891187676815;-0.02637610042901284;0.003643437730385224;0.004401187870056125;-0.09585294119136026;-0.04209651762905169;0.07736029366690908;-0.030565586106081108;0.07709528205601865;-0.00986507014334756;-0.03385422677660406;-0.06959535807660217;0.05466305173988195;0.014843759442845578;0.02764352753826413;-0.03395784308966919;0.053717788846847275;0.03836841237277219;-0.05606032625052411;-0.09824111467831219;-0.039424669430314085;-0.024493219569892075;0.07589228496037859;0.012051209054313602;0.08094850177808816;-0.06923375447983107;-0.05561857017908587;-0.09825000988502426;0.021197092014995284;0.0796136477255476;-0.08844087133767427;-0.012729434501909484;-0.03042213472451301;-0.050274687033606935;0.06209938115743838;-0.022137260916783405;-0.022505439155028534;-0.09776296702302419;0.08444816417861681;-0.04313920858605807;0.04074788519667899;0.012994072104342516;-0.04792657928497295;0.06293347159537749;-0.01921447524921864;0.08265023869841673;0.03422844005875028;-0.06056721526580722;0.07922912306851194;-0.0821609437913459;-0.09196558806347428;-0.022729582267314818;0.016277166094015985;0.02347269271992949;0.06418556475046536;0.09737985799997348;-0.0053286101559606785;0.03976042265311775;0.012580022699737868;-0.030744213851162983;-0.002858966573536258;0.05337478892575795;-0.009590429658772843;0.07984055869065132;-0.09924428557421684;-0.07374394472613159;0.09205998950817287;0.04914356141218785;-4.4325610937091906E-4;0.027742245370777772;0.004433792281927695;-0.024816430680864296;-0.046988924873015495;-0.032672829215903657;-0.06917629470457587;-0.04125767675747702;0.09538484050280722;-0.08052724764640659;-0.06743879203531482;0.037961375391761386;-0.008961286133040508;-0.037141914115865024;0.05056341594513722;-0.08960345180122643;-0.052562921952106295;-0.011729487151523148;0.06376103302901341;-0.08101650409850154;0.061226709612841344;-0.09649064116803183;0.015594179878084861;0.06746716746752704;0.1005821560118169;0.025773335530636616;0.09376677470327464;-0.026343626947320103;-0.016276212054402207;0.005184255967595316;0.02230203438644415;0.07365587422803929;-0.011307928140991456;0.06394876894176456;-0.0020837498345250226;-0.00880123877556713;0.04249759790391668;-0.003873857118726037;0.07275532160953632;0.07919547419602212;-0.09639528144302185;-0.06965325278392186;-0.06539886985586127;0.02979825816576272;-0.01984100299129961;-0.07507596613089909;0.08440103338461524;0.05542290671894814;0.06918016879316824;-0.06744700038153048;0.031674240206385436;0.05676424474957488;-0.025458585981351055;-0.0058991714922057605;0.0568170979795767;5.437813814357949E-4;0.0800002264454813;0.057070805041016054;0.06629956537256568;-0.09635329478165207;-0.028575309419987614;0.07482471375094925;0.005148203546803769;-0.07324710681067945;-0.034403120244251593;-0.01076400547597036;0.008214689217060755;-0.08036546337202079;-0.09555416057406851;0.01886726578170356;-0.08219752747313826;0.07756141153271698;-0.07164781668661974;0.03647846195847501;0.04894771288176127;0.08029602649657017;0.046623397572316476;0.026842543103678434;0.025612143511136054;-0.08274931608408477;-0.008882418680748648;0.09522908693491068;8.47863422645795E-4;-0.08256121075326578;0.0467219171688207;-0.08959446815783079;-0.09811880022896619;-0.003699602071420979;0.08910692008791436;-0.06684511896963816;0.05177826423679855;0.06406963650533211;-0.0017414476636454681;0.041990027275806585;0.0032564440195473354;0.07553371062648163;-0.07497128146970161;-0.09281210181745839;0.0956038709152986;0.0759271820069381;-0.013058838218814995;0.007373464566429765;0.0285827428962336;-0.07067930828104944;-0.04335212237572555;-0.09158594459495854;0.02271710873018075;0.06687330960284019;-0.06528673694068748;0.04555376843954199;0.046423465563138325;-0.07965325015951161;-0.0030446586958013306;-0.03290845952691542;0.0019324423389161778;0.07579382457187739;-0.007178356183677258;0.016738031786059135;0.006744727370664218;-0.04544542747188543;0.027571424114453152;0.013917054082266598;0.07441920313965902;0.09445214986241833;-0.05650645007747019;-0.06449482484403722;-0.003600653859282;0.031691804283149855;0.001427470041941717;-0.003032097125648902;0.022863893904523626;-0.018842560179810997;-0.038724985445661386;-0.0666209958079888;-0.0559164528196489;-0.08156717541250483;-0.03527879247886425;0.05794873324921332;-0.07868488868236874;0.00764656396635513;0.07379636292064612;-0.08556652262323859;-0.07962610325375721;0.04706816923230828;0.09324519647148208;-0.01028769042756314;-0.001688476265964023;-0.0789678720952316;0.01927946196208044;-0.05670003961224166;-0.028237521169360333;0.061495812659569465;0.0073825133048462666;0.012408929372467806;-0.032128496176385135;-0.056260659369581356;-0.010827020186749484;-0.05680054910500818;-0.04445640267829696;0.017615580952609372;0.0036547260618270683;-0.07797046553129083;0.07669400143691346;0.038800162306734165;-0.07153311374802436;-0.09329507240781992;-0.022501769810138475;4.146258100398703E-5;0.011133835992888003;-0.04227086180597972;-0.060357967650001836;0.062410619395193295;3.152147464217797E-4;-0.030446572724547386;0.011571422821180621;0.08655151380249518;0.07705590654872327;-0.07369813513753805;-0.06692137755814584;-0.037651785500404;0.03976855887305111;0.06987506106133201;-0.011008004511934427;-0.01544985670494159;0.08081066133488743;-0.00900478336491313;-0.06417765091897124;-0.07154989148890407;0.025824934931709842;0.04643678334232906;0.054480482739605235;-0.08957660662430994;-0.012020734586854348;-0.04251163396831708;-0.06429614140454837;-0.09801556462900252;0.08089318740460924;-0.008797266089202171;0.06130660074109412;-0.08896316547787925;-1.120894225333513E-4;-0.058353174145113144;-0.014570511382462167;-0.03687664427458502;0.003236295155251659;-0.08884828004752143;-0.084210034696962;0.0826759102151684;0.09341286318266914;0.09156267755697484;0.09493213686117408;0.07426558471399902;-0.0016562021263308857;-0.0545108990885264;-0.018523234271540595;-0.09614738008069681;-0.04734306002071118;-0.07241292745777944;0.09702315411436799;-0.02294047363311244;-0.023507604899309115;0.012646726048496676;0.02019583327092163;0.03263718208082231;-0.06357550260702777;-0.0022439282991711246;0.062019360597241946;-0.07410819227542537;-0.017902075513788834;0.03682261408863827;-2.192347539252959E-4;-0.05305692766571915;0.0559181132859875;-0.08600931030170829;0.09881639487934932;-0.06822753801157211;-0.09603518074636902;0.07489144018414379;-0.05623808721892121;0.09347327990098553;-0.09275788946111113;0.057892827362830274;0.06980229795049217;0.0535006524750031;-0.08707162000601283;-0.07465036371336736;-0.006078154804833397;0.07292151747481293;0.06562632738536953;0.09485345745521706;0.04615416820439194;0.08366461815869786;0.03861297140775835;-0.029517295209840297;8.321936818384834E-4;-0.08022946384542161;0.0650896557377516;0.07864389360749538;0.029370023244709276;0.0682828707552269;0.036503389130589675;-0.09570980377015488;-0.02477952554684222;0.01927713309304868;0.034842213991753496;-0.060403440123790314;0.09032569321660774;-0.06836798561301656;0.0735531835272846;0.09808677998422738;-0.0053787770603350715;-0.07572708104620195;0.013129679636594616;0.07440036921428314;-0.040529183736409104;0.03786597322244967;-0.09388166589201884;0.025542570208627963;-0.011083543233881193;-0.08393197044749179;0.07836898475333476;0.052134341528408096;-0.09907164616082065;0.08677666111188234;0.010284700088186799;0.07966237041278407;0.008654925645697586;0.04338015377431287;0.018071765268738965;-0.06027094128403998;0.001672832740337915;-0.07399246324011428;-0.06501030514901773;0.05130253864653517;0.027236937184443033;0.0027785477104351475;-0.007398778292041525;0.04083224870084068;-0.07692174747673608;-0.0834340347614824;-0.07338489242604647;-0.08959317587293117;0.019104052710371938;0.07512812778227415;0.08459165521690967;0.08488760625882005;0.027434700697960362;-0.004421014612288082;0.05765173476577151;0.05518353777735038;0.026274656137301455;-0.035878344578708296;0.010700250871489736;-0.014395579929165889;-0.049958230925163494;-0.09401485842989295;-0.06951951552935297;0.045110947600167095;-0.07938273932620162;-0.08332567351556419;-0.04317589967082911;-0.061435308399178615;-0.021404272222307674;-0.00678003855994036;-0.08609886329534691;0.03797809868586152;0.014535156414473158;-0.03457130823662971;0.04147001587029467;-0.08623550161034262;-0.09979309152136745;0.027133028612295607;-0.07387246324254229;0.06598809283020354;0.019845711393518387;0.06744136844094126;0.03255887653891368;0.07449017009532827;0.05094965599764956;0.05380356076270995;-0.05318512864319502;-0.09554457623732754;-0.037331152276942864;-0.03896024055299274;-0.023630793250748572;-0.05234365870931834;-0.0075136239655288345;-0.08517523317693375;0.0042176493684907;0.026398533146078373;-0.09469876419964224;-0.003520916604938945;0.05193033627412391;-0.02367011029249308;0.07466720312823946;0.09129049521358898;-0.059642811580922085;0.02769058955430398;0.06404283471276928;0.06976407024351258;0.0708779070174472;-0.013436901185426842;0.008041482084966134;-0.0311278303670373;0.00665198779372915;0.016122164552794443;-0.006318723940872156;-0.02669557081998064;0.05386869350880838;0.01788482007836309;0.04163513502160207;-0.0032822234378207665;0.04299709801151416;0.012960381313431357;0.08748076129862828;0.06298642174373326;-0.0899639620970209;0.020663216181540073;0.04725158403217103;0.08352923255615188;0.06330549541932504;0.05949250382767493;0.0673388197079173;0.08531933743304895;-0.006318583160044716;-0.069352715208021;0.06627267101377829;0.07396170353044934;-3.619437396675529E-4;0.028572332370223885;0.04986570276450375;-0.08141017495984647;-0.08441704500918784;-0.09509764056165232;0.08893293651462861;0.06115214323127524;0.05655110665775295;0.09971202450605193;-0.04945817319025299;-0.052337965377555334;0.0494549245140935;-0.02723406520983429;-0.07073773275989077;0.05944781405517319;0.06433429219643338;-0.06523137455384738;0.07841659947445048;-0.05559724733162111;0.04560650719375248;0.07861458052286849;0.04132960441242661;0.04823504818919647;-0.05668367435597302;0.010638224114996972;0.08257850823821078;-0.05428215113203261;-0.05561405545403189;0.0024361452270513784;0.06691895041812673;0.03530855463578414;0.0837038846828225;-0.0028534718653971947;0.08727818163886292;-0.03609559899129085;0.060464541350075535;0.013407998982359781;-0.004523326804150685;-0.09710630596046282;0.09645838186665698;-0.0034525181486956685;0.032022621322080724;0.0430440331261272;0.03779053757296713;0.003085751665719866;0.06893056883305254;-0.07305814299219436;0.002697468929608496;0.08198742609068477;0.09097140894518324;-0.06975753155458518;0.06279700211836312;-0.044089024689040725;0.07692238909423696;-0.05707999772305161;-0.07566170290217185;-0.09754128905175295;0.0808170968723527;0.050517447117367525;0.009451866322999658;0.035426795840082126;-0.08680453317330111;0.015396643216558842;-0.06260042441653708;-0.013944758102213115;0.02235378427789629;-0.042011728623404035;0.0058246329206537995;0.07164630915569736;0.08644587978015913;0.0797532911545489;0.04818498823364778;-0.07947566221302174;-0.08511897344401365;-0.043993243545344445;0.05276716081763014;-0.064230018071017;0.05514948151942234;0.03850713042553594;-0.09099147176275808;-0.03636343067527688;0.011600883557050759;0.07290348465727303;0.03706072007128319;-0.018018568546615432;0.05300137196215157;0.002073899738097018;0.08711688646838403;0.03151589319264725;-0.05621640602158613;0.09737546087716892;0.07066166992793041;-0.05294471367713767;0.07529669446225529;0.08989424756690012;0.091721221784474;0.08876896303122953;-0.002943670613000604;-0.09830463801170908;0.07811319783051593;0.07343025577179416;-0.052005344494804984;-0.02292711112907249;-0.08730324308047704;-0.09433348240828535;-0.012289668068135251;0.0137999358192495;-0.03537744043105638;0.011767811802360487;0.009074610491856053;-0.012563534628344614;0.09140826976661295;-0.009639481361269395;-0.09165617638982365;-0.02964034155982964;-0.03496264269251981;0.02371737036887392;-0.08405924277797894;0.06134495850597685;-0.04203422141597551;-0.07305435661613165;0.07364810508297212;-0.03482140189061027;-0.07568857589365174;0.03982302397511003;-0.006768533039342148;0.001942211914498504;-0.021199902478782034;0.008047604702155181;0.037689353943291815;0.088262853938635;0.07801551794037076;-0.03551211029874109;-0.09749681817271767;-0.0814370180007136;0.001649304387427275;-0.0895672000060862;-0.0031127205939964764;-0.05368953101690164;-0.06624900697264058;0.09684164899306621;0.02503889079810165;-0.034731409726979745;0.04397803353433222;0.005594180594209602;-0.0326118371253596;0.09074603799754055;0.06884577353861696;0.05231657506175694;-0.07402880774695175;-0.0249928811244549;0.01868572705455651;0.009861240312418057;0.02387843993891807;0.07012659557572973;0.02624969303053934;-0.004987110714586712;-0.01617480083024858;0.0069184718123560945;-0.089817428064002;0.018656871792722934;-0.09332208782113167;-0.009316616968482072;0.04467233866977527;-0.061678383611582316;0.09775858208356897;-0.011009950571570018;-0.07601247987943663;0.08942861556062984;0.09809477297826583;-0.03707476270245884;-0.006272771957409079;-0.08345758311601133;-0.08433037209099059;0.098343785947757;0.08207112636620059;0.004620655895307399;0.05667184810499484;0.0371185988548752;0.03102945215260683;-0.08973598553653594;-0.04325430096784149;-0.09160933836388872;-0.07230699325366835;-0.007033749315143778;0.0122410194270072;-0.04018099659978822;-0.06451683817119865;-0.051197196386399926;-0.06791347548139567;-0.02417324357815384;-0.0391802903653554;0.09279089354117717;-0.08522087520649835;0.09842682575135528;-0.08582344792803104;0.0803737777621045;0.09127592726150022;-0.07603233799169273;0.024182405095238016;0.07103013530886568;0.020631419259636546;-0.07134231988752134;0.05177774911160657;-0.0719893641754708;-0.06401542776044278;0.0331022845232099;-0.02738746136887825;0.09958790761838418;0.025808821744083332;0.08355384325550558;0.058296197144448864;-0.09969344361447599;-0.08483791685343792;-0.06683830234107865;-0.042352376078474044;-0.007766833954963165;-0.053063262412104;-0.07677783376401336;-0.022054811110710018;0.06620628169680229;0.06310964771589422;-0.035571469420766264;-0.03382326056966865;-0.07691356867869246;0.08599213468160513;0.018121057071013677;-0.009710410699844602;0.048767967128614365;-0.03172015852495402;0.038268237274782124;0.048619690529714016;0.025765371945387305;0.03612960936106474;-0.025265387771682593;0.03896144135151258;-0.01253272991620244;0.08425885800242536;0.027922295177950807;-0.0339910321365349;0.09457782458002323;-0.05710616021974815;0.043282760026756906;0.08614208947196264;0.06010831910973127;0.07738043109120149;-0.01580038895038001;0.05648525039055349;0.08062717745271936;-0.08056584818789357;0.06323858149625033;0.06615753016388859;-0.03249005578546152;-0.0016098629191000358;0.07339752921396789;-0.03247736666995936;0.07818929535043814;0.07245315974149033;-0.08064354984812015;0.0074388969642172065;0.04740503080791797;0.05994762298631248;-0.05127254687796128;-0.04149071965892011;-0.08154591494932731;-0.02943245296158474;0.08330479416524539;0.05033137843892191;0.05887049472375128;-0.0739066781704989;-0.09489813457778512;-0.01979825051350806;0.02720885193598241;0.0036653579714954754;-0.019537916991476917;-0.08513297803918807;0.06496019491544108;-0.05452531957907132;-0.0749560578133878;-0.03514460594099432;-0.0012897773533562251;0.054489427360276926;0.01702615982480493;-0.06761571929343838;-0.04645683177137821;0.02748878284447867;0.023710992540440318;0.004107127474306235;-0.06570820475723685;-0.06368704173238454;-0.017225781833445516;-0.06763658709328926;0.006787417962512504;0.009113203631915007;-0.016484838077954936;0.016428659790894;0.0791098679188906;0.011601806895825392;-0.05189332212164813;0.08376441960353581;0.08283752007065878;0.028302087361624845;0.012845160228460134;0.07126827781941522;-0.04570271380807148;0.043798398003728145;-0.09059946332548985;0.0065238592199495515;-0.02998099343880252;-0.03144570244073788;0.028562817119188982;0.08000403183295887;0.027648824230360997;0.07689125306087843;0.007216582865592819;0.09332553068504335;-0.026085203041734034;-0.031886162600354886;-0.060422134577234936;0.008237131304860854;0.009702443819197784;0.0023269149638700803;-0.07807598429613023;0.08414180116539424;0.03449345578412083;0.04604405856966834;-0.03524641512247753;-0.09752380315750997;0.07761573455683016;-0.0965624891889248;0.024036312539993637;-0.002039335892009192;-0.07050663713523896;-0.05241177412357008;0.03246312680834079;0.08984924994379626;-0.027103386507181693;-0.04826416612127902;-0.06930384664576246;-0.08682031822663012;0.014191955336972678;-0.07947133222919141;0.09861869761571246;0.050023388416496894;-0.08540794948283888;-0.07872625742306878;-0.013414731267860927;-0.03926452365944149;-0.036570758333744346;0.0362149437446318;0.03547786956738552;0.02742936812826874;0.05069085610551824;0.004654397221088;0.04174956029625845;-0.0363834931702095;-0.07881465464847254;-0.08133828172122576;0.02141865256789202;-0.03220534819063332;0.08479804615762881;0.007717583704347025;-0.09636071435306269;0.09886952501915264;0.010264390078513805;0.08046526529535644;0.017040691038254563;0.03553444682152479;0.006419907288642765;0.005960627718204464;-0.02902280667489668;-0.042479669133193454;-0.09654977555979734;-0.005077867673432615;-0.06322177111127376;0.026845690891923013;-0.06585893151847014;0.08098084396005065;-0.07100168901624744;0.06906664155859141;0.015128264515068143;0.001930425821914633;0.08666706633917531;0.054526890350814566;0.028147727694862207;0.0809771343568006;-0.04546078486508416;-0.020392258606696467;-0.022661621009091838;0.09794326258422148;0.07443086457433737;0.003732095797485978;-0.045364580929833934;0.050152530167957614;0.05814294031468749;-0.007869042534194357;0.02403424980058203;0.004964273548541562;0.09717844807616748;0.015337643585706938;-0.020201449407223186;0.0780915100405117;-0.06249802505199952;0.007369918513763071;-0.04788881070959193;0.05387851103230855;-0.0739836717580973;0.03565216152806459;-0.06273603264295319;-0.08360320484826435;-0.05783490359720015;0.033527988209868145;-0.06977305368177095;-0.020232330718099822;-0.07119679700986714;-0.07008498567874603;0.05542248854522951;0.021242744211283093;0.02350448199320132;-0.017951654592983358;0.09636799928105022;0.011036309275926278;0.09048542145460234;-0.09397455462425196;0.029967087991692846;0.04355502585857101;0.05087216449843458;0.007608840296931965;-0.04612171552152547;-0.07375294895356418;-0.08400427737274382;0.07918707249440965;7.468101303922469E-4;-0.07005948977252777;-0.02413579897194906;-0.027034340329494075;-0.08606125733679482;0.04549816394301678;-0.06756859357758575;-0.013731077843655482;-0.03407609865408955;-0.0628863394096962;0.003631359275903463;-0.09776780538012625;-0.03459307961175987;-0.049758532161320757;0.03350541501196613;0.07311159615352154;0.035589346255662256;0.09138599290791168;0.07206906658471278;0.005239307509977649;-0.0017147765782201088;0.008026225770246833;-0.04259417364256025;-0.06429801058784233;-0.04483562679571397;-0.02544774587941855;0.09580933781283765;0.017623397641328954;0.06279507411464197;0.06925714234660821;0.04595078220444412;0.10035832942153525;-0.07572585144537064;-0.0442878367832022;0.09647268072525042;-0.09182382286316448;-0.03621331145158673;0.04645798385542001;0.07852194146043762;-0.042753013743103786;0.026729133242446863;-0.03825915922565257;-0.08883288265991919;-0.06151880217716511;-0.09586094440599553;-0.04472067870218853;0.08552479023995462;0.07168639736606189;0.08818158174338893;0.03794731697992125;0.05067861426311364;0.07401104551632061;-0.032957416726356034;-0.004033425257385562;-0.08507216552283253;-0.058872510146766525;-0.09645091727406639;0.00420963581650326;0.024743771034986844;0.0022950018802811536;9.184284602593988E-4;0.05813253743469047;0.028566349249293552;-0.08923869426869162;0.0037880325447887746;0.06127559753744378;0.08586620828217893;-0.09093701737489684;0.06015973058448443;-0.025863369524647545;-0.0772710024956429;0.06720396485457542;0.00578203565796483;0.09574515024409795;0.0460617782438613;0.08413057091407525;-0.04811189791215413;-0.0531771564967874;-0.002686502064061869;-0.05695085222319706;0.051252821434451465;0.07208037982276559;0.03557414001772344;-0.07908172334758808;-0.060656841913827864;0.014776165245829993;0.04979962513060979;0.0010065385629708496;-0.0953984443217771;0.007729634563154315;0.04387894085877253;-0.08578537680874505;0.07457168678562938;0.04926296816989536;0.08110538709755694;0.06524149588484013;-0.01046443198418396;-0.060241700029948345;-0.0992768324282969;0.048767387987644184;-0.027916033723679817;-0.04007616225687252;0.030561646192673406;0.06606132726873935;-0.08193765417482235;0.060383216717297225;0.041994707276837726;0.07211967547004286;0.07619197994723755;4.170322002719883E-5;0.07138649025340513;0.05191643002178196;-0.0128784901459131;-0.09637374086125744;0.0701475795776941;0.06329867023551607;-0.0014650882172591185;0.025936196492621192;-0.06894059340757173;-0.011920033676585248;0.03747584610513879;-0.05375046663592432;0.04313781681467516;0.06758681262249289;-0.08177699332951022;-0.04859141228257547;0.023520671799648705;-0.05511074208916228;0.05962599149623139;0.004249685152477332;-0.014207548637120938;0.07198779065240178;-0.05042924859862307;-0.07474066115999489;-0.08519102918198715;-0.08677571786894095;-0.03218358455636724;-0.0796095175556591;-0.028208256510093;-0.08710775147024195;-0.05796782611817637;0.08758258335900683;0.01167132123689686;-0.030976260539729707;0.05801732419161222;0.05717667179338056;-0.05072079804737451;0.024654162323817987;0.01924987322532084;7.80078631960055E-6;0.05766532885864276;0.005827936278252704;-0.06520957066745915;0.011779080244077504;-0.07533468190105234;0.05794512340826994;0.050529581820937926;0.057907146077963774;0.0029071224272645296;-0.004230405737256464;0.034617817319608155;0.05261837394331307;-0.052653499610940416;-0.06196044099191896;0.006931957512767691;0.01616794275514854;-0.05662154068073714;-0.10038638773321866;0.0440370470369364;-0.0984674198149396;0.02551285429869806;-0.07440680454024959;0.035806697138499134;-0.0675198341210054;-0.09431225497650038;0.06285080234488644;-0.017027212092649915;-0.06299565342626538;0.06686784574207025;-0.023791669008336142;-0.002482863219029108;0.02233328603861701;-0.01794535572088202;0.09176599002563737;0.03558408248314621;0.04871169570880222;-0.06519785282354061;4.1019963265712193E-4;-0.0647434642397709;-0.07815306484829328;0.08488990725591505;0.09506864410179722;-0.09613339704858105;-0.0931286763974085;-0.014068949654099834;-0.006742750031219965;-0.028754833214744605;-0.02346154760200347;0.06327024293707122;0.0019233030884544928;-0.040948086429229695;0.04715422798132887;-0.07471477216770264;-0.06788845027183249;-0.04379502893132199;-0.028052800411748246;0.037792192963195734;0.09962664676742787;0.08465639379738954;0.06728769842697796;-0.05464782966643474;-0.05169300549215472;0.05593083212490543;-0.016655887690629652;-0.0658521660403375;0.010662103308422117;-0.0917103290864674;-0.044061160003053206;-0.02967413190061394;0.007876263064134893;0.08257282529567445;-0.078162867765019;0.035268612981851195;-0.04814658713503014;0.06934557809582767;-0.016211323990506586;-0.0721376707127185;-0.03652473900736997;-0.08759549176823532;-0.012286259969458457;-4.979513654971223E-4;-0.06719245229505846;-0.04327841702026554;-0.021658783923734222;-0.06260332058135408;0.0729078568715503;0.04965769506755991;0.10182721989661654;0.09614006174087794;0.021772008106874918;-0.029806969792575043;0.025218534217596525;-0.02855881452109363;-0.03773785117757389;-0.06072792609848963;-0.05545570952767383;0.07309913656862696;-0.064618178979934;0.0669915862064185;-0.003667679532816161;-0.02383875653350546;-0.030319293799413557;-0.039451791338049;-0.058357630633575915;-0.04056169188134004;0.10343146630332962;1.364984921870645E-4;0.1142704789626807;0.0702445053373667;-0.06559297659023046;0.004930497460493888;-0.011037258397733521;0.00340736065747238;-0.026448645827938263;-0.03197680345093111;-0.029096264610012388;0.05409190877192335;0.0483478061180907;0.01835676477599129;-0.01513221560766615;0.06978730931317523;0.09865186857303293;0.00992554881527803;-0.032525890107205614;0.01703829076015732;0.08477658450067316;-0.003453922249745747;-0.005294569207426021;0.06914664649248704;-0.0740467430744184;-0.04532549252151019;-0.0011707855974586198;0.0364211935131552;0.012234713261560374;-0.040568073749245134;0.01719973846585843;-0.04242442220222437;0.048607634431612236;-0.08890137956550175;-0.08294608453197588;0.002332618619296119;-0.07976563426556453;0.06466527099160975;0.07515988429264009;0.07894138704563554;-0.027883455555112964;0.027074349909838234;-0.009382961564146986;0.01324485770517063;-0.0038053699388307326;0.04868322377625973;-0.09377544637175435;-0.02034849346733749;-0.05153075816743385;-0.04820329551845503;-0.08930530879920469;0.0212780799288924;0.007692856069757858;0.09765663730374279;0.063377568008988;-0.07732618578436377;0.030144916337395272;0.05906504891490728;0.041513864342829394;-0.023539083629262283;-0.002671997998340654;0.06507638702866814;0.021497010279866443;-0.029199063092382096;-0.09945820001557407;0.026079624304825657;0.03407585611128019;-0.09338357987195982;0.046967914334171336;-0.07660635962403384;-0.0591907234801948;-0.02085049046709095;-0.025229056307313064;0.11821410342679627;0.0410383079108014;0.033951242959644204;0.03237477976021876;-0.0940518482968017;0.018156640729170608;0.07177500531331121;0.0590499443302025;0.089099067297531;-0.0401971419153006;-0.07106654138542147;0.04457198824351408;-0.06227098056212198;0.012038702773534832;0.07040461517908564;0.0431505969306807;0.07925675529218797;0.036099739172725874;0.04570350887132102;-0.020702788233867214;0.0754956852804662;-0.09379252030797015;-0.037852930929947765;0.07997881789584788;-0.03167464099942662;0.09306392559038008;-0.05960855470478388;-0.012121012229163047;-0.035319700358172064;-0.10335313053358494;0.010665525934866263;0.0657891468454754;-0.006586373842152004;0.07191087596770283;-0.012422328163332164;-0.05700518171921834;0.04114454209466145;0.05337798414769342;0.003617952959615911;-0.08274862770266475;-0.0276968021612253;-0.015105512624210246;-0.04464598574982847;0.02045073199108824;0.061791205035361105;0.08418942270466044;-0.03457401479806808;-0.014241878374943869;0.07406233365372593;-0.07827213292675643;-0.10806227345145893;-0.09932448725252856;0.06611575172009714;0.07518064600398905;0.03413459618189132;3.8615520689646584E-4;-0.013203133260339303;-0.1166986789153591;0.10271883513011608;-0.08298241415060748;-0.01439942693612927;0.029346335799349397;0.046734890540868886;-0.08094141271781896;-0.043156769974378895;0.03571817811815314;5.329062529148309E-4;-0.03268692075351426;0.039807941449557536;0.048339800056030974;-0.06466301269767911;0.0062413447052562495;0.006570832877671675;0.08440191688652678;-0.11251236200427689;0.05036691816659782;0.037083149413685505;-2.3021289772214956E-4;0.011055732574656004;0.016879525503828697;-0.017816056936206245;-0.05246197027918086;-0.05155294256731234;-0.06987377954970368;0.09118600727304065;0.0020831705754949014;0.10272496971445876;-0.10329630468422336;0.027606538207389546;-0.07178180800315732;-0.1142481212659405;0.07244813775769071;-0.041175357518920014;-0.10412565565696941;0.03687149314601727;-0.00456664719859996;-0.08251784321881893;-0.11577684688543201;0.07008617759277641;0.06756237408485362;0.04685627008549987;0.08508481857416136;0.06114876581986754;-0.007931948993506844;-0.04775315031890558;0.018545636349435526;0.0477495679016586;-0.037021263730773475;0.012874905967468068;0.07354017466283844;0.035602258784417466;0.03339338153393721;0.08516118608679726;0.09710046196250974;0.02917295648564893;-0.02868525385118674;0.059989710897060206;0.030728603673782356;0.06332945677415565;0.013377703219752228;0.03290591502855868;-0.10042289435580552;0.03229799531930802;-0.0015876802031249597;-0.07766042241158287;0.06164906040154013;-0.05514281780531813;-0.01801759162097287;0.06282217150842681;-0.04448061586476363;0.04251518527006143;-0.021884560946861337;-0.056569726316678254;-0.017989448002534228;-0.04325514206302987;-0.016809098743009447;0.07523477620946191;-0.09310280810933737;0.11673858957099789;-0.05475601624119241;-0.056951200640192004;0.009068585957526487;0.017798809865888925;-0.04849741855004069;-0.0080094398918803;-0.10363039549915165;8.673011548464652E-4;-0.020015829643703822;-0.07567873816816692;0.02657878691968619;0.10251679510344773;0.03842067960299552;-0.010013533310634827;-0.011104005348295327;-0.10393862799496825;-0.058296000647059115;-0.04633514338779362;0.09214858578318898;0.04063515210776174;0.08077183077678633;0.11291525548321715;0.07688671008284646;0.007481708327439332;-0.003428621292666289;0.012586231557291102;-0.09854030788586758;0.07943148578716816;-0.05225707759262718;0.0625702861122897;-0.012494029258416256;-0.06940857785455926;-0.09976902034896355;0.08318709497893843;-0.036421532815391296;-0.019567107810579874;0.04802791728821969;-0.07400067560656119;-0.05267521012001413;0.07397279575746361;0.056390922467302394;-0.069245025461664;0.01373408394760449;0.09196841629657712;0.02681239598872571;-0.0037638940206664276;0.06986770145376271;-0.07078398069639029;0.0273968358081815;0.06825332334516762;-0.09083726056827063;0.08479752357932151;-0.053739891339932934;0.06909712567650246;0.0016835226717155187;-0.07758210341742647;0.053220426686735156;0.03203707269343891;-0.042748567632106084;0.08152782845091988;-0.016744106368123957;0.03268949020906134;-0.07840251342294831;-0.08733969128974024;-0.06173743664575865;-0.05637809652225812;0.026698698830355288;0.06428113160559985;0.012562891162665436;-0.06608098692105047;-0.034849363518155006;0.04178178764441066;-0.025863979469161198;-0.08464176008576935;-0.03759681534998702;0.07896904945052885;-0.05097957971068493;0.031284084571837685;-0.050761539143025496;-0.08452186806280647;-0.07053723861359228;0.04861304846265658;-0.06501247412836782;-0.08905706579318573;-0.02210089745537083;0.08387159249408373;-0.04266302799536983;-0.024053376091178854;0.05335910967449798;-0.07824891636121771;0.0777620405568856;0.005702984513547246;-0.09496781901127654;-0.05286452637806016;-0.004132682296745139;-0.08185149400068784;-0.02457226689170417;0.06931591872296718;0.0892817790269303;0.06746935461343335;0.08694915697500283;0.0842057681477514;0.01630166546614264;-0.044991154541460375;-0.01765205775109748;0.01150256120600363;-0.08550447986309355;0.07613969580598712;0.02454456331080722;-0.04501497064531645;-0.007168273768475876;0.0836529439652095;-0.0029815024151241174;0.05923544941237997;0.0220174451437321;0.011324504951800601;0.06535779114995159;-0.02861844293539699;-0.10689214738951723;0.006210576787495568;-0.07711462622947073;0.03831269473920337;0.04122140793963837;-0.04599560300275482;0.016312228704138742;0.04889550268150127;0.09920032502200336;0.03882269681220632;0.09340592116841834;0.08023083106005538;0.04962791956479826;-0.00566684360950004;-0.09753338838176084;-0.08139529321580198;-0.0014216837221487169;-0.09574393765000871;-0.0463237973617228;-0.09741702139817227;0.0687426591551345;0.03614754088898374;0.0561984823371799;0.0027743783922272104;0.09205058678460408;-0.04445058625467355;0.053708196359098764;0.09795985883743126;-0.05336459432797077;-0.08074628710880663;0.023173980999884446;0.10500605219245145;0.05134702675575989;-0.07238192474156402;-0.034928853301949704;-0.05991127606443048;0.08085577804419417;-0.04562869234800527;-0.04758502046693496;-0.09014514494724037;-0.008885788230298829;-0.020078999697448002;-0.006893644837007014;0.0495771545058945;0.07388771642265914;0.031850472314638216;0.07171477764172297;0.02265045598036104;0.08274107886861021;-0.0350074236683844;-0.06639230414262264;-0.04585506311316026;-0.03107769624762485;0.0033694435422260494;0.03417390367404074;-0.03318358793371667;-0.0817130049393765;-0.0011350501355481936;-0.03972225090786422;0.031260957442433304;0.02094005979258766;-0.09116140764183493;-0.08786705640277616;0.048335262013860826;-0.08959918216032538;0.0650041753242769;0.00992837237614995;0.04747905427458848;0.0556167214936172;0.00252239995308737;-0.07201117525121713;-0.07010849172614785;-0.014231727317060636;0.03528947262789451;0.057457500882557265;0.06623086724430899;-0.039914621723660886;0.042057708834955396;0.08627644235620047;0.09737618486262278;-0.06206519953859775;0.0449413615352166;-0.010383641326436772;0.03620064642980618;-0.0011562613039768728;-0.029442448362721616;0.013473140482978666;-0.02100896512009421;-0.008512931436290505;0.053453166441493095;0.04461935515577875;-0.004461679409269384;5.396979429913147E-4;-0.06432748439698961;0.04700459617099498;0.08495201733166527;0.03442646913799835;0.09174197914071426;-0.0835799490702166;-0.025376247318088418;0.035462201739124316;0.02778710408438245;-0.06674951308963041;0.07461905335551271;0.09567949381211854;0.06977873795346876;-0.07496765917450464;0.011150037180787265;-0.04990117739570787;0.07589554244538146;-0.09360449855514576;0.026041623515232138;0.0469877743139428;0.04091346325060017;0.07541389021219552;0.0225381693701818;0.08076602680396747;-0.062080043954064294;0.075667751829387;0.0038737022538704543;-0.01780752867021881;-0.06056682956847938;-0.0015121017084047032;0.06572048119105188;0.006647708628322032;0.04967049700710372;0.04513650325002141;0.08612918401502001;0.03367455029844535;-0.04106905167971776;-0.0699199990335027;-0.0159025038217549;0.009290203659474867;-0.04732621831646989;-0.056231719202506365;-0.06449563173455468;0.08286275956688875;0.05982992601634621;0.012764628060705508;0.01940608048193955;0.0068141499742319185;-0.031017548638528902;0.04192956121509592;0.0792933251434104;0.07711536254438235;-0.07795888548589984;-0.03460149798115451;-0.07320797385904027;0.031116095317567267;0.07159463188860322;0.0947657487489609;0.03138335501933286;-0.05900478316111943;-0.030188367303344194;0.01365993467088201;-0.006658700818913639;0.05169136665159815;0.04101562590454836;0.042959040125264095;0.0304619648968816;-0.06741803413502255;0.06041916843040991;-0.06664448124726148;0.05367976647275817;0.09832596080144311;0.04988763240884549;-0.05548528559313522;-0.04439086229483931;-0.08347920711044694;-0.054562439963710935;-0.07749050645488859;0.08149798004412254;0.027672954636338565;0.06056277348339503;0.004220085227536391;-0.011473751327366347;-0.013375802504279347;0.08750755692594919;0.00376599897991807;-0.08551314735534661;-0.05668702950164404;-0.02834316462236111;0.0870709294429968;-0.03322567161039609;0.09633558487843408;-0.07648817182798723;0.047244120207936585;-0.05819092145902756;-0.08387327109916543;0.00822462759877332;-0.08514179539085534;0.05628739140095315;0.07620947540483994;0.076848212407954;0.0891991894261264;0.07843143060276656;-0.015554734494009528;0.09758643747223886;0.06951645944696586;0.05923923967414005;-0.08571606895904167;0.08704403537021083;-0.013727212007729084;0.06373474660078865;-0.06398633067129418;0.04147661498936783;-0.0676056913039007;-0.09778225247173018;0.04801107157582385;0.068040672050068;0.09452055285199376;0.0949224759672512;-0.0314540841580242;0.05290199234209278;0.03501008143516626;-0.06458665003289071;-0.033245779454400534;-0.016243972238186452;0.024610980489422715;0.043774333403300725;-0.06383515032566896;-0.047228536056769514;0.00766624541116849;-0.023576423889436107;0.08594558458919413;0.09569384543842954;-0.029672683646612977;-0.05625347684418472;0.07454400917098944;-0.007138994254752756;-0.06134959711967858;-0.00865409773470549;-0.009062520633953325;0.050453072615809474;-0.04015348688212899;-0.018708276827361245;-0.0641168536238434;0.0817424435627476;0.08353143522027207;-0.026628717072578814;0.0031679351450195903;0.08834380904913078;-0.057024260301595714;0.0063391652432254475;0.06085856456794542;0.04146414587607555;-0.0636452122914383;0.07916723984571955;-0.06744846508100136;0.0631527105703556;0.00799872444006236;-0.04441337789481634;-0.07959824488697394;-0.05782727159169026;-0.06699245973011166;-0.05406417041648466;0.0784550196627938;0.07373271571392526;-0.08053467832841228;-0.05560702077604534;-0.08752933637603424;0.014695598709506513;0.05859090619587795;-0.04465452417048894;0.0046101353790808375;0.07695001168554258;-0.006046793549271248;0.005995663084868541;0.06766232445080975;0.010824514449718062;-0.084626410358147;-0.02238917635048196;-0.023706432444448117;0.03633761328167123;-0.009824143195786839;0.036773191171818514;-0.0017023602441293695;0.07444775506566179;-0.005563742203685232;0.06662992654027142;0.025845754553625866;-0.02169666963606484;-0.05576652648805467;0.09814314181851067;0.006736572923802767;-0.03550733543084175;-0.07310136614530005;-0.058660111582493804;-0.024353808513284808;0.04429403587894509;-0.06773469110958322;-0.07265898732372598;0.04397312153358435;-0.046671914533568275;-0.0025553578752256917;-0.02546681224659164;0.08944573706346626;-0.041947838944766974;-0.03447736128271142;0.07851639859789775;0.011276674252725896;0.045631916782247595;0.00490329873151929;0.0817184005738388;0.01973120047769808;-0.0507517145993583;-0.02323867625683282;0.0283857950923182;0.0472059547032293;0.044526040169202225;-0.09497223352608584;0.04583403342983525;0.02947890063715225;0.03078380165099176;0.05764001970868471;0.02569741160602773;-0.013040630708272508;0.012284047492235328;0.027791835015229555;-0.09482092579790563;-0.09406197892118547;-0.02051691058134697;0.01518330272069035;-0.05169899076147906;0.019836879430616988;0.09028110387597268;-0.09272913830951324;0.02715406987489591;0.09045931077624705;-0.04872790289466682;-0.03948269387302888;0.012069862238757362;-0.0054010526073899195;0.011363684653394476;0.08856854692114213;0.049880337739923175;-0.08109989357161758;-0.018208687430008585;0.010064259234525627;-0.05648322742097485;-0.06666889750373503;0.045327135207817754;-0.076628226739554;-0.08705536359221629;-0.05514001050000832;0.07914488695057417;0.009073630637904423;0.025358426502517767;-0.05950369608483459;0.07327230526621004;-0.006581112338166384;-0.07356837535609054;-0.08145889190424221;0.061841126329707286;0.07957309600472076;-0.028433271497424806;0.019836956094570632;0.054337104487722304;0.07886831622078469;-0.04285476763931198;0.059017907167413286;-0.033150018940720435;-0.057946889611472346;0.051777640616155196;0.05575953033658329;-0.04667648427865754;0.09054254667421596;-0.0724465425550625;-0.033971108927046495;-0.06319453873002841;-0.05233180802556861;0.0018993953878732733;0.09943215357549554;-0.008935730274791914;0.07345530662871527;0.08034849036719002;0.07024773131804019;-0.06949913630538701;0.09778914981243808;-0.004976967309268818;0.08464414443973947;0.038333542121721936;-0.07687376483944164;-0.0960680955377935;-0.03753806605458674;-0.06743734833533219;-0.04804518222170058;0.030379405555319677;0.034149572602997114;-0.012891062945894899;-0.012003929203007774;0.044215241040913705;-0.0779865744514027;-0.08693643273662602;0.017454063860523908;0.0430845205350448;-0.0785322295038093;-0.0600618979259798;-0.00973421964519458;-0.06632222159131743;-0.01771519695383658;-0.003085466852879651;0.001351122716310188;0.012980949293926125;0.08984462411245606;0.09409524760856933;0.07186289389875489;-0.05047462660745723;0.04638524523110252;-0.09624695770168426;-0.06956319135789735;0.0021474604352215024;-0.09193147112111105;0.0885944396534852;0.021632078649578137;0.013633982850859606;-0.04254281951956048;-0.08386914068982411;0.025257439469080403;0.021973466040130892;0.09344162699539232;-0.04951539154373828;0.020963266983920672;0.0711643942200319;-0.05895243421611864;-0.08807802648606664;-0.009586781118718033;0.01647953512897439;0.09570966498160997;0.0504288303652098;3.3546387768411786E-4;-0.04148660334970944;-0.04690180454023714;-0.026878083238768603;0.035099348128115146;0.07038610251877774;-0.05654583956747413;0.07845011227145463;0.025103749783172803;0.03273122454518922;-0.0417324767831592;-0.01340482716629013;0.08339506242559871;0.06406136710167033;-0.013086667927565342;-0.02952128654519814;-0.06852473482919244;-0.05130065436779287;-0.057429475560812224;-0.013906596491004562;-0.06554342637760881;-0.025732204475831667;-0.05951501681501661;-0.08030547651475069;0.0396083028922424;-0.08056623551524668;-0.03243713477611847;0.05371410965313421;0.06356570060040875;0.02882923292711639;-0.059526234817889996;-0.06437983827014532;-0.030746423518531275;0.058595454986257414;0.011982518081675081;-0.06633440783679367;0.006888598528441602;0.05874121286667375;7.167959238313595E-4;0.05047297230575654;0.03266557707310583;0.05514957245787157;0.06947614399353787;0.005615893241470564;-0.011645321389639862;-0.06883534532985464;0.010356820636855413;-0.08422429760302935;-0.015500648156949504;-0.09227112722823269;-0.0778510268500489;-0.023112393368601047;-0.01978352828109451;0.025084261804655672;0.0945589419425851;-0.05548330184278289;0.06496605991375409;0.02470825157593913;0.08799446164553457;0.015056315285166138;-0.05794255654559123;0.07231225854229338;-0.09827016172487862;-0.02984892098049456;0.007860944937308205;-0.09124457382904208;0.05055470992904639;-0.035349011208991796;-0.08862663601326369;0.02705168871222678;-0.017642487635393323;-0.025056554479858096;0.07600683309575168;0.09834190991425457;-0.01776735381979102;-0.03170002558353272;0.03967848211482331;-0.036777991945457104;0.007073668103013568;0.04139426365445413;-0.05557550543255849;-0.03614529454162981;-0.015289144823206252;-0.03777483709761051;0.08713401727817663;0.06917440635010774;-0.05032672635924133;0.08756950476828736;0.04185939441396323;0.010364105000942994;-0.005315197715871551;-0.0955149551145985;-0.01379075722522541;0.016352646025051872;-0.016111352237585426;-0.03994323284740755;0.04995592540010528;-0.06737848216620128;0.08714959796178257;-0.01099093291159658;0.028957068816886783;0.0195227839049923;0.061832168867619275;0.09371318288124988;-0.056995450832020365;0.09247711488662992;0.08413321514896248;-0.05657280784700152;-0.022331971257036953;-0.01055261774637384;0.03865216481280722;0.05046473076688495;-0.03599507974278318;-0.07958687629562547;-0.028517399677831946;0.09573995424731606;0.06581848548653187;0.021654385496873166;-0.03427258744272377;0.09313496951529424;0.07556284067226943;-0.022569032969375815;-0.0839920122742736;-0.037678448463112184;-0.010134180673451869;-0.04879365831091809;-0.08493081722944316;-0.0818759925158258;-0.007109607861445026;6.797519775555977E-4;0.033902351852155274;0.049972265857169414;0.03701526762976126;0.03791646789975954;-0.0946616087902303;0.09842516650937644;0.02906578160874733;0.030211754065514372;0.09974230336202848;0.04525714553930332;-0.0013857115438741323;-0.06458340519101322;-0.034041406289650994;0.023287750816672347;-0.07249437038001444;-0.015149524947245918;-0.010231173568449744;0.017626606918374112;-0.00897425402145568;0.0988984878243937;-0.03380947117028203;-0.07261015380439945;-0.03204555761413761;0.05497354634836213;0.018506946574110898;-0.07822422440529697;0.028793489302905956;0.04346887042576315;0.07656194898745673;-0.05208347467644975;-0.0882208441022511;0.07793694996306767;-0.014258268412753626;-0.038539615513167376;-0.046345596527931104;0.032828872249615317;0.05644727119943631;-0.040915048444056454;-0.044826933107849694;-0.07984596802711745;-0.08739386406950547;0.02097866994073263;0.00673838545717162;-0.02567126323852876;0.023610529143046517;-0.08781292884737926;-0.08832023249376497;0.003820381595269467;0.0066647454036917065;-0.029635699943641368;-0.006280834760453695;-0.0845427015287595;0.03961873452880172;0.014163274854074582;0.040021058610907545;-0.0801483836936912;0.052908124958707364;-0.09594934332870322;0.08259698464743308;-0.0889950509220357;0.04670928452968322;0.0670907581480891;0.00808642762453325;0.08399524083122722;-0.005235350703435316;-0.016112961368355497;-0.012831585464554872;0.0653270088722338;0.027346137957017333;0.04545630554479137;-0.09864026072696434;-0.05827890159182217;0.10383346495024022;0.0557654091660796;0.0123889141421963;-0.032104298287630305;-0.049351604824300004;-0.01546029437058388;0.015220179204566002;0.018970065679624257;0.05324182469041617;-0.00607321681947492;0.013281363833605965;0.0187672204513217;-0.10367758134902512;0.05035750811928483;-0.06537949763186506;0.057570491319839844;-0.08318389629588405;0.02924599649520698;0.00241348717485946;0.051486004759733396;-0.09966819393514376;-0.041815152723494405;-0.0580801420847754;0.08908722462170639;-0.031800255832692775;-0.09054947598128282;0.01598144180814551;0.03550313650503079;0.11525163207961367;0.07050497258088248;-0.01661436546764712;-0.014476810049083327;-0.0754604398218579;0.004584026519566397;-0.06603227201377725;0.015563832091968186;-0.09083311867939595;-0.08897458603945127;0.02694835844250268;-0.01382150050493771;0.005131349459484241;0.01102838178920524;0.05210397507996294;-0.00794131902896508;-0.041554093826186536;0.015909477242879024;-0.008874653129728346;0.11692943965691469;-0.057425058864601995;0.08816759065193654;-0.060673472062008814;0.056273517761772814;-0.029419813640317198;-0.08513254352744448;0.02065529148223098;-0.04119004944523188;-0.05553151781807749;0.01486157729382372;-0.0833690249633846;4.873755947724768E-4;0.05228623203445249;-6.266739312246437E-4;-0.05150093326332699;-0.10130314994753513;0.00738389665771218;-0.048016759033732384;0.05887738263384461;-0.0977687227286385;0.13496194424730748;-0.011690429724270382;-0.01378787765841947;-9.423392500820592E-4;-0.05081404192493797;-0.036321321570251544;0.05363659878931797;-0.011448388989958466;0.018730727253468603;0.04007771395609291;-0.028824799143639168;-0.06997547901191767;0.07855543663071106;0.06169990134259138;0.029019336381250482;0.020200087198289425;-0.08810390266318988;-0.016528782041933518;0.0067320798762402516;0.09155602217884548;-0.06617224169178382;-0.00396224917684125;0.043975445646785266;-0.07696412051445929;0.01925672503537652;-0.020136614745702736;-0.02972935421531283;0.09621319198981582;0.002302485896662929;0.02049220556469564;0.053482699894667994;-0.10200182981993049;0.07523029670678553;0.09457721160032184;-0.030701183305598484;-0.0062879906740096045;0.05902123888684802;-0.00418043182576469;-0.020891675693373954;0.07320005322713889;0.031384946496105764;0.012377471190544862;-0.006236880777180998;0.0675694810378818;-0.06117212689928459;-0.024149504183877703;-0.02946632092978452;-0.06561429303668612;-0.008122535555038137;0.06458459114665924;-0.0060920381819811785;-0.012051300613567854;0.10769736569876025;-0.041112105515532314;-0.011986392092991972;0.03402780282237796;-0.003545793869015307;-0.0014546407107836141;-0.05014703115362525;0.1006144018826192;-0.08803100839622663;0.04538021085330351;0.04811056759612666;-0.07119969803237368;-0.03634523260697959;0.001033305098571921;0.01652582107449406;0.02724036308681243;0.09714780856359786;-0.038864266594419605;-0.0404499677530538;0.04588833042714874;0.024970444573713127;0.0757278515159104;0.008851952243335093;0.06184217889218534;-0.055914828729248994;-0.0304160903383737;-0.056054578311515287;-0.029973559110187786;0.18789475786854884;0.055987549795913666;0.03411136442407659;0.2160314142445329;-0.12283285350404939;-0.03844962069903667;0.02097371617498018;0.006166686523652759;0.06770222373487189;-0.06571872521955502;-0.03215247714885248;-0.03679766391042157;0.0891826519037371;0.0063869942314898846;-0.10385886513437663;-0.0278018033460448;-0.1053450562794582;0.08749264004532332;0.07827369924753545;-0.0866183840396926;-0.0824516939376723;0.04761667450712942;0.052721254079058706;-0.07941822216268032;-0.04596838531232687;0.014237759306037365;-0.040016661203746;-0.008498141685913757;0.11184518823235294;-0.004995145783404111;-0.005428767759505591;-0.08282717591797949;0.009854085416083371;0.05830928355779911;-0.041431299932329586;-0.10360335165379761;-0.07812980345877577;-0.0973698198982815;-0.06821400681298678;-0.03384729890587993;0.2340801739008261;-0.06079749807683229;-0.013931021054811076;0.3253020066839034;-0.022350892709891546;-0.0681598621469178;-0.005331648029349326;-0.017159385060616178;0.05540824969231413;0.028682219015619;-0.008938568940649733;0.1107324971420636;0.20076538943287703;0.06017305431168262;0.018921803892048988;0.0126845550623051;-0.10069416373502353;0.041035703192314976;-0.09512378334691463;0.048540285975930214;-0.18605343130275923;-0.017910327685740152;-0.013447114362617238;0.004749609524555523;-0.06056150063178025;0.10137562439131907;-0.010777883542380053;0.031659335500021354;0.11096576651098332;0.007074628842966643;-0.02312399439642577;-0.07196310974930155;-0.08369019869940068;0.09387917099782613;-0.1322706799451144;0.048465843095560776;0.03038367931976012;-0.0374406637405729;-0.13064042584570118;0.063999958210672;0.31354434139209497;0.02017046490491527;0.02160289202912469;0.3065222090209498;-0.14663035428010252;0.04089510491559483;0.10272132173494761;0.014803161143887857;-0.007733675387385743;-0.06831428731250913;-0.01063225817372496;0.045875848314510984;0.10897970883997027;-0.04504722097564432;0.049067034111252725;0.09543629589272665;0.04318845925195392;0.007035224291276132;0.0970406708473527;-0.07851286167292942;-0.20989615049394847;0.08060246836056037;-0.14094790334413873;0.023652509878828276;-0.0684801044978315;-0.06503288971760458;0.014790154276953953;0.07160174600520405;-0.022789979321070915;-0.00547225310730149;-0.059724221043453464;-9.405595862410929E-4;0.05295479369298769;0.07793799131999853;-0.15903672996493662;-0.05306049114045822;-0.005949262727701078;4.36919426468808E-5;-0.040458647004905424;0.0519919016612605;0.10238564578069774;0.07541872729080798;0.07715571578988664;0.27380579774781577;0.015575269263341306;0.047759053678581354;0.056134709854584186;0.08351736334706499;-0.012158101608629554;0.04468741034906849;-0.03409881974886285;0.03504711465728767;0.19814548309882246;-0.0714792393892719;0.08789863762157904;0.07132420599346644;-0.10757915673386348;-0.08639782741920546;-0.07910722474651255;0.026609165361523492;-0.29107527312168124;0.051473098500447866;-0.11492504453781166;-0.04261830048316382;-0.07671636401222683;-0.04432188937691072;-0.08065155474261435;0.052271703343906996;-0.022953719762964;0.0393408591330475;0.04787835081143654;0.11022503036066357;0.02205528184130821;0.040821959988359455;-0.16681480821304417;-0.0571958672050576;0.04835058830550744;0.029776147575286818;-0.10891083435021236;-0.06964711361619516;0.2335154131882265;0.05803067310541137;-0.05087206089295975;0.20819017982438498;-0.0978284661520423;-0.07409647691259377;-0.04690554384881069;0.034708601455278126;-0.027583727592925246;-0.02467668042308983;-0.018333764867041233;0.07185222612795705;0.1124438430100459;-0.07035621841027517;-0.02213187797868348;0.08043471537055358;-0.0537034757200405;-0.07584934555358111;0.027706073860346823;-0.09106160383229128;-0.2859401435493368;0.14045998274557794;-0.1294519539990322;-0.11576250889851764;-0.07651070649486345;0.02907084483850828;0.07774634734015538;0.057968307657784206;0.0564790101609124;-0.029159914087622373;0.0776267152861673;0.0989182196284781;0.037753319116247554;5.057999023416467E-4;-0.10472891762961874;0.1295405920506393;-0.02219242011351973;-0.06137306431465676;-0.14297279188353693;0.011646222258640863;0.1378263585223607;-0.02414162076181479;-0.005111126405490858;0.2947167881112669;-0.09727143807904537;-0.031054784472453356;-0.09859599634370454;0.035010282925118555;-0.06730568714948365;-0.03004279319112136;0.09103758383091279;0.12801576365399717;0.10352664362847447;0.06585590400478107;-0.05227321934846144;0.0705325945792099;-0.03179659582566011;0.02806066255051741;-0.07846109089523871;0.03879186139239873;-0.33184646980713;0.1738056029612921;-0.12075489417879572;-0.04104333572503204;-0.03842625539576096;0.02088362874565314;-0.0178206660878703;-0.020772320997619744;-0.08097613843032878;-0.03882610480696762;0.06922952582628486;0.018929884742605565;-0.054134944625188544;0.011716191820271768;-0.11936457567659087;0.01666457383394524;-0.03490161781707288;0.017584067046681064;-0.1369725241097386;0.07488930522533316;0.09776015855124501;0.012517907229813031;-0.006295911234110737;0.31414580319666496;-0.16371030035007242;0.012365491241867496;-0.0303165153422475;0.004590069720881609;-0.11044798001975793;-0.034885609533237265;0.05209405932699634;0.08700480959617175;0.17569633168238466;0.04144996385359889;0.07472023850848358;-0.022546567275577353;0.08941850940785648;0.03394997155745643;-0.07213288823343954;0.04847312241435798;-0.26738318175249626;0.06742065458341127;-0.08032693420999498;-0.024829353801784446;0.016964646036706145;-0.0859529561677583;0.0157249315126459;0.04249242821494059;0.058220679721083475;-0.10464594557010483;-0.08639103626998826;0.0867533190149295;-0.08480895999972202;0.04771923065069505;-0.012812362430775574;0.06221571774566141;0.033792409520065216;0.04787209801040701;-0.07241759821877534;0.08028236463580156;0.026319906207392822;0.01726015401607182;-0.0355843910632254;0.3620053877370194;-0.16977743694261466;-0.0034345414964749876;0.06602075223733417;0.006516284072416232;0.04026758764505442;-0.010822433829497324;-4.970214429750918E-4;0.059432423624016475;0.11875294525527967;-0.024574617319570953;0.09348607965145862;0.0689504537221953;0.01487800980815341;0.034180233746216815;0.002217908638353667;0.08045615175883425;-0.17232406771345657;-0.02085899037930704;-0.13504375472900804;-0.05773570936109363;0.028649703720390246;-0.020792820107339828;-0.038139657721928746;-0.03432859792328705;0.0023929113951696875;-0.02368575458997053;-0.17477582949698475;-0.011766152890912665;0.05522557921195633;0.10361378576358103;-0.1629128456853703;0.1400337818459987;-0.04923373151317475;-0.060271197395741896;-0.023657815502208822;0.00934575243053964;0.08240147932137698;-0.00350132389652267;-0.09387776269870725;0.23374667721224698;-0.11181250423828658;0.0722630660061187;0.023498471352527105;-0.02613869308133543;0.04915979388138876;-0.02811399213012826;-0.08382421808151763;0.07515462838274824;0.18890341461818602;-0.027718721634693556;0.10011680881973452;-0.061929823045614465;-2.5883885517583244E-4;-0.01813220979972706;-0.01878866050103468;0.057403373366627014;-0.19804049690296463;0.1150551154899146;-0.058882910317775095;-0.009570942358914238;-0.09236912258849411;0.018452621854815335;-0.056498657121552144;0.025279610511887474;0.026170028310421766;0.014321645124850983;0.014921231022961948;0.07460973884776008;0.08658019968678717;0.09547786043020524;-0.10445093546194954;-0.05255167244294068;-0.04961736361557969;-0.10870401419753674;0.019456217517186382;-0.05384788327032566;0.11950189648134477;0.009560015371900168;-4.916749125870431E-4;0.16455639125742674;-0.14450318094684525;-0.029872458803425987;0.0022487376242894177;0.0930504864736846;-0.06206085694985879;0.058209431610227756;0.05081245340772567;-0.04806372217447023;0.20121647010019864;-0.059613553670639;0.06339395288911825;-0.014794956161337197;0.05492092056565193;0.05994542277387813;-0.009179879397487664;0.027261899420579716;-0.1514068329751228;0.0920346838994777;0.026114266618008565;0.07009128748788546;-0.00542822037639227;0.012980483572787376;-0.016680533921445664;-0.05253686618225485;-0.027337667068682597;0.049450872061080293;-0.00785880491396333;-0.09550447907415856;0.0839018936413451;-0.0039134517899174605;-0.1090855143326273;0.009706055765133541;-0.019770989998129592;0.03459479688265307;0.04547307928388974;-0.05958766176383134;-0.001915292261754681;0.07360288188591439;-0.07941320999831027;0.28391830895563697;-0.11412842672937279;0.005795820696507551;-0.007025052459039945;0.044376721562821124;0.016003587565781376;0.03790031215234602;-0.06456441882214581;-0.005020301689000823;0.07265232486856378;0.05864174583909464;-0.011088937137523085;-0.034040329053135754;0.0860056998033487;0.031669630011828265;-0.02349244804621338;0.07155063298321274;-0.03440955251591658;0.08216408415186198;-0.018199922337965274;0.02522869339908033;-0.03540523478146533;-0.10989030344154244;0.04227742327532985;-0.05053046723947972;0.08791539445019152;0.019319610915349512;-0.12690704547261197;-0.10921938136620601;-0.009486158689234674;0.038356120446790744;-0.10100508581060164;0.04746803839464363;-0.06763550077720958;-0.04587475409131766;0.03910909248562873;0.06702053236946788;0.009666256647055161;0.04939474626632889;-0.022733703467509032;0.18001032016499643;-0.10207401147531962;-0.083248404273859;0.11408871467754007;-0.060027996329721556;0.0880590895453822;-6.266358429412519E-4;0.016552565608060385;0.057515119969240955;0.044736151216137054;0.027528633301955627;0.02779153471533156;0.07076628940512951;0.040822716735200555;-0.07095171161270343;0.019887550306801307;-0.014750399531666243;-0.0021141505965175836;0.018889060613988946;-0.050972409186591516;0.06946045910378972;0.01028490751606359;0.022273018473897715;-0.037070881344023775;-0.020584963379267275;0.1197878783953869;0.051885478350124734;0.035091787932399844;-0.06787968457522882;0.08512701689901854;-0.09726947852537877;0.0443012533590634;-0.04522860075772924;-0.07668435078994681;0.013707111596009458;0.026779118494103037;0.09611404928382045;-0.09035113090209833;-0.08810034917349062;-0.02966627228354363;0.13593511777078823;0.05091597692539947;0.08287089770774035;-0.003085910233343699;0.07527979780666967;0.0034393710535813374;-0.08727123964566068;0.06259964431528062;0.0883911860803092;0.06929138371386317;0.058498034166137344;-0.07694759659151185;0.042135499946588516;-0.04385114794964997;0.03095771774385337;0.02434618861970838;0.01784352562775739;0.03746464147079247;-0.04614478145608504;0.08255314778403279;0.053483302133614845;0.054557380942134664;-0.051077618252066616;0.022911057143162234;-0.029771236481143794;0.0808245428465008;-0.01171951680758991;-0.01214237435542299;0.0899943708626144;0.022548385299114865;0.053548535922880225;-0.08197524780372717;-0.04536699374451265;-0.06069326189932095;-0.05425326859931806;0.08957291150860572;-0.010696249554776308;-0.0767016578252548;0.06822043400958266;0.0171273375006421;0.036871930968962484;-0.06883371325320299;-0.04193117813170801;0.0602620198374982;0.07923086464023382;0.03454918007504701;-0.03272285021359144;0.036448829760068004;-0.06801835494755708;-0.015307760510746445;-0.06945048368083853;0.08876725662085282;0.03263517559477627;-0.06515304201001988;-0.05526980823706144;0.005841607562387802;0.03513959803910371;-0.007784200137508429;0.02056233474546233;0.021100111371931865;-0.09789531887582317;-0.09062948661379717;-0.05443459295233441;0.06668828952667158;0.09083165931664595;0.04581485090430726;0.06011548183798702;-0.0578633568365924;0.041145955407356785;0.03626320302419044;-0.03443843194755185;-0.059250830748699634;-0.09286950849563556;-0.08406930560580823;0.06920015370674902;-0.011295074728856798;0.02795383183128618;-0.034603798660942806;0.03395999143808075;0.07426693720687867;-0.02330494803158103;0.04367020402460496;-0.062194105885812714;0.030298543407623238;-0.057549233484027615;0.0023419933607365965;-0.02662716461037056;-0.03356648036902804;-0.016153753359654122;0.06188790788476953;0.06836753638762123;0.06692517525172152;-0.06038620861233119;9.597483842080312E-4;0.03595950487593648;-0.055376178767666026;0.05055256910144081;-0.067864683951754;-0.026371346500769017;0.05704981126436499;-0.08044674159811056;0.08144877998918743;0.04492081499095353;0.05149450197006327;-0.09682098322060044;-0.02435104455363135;0.051373631746690504;-0.03433232972683026;-0.0705224649662259;0.05971052790286338;0.053928121122434614;0.09548649618224184;0.01037704585284445;-0.0833290623311809;0.04661995452509998;0.04141357215331226;0.01859228986937618;-0.08788278987796677;-0.014904134647821393;0.015164305574044468;0.05252541538579608;0.050643512563604776;0.0695951582037399;-0.047923739630933194;-0.027934625617597394;-0.04385668847456095;-0.02253104965501218;-0.07758867641776189;0.029837949432588273;-0.09694059435406531;0.09443017477962529;-0.03739430347091684;-0.0975442730261183;0.04763390490149014;-0.05419642263724578;-0.09348010809030743;-0.07823188173729433;0.05915822771940363;0.027775728814936812;0.016688745822784276;-0.09388865543365188;-0.04877688104760103;0.03864500991416647;0.015571405937906582;-0.008441550822976734;-0.08703136492940344;-0.08992837947030306;-0.08319866245096502;-0.04091815477932484;-0.07563115684506538;0.0939076907036174;-0.0888481514473048;-0.0576308118786127;0.04644790096809226;0.07360866789371606;-0.006976937589577695;-0.05066179801314999;-0.05189233653892407;0.07012864623004422;-0.08531463913627824;-0.028301280860099004;0.0227822018200127;0.07120405764790858;-0.09924431991034632;-0.03647371450603336;0.09658380773668851;-0.03243792955595863;-0.050845824300083976;-0.07748781476688976;-0.09044699383233264;0.03417056627293308;-0.08764577642096504;-0.02878659709279667;-0.003091476610072877;0.011488155886183682;-0.021367576297212573;0.03830266301313487;-0.029702667457466747;-0.013285831950235943;-0.04668139604337643;-0.06018159300885606;-9.553872584220358E-4;0.07503865932290313;-0.059954193927303945;0.06041480300370658;0.09140377077999606;-0.0991076029851154;0.02200029838897917;0.07633482157112581;-0.06564829619928965;0.03908358452394084;-0.08804626947071062;0.07480641143789554;-0.017347743198459442;0.09156986814827275;-0.03823630955396769;0.095778093810444;0.011867771255021503;0.05252432880414634;0.028159146944974983;-0.004057499992770414;0.07379891111913017;-0.010441225968092868;0.06526619561929392;-0.06335687389277411;-0.09229029300171306;0.040560897785665545;0.08029931142116212;-0.08487564460520439;0.0715775785882295;-0.055055729904383566;0.06481134726476509;0.09578145398247451;0.07334330943717113;-0.02510165836848037;-0.07405646439045054;-0.05858944846740588;-0.09783892166862847;0.06663844528594834;0.017675493023703387;-0.05554132437691526;-0.04035156594370504;-0.04834421714362367;0.07207520090577926;-0.041726276471598614;-0.00886369109921245;0.08796744749005203;-0.06945096312973538;0.06199985202167155;-0.03235559725105071;0.03285660000083615;0.03737022636992968;-0.01711719754894407;0.05944353014128409;0.0032474749619764154;-0.05416398428492038;0.054703524220754446;0.06531031238924698;0.004501815334562689;0.005334032881685213;-0.08669477500300855;-0.01600615822964649;-0.02789728373886624;-0.0880904902227401;0.08912339319610324;-0.09585201034086642;-0.07324943775092581;0.0421374630408331;-0.011564193726691013;-0.014418582203865299;-0.044386973481311445;0.034372696371256645;0.07461252411032046;0.04050757167553154;-0.006424944549885583;-0.030000203104953313;0.04936589432388078;-0.08520532010679967;0.0044888917732544276;-0.04531686548554195;0.03400054863360616;0.06921575945525746;-0.03757593800507848;0.09961687317648721;-0.049336597789939624;-0.03930139679479543;0.03291736680621654;-0.09722505362091141;0.003878125623270411;0.023081872944683245;-0.06962237122531151;-0.07743285883306975;0.027926258613718627;-0.067108946357444;-0.09513697052223229;-0.09597514340812914;0.00989977222297497;0.029765074321572178;0.012407326459339646;-0.0431611150819053;0.020905804715510075;-0.07019068980489393;0.06760577208484737;-0.007025204022527852;0.02440981791076989;0.0469573925978668;-0.010992961529111745;-0.06447708524680261;-0.09913373562029079;0.016098944602073492;0.026275415053127974;-0.050280808965724955;0.07841311067352381;-0.053400299797850305;-0.0017303876112375175;0.07406830874845469;-0.028830681547170525;0.015631026404290826;-0.07873625181297483;0.05558680459366674;0.00971213894615932;-0.05920755185683192;0.038946163823442445;-0.024802668821533338;0.060813532063393454;-0.018640376212226497;0.05825805682609469;0.0878569242145006;0.029633928529107446;0.010004121000022787;-0.01938712216168116;0.04892460412896079;-0.05812327681981119;-0.011234217478059222;-0.04467899676039877;0.04443678094688603;-0.0759635231212658;-0.046131974250772825;-3.9610391641026064E-4;0.07722408512960903;-0.0076071784221162075;-0.04671793945751352;0.06091669240397963;-0.09851687865904346;0.04326704648173275;0.060017289905238025;0.016120945168123856;-0.08993972667336693;-0.04960792916620351;0.018394412644252782;-0.03933450415414867;0.04111377897587637;0.05040483095180128;-0.03129071674252163;0.08128333244997461;0.042762710204081913;0.006099604215864149;0.09762319719876711;-0.055068771658403654;-0.03522973837470077;-0.09324902669805729;-0.06854397640517533;-0.025670158995941064;0.033468685921805734;-0.06982175146819312;0.016520967958582156;-0.06694683862192122;-0.06235666432941289;0.06985565103400337;-0.045551301628972134;0.012329090768898855;0.07034687006164049;-0.04324231857970564;-0.0664375220778672;0.04152875390438897;-0.05807366466640467;0.04345275076931964;0.019842090725907948;-0.09516079860480664;0.06064078919449031;-0.08549779391764566;0.07331048448958855;-0.017344585509877334;-0.046479178574937136;-0.09542789667534297;0.03313091585636343;-0.09956210603127863;0.011617573425407498;0.04017571541599978;0.06859210520391101;0.041358748852259056;0.003354944102100373;-0.008922910995909266;0.07062686377372553;0.07327015800864348;0.03820233272957011;-0.03540567264419886;-0.0992423963647854;0.0845394883925796;0.0635513821663538;0.06950162388381134;-0.05877180911799597;-0.0712106229200156;0.03132310837615771;0.025629912084595766;0.029550578611487494;-0.06855961370300306;-0.006721504065653534;0.0800953652156704;-0.03259882258777255;0.07241412945271805;-0.030932646068153085;-0.08115649867087557;0.0696839544659276;0.06470956060008146;-0.030017458390418344;0.05028728466590856;-0.053359424382016074;0.07258986376981695;0.06818740832029063;0.0034466742308049583;0.0011730354221497043;-8.452131594588274E-5;7.733118098422563E-5;0.010442180181158504;0.09728055324364375;0.09466704417799579;0.05746981007737757;0.0036030934265078324;0.08716514321536482;0.06400992585867016;0.044624479051966266;0.07938976502917174;0.07072807925482455;0.03717712152666791;0.0807057175386374;0.022212894440680992;-0.0808483722632218;0.0368781199910559;-0.05437695365295289;-0.0736704437569728;-0.07389020876829058;0.08399782225480933;-0.02268891062386253;0.0782523029597332;0.08733467969225613;-0.006545216207207175;0.00835652146275565;0.018112961079780065;0.05389039752492296;0.05510048942772056;0.06079316227636886;-0.0053423798204247554;-0.016285163448799222;-0.06655094948283033;0.09575610065762293;0.02246205797784935;-0.1036307538548794;-0.06607757309943897;0.06023918852396628;-0.05895436679643891;-0.12163669672413854;-0.016294177617608274;0.08991760296000387;-0.0026031870317132;-0.02205686110871027;-0.05258166659649038;-0.056571595376687364;0.06552741924575488;0.10502559073808072;0.008195242437461604;0.030582551413612297;-0.07792061157919927;-0.05680827368759778;0.026837033307782143;0.07326529654887942;0.09738050786212496;-0.013971534962592212;-0.054385932845553;-0.016381925750355956;-0.1014278498079652;0.0314098568766864;0.08918961366786748;0.0712506390962828;-0.1131587221795682;0.05512346334024379;0.04381378666243552;-0.0748989061144469;0.06655611702769583;0.02535346743877627;0.007982646678575317;-0.13842551110502463;0.09331417951165619;-0.0025734201519331517;-0.026128748747599642;-0.07667772388266762;-0.014075320465080188;0.05421967818672675;0.0030871489530415355;-0.06105636165690422;0.11436129430384179;0.049255480564592065;0.06505403681918534;-0.044358987116081786;0.015128250857555928;0.025948341611760677;-0.05277258995487247;0.08926516897828549;0.07451801143204581;0.03496408960738647;0.04661961221552041;0.06396839186312085;0.07663989644708218;0.04076429602010667;-0.03461234862965595;-0.07423131502855153;0.06736133781673176;0.030427694134906903;0.11178151309924807;0.03438313018471865;0.03747747728131293;-0.11159338150729095;-9.566462814529713E-4;0.07509909215021637;0.03440890867013196;0.0207386930569828;0.02191019663632432;0.05323476680656549;-0.12044129997120566;0.07824967657767266;-0.06858209438861977;-0.18096342019571515;0.0199943687981867;0.030047476257611498;-0.0950570077530932;0.0166614130848902;-0.01417429319281817;0.0011886026773100836;0.04688368385880899;-0.020346741779480853;0.12709956578817302;0.025161249704339264;-0.025156920535821543;-0.06405362743550948;-0.10513415603080153;0.007478826313485321;-0.06225289822890531;-0.009338600262081371;0.047360005420675894;0.20282739196937657;0.05154126845413229;0.02839257778263314;-0.034148047740606556;-0.08116782732831251;0.036803532176732594;-0.05508318061967602;0.07873593581351558;-0.018493226812776657;-0.010308008708067536;0.03884183641390476;0.08272885831915007;-0.07732767087051673;-0.014003154264159545;-0.08007908240091974;-0.07548303914145743;0.055215118216748044;0.04098087708649648;-0.07776436961457678;-0.03092428074591145;-0.009661220838758599;0.04267714562989799;-0.10399089187462753;0.08983858096509306;0.07073519230463067;0.05604065219411253;-0.007672938530277326;0.0024199157351233683;0.03616525596533105;-0.01770068079603489;0.004168846021587893;0.06576589065262939;-0.2028395238380397;-0.028898473890874923;0.015880440616714453;0.08811805714041984;-0.007825991326228481;-0.06453660192901452;0.05783737213446562;0.12741545891050401;0.16952661313145856;0.006314506626644959;0.0032915325740924544;-0.08191858247939623;0.0012679740085897594;0.036252147885580926;0.046822605093899294;0.08475372867953178;0.08338655898618717;0.09768016660591024;0.06689574986177269;0.06361968286152588;-0.03018254017693588;0.06535487712145534;-0.11881767985204027;0.09931563804950518;0.07290732891961894;-0.012518662569676979;0.004245471998909906;0.11498955279578717;0.00438211189447126;0.11806952801723236;-0.10993757260106493;-0.09318645410510412;0.01816706492790618;-0.03077249819826849;-0.02338401209217688;0.06685929340568864;-0.0017976455991243422;0.0925869699865617;0.015432419316948543;0.21925692109010528;-0.10116420571907436;0.0515065355253779;0.08576121105122736;0.05543864941693641;-0.049935513844527726;-6.438735831777102E-5;0.050640460320200455;0.1077209836880308;0.3173878220492326;0.13243566655677877;0.08595920787683077;0.004247619719250888;0.04183604480776301;-0.03388190709371209;-0.0654452954662037;0.04401101844025286;0.008709594774877346;0.1680930189801935;0.027084835345598857;-0.030878793234573456;0.011305868815746706;0.02549725878321719;0.011956113772554157;-0.06402289166310003;-0.026407772162506428;-0.021432346587523226;-0.04458397568860533;0.014776621662369557;-0.04424477661350022;-0.013134346763381821;-0.03813064874655927;-0.05619607754416199;0.024322842395122148;0.08612335600556435;-0.11916324853925289;0.05267234428963219;0.09195506307249432;-0.053472727685028205;0.11437821318832729;0.16416088213202495;-0.1756740601281535;-0.031993818227757743;-0.0019656703975314094;0.07269579695889314;-0.03570310369542626;-0.019505034659948704;0.0773330685726486;-0.014073261815246523;0.2745895581508464;0.10661725008853823;-0.028168342991602674;-0.03660350601869966;-0.015307382642485132;0.013051807159089709;-0.06588879247656498;-0.004060481689688415;-0.005838438817609116;0.1888309426588951;-0.12487349011500876;-0.026180940014162057;0.057904986049137644;0.07940837429977665;0.08791578479709977;-0.040420170611299266;-0.05187718847076206;0.010789798704309347;-0.028506151852956692;0.08553133151700762;-0.08295100789598026;-0.041671198105624065;-0.028141489087604093;0.02737929352441277;-0.09172056219842677;0.013809680510255431;0.012462238792620867;0.015534004306223585;0.08431781443756572;-0.1206591560300284;-0.10069776537477809;0.32411306697326103;-0.28869993565399804;-0.03983067348929472;0.056268736646388456;-0.06424476125268617;0.05436029441121732;-0.09641235119804656;-0.03388549368752771;0.02281179474272005;0.32508356438589286;0.09319365148211682;0.024387389321690576;-0.09061773097256179;-0.0037808865040243624;-0.09654270789168165;-0.1322916886814807;0.0802905174692247;0.016358758276240705;0.18639674906867987;-0.16029695544688083;-0.09411317771465791;0.10032058769146636;0.07121239277327356;0.015346744262788637;0.07747471824137027;0.0350715660056958;0.020050562947908822;0.10251530116904499;0.05053943595629347;0.09893632344552138;0.028745276165215525;-0.13135849067607952;0.04682491508630231;0.11143386903233178;-0.009515984441278652;-0.046525238863310864;-0.09273813358700095;0.15322025328863742;0.003194474597347667;0.017200365040378075;0.30118676201572514;-0.18217023846081076;-0.07799277902785647;-0.004891367585976121;0.058696219053659196;-0.02733710590807144;-0.0250560307801625;-0.08557705658753516;0.0974781506721971;0.3927493659494537;0.03881295574645995;-0.0640786317292869;0.08373713834532706;0.10501104907531036;-0.13557891591898022;0.033728162289228585;0.029908956747383773;-0.0703896611704745;0.24717372690765724;-0.08958687887808134;-0.01973330679658431;-0.057052027982581244;0.07275074911918675;0.14821919456017266;0.005831884684135686;-0.08634429837854327;0.07310220191614977;0.15197021485566545;0.04824834491692721;-0.06148840907489239;0.10917791087340495;-0.11155317813883095;-0.12919530529921996;0.040301668679849655;-0.0676250337828564;0.04165310248930595;-0.0829980631749231;0.1860891645509276;-0.06053456049856596;-0.05053296863022392;0.3622312206056973;-0.22494770416445756;-0.09769976704525424;-0.04937139571985961;0.04876550556291619;0.05238185219558941;0.010499378147374075;0.0644291258124175;0.018989655376736577;0.38231432572268054;0.034220093423171644;0.016025297579495393;-0.116502640272819;0.016238973228714957;-0.07197393145287162;0.0664924905386331;0.016451906844210745;-0.07949285155693239;0.4071444361284976;-0.1253065311495719;-0.026602042708426192;-0.025469622993736854;-0.015643238967166948;-0.028912614076877233;0.04971598314171046;-0.021948114825991457;-0.05181164333819695;0.0760420960692758;0.06818178918237032;0.11238948511232488;-0.04157471252634121;-0.2110631592921785;0.0714111531007565;0.06024578555601004;0.09147634338057628;0.002303657787516135;0.01009757139099833;0.11820144060553413;0.02620179412211272;-0.07452922557856384;0.47286126794866506;-0.28054832990407047;0.002535925669995443;0.03685306715611534;-0.03880661113437385;0.046198087530019846;-0.05695623039858345;0.04044559562331675;0.1350223377789456;0.2979246592678173;0.05068525744038676;0.02610122234570009;0.02221310521521752;-0.06015659289691924;-0.005920924144594378;0.0607588222161692;-0.014786419565844687;-0.1840496778563071;0.45081846168067075;-0.2431737349074986;0.1043895687747016;-0.09973715028289586;0.008005760263826172;0.041459266385745104;-0.029218700582408642;0.025960521723335975;0.010886189574829777;-0.07855402159133373;0.05501264497773921;0.021274508364975173;0.06155520036329889;-0.29632493134678595;0.0657458489319311;-0.00748953642190827;-0.1146121091152813;-0.025462847077450747;0.024339234207448764;0.10342069205967809;0.0017406833226353657;-0.01755963216952816;0.6873198237813688;-0.2963687458072489;0.06145750903033455;0.06755169219154279;0.08372318345123572;0.047533999264336865;-0.026199982431635568;-0.012108434346107127;0.03844473947928763;0.18250380601288257;0.12297053511325336;0.04316987092581547;-0.026779938409651406;0.09555343614176112;-0.0802736213965034;0.055634859168194606;-0.023988718412694215;-0.31139657083065614;0.5557690910614962;-0.09845766777450432;-0.05165991214155169;-0.05041955238413727;-0.08367072536512762;0.02987530463534322;0.07205699891539188;0.03130450292933096;0.07262576762468058;-0.25254445258501546;0.11900189935271308;-0.014786320919651872;-0.0393212849473724;-0.34264183020257716;-0.01933024303227233;-0.07940658222617757;-0.11764770640985428;-0.13872468345536965;0.012379159796688752;0.17041967204138647;-0.10490575514248879;0.06445850426680388;0.8663299625362785;-0.3300058757367003;0.027864933462981644;0.04090435564758945;0.020159614736022676;-0.03121304787620202;-0.08469104425097865;0.01676547804748706;0.028398722010259628;0.3154170083888703;0.16169723472578013;-0.02798784819937529;-0.014190258566800003;-0.025840152535199043;-0.12773406949262367;0.007264088405296444;0.05050130053411713;-0.14697165400468032;0.5621391655430324;-0.05637840163913607;0.056298566203899;-0.09215248716743657;-0.07661466705683409;0.06721743544699753;0.009948333572890683;0.053429043755795665;-0.020073975320344477;-0.18649060122729724;-0.03788795197033229;0.07885785027969229;0.00980778768016161;-0.40895932873383634;0.026277090882655486;0.027203608772877842;-0.021086413806171912;-0.10658485716985418;-0.03867542419175377;0.19258226565456116;-0.07511030498529712;0.0812983006028675;0.8432132661588344;-0.3603620092178592;-0.024265861922209996;0.10315004449419636;0.15002477668587358;0.11537237783457394;-0.004917923803751093;-0.006625811369208171;0.0031816297462597997;0.30216070352832725;0.23204800999354513;0.018007826909889335;0.03977069544659978;-0.009219622517013942;-0.046287308998701336;0.03603738559881911;-0.0788796861028493;-0.2647973496900434;0.5191295576687041;-0.06683361358959396;-0.033204677563429014;-0.0028313154587379526;0.008463806685822214;0.13792369729135745;0.07806128236451167;0.0037878061408102097;-0.09859928485700786;-0.391941863226101;-0.14481259338016145;0.13381228676026827;0.011761568688673065;-0.4640247776151428;0.059143043451976726;-0.006858147605937926;-0.046944131575821994;-0.1747993087567368;-0.00579118959568389;0.15897481893437895;-0.018692444960730952;-0.028169793701591596;0.9184299112099696;-0.3110621993086759;0.08522046680365207;0.01476302497423062;0.002120646236877042;0.053625069266857665;-0.08771256282886032;0.08427095889183397;0.10341952619444722;0.2147151868586991;0.08223066852060497;0.11389668954400445;-0.029922418807498276;0.05601201688355137;-0.057166255939746;0.007530964578148434;-0.004010944773728949;-0.20490693538038315;0.26245714096267597;-0.2342285839953832;8.317542438656791E-4;-0.021263857906586595;-0.08062876548071603;0.04021081122016875;0.14387713571624058;0.02595062673912145;-0.013032115207405813;-0.4845052712868089;-0.04317577840138401;7.547544652260073E-4;-0.018996070430756913;-0.3203503513885412;-0.02489063246302559;-0.07497917172290228;-0.05053461391594057;-0.13979107058380694;-0.04655972673067036;0.05995181729464333;-0.037090899194419734;0.06383369274942463;0.8855293125107433;-0.16762539285021694;0.04906501240578693;0.13747328740896939;0.09756099638699901;0.14343665912035683;0.025105628466668542;-0.10273576862954698;-0.049467086779773996;0.19972287300209754;0.056905088771156166;0.005617041889072731;-0.005184523234522868;0.032108970884946235;-0.16202170060468532;0.13551139811863178;0.10429749662939684;-0.18718180424623437;0.23031785895966148;-0.05037912267767236;-0.17566920823971022;0.016147773197244857;-0.09924978442038479;0.04664777974398574;-0.06002799116926915;0.06052348458636898;-0.07123919559274648;-0.37675043257651947;-0.015061925577643407;0.08620677064716495;-0.10082739633757143;0.0456948399516471;0.0215751830438575;-0.009107305530739126;0.0704254852643796;-0.09890303983695889;-5.612240609258297E-4;0.014558513369612522;0.03725445751169493;0.017142277109975103;0.5172030369801917;-0.22182612020227727;-0.018460644272508014;0.21565422375755264;0.013883720886374323;0.12498443774369415;0.006074074084268687;-0.04050602280332209;0.11136137009542159;0.14645082690293168;0.1367671295944169;0.0665405794764455;-0.0699853254774361;-0.04806313886286434;-0.14075080244514246;0.003983696620062033;-0.021813127617223215;-0.21227804563429298;0.008892889615074489;-0.09835837913431121;-0.06818229661582575;0.0369978217814217;-0.18608842681782192;-0.06770478050155172;0.08656239172046877;-0.025691697667663972;-0.03086499719774866;-0.3126588455670706;-0.08893210444312635;0.028548632067923952;0.08476572519430992;-0.06169000810070045;8.049058100788136E-4;0.06361147211817772;-0.011808752146073711;0.021078128331638146;0.007291533557527342;0.08042343613873652;-0.053701620295137385;-0.03428121871346662;0.12811449994358257;-0.0625142079532411;0.13052601635544395;0.10394319365825203;0.042571313034083444;0.006678904064598985;-0.06862832497204488;0.021920788745395898;-0.061532572618725814;0.1135746757130166;0.0883161477370881;0.10151378893509659;-0.03163405349980258;-0.017313849544377615;-0.05864613988031488;0.01115220277813942;-0.06986148869123762;-0.03485225312368185;-0.06287738101773667;-0.008331821909009895;-0.11824608112249808;-0.058609826147266;0.014058124114860286;0.018193067008925257;-0.019616387853456124;-0.05680570959364728;0.02582757517892484;-0.22428238630452088;-0.08609484107971493;-0.04830931821714561;0.06804475952576285;-0.007971010624619822;-0.029796666725107307;0.09542701464457126;-0.0018940385111888267;-0.11182156416160993;-0.017159980014013577;-0.043033601703987685;-0.10231885772005343;0.10012024250210759;0.06948244990256876;0.07654998818628249;0.09839139020581945;-0.04283980830146741;-0.03342730939502546;-0.0556469316350848;-0.08016385040397968;-0.03003160467373998;0.07287151713739201;0.10017078015956866;0.03969026288091415;0.15589280868708608;0.04767239610132806;-0.08464407447023357;-0.10217060532960281;0.0995784778485144;0.03373922632405591;0.06577939154328256;-0.01886821714032728;-0.057845166067996;-0.07984295216612974;-0.04186938190043521;-0.05854165743239031;-0.019518040540649984;-0.04440380859410993;-0.07920977471741202;0.06867977128039723;-0.11966224410061181;-0.04903900722125431;-0.04103565153829919;0.062290017455487984;-0.04611253651975136;0.05291204813218562;0.0754907709661417;0.04208560116785675;-0.12010246631275773;-0.0690102319479035;0.014525942213381857;0.03109656805495253;-0.009669095666695337;0.10904609989003414;0.07617296592387449;0.013585737772102759;6.289563310899248E-5;0.1317800846558821;-0.0019525837812745064;-0.1026692600502931;0.06887609424056404;-0.06109742219489708;0.11312406479869495;-0.058787872198522294;0.08532993508345817;-0.03761942784585845;0.029889386964218497;-0.0173026869132602;-0.053468764225403455;0.00543619076938844;-0.028487569377577904;0.001663843811123914;0.04355076371931302;-0.08841417489371446;0.04295992400107045;-0.11776267750001039;0.09276649012277309;0.05773973904278665;-0.06782331851291394;-0.05590510771963524;-0.04468362802538917;-0.024353798016312374;-0.07333968063414217;-0.06339838221429697;0.008387793250899344;0.027292558641617046;0.07666849900485397;-0.03367378468612705;-0.09150191728804456;-0.0707248878871491;0.0409056371456886;0.04991096104046183;-0.04060329262025112;0.08815391517772439;0.05468593118969776;0.076987272120594;0.019820451176349705;0.009354512501568664;0.05729189262179044;-0.01590506078645907;-0.05621605989121565;-0.08469524758915864;0.030207515948918084;0.027933109697923723;-0.030511533713770102;0.057468406422891916;-0.01659606447804341;0.08462498548522261;0.05094057441850158;-0.048811254668988474;0.06785265370370906;0.07397408907805991;-0.09521481948606345;-0.07245860820481485;-0.0607834174044412;-0.06595303424769008;-0.04962777448322059;-0.08751913271884897;-0.04477995826470489;0.0038745204847107076;0.062861567620728;0.08940372827656791;-0.04993962115508398;-0.09910631197226817;0.02195993477668521;0.07097181959482622;-0.05448517094910749;-0.07967004874283574;-0.09681443893549264;0.06732992671902588;-0.09022665322200864;0.08128446812432599;0.016604300498732648;-0.006952307356292194;-0.07020287691616849;0.07002138973287288;-0.06366604696146799;0.020770797274528165;-0.019474740394989615;0.06116898255683636;-0.08457014946312222;0.026121969366278475;-0.09292786840386859;-0.0664465725128491;-0.06950028086054631;-2.1938501829419206E-4;-0.09142320556550868;-0.09582945726078432;-0.0971992589674268;0.09808771517030128;-0.055176719564165075;-0.031129875194827746;-0.06412124235968918;0.05787083914155762;-0.03170047462340944;-0.07879233353569688;-0.05743763239061763;0.04101008697960366;-0.035988572856003355;-0.010348842929469236;0.07635178653246306;-0.012568364594230094;0.013123665462832904;0.039719629458482786;0.07827307687091115;0.006882620093693517;0.04108379719457775;0.008147143335191426;-0.0747174352710161;-0.01825009364107337;0.024875819253215622;0.04997683642189363;-0.005811254628757936;-0.06579784860230094;-0.01209564763929108;0.019927419136258354;0.05110253688539643;0.0718206145883182;-0.04070087440889041;-0.0012448014633372056;-0.09151503983012188;0.06884914938866243;0.05516495038665942;-0.025495926800081864;-0.09360286618843561;-0.052555786884931545;-0.04016826072262643;-0.07624444805914653;-0.006249736996960006;-0.04107514414040758;0.007104512679695696;0.09287873378888026;0.009555673163342007;0.06502272132820039;0.061513375892829986;0.07928031180641501;-0.03582524286802995;0.019132056619655183;-4.3646516190701257E-4;-0.08734541415200157;-0.07943096438827882;0.010259906666696142;-0.057360840730230137;-0.019036951771800092;-0.07409125013480244;-0.046738373418303295;0.008184036445711237;0.009640379475420846;-0.03502160597296909;0.09466671669845109;0.06718865955519313;0.04409228067440982;0.035196674991385624;0.0639545167409169;0.04297086690462723;0.05967822331247599;-0.02783219703235272;0.015177117689579994;-0.08376625080217631;0.02195541453380359;-0.06549375417542777;-0.041790639615529625;0.05631565409947148;0.017928828525022603;-0.06491327528692836;0.0899988490293398;-0.047559827082774335;-0.012698806802704077;-0.02770577839007582;-0.0741840680867158;-0.05503383099295407;0.05372298878933565;-0.03872603996060109;0.030503714914921265;-0.043362256406341906;0.05604244647041898;0.06518143049836142;-0.050271939894593644;0.023834261195660345;0.07955555290386912;0.026432365217432058;-0.014716907461532688;0.07008656216545381;-0.08716701231082113;-0.06891483367079158;-0.09659150795985517;0.09916357531984864;0.07115557347977278;0.011884033366167826;-0.017234551578948997;-0.09749425691614988;0.009207833497740018;0.08216043519437441;-0.06476659660367709;0.07164455241061582;0.011077788185645612;-0.02154526025224371;0.060108449933386855;-0.0694220031128731;0.03636355469371913;-0.04292707483186192;0.025009426728578636;-0.08385857555559446;-0.09664650097279123;0.07935879111798196;0.043191553449148413;-0.04126366377936127;0.07041473772969742;-0.008561626748530494;0.06245384345372553;0.06563522836025933;0.01444424540482978;-0.09462341370251233;-0.062451915825564655;0.09902299433664359;0.01737734961184202;-0.01951353010013463;0.01929710475608341;-0.03941538141709312;-0.05711904614951097;-0.09505735519654437;0.024503302355333812;-0.008163143546891617;-0.01772978737284869;0.07941836791181897;-0.05423871679284236;-0.025217500151687142;-0.037210757343572896;0.07182653016792101;-0.017427470143166358;0.09623237661551438;-0.0839013512201999;-0.09086139184575173;-0.08687783313207587;0.08832463560296791;-0.07783868628848098;0.03338107535093667;0.05844681553688641;0.06589368603862773;0.08739475770933923;-0.005249961027401907;0.08191095561211167;-0.04988891020206646;-0.005139954750273583;0.062122710991347835;0.03701782339371172;-0.05430592191065419;-0.06533333767879904;0.08346940966783195;0.00226734666907634;0.07994056853746698;-0.06951662502809017;0.0838147220234464;-0.08616248066537682;-0.0644996918979023;-0.029581619075027772;-0.07504823632284896;-0.018815040415068193;0.018775861493451014;0.05817091166457427;-0.07110361627584288;-0.09480155965196957;0.06937913113131838;0.07190168390696935;0.01997751322064354;0.057964382382594895;-0.06211198492052654;0.08049914603887369;0.09700207460472844;0.017843088975328214;-0.012667664812449905;0.02457911595509476;0.07197714407107937;-0.05870825857884631;-0.07129433276355593;0.05620557750783874;0.08872001098947058;-0.036078029619297694;0.09739200306773657;0.02274167508251108;0.04191349944769199;0.0012891516144170883;-0.07493413971435746;-0.05409109288200094;0.0775393941743687;-0.059611139863567655;0.04440249235330446;-0.09894214653335878;0.07725151787147168;0.02963351622297031;-0.06168577444964658;-0.09666191297184605;-0.08863599902866741;0.017587403545522563;0.06040416644307688;-0.01289841164248385;-0.04459428998713641;-0.00579266488441328;0.06458131872627147;0.08372668044488552;-0.05082781158012937;0.008732656395500972;0.05112181913538114;0.030042968625557425;-0.04629130358606153;-0.09250743284574525;-0.0973731224696489;0.013894936655150462;-0.002107481450178686;0.013802092794614642;-0.0025197584095323937;-0.0017764363847132048;0.03165858730828658;0.04486304789628252;-0.0271728777039033;0.03812924208513566;-0.09160355316567224;0.08483454732410102;-0.02870149677240324;0.06108256102421555;-0.05600011684244028;-0.022256418861142203;-0.0465022787835618;0.0482011933726809;0.033178618778566996;-0.06575273517852785;0.10104512478969538;0.09954597092252748;0.07069184155651718;0.05697480871979605;-0.015492755829383333;-2.68488091554923E-4;-0.07840308814637591;0.05218847542264382;-0.05387485577637442;-0.03543505692550449;-0.07502405760279289;-0.07803882021901534;-0.05070541799851186;-0.08941057914128475;0.07054973512473482;-0.05569343741876379;0.030225114038255604;-0.0636345956797515;0.08432517132769737;-0.08682588102448224;-0.05874730006831801;1.0918159102412403E-4;-0.09583310848558865;0.058108129529282515;-0.03750721629703948;-0.04629344789462762;0.00760578214843609;0.027536083969227028;0.04065795824513913;0.08975948906140249;-0.10511584557419389;0.00128723605829712;0.10261191508238972;0.02813821795265653;0.07905929620155364;-0.05251766024344275;0.02423512175021634;0.09575601757048928;-0.08854296164275512;0.035801468444080886;-0.0542420217632865;0.06353956473951923;0.07411007886744388;0.07570195432563791;-0.019576919329150524;0.007045624318126057;0.025864476355784764;0.05511674746911865;-0.08136256479525676;0.050087497744662424;0.030577722265644747;-0.023197535478278568;0.011450524603016194;-0.04700438623475771;0.016101893633266334;0.08812562706259298;-0.00578397545553629;0.08462983292061742;0.054509564816357464;-0.11945844838263726;-0.022851551104595764;0.028098314004855022;-0.005938876789273875;-0.07326333333149226;0.04526499685121896;0.0605392536411742;0.03790673474433207;-0.014129390477625636;-0.015687618101584765;-0.028797898826205433;-0.04743784235498768;0.06714273150822526;0.033712040485424685;0.06708499960869424;-0.05095604727232079;-0.07264843677176679;-0.024096293370024297;0.0040138517629986215;0.013691537897196522;0.005977192331863371;-0.09377456205470285;0.03468146792172629;0.007528824932797409;-0.08736638359554598;-0.0579462457490781;0.014752898578191072;-0.06900165009190448;-0.044189332674146646;0.053551933113559616;0.07667378183572791;0.02235925507191833;-0.09022057428158016;-0.06515700030222743;-0.05158054057271772;-0.05110998552075843;0.02103860335432647;-0.015654603152356016;0.001641627018627914;0.07795196005047712;-0.08427231375234902;0.04229981761657018;0.05178588138412866;0.03395183857032779;-0.05932682123810973;-0.06059957918184478;0.08680463425371544;-0.04023793871054843;-0.06503008754510733;0.008541385838046171;-0.018065147333256926;0.04112744756478389;-0.08936016409619321;0.013511735704208046;-0.05999565127490058;-5.142241662892741E-4;-0.11525081932734099;0.05502603148605358;0.08477867522567967;-0.06749034201668683;-0.056053584915563226;-0.010327965527192276;0.1387182970230969;-0.08804908567763578;-0.04576122521660963;-0.0014121839586845198;0.034254104780672506;-0.07594361240120233;-0.06901667217739046;-0.08812508804002796;0.008110274193430673;3.297102948364998E-4;0.013867367713826524;0.047732665971948085;0.023536224652128318;-0.08648010199561032;-0.010240107642514163;-0.12176956772876914;-0.08703624691545898;-0.06027780953051821;0.1005010700097717;0.010862480538681902;0.026099907255285805;-0.046301524300443465;-0.021607896721553853;-0.06330109483228431;-0.020416844966745496;-0.008278853437454534;0.03127341423068445;-0.13831934792816697;-0.0027612936176705668;0.0378526243919515;-0.046670817293320205;0.023927319560882065;-0.03670958859564928;-0.020698105740298754;-0.03467179142907874;0.27636098112568414;0.04600807371021974;