NN;2
FCL;784;40;true;null;0.08078513728279335;0.08241686543181631;0.06039894320383252;0.09321164618333799;0.04667661542281604;0.08778131126215288;-0.013215281024225797;-0.09239567140075629;-0.013515663218739954;-0.001054904006974236;0.01501386026882065;-0.05726327534023332;0.059971843337403824;0.03446388611394133;-0.0678002293679125;-0.08595439981099987;-0.07933510190855864;0.04571805956598207;0.0973430584771593;0.04791743418556027;0.0721014706289824;0.0731626883260745;-0.002418453515552449;0.037938401406854005;0.024081722685552337;-0.09742243728549171;0.004440254187458553;0.0011443996568304693;0.04891804139480846;0.021317173979204213;-0.06991857771968744;0.0342710174690877;-0.06231499302835369;-0.025439276297927887;-0.016445516718917183;-0.0299964356251438;-0.04353058298028101;-0.07843788467602458;-0.07295391416068549;-0.06677294949296528-0.09452919901342494;0.06293909368219977;0.07817653320979415;0.07223052548261649;-0.069137044438759;0.04674380098126657;0.031175960494033067;0.09535138613719679;0.0011384187973848825;0.08140038835968941;0.02984548589458197;-0.03959213831135103;0.03615995060926386;-0.032243875359024066;0.08140750421049489;0.056388081782230565;0.03207207278776997;-0.015497483758967381;0.0724911354699174;0.053249424691770325;0.06755102550766595;0.09442531135911617;-0.0246177500173361;-0.0918314933905414;-0.08994520463960548;-0.049345516692840465;0.05427344868931119;0.07179117391587003;0.02207311060433345;-0.09708573251672188;0.0715140822533114;0.09448252525230846;-0.03262257550587859;0.0037731089383087058;0.09386023141008551;0.032576879948971765;0.017270952254164113;0.014893714250477058;0.09872470817774279;0.054627812018225724-0.006018961542588325;0.08028135585926174;0.048766107066521486;0.055620732719536464;-0.07888161663328729;0.07557331309210424;-0.09392451135085936;0.004006454333630199;0.013336460046618731;-0.02029716980463711;-0.09973043997862774;-0.025631769747395935;0.054920077657153205;6.393988222556102E-4;0.02901815155803883;-0.029908179018755893;-0.07901343631003394;0.0012475480730227417;-0.09105141536872817;-0.022416996902494463;0.033735759963646805;-0.04446319229231475;0.03189572423023718;0.022517574188522543;0.018700027559733837;0.004911736923912294;0.021151939193661165;0.026091351826153297;-0.039005739300578934;-0.0855780856081304;0.0877171309876981;0.06127017254252523;0.0615658559167806;-0.07098806575046744;0.08654870883961757;0.009039887825347898;0.09344473785639804;0.029771414018928022;-0.0271883993657214;0.014656383955083924-0.06641426649342827;-0.02910316360888561;-0.020253083655305343;-0.09708961985800446;-0.02305208116244692;0.0979352701213494;0.06922322682105866;0.031228901981758678;-0.02674176586816919;0.02735974316586115;0.044209553235820265;-0.04897236056284615;-0.008474661477080161;-0.05211588082437671;0.04476558352454302;0.035352725240523936;-0.0305775572818813;-0.05655069116480452;-0.06725944890358865;0.0056023449785640445;0.01953731467957738;0.09947326958332683;-0.001976756504469629;0.037776742773389216;-0.06437774151672523;0.009101017254487934;0.06479199914129699;0.06872820014151199;0.09884414086171206;0.07945461387854522;-0.002235292950996934;-0.09758893746346434;-0.015965620996412924;0.03788317634206087;0.00844880655043867;-0.08386828775233234;0.06593893431393302;0.03821286716819933;-0.03860871000527242;-0.033201408037819666-0.0011163928344019858;0.09006280530496921;-0.06857880113482423;0.019087780656199912;0.08964722125541899;-0.012715364495445053;-0.05578838538208206;-0.025626495469564622;0.08043792899534982;-0.02593544405853035;0.009456141362643583;0.030190786664465452;0.02933547354320276;-0.07715916383618658;-0.06378280999143933;-0.09550819601481926;-0.014552573774583882;0.08614206506403096;-0.09729000311389846;0.07344407087804042;-0.05484079809612328;0.05283716922596632;0.012552642093977634;-0.07231957524842743;0.008384032619490916;-0.09561458362924365;0.05101602314275075;-0.07145094667487456;-0.06518700512006378;-0.028913608019365752;0.041273885222816525;-0.03563654662872255;-0.09983501073630328;-0.01166997341331924;6.527918677435018E-4;-0.09334752709525028;0.0524367528066535;0.05284656643216329;0.0968821492617922;-0.03358971815425478-0.0941645401743782;-0.04418463184545554;0.028981144338692172;-0.04481079660605565;0.07867016666579851;-0.001144722014124147;-0.0942659181924363;0.009743317127194853;-0.03381289979354665;-0.005811659038288952;-0.009828611450054009;-0.06412401785283525;-0.09909761378007674;-0.060212180931577056;-0.016385880493114735;0.026146659131785654;-0.09549548939124015;-0.025638141432863207;-0.020319312625230096;0.016974657876314553;0.09410431167575198;-0.016396535617640512;0.07053687275674644;0.09488917426683971;0.0884850141171998;0.006440495352234302;-0.04685417164632888;-0.09722075321248336;0.014352185530150469;0.04128568034042163;-0.06448195558795752;-0.05385620948615799;-0.08741623257456009;0.05228661348635369;-0.057038593440866904;-6.58431478949395E-4;-0.05551994442321351;-0.024424250544510542;-0.07566885961070353;-0.088158768162146180.05364869285970453;-0.02326623583851943;0.02752858263379268;0.013220149089997621;0.0482609728650229;0.05676777127526672;-0.0992986046120201;0.03382801041233624;-0.018538476738389847;-0.05401272334202783;0.038166972526997994;0.034224844053401926;-0.04128488634910337;-0.0068293540509031525;0.010532898615478348;0.035363095016471;-0.07016534402941187;0.005506889103476603;0.0608799104729133;-0.05526916130311672;-0.05476879354955664;-0.0951543376529393;-0.038988106831031044;0.012601809659909508;0.012163967568051298;-0.016052732847543133;0.06770586707810156;0.08828537975467107;-0.04900970999539134;-0.037267350785523415;-0.021037998243736283;0.07637656603038162;0.05141565969953607;0.04453339742568019;-0.009746388063782654;-0.006993970288107512;-0.07125628827281555;-0.02765825416784573;-0.049222852437617794;0.022090072195005472-0.09304620675797426;0.09296789095202831;-0.0786167801952618;-0.07086658181599495;0.015763178373286585;-0.06408518281172429;0.09884610951998726;-0.025020658425064166;0.00948165384786362;-0.05712339620844056;0.03868697351574388;-0.08189112533091587;-0.09828295529390552;-0.04179858052445904;-0.03986502830046257;-0.05322722488980212;0.0938823225560512;0.09060510552879911;0.023349423817978415;0.06671447744759237;0.08144566489878832;0.01942118447612999;0.035669833019219666;0.007420077955592325;-0.03981959581500194;-0.09914914914154636;-0.0421341293276017;-0.07163162690284591;-0.0675849456422964;0.07421297989411382;0.01038739694986475;-0.07471918545901456;0.013283307592630217;-0.03180588770167994;-0.0203855603138398;-0.06362846131552885;-0.06302596896142387;0.007098480825841164;-0.07589279994091568;0.04859736041381163-0.040498465336149495;0.051434746705033424;-0.03921634945991659;0.093034689461789;-0.08786310048380777;0.017216966790990676;0.0575755760197372;-0.014034998671994578;-0.04985206832905951;-0.07726241688374091;-0.030680998884848945;0.05485169134188181;0.08835341369920616;-0.09413469212728515;0.09169819695215431;-0.06203978931925039;0.0423655927319653;0.044324812713108425;-6.841169420051807E-4;0.09153695978483214;-0.01515982503474396;-0.08805326780304218;0.0019432367676970735;-0.05394071117709401;-0.09827368877532128;-0.06508235362518336;-0.09923010034981213;0.06248551603935576;-0.051483381707317304;-0.051969900864671285;-0.05534603394697133;0.08850491331867402;0.006497170433531013;-0.0490674102698073;-0.01362801643192306;-0.08521229334887728;0.0389974968787295;0.06437957323982335;0.038868962437844046;0.031235079578626730.059474302592032985;-0.012501160516825455;0.05422031352210205;0.002137532563335931;0.07650394252222173;0.07103686992269384;-0.006842022377126528;0.048765006734189736;0.04653476152065711;-0.07824268805366515;0.07970150774828397;0.058511683335616155;0.011635635471021283;-0.09021613669603967;-0.037579957556682114;-0.04121725053920871;0.028438447255829197;-0.07863429404985411;-0.09242930939575085;-0.003766118516687983;-0.02561194183517433;-0.034872483804404;0.005348571432379698;-0.05697874479138774;-0.04600768195359864;-0.021680543022833218;-0.023863232038957044;-0.0969484856978725;-0.0949279305014556;0.03306717012788843;-0.023243624049960915;-0.08176818975696654;0.005011143119095299;-0.05737820155068965;0.0067164574126384186;-0.02528022626735718;0.07700634679553728;0.06760996904082711;-0.08553591943067998;0.009173521865589243-0.08048106253685511;0.007045725853859472;0.03798757039184403;0.08651546454785611;-0.03208246207633354;0.05369307095062936;-0.06257228608147772;0.05145000123173804;-0.06573091510309259;0.04879372449485511;0.05133255598863118;0.011375548470534083;0.08215677550799591;-0.07800159576921795;-0.03356406356782404;0.05112470019403245;0.08552759352581671;0.07738408746820835;0.007960469289762101;0.05808132130627583;0.08494228151646624;0.049704030919655695;0.09586753582767607;-0.021569444398197107;-0.05617463931957661;-0.039362251185711086;0.0011072894738948513;0.07340879791910371;-0.09528489401376324;-0.02495896726491327;0.0018686428727022752;-0.024446265160584096;0.04551358388908894;-0.0428040553660775;-0.06017070929790798;-0.05504570104121356;-0.06426339041690962;-0.07293918717312285;0.07640569076791934;-0.07449928743289963-0.014318683341961208;-0.07012035744021242;0.03576462415441303;0.027624094138915617;0.006933664268094025;0.07785109951446137;-0.09525802809757283;-0.09826347601871288;-0.045682179086824926;-0.027058875879247976;-0.021315467311768435;0.020930864203535696;0.027080794413090498;0.08429723035728764;0.053280960199979216;0.014077530578173778;0.04391538276437246;0.027075231250267506;-0.003209289916222574;-0.09081975625394885;-0.050789805277494215;0.06868925051499428;0.05629403072359418;0.03962601403579685;-0.08070036239839794;0.035061698434619315;-0.03605801617651283;-0.04956483795395175;0.06871390805430633;0.016873295422603823;0.043206423266581306;-0.09548869355487494;-0.04357097840527749;0.0758130628026254;-0.08486999622363137;-0.011108630347902687;0.09211677953646216;-0.049171680451051164;0.004576186597776075;0.02099557159692396-0.08264776919740827;0.03703798597530977;-0.042115316981502594;0.059308773047994034;0.02615124284328113;-0.008786966571543847;-0.05892831373346008;0.08517923941885935;0.08824136919915737;0.06587781755556499;0.04356401428335238;-0.021146003113528683;0.046884546131502;0.08916059838876567;-0.07437811143299702;0.029990857914289015;0.06840179241251407;0.0013112290183332903;0.048689619319772476;0.018494210375354342;0.09842319787004239;0.010951138176956407;0.03164559399288652;-0.02923497304134988;0.018137947695104906;-0.04867666035390483;0.007052280732409405;-0.08404914628616765;5.443050261563637E-4;0.0365424297414102;-0.02259376519463048;0.04219583733898172;0.06669960843451755;0.017844575857495104;-0.028611912855508057;0.05289068690324569;0.041970284310965306;-0.060162453264139965;1.1255673478852146E-4;-0.077077295885177780.030438281288954705;-0.08768457872520162;-0.03696947116997844;-0.07649600635204507;-0.008925508386054062;0.07634100876150049;-0.09546385714621924;0.061430630436394934;0.0837691693969356;0.0942374103713981;0.08096030028176002;-0.07846841720048868;0.05157461815779149;0.07783440459296051;0.03580087443129351;-0.00813656051117509;0.0899967842942262;-0.05702210925656029;0.06813435528082962;0.0676238987690698;0.053245195707639276;0.015779872298196287;0.03886583279925679;0.05740178154984188;0.06048301665801695;0.03886847598281232;-0.02302097204105455;-0.010572991245539745;-0.09792298976836765;-0.02236207085804731;0.0857862611639125;0.01782062339231219;0.04584756041339058;0.026498587772174675;-0.05082152567783349;0.028844779848643587;0.04331866435685122;0.015126904950092654;-0.062124782844734217;0.047152751055742790.002837898106129666;-0.042579264898528285;-0.071274563763688;0.05944850729072898;-0.05300844863204766;-0.07249941560389579;0.03568655682285424;-0.05957278885690816;-0.0438499050444354;0.0299968860106756;0.0047689532535175605;0.05765415237202748;0.014734893103165198;0.0412774291232835;0.007802440558147494;0.03193681225505565;0.09604671361530692;0.04065189207016262;0.03362123235436784;0.015149565185954367;0.018515723862209524;0.0666218443014624;-0.05568606017687412;-0.053516322349695125;-0.09804852812608851;-0.026869242722279127;-0.06852643527622704;0.008697319121965877;0.023792915118137553;0.0858139885442489;-0.02755249566992579;0.08436555209792193;0.07535839563398594;0.05824879560783636;0.08658755338598595;0.012130319152899749;0.018095653908634837;-0.07179566806793491;-0.008500099899031416;0.042950477677700160.05842613933022631;0.011340705796373446;0.07198161867175323;0.06013947795205565;0.08468383921972575;-0.09168459553718292;0.06934946760866614;0.06053061626250311;0.06487868518065121;-0.05143406683389232;0.010825519382429372;-0.009108826712322493;0.0319681550459702;-0.09776454871765433;-0.027120777427785958;0.053157510115977746;-0.017503847575010972;0.07961602377755345;-0.05130855009628448;-0.057460084362232;-0.017156981655115172;0.0373986626515298;-0.04559550799070786;-0.04622739075378668;0.07547551308991551;0.08492329387589873;-0.06462792497003816;0.08736373459741831;-0.014803181097744839;-0.009571230964358607;0.07240934841507649;-0.04415464960966647;0.02539654566306168;0.08730286802993178;0.08804288464292509;0.0900234569094491;0.004300733593312359;-0.019667695246795652;-0.04723932105866302;0.045227971903539720.049104677323370705;0.09107507688166397;0.08681268782333215;0.005615875049832034;-0.08781292100453253;0.03123857957531892;-0.09962058489665426;-0.0887163843769139;-0.060860322364735445;-0.03961876299106011;-0.041300918362775434;0.01933432651375755;-0.08834710422880582;0.060001223764861805;0.002843230335877883;0.04017852704036301;-0.030758123303509577;0.008483910719720794;0.009833099775873475;0.059238940499131504;-0.03450353890700737;-0.06264811660849097;-0.051110366394204326;0.09320051549129169;0.024331205378200146;-0.012485063555228562;-0.06231651004739669;0.04626038764571366;0.09623536130930799;0.06552006521557027;-0.0014149640731734997;0.0663779158473575;-0.08547709672904187;-1.9853084262133613E-4;0.014914333187066878;-0.0984753500796205;-0.04841750404165373;0.09693057018813539;0.08719116224751661;0.055934360896116250.008276634869395033;-0.04848305209832793;-0.07292030471669358;-0.0138275305303239;-0.06806951250752927;0.0936414198866726;-0.02949847705260354;0.04490296851834402;0.06525245922872366;0.09832108298503628;0.05112540224737827;-0.037660169755673746;-0.03675978186951863;0.008178708220969416;0.07458985479301314;-0.06747204864018444;-0.016264347666394202;0.07024382798308579;-0.04749734880483736;-0.04295602882473775;0.09367490405076714;-0.05779731044858987;0.008690794395114554;0.05124626684962899;0.0753383409798408;0.09864828909065204;-0.014549473164233412;0.050524951620878056;-0.06739941864351531;0.037330366900461015;0.04979732571188139;0.016551881977155;0.0971804683427685;0.08540539074475217;-2.840838982653693E-4;0.043530643966346955;0.0348910950797508;0.005686571963586948;0.07041025727667347;0.064446572288195310.003342894468966434;-0.04279620314847415;0.030103814465414103;-0.044868810388260516;0.052466056060952976;-0.06138496205797246;-0.0635728807279261;0.08589075879441913;0.05571228737805045;0.055675491120876996;0.04978249489575037;-0.029824105814819868;0.031842100932073125;0.048095985362883564;0.046846722886090375;0.0876449310026205;-0.020488967846774536;-4.5512620475082755E-4;-0.08768341068249;-0.009961265934032154;-0.06648036461458498;-0.006101970307118787;-0.0048410864329376385;-0.04256931813053653;0.0210634798815654;-0.02851116348675893;0.06486052344812454;0.054476674498604105;-0.0820168363196774;-0.014641786306020602;-0.03232172495243128;-0.013334864414080605;-0.09498570828002556;0.057504582845926716;0.08288903381991372;-0.04343300361464411;-0.07596249836391396;0.0351338965309608;-0.020960302595271846;-0.07991427843008768-0.024735406032347876;0.021609103776940475;-0.04670268747549203;0.05911539864146528;-0.07230336745628017;-0.04221863852137164;0.05050828671190194;-0.01626303400046178;-0.03159843034301284;0.08689590661682747;-0.08651034360003947;0.016775909818334545;0.044149909630721434;0.08831905820677255;0.03584419666970101;-0.002287911537634149;-0.07806079878592714;0.08820670495170616;-0.015473267151210335;0.06593990302236302;0.0952440492236068;-0.03424573377953735;-0.09390585380739057;-0.0329816970036563;0.09026610532321017;0.059446724550626245;0.03295536764439877;-0.041079208029319615;-0.027815923314608512;0.0733086104679728;-0.010378631384841894;-0.0817145696790645;0.05140371081072287;-0.01684600375339125;0.09895518752634322;0.04666482301153593;-0.010192174949234384;-0.05716347456810327;0.08842190270837832;-0.0232238777033916270.016049011989121453;-0.013785806989064425;0.08597111030934762;0.03284696716830457;-0.06316729569151786;-0.056690999110645485;-0.010746409703609364;-0.027270247867421715;0.03565609813344889;0.059857608792235756;0.07639788344226292;0.08819269171341546;0.0059047354656079215;-0.0028803177059877755;-0.051196575587555485;-0.05695937897055943;0.04605447206295479;-0.08949226935573618;0.09108499464421002;-0.026643780892744204;0.015921498767181047;0.005837092332217367;0.027322701950664025;0.04374998550524414;-0.00708765505043199;0.09557594449310461;0.07731199290733137;0.003610264621088599;0.028273867055718854;-0.04490471748780205;-0.08718636158334266;0.043353216355111274;-0.09665674794854767;0.07891894731256174;-0.08619625688563443;0.05067285233872135;0.08579802682916068;0.036973601978855825;-0.07527625714511287;-0.033209002342942660.0491374004898853;-0.01161974378181925;-0.08117506612755171;-0.003441096853805628;-0.006485217593562173;0.0953280140353846;-0.006274223580735011;-0.026552848044157168;0.09369454661024876;-0.035883652391908036;0.015320847578057115;-0.036078596148452546;-0.027887141748651284;0.0017792039582682495;0.06313249796563355;0.05788303551292734;-0.08305925373457593;-0.06735211176425004;-0.014457057410181398;-0.03434421466693538;0.08833410458453633;0.004601070889428557;0.006044250139242438;0.024235754629223824;-0.07531631261262306;-0.0046852111220301584;-0.0705116438850107;0.0035414118338034373;-0.051134883729548844;0.01851243793983645;-0.051662932978450794;-0.08733641523564149;-0.02551113046213152;-0.06978522321576038;0.048912043696143714;0.006115464814552343;-0.08784970466700914;-0.0650100687179094;0.01764481444037444;-0.0099173918351243-0.020383823537647033;0.05541270343131208;-0.05121119690877505;-0.02731896734825219;-0.03263407371471215;-0.008860065506305206;-0.0632193878638238;-0.026210973193769638;-0.08358653644648124;0.0174543559152206;0.08785044474698545;0.042046237869173775;-0.03085932632916215;0.02981706168713258;0.07905425991702128;-0.08538090068791099;0.05134008374867008;-0.07883768965100724;-0.0010163496155229101;-0.04572781966962769;-0.07153513543814945;0.03814750012236931;0.0040158684300063;0.005618196739779174;0.061878835484634215;0.03740315894568497;-0.02543620495005483;0.05136801889266629;0.06510644856507963;-0.0582170178072186;-0.028674031265819647;0.06858064383144671;-0.03991718269708307;-0.0033862041143226246;0.0915365665603006;0.08491322704668935;0.0334036888030024;-0.07405442942872476;-0.07478459683085803;0.03487106953173552-0.022058394174073848;-0.007164849150260541;-0.07569423394505043;0.03186289831790026;0.036070653267216396;-0.01943438886823834;-0.09889408705036425;0.0016515709446118798;0.037476049263613864;0.00530908080256251;0.04051073353163581;0.02127675165191753;-0.02012488951132703;0.02091384621601282;0.04664012316004226;-0.010729433007298561;0.050352820602929865;0.047158377779451366;-0.03389334254772376;0.023220317002804733;-0.06838816406502948;0.07600131477312719;0.09426558306399396;-0.03398151017721014;-0.09177750585726965;-0.022168523008268437;0.08146482337015451;0.09211273757668587;-0.027127189046134578;0.00771785850453692;0.03929498116585525;0.013755888013520609;-0.0673815290543412;-0.0883403726240001;0.0468393324264707;-0.012744046831379238;-0.08486716081344706;0.03283612836659705;0.05692382304802321;0.0192261141830536860.018055601630105597;-0.08012930115471016;0.08256146704911735;0.07614153675053734;0.08129048730704047;-0.03314982663661896;-0.09439769166657352;0.028327324296643364;0.01614443827376226;-0.06886699912245642;-0.014764921835187517;-0.05256069903756633;0.08924592951316174;-0.031586781622014184;-0.04901500930211418;-0.028400523050704327;0.03207939584153277;-0.061696685390904095;-0.024641793257554376;0.020973318915975564;-0.002764761665301735;-0.03941576648466463;-0.06990814788946545;-0.04598024061506361;-0.08534019606795432;-0.028544622312867363;-0.05759599085859675;-0.07625882663383854;0.0479053978231172;0.07978461180677651;-0.04875629475375723;-0.06606660329579102;-0.049619710126264385;-0.07664175476731583;0.06354094317616821;-0.004564270475894361;0.02159870019050439;0.02513105630692014;-0.08954333129467468;0.082380921795846750.014113905460125808;0.09612352533507357;0.04628394081542181;-0.027977171438795995;-0.09449873537558316;-0.06864579877749197;0.03396220288329782;-0.03574558635087277;0.026042795573369026;0.08188760721686225;0.07849412065415473;-0.008359385757543872;0.0906375889992376;0.0223182607425422;0.014560275839941766;0.09933869079927574;0.05531021421105528;-0.03007132919060189;-0.07890826615490643;0.07831890341905556;-0.0765392617732552;0.09093933922344385;-0.07247994608205377;0.07161448921151109;-0.0478852849370903;-0.09324125608381723;0.020027284400992218;-0.01942831861128351;0.058173178004856524;-0.09976662706211828;0.047795955000903;0.07109969855489515;0.02466265571847559;-0.07810232499565771;-0.07074090411935814;-0.02007925408286118;-0.09301482653903961;-0.003775891608663942;0.05835020906786076;-0.079179977543408320.07997352886783729;-0.04471049640679414;-0.029093260271618293;0.03642261054585169;-0.024053593432170575;-0.04352541988666663;0.06704723738890189;-0.051314108466010304;-0.024887545730695182;0.08424946465796887;-0.03949838988620198;0.0678184398189241;0.03353839721062618;0.08301401805541228;0.025018465473704787;0.08793324843316996;-0.09328276751083296;-0.03934313620383614;-0.0381023086732631;0.09475707851967968;0.0058182280368567485;0.044805401909630616;0.0562404339324086;0.021880461287620445;0.05393692159572577;0.039075796018742365;0.033199117788804466;-0.09299230301208061;-0.0576548862670137;0.07932298423642598;-0.08577256433257202;-0.05179314611119117;-0.013259115302029029;-0.010109330799546262;0.07333034162828209;-0.03984022380793202;-0.0165014215034833;-0.06013867401031461;0.09331406787680782;0.030412071087639380.05551921654370234;0.022264687763463756;0.09853761818046733;-0.08007611403132027;-0.003726458859825005;-0.0682735255332581;0.07676929007983521;-0.08767656609706594;0.06586458536688908;0.05957329005651554;0.09051684967971044;-0.05713756193334534;-0.06787848676544168;-0.01857456537913474;-0.07016764745985726;-0.0273346584475503;-0.06611822076670011;0.07047400163765818;-0.09109883755771958;0.013552383683247765;-0.012758860025833332;0.0037308806753834772;-0.02770806677241984;0.03428961761429444;0.09180365390975051;0.06827877201491678;0.00120662341957134;0.06683888621189785;0.03693167807455308;0.06752117146896214;-0.08026950703577283;-0.08739216332480725;-0.09200412623394623;0.027432379043352106;0.0010820999703356204;0.048699914296279595;-0.007374796714919474;-0.09719251326327812;-0.026136690629200723;-0.065835628878475720.034390331598188245;0.09834598751758225;-9.503773364798462E-4;0.025185154167624624;0.0795097295353153;0.047170377496729005;-0.07269809713774891;0.027906038793702514;-0.07598814201870092;0.07911739951301569;0.0299126023334379;0.03428341863223194;0.08259724276279887;-0.02773045010713085;-0.05438820643913054;-0.009039430411358157;-0.09291199984308374;0.03089339317783238;-0.07162386326862447;-0.051110137161602114;-0.057322168603607754;0.04168958643208337;0.0036788652993268445;0.019582735490341396;0.08418200525387484;0.030042864806935576;-0.07526020162677471;-0.06864027914532689;-0.06771260870986484;0.016272050947195568;-0.07122466477909922;-0.014399577913475792;-0.05019757544305825;-0.028119962424568823;0.09324846467586928;0.012993536493475538;0.017907132884812008;-0.024196185220277264;0.0921187477216005;-0.070213164860406660.07955035607408337;0.0053842718012004215;-0.07690448744685946;0.07142061811331776;0.09425095724324481;0.004506047331689286;0.09253808759419177;0.07906773711538573;0.012651186907950349;0.011678408269023263;-0.04909726908396677;-0.007498378738149514;0.06166871298331897;-0.033262884784855645;0.06383393131391277;-0.03393391196998037;-0.0027626694537540714;0.09009653984517335;0.029117281508356158;-0.06219143044402853;-0.08944306973643255;0.08899968101929034;0.08292948233611885;0.03573011086504202;0.03434352642487026;-0.03623186380886827;-0.0939116500786303;-0.015964625937223212;-0.05092075674795038;0.014052117519670615;0.03030281986664249;-0.09061736939504683;-0.010737674949274509;0.045080465000865294;0.04442293952285872;-0.052866231531235576;0.04965711655933619;-0.026089388084408374;6.898692000467943E-4;0.047604284422842286-0.05560809004094369;0.0806576184436214;-0.08910284035582623;-0.042197174882166566;-0.01826292136472965;-0.09694687276454361;-0.0998032761946946;-0.016410773483824026;-0.054708095313576344;-0.015548510420113265;-0.09147301644864934;0.0102977260488748;-0.07934731183922455;-0.06283896405959974;-0.07157606580351222;-0.08579239583984273;0.02135762459771573;-0.08450549829874339;0.008490470504146724;-0.058272464728017705;0.04513679804284587;0.07201901124187116;-0.0903536232781425;-0.0343544042997178;-0.06983780209508278;0.013806082872824671;-0.03862167146297238;-0.05862075227065331;0.011297694089518445;0.05868162781140848;-0.08201009602658377;-0.036774646511470804;0.07634906279671072;0.0914759521374019;0.014851573425982617;-0.07938982905244017;0.022313967615179592;0.02027376470931408;0.02465070459689571;-0.045660656048606170.018984320824457196;0.05139472985913782;-0.010863735354080584;0.040740498034732175;-0.09422282236617133;-0.04086231058888415;0.09234972087601151;-0.08807674353784077;-0.005272275193048154;-0.09959950984715765;0.04078652246755349;-0.09359065387903448;-0.05002674927259441;0.02689672690043457;0.09287717013350005;0.05848682151401638;-0.09920002939715455;-0.06794859591209826;-0.07467390723869965;-0.0027198489072809695;-0.05210696785392872;-0.04274904067039358;-0.060638349886266756;0.05300024677994844;0.06958650337470157;0.09809326016063524;-0.033013873410953784;-0.036805581012833224;0.02811337829224103;-0.08936240518329437;-0.022774275018905915;-0.02100356704056064;0.07585557958891628;0.017654674935001086;-0.017619418898896594;-0.0286235421679103;0.06159395240181434;0.014876641235238991;-0.055725242462188775;-0.062608894905678170.0908942597744242;0.02411284868854499;0.04268579871071154;0.01059306121970549;-0.09143732394378688;-0.05054224529781468;0.08194466462396985;-0.01755748538300346;0.03535385621539572;0.0015766503403825682;0.07529748279612969;0.029066021162547334;-0.05284927052375115;0.04717583920958476;0.09003954227507532;0.07811348205116295;-0.05827656038872686;-0.08608867904557255;0.09347833943916481;0.0963095081597117;0.09497934242662195;-0.053361187414979305;-0.09081642749757318;0.04570341455232202;0.017212985366137065;-0.03633626297831867;-0.026762843118616972;0.03991923286697263;0.009356137779332266;0.01299121760012989;0.0904832137397805;-0.09959431504093635;0.019227764564964528;-0.07142390060122253;-0.009221941466676029;-0.08731378385036732;-0.002215946541214528;0.08657291096136799;0.08524022531719519;-0.01739103113107429-0.0917224771503596;0.05726119632014315;-0.02309724114969107;-0.055134839248659966;0.07248335302644413;0.011020384051151688;0.027454768291054255;-0.050200928077333784;0.08194977347193946;-0.011931625861543171;0.04649373843379431;0.07318571132765236;-0.08530004323254088;-0.08930592431402469;-0.07403504269670017;0.05201736223316086;0.07816381040918202;0.0321556561119499;0.09034544993466362;-0.04261944360507289;0.015427983979317259;-0.05706949936358263;-0.09710600849505105;7.06057386885145E-4;-0.08851413858387332;-0.023034753725517554;0.07190108172181867;-0.05998113520788073;0.09948756818510879;0.017925768145876028;0.05693896987611244;0.08618821839381585;0.06698996950948566;-0.0945528282550223;0.07511162923047607;-0.09082239763378536;0.06220666562045807;0.041383806072464224;-0.09269521494782913;0.044294728603934960.08505053200896615;0.06994024610745556;-0.009800043690851495;-0.017561823998956297;0.0191406746968793;0.08118637606521936;-0.06885552853631915;-0.012647228668957733;-0.0012226414877724717;0.020653413876062413;-0.009092620371307009;0.00736029193954453;0.005712424440852043;-0.061690854256784916;-0.04631195687875944;0.07690728405706748;0.09065524693421234;-0.08285861339093603;7.683393303764968E-4;-0.008414683819407548;0.029522709043073525;-0.07059204769139307;-0.03323734030730345;-0.035619021950889715;-0.020310783705787386;0.09288670622871417;-0.00413207345072239;0.08192587961916661;-0.06376330731426845;-0.07287449834073934;-0.0018864287404026375;-0.03925335592005761;-0.011795411396701039;0.009692240373316355;-0.09438845192175943;0.003514921729960291;-0.02516014106593016;0.032424820938743076;-0.0711936668695557;0.05529738001193327-0.019240701138946756;-0.03744363896804824;-0.05238930957954877;-0.09382442014601317;-0.07855656441363844;-0.055662948309316576;0.030332094836168916;-0.04168910369364003;-0.06855255751972192;0.060123627851508654;-0.07312321600373975;-0.06662157064389682;-0.07055571695124613;0.024075505454002874;0.07853124753117255;-0.018567632692926647;0.00589647297688331;-0.05129584298261583;-0.048503469908969615;-0.09599604211669631;-0.07069391120979591;0.05112310242041951;-0.056861774894225794;0.06035149304844589;0.052464743733442565;-0.040702094358204;0.08823648046622817;0.07371031170660544;0.018703611332974754;0.01829618640165287;-0.03476401665645788;-0.06245718269566161;0.0681434102162686;-0.0034623801178151614;0.0024959867318850304;-0.07821154331037111;-0.0560555902070486;-0.00795606951221925;-0.01545971169257758;0.07911371983249244-0.006769066330492082;-0.07326797039689964;0.019344263232476927;-0.0015731149313303466;0.07409219083120266;0.05791277334656017;0.09491008476143228;-0.09117582951005956;0.060664734337266324;-0.07945660974157874;0.05278718270854271;-0.08566661100423767;-0.03359448726043689;0.09947058317356616;0.07147767535612859;0.059377664699797716;0.02392429181554316;-0.012243597928799185;-0.07323851049576993;-0.025279536867601454;0.04123367887576143;-0.05707178228157424;-0.05205360032071274;0.033715567864409934;-0.04200088869138981;0.04322874001729088;-0.02588198928159173;-0.09144289220507879;0.0017888570459803355;0.043866006549527714;-0.08961024176496964;-0.073470463244698;0.044324015028922525;-0.0667366139775571;0.08415290610434914;0.026257642915559792;-0.042271481346459194;0.08930959065550859;0.0013265528894440826;-0.086043456710462980.09125718869929669;-0.06657011294190679;-0.03039984463310512;0.05826448403683035;0.09476672578879747;-0.03381301005282836;-0.09923817148502688;-0.08816435600496436;0.03634335919031176;0.06782431769087621;0.08396747614238839;0.0686877944186983;-0.07126607348339203;0.004827109354776787;-0.022668644724985573;0.06645485138841409;0.02698262090062245;0.03754046578775566;-0.015609897093889463;0.039755593373450804;0.034681010087572156;-0.0735806491672735;0.06035270740471843;-0.07355632861683584;-0.08978198619618372;-0.0617214044824137;-0.08164947239222492;0.073857595276556;0.07302992582920106;0.05254288734500545;0.0356872821099031;0.04507073795322583;0.009850388385689121;-0.03250321955615591;0.0600890534543623;0.025141333583858005;0.08096042017016897;-0.0934653032201288;0.015954286363536768;0.027362481801173233-0.09361979440629356;-0.027983869270970504;-0.06676602013770983;-0.07696738934242205;-0.027393423293217464;-0.009692694687039219;-0.03361445669356296;-0.09648499020112403;-0.026902632365963117;-0.0026516280258220143;-0.04283468625871587;0.025775702778821796;0.028167201164833844;0.026298796245561445;-0.06990676127843298;0.0342107323753133;-0.019396161812704427;0.046853692678506476;0.06028741083913222;0.03787678242195541;0.051918194545240576;0.021493826798700794;-0.07028593926198215;-0.033258808315233784;0.09859432809279997;-0.038264403799723824;-0.016562434969304318;0.02793192899586447;0.06833942872926593;-0.015618946636788394;-0.014129551746151686;-0.038012377968663;0.056333853137423645;-0.03223211027228283;0.07702337588344996;0.09910753244492607;-0.03851891796415481;0.008019446590708273;0.028755159270776154;0.01540156974473561-0.07630815156477706;0.0720325466626745;0.08430391972975496;-0.013945638550621517;-0.005638228339223922;0.04938263070382859;0.05293233382362647;-0.08590325472787869;-0.09812495785767306;0.004853768958915025;-0.0020878358800328345;-0.08404126118162705;0.03469909205159721;0.058434993012254716;0.01489468168566066;-0.04290553336948908;-0.02776846797415876;-0.0023919849209737415;-0.056413668556923535;0.02357572927172369;-0.00894985507201522;-0.016402766313666467;0.07399873189067316;0.028342006026846056;-0.02883712039323623;0.057619703591486715;0.05269868078406634;-0.08254954835726974;-0.09774211958035012;0.047135171265392184;-0.010941848123600773;-0.023674112891847662;-0.010046548809333006;0.07209604481083351;-0.03849570536105369;-0.06398917976395888;-0.03795191824691555;0.05119742944586139;-0.07623057495898047;0.07941543644338475-0.0776498849401327;-0.04067011144751109;0.01939383990518291;0.06633692640169347;-0.009895324864169663;-0.014929246731462203;-0.0334041793399356;-0.0741323902570624;-0.07697774203228334;0.018546909212801735;0.04296354690539578;-0.09520592475510321;-0.0631933380602348;-0.019456667972945957;-0.0908712065969082;0.08836052833798907;0.07608014650362055;0.05982595332148258;-0.06723321123527712;-0.09208287083623845;-0.02936658225716711;0.06939165517988641;-0.0551537781223592;0.0971699930405516;-0.008324350299854857;0.002718288506730754;-0.004120751668895445;0.04843119092914816;0.008084466961760656;-0.009985341408353207;-0.0878285329599164;-0.0311312381806179;-0.057344057857227675;0.054470516634396504;0.05207193561208054;0.03675668637369717;-0.07164537086462144;0.06850658405239171;0.06222317677325667;-0.042275091745562966-0.003560985377091193;0.006956231529486411;-0.01973143712708464;-0.05008007735706092;0.041684991543400385;-0.012076882970884172;0.03569136319115026;0.03058487109581168;0.052862639761167236;0.02065320880818466;0.09856068486552186;0.014118926914532398;0.022532481216617894;-0.050616405404654806;0.09445069447201389;0.029489505668096695;0.02283100217413591;-0.013343197200898497;0.036979194815400844;-0.028136279570468506;-0.0024669673928243365;-0.08280600329779438;-0.0036634512259581657;-0.07965145389634677;-0.03416386630089638;-0.08998158052214301;-0.05154827499078844;-0.06420518403386474;0.03666543768668427;-0.07991670870004974;-0.058319869623546405;0.06840739084758143;0.014111633185140741;-0.0975557558756642;-0.07138944316802753;-0.028675193668595812;-0.00274265053686855;0.005785387919417441;-0.03985852153059557;0.098727449273420060.036481566437457015;0.0535353779546231;-0.07101317626553677;-0.03664761210446233;-0.07673310919942371;-0.005580797981838415;-0.07816982114810445;0.03924057313570412;-0.016248002932213075;0.07829205432431484;-0.06992314796435105;-0.04890355501627214;1.6427396776286967E-4;0.07343360605920826;-0.05195353262122042;-0.0863741865249009;-0.027517422547240745;-0.0016514573026398423;-0.07091364115464531;-0.09299118718702902;-0.060236130850724066;-0.027834064355705457;-0.05103036943756249;-0.03856662442383499;0.030323999059020074;0.08534698457449824;-0.032215307184444125;-0.0074449040778143665;-0.06218494603758135;0.044557508758044324;-0.01119856752409997;0.06109529903903952;-0.02452350329145954;0.048419331295196016;-0.0223693458672563;0.04713327795169103;-0.08342679570199418;0.012439827111991838;0.08850801693454878;0.08631487787330189-0.050786151162613584;0.02884610524358727;-6.878046181507463E-4;-0.03523979994563415;0.0581115146701079;-0.04251920506876857;-0.07585155776087031;0.0954132258180371;0.08213445864603841;0.01763844248501566;-0.06708945495042538;-0.04093166128960868;0.07355772410383939;0.06148021949343165;0.025857726199466174;-0.08046749000644632;0.01206072230650102;-0.010083632773309637;-0.01404912255174309;0.04035996413046919;-0.09479135415538646;0.05788977370516338;0.06976542295305999;-0.004225985566241436;0.09369996784781709;-0.016985905730061715;-0.06880930260577883;-0.026517018641278936;-0.03910851447383556;0.049944422887399365;-0.08840578199762177;-0.018516780273440583;0.038718157063831374;0.01984851425645891;-0.043537001517830014;-0.04271069693746751;-0.0886687007213244;0.03148330475113365;-0.08329623841787233;0.070873620020204670.0010118645524908737;-0.07973758630537015;-0.01399426357024644;-0.07748230699225192;-0.0349227092121505;-0.04593538644688973;0.09233993969518026;0.06590417592927231;0.027840476899210126;-0.054462831608268106;0.011191889223430798;0.015596986073003055;-0.014793825330151125;-0.01751757289410924;-0.030472865555558823;0.03499051035344919;0.08426321937184819;0.09294930282469491;0.023620308509784388;-0.09414929388787333;-0.020465460827545454;0.0014833001987158284;0.015305113857170233;0.08456512244484557;0.08922712579741773;0.08537650394472071;-0.07177565050180296;0.05839287682551331;-0.0485179292405614;-0.0690824206886662;0.044079887642154814;-0.09828531462588151;-0.0193754669587239;0.0896417814853944;0.09888268608261558;0.03228282755960521;0.0234137693637307;0.034580935195992396;0.03920277972239786;-0.0325288145914465060.09010542819268094;-0.087408989618396;0.08043042853468521;-0.015130057919030729;-0.0594215099861106;-0.04344778168341421;-0.04844972690834897;-0.0859381450750459;-0.09319551469028892;0.015753573047653235;-0.05629682219071919;-0.0516419114276244;0.02495706941727649;0.03342744404227177;0.07007085359621903;-0.016219685511737275;-0.06321149386080838;-0.09005268301335725;0.05253861745171315;-0.023383676058027603;0.09587967789495416;-0.09092221394427376;-0.07205458844227364;-0.05032997674255573;-0.026109922009024025;0.06422456108442465;0.0543337866082636;-0.0014885739167765644;0.0668078118313026;-0.015315534201929992;-0.08280009697990923;0.09772666354387641;-0.09880040187166753;0.06189543604291098;-0.06425646189608131;-0.09283202647021843;0.04046077607400081;0.07568651801659995;0.06911808429489008;-0.0217962861712224650.09642869032390147;0.011127430864261337;0.01201861114432659;-0.03975633717596641;-0.06163946916264436;-0.08905449850981827;0.06097622781041301;-0.09800393311078204;0.06605961745473776;0.06745953665439569;-0.05776541014778889;0.06345895579285996;0.03231280054352634;-0.055065946841679564;-0.06494850517602879;0.0923990437676209;0.056911320863339554;-0.011299544295774927;0.013814137610436442;0.04577493094467022;0.08290082642287369;0.08140704779170446;-0.09571089357784437;0.04598712021062423;0.032831347613590606;-7.309782474722165E-4;-0.06012761822897148;-0.06287200169830226;0.06500731704688842;0.06831846964711272;-0.08216066157391684;-0.05876814435912508;0.029737547668021086;0.020654376279605896;-0.04440524965051449;-0.0854751266074745;-0.07441472952533744;0.05069261817342838;-0.053077219268612044;0.00367512839841448170.0036476354319655846;-0.03667216964609783;-0.08798462449365768;-0.07478842309986018;0.0534463865831554;0.026093113692093467;-0.0877856187215375;0.038439300596453146;0.06387192990795906;-0.08796901944816225;0.05982074494543749;0.08353331357361518;-0.038117998010908476;0.036066072760761736;-0.07313334448758585;-0.09122603213013047;0.0411457493996889;-0.04360304228671683;0.0052207282265394755;0.05884055436159766;0.06829374928553725;0.08074614001214328;0.012838001317331371;0.08106127864206422;-0.010831987934091944;-0.027389962652848196;9.947638210980325E-6;0.031663278623413615;0.035071957312303614;0.057508998097183905;0.055614456505712395;-0.01797738468342336;0.0290204492318471;-0.07076269894921679;0.013365845341014898;-0.07508572148766189;0.09198976360533115;0.05611314022560396;-0.04193514060945385;0.080762174581011150.009160280998001397;-0.04646388867462808;-0.0047494679136520085;-0.02739013802364698;0.07529375987097706;-0.08947655339172328;0.05751114432612489;0.010190806370300162;0.008230085619251787;0.05632352781449487;0.03176704503093264;-0.019686367965797813;-0.09968967298483943;-0.0848835847886055;-0.06619709031157536;-0.09986675479438867;-0.0701747447977804;0.036094373789114315;-0.056521888080082405;0.08994175558756493;-0.08273465583921265;-0.05028813223423974;-0.039023267113250416;-0.07058150530436001;0.08157078905511927;-0.07606442702600398;-0.03694243228359424;0.013879983541060126;-0.0036185231032931364;-0.07950562565352814;-0.040695891913213766;-0.08947004008155326;-0.05371298616797102;-0.048870642559210746;-0.05162544240697145;-0.08529063006921629;0.08307670176635523;0.03384382380632342;0.074251832213169;0.006146362494614241-0.04888726458726647;-0.09044440429679082;-0.06478634466929628;-0.014468348528999059;-0.0720980726958343;0.07795183370110109;0.007362303109745949;-0.07878229260037817;-0.09511301970678021;-0.059564056710534045;-0.007429068063185926;0.06411363751934557;-0.07899279859121917;-0.013146394704231318;-0.09301777233964831;0.08204972592403234;0.07117114146542769;-0.035417768030139254;0.025833101148346416;-0.09648697401180817;-0.08749341862700877;0.0847809890563253;0.08970470738044248;-0.07610269206647807;0.0706105512286671;0.02864077018310643;-0.0892275533413397;0.01175308686171847;0.04579930768587709;-0.046365795967307145;-0.020944058023742246;-0.08496238497550226;0.019358356026614315;0.09976567045399862;0.0686690670505398;0.06736489197501258;0.059792430510536676;-0.004178722168775725;0.0440699296521842;-0.0057443640237506005-0.004879429496430568;-0.04645820838627355;0.024933334815641306;0.06432262089843252;0.03718102503319731;-0.044779058680329054;-0.0870258015604069;-0.0748483568675013;0.06478402709449965;0.002144139185529359;0.04445013675145007;-0.023649800259339354;0.0011883869157998522;0.08305175227507308;-0.010401285767377796;-0.06433131797171295;-0.07232707702451904;-0.09123332796270339;0.004802515023280815;-0.02893500674718641;-0.06021351518061131;-0.03155568075757258;0.08883914487813566;-0.04304544942047992;0.0035979341549832178;-0.014177383864619197;0.03913122418151577;-0.06953970402199522;0.011946152767581;-0.02452798180614027;-0.09200359817592413;-0.05233730778250274;0.04069004447613225;0.09904549820273886;0.05889733927718019;-0.06015028113782872;0.004958537088998266;-0.07847146073085481;0.022691709568447724;-0.0302331287533099260.005475426463842165;0.07601075461311965;-0.04926186451738615;0.08636453891933771;-0.0273406585106013;0.03177683826315697;0.09961000223715219;-0.010824501156619745;0.036029948095338465;-0.07428257904020484;-0.09675178981258184;0.06460883536912704;0.030303307550143488;-0.09907436596976987;-0.005236411317908668;0.06743369563387269;-0.08645247682669371;0.050409167174096214;-0.016255976117675514;-0.04454120307141907;0.07343275793732626;-0.07665975267755623;-0.03749555045834989;-0.0042176033838347005;0.03348121928715192;0.03130565921996817;0.012336855667280267;0.07104230377302145;-0.04068283219851925;-0.045443251874154905;-0.09023972964068355;-0.014334118110137434;-0.035083083086637476;0.04825938973201155;0.03277078933367519;-0.027879951407677434;0.018858829650570147;-0.05125596541274751;0.06709154286013663;-0.002838745500066270.0511315873077505;-0.06824828612408212;-0.04746863791482443;-0.0601230867746609;-0.06848164884097382;0.07099777852756736;0.015439194097863457;-0.04340048514108852;-0.044799140740722866;0.08854406327330736;-0.08859653643124657;-0.06979708053640113;-0.009526912916863334;0.07758994124694785;0.030794570417755407;0.07049417169646335;0.03884434272092924;0.053612621294637675;0.07532323251213996;0.08768313129811076;-0.008710729675435805;-0.08938286348040321;0.014290509974057633;-0.05136749365909328;-0.015502158367499685;-0.02261364929175777;0.04083779074503907;0.03310783283301219;-0.04287464356459301;-0.02626902630298962;-0.07180320298787933;0.09002747518404478;0.006042457942986815;-0.03326046796430404;-0.014060417306726358;-0.006287367368795496;-0.057414887611988874;-0.07297161266549324;0.016228524962368665;-0.09986266625552938-0.08780471931278624;-0.03960079813251858;-0.06987626548666055;-0.05951637272783919;-0.012025567183660615;-0.04160732973713615;-0.06671276383901681;0.09094208341947316;-0.09810988100032808;-0.08104161555072176;0.06184447606354404;0.09622419424304929;0.007390459300961827;-0.03157649584940518;0.0028922648971078796;0.04208704532927371;0.07678345680142645;-0.0964624484507951;-0.03448772688127065;-0.012164899770427118;-0.09251304291278194;-0.002277593463724137;0.08702104111784784;-0.02742983707188465;-0.07172131775730209;0.007322319843399219;0.03921996850607781;0.021441417795550463;0.0055462201402265016;-0.022146106608315508;0.03464531830816053;-0.04810459900259492;0.049537007769489494;0.050256108324568644;0.032818215192451095;-0.020073974453339027;0.020608356290075097;0.06714029939644525;-0.05350535033813;-0.07367544728784828-0.06248818826152587;0.07300606185689734;0.08033063676986571;-0.05985931212594671;-0.04707597248749602;-0.09375643545381636;-0.032239026314405256;0.004041632855124308;0.025140806238383523;0.05497108045511953;-0.07254896550181043;-0.09156481931649883;0.04342513637978215;-0.06893792728821882;0.022400385102601672;-0.05403738901285651;-0.041424350169051216;0.021988149853884906;0.0052692209010895;-0.08701164127776372;0.039176617912024786;-0.05293094711659685;-0.02537160739914611;-0.03415001069312276;-0.07215203773448194;-0.08627732191603239;0.031209396248886467;0.07710821547801525;0.09749524787138378;-0.026284935924514488;-0.06584563673318197;0.09179689924722792;-0.09244031499719824;0.07941039675014919;-0.04273392269214269;-0.01632694912373331;0.06026812224125727;-0.05997900069271547;-0.054742041668825195;-0.08853318406832698-0.09288858077950662;0.09792297049508672;0.02574173866644952;0.02014944255553737;0.06476341607653072;0.09831691898580111;-0.07722926710692138;0.018455972499362816;-0.03375185068552032;-0.023227489793972933;0.026640595645411602;-0.09828192423449378;0.04742380313516695;-0.07393984771393308;-0.018825403181984363;-0.09104750124921096;-0.06335877513858759;0.008005433544702484;-0.024186332202363325;-0.09864383060907;-0.03900605149950962;0.059739110288869135;0.051866436946589545;0.06855618496021906;0.05256817658333937;-5.2872604115017374E-5;0.008759193560574197;0.03485982073281779;0.05469279478632638;-0.06487941176826853;-0.08971409452932753;-0.034495476257102295;0.028189356750689204;0.06580578417397917;-0.009141781236048668;0.0729079244261727;-0.04237790129569943;-0.007145814608305809;-0.03824454249593401;-0.07708217558042674-0.040873607947569515;0.03178179759607097;0.041345838499997206;-0.09956978911553604;0.02656302627441734;-0.07875232515125806;0.08730290400938387;-0.015515853456980283;-0.0766138792729858;-0.002373337853469687;-0.04568819042546551;-0.09721784465449079;-0.03835957703002986;-0.05593970565847011;-0.018623476210589268;-0.015043742979979458;0.04635162200281659;0.0757335724289481;-0.0213930296683678;0.0708069212793088;0.031776378532850924;0.09612495507207056;-0.016530968591629863;0.06655308914808292;0.07765229861870768;0.053256350127225655;0.017034548222008603;-0.09891785041319084;0.005447954997645527;0.09594313001060703;0.04023131547534137;0.08219995485853357;0.05461286668958276;0.030044123223238073;-0.0899069122023024;0.052880797152685316;0.038827523304616696;0.0747116088561689;-0.06399042276962905;-0.0524825462457784860.05394357628209123;0.051187621244959625;0.06162734023580638;0.0165117619322753;-0.05062541946464976;-0.01216284983187721;0.06494268798204536;0.050021779847984726;-9.109112057028301E-4;0.024771333247149016;0.08576653656320021;-0.004165513240110982;-0.047681538422385344;0.0841982233441663;-0.08032575957196937;0.07328316061255255;0.05254454682176107;0.08413884986588727;0.059616640558315476;-0.09936091220707749;0.04374969003238652;-0.05532275916404564;-0.09782992537973108;-0.09863846248104174;-0.023333285366573378;-0.005789596755966658;-0.046213639706133486;-0.08965223992988179;0.015028935098750779;-0.024301657862073986;0.03704281138472554;-0.019816997100759487;0.041820155182649255;0.05291404097266414;0.09689221817319879;-0.012609500077666563;0.06552466615032032;0.016693480702622;0.006912875447183955;0.038681463788597880.06631360722941365;0.046001572081741215;0.015272550411359692;-0.032367915024823044;-0.0147690582342479;-0.006197145511475766;0.06838351062221384;-0.010189198585862008;-0.047993686541302275;-0.07996192472991698;-0.061035448601385926;0.0934598796203713;0.01822037355185524;0.05915226535770271;-0.014659301017728277;-0.04820003056525266;0.013005024519045033;0.08720420665677037;0.07151324523404765;0.00779050096233351;-7.065422171325386E-4;-0.021883524274196126;0.023409770451355144;-0.06962032539275738;-0.06992987413184204;0.05992539208804895;0.08513410360068638;0.07075445706794586;-0.09537925862246793;0.07103106489074015;-0.02478365188475276;-0.08140941670694984;0.024782305769253082;0.01644736207832373;-0.05713711316903265;-0.04169744454315658;0.05119307555022254;0.024051927249396116;0.024206363080651605;-0.07470634316399921-0.029264792499495124;0.018367279065449812;-0.09643021467105112;0.07721875788702778;-0.07029899349668828;-0.0999977491058544;0.01682650089554065;-0.028253304557238512;0.024386592911972024;0.03963389345243129;-0.043115369437858035;-0.008681184484325866;0.06720730037149392;-0.016750073385978115;0.00994491621705415;0.018989491717500945;0.04471176851281;-0.022466114890595718;0.08946639665410794;0.0916339064165862;0.02383193671291592;0.07611508844411816;0.042416410273498684;-0.09380197040313923;0.05813304679570597;0.04581867042168142;-0.04447940519761025;-0.07405135757969672;0.0940636367921118;0.07291555502233582;0.06151289595621248;0.08672332204638214;0.0772055496014023;0.06937247102481112;0.0453855492778758;-0.09681954970664462;0.05852392675132245;-0.020898048273071596;-0.049360893319540126;-0.024950789621358174-0.04492852700342614;-0.023911117240314556;0.04806437468237118;0.007971446976575147;-0.011002055180696663;-0.059574789983892165;-0.08921152831105071;-0.0056814966795876165;0.0406645297629967;0.02789835590127654;-0.0012002129976123738;0.06042327966007968;-0.05305416921708464;0.04579612697835744;-0.012935035236442821;0.09619687156738599;0.009963033321955181;-0.04428457417438865;-0.006077771146438218;-0.07601553509839871;-0.046666094223692216;0.029812224679965027;-0.06266860769990384;0.05481532733442118;0.07842279996112181;0.0070515837840659235;0.0911238458221782;0.04465280881562805;0.020590648595931918;0.04945763993101451;0.041252561276042404;0.05064433905852028;-0.09455503720991208;0.09836361885095454;0.04204209212080143;-0.012628563053729919;-0.09491015557065502;0.030661823755805367;-0.02756141717519618;0.083099687155726990.003326238321384789;0.04135374101606354;0.008361845754961433;-0.06516859382545877;-0.037534971074467904;0.02212283718661727;0.05628954607614828;0.08607272330201549;0.022732352768848746;-0.07625839571499995;-0.006621099733608429;0.027851182579681444;0.004948470421830595;-0.0817703607993874;-0.044260530410100855;-0.07674305857225346;0.01207475904623842;0.011310154226684355;0.06474693846796803;0.07220876731514214;0.035463698704656293;0.04865998125122506;0.03329309780831022;-0.08229595208906049;-0.038891105567163665;-0.07784043895318477;-0.027964147823763247;0.052068777393908194;-0.024104943411207322;-0.02385706147913902;-0.00435077303415872;0.023207569584164034;-0.026151983035318252;0.013647793728635602;0.029073345768861725;-0.05914635574727237;-0.037615290864103895;-0.09733460459971664;0.013764467348186288;0.082818846213636890.069924778421767;0.07040093621977234;-2.410814923325677E-4;-0.020676074819086773;0.036365251307608704;0.0029793648189158917;-0.009245796196555411;-0.058785260400803986;-0.0479502285896049;0.07912000162304297;-0.08575268119649992;0.03878537331671855;0.0529713755286664;0.08105916278654288;0.052233486002953605;0.05730558289927032;0.08118998277387918;0.011162556206362445;0.020899829069123438;0.030299526573783542;-0.05891759155288748;-0.0518247165222169;0.026875353935677915;0.09579575724341394;-0.04440763698538655;-0.09652815516956921;-0.07651901943926467;-0.04742278747761091;-0.07751954891665812;0.07730612618289198;0.0669795061396222;-0.08356875946635614;-0.029425823663019587;-0.08493857803988313;-0.027174372077723594;-0.02360043389818918;0.016017937531247167;-0.03649958977289336;-0.028084060791439908;0.05102832549155237-0.039031118265855994;-0.07069775582834906;-0.0250485798112966;0.06314744665598268;1.7174923848872758E-4;-0.04329791847362843;0.04818973527186082;0.07226797851892536;-0.09680825304236257;0.04330861383521556;0.03156095944759102;0.009019437069046593;-0.05855233471553061;-0.001101830924040148;-0.0076604109646936785;-0.03268487855057789;0.054632208630255;0.07808350184091045;0.019199050624389175;0.03902974684714541;-0.04303798101288292;0.08656379603773781;-0.071538305165669;0.02024945613486004;0.04342766074747284;0.08737466162984794;-0.02965120098443244;-0.08247817742840502;0.09604361744440484;-0.09286187458371108;-0.06476944197061454;0.05410584058267118;-0.009901690646342248;0.042312651613979624;0.05987611079061561;-0.02377806557899842;4.040723526157197E-4;-0.034556882263544794;-0.06629649875478275;-0.040698051053002504-0.013058465306200029;-0.06846422247189338;0.030357969892310738;-0.04853316301522717;0.062200927240906034;-0.053871907910074596;-0.09172380928277198;-0.03135495483562288;0.04399968301959395;0.017944752959815763;-7.197214527908252E-4;0.06863860871910787;0.013402617125438443;-0.04909480647299794;-0.06009008450409695;0.08037305688031668;0.001486767630707056;0.0380035546275978;-0.00515802142572401;-2.6363010112301355E-5;-0.05440863375230065;0.017558685010266778;0.013140561017898622;-0.052984690994565424;0.04556784475487255;0.029464147762348958;-0.015493051089250726;-0.07922728085612869;-0.07997013771540702;-0.02856180604656844;-0.004470348546802255;-0.04352975792967489;-0.03739672997398953;0.055273801844029496;-0.014065625394423714;0.08153194560101076;0.09817612957211314;-0.03691135543130808;-0.09516596652523;0.07183161501074972-0.031242253699187345;-0.0692331909835461;0.028741212971291563;0.010265113775204601;-0.09632281347263504;0.08838923863171907;-0.06526396495475564;-0.08664356718347038;0.07410572209666644;-0.005500780183948617;0.09768714135907322;0.03996068914192405;0.0677894191882954;0.04438982758843049;0.04582522389675828;0.026636818452418998;0.055006087697674844;0.017448368320373553;0.09303771151290333;0.0971629988377555;-0.005184720533440462;0.08340638392688673;-0.05488122587631253;0.0687866430464073;0.04130828055305863;0.008589662017881361;-0.09398068800334446;-0.04152559434323555;-0.050141887557644996;-0.03783177779226803;0.0840969718625986;-0.010837827633076128;0.08336954219812126;-0.0775936737333075;-0.001633860814423474;-0.003994917932965622;0.01852907175231025;0.08291247039091879;-0.015252066586827026;0.0326274922872290260.0754987953449231;0.0425201950133704;0.09395611105771248;-0.09356715376012747;0.0673685301144096;0.07405147377338853;-0.06650018241657168;0.0631023750573812;-0.007959230281810267;-0.03650720508053491;-0.06238296910454358;0.09531872649099246;-0.057203094661739874;-0.08312726328644507;-0.00890084233704136;-0.01734825211294011;0.060000840993440774;-0.04863510553132917;-0.04605489206100397;0.043941297170302984;-0.012650992583918774;-0.0484621055744102;-0.08238867904183592;-0.006452749239950761;-0.07187965089332299;-0.07439463111345945;0.06126175219120908;-0.002400491493756318;-0.0985736647696564;0.06167598499307084;-0.09198212171896253;-0.06975201031523809;-0.0015390533285673247;-0.015996586100729696;-0.01879130100150632;0.029912637933419667;0.038750695870702984;0.00923635656940587;0.0606207242969759;-0.04446659765387542-0.09402533674057643;0.007753177969936892;0.00633521184149405;0.02382560816162436;-0.06493848329847562;-0.07705379876533981;0.09940197766876371;-0.08564569372038264;0.04556108346879959;0.06944068388185251;0.018768575904036917;-0.088397136673874;-0.01789132751627195;0.06313267967938721;0.08274300120376259;-0.07756443869290881;-0.03470720789467077;0.02036456490974212;-0.06108933415999717;0.001776955154078512;-0.005217522536536944;0.06773213483576579;0.06885297290568261;0.06937783985481329;-0.039366759354330545;0.04477684522508195;0.09572239873854607;0.01168854937798409;-0.05549866981252913;0.008959244399876245;0.08569191298247641;-0.011883458699666897;-0.07311962136147857;-0.05015044970566088;0.06258763385160883;-0.06196764669551659;0.09758124244227091;0.08246161310178879;-0.09325646033723203;0.086284555263366540.005567850982080738;-0.06213704983586215;0.09428029485210815;-0.0839880547422257;0.078904387139952;-0.06946725078842811;0.04485145670774128;-0.07440982608015231;-0.08453748913543699;0.012827398878430733;-0.07009325208222134;0.001264857998129368;0.021561732608575773;0.019505448497161678;0.03188415177395687;0.07193666995170879;-0.043049300296247255;0.015684353671349502;0.06607838989330972;0.04265671946248085;0.07263673378437716;0.07373385153583382;-0.0726182646544692;0.012582310116237961;0.09684706322865912;0.008801525203232706;0.05499135841334263;0.005311775358792583;0.06162851763790862;-0.07218956469303882;-0.0400431851716527;-0.07449563561866321;0.065273449556814;0.03178760089164758;0.030836907198619378;-0.08079266982371178;0.05279251600898362;0.09679342240214138;0.046537142628504426;-0.073780909677881940.010274362959082422;0.030893732058075357;-0.05562020526397991;-2.3912641444973388E-4;0.033001436990486493;-0.07670623025584421;0.08778542123983028;0.004036500119971724;0.008315667804954232;0.062059595109920714;-0.08113382903404023;-0.1050353283813898;0.015770302281912688;-0.013997658632089046;0.03638262045200723;0.0838463578259742;-0.04407968733423959;0.07099133185787822;-0.02762239350212916;0.07824994143937057;-0.08519817482592099;-0.04078649159352074;-0.06961178378683441;-0.022383586256242045;-0.002279684229510311;-0.05021776700395338;0.06650351516765794;0.0350776827759186;-0.083712794129478;-0.012821089313721766;0.002690513850899676;0.06781816755527574;-0.002128052811686289;-0.06382924303713401;-0.0726435501302223;0.0801694937467093;0.013522929057154116;0.08030089296524638;-0.06505556571043208;0.049798891406784895-0.061111709188401184;0.009352112527221783;-0.013560761701796544;-0.013341604748183975;-0.06261910532398288;-0.024911511806129393;0.007010081209139833;0.03972009635499399;0.0955427853063805;0.039453374619723015;-0.017702255434594076;0.08892504115675287;0.08171245818476947;0.09124007315638272;-0.06932607486196082;0.00551379781076057;0.004491785332139353;0.0069898497426124605;-0.05828224502374221;0.030512774944405234;0.02507596028827153;-0.03735324488887443;-0.04761367774331422;-0.04421093080282346;0.010952302888479096;0.06703147796230301;0.09277475508982203;0.10138929110713418;0.00880727132845273;-0.04210872601280409;0.02945917037107134;-0.002078237734267462;0.06477204387373155;0.0026898063882936597;-0.07568115786433682;0.07511523705207128;-0.04904146892190949;-0.01678094306719268;0.02607908158540795;0.05504174644200703-0.0739801785978494;-0.07142253198336791;0.06367429126891495;-0.08290019578388379;-0.005579254077839731;-0.058083783264082006;-0.030285670902263837;0.011367297266430532;0.03567778898939035;-0.10198337432530077;0.05187541679190255;0.003261063539491674;0.011931424437201571;0.02354302734162519;0.0992303642801921;0.08515877459704049;-0.08829736626496615;-5.859886376163833E-4;0.060077204769108154;0.03422599552466333;0.03118664803269473;0.09548824964148125;-0.07237393346791686;-0.007422344404126561;0.0468527223789316;0.08564140377062673;0.0751668336727937;0.10013790940554959;-0.023362972215074527;0.07029182939827024;-0.08065845919314663;0.05762932724986856;0.0289538991005869;-0.07123206078573031;0.05792607635837934;0.029883071303047574;-0.028072361280055025;0.08383750858841106;-0.040884322493573336;-0.083006725515409720.056679188827929466;-0.0681780362652567;-0.0773180165518689;0.08008336930118437;-0.10336799886222865;-0.011041746595228094;0.007833518711071519;-0.07579895225293053;0.09059451417441182;0.08973382395098814;0.027013733966537935;0.08294430525463259;0.02208441087000337;-0.06702512846549455;0.09299149675476795;0.08832345542952026;0.058520297724402426;-2.4423090836812834E-4;-0.04158928312741039;-0.0682443694905906;0.08729180676896926;-0.07459699023328552;-0.04584542781774265;0.05701281745970213;0.03624975160223553;0.0811458850804283;-0.016079029926250307;0.05334119268280291;0.09355248683410332;0.04905942183284972;0.03566040690881636;0.08250377620014919;-0.0037465562268429483;0.09273963418583905;-0.04142684000586884;0.005734703120305487;0.06022348053048748;0.01980520234935532;0.01844738289429552;-0.06528251456071751-0.0833702447562217;0.07846976848289525;-0.0828939382615206;-0.059090349068814545;-0.0825495186681476;0.03693345380578886;-0.08363495713764076;-0.08866754557813349;0.05182917603543182;0.08156975342357621;-0.04593225769008306;-0.008493577474804944;-0.08305424371791828;-0.02251615423520098;-0.09477868421699231;-0.03960115678232521;0.04754108008398215;-0.085785762908346;-0.03714751194011971;0.018739082578706826;-0.08968414343778944;0.09539872407926187;0.04589883333543737;0.01003020317532745;0.08377413781951333;-0.009178273822115059;0.022325054814138132;-0.009299041352405446;-0.08759970518724566;0.07691465739538647;0.09520715663398435;0.08082898662666635;0.06039838431741016;-0.09989556989855018;0.013127419717009058;0.049883789351025234;-0.023662764582723338;0.05930529646426638;0.08489325444618748;-0.078936065822805680.10076867583723431;0.034151087920212014;-0.09838189609841871;-0.08489958975285646;-0.006879520584451671;-0.005840594285268625;0.06226022835935319;0.08100689672823132;0.014458401369881593;-0.05095183955546327;0.04194309651136162;-0.01444974833170465;-0.08673150549683448;-0.09387617031450249;-0.09534001500087011;-0.03539955893962923;0.011527407827330628;-0.08331756472911576;-0.004980497237857218;-0.07447498647878105;0.05903240594944645;0.08932817983661757;0.013942396239813923;-0.012172428051340221;0.06871302804831929;-0.09273457422988873;0.07064474389411574;-0.06665473435899553;0.0059633356791088405;0.041103810434848696;-0.05811934857599938;0.08158492028911221;0.018504011995370388;0.0069506720722003;-0.08405837113775426;-0.06602754311831557;-0.08849462799337779;0.05647649739115238;0.06187851904799167;0.03016703213607085-0.018180448908238445;-0.03980720111427563;0.007729246099273602;0.009476538889591149;-0.024182674678059825;0.013641554399084503;0.08480674631066115;-0.039265625515583824;-0.06259885077191912;-0.0574192339057857;0.023436727375396586;0.035244869245931225;0.0521415788680307;0.055657719025568375;-0.08330443471169238;-0.004298702776715585;-0.06632817476022593;0.024879685540536288;-0.0743359089839715;0.02761864093105208;-0.06757754393361436;-0.04350064576269703;0.003245078355917977;0.019882493426014232;0.0249204484499129;-0.056371915852872365;-0.008489609562821382;0.07870941775911632;-0.05689485468220481;-0.05581548433531418;-0.06383691029399202;0.03624337417196495;0.06966449624050192;0.08526436953323002;-0.020762935899252745;-0.043061467695660736;-0.0588582736548445;-0.004941934245035782;0.07399614418612502;0.039313721613781260.016418240583794208;-0.06299847714869398;0.04236213749305829;0.008267469427315311;-0.015851007178412004;0.030995589518508254;0.0363371373047894;-0.016963658245833024;0.08771173250911714;0.09581920418021203;0.04678673815572079;-0.001118163239505742;0.014557687195570997;-0.08195475375010264;-0.092605769341811;-0.06968499190102273;-0.0687474500204414;0.05368984617679638;-0.09276558792529592;0.001497099841519009;0.041024647144092714;-0.019507913639052188;-0.04967672896919894;-0.06234016808311667;-0.06303957678876206;0.05971966440943881;-0.08966505491220553;-0.07725796509827103;-0.03813179838207969;0.08936597871473638;-0.012023766661473832;-0.043127631392631906;-0.036925930717356927;0.05899301803720538;0.06538554382139714;0.01161356349878104;0.04744480239174916;-0.08868928323495519;0.06308165389367143;-0.0144218808474603220.05556536647771787;-0.09698445945247325;0.08746774175144845;0.0973935244857004;0.08981649992481372;-0.02472060626178163;-0.05265768413292485;-0.04338766674156258;0.02930421889687257;-0.06966746342403188;0.07093489898706531;-0.03917347719514193;-0.09511398330513576;0.04437243353520773;0.0426735346986471;-0.08441463972783353;-0.09387699760388371;-0.09613734526140638;-0.09118510808853719;0.03982922502161576;-0.012470109855895542;0.011782877167726385;-0.0163057637340341;-0.027860396121237238;0.07482501228010094;-0.006121093264504246;0.05597545816623048;-0.023010898715115788;0.07118030863296473;0.004912646714245267;-0.0050989349500262515;-0.049008565452768486;0.0634713426310223;-0.06508787423141815;-0.043457835282117774;0.029151438029982435;-0.07147271536860665;0.015421478304469383;-0.009951509613811263;-0.0088849535164330640.09683682027129023;0.04014643826761788;0.066783455012805;-0.05672731157658564;0.027391911578265093;-0.09466384235033794;-0.09533674513060181;-0.01697934439547824;0.09265348950741165;-0.07930614286856219;-0.09476859277442556;0.027165118731811072;0.07783638136267776;-0.09755671613819927;-0.08076381107635713;0.014494512816042388;-0.08671519045667009;-0.07399992836682737;-0.029319736061576715;-0.028885833550104684;-0.0692776005398049;-0.01777825418244869;-0.08692929082511865;0.06669631270444296;-0.08049784533065192;0.03365773426298446;0.08566897768088702;0.0707300642628392;-0.017143508389556653;0.0707993543481861;-0.030259078535382497;0.008771448158650802;-0.005852794200294234;-0.03167018208145392;0.04480679941079918;0.018693368988615733;0.05311549762756587;-0.05862576079762796;0.0448912494341627;0.0069356317300460770.05151985519389976;-0.008545466145058425;0.0272377596288004;0.08112156960978062;0.06446136368930838;-0.0794068939615711;0.02474176342373069;0.040961023570064425;-0.06389578838633031;0.05082651938465127;-0.07238158212129836;-0.004129602540665439;0.01396887336797134;-0.03157658997615867;-0.06997484466478097;-0.032963456863473045;0.015412241399562238;0.006051347708963206;-0.050919166507967864;0.07517024147326215;-0.06612235619585072;-0.050973176384613295;-0.0688842648742629;0.0467561931337519;-0.05485517681522496;-0.05843474695827729;-0.04207842324792319;-0.07969696978366868;-0.08642004574618577;-0.006969018909108879;-0.04699850953484939;-0.047406692966634516;0.09838563759311267;0.08418727046979482;-0.012179958460588863;-0.07506649718791535;0.05985089341412575;0.0734463220715488;-0.011946783770661537;0.049404033336116815-0.06204991964223752;-0.05809014691741432;-0.09531860772107402;0.05528308098775536;0.08320089501690453;0.00611909149843011;-0.07406781049316258;-0.026961836237995127;-0.0610870785477327;0.09696601300382654;-0.08832241277269817;-0.06398337786614128;-0.0028596415947732545;-0.029624949743453463;0.041477886170551426;-0.042819755094028245;-0.03598788160295861;-0.06459214795416623;-0.012906897430352254;0.08075303575518533;-0.08401818968687974;0.010513277797600737;0.06873294478428515;-0.0615288012029724;0.056077754769845306;0.07977738015869679;0.011306843568774275;-0.09416684604746417;0.07015298756046484;0.04917343228465937;-0.09932606534368993;0.05834951655229212;0.08313523329866485;0.0028119044635175616;-0.060106952696295915;-0.07220688729675413;0.015276944627249225;-0.04080952051738558;0.005472734559368114;0.058448982734607274-0.06255955209361563;-0.023808070449369348;-0.0746461041748316;-0.00996115419867509;0.02145195860270803;0.01924089201763743;-0.09662306191438504;0.055567337472390455;-0.06980109686464918;0.03481287132284622;-0.01988900370127003;0.09949291710431937;-0.06187524983582313;-0.08846105501138486;0.03376539850257737;0.014993784787525624;0.02876719113342005;0.04870693970138404;0.054768706555763436;0.0090298859115161;-0.09899183765597097;-0.03748859727992859;-0.04798127073091514;0.008592888533752202;-0.02467615681584559;0.09230364182981285;-0.04086748830468048;0.06695621141245925;3.46394584745946E-5;0.006841687809661295;0.04069633335971326;-0.030074989683815306;0.057555208440773054;0.010540310544467649;0.09851571543116386;0.04208617923451741;-0.029355563757200262;-0.05027897380393558;-0.022134589987988604;-0.0469416543716573858.924167279829448E-4;0.030961362409710563;0.09408863823586286;0.07996058232388323;0.015184520888867098;0.025648364012810565;-3.385041038464348E-4;0.05187688061546322;0.08799443554132147;-0.02975434397486039;-0.016340536957306126;-0.09689063828876761;-0.03885823684134158;0.016585647068607656;0.023943399498530388;-0.09643705332981561;-0.08740888232268713;0.01670827932387517;-0.037355823962395146;-0.048524919342860545;0.012702138373548583;-0.02088899633595949;-0.03758730875830736;0.029665725957824823;-0.019520526062157845;-0.07500121540935048;-0.03733014144498095;0.06178736393465237;0.039822799331821646;-0.0554658769489014;-0.06414338579949888;-0.031425000037271875;-0.02422318523618834;0.05308702859208969;-0.05631608980517153;-0.07590384951553145;-0.00921877321701478;0.04748502727587228;-0.006617283695759563;0.0120008568863068520.048203191167870724;0.06522919725078005;0.013186132365436379;-0.08522697659824088;-0.012908341576032004;-0.06996844017086273;-0.003313726312139692;-0.05419914543238085;-0.023749348362896813;-0.05644869782583846;-0.04160000940808191;0.06724796553246792;-0.08509571030381805;0.08917086561998652;0.047508679290089506;-0.07426468029631789;-0.0712462658535199;0.0033122385576149355;0.09279577851152604;0.07404843932673819;0.07622720083117557;0.08168696211598656;-0.0911032218366493;0.07738738434418993;0.05472995961195179;-0.01445387011741879;0.0025492190512614032;0.019616778938361806;-0.09310567187086372;-0.05206961833644237;0.07884269558036625;0.009515781449629807;-0.07317032847769583;0.0799199151252856;-0.05253114750444537;0.08702811985981163;-0.033627591888654454;0.07688447061378798;0.02897138162186827;-0.070487938289552650.025752871353425744;0.05533890407216255;0.06386287283410402;0.04659570750987524;-0.017883222772927712;-0.021635042457199133;-0.06802913064980572;8.704191590129112E-4;-0.009800420344435914;-0.048529599888869915;0.09502830177320001;-0.0842094237168804;0.032266198878867475;0.03885680290099766;0.07143901080696013;-0.013772079471876836;0.051921888730528803;0.055128567766014214;-0.0809278260380435;-0.0644179933788484;-0.08963775991643207;-0.0784570752250176;-0.008487708880186018;-0.02796975544055398;-0.05737682762455716;0.022259944598487375;0.09430919691989065;-0.055222138666997524;-0.08616905996582468;-0.0394074789068356;0.04122806420517122;-0.09969207476790856;-0.024547873016452088;-0.08474361333147849;0.010499389586767396;0.03863132545129322;0.021543644128532755;-0.0033799051287926873;-0.09893099118925991;0.069536790436552810.03387326736226309;-0.09288934815886066;0.013542903693961245;0.09627398369295198;-0.0845507190727438;0.07423830700389697;-0.06065140588665985;-0.04392912704441046;0.05785547241228281;0.07042000802001444;0.010388277288498962;-0.021539559160271574;-0.05288556874640391;-0.05716138206780799;-0.07710427648757759;0.04661799331706917;0.04123361337394055;-0.03777563044746693;0.048214564209481725;-0.029608808167085887;-0.023544660586961072;0.029104863693031557;0.03904831102754719;0.09255006345758346;-0.02649321300238497;0.0800550554751299;0.03571031532545643;0.09503700209713453;0.043850000892809604;0.09394727640206407;0.0723738081267527;0.00521676374361682;-0.004068108767332393;0.09820120278702846;0.08332188344901079;0.00212646172532667;0.04143422877039299;-0.02496611323378259;-0.09080251240637256;0.022725582818687930.041696920558547845;0.02919378199506656;0.05511626311208867;0.03133910183772187;-0.014812640716319408;-0.09675862761667592;-0.099077077591636;0.017862668538072765;-0.06095116991028404;-0.05824287215897868;-0.031738049827986586;-0.07567121276041795;-0.09651207128556477;0.03708936696590884;0.07013901447310916;-0.0370838971579462;0.018371878167752473;0.0353095435673951;-0.012654582407790577;-0.0723486184663226;0.019478563470046686;-0.007537742436979578;-0.0752918871227029;0.05065956043052078;0.0947465097660812;0.030815259914466736;-0.03266030820160411;0.05841370482882413;-0.0594751186994511;-0.004890560317826337;-0.06311159919549109;0.027985022081706445;0.017823489334314102;-0.0911911650781872;0.0477881194375383;0.043292881436336195;0.00856279708042218;0.030350619738903822;-0.03649162281077643;0.05135477724668985-0.025644326549997445;0.06798375741821003;-0.08272214282876987;-0.0480055076153769;-0.02296823740341339;-0.08742784714206878;-0.05874337237551102;-0.037610066084199194;0.05317717781507603;0.036991651958682065;0.058673912525048305;0.0668620893317067;-0.09664653966709225;0.09949728008699887;0.07961884878252026;0.07147483523406323;0.023739843417077994;0.030524244893373242;-0.037076754165131745;0.007597208017107754;0.012383219312190705;-0.061062078868305975;-0.07758841463098982;0.03815342444982167;0.07544816280291883;0.018283871241476235;-0.06684896107718499;-0.03612711860346647;-0.06653307502585717;0.05303782420683853;0.03770143780338375;-0.07045985042294221;-0.07241056706844572;-0.07514431280196446;0.05236529962974279;-0.069755026712702;-0.07416671047774125;-0.08117645470793902;0.07343781017205359;-0.0823677298801498-0.0971656476465644;-0.059716125020782586;0.07001479550267525;-0.029496542547633328;-0.027481869118524127;-0.060259665058452684;0.0876674383609723;0.04079648269393149;0.02808929539501928;-0.08328120711823053;-0.015903405715511437;-0.07181814501368729;0.016071348265695118;0.07087080249190422;-0.0031524986758866003;-0.057135896299285484;0.004093747693848765;-0.03798362584583868;-0.03730365981876227;0.03334121364124512;-0.06285809778626146;0.06639397540660136;0.07390024957457672;-0.057345374489422056;-0.006192813939641856;-0.06708947455166756;0.03444733266629535;-0.03536075468369018;-0.05746307526606327;-0.06060860141459612;0.016306642626508744;-0.09982657006453909;0.09788440738652923;0.04883043959762848;0.01567819501987218;0.013428993540600592;0.07675886940628415;-0.03436006559807846;0.009242962310778077;-0.01187879193449140.005877213562079334;-0.010356037263808321;-0.027807473626086335;-0.0859135442662963;0.03385023396156783;0.06383476427324924;0.02561409962645761;0.024913412393022402;-0.03393176169635921;0.08601493059022691;0.007812415222945984;0.013695153364617602;0.03765736617678472;0.07756853538849337;-0.07317989338790687;-0.0744965166770904;0.03111924742779576;-0.09118236228499971;-0.05882970636406573;0.05747321524500326;0.08258098847133774;-0.09472771086653378;-0.033853413279222866;-0.034947864141379695;0.08804519734251953;0.05388052301416682;0.08003307914722449;0.06825103069467667;-0.0903600389342436;0.00927836468535112;-0.06963564279840964;0.05789366741660845;-0.018131135253117187;-0.09996016735603924;-0.05982450457384521;-0.09813319402821213;-0.0821390280777538;-0.06507307811504409;-0.08574794813058127;0.0513701938417782940.023279293806057116;0.04997301284558717;-0.041990905846041975;0.06408349470342861;0.05079567745133515;0.048148882569561124;0.06583160747462466;0.07628033589151911;0.048523577046067023;0.032807052563131045;-0.003999752862481401;-0.09221589904972079;-0.022379957984162563;-0.05749978906153355;-0.09452103400504713;0.024985610428924193;-0.04508159396816789;-0.06448018808416925;0.03503297083029161;0.04213945345276793;-0.0908217289147783;0.046146089700287496;-0.034521248864182355;-0.022385995419838434;0.037335500502242575;0.04089803957585217;0.0739340602068844;-0.0898586100045159;0.06075223580113523;0.07478342880196634;-0.009932082902306932;0.03506751032654537;0.08146687778629622;-0.05245120739118945;0.05235061155730239;-0.07939796037986868;0.03844411234591344;-0.04007055788645373;-0.03569628805412946;-0.03593157568245098-0.08658674786025998;0.09528122817816045;0.045587200597675015;-0.0823688336466123;0.09759546019166734;0.0026954208243535477;-0.08863873623846151;-0.07454879300347612;-0.03550412810530479;0.09197390415201673;0.0736188729376758;0.06775739010634818;-0.05232149538561977;-0.04396566511301452;-0.008728047452499582;0.026096524959280137;-0.04203432067266915;-0.00838483266416637;0.053615724523314895;-0.06103878470745314;0.08968802034181053;-0.09447433795282706;0.08657870504868162;-0.09196012905428493;-0.07306555690258798;0.020895879571792106;0.05897272216041963;-0.09553329539893772;0.04980217176705412;-0.016573322796972434;-0.011257111352882404;0.07507172554371541;-0.059353269963111924;0.06763971465783136;0.04921764051275626;0.04863074236248621;0.09033194678736531;0.08312745975783875;0.07535868901359574;0.0421153716111713760.02370870571697585;0.08706253344214207;-0.056876204036664074;-0.011296575921065768;-0.04790717458501253;-0.03549450584175161;-0.005200063680614653;-0.05251617441023868;-0.0760006295797307;-0.052709992938834604;0.0496482710414031;0.023844955865946482;-0.06246048726253828;-0.08902829230633519;0.05793450784811893;0.09002824888854563;0.08419601379719263;-0.0864596863096592;0.04142095305777754;-0.0211657939378935;-0.09492678401895781;-0.04833038071719336;0.04961648523170986;0.03987242648265216;-0.052852962873260446;-0.08303248933348278;-0.08397343541930918;0.09581157462078799;-0.08048501708524691;-0.04777405439519522;0.014403239391065317;-0.001370595370779465;0.049646141373487246;0.007670971775933413;0.014995140529944911;-0.014137245152045369;0.03963118036471153;-0.0027872817019361368;0.04079747595040467;0.03685753932925770.0852449094046141;-0.02318456453533528;0.026579708804474883;0.03178732163278736;0.08510151512940334;-0.03340254463125661;0.08029176451702244;0.035203338595477196;-0.02905462418627565;-0.0721513442936158;-0.03838389665435918;-0.09749144034641538;0.059061830830026446;-0.0336650143966544;0.07868988093286153;-0.09289802572274196;-0.09899765654709383;-0.025349012902225285;-0.021958628531741756;0.012336201217180931;0.08983449312912994;0.038469835093945526;-0.049160054942691316;0.07776745693273657;0.06639196178719214;0.04279330281019164;0.03914610171466831;0.06540557468412087;-0.07447544409033978;0.0782017808710189;0.04216145171326416;0.04596400872329387;0.02234818390203612;0.047104275537592416;-0.07752128618521821;0.005109817623305785;-0.02150512183489879;0.06998840991845623;0.012331719460617091;0.049713677409945120.024419567300011602;0.044710659055636835;-0.09837476244683421;-0.04487043963900224;-0.0573697587782828;0.05427675639230798;-0.015782921851751737;0.05761436460890113;-0.06639561718250211;-0.016543697329458144;0.04527601618745894;0.05415473545287067;0.0477461313225108;0.04829015267127879;-0.07971579223343524;-0.09720059926731041;-0.08030015175571371;-0.03640044362408171;0.05707225749048141;0.08852148548125574;0.02458419117846857;-0.001832165459931868;-0.027916522492239366;0.07841566189788235;-0.06588214079962129;0.03162329314588528;-0.09355203194158083;-0.021171307100940572;-0.02701865580777759;0.010914646951520186;0.082538766711397;-0.008928385061865966;0.0752730471657043;0.006020514505134454;-0.040039109053253655;0.06792304301898859;0.04020988818437831;0.06633839825788879;0.09175742006057433;-0.0303345287382778860.03940096455493979;-0.08214537432810225;0.06066659877964231;-0.016001697664703305;0.08117631743104892;-0.0523183817767231;0.07943244720852391;-0.05484906247322596;-0.07213298623901844;0.004548428652571652;-0.08373437971031905;0.03336468297235738;-0.017112295559036816;0.07732655784937262;-0.03007596737856191;-0.05607858533180123;-0.0735833220371681;0.0046499709067021125;0.06959407290669135;-0.056677513550905695;0.0067109811868328595;-0.012087060152637975;-0.024736119309268226;0.021114301287116617;-0.02981382721159139;0.08532389856662051;0.08670300871269371;-0.016853646976658074;-0.057051807738637196;-0.0903562114230321;-0.06962136187676368;-0.051858323296376845;-0.057401142728836604;-0.023819289347475965;-0.09568694888641757;0.06896924496027744;0.007040198367425397;-0.05805002897928305;-0.052550071123196776;0.0221590854408163260.021901419681675256;-0.07748434658865525;0.05677410513510648;-0.04219228521311547;0.032630540987085344;-0.02534532690761811;0.028643472452328;-1.395481147008184E-4;0.023900332862212274;0.042028742159636916;0.09171827498422086;-0.014564193237640168;-0.043191277206048775;-0.0576534384020777;-0.0746261334513247;-0.04269187682760977;0.09283797862294595;-0.0774387223406356;-0.005008920004546759;0.010305302147750365;-0.08341382939213282;0.006055049459516873;0.052555468149561586;-0.08772939613537441;-0.08855871980052638;-0.05119321872277711;-0.05070673108286817;0.045259562704054096;0.10072459063460769;-0.03265766728187797;-0.07745626545517974;-0.06827533541949021;0.005362160095520957;-0.030009733937206982;0.024995352196203587;0.050696506544517767;0.03266964189308725;0.012822341116925729;0.025570565193265324;-0.07566099774691915-0.017965644507837924;-0.0700014891490306;-0.007255835880745313;0.013874142583774443;0.046038738164809107;-0.05888875572620732;0.06528374624057466;0.032263433755974714;0.0803331848480371;0.031246878245301937;-0.0028016668103514517;0.03108984213493633;0.006662614790653574;0.007315217528719758;0.07932959969746288;-0.06792253459727067;0.01746266348734897;-0.07982375055474027;0.08814865731317949;0.03886257417741401;-0.05687280333943745;0.07499894930131606;0.0035877302522207954;-0.06990850328819982;0.05806341113313644;0.03502681182599053;-0.09275786102699429;0.041643198440280145;0.09533797648107019;-0.029616083752012485;0.08155863707498309;0.03415514133000033;0.02915275727309763;-0.0059894055410570305;-0.08689266638335373;0.09676241140261807;-0.051012164445110565;0.02024503829177153;0.034406120442492874;0.028983784852908433-0.09725675223470379;-0.07656412548410887;-0.10309176068203936;-0.017837195093928115;-0.10117307960859767;-0.039376622376171684;-0.03326457275655314;0.05145033917569623;0.06810444332438086;-0.07130960034688225;0.04476099854396535;-0.08455090383868322;0.0864107074401173;0.10047297175708204;-0.0022789562837129272;0.06793291126771707;-0.09378215233010352;-0.07883110676121993;0.10112181629705289;0.029758561536300517;-0.0330282831161638;-0.09338450119414389;-0.004723678738771188;-0.05269393400018659;0.019321787522037195;0.10387139099113993;0.04873553437005634;-0.02829388357934639;0.03834013260724878;0.009179771886304153;0.07854135901728694;-0.07149925908457627;0.0012449059970858348;0.08577074439770917;-0.07152919818692619;0.04688378464890478;0.07106727317256815;-0.046296039558574274;0.04469336699601837;0.090372131254761120.07054277114776593;0.10005662615788966;-0.039025698762762004;0.07407866046751646;-0.02964224891039102;0.008303869065683546;-0.09253214556672491;0.00331922306633186;0.029403804039681226;0.07370337749233304;-0.06352988680545898;-0.10413460396154868;-0.036953100878881026;-0.006798359620606497;-0.0019962415899192087;0.04476435068215029;0.10224494757471199;0.03517086111742048;-0.08970555288328848;-0.09624028039532809;0.07413006336200187;0.01165215801656976;0.003419498008009127;-0.04165368867237263;0.058742271433123265;0.005677212340186429;0.09561130023163145;0.10334562989982078;-0.017699421063369306;0.0715956748299433;0.09459658417246607;0.0419126923402536;-0.09972633374120393;0.06818902709780728;0.003342824094427967;-0.016067424191686917;0.08868393941764015;0.08848389190323455;-0.04105582630099113;0.091240096890948930.07919571404794319;0.0014926130209574936;0.05250620101079274;0.04072906781450786;-0.05039283526981606;0.023696986370029965;-0.03198862148849814;-0.026949174616957134;-0.04336051355058261;-0.06472620589544699;-0.06602059097101756;0.03186727684986319;-0.00898247627827336;-0.028164877666846718;0.06105184877490858;-0.018490352621263192;0.08040908280058488;0.006126892020471824;-0.04227803977200894;-0.05158607825861488;0.0998321739968451;-0.06897579780349007;-0.011592918334294974;-0.059105194673053744;0.04883349367373495;0.10307083373314621;-0.03777511144822651;0.01110249095906646;-0.06251538586149162;0.04708586228572178;-0.05294065078410536;-0.010578703571800095;0.015125079185834448;-0.050849509932973984;-0.09467099392894154;-0.004198437622598768;0.08383085187544571;-0.037344001767228754;0.02318777385007948;-0.065681325328758710.09379650370446314;-0.060900726474892045;-0.01652958015196441;0.024704029583030362;-0.048448678207948986;-0.05008843642668719;0.060468298731540006;-0.07579816317740162;-0.060217898779179276;-0.09222243527333804;0.005072809521912787;-0.0971254816643337;-0.013488606292174146;-0.07069971705922094;-0.026560017524947948;0.034431816990709296;0.02763235262340852;-0.08832559508071924;0.013391486925611618;0.028728843802547564;-0.027843002469588866;-0.05814438507973782;-0.02406693338914045;-0.01494947433036752;0.025413132380210795;0.013796197220831957;0.05166968468584261;0.0024180408807382616;0.023603554485381387;-0.009562701451752113;0.051171897961302816;-0.026840918822070483;-0.07590838536222026;-0.10087157199921966;0.06406666170881521;-0.06056703152780978;-0.05353182938588899;-0.04682897275798538;0.061077047059197295;0.035933163643674625-0.043473054740652724;-0.06780926471763304;-0.07210233023364328;0.06888656876429851;-0.01977509445869678;0.09112338664196426;7.546149673906076E-4;-0.004280019581577823;-0.0794046208381203;0.023452483482482096;0.046433717366216196;-0.05179852366297803;-0.00673888628150814;0.024800629105187495;0.07530578966640847;0.023924968863716985;-0.06931110937069576;0.08748400012836123;0.040152186430732525;0.01592548488465751;-7.952569635316986E-4;-0.0754260979073389;0.005038308291811063;-0.06571519386628558;0.029719654558094943;-0.09262897077162414;-0.08856768691587656;-0.038605480954887264;-0.07718734179116403;0.014552180435881832;-0.060609570303678716;0.009433237063725935;0.07199264093584341;-0.02550769048346867;0.008630506556794988;-0.05847868479131433;0.05513075770732182;0.1000395187452252;0.027277446141669773;0.00663055229804229450.09151019946958905;0.08663043441078297;0.07591581082715083;-0.03956272835321662;-0.09211802495109869;-0.08807698279468251;-0.10109042770391924;-0.07066803975840769;-0.05067412478462088;0.05480175690737559;0.05233334019061595;-0.019356438490574508;0.014032101794397199;0.07201143284929498;0.04039498717038898;-0.07948816182610643;-0.07134305234810023;0.002784081018250399;-0.030791216745208894;-0.03455189064753784;0.01710286755481201;0.030820660134473137;-0.06095554004416106;0.09500049938593054;-0.0015578741751326659;0.05919808797883108;0.07905352068545665;0.08848087529723019;-0.09403605233467875;-0.03398689062313986;-0.05854435746729318;0.0945781518085882;0.025940098107695982;-0.06572992852654305;0.07489668285695564;-0.08681968425890316;-0.05002642864110761;-0.03627845193734668;0.09631902580696236;0.102404291417150240.0819350166115672;-0.057861130373297334;0.046868844856996154;0.03280648927349368;-0.0217490928034768;-0.045922134725323686;0.03989525366121352;-0.07922929346033195;0.042600159457011365;-0.035620248498617925;-0.07667502291489733;-0.04138315757046724;0.05660583511906703;0.027776193423084468;0.041068507386882704;0.09352091709811562;0.0948658434622902;-0.06735102421776487;-0.06930275371317748;0.0714003503154992;0.06813081727385437;-0.06918757054221854;0.015326581829220287;0.0026562946037387127;0.08543546898135629;-0.0853539225978769;0.025367908060235637;-0.09231598394058745;-0.0021301449554279616;-0.02027765530129309;-0.10035424712203883;0.08109898829092514;-0.004571191745787969;-0.043775209434659276;-0.01826307878078958;0.04007434428823197;-0.09180710949320436;-0.00629909781043057;-0.05015942646472061;0.092534451336890450.05622053525833269;0.009115260259226782;0.026629124598374257;-0.08104262736974178;0.0928715360574014;-0.005589529518139904;-0.019127557211897305;0.07122095726978138;-0.04003700671031195;-0.06998127602874223;-0.01758674149615414;-0.09192322714545176;-0.06640527679059255;-0.052180912557668664;0.09048120295111481;-0.09923257370526681;0.06050658080268641;0.06914056523869441;-0.05896757218178317;0.014828025599802439;-0.03462511968841942;-0.008445279907028596;-0.04510504445652367;0.0781403827679185;0.061823708659737076;0.09805254426578361;-0.0628437770103785;0.034709624170714014;-0.04440583344049752;0.07314911412869014;0.09245044738683965;-0.09238620131555224;0.05225973003749803;0.09028453669965887;0.03047898471093065;0.03260864537415583;-0.04052374258169935;0.04199738313805182;-0.03561452766922803;0.048764760885802950.044717902620624694;-0.02143185740458478;0.04667365093113002;-0.02474045613414133;-0.09124452226664466;0.004577145570668212;0.0786890346804506;0.00194840193458648;-0.0527694661256444;-0.012664775448086904;-0.056325464811923714;-0.014258216507644916;0.08136178201673488;-0.002277664025974596;-0.04681300692980555;0.01988902895940947;-0.022893306346239123;-0.0845802885629135;0.09164701789162014;-0.06543424659102681;-0.09858848234420162;0.08515985072146443;0.07258898714134127;-0.04687615743743896;-0.021538735655306868;-0.027023479236641168;-0.005088948831471776;-0.05165855121470773;0.045929719370478156;0.022454763571043077;-8.74873802385337E-4;0.09867299602190005;-0.08877056625377772;-0.0890191197007519;-0.07639309477522847;-0.05550082718818783;0.007761725803807587;0.005992454066565497;-0.039154163868173435;0.044376946165857470.018447206822245432;-0.09521818627337614;-0.08145685135531305;-0.09175352018576906;-0.062477915910923;-0.022202841298863338;-0.06699107074976018;0.09634905971997024;-0.06096072935780721;-0.06886176753450204;0.0943796909141959;-0.012958135429004508;0.020848068489768876;0.009898601091303735;0.05163388689146359;0.03982885271001374;-0.09038143134744824;-0.08544487742689658;0.03569576229005561;0.022722289164148313;-0.0329083222934482;-0.0927820415300678;-0.03431462832691427;-0.0815072635751547;0.09632909068155623;-0.08211942637408587;-0.04483143910202168;0.0309190511882447;0.04796331164335815;0.050669726950168664;0.01840697875800086;0.0910384079176414;-0.07355236148680154;0.09009548901880743;-0.023391917336668636;-0.036603740178930644;0.09630617768953037;0.007301217953679329;-0.03582487653949935;-0.047703622685076025-0.08475749977650943;0.07500246924899703;0.07228565675842055;-0.0473947122678656;-0.05699001495561136;0.04930664573895574;-0.08343538653654846;0.05290106212571263;-0.08345233919231272;-0.03380153221722347;-0.025360924011633548;-0.09434298259586732;0.05423342484600102;-0.04998408607713909;-0.07592726865036836;0.038928188988191004;0.08187926589699249;-0.07840645024727462;-0.07201163583794322;-0.0446088272394605;-0.01101875629259201;-0.04548747459756944;-0.008682181638563088;0.0885941672545984;-0.015030495600099947;0.03135057004377806;-0.08294796060653492;-0.040793064622801856;0.05545827795845645;-6.800764402843662E-5;0.06249103891660687;-0.0687291683036689;-0.08150412428617085;-0.07042231006802493;0.09549392208985161;-0.03155121199434856;-0.01918531217103636;0.06735513484301284;-0.04927112686278726;-0.009724674288934490.05932743371765492;0.09339058741218656;0.003316376280961042;0.0779510530327468;0.09794732695312347;-0.06520609577138184;-0.005623720925892667;0.005068792054761656;0.050357897488005426;-0.054003284078587725;0.061690819532473296;0.08731529068337246;0.043662974654615605;0.0377240740790081;0.0624968898707699;-0.058670108065929254;-0.08320499806818792;-0.015907865691744932;0.0689849851346821;-0.04973192973179186;0.02676503517548326;0.028858169366061143;-0.025450786647715093;0.07005140300139334;0.054912740849035;0.09167056440964777;-0.0999626883540761;0.03561758045490809;0.013156406174806734;-0.025681184772963092;6.086999154997219E-7;-0.03282959581380558;0.050242919483165144;-0.03301646161153286;0.06894406471428532;-0.02357020285972944;0.05799780122554579;0.05448645159548732;-0.052423760167066916;-0.027118210040710786-0.03982348939432672;-0.015557534111469207;0.010243346933667491;0.002675853774431275;0.0910510557877989;-0.017378793758488678;0.05208778687598123;0.006890828714572653;0.02827945396795628;0.08816370310753316;-0.05825243484845899;0.09594330504115778;0.05356701807114564;-0.06668457819415247;-0.03447606832586329;-0.03629404681190691;0.07187344591970365;0.08763873092337987;0.0610975401141767;0.06949332995345447;0.06766283709024196;-0.08573711659111855;0.07377843197307196;0.0943118923761937;-0.0388463170515043;0.02613403342986828;0.0127560444994778;-0.0028900122290132224;0.06456886562486872;-0.05773476763206631;-0.09265078437469637;0.07102786164447597;-0.06161432810886021;-0.056013587106867546;0.06325617102032918;-3.5234332918521183E-4;0.04758577425461444;-0.06880557927791933;-0.08119546799155371;-0.086756597273483380.015198683828687568;0.07040357534773409;-0.013280276045094103;0.08043994422353185;-8.398821489789682E-4;-0.09628109952681818;0.007168653391038782;-0.029222338695091055;0.057063574960976;-0.06014191383905685;0.07140290815045505;-0.09352305037242131;0.0835547673079633;0.06299627171470432;-0.07773233317859768;0.008193642919926636;-0.0537591608958399;-0.09316748274480253;0.028694535444847624;0.0992325268801244;-0.008059645575816204;-0.03916019655919583;0.09195153829438382;0.011797288232785003;-0.04706669711384007;0.07651504310908727;-0.048106864521773755;0.09324055915304955;0.05321110831302209;-0.02637092496307014;0.09321020477842276;-0.08768611281513197;-0.08527338942827845;-0.05352334229932605;-0.048319949687846746;-0.034582256097700534;0.06364408019499204;-0.029873516102115083;0.020416411193030018;-0.0171484664291883660.014677558670994073;-0.09548972481310954;-0.09203081570639014;-0.02726115187979375;0.0691906471874959;0.05967598640443983;0.05610077524398843;-0.03421888793706922;-0.07441973653716788;-0.07567311048177264;-0.08648552238083243;-0.09371792119456485;-0.03532374728488774;-0.024805690935647065;-0.08739126908058124;0.09207292430224051;-0.0904918444512925;-0.02972822374253563;-0.09389331632484915;-0.019627964110405238;-0.01844478263939113;-0.0949349705435813;-0.07669381502812518;-0.05596499320933031;0.056996388806088344;-0.03115798835028863;-0.07367020316320622;0.027804636581222175;0.02296034414575368;-0.0991171260986305;-0.03362522019669663;-0.09543907728544143;-0.0662245540515772;-0.05327001524268991;-0.060036885761721615;0.031571084829054186;-0.0327802216606603;0.014437900908678913;-0.054808523034123584;0.00673954435218875050.013309078131249888;-0.023071833057133645;0.0485980824530729;0.07877979416662262;0.07829693353417996;0.08474816830456022;0.0984507907998611;-0.01208441879175362;0.06485289672055092;0.02871004760546686;-0.01926011875284281;0.007600644180754387;0.03448707891237629;0.047792786816098054;-0.012696165243861884;0.0079235830825167;0.010928825897269873;-0.05524289200934773;-0.024674634031175285;0.02587974307129806;-0.013623277780602641;0.0923954685172694;-0.02641856962073451;0.07162119481335141;-0.07225140164933973;0.03978206232875017;-0.01130677743597612;-0.06529324046400461;-0.017068488960210446;-0.08147716994602781;0.011376180373129638;-0.009648007643059994;0.0870317683649228;0.04900544234721588;0.022689965279172705;0.005679177534541682;-0.031375095877766476;-0.05335069592088404;2.884874298802742E-4;-0.054032646479619584-0.03917572777958609;-0.028403500358969214;-0.06835742890698585;-0.01572252239718204;-0.060660788246044484;0.06211094236255324;-0.036975677297341955;0.088144163249297;-0.08956572924615523;-0.0781954226686623;-0.07406049557456296;-0.06809241599721585;-0.05144766451336929;-0.020335632862693978;-0.08006523404548581;0.05168970308577142;0.04240630689504771;-0.05699021567989664;0.08695177710747501;-0.009929991940592145;-0.04877087956481359;0.05374281630510777;0.06757722084140805;-0.047664505102116395;0.061023715249716476;-0.055402014759398835;0.057292801169147034;0.06273069378606519;0.040813059965521786;0.0953923141907598;0.0627252510755125;0.02070764127295051;0.0988901397483169;0.08927536783445075;-0.04210369532923313;-0.04282409393069575;0.0390679552781919;0.06897920673729355;-0.05952726509082112;0.0907525641813450.014141874211172217;-0.05490874785773121;0.013524763938499815;-0.03754519269092729;-0.08123815409335858;0.0706419332662242;-0.07291453350050346;0.0593871920962018;0.024687474263491604;-0.02845520250900946;0.027539531653790666;-0.03109106269836541;0.07221343050579651;0.04803408491191907;-0.043298594728522426;0.006055314337342008;-0.06876356193994376;0.05650859818775111;-0.060887414714619226;0.09515114511805764;-0.09249473070443154;0.01578168437982788;0.08829161545119055;0.07606080178188107;0.04887075120549586;-0.08666875936684189;-0.08701589407030719;0.010438212371345498;0.051535747246076014;0.011549716877253619;0.023412691284121087;0.08797684863309213;-0.03369480419975622;-0.04600589041373209;0.03752708384493997;-0.0673402683010623;-0.09516393778548132;0.0716359764007608;0.08725402872696483;-0.090990553292360940.05812553831277864;-0.04582559094457653;-0.02684776571591367;-0.05457018642808589;0.009796286368488283;0.011072633909934251;0.011006454190905762;0.012447999567632165;-0.0031925572806431185;-0.0252065977393936;-0.04956727050559469;0.09837151309307043;0.054457377702505666;0.019602988553146725;-0.02306915596605745;-0.07780071380608476;0.007509790266059996;0.0982954840397526;0.04359091049270994;-0.04041692012389684;0.026443723335972058;0.09844282108663113;0.02734339172502176;-9.225035075888927E-4;-0.01629645956017596;-0.0013552323208038952;0.08520906545918858;0.09838996232672437;0.009948941073650713;0.024778912986567952;0.010549042644571835;-0.05936926001937329;0.050304955207136265;0.0062506857086285506;-0.010685223142057929;-0.009437080101634951;0.020611946729507696;-0.0677566514187821;-0.043701953112253444;0.050852429773207336-0.0802886877951795;0.03168464619195935;0.08008539408432688;-0.05077894852865744;-0.04177800930548211;-0.09889849746884324;-0.018701588279893867;-0.05916374915487569;0.08390789871764474;0.09508436195339305;-0.04798783844893248;0.032617605867261014;-0.083088085846753;-0.016760247022251817;0.09915541923413013;-0.09326465543187061;0.0025074816230766417;-0.08816397038352228;-0.04210656373700332;-0.0748661214663231;0.017329277073194295;0.01006636475968812;0.09788020570227507;-0.06417774874734397;-0.024390581935136584;-0.003691918468375361;-0.07049201942615466;0.0790896103993585;0.035452149879898955;-0.015661673555038787;-0.08985260800168708;-0.006218099483856007;-0.0949381880876574;0.08963361903694336;-0.049594634220376375;0.023548559872857606;0.049016912196981594;0.03557345335440014;0.020370257098065288;0.023076488829142153-0.026014902142296594;-0.01248316375502083;-0.08505500730694752;-0.030882728323548318;0.07707019770554896;4.1129255894185445E-4;-0.01856568892020664;0.015100149525717012;0.04669427957893311;-0.004642562620122247;-0.09664471672112052;-0.08889473633924819;-0.041946448506097196;-0.09075366265547898;0.007777760598318801;-0.04707482401440246;-0.09584967863335087;-0.0891932466378367;0.06768383788941791;0.09630263538852105;0.0520239201074537;0.05686804049615637;-0.041779913269969216;0.013220646472225275;0.09898701500380251;-0.05138064758836885;-0.08705291442982356;-0.05188174154659957;-0.07109993611006754;-0.01217431787850891;-0.019920353956784428;-0.02583297500715163;0.06839949795060934;0.03312689763962947;0.07874462945487164;0.0495176811248012;-0.056828449705844386;0.056241824843561466;0.05522615578548469;0.07353433130547297-0.02041155289733564;0.004245124938419033;-0.03696133664763529;-0.030348828909740302;-0.03156606134592207;-0.09739602954355868;-0.09601466815585466;-0.0071831935794153525;-0.034550641870440435;0.016392755164357974;-0.05672666401263587;0.06414473705493354;-0.03954824024111143;0.10105617522127043;0.08164784322333361;-0.009860003009790631;-0.05335597504540296;-0.023274487991207255;0.07921320248607903;-0.0044998150920935835;0.018702548494211033;0.0553800296109113;-0.058972295870940133;0.046763329572957986;0.08497310629225419;0.03161654078582724;0.05364624231704423;-0.054339493904663784;-0.03198565100366381;-0.010305680123586035;0.05749884412910671;0.04170833936012769;-0.08567537386557374;-0.07502323722466721;-0.01947898277236098;-0.06283154335922592;-0.096428091611414;0.028797663988403624;-0.07281224716792012;0.002288093004973655-0.08754559756110526;0.08631931698009482;0.017536525421085813;-0.027812954417331212;0.08792574276613951;-0.07659997629162435;-0.011034709566662181;-0.07480223877510458;-0.03783298032485222;0.09865263681320481;-0.05229883237967694;0.03637476105920748;-0.10076416329330473;-0.06736157025775841;0.012366474868551042;0.005896767508245657;-0.07372085211474426;0.002596972891030241;0.0513687614218407;0.06984957137781919;0.06543961633128306;-0.03908322266518277;-0.02260050287150314;0.