NN;2
FCL;784;40;true;null;0.08063726378658043;0.03243510945998945;-0.09752233304131133;0.04178941602306957;0.08697570642056315;0.03737731191365165;-0.023243800731640563;-0.06048741170085539;0.021433238875198588;0.03497098127943066;0.009055524192808487;0.03343548218952591;-0.052448328083170265;-0.026058348372468274;-0.0038244825237492286;-0.018677065772356394;0.04695143762952664;0.07265596821775419;-0.04388033513494092;0.013705898702346092;0.0255815816851091;0.025371691690443093;-0.06565493370128447;-0.05986855709184518;-0.08003023842636635;0.008487696296976183;0.010012437120531015;-0.04458725164401625;-0.09652774920565464;0.08679396515001897;-0.09776389369186773;0.045879103043161895;0.09252392814546803;0.019721606335405012;-0.023665991256515514;-0.004374079454453866;-0.047111706163915225;0.06759282134030084;0.05007770728523636;-0.007235285593849589-0.054396872446912874;-0.08253473277884767;0.09846692085830835;-0.04131149379019386;-0.05876172651130436;0.079104136919598;0.08778672737655346;0.033713685486454426;0.07843523543119876;-0.0013990216461973876;-0.01828203949723066;-0.002310030078885819;0.046138092972484;-0.020497467805512204;0.0019256541867992416;-0.056083704153761876;0.012795318518017434;-0.08107756758510219;0.0777042212687922;-0.012616512085774162;0.08260977924262056;-0.03620880069411973;-0.0977725177429293;-0.07897571808517317;-0.04821126691421627;-0.03289373770671082;-0.011201359538182243;0.07196329096813123;-0.035206157371627786;-0.055818061948095465;-0.07289969816775205;-0.04223297165802742;-0.02940885275391872;-0.07110056455855816;0.03944446201122348;-0.057306093572526695;-0.021098899171999405;0.029956860442561878;0.03702251127126385;0.09394422081342849-0.07505554703229167;-9.396357064958283E-4;0.0348910686640255;-0.06968016074945499;0.0024480586927364545;0.09765992242053373;0.05871837880941738;0.04889232256040535;0.03311505769602546;-0.0838260190015622;0.03793153506353866;-0.07442259734116;0.0029119587764019073;-0.04333903303022771;0.05982151550458639;-0.047960772404503985;-0.022983288543241637;-0.023046757284096483;0.04401572240384799;-0.07115913269191275;0.006068675902334314;0.09690709385668247;0.04872798492653668;-0.028305671755840936;0.03241864946340947;-0.09534726804871961;-0.022991438167373007;0.01771052327936906;-0.003621154465718618;-0.03715570280097591;0.08299413523699345;-0.06835068683865841;-0.057527088844737895;-0.08509015376092965;0.07815781033001387;0.012169470467484206;-0.07431407922718308;-0.008698624287133042;0.037559121058636985;0.098078697206984340.011425766979475976;-0.030681283270387813;-0.04136828959255652;0.06562983619416177;0.09284408043409209;0.08148957223439568;-0.07783496630110623;-0.04616651801038785;0.05108420854801998;0.0996759892823639;-0.039638457887626016;0.020993239321922735;0.03691007322952053;-0.04039412631346822;0.053678758031602075;0.0020618656553603454;0.09953529521900997;0.03451933244365912;-0.040851086663905294;-0.05237066969842004;-0.057126793524350086;0.09141868910107284;-0.03337106801456473;-0.01982719703564277;0.08178683872207995;0.04731846932116732;0.055050463267489524;0.05030666910641077;-0.001661052248063427;-0.07450459269247008;0.04866985544197697;0.09303251253367015;0.09804198111296006;0.011738452231066981;-0.026681834853171257;-0.016010866257669426;0.06610809645404908;0.010598738893342535;0.012651145942919967;0.09570252654265629-0.05369319748270392;-0.05206924214143782;-0.037383779930121874;-0.04210870064716204;0.04995244030407964;-0.05179821244034151;0.069315771322777;0.020844967909167122;-0.045654787041616296;0.08803993601856994;0.09901378654015311;0.08493746336161906;-0.004676161415551092;0.032315299841296;-0.07899764284899746;-0.05072650501105336;0.07719628000353229;0.015929707987545297;-0.02383218456365102;-0.013885478579751045;0.07898974298439443;0.05006674086284857;0.08324072977949878;-0.052871271996167216;0.06070065659239307;-0.07155830125327681;0.045045905876760245;-0.030358957080906954;0.06954469824206044;0.03355163578594736;0.05475239092839512;-0.01711686161276775;-0.053793211052641926;-0.05707466561681096;-0.09787653111112636;-0.08575658003894922;-0.06890892334899729;0.03537332428911899;-0.0202333413026385;0.09551702773566637-0.013451641315015112;-0.09522279753374954;-0.014888571616743257;-0.045189090453317295;0.04225327264279577;0.06898101360972048;0.04252988097391158;-0.04996152828746506;0.05263911563767856;-0.019370000871438448;-0.07057147029814277;0.056305936949782254;-0.022096826079055568;0.068528010165473;0.05923341628221088;0.03767717291274403;-0.051237249624132654;0.0960614097686549;-0.05598439846994277;-0.0790764473114515;-0.0772948394870031;0.017449092728978877;0.050741170296458415;0.05177397761453581;-0.05976225067290284;0.03399245773344317;0.05752121554283768;-0.048835132686893594;-0.01886212462846963;0.05032544210350459;-0.09013813884161748;-0.028509847293198123;0.0207029216547312;-0.06933551201193089;0.07691424901466115;-0.047148707124756585;0.08600028269482299;-0.044941437799337285;0.0077245319807028034;0.07930726508998029-0.045247423735439087;-0.08374855221857236;-0.054351249300643216;-9.035827100513927E-4;0.0115607301614042;0.002394862076493004;-0.037057396197355666;0.026173397713336932;0.018348583263470067;0.09271891245324593;-0.054746684090947184;-0.08760109680992743;0.05087222265258559;0.09948177044116108;0.0229817649980099;0.03795713493643532;0.020739799254536367;-0.002643842067222596;0.015505865931113333;0.09857184141183858;-0.01833848734149124;-0.07032065309569852;-0.06256940300517572;0.011756315059200634;0.03569961083769296;-0.08529683490332488;-0.0951620182603228;0.023063409906940918;0.039518392850118406;-0.048156016184750364;0.04153709466134747;0.012335529368654605;-0.08936578548027836;-0.07206726744844966;-0.014685933118280897;-4.5379996748723395E-5;-0.06633452972444392;-0.07653511619728144;-0.005817932011905461;0.053092186136719290.057738934324788965;-0.08427277681454554;-0.039879866360536045;0.03814657498021631;0.03731413468215877;0.036147590602010754;-0.031791294817440405;0.09939723460380287;0.01853320801573384;0.041220460461492414;-0.07300859988062752;0.00973302923519477;0.04139423513632273;0.0489743081139542;-0.09520729445480225;-0.0899599004921624;0.09161062593139971;-0.08778456189746829;0.0937774587264523;0.054107418461320694;0.05686112579123012;-0.025222012390665086;-0.03379918819645074;-0.03512321395342621;0.08303980117337081;0.02777393288157387;0.030658259078649525;-0.00930714954684575;-0.0694939360898109;0.06584307181582666;-0.011664383380302804;0.06155306387142456;-0.06966534620686914;0.04340303336439727;0.08925904358770673;0.045357736602394005;-0.05943436394185069;0.030899289921906076;0.0885450278012628;-0.095840001219639230.03150966569989205;0.09062325847267991;-0.0667981180836201;-0.02961053107121084;0.05599396985247809;0.004657496733574157;0.004557751911423977;0.024640676864140704;-0.08361559971380908;-0.08990562934091986;0.005729785073845514;-0.041738737848708365;-0.042440248390610696;-0.09718330313088636;-0.028504541850696716;-0.01718602928143445;0.05575867555713135;0.06162966133389863;-0.02888289438448481;-0.004091078569814013;0.02482969114259062;0.054510808663757515;-0.08540807314655807;-0.012546407604165227;0.022481179907310953;-0.0551399417790081;-0.041098006681529124;0.045902828141835744;-0.0434686039273775;-0.0022503214914883635;-0.08573577111049023;-0.035491165138590366;0.091158440928271;0.08617430626194764;0.05038042300063503;0.04757118162539348;0.053150287884994984;0.09730094169990663;-0.09731277410865352;-0.083313204367504670.02505750626970557;-0.09080387102294503;-0.08421584766330739;0.08326825531345444;0.0496640965000808;-0.02395124686533774;-0.004165588240459053;0.08982327624899764;0.08704377516211048;0.09136798050393455;0.03391028110836963;0.05120734491538734;-0.01082074459632447;-0.06712801539864194;0.06198105217306102;-0.06784353553935858;0.08208889324444288;0.06637710465589128;0.014176651652475461;0.013629795782441972;0.02207668953164281;0.002047811801955235;-0.016962347949074724;-0.05094037031840995;0.05198229189584641;0.05064672891660446;0.07576527065372013;0.020601412659641327;0.057430990746278415;-0.020215382325856804;0.07047137744340876;-0.004616269006710305;0.023083721226594703;0.07017039242283174;0.07242847321369852;-0.018241684329622768;0.08888706517065975;-0.028138901701194027;-0.02968028761314148;0.0855500413654392-0.07168934509237763;0.03972295917538696;-0.09325754461433758;0.07334942314461748;0.03487422640380558;-0.054672386501078224;-0.0682377035097039;-0.08433422446754744;0.04138440380238573;0.011578718318528636;0.029710014298670262;0.049558152626010044;0.03177064363671639;-0.09255702406344896;-0.05126983806564687;0.0464895969499301;-0.005044897743746252;0.08344225785420567;0.09508497580603989;0.01260332455837579;-0.06889740915632366;0.07790361641311433;0.03940435744676249;0.09497271283470762;-0.042129395062189295;0.023209275575210547;0.022935891115886342;-0.012148664025126599;0.01665931223330555;-0.047953363396192585;0.06379482861855237;0.0389229289452247;-0.021138435777836057;-0.09634171923556717;0.06321411584837028;-0.04444859491548654;-0.047887121967046746;0.030091960104736165;-0.08820564623499723;-0.08896914119527247-0.058356316018820055;0.04202554646908224;-0.08302411148801246;0.05130831265837843;-0.022229560219290387;-0.08764726744281881;-0.0721214061219677;-0.034124314957941146;-0.013271466221187272;-0.041887637938974875;-0.018291811158449883;0.05819913469913901;-0.009451947927317142;-0.07444367239803651;0.033703989195246975;0.027271041827798076;0.01674004846259247;0.005479975464736914;-0.07728872580260987;0.0947522300916242;0.054546527036160836;-0.01052788201593273;-0.07256871892299513;-0.038778018013563065;0.011190448594479749;0.026165013148693517;-0.0773288064213932;-0.037571954733586946;0.0681257311177749;-0.022515614071341505;-0.06440583671051112;0.025536615528354262;0.037287256191531476;-0.025100586160190938;-0.09803070479577858;0.025382354558742104;-0.08265914542900549;-0.024327269610310315;0.022421651170545773;-0.0592816300622266-0.0600061208053535;0.007694430996855919;0.07081105081933897;-0.021291628407697716;0.02488142672587959;0.04500857270392883;0.03453576045622986;-0.014207992012413156;0.04463609661557727;0.08663459363495979;0.012771050907012499;0.06468650007320806;0.05945116541707049;0.043867452488742825;0.06830418418005932;-0.019937941081852137;-0.0637296049474438;-0.06368489369839495;0.07379792166901364;0.008026878143003485;-0.04496195703548642;0.09814848483603564;-0.08195948953765231;-0.057622855928596506;0.014948848425262007;-0.015648481386504653;-0.08780431544591792;-0.09915298094066632;0.040698042688377234;-0.02302888073648976;-0.003947330965262716;-0.06864133643251785;-0.011268658741285978;-0.008632810324912282;-0.05572382465841148;0.018272228431261903;0.053494954043822124;0.08246262222720369;-0.027343594550382586;0.088635841170369020.056098390091614186;0.018933437580804263;-0.0425579862373259;0.04324589650231486;-0.04458909802687155;-0.008365352518888786;-0.06978447393001248;-0.05719702513642029;0.057928946248331226;0.07532065789190487;0.03099459924611453;-0.08686823973848037;-0.07126586255202133;0.02106246810732984;-0.062144770008898204;-0.049671115968487084;-0.07704062942342838;0.034044851678697224;0.04704970092697772;0.03272975125387684;0.04203880518673936;0.029816343469100615;-0.0707434532092573;-0.022841460270587227;-0.010042135645215139;0.09053925054989034;-0.014169407847066301;0.09517818405379014;0.02950325451785571;-0.07876034286331696;-0.09494708834984994;0.049340407375646295;0.03851293762739899;-0.09394259133625418;-0.08161914123707872;-0.09056431241042295;-0.03387384901366777;-0.035503877319529975;0.05669806181101977;0.00874327419307519-0.09076195075346621;-0.0431203865204991;0.09207747856307011;0.04545048397036905;-0.013994786828325417;0.03647409682792968;0.020684826950964297;-0.057039035688753105;0.09955383893094663;-0.07789430849175821;0.05314404236182993;-0.046392668890993694;-0.057598192294197874;-0.03201033856186335;0.012008401275028599;0.024921503975144282;0.09370029567401134;-0.058462937518449824;0.05958947800677386;-0.02924380269207172;-0.07451622626973436;-0.07039523398888399;0.004207150391198677;-0.022465074026536108;-0.09107996895136113;0.04474544372760755;0.006439599500958917;-0.08949799199346974;-0.07943986095959643;-0.06854244454038778;0.08537330638760415;0.019972561350951185;-0.05141151614281117;0.07243537272599251;0.024853054782413217;0.04758250656043042;-9.272547500421002E-4;0.09481896355532823;0.07973191889606851;-0.06746144540177393-0.04045129032401445;0.04976093974724782;0.07201082925299937;-0.02213118065088815;-0.07780022153205579;0.039292133075978286;-0.017731706899986294;-0.07422371887516187;-0.06803735268123998;-0.020273388027525166;-0.04274453603652866;-0.0821587774034419;0.09897852258737555;0.00474378328365388;0.051455589108527516;0.07661634828113109;0.011135198522038633;0.014832152292965306;-0.024776502037990894;0.06958844646361947;0.0903170398445704;0.03353929040349929;0.05103559959784354;0.06542838370248544;-0.051345002882812296;-0.0362781375742625;-0.030260110836815415;0.09024111423594888;-0.05522339577206792;-0.056204393818411025;-0.053194060596623044;-0.016184328493047892;-0.05994401816343656;-0.09601465212878757;0.07857491304854655;-0.0441248343514111;0.05486382591929226;-0.07742500938225137;0.09850954241763596;-0.057673198168840936-0.06944877279304947;-0.04310110387333941;0.008061548804049815;-0.08463729735854762;-0.010244171330463916;0.006010132662986362;-0.06857240548996299;0.09909127030619536;-0.07435518306097313;0.07360329727852805;-0.04180477724028036;0.09873582292664815;0.014531611973252187;-0.03468383563575615;0.036217163610996944;0.06725468396930798;-0.07262924874737112;0.0329901037846177;0.01111225928925097;0.006934793841183076;-0.06399211198935154;-0.019079888109299212;0.03251547135853036;-0.024358303800649156;-0.08057021649610015;0.07210478888897318;-0.039672135949123694;0.09306954810237383;-0.029985682836514732;-0.0655036420665435;-0.029033373661332476;-0.05300886685805189;-2.1952113495693482E-4;-0.03274935452519233;-0.03638494473605379;-4.921671486997903E-4;-0.053361632840765366;-0.053022899647568345;-0.033527439870630435;-0.0067003512224678570.014302490935802353;-0.003228085622691751;0.0754889606527388;0.017485374238063442;-0.09640165128601626;-0.016396436801231623;-0.0928705049905398;0.03035298619971355;0.09847604162251997;0.003983883849796421;-0.07931574250174474;-0.08647200064716652;-0.07578916892568639;0.03255642068473605;0.09368069941955773;0.0509373937134219;0.02464486023639001;0.0765941152021592;-0.049661830293026066;0.08726255636029104;0.018437170886835802;0.03224928713901781;0.01781790198189906;-0.01581073151031684;-0.04468629462942358;-0.059196333771256354;0.08247303737092027;0.07665768948965437;-0.027682709326240063;0.044918370315167794;0.046098605599968284;-0.0708876053413611;-0.049942335778607454;0.044883910288530254;-0.017818473049905026;-0.008247658601560265;-0.031038562909903325;-0.04512980497851038;-0.00784937684605265;0.056780886071167130.009692079530780037;-0.017191998480726056;-0.018173537693933234;-0.020043817468208908;-0.05810429203869492;-0.046570614411969684;0.008054536338581414;-0.04936008174499704;0.07811541011915646;0.09719297959424997;-0.060881143092643475;-0.06854300397069243;0.026903768217665103;-0.010866092705717478;0.03567771410803361;0.03782949783096945;-0.022412723560356396;-0.03837629193059977;0.09228832327708239;0.09564093453252259;0.006516358539382622;0.010620357508026965;-0.0563431782678282;-0.052513760337091014;-0.01668462051581672;-0.09808175373528433;-0.02911172554676225;-0.04107823385215022;0.07713260941217356;0.0773982006423774;0.0077366708228540915;-0.07528469608815813;0.06289024719476916;-0.038722532588276876;0.04685493328753254;-0.024903935302400093;0.027534432078206023;0.06635972247256394;-0.05395510080306756;0.082004678806427340.07832917929386168;-0.020480798215729096;0.08732040935970306;-0.06970089241400473;0.05744401351698736;0.01136571058495861;0.0897773821408753;-0.004743252351473354;0.07328929540986515;0.03859274178609312;0.08972273926623797;-0.08804016512666848;0.06847770125993571;0.07979258237848591;0.09149400886074815;0.030256763734880815;-0.051865888108854175;0.05513222028057954;-0.05993408065164885;0.0796956313582233;-0.06385439581108712;-0.057396640294729906;0.0773004148188032;-0.07422575903512095;-0.0685885186318915;-0.06572759029536042;0.09819664357240357;-0.07380989766149917;0.06409324065616523;-0.00746951834461515;-0.09285905035504075;0.08709043527076751;0.051864582699434586;0.006343395684943465;0.07415690307576864;0.019322158106116524;-0.04383856710952597;-0.052498318862845;-0.008844732409271888;0.09468191204926288-0.0812096751683352;-0.05263009904603009;-0.0680136485183152;0.07293417190450308;0.0962330919017324;0.03019665509582431;-0.04846791127528205;9.71399158004177E-4;-0.031566266509953964;-0.05228102408238347;-0.039267401726436814;0.05124177812754496;-0.05183726770022321;-0.0016206582162955618;0.06909298612122236;-0.08029634273410724;-0.056777684318737115;-0.02278551877630057;0.08427509904287572;0.002034637286544183;-0.037303555078199824;-0.01789465267890447;-0.08165249207479189;-1.1846636857466841E-4;-0.0767991865238708;0.02002713680538229;-0.005964452279852789;-0.07288957761490522;0.05513287201901254;0.013299294242996182;0.05097126203117039;-0.08394339129709183;-0.0910782090870651;0.005835486425949971;-0.04805654501202783;0.023774631001969998;-0.038721511759087224;-0.030606369595357813;0.08914766265486107;0.03828827707301394-0.0632842004218688;0.06508300258256236;-0.06274897293914967;-0.09709131217432494;0.06946046041429421;0.05735482437814532;-0.04380607659351554;-0.018375602257202472;-0.06699046954498444;-0.04811741015963936;0.08118147972353129;-0.07473542305117815;-0.0892921202541865;0.04788335819016057;0.09331856487400023;0.012837543038889287;0.04548289657070054;0.06821919620006497;-0.038582419652671354;0.07512162660794588;0.09609448046726404;0.01564720995226125;0.09824843539406922;-0.0490848089120868;-0.00661494389662734;0.029069511031594775;0.016788560902596214;-0.05671339211862428;0.0965295692724894;0.039783236362739866;-0.013527085664884808;0.07582427321851934;0.0492854769285197;0.027730538245048036;0.08944396380204697;-0.05111339882778796;0.036242761062518225;0.07774859524902233;0.07680170789919846;-0.0041479714059863560.0589365559285604;-0.0312310069652183;-0.03905669336201059;0.06474112295704734;-0.07833702701890677;-0.064467943731318;-0.09537075804711528;0.035859335264550374;0.04094858722198785;0.014673445996952889;-0.004879418750622519;-0.09402187370345368;-0.019141794828055045;-0.030349322481445465;0.026908159431121875;-0.017737714025266;0.09287119004772304;-0.02210168469192489;0.035022376898828284;0.03897865027650954;0.022131461482741657;-0.06292202726366587;0.0012831635080795267;0.02374610989626655;0.013697486306987944;-0.028671679268317804;-0.03944998296704658;-0.03621439003400087;0.01879226932692321;-0.062484936341253364;-0.09302802691569662;0.07217013785497636;0.0010533858286406045;-0.0685190222179465;-0.09976237728824473;0.054074734811274255;0.04278295149614611;-0.005704121795923611;-0.028174887875689517;0.013026498662611477-0.09206284406981567;0.08061838114786579;-0.07868544613652002;0.06790939275051291;0.02166709165520382;-0.026247902404672008;0.04503013946911322;0.039150508964405806;0.008909565355879945;-0.06410446279401993;0.023414530072513304;-0.09730218974165068;0.052390318409627934;-0.06867954084392569;-0.07544887045948145;0.00271196984634256;-0.005387081220759371;-0.026861041735647323;0.05442617749887227;-0.08968099126136607;0.09410877339947873;0.07955345949724354;-0.0868212561625805;-0.020139745515868904;-0.018312886258429056;0.03010671545429086;-0.048649276784695994;-0.09485761664068655;0.016685014160268574;-0.07806818720572016;-0.07386314063151278;0.07568739699203572;0.04321737149788127;-0.07399782431886948;0.05763471279285512;-0.06701735929141758;-0.053573088489597215;0.043381554328630056;-0.014905320908727135;-0.073269228783225230.02143766919557255;0.010868147423237717;0.008890347922978006;0.021696397749632765;0.06445713773975478;0.036523503603820784;-0.008840765437311535;0.09980475306610614;0.010872357154307594;-0.09692738033555304;-0.06672793866290092;-0.021117936449845165;-0.025220956968146996;-0.0552441427394897;0.02750447184338789;-0.0028701175758859138;-0.021804725272614317;0.055298448072922;0.07717947106623316;-0.04464038732042983;-0.04268851535193666;0.09416048011766828;-0.09708256149053845;-0.07675746787006239;-0.03125952265468035;0.09278691683792348;-0.051113909336251595;0.04555977375955292;-0.004232584175577772;0.06085756255198224;0.08905053884174965;-0.051547658164445;-0.0454001712843434;-0.007462891632537466;0.03342323376440853;-0.05432890178255648;-0.09938239447541906;0.07272509762923832;-0.06568599448530582;0.04482676952826253-0.03743229133893276;0.021441151266738512;-0.0072474025125862235;0.0183728495589128;0.06840989492224706;-0.047017389520169185;-0.04022431279929006;0.017375803387014457;0.08438907789407332;0.06433971240710834;-0.05365002076330046;0.0716013475068816;0.025576954862011725;0.056085259289520045;-0.08293500228158786;0.03817134857551213;-0.07985662570463221;0.05595269162975397;0.07773340998990924;0.029493327390693214;0.06560632588213558;0.07508609610847936;-0.06835896546747386;0.069510442965385;0.08508195440570376;0.06429021946105293;-0.06420317496074404;-0.050048496575805124;-0.016465471081921312;-0.02971957427018737;-0.04281711570854407;0.08658095603822591;0.004026477478216203;-0.008067254096429027;-0.07099553686560736;-0.024551095917984544;0.08396837122640569;0.03653385007106996;-0.09306005246814178;0.049141084947454616-0.07508507136301189;-0.04799957066591405;-0.07458198333438178;-0.08557234450847291;-0.059573289536773835;-0.046188438686854655;-0.08212961133246482;0.09970728088425934;0.06819751439407887;0.09897417294831798;0.08644592844909268;0.06284614578475964;0.02431317607001822;-0.035998041009928636;0.0122268165296721;-0.016364462075164773;0.03141471560407949;-0.09147370811393532;-0.06402460160998971;-0.02189058187656183;-0.07505168057892896;-0.018453781478480494;0.06438420505442827;0.004794417027036341;0.059415354879338717;0.02767846292005549;0.0763259498312022;-0.029040150268622306;0.014622364030904555;-0.0065925770159387664;0.029103501211076688;0.03886769762070036;-0.09806893367769765;0.033335170215297555;0.06469991835065461;-0.06797737105003876;0.07050835533494856;0.0164314643366619;-0.08397156112792846;0.041421980684045956-0.06860556611892073;-0.027220385412428286;-0.06455457266796286;0.07451269055235354;-0.008666651043337817;-0.030419441295118935;-0.05037996589630687;0.04116262452257169;0.07419816176397764;0.088210540634826;0.059674061031427444;-0.032168978892907305;0.09875053321019281;0.08766864454906248;-3.903491749629451E-4;-0.051711312229757694;-0.04670442176160505;-0.06444008750312777;-0.04890260996774316;-0.03696259948238445;0.051931869273485115;-0.035654652148943686;0.09972633334627892;0.03555988648034453;0.09080143668783916;0.027591897892202955;-0.008746010829747436;-0.011430172639008057;0.004339769266969357;0.05622248407667113;0.0878563230631779;2.618718201414516E-4;-0.07847419426551135;0.014765975680161844;-0.07562224179443296;-0.03943838789979912;-0.07786805286129883;0.057607202184308315;0.06458117288487328;0.0273756113131538030.02471570567430055;-0.007946070803913213;-0.048698284827103505;-0.07946935752006433;-0.07623481543763351;0.07106692138912471;0.05815002120898333;-0.014472024282414786;-0.0028084366965293317;0.038818104448092805;0.035511906461809045;-0.010923978764514009;0.0948151982885449;-0.022129855127843892;-0.050917030552055036;-0.019606067778153144;0.09976942673718942;-0.09433881194334637;-0.0990032113721256;-0.05329864224231218;-0.06524942315091092;-0.019245128575253068;0.03607493851787327;0.019468429126398235;-0.03173203992596399;-0.09090967436186062;-0.0519230210201995;0.08066576400468833;0.020893887223809957;-0.049767839093365664;0.08595046239228185;-0.030985529346459192;-0.028486345218263348;-0.07637951689998433;-0.03991908003973191;0.08623614614869801;-0.03642446580752186;0.014820880057605887;-0.051458116212620086;0.003302877591381148-0.0016645113448833931;-0.04860583007110908;0.0376339958934116;-0.06732388589479306;0.07657425215326555;0.09828369394055028;0.09091154672251672;0.037748213966016825;0.08908015300474245;-0.010216131682623503;-0.04229885212096765;-0.08720444102274089;-0.04290979203703907;0.005386711782165848;0.06676544834387024;0.07686706337221647;-0.019044797549434556;-0.03223948852916825;-0.045894131764822155;0.02031289438390002;0.09638969251520887;-0.0010001691513532585;-0.08078740221611645;0.06103450102291716;-0.06927800215536697;-0.02312450621537354;0.08131459928947402;7.345951716230814E-4;0.059144215643375186;-0.00891539263106736;0.03562959715484276;-0.01883283751940487;0.060962210667616396;-4.994659336717555E-4;-0.0903859112172359;-0.059612547596519065;-0.02415438877950557;0.08442291453358045;0.019213340571206244;0.069001992073705140.04859985178427553;0.026133076622582074;-0.0048932128534174835;-0.05552232886724491;-0.023989709821988864;-0.085853497013123;0.04790606998527813;-0.0951814489803668;-0.043113556012804866;-0.04142043709247783;0.016860668846124444;0.09324236412109865;0.03787522148054484;0.055667173582739066;-0.09556585957267971;-0.07491807993053459;0.003819320265310844;-0.033597449579869945;-0.0955891604334038;-0.06644665853210882;0.0840072568102028;0.0227872156979783;-0.09185407209748564;0.07600605169005156;0.05842333040320555;0.034080989345154356;0.010815358693910593;0.04017276267981443;-0.03600234732549493;-0.006948011338280713;0.017665891441658796;-0.04958049850606672;8.561294356979748E-4;-0.017773357059310796;-0.04973491137095801;0.07399558916102478;0.03857047530155605;0.08013966636654823;-0.047248696478573486;-0.07271635065713136-0.01617575466078494;-0.0577871747497005;0.023851008232017093;-0.049369812629614575;-0.02252140952648027;-0.0057282958060241584;0.09102391682373029;0.08636142893562904;-0.08072362028275895;0.0041622679732707946;0.04913060074130421;0.037608788892398076;0.07321929120662848;-0.01205996774442726;0.01354603299696358;0.016332324116973523;-0.004881904073470528;-0.05746791071799395;-0.03042074117726394;-0.006511334688029197;0.08884262539349627;0.001987117273789238;-0.07127658002202837;0.05528103237316234;-0.03742818615530159;-0.006274631023032745;0.08490572839291366;-0.04059077408555794;-0.01495634003943487;-0.005211309990533805;-0.029262515484246396;0.09131962773348687;0.04180526607346549;0.08809050442559338;0.013764068837595622;0.02045519829718534;0.09146279392988627;-0.08133418779853362;0.09271494533835009;0.056505489128228364-0.05864518748269585;-0.04562924900861636;0.055637294092504286;0.08178311805904426;-0.08735284524775058;0.06249564909342198;-0.08422954163632212;-0.09263144090639747;-0.05254712073802166;-0.009205691717912051;0.05064500547499906;-0.0428570659858589;-0.039752354326852646;0.07720734468916929;0.0845571517655084;0.0546486591106492;-0.06328928160083577;0.08244149294693001;0.016131718966357497;-0.050680715319886695;-0.060025014267699045;-0.0037803985616345487;0.024572150312689597;-0.07727054250578279;-0.08312305980721264;0.04353063052768902;0.07591049387296539;-0.005155042227151546;-0.09579331430000511;0.0908796567512841;-0.07074258133915634;-0.06972734728889843;0.034957950704085;0.05253786508772654;-0.056947799055260595;0.04451054537371352;-0.055421931464897205;0.09679256208943296;0.08131273141900763;0.010197740142996015-0.007797722034618121;-0.05423135772689369;0.028870732476787425;0.04675752367853209;0.06004224242593015;-0.021883292128267853;0.028346879126441682;0.0010496549974216424;-0.029749060474440106;-0.009775057972944645;0.06781473697229892;-0.08946592970919612;-0.049549574486768666;-0.05615069644308988;0.04667980705193553;0.06578144129099481;-0.014107848825570299;0.072437658225529;0.0501019948580384;0.057179314872042725;0.07570696378694272;-0.06262023718207319;0.005245585472092085;0.03118215672875732;0.08915510013594136;0.08425726709567824;-0.062470730637985694;-0.05343869435122908;0.02187619741045374;0.0990937187329273;0.026876132417004206;0.030655011231103035;0.052139283238213846;0.06460455335123591;0.0639636400219265;0.03561840305938291;-0.0029072223585612927;0.016447108396290128;-0.09352632820435665;0.094673519479717220.0120236326698685;0.09765571434935308;-0.05689568298641563;0.07044484954474717;0.04754554947498074;-0.06280533518203027;-0.09674109448348334;0.07387314513458679;-0.03833864061722008;-0.059011173190796545;0.08224559016563035;0.043161126294877894;-0.08284968158327688;-0.06130936604519366;-0.0542694101390897;0.09912943838138874;-0.040871889481351925;0.018851433578958868;-0.005158450209092336;-0.025377358207266318;-0.07870314677015906;0.0351715102607309;0.0724175500940396;-0.07924076744739804;-0.06780492344998629;-0.08724993232670844;0.06925908769779918;0.013181633089664357;-0.07855224753977004;-0.04566476275479073;0.030378087960287486;0.058306185997711785;-0.07398373813904664;-0.05342591913871295;0.061247901410584754;0.09957315673649089;-0.0035515788852588936;0.06626257866223684;0.034053309429817824;-0.076303251746531580.09112366961852827;-0.04149966336952846;-0.07192115351859898;-0.04181598881996243;-0.05499921154421461;0.04655500505443122;0.09497532143075116;-0.002963557691626331;0.022983577577246825;0.0836381520385941;0.09578477740840327;-0.06416053279206047;0.08179908113023701;0.04347206295756234;0.08099037219207017;-0.0883972699009439;-0.09525092861566938;0.0654162357783846;-0.09422503639766062;-0.09490191048256265;0.057960001513298026;0.010717378545984674;0.08627112486949542;0.09710959195776156;0.0466330537444824;0.018759403888358644;-0.04418886980197992;0.024683511082351423;0.07129410108144191;0.06331342948223603;0.021176958212485802;-0.06262168459571889;-0.015956265408298823;-0.09121222148125895;-0.08114968969538952;-0.04648531038533717;0.04480724897125132;0.06647799208998298;-0.02873742168363591;0.0164255201471471960.010053915677810846;-0.08761368653399043;0.07845916242258025;-0.08502773192672755;-0.07406120385563016;-0.0787148814205596;0.09498192116269413;0.07270655933790351;0.029036654772305714;-0.025825042002539197;-0.08979455714560491;-0.043119332984299576;-0.05305963270784891;-0.00903867302325903;-0.08826153096745866;0.0481972034365859;-0.07116295492894008;-0.08529353509110921;-0.08809102401614402;0.053640521200433805;0.051758036323526796;-0.08212066731067853;-0.04598580616096024;-0.08727328263197937;0.026828930302338516;0.00860565267098383;-0.08142942797929652;0.003753613810119405;0.0055195585092935595;0.03691786815183645;-0.07043619570405463;-0.04994921475969119;-0.014106021975472172;-0.09899483753304167;-0.03930117001292957;0.026229530623370523;0.018860496559092013;-0.04653653086003495;0.04164982028114844;-0.035567095811669266-0.06592321115102624;0.026959913774312116;-0.053974768748574875;0.011101681445693012;-0.017886989373526174;-0.02231262365728999;0.09454824112036517;0.02768647570553634;-0.008686270032229215;0.04059706103277411;0.09417478735207133;-0.04254638211654693;0.04668702508976802;-0.08616514569451897;0.07220419480297158;0.022871508088223053;-0.018114017866534465;0.008254166681067848;0.03270582554368559;0.08724106997565895;0.03545872096159558;-0.09633407126565521;-0.08723095494798472;-0.08905426219677735;-0.09290163566815504;0.005088587090008298;0.03875324503034788;0.007701473286963731;0.01389306965495532;-0.0010018876611171124;-0.017462163579263446;-0.09919324734386437;-0.05342399885182221;-0.0904220079469982;0.01777225732114243;-0.020607425430562265;-0.07422464436709153;-0.045030767258615545;-0.023874057841342736;-0.04532754388967197-0.07172304314678334;-0.01375213236332358;-0.03099178457472261;0.029268399981753956;0.07239351636115673;0.051038373983609636;0.04181373652174597;0.003983849658048433;-0.07980481332336407;0.01923647596448999;-0.0191700596133368;0.022453818570927653;-0.03180387511150477;-3.6034441860892386E-4;-0.01122174853270741;-0.08703569022874647;0.05188752869303592;0.06658493984434613;0.0604821585205175;-0.07753412286138642;0.0519876569762486;-0.03380108758711997;0.08911717857065751;0.022823631062388675;6.918146332551139E-4;0.0226477013956837;-0.027539092705980123;0.017067220280962817;-0.012077638770391363;0.044386990992146214;-0.08085703490467783;0.04564085842441645;0.06757869880096776;0.030412012272261313;-0.0451049584682206;0.09265329989327192;-0.03621270756467443;0.07650754587746292;0.02880086821161676;0.09212785448025770.05407384596238565;0.09885678289039224;0.024249540728839558;-0.09418176889371743;-0.05610750365102284;0.06586653390571287;0.0417813848938238;0.01318845249370773;-0.0647057185157088;0.03238657060723471;-0.033458536046522144;0.019612069218059663;-0.01150176886457896;0.09369756456553721;0.00113771593844203;0.05728990819144014;0.037563702143782046;-0.09201698545806294;-0.09985658189256189;-5.493494283910633E-4;-0.053359621109227186;0.0525792618553107;-0.07365282450799815;0.016600787524161692;0.06621829462506212;-0.019774530013869973;0.007002927322608682;-0.06722534354902202;-0.010622206814768803;-0.02468636601717966;0.09007993855363824;-0.018215576425510818;-0.09196043775201042;-0.0898614071516495;-0.09948718775003539;-0.03652991559666026;-0.03078538110732479;0.0011480091442687135;0.09645148707238557;-5.052984148704032E-50.08671223147677759;0.021944716190512595;-0.03529260947899744;0.04476230074231194;-0.01330385973315;0.04215292568553747;0.01659788859350997;0.09061267111820953;-0.06427828362861294;0.02474995366279649;0.03671169949942543;0.056230835465023915;0.0674922197665633;0.04272433989820623;-0.074786738442916;0.006847759071939935;1.957540045090661E-4;-0.0948880230129843;-0.030123130812934704;0.046866766613298944;0.04275531510774583;-0.036753876524545356;0.05233668902407393;-0.07388644471975277;0.0010787480764218732;-0.08299259194831493;0.05433674622649773;0.04608617811006194;-0.015691248920736145;0.02107381585535964;0.06398093462782387;0.06620505413756703;0.011072909446850868;0.0911706986290374;-0.018016990993338616;-0.08993703635461184;0.015733646218385605;-0.08967923003156109;-0.07208341370253944;-0.028324944664863266-0.07433687539912597;-0.05802358591725009;-0.030918125466954573;-0.03731899383614011;-0.013837825724530024;0.010654393049002684;0.040865974468406285;0.06669882121261876;-0.05935078887303789;0.08098868602045012;-0.09927809818391699;0.06233176889024859;0.05830159529007306;0.017422111778565574;0.03687535666787283;-0.05989682227866907;-0.03954455942019956;0.05062128281998013;-0.0821624687613231;0.08488511313162453;0.0768587702948583;0.033724751246828305;0.04865490607341812;-0.0678531129939651;-0.09808054171805013;0.09859521508990718;0.027160244342857895;0.024206811254770075;0.05095707178932465;-0.08793084836674764;2.2073834129048218E-4;0.06647975966898863;-0.08354947257631783;-0.06779595032971772;-0.08000929487684072;-0.01626905715252576;-0.07571001258270685;0.06453241394813768;1.5903065395686262E-4;-0.023677921833787207-0.08460420118432012;0.02543159254590069;-0.0329419516730364;-0.03187810085521767;-0.05857357648457358;0.03112134767815748;-0.033866835854688665;-0.07938745484117105;-0.0185737822040619;-0.077322909013679;-0.012754872286216402;-0.0246256541495837;-0.05971940146704626;-0.009200431576704884;-0.09894486687583619;0.027167386985664288;0.030988004737776038;-0.08912866417983073;0.03946667891746806;-0.09144163263427929;0.08091763239761907;0.0492021501703613;-0.09812495470158732;0.0961669675930067;0.03805442909010396;-0.03071559282300609;0.061419776199204676;0.016920139440266786;0.0772535822750554;-0.061957744418513296;0.07123008535511746;-0.045703887532725376;-0.09351521586209041;0.03207473675098802;-0.029318478071629142;-0.04541630885864642;0.0730868692424466;0.04391570247287379;-0.00836035570867007;-0.06687717045823117-0.004869599206504115;-0.07721102670572967;-0.04853506811712388;0.06943423468832972;-0.02721756809160634;0.0022755040974982137;0.018513488124005863;-0.08463698170318906;0.07167325984068604;0.04127267346807862;-0.018754788431986164;-0.08150972941072746;-0.04543783785996725;-0.09120771167936059;0.09969079956857167;-0.03536912985459975;0.017813601580922378;0.046514877903098065;0.04561184948437601;-0.009606623088062559;-0.05235148926951135;0.025038951421035658;0.05875078377438077;-0.06057055019065483;0.076393461739731;-0.09986813259423562;-0.0969187727814653;-0.08131544722476645;-0.06126859130938549;-0.03102028822594061;0.0230572749415391;-0.04535303866709038;0.02795072888858924;-0.07356384825091777;0.09986457805718735;-0.05040070520310753;-0.047803986250616916;0.021274071080207877;0.00766930712766008;0.03786697236766984-0.0214875752469718;-0.01375865267412095;0.09305185136151334;0.0753770106190064;-0.0780434706200121;-0.004047751767172245;-0.08340515931708575;0.06036182128842962;-0.018313240476621306;0.05319975152193501;0.02549916907561356;0.006454612867580617;-0.03995883319835163;0.024704853588174203;-0.048740617516051944;-0.0396858897900865;-0.08076670895735538;-0.0613734777977369;0.08837051715713032;-0.0668379615378073;-0.012397838505665601;-0.00918827247629439;-0.09942190510049653;-0.09296689956664561;-0.03413771090517344;-0.0489545864908113;-0.07287187571873942;0.041024989726154815;-0.06664630847505085;-0.030699477034840314;-0.010982889210139235;0.0775483919478897;0.05429185269571732;-0.01801201912284786;-0.004757965801109543;-0.05142301705911885;-0.01598224921885713;-0.08179329245856591;-0.05094962637935918;-0.018102584907963945-0.050359652049642524;-0.01042146029625697;-0.02151275061894746;-0.07466119564639528;-0.06369211621589993;0.05252176647989437;0.03859181138874729;0.02192620798995;0.08282397720932119;0.09535020050633067;-0.08100746475212135;0.04109893143211185;-0.029903344439478535;0.07949250989961323;0.0026543380292336216;0.07837377644441665;-0.052789770140990934;-0.0013838716743964224;-0.031156583002052846;-0.010368687191504217;-0.01232473005341321;-0.06512274304475901;0.04937722772742131;0.04736587431859879;-0.05432137269704476;-0.0848291246389834;0.0848745009562642;-0.0030644184010037157;0.012333407199167798;-0.03261927142841048;-0.0189947673768619;-0.08718769766349393;-0.028070996564037318;-0.02337067395266794;-0.03525930225653391;0.05483169495952195;0.05818106453675348;-0.0584720414627316;0.04060342852335139;-0.075556831129460390.09594129338078106;-0.07512307964272409;0.0700154974452982;0.0012162292150717652;-0.06740237074069408;0.026938163736262705;0.032108119452793515;0.04953275758210568;-0.06531332297966326;0.0296194663580914;-0.07248742556851717;-0.03073252753163168;-0.027875003928929054;0.09031602051754659;-0.09225668112073111;0.06269471173430896;-0.09541255261915181;0.08274382596217014;-0.03280189226373391;0.0015346265139002807;0.08775718426105672;-0.09681031932783196;0.049408006026332496;-0.06679683396591946;0.07957567294736237;-0.02323881643875436;-0.04671262632348814;-0.012937922664643137;-0.05350732258084945;-0.036363265802789146;0.03938386821786927;-0.019331092027359456;-0.03028374684033497;0.06531552954234532;-0.06387154059274469;-0.07397298830368515;-0.04853723524199541;-0.06913243036552803;0.04608540510605158;-0.064164466728322930.07283210522313646;-0.047125210145420066;0.08796135243529965;-0.09477767162181167;-0.017151212675297484;-0.0222160104628482;-0.08330374052649059;-0.04976682361747667;0.0705569492987935;0.0921610673348986;-0.0040317911207051055;-0.06329060967152236;0.013584364784217914;-0.0957967337544736;0.06180952462731845;-0.024216000548284253;-0.004569606693253875;0.017041901859073366;-0.06575090106935855;-0.04835089716716745;0.06171598074477161;-0.015007628235732276;0.07356241952847584;0.07780590562580161;0.07643364787404325;0.06980416197465356;-0.06347844474931594;0.05331467183992064;0.07819750573448797;-0.003089164526676874;-0.06735485245725623;0.01904475758802733;0.036493235234246135;-0.08831996136095732;-0.019551574167429808;-0.08607539738853603;0.007928111457190995;-0.06433650126831858;0.06369320799617756;0.0311917247852742940.07994340145648371;0.06893992734016524;-0.03848631720474365;-0.043364169271143865;-0.07040060798490765;-0.06973250270257236;0.02585297155061797;-0.011770916980797977;-0.07422837806458962;-0.04026783850500089;0.04514261582994877;0.036251030903035636;0.09648860981439136;-0.04703197532588484;0.09551294500548121;0.02021883185257263;0.017544978220833007;0.004937803301115859;-0.09601461591404514;0.062103261630957335;0.018751466827025484;-0.08381717620206704;0.05472247876919356;0.092578700601821;-0.009815075321225983;-9.269702867263224E-4;-0.004722112287871824;0.057273155801626674;-0.011561679653185039;0.08405697995310787;0.04284638374151595;-0.07698176169146918;0.04287073419683837;-0.07408815894930937;-0.009486144935340321;0.08409917041356701;-0.03814264636025695;0.009993397317978353;-0.08649270842103395;-0.031495207208170214-0.09217137080642822;0.014671996374153867;-0.02616412853901516;-0.06666645748277036;-0.061117336244025246;-0.034399195430798724;-0.07451772521487028;-0.04934384984198521;0.052425603888634764;0.05608845327839157;-0.08846103228937784;0.07965093348877203;0.09444194125876038;0.0010189571102982714;-0.03069486585620851;-0.016452139967519527;-0.09239195196960248;0.02603073550113444;-0.039103148613378186;0.06445628523625416;-0.012457797337935395;-0.07623340619109563;0.029497080171600715;-0.0803850306717196;-0.06094543197932785;-0.0898762657901222;0.05560568747912212;-0.002357941588028295;-0.06760279772200312;0.08050375467413493;-0.08671056640789732;0.05478510132290429;-0.040485936153308644;0.06606264496087944;-0.07356802892847314;0.011171033703202021;0.09029100439536464;0.08996079453468042;-0.07501615626800791;0.0070561859177784290.05020292050182368;-0.03317314909668341;-0.014219203027862365;-0.0039206123593828746;-0.031135716030178062;0.026062666546179336;-0.0339231192646262;-0.053494570961736244;0.023895142165696506;0.05052463165023424;0.028218998662816436;0.019195755820991395;-0.08605794413396717;-0.04387688156953604;-0.07547807208832005;0.07201019202085499;-0.07844947326553615;0.01922991086178505;-0.055675618083820426;0.07639498968142228;0.019414970220183098;-0.017071774738722983;0.020238995206973337;0.02363282261791269;-0.023371266840058635;-0.03673730191214353;0.03440232313176525;0.0310927980587295;0.06493409051841761;-0.04451059943595839;-0.07527514650316243;0.04848044742536639;-0.03502775787140992;-0.0596741735243735;-0.008858999672810522;-0.03591227990745394;0.0725333094321072;-0.009799111087947981;0.0018590946464436264;-0.088956999009783-0.08729004801669382;-0.013674798064604185;0.07545304124940927;-0.06858470594108315;0.07411294943365715;-0.033211905034030154;-0.020932850131335015;0.03828532158840653;0.06909232020728084;-0.07866068873895925;0.08624714124669577;-0.09914420143345437;-0.059244876680297966;-0.09890323256878503;0.06588741852984836;0.06556324436113792;0.02284562479095631;-0.013121898635871737;-0.044355397467376136;-0.013331107600733444;0.09599528917055469;0.04545063990755227;-0.08181248567805444;-0.01749132128797362;-0.05602719615499718;0.08578143211761066;-0.0025528094160186116;-0.008256748659118032;-0.09006595327909239;0.015287219922117817;0.07486686620841188;-0.0703920381373679;0.052672107552264286;-0.003915537571901953;0.025651983694787994;0.044162871815535604;-0.09713271159388251;0.0012393214862858465;0.0750202025588893;0.072542747204508150.08410858019294384;-0.055291138877436335;-0.09923516799088994;-0.003948225533879343;0.037777701906446304;-0.06278551476673308;0.01986018202318622;0.005132660098488631;-0.044405563487596014;0.09570879304214125;1.2711305539425677E-4;0.05150751574624232;0.0678646640608071;-5.490853042126043E-4;-0.004831361193481334;-0.061486156935341124;-0.04694898493042102;-0.02258077559410325;-0.09013050426156927;0.02233338390911728;-0.0559771550867944;-0.08543866430049385;0.006646171106897941;0.01824211856558562;-0.06569374112468737;0.058044093689020526;-0.08830311966955472;0.0068602610008758474;-0.015665901541776342;0.023503582243396742;0.021251583102236113;0.04040227199429211;-0.07230406336678495;0.0012951281790952035;-0.092178018379441;-0.05107316051327553;-0.022611906047603436;-0.037256703489665324;-0.07354849310161404;-0.053413099347006160.09529529257984423;-0.07481281075294499;0.054715541738849155;-0.09015815192850529;-0.03521719359413847;-0.07609881938108404;-0.09562205901399908;-0.08033438410109262;-0.036277090245965704;-0.0039694144794794745;-0.07261142824478645;-0.09350565974192498;0.007302511154654898;0.017165749480628406;0.025756850450382562;-0.085227871851406;0.0484160405895728;0.06466704071355897;0.0673247084542686;-0.08116188827637492;-0.066084560472957;0.07391484909473622;-0.057983393994795934;0.07917643832474183;0.06086017181820022;0.09455957917576951;0.01808951329124457;-0.001333727562292067;0.03276722267260404;-0.05322834487953674;-0.0016170726928923518;-0.021168196391280716;-0.08413890534644825;0.07749152862105882;-0.023431141091211027;0.0760922305187878;0.09532381261408823;0.01667966297261836;0.09340184072980426;-0.041988216198855490.04335269003780595;0.02649366105480358;0.08613185471616175;-0.08176323085957733;-0.08110036522033104;-0.07650030676375692;0.02790167156217177;-0.008315424279066924;-0.07659831152737509;-0.05212818212386512;-0.04449817229925035;-0.06635961730802115;-0.020037042134574842;0.0978881103385845;0.07402497346744133;-0.06234796561738041;-0.09777287809060023;0.08892868980822075;-0.06777169556141716;-0.03250557523679591;-0.09937260428372607;0.05972572497126327;-0.07121643586786404;0.06341950312643826;0.08863655710086119;0.07861343671635834;0.018527049688755765;0.048406264867291604;-0.010983074559958839;0.04977810381564618;0.018709611592393857;0.034410757164064776;0.04007037033405941;0.019508044763970986;-0.08475335554979498;-0.07138391534054248;-0.09811167675194038;0.08244363240064537;-0.031031901365920753;-0.060317614660686190.0037764854178758134;0.08718937067026694;-0.057692626942658025;-0.06981217991429552;-0.06368410555133722;0.048686888485834856;0.049169739155209;0.018151800304293128;-0.04753511944744171;0.09659250059157767;0.08715842205692426;0.010696437541015125;0.07470138151376668;-0.008038591655339405;-0.021828475984824403;0.06282835215007535;0.013406165659990907;-0.02718584133667601;-0.08986501896078757;-0.015355501641344665;-0.07688717065213851;-0.0896133793493134;0.09325256038027468;-0.002417835267425228;-0.04124218767024086;0.06537999500110375;-0.08374414198297829;0.0906689746419527;0.03193037735785015;0.04421081744606062;-0.09734569491834169;-0.02322712519406027;-0.032877380409555346;-0.044739040780166286;0.06698516832559581;0.04885215065954074;0.057979470037889974;-0.03487238439577678;0.07106353866418444;-0.06379458510165295-0.03682651347982835;0.063061910955271;0.07302202572445321;0.05693875858914643;-0.02110108706002438;-0.007544967013359716;-0.07557940052772955;0.05319642925239057;0.08162835771464563;0.004396134003832139;-0.030066391971612053;0.03688013027218673;-0.0749367655529051;0.061012532950833115;0.018004898145832213;0.05064087432478753;0.023952339734420486;0.03704142610802888;0.04125069421670888;-0.047135471813653455;-0.039658181384164194;-0.07392012659823742;-0.017290418398471452;0.023921837785495656;-0.010174810374752125;0.04683478769412508;-0.037907498120538334;-0.027581606348722573;0.04779333408104772;0.04937294493437111;0.08203276896021905;-0.058555335093580886;-0.04431551462409931;-0.0786289997292003;0.034336049433145555;-0.08517403230450256;0.027234248068859407;-0.00563454650131319;-0.09376961536043485;-0.07662749486132306-0.06933335690039491;-0.03500521210266863;-0.0894575391569686;0.06052942754535484;0.04609283432687866;-0.07537662707760778;0.09388273705177319;-0.06809771406916383;0.06266297581491473;-0.05244344489517192;-0.09737202019813428;0.04159910742631803;0.04467362618618545;0.05312322982687959;-0.010344939486342589;0.004560373553189195;-0.05235551197074695;-0.03406204072243646;-0.07281099550782802;-0.03086279916505133;0.0745684009138505;-0.027849076255497734;0.06305298096195702;0.07334136063437655;-0.06783864175218007;-0.02430203172681547;-0.02308170391783526;-0.09890474571277877;0.08711249135149685;-0.04544942815981168;-0.0634455901965096;-0.0615180581199331;0.022334080354184008;0.016965864210119502;-0.04592108005744349;0.029995123344485453;-0.0067884587512321015;0.057736612990228;0.04220757307838677;0.034789140412813670.04549267133669138;0.02990728599361603;-0.04440538071347369;0.03682585460380122;-0.062321929627764686;-0.012041724258213704;-0.09384122823434099;-0.07055630944577036;0.05066684800337712;0.06242079237804854;-0.091882866312323;0.04009812554124603;0.0847794681895615;-0.0851756001900428;0.028349014938672396;-0.0648411854787498;0.050016566557111036;-0.007058655282033727;-0.0034611284000574116;-0.07963691832720199;-0.027691055840635137;0.037036532434174596;-0.08857363770699367;-0.05293406498163411;-2.3240598062779227E-4;-0.013882431613819454;-0.052943693823044605;-0.08150994279574271;-0.09106632597159472;0.08418470715373708;0.05902870055045137;-0.0040242037194907765;0.011028527528188323;-0.01351910012692921;0.09074872951302554;-0.09476880775641439;0.05820365620941062;0.06574176415516289;0.07967673388335966;0.04258194695465817-0.033882398018496115;-0.009492580138061493;0.08263730138722103;-0.04743256822864986;-0.05697289383220954;0.0670673278196523;0.08399463494079251;-0.08641380343902899;0.08858615498332159;-0.05451680153714063;0.053569410299625114;-0.017719645886669744;-0.09318358830921868;-0.04795462510380164;-0.02531372772708107;0.08377447056962253;-5.919979827568034E-4;-0.05022483943006162;0.006463329857210431;-0.041950919899915666;0.02196951163959926;0.0946748108049438;0.040062138820640025;-0.08380932357104148;0.04027797472929234;-0.008022448860271175;0.054937726010471394;-0.003358304581237731;0.08652888931913857;0.05239754501356425;0.07508855405596601;-0.07854945764196163;-0.08441378819147574;0.04837992999492549;-0.07469343644270453;0.052521574545623284;-0.038767648531397386;0.07035078546459939;-0.012572856251119174;-0.052134889302995150.038564201372662005;0.05314604125541009;0.09120909667479285;-0.015766296580399325;-0.07310814520982281;0.021193928197284134;0.04016666368181915;-0.08893762501612323;0.018099460216377983;0.024734097404327346;-0.08453675441089692;-0.04284113641907059;0.07993339553336262;-0.02246351987357606;0.0272829623345332;-0.07048790695969792;-0.033421983668032826;-0.018628495748672647;-0.02462707441885939;0.026236485924883313;0.02490568990503969;-0.0677399134253171;0.05529323396735403;0.04282194388000021;-0.09927325122555647;-0.07327638089041406;0.06466697133748672;-0.02161613029423623;-0.05496047531566859;0.06803400009962343;-0.09056978906731186;0.04191314472592994;0.020280334910703607;0.07246360244703895;0.010082016601663385;0.058526138939315964;-0.09342650758717608;0.07553529578507745;-0.09206555896883989;0.075714715210751880.07248803913230903;-0.08902062483041806;-0.074210063065812;-0.0731237027113999;-0.07005160390858792;-0.09249894186774493;-0.009373293543713662;0.021609370916030726;-0.042700066163954165;0.023272629181688625;-0.08123722711975888;-0.02761423845270121;-0.05136267081239179;0.005175021637219196;-0.09911904717805563;-0.045294203361473453;0.05529403681025549;0.02139044044436353;0.013027834267354516;0.09349606581909217;0.04209227030505394;-0.08234763586940408;0.07286376660734484;-0.08064057715259282;-0.056406969012152565;0.07349553484019652;0.09591288047487426;0.024825005448087342;-0.07965393187821652;0.05850596923072565;-0.04818692818062862;-0.07940179253459237;-0.08486008336412257;0.08857095148810432;0.020566000882279625;0.09181070168070535;-0.09074812476106789;0.08212903230215957;0.04878710011329912;0.054270423886764035-0.03156449284480366;0.09258237958522827;-0.03665534322995437;-0.02641998375234733;-0.051111881895865574;0.04654248516388709;-0.01354636992844141;-0.08583655434302198;-0.004129157808204512;0.0454886330279492;0.08373165818714681;-0.07076381982596847;-0.07828948225963746;0.07711692207055795;-0.025115270338729095;0.07715471887930944;-0.01994522400385601;0.09700675596006164;0.07406462880305056;0.0372838625085824;-0.027877941268429948;-0.06512916906031205;-0.0038810496919709225;0.016246713173498725;-0.047048393955132786;8.051534295404894E-4;0.06284107513691858;0.05417467408218754;-0.062346546899570865;-0.008460981114423588;0.009220200038525639;-0.06904255670060239;0.0076584447505811115;-0.003314964637932488;0.08969131342849668;0.0724930283682618;0.0169682233352543;0.004989108331042311;-0.015614792969149915;0.0569377311297389050.007806678138404119;0.08741135199641217;0.01109299586882466;0.09692075672821396;0.020329252208741516;0.06759146969920674;0.052572901990126264;-0.0032330373117891165;0.07261163520464084;-0.08991263425204826;-0.03340377732672664;0.06012228791525029;-0.034326682242452194;-0.02499637325465734;-0.0803817441644398;-0.042941633329670964;0.020467887305627055;0.03144141684569965;-0.02384662740802719;-0.05523160092202948;0.03413301067803015;0.013748487161325734;0.05502503262201139;0.023817184374440442;0.03624043754078912;-0.022230835692760922;0.08561577271442275;0.09439108263038917;0.04504599192178088;0.05709436874822768;-0.03588278382644175;-0.08745194306023572;0.023739590557782075;0.01931159142265275;-0.0902199386358938;0.04646763514245267;0.03669522249850471;0.02225490612903902;0.021164100058146534;0.03270094605272883-0.00546395230640391;-0.04487296970556842;0.07606973644915754;0.007746438141697551;0.07950408009994062;0.004933795998622398;0.03168172612942066;0.035791039680716535;0.06057523464271161;2.267510476580692E-5;-0.0732676176637668;-0.035618912898623775;0.004721499994991135;-0.03088813612626222;-0.08542324886972977;0.08439909537935639;0.0032434799077271925;-0.0831893066815306;0.07602350021589685;-0.03425630601387407;-0.02197959663885045;0.029869594651879605;0.025584899290261726;0.0635796280996625;0.08776009597316692;0.08343011837898767;-0.0822731608645899;-0.07541224614529306;-0.06575099494805592;0.04727492656693605;0.0531188268685385;-0.006784963426749099;-0.03139780217361095;0.09207780001617422;0.08488398119224946;0.017924560915952445;0.09751333583478228;-0.004346384370680176;0.02484902168434236;0.057445517191694520.017291816194924897;-0.04678739321520806;0.02283323110640463;0.08475968953920718;-0.06157633309778465;0.09405936534820658;0.018461540470591967;-0.043475168479945994;0.02856430079433081;-0.09658276564478888;-0.05267377655575019;-0.051396552378950716;-0.0819237554392742;0.06531391137626424;0.0506357598175029;0.01290042683686507;0.07307643009102352;0.013593981789544032;0.03347802363760427;0.07926255588847828;0.05168618749009632;-0.011831064362113258;-0.07892970887482285;-0.08827147882105185;-0.03971877382778251;0.09126714872293837;-0.08499077525140109;-0.03522110415196758;-0.0902583333808388;-0.0563161035181389;0.04952088710070743;0.039586153648893674;0.0717020065731929;-0.05896865299758605;0.04771073093364958;-0.059735341017052114;-0.06519884422459873;-0.09001143702126979;-0.02218639888534142;-0.069879331144358350.054183175434192904;-0.08149799450700886;-0.017831595177868448;-0.03626002776660556;-0.017733172964249366;-0.05451867995936815;0.09501895457853823;0.008670620344994995;-0.040333989564244103;-0.06701167263050206;-0.0012797651153600709;-0.05757894001936684;0.05253522285198273;-0.03516805015070483;0.0638762113528247;-0.05846907520834737;0.01249040045675831;-0.01315496542166987;0.09967727201905818;-0.0023112254915843983;-0.01714110574429173;-0.08686563497495764;0.060150236004183316;0.023982097641138345;0.0049294876897534035;-0.06766936905371465;-0.049591646765476276;-0.03885269475997011;-0.0757976125849838;0.013838460890484239;-0.06709871073867435;0.08381973955659203;0.09663922600365621;0.014086407017077904;0.03366513690229023;-0.09321633815670648;0.09491306166447327;-0.017223052202645556;0.04857242192264111;0.091222263995102330.05820617390914617;-0.0462970306414537;0.03245528950694948;0.07542753376627696;0.08059225134682875;-0.018884365573318546;0.06271532764313804;-0.034563449838321304;-0.025721507988925835;0.09769406656731376;0.03145065706960719;-0.08041813278433645;-0.0070742977305635;0.005174532636346737;-0.051879257625678694;-0.03531922828213241;-0.05810943998484534;0.09882930664057342;0.05577339729754375;-0.09805756269853667;-0.06105664460249817;0.021764313296967618;-0.014411783297597573;0.05903081627604488;-0.03242449417720919;0.025441276688193896;-0.085975302733853;0.04853995619224465;0.03744835923397417;-0.07598694388029935;-0.0807769608006255;-0.07647836639015879;-0.06434280214116772;0.04860277639405268;-0.06164432607850097;-0.06545176000135311;-0.014456127150206768;0.006773142276354583;-0.07937512628152404;0.08454963202112159-0.07258853204143993;-0.0743542035647654;0.06036846499265897;-0.013748480381675407;0.007941512188887667;0.009707629081345372;-0.08170831661152406;-0.08729385298755547;-0.09311001037240699;-4.886948084761526E-4;-0.023771356193571763;0.03298706781223417;-0.09367836972988836;0.027155515392086427;0.09101349252686566;0.05328861107394945;-0.05454054444105498;0.09969829689403528;0.0017889708878528006;-0.026145339589737995;0.05305394667648468;0.09399324486260441;-0.07372043011578222;0.07075004558397552;-0.06356916549828699;-0.012084848278864128;-0.027707899665922128;-0.08487980207386758;0.012287953542840338;0.05541663676501295;-0.05515271898503882;-0.02478205812240159;-0.01620373295206256;0.061256021023263586;-0.04113057703387298;0.027405947125735942;0.061831511485414055;0.08606803196787889;0.02642250295672371;-0.0458549581947834060.09639998583630661;0.061476470025444874;0.03918096191165475;-0.029779625897303957;-0.09327437807586124;-0.09110146870829579;-0.08571437654975972;-0.01796576846954908;0.04256567909984449;0.04435748363494901;-0.01738270085992251;-0.012761336312347826;0.040231440057178686;-0.04454289715093816;-0.0011715584681617824;-0.02773355712817031;-0.05671729252148203;0.019492625107208884;-0.022715752893359267;-0.04123373224816057;-0.01224920873052207;-0.053503182773773784;0.03721339017916891;0.0326435139025928;0.039325013943328005;0.06343504532694023;0.06525958617966741;0.014789759082748693;0.07696584758885114;-0.04191595187440595;-0.027850100380348252;-0.08732325397028165;0.01674583483728129;-0.07764217400907136;-0.04346015690665595;-0.018129755281361296;-0.015590190801902102;0.0295452166250355;-0.060223515103714986;-0.02701640346465181-0.03376041403070457;0.07843996060892833;0.04828642628055708;-0.011057898025548452;-0.002673186983268002;-0.010674697885570055;-0.01021350878196195;0.07387357645421049;-0.09511132808626387;-0.05824420858645141;0.010350397475362679;0.022063367510566045;-0.005814269300055104;0.021291869684320664;-0.03736342924854145;0.07950181958222739;-0.005012755850410795;-0.01569214907474481;-0.0028169941726984607;0.027723779194622072;-0.00652888919739936;-0.05225374723175569;0.05915690722944691;0.06662126342981967;-0.0782278651650168;-0.07844659008991356;0.004114940245601423;-0.06637502203768167;0.08928185296923204;-0.09486851484234003;-0.10015148705357034;0.005413782027141669;0.06001102328589668;-0.019921756776527088;-0.056811495200502236;0.010203340527168838;-0.02966868624704777;0.036934190039639665;-0.05608206550683626;-0.07687382416729417-0.010903092005234217;-0.062028571880390404;-0.06306841126320656;-0.01720197165085392;0.0348069350310437;0.06532210171918973;0.03293681045067532;0.05441574672111671;-0.09258241560263539;-0.054900755288583535;0.08613691033858985;0.0810215768794387;0.03247102964311281;-0.011096932498555515;-0.022893860495194186;-0.07642155391585956;0.027710076103372464;4.4984171645452253E-4;-0.03642277899410037;0.018076649907422748;0.07421260849017607;-0.07319666849179665;0.036590564852852635;-0.07962309873140991;0.061820227143085965;0.02129795266900729;0.07947405244710733;0.07266908507716882;-0.038407715716676824;0.0032763283011162142;0.025832591369397043;-0.05619582207789199;-0.036193547214922836;-0.0060434851821672304;0.01787946145876161;0.013059309222359448;0.039164445738903784;-0.09975787652875974;-0.04727792957920328;0.09739821409935816-0.030017752903636074;-0.04224510047110122;-0.07601806307998374;0.07963244358781646;0.029514262116471082;-0.035211255189059966;0.08707335524625155;0.03821514234084174;0.02988564841405917;0.017001381897706936;0.028595231820591736;0.05478593167218008;-0.09840495933954085;-0.03948746720069334;-0.07256056947898494;0.05719903994735913;0.004329284783403396;-0.06045491340729528;0.09254080057375891;-0.036855514107118945;-0.05876443843588153;-0.01643374941506224;-0.018353587983467316;0.08137843255557224;-0.03540571864578377;0.0338624502316824;-0.007866396670411427;-0.0655136610931941;-0.004897075799533422;-0.057280613598031806;0.09521466215779326;0.036546643923595364;0.005366060915564226;0.05718609934460834;0.030742783826978745;-0.056690918731310574;0.027673051067623654;0.07002924631895652;0.09672669441462624;0.0165652413438116440.07155740507719312;-0.028493264136732317;-0.05998811253279889;0.07358394999023847;0.035476638774356375;0.0211413159358264;-0.09111212812609018;-0.09296796780253563;0.08734066141441159;0.008231142542288036;-0.018925965249249655;0.013983960911566666;0.06499937148336175;-0.06311939923785705;0.06864423443851202;-0.013915792770437833;0.05881782786672338;0.06466807159365416;-0.06767241939605197;0.07445193876319972;0.02476614137917333;-0.05140099907019631;0.06813206406002267;0.06086113437254651;0.08798531959663107;-0.07874540922701918;-0.08732684456243689;-0.08879608840102612;-0.054798317197453275;0.0969705708708266;-0.0480150043553426;0.03366026613413769;-0.03603236056552316;0.08001295207321286;-0.04911170945913973;-0.07007516425518458;0.022078756456787724;-0.001978489390172418;0.012986906014002276;0.061556765595412260.06955333139216778;-0.035031758978237855;-0.09531786516893143;0.05006699977955693;0.036992796467978914;0.08587926290412401;-0.0818538234223085;0.09400363031702988;0.08030728088667947;0.09597541681425394;-0.049306293215978125;-0.07769934565829113;-0.07832838316742943;-0.07828296740865263;0.022518051621662795;-0.00871136709694669;0.048860656225116594;0.08310099016302913;0.0068931320451470395;0.08087596633677005;-0.0764387857594545;0.005085069032096256;-0.022114678690115075;0.026248683990021532;-0.023715316527614147;-0.07606929708978151;0.048341246924244054;0.010584002321077875;0.017941626060872268;-0.057714227721247055;-0.05916900479737126;0.08446132585663682;0.024554768374970105;0.015276393028076842;0.06263206075531028;0.05106628283786547;0.017407661033976823;4.4994858493287187E-4;0.012822097102962863;-0.00248596392981445450.027581134753499027;0.025394544730003212;-0.028039553072286713;0.04577170218341773;-0.013452096462444578;0.03300570030331027;0.043916451246560836;-0.057412600380748545;0.033550593154493845;0.024002374190129145;-0.031437331655460414;-0.003377757335403263;0.03997605693076464;-0.028838794725357855;-0.09968556690314592;0.0787996603553018;-0.019932749776582628;-0.04770194657032036;-0.07342791172383926;0.024855968514858835;0.009022178242141797;-0.09102997178277257;0.04883489257153449;0.01320772072310807;0.09256829049755667;0.0023582700378366435;0.0963878592508981;-0.09114965912092671;0.09228953201635294;-0.06332516978975489;-0.07446971408820549;0.030038024380020793;-0.02766413513692334;-0.03094758990118434;-0.04236762002075998;0.08917222683208126;-0.05514360923821659;0.028964390427658623;-0.07560510087435264;-0.033634232174782920.0895582997773361;-0.05772651008223275;0.031914241633247256;-0.04279643588788941;0.060595262887709216;0.07825107873969568;0.07420037674950485;0.00919401658254849;0.021655205053309447;-0.06388638305629704;0.088722669289175;-0.034441913015294805;-0.034226664844915475;-0.012286841816822859;-0.07062122121363039;0.00803273607959766;0.006078859467764936;-0.07898255060906341;-0.03820995538027792;-0.06608104509567327;-0.03365064500529169;0.04518543871318678;0.078623044291729;-0.034370159343798126;0.004815373767440886;0.09729463089146774;0.09635348294214137;-0.04546528638904848;0.004475221149334923;0.04522878616652794;-0.03069888344973038;-0.010593710953743094;-0.01165572008507332;0.09863336386652743;-0.004913885162609795;7.683308112569486E-4;-0.07580155596633278;-0.08709539308858504;0.012766639645910825;-0.031335593266590240.051412559445071476;-0.031085719627797853;0.05570211886597981;-0.07136880188187106;-0.0053577196219033035;0.015074529637637848;0.02075949205671475;0.07789635224523977;0.004708416226829049;-0.0611191386822976;0.055779730568987634;-0.06254783567815103;0.09240792698996764;-0.07381788268933359;0.06267916488268976;-0.08370189445994083;0.01483903572422389;-0.026809109604229803;0.017800408885122937;-0.0380775965788202;-0.0683487694999009;-0.057266441028444116;0.02816233798491924;0.01655206463313015;0.06129527231812623;0.02050025622909013;-0.012289905951949495;0.07340287098575235;-0.06272680889581708;-0.028705101070168326;0.03356509331407026;0.03292936648542749;0.0643882876652688;-0.00471483746068127;0.0022750253716589397;-0.04092514070914684;-0.025004867334949332;-0.01574749893566038;0.08606383723300776;-0.06447855844978574-0.029732999954106054;-0.05822668036801226;-0.03723953055125688;-0.08928819339328418;-0.05863342483689918;-0.01781694872866886;0.05783292479157476;-0.05227307220705744;0.0755717173979876;-0.0690419736194591;-0.07701996765694766;-0.03411399641203586;0.09676016654882189;0.025235867796811723;-0.08476006921505518;0.09876831312813258;0.021692967561605478;-0.07839999060431235;-0.062340933212710795;-0.04747606547247812;0.06626446130998068;0.002329671969807351;-0.05445782911286441;-0.08787625540146869;-0.04824771568416637;0.08164989573206205;0.05270228999170526;0.04760943049341754;0.011067386351290898;-0.08801849274635593;0.037710775178064815;0.02034346558303997;0.09500400631746486;0.09019113408581134;0.05014726353233598;-0.010740866980678151;0.07848968984645033;-0.036158789559045085;-0.08315029828784314;-0.082889477524378640.05532326871809831;0.036785228473525666;0.038533807129322445;0.006057482974413886;-0.0632036142305202;-0.040603565929585785;-0.023755241720352288;-0.030713684451983886;0.06912183212774323;0.08738692565504083;0.012412510180339287;-0.03183355330675523;-0.06352354148626682;-0.057465743584715546;0.0036809613968077637;-0.05852626579372511;-0.04296630344731962;0.06967507099063827;-0.0811844202892486;0.029168097765404133;0.03921355625963055;-0.0070449119435224555;-0.00504657357232445;-0.07135643888003483;-0.062067361573965196;-0.027920887289350202;0.09385313300069573;0.05097821381296802;0.010854120184249777;-0.04143896902132822;0.058144922357824896;0.07718423548861914;-0.02536223558610451;-0.04802618376014496;0.0675805974467055;-0.08554211556294618;0.06118990828658774;-0.04380048818842604;-0.004716464260193537;0.052429504020462010.06692765777484694;0.0871674286308256;0.05006942790469168;-0.021473101493572663;0.04657179969096967;-0.008314372105197365;0.07164144218221499;0.06587716135644991;0.021400104423539387;0.04322277291870796;0.02932990638778371;0.05017676483001707;0.07271867237497845;-0.07102819717797547;0.029105226413843416;-0.08093579854719929;-0.017275284769564456;-0.011420730200242452;-0.01904607995907419;0.01575658339181925;0.040756563128969636;0.02039534033315385;0.005128624108832344;0.04529963472546006;0.04954365395334015;0.08772379640042133;0.03839808380642479;0.08081769265419902;-0.06854346247904133;-0.07492796629278414;0.04029715388234445;-0.03023629426891246;-0.06524311426469498;-0.0555989400828713;-6.231852431072687E-4;-0.05983075896706363;0.03984747293502092;0.04137549288217329;-0.06054585010910738;0.006894470469873820.05639193752818228;-0.04897790717617019;-0.08579486792468233;0.0462493636544859;-0.0678086157960063;0.05005414026243027;-0.045113781565918276;-0.06141757480188499;0.0654855773810247;0.08376956736733551;-0.08739633718457425;0.00509806323021296;0.08703072084328276;-0.02864462337337137;-0.05150912150477143;0.052391732524625784;-0.09760007556358274;0.020877956217353402;-0.07337683805295828;-0.09593673143841566;-0.0517668118578964;-0.01446690313754724;0.07026771863972484;0.056966898424178514;0.0484874040338204;-0.08010402409484713;0.0181336351909005;-0.0625387393644721;0.07068636121285929;0.03617116522520497;0.08062190218435752;-0.04234062864822752;-0.01782924925566562;-0.03955735488440835;0.09607539824443481;-0.028321346860059826;-0.09365185622889799;-0.011076229524482464;0.08702890093249546;-0.068109086908133830.02733191792366607;-0.08292488283458233;-0.08937670438521264;-0.03678796697361149;-0.06903384030321669;-0.021379298490787263;0.044273093104192085;0.061166607021907765;0.036505062891408924;0.08729877047299373;-0.06675828003516435;-0.05337995807440846;0.05925169956008833;0.026457429759365853;-0.05193704475318246;-0.05356759326433196;-0.09846694506443224;-0.056968783192262486;-5.805015086796927E-4;-0.0958247994426458;-0.04104996092767337;0.053791088593994674;0.044392981372141815;0.08638134040252987;0.02662749848810958;-0.048405569708199384;-0.007286047484862682;0.08879517879173462;0.0054641980031362725;-0.0883649479870329;0.013011898080448198;-0.05737751440662264;0.008382832381633704;-0.0023068144521747047;0.039065217641247485;0.020780456685036433;0.06658001413151038;-0.031614501013009874;0.07605124178573638;-0.05585227440500831-0.007822933750709943;-0.0384122724636724;0.006981172862278354;-0.04148614382148044;0.01620313477990272;-0.07374830351165629;-0.054346686830060525;0.09507976412341876;4.908282188689772E-5;0.020374997367762868;-0.03210234742224104;-0.08750443249569617;-0.023621143294385027;0.01666368695221461;0.09622799172163043;0.042848430070236365;-0.003381393726489379;0.045648530863201364;0.05004533051198096;-0.0458247828035991;0.08720668534570997;-0.04806500192870462;0.0018878835005935457;-0.09328750067000156;0.0058436551659551556;0.05045326136179987;-0.06631894349558938;-0.09085343860339545;-0.0022577151327443784;0.08270821270157158;-0.007012517166017945;0.07486338538443713;-0.04812244508221837;-0.026970569077872528;0.049256985016107396;-0.021801331308588814;-0.04276335731463559;-0.01517877609144272;0.050076602081587374;0.0106878156501034330.049517214899246875;-0.09194642399485145;0.03230111979483777;-0.03967843124030035;0.009441904835284995;-0.019052030495761957;0.034309332956412864;0.030935371211416818;0.047462654021593526;-0.041426492045121305;-0.010654091860511403;-0.06286544289058954;-0.03701674941152566;0.05256846911824559;0.04667425066403477;-0.0588017258364332;-0.043310781906696995;0.07741537766113823;-0.04003549364719714;-0.08862508985582457;0.036797822691712695;0.05669099742600331;0.09354355380134882;-0.07186789696665437;0.025308068387848937;0.029316323700957103;0.028645023470145775;0.09040671541363543;-0.03574930771537539;0.05580659337120175;-0.030340736867483578;-0.07814514643983553;-0.07806183122532857;0.024521280169280082;-0.049616625151860605;-0.022898140289363433;-7.852832884761851E-4;0.05791410184625931;0.04027119531214282;0.047992322216755840.006729574731619198;0.0619861487515892;-0.04753950446235647;-0.022518491718703168;0.07829784120567479;0.0465312676165793;-0.06658868395542902;-0.040208882577157115;0.0269445392968089;-0.07185544508865893;-0.03897714835399455;0.0407107100907344;0.013761119489264617;0.07285214892185063;-0.02772843918379149;-0.0558173108615683;0.01567154799120822;0.02657520787224213;0.04809142022136975;-0.09783052911513881;0.08168230571027449;-0.028620085139182752;0.0696239236951521;-0.08909650994957502;-0.010867597869727089;-0.018272538065570748;-0.02553190984506644;-0.012862789346525072;0.0999433653460364;0.08072406694542153;0.012930450656423592;0.024393110084696717;0.016869232098269432;0.09637097252717272;0.004275062270369306;0.04921367808265495;0.03974657059095135;-0.0821855698315191;-0.0070265048628282145;0.077411436570964030.03194071670780135;0.056332747226239904;-0.02640108556590448;0.003842869948775321;-0.016682155856224748;0.0926553952794926;0.06712540776092349;-0.011072623224851391;-0.038487099667547355;-0.03406055423369728;-7.446495409491466E-4;-0.005083902973504514;0.025231813787470136;0.08584602883066564;-0.037754305930037035;0.07830243607490953;0.026845059008312522;0.08226332500292405;-0.004857058058240521;-0.031068162381795578;-0.08136233485838713;-0.08844344402032545;0.09003314596952536;-0.02374818679716044;0.05905920974129111;-0.037181994794003345;0.09829190631593407;0.09556191214220075;-0.08102618151084268;-0.035883003265569854;0.036834380072547634;-0.08573626088140292;-0.012089820183323746;0.0887499158072041;-0.0056347249800447335;-0.08188904907636828;0.08031151780348023;0.06149019367567887;0.03762884636814445;-0.00254074680142690750.05275008589662014;-0.07690005530910266;0.08931646846919758;-0.07000904260590578;-0.03768507268239083;-0.028275141416967006;-0.045171744858476574;-0.02438910075545908;0.03492536876734656;0.0532608484560009;0.06679411141822597;-0.06327817864014192;0.07187405572911199;0.06460906914016551;-0.06001066269080002;-0.08176119449302535;-0.009518552673820915;0.007761010083926087;-0.01665794138190624;-0.0917077525579406;-0.019654162350897814;-0.05395151610155096;0.05618324826959595;-0.06552211580172765;0.0595933651620745;-0.03960635529527728;0.024496696972774498;0.020106785610729316;0.03112798634649913;-0.0944410233217104;-0.08283096545163643;-0.05954465415853352;0.03888150000850832;-0.03360270846532447;0.08223972443396052;-0.020984704233969337;-0.07593647013676873;0.014101734955515283;-0.05684894777124212;0.08374370045890839-0.02617370558773502;-0.044288667399417926;-0.0946185766334238;0.01475124059613997;-0.05471456521008425;-0.06867491930149525;0.07794531541123831;-0.0466557302834751;-0.024236783262150105;0.09493801384135034;0.06808174691788182;0.030398650055266957;0.060129284209448186;0.038126931661177366;-0.09803471178537078;-0.005422640739377593;0.0074256297399062365;0.018203482674539057;-0.07693212926229363;-0.036596772549066056;0.0471166165185794;-0.03553581364517189;-0.0015912028171414655;0.02950895630674355;0.035338982579934286;0.08444042242206726;-0.07519528410602049;0.06688710240011839;0.061151806251481394;0.07014843801409301;0.03511965485638585;-0.06285989775277195;0.05278655206797797;-0.09566066302365397;0.00451499906567801;0.09573023775627706;-0.016102969741104076;0.06674908703305513;0.056699500679156606;-0.001770338719917941-0.010619643958729025;0.009078830221892237;-0.0991944780605068;-0.04299485199694526;-0.07915502626262583;-0.04888649929169895;0.012900386717919016;-0.005942352756493796;0.04744207424528099;0.05893890661560375;-0.05873320749723021;0.053563934730917;0.046755560877079244;0.03470256452342532;-0.008868531813588196;0.07234559616414027;-0.03428251140564205;-0.03603738218213763;0.06519429230836898;-0.001240157953842913;0.07685805702328807;-0.02806212857018496;-0.08012171392959636;0.048949554343337615;-0.06544439056983237;0.07975776398844214;0.021579612312061694;-0.036906762222729705;0.03128663169696699;0.060712375737402874;0.002917580446682194;0.06165505456309403;0.05387575129687383;0.09650244241156339;-0.0810153545630574;-0.09836519151611799;-0.0602542488290003;0.03348933931138062;-0.09640359620982836;-0.06718205613381295-0.04078298955261448;-0.03951686830647727;-0.09963395047693274;-0.0723742788341776;0.06662144892124011;0.07229843756626772;-0.007794370425185049;-0.06445523996568714;-0.05074929870517817;-0.09889697864523286;0.06986879621643671;-0.0575232895160877;-0.08177764469364951;0.020004811583464746;-0.08740553372085585;-0.07206791282481675;-0.002540842444761604;-0.008520581335052624;-0.03444827723377637;0.013914090987481267;0.02993903706455142;0.07362013164031597;0.04608984437596167;-0.02883140318137066;-0.016054900958852134;-0.07361208806067561;0.049988266479229326;-0.07456584669447902;0.05931563055674599;-0.0821386098792497;0.05770660766217542;0.06369198254472364;-0.006305923573330513;0.030486886454624107;0.0406346664665975;-0.05958401422645385;-0.031220919346297962;-0.03267161021879346;-0.032657590810383774;-0.016177256909357784-0.07609843712600811;-0.03215468377307505;0.031182846700698125;0.036555306662313714;0.07883594790820828;-0.035654788078526206;-0.01165292431791029;0.05082662471795951;0.010548908531048354;-0.022600985676371546;0.04300340819846443;-0.05036746659787444;-0.0026153746217103535;0.08965082558742549;0.01686150915623448;0.07851386360975521;-0.05651926790282502;0.04860071366076896;0.035549486275295056;-0.07400759518809055;-0.06498167822746176;0.0228546918894664;0.08486391737677601;0.07982090552142837;-0.003528058567998732;-0.04162525965548461;-0.032980178953619405;-0.01676692624140777;0.04685959549186722;-0.06527121159362831;0.056900689882601496;0.09119357155631844;0.05599275814371102;-0.07865926986822838;0.05830846712052404;0.02664800946535828;7.26338057253556E-4;-0.06625959018176789;-0.039786458862976715;-0.06322702615795164-0.028380737045942128;0.02169219100956596;-0.03041906980158314;-0.0249572633384281;0.09639030212713459;0.09870095641124385;0.08155716952353606;0.026318253539395597;-0.03707662996276166;0.056225746243280916;-0.08814186584353437;0.001629579708767176;-0.09154663363968629;0.09080625978919282;0.06671898066025236;-0.08270206919512975;0.009778186222738114;0.0401077077318272;0.09506283334152948;0.03389499423444492;0.08950870055041568;-0.01082922239870368;0.09475082122402265;0.06249295422836498;-0.07768121589841344;0.07666164094616065;-0.08116794756282064;-0.029085518868571608;0.04119528687522406;-0.09887803353492271;-0.018206369671950592;-0.010017261426458951;-0.05631194679685279;-0.07278109368364177;0.06581064275107523;0.01977136977927492;0.09815992296074039;0.09199510626938626;-0.0730038367211887;0.035854510699516450.048823471710658095;0.011623554395153918;-0.04286508215492973;-0.04669320998797286;0.01828755937325048;-0.001981210183592985;0.0946104666767986;-0.05450253352366483;-0.04662266469909424;-0.033070753823955926;0.012314277001921198;-0.024543117612205623;-0.06489235269723655;0.04668727634923489;0.07691184101083545;0.08919927742419484;-0.02014288469691239;-0.034948500890304504;-0.0814425924043255;0.06029015068918098;0.0956181273365796;-0.09454318699360545;0.08714399622701366;0.046096280549422414;-0.0617531644563089;-0.03673562850275938;-0.09144660109035213;0.044035720629926944;0.06771317004733055;0.0020116117269496636;-0.05909382382209536;-0.052172222072040066;0.004350823027246875;-0.09033777331949991;0.030811662031653614;0.00374304159091203;0.08510725961650387;0.054856193961000416;-0.03038204602884491;0.066853364010450720.0440037169778876;0.053957590120671674;0.03747590415772297;-0.06206283663198964;0.07942202103013789;-0.04536022291413074;-0.05454713743885285;0.07428352480426528;0.08875903769038748;-0.022536556152580045;0.018220711176864374;0.05835022328753666;-0.07330544736761413;0.07810635947156647;-0.030591824878871302;0.06807019468208003;-0.007689458510234174;0.08329871612517763;-0.08991903368345472;0.00556506814667111;-0.06488000264889227;-0.002985406121927276;0.05520764432267518;0.0033018497129227316;-0.038096352951061535;-0.0931893294035859;0.029546759534677586;-0.06977591351003662;-0.05744977159790844;0.08982312733331826;-0.025506263702450595;0.09855903302469636;-0.08374651210899951;-0.080534496419438;0.054070078814907274;-0.0308050718752112;-0.001918675081951074;-0.028855029622410735;-0.03920339445112052;0.058745434393751840.07658461414911649;0.060919377228194065;0.07734009602656042;0.07455349324975738;-0.041478101861900644;-0.042037843608654965;-0.08381018342664369;-0.08536001672033204;-0.025554913714509103;-0.08988527031998186;0.03595450629068598;0.08173664970502474;-0.08739171397684864;0.06523945458609622;0.09379435734358472;-0.06393423393180883;0.09303379116423932;0.007553915639916139;0.0757768021558987;0.06686509467421518;-0.05479159861222057;-0.09699631151048675;0.04622049243124109;0.025614692688453854;-0.04549749108845296;0.0789336872062462;-0.09483633653044803;0.09287416886607666;0.03660692165936036;-0.032234111546979013;-0.048791070014115236;0.036168171634479516;0.06693522378190472;0.05720087099670766;0.04106796861682438;0.0619935573747364;0.05351598290991976;0.058267479489627495;-0.07505282651304235;-0.0274266605137507180.08361560580698192;0.08562989171792768;-0.0773037975264031;0.029970996862764727;0.06249228040227892;0.06516159575301526;-0.030753573670698992;-0.013893879935095901;0.07257037474586;-0.07998504827146012;-0.021174392757592274;0.08393410401685766;0.049346854635875535;0.07662394222650039;-0.06289103431155897;-0.02546354635119693;0.08547978444687789;0.08981671840864511;-0.08750411151052646;-0.04152382848026188;0.06178430914342188;0.03540014169233455;0.05567474549193671;-0.036947994738955305;0.04556981633704455;-0.05444745155823604;0.004901216196111646;-0.03943150116589071;-0.08373614622069499;-0.0019919137633992376;-0.09566274899086605;-0.018871448997063167;-0.061527054937004694;-0.08188733754716264;0.01280155698504433;-0.09345075781324842;-0.009183611802841532;-0.004508680293848296;0.08131974747027447;0.08391138281271257-0.0578854369289682;-0.07423038085161823;-0.0053889113999926385;0.06664239471995859;-0.07234536836349088;-0.09440984875897059;-0.053664353952973906;-0.021056662526622777;0.019623998714842494;-0.0011904678943492248;0.07403565259956456;-0.025816233840046783;-0.06894087677635177;0.07902128060344835;0.027583486584488642;-0.08258111400176674;0.0685767066173404;0.050478045465592536;-8.514602952901101E-4;-0.04555279027927777;0.011503085245730486;0.08643410186796002;-0.02452730663713558;-0.07300138918685505;-0.04174177590942779;-0.0846202900638739;-0.008705377638071034;0.04510549125004456;0.01582786207595293;0.060024452243830594;0.0015502187715584175;-0.04575226322407401;0.005879689649037679;0.08925622742294712;-0.06542797232352185;-0.026902581396349916;-0.04888923174273649;0.08640795329953967;-0.07732625988186873;-0.0408606798894172240.03606518757674482;-0.07782181569641414;0.09157088273697186;-0.03427392010158091;0.09862779981200187;0.009177496561729052;-0.059302248154423094;-0.053507047785504365;0.040307617383912774;-0.07112582035910674;0.08151001806106943;-0.01730159510403866;-0.02342180285197161;-0.058231920637935516;-0.07830504057025353;0.01645225048136229;0.0864435566136136;-0.013004019203344873;-0.09188585199682842;0.04600376832272686;-0.04890195204385668;-0.04412086170984596;0.030989647307863227;-0.03324938480178437;0.029247366518475364;0.0339718447702416;-0.06983459910899881;-0.09254573818043509;0.04066781153238162;-0.010679410926459257;0.015233801993856622;-0.06199315483373775;-0.023434598841484168;0.06416953128665122;-0.03231739537602774;-0.019498456393704552;0.05189520193637111;-0.08376103785956114;0.022442695800410063;0.089151922966142150.08041288549622579;0.07776526926545747;-0.02636999541340517;-0.049612690240577594;-0.09030045572217765;0.03241061065944148;-0.0189190828921534;0.08653392831865037;0.0628019585033091;-0.0628994804717325;0.0696083959460804;0.08780309413722741;-0.014548321209156662;0.08148480586488188;0.014086747668937732;-0.03372346798609413;-0.009728581467619565;0.021592509888471896;-0.06803106115936636;0.04663831768486577;0.03539785692307518;0.0623303390195426;0.06027051378316175;0.08788325239710311;0.06249732686599835;0.07127670557075327;-0.09465270008130998;0.06322158701164876;-0.0014555730486434028;-0.015029009620822183;-0.0029695867367599705;-0.08790080919073305;0.048458746910036724;-0.01723188880676077;0.08454824582797969;-0.07691363238179047;0.07652764133752815;0.06714009155086946;0.014122603037321867;0.03611617697957329-0.08754669421397784;0.026156392145585506;0.02058195087943196;-0.019036628447948317;-0.011950095438669234;0.07512963518838238;-0.07761055918607129;0.041627488467904095;0.017176648133891265;0.03421245228380662;-0.03370483208921532;0.008290396013233434;0.06247944361477183;-0.052501755121707176;0.06486771768555062;0.006766137202909733;-0.08277469909144032;0.040096524309596544;0.013813420717133231;0.07759098418355145;0.09988095799434846;0.05621023301071451;-0.024792659119328736;-0.017245872852826503;0.09056155776253587;-0.09673043897685567;0.02966694297604703;0.03708739583331235;-0.09231608299754494;0.009589018496628318;-3.531937745160245E-4;-0.10315150883956081;-0.09403583766663262;-0.036449930647802734;-0.07413795182937237;-0.0016160024423981982;0.005843027745596702;-0.07206731736715057;-0.07215577070990858;-0.07762872199216347-0.017559152142832143;-0.018649174347226606;-0.030228756299556934;-0.02906903556047146;-0.10249794547459944;-0.05611945058301789;-0.03852643614624754;-0.07658617930625822;-0.09281966811138152;-0.047187990055867074;0.011249061724380807;-0.08671819396516132;0.0723013074103844;-0.05227413675658995;0.044188236302421434;0.04705125075148392;-0.00910820475313112;-0.01945137353381592;-0.025946553642017967;0.010475574689572621;-0.019875029699550777;0.022119231889049806;0.04115394686668766;-0.0711458406984026;0.02891086388908388;0.045800619975503803;-0.009156981234396067;0.04551808634446609;-0.038628622364867915;0.025121831974232407;-0.013964158188481185;-0.0445542486985666;-0.0671455924898008;0.04795443292328362;0.08457876908313605;-0.09664460585511278;0.0902501482476796;-0.04492998466773478;-0.0066712064847840044;-0.015013682011615449-0.025030941290395608;0.01641125497295567;-0.09071682790765476;-0.05161564164366367;-0.08140354150284605;-0.0817583361250254;-0.05232889449582523;0.04598059368831188;0.005879797688345053;0.024273692209617604;0.03646416087514191;-0.007902551880064154;0.08948735186276528;-0.052974275236421745;0.06473919511797392;0.05242893905097581;-0.001992734630478077;0.08676615610282118;-0.10048156991696025;-0.0874090403309107;-0.02345319236330204;-0.07906848136204211;-0.06458892682863936;-0.02132273421106241;0.06963960885657096;-0.06802508608172132;-0.05256699271538699;-0.09938539362859947;-0.046841827349171;0.06370406625666616;0.0448190577553424;0.060190378754991156;0.07814732664210271;0.06957890006645558;-0.021905327451587506;-0.09101367184684546;-0.021847930758993606;0.007884194650632944;-0.012593186812276686;0.0363282686439677-0.004635024932149749;0.09009131589964083;0.008251766584850379;-0.004838628862832549;-0.006945717362828597;0.03212031517390353;0.015741356083977774;-0.040281508245841126;-0.08912889787121245;-0.042537875173116045;0.06559868399642575;-0.03053199796226287;-0.04181338090648677;-0.07653008844323206;0.04773682808455086;-0.03687007022179348;-0.004229706217496389;0.020608186887438366;0.061608165206351956;0.07495586371704413;0.04601144876653752;-0.09931030400752644;-0.029246078507020937;-0.014024360457756072;0.09447784011274216;-0.029804998358690774;-0.05201977005519798;0.0906211519774885;0.017092157025699873;-0.09511503627379986;0.05476273774670753;0.04018640589249377;-0.06205007193746251;0.023889452465347145;-0.002356290725336046;-0.07534733816424738;-0.002607398087682779;0.061550616701326846;0.04000951924988989;-0.005545000655052707-0.0228217180486627;0.08808060089033973;-0.09757696609768692;0.07275593677381677;-0.01879890910359099;-0.09418595286676389;0.07252124090773873;-0.0943165838335377;-0.031515682806291856;-0.0864027735177258;0.09643474644713178;0.02426599313879969;0.05509858105809921;-0.05953808159362777;0.01230881637338509;0.006186183313718953;-0.05115920664878409;0.06433722762658708;-0.04924424432198899;-0.02290943308701958;-0.046924382415697644;0.004028582747591018;-0.06170875080737606;0.01021629167411273;-0.026461710876974437;-0.06119122343627141;-0.08740766993886041;-0.06290101522463276;-0.07028699831678235;-0.0897193901281924;-0.07914354735318846;-0.04592114116990771;-0.047930373626485626;0.01955682499622336;-0.0641200234191648;0.030028293246512017;-0.006910228955526332;0.04881179414565013;0.04284017105727699;-0.093297339656047060.029551148437508633;-0.057763778391375184;0.056306652609253584;0.04722242321735734;-0.068476934311096;0.01228488772763174;-0.04821686894311382;0.08646135297808116;0.054414275066640365;0.05035038874522836;0.0020618084421895264;-0.003229808257190136;-0.010088409913455595;-0.01493740413563485;-0.09592588463852084;-0.08739996055366428;0.042902067412149775;0.06880931940233484;0.08398431112859767;-0.08144249935415611;0.08344879755612451;-0.06399508822940993;-0.037679664924908346;-0.09327959523635021;0.0011258527250872592;0.050577430045130066;0.014317013586685103;0.029264423660311026;-0.03949657339852461;-0.029660793860148908;0.01393417038771888;-0.03471725063182995;0.06452122281274594;0.0015259223283622062;-0.09961146070508933;-0.03983004230432601;0.004522771783416053;0.0507792848398035;0.028858660001269108;0.09867512204241596-0.08619513087105522;-0.03836020925939945;-0.019312094190310658;-0.043164226233596795;0.01251288179777868;0.031209483233660656;0.08902566159022254;-0.006748333535357975;0.027979475087333394;0.006745601883477587;-0.06779479776254985;-0.03716262639740109;-0.013318278988402807;-0.09789379662135056;-0.09439381242214018;0.08663477437275655;0.02946437384523043;-0.07792047712669306;0.07210096104902905;-0.0702590483745941;-0.08221013909652782;-0.03136603821321218;0.06830452855860289;-0.09244185609446631;-0.06001172071748884;-0.0528318916141344;0.010824585026987021;-0.0079562220440198;0.017507410481250152;0.07276071664372719;0.002511499206790141;0.017960444596184552;0.011162708200980281;-0.023579270197565963;0.03870830744296255;-0.01087407771535405;0.02738729806598425;0.011337250291202958;-0.08649927170543957;-0.015336849982563350.0991297932761708;0.08258178305965058;-0.08031275347041385;-0.024553456899747306;0.0017955117387698644;0.07760178268892756;0.08694240286255112;0.035662642278071616;-0.0937838888135967;-0.04921394175597418;-0.077311993804536;-0.05394645225865311;-0.07620453598529726;-0.016145963974611793;0.06372466083136011;-0.06673333932191905;-0.04420660313523253;0.08744359147993414;0.014833918100992355;-0.06900716387406809;0.049575700029522635;-0.04263893841235016;-0.09497170827034605;-0.06378360464119626;-0.04513588996201319;0.030831242347017562;0.04380125532260751;-0.03453489748935033;0.0799863250220948;0.04274738328021227;0.07737723389004936;0.011060194843455842;0.048126008162590855;-0.018078812101237143;-0.055038386746532164;-0.00263364956965198;0.053572761332600055;0.04733282609014258;0.03499072859037544;-0.062958284556657030.08155673476493733;0.02734174955696772;0.08163193512731473;-0.008523296551892254;-0.01304034981502393;0.07143902122598841;0.031319456463419326;0.065354967614975;-0.0665168484254055;-0.07480930855310919;-0.05258993967138732;0.03194752469467502;-0.03755765244902198;-0.07914269986750833;0.05350034356580638;0.0565776578199681;0.0812778346613153;0.0583873672326522;-0.057562609936841175;-0.024618364763633063;0.06980568071212395;0.011667414806622811;-0.017431228035205554;-0.0984412825266796;0.08646745876252468;-0.0652280645487919;-0.076007449118477;0.03162114663400395;0.07458022151287044;0.06821342629404062;-0.09519271791820867;0.05164416250720011;-0.031413482583373065;-0.054807636617789805;0.05736199782100909;-0.05648401708360778;-0.09969562002983699;-0.0021527851860877745;-0.08549377356633836;-0.0088121771881228-0.013396204540764248;0.027149327984711175;-0.06008908855390989;0.026408681087962182;-0.025743288994731245;-0.0519617202617287;0.030962353608834092;-0.08269867792930802;-0.04438998661409053;0.042725923572305785;0.06855070481544556;0.011612932716704855;-0.014587926598742113;-0.06445624669600294;0.08760622881537378;0.0458881466842434;0.04283753110272151;0.039312043666650365;-0.024389559784245368;0.07328536015405224;0.08773729476856051;0.011589822463148686;-0.07115386376048945;-0.08017324535321912;-0.08311146608103147;0.010924908284517157;-0.0913526221804978;0.040648266196206706;0.020244702133475623;-0.0468961352180155;0.0976494915543058;-0.02375039481359434;0.037185509204403305;-0.03259795267375587;-0.043960916415080466;0.008744249366833115;0.012766943954267737;0.052833566220212375;0.07780402068891543;0.0181094577290299850.02900782222752779;0.08242885815465101;0.08578867075840277;-0.05117145134212906;0.02166726420221851;0.07732669340472378;-0.07371129487972679;-0.036916702885434804;-0.05509201352439466;-0.09772157096448089;0.08171031697651415;0.020432505447159646;0.05313141140235117;-0.049273370467336465;-0.00882217064191429;-0.03767711568769488;-0.00325273589001962;-0.061315343875668595;-0.057051132070888744;0.005896940969501968;-0.07157643970144685;0.010986666501848125;-0.01933565121344856;0.05024298794239987;0.009336629803126578;0.04753762348099008;0.00959850798312993;-0.017354860240831146;-0.08457890156703558;-0.030436711237876488;-0.0970911404753147;-0.015166693287361838;-0.05638011230785962;0.04586022861127198;0.007886236814025602;0.03923320352159601;-0.08186577655916194;-9.541983402091281E-4;0.052204759588976885;0.0352163430909285-0.02180702170108044;-0.07772109748135621;-0.013242341256194098;0.0845235149888621;0.03443851231386394;-0.0078509020197505;0.04418402347287137;0.06533351781907415;-0.06069034575156554;0.04268802493210558;0.09213063886514664;0.05489006226334728;0.022594823826288482;-0.05168393152463713;-0.05308453894312968;0.05867431467821502;-0.023795971386177422;0.034637691239514073;-0.034896965740148916;-0.08852346293722335;0.01041884958467272;0.03469143682828704;-2.455087728712585E-4;0.03364605772203624;0.010142459466768866;0.04519993326553845;-0.04332246416275796;-0.012658704425578302;0.09114960532660296;0.08281988452021835;-0.04932353557848417;0.0327797516767494;-0.04366337308371646;0.04039208587319254;0.06180214834832873;0.08448800968988557;0.05197143329733919;0.043191406501510626;0.09160204342947129;0.067551730383942880.03039874907575202;0.0767430057659689;-0.08401265802942828;-0.09252853360762635;-0.08538427919557193;0.03129436263254587;0.052740105791659;-0.009020072773388926;-0.06519791001645722;-0.04574555609336679;-0.050326033292705845;-0.05475245310406665;-0.07289596311150703;-0.07406246692560413;0.044161920098802876;-0.07240333107163222;-0.01831613365125151;0.032236516127009895;-0.06928192839421764;0.004053234001847872;0.0489699910771782;-0.029127099347224905;-0.03275235570271484;-0.04440318904274479;-0.05409306115876631;0.05764680214667339;0.08129697392207394;0.08441057118704856;-0.0377946493065636;0.03268696310248145;-0.023696498821355688;0.02013130474714439;0.06659198218209705;0.06670071250023876;-0.062154206212430334;-0.07390058737306038;-0.08694030139842962;-0.032775976358620604;0.03989352386036274;-0.09439109502020140.03325560271422845;0.08026985802995129;-0.06561292881769862;-0.07422595866658777;0.05947479205353898;2.311038190554865E-4;0.033084346580681656;0.09975851852462489;0.010824561062093327;-0.06635409018595342;0.05610530692315652;-0.07388713871806576;-0.03310465971425461;0.06806674228454568;-0.04751991136142389;0.018860496472778404;-0.0397805259845978;0.05805047577370698;0.052305724997339126;0.08715424233462363;0.03252118349978225;0.0814083771726016;-0.07700386385375893;-0.008473692549490236;0.09096659870351537;0.09545610767599524;0.02553214894564529;1.3830462575643854E-4;-0.0355862695394025;0.09326371281719634;-0.029288524916597752;0.04503122900188261;0.059662499252258666;-0.04009435173430847;-0.024601272068211694;-0.021624519125990255;0.017704704380185343;-0.07128924205893472;-0.08122459635834267;0.0287208497652456370.05624416581871014;0.005313121391107206;0.03632083898748026;0.07738889218097214;-0.09558469191350175;0.08785802071753068;-0.003450434353342774;-0.04145695273764505;0.07898930262605516;0.015045370707977332;0.007814185045344701;0.07131552707588532;0.038488208854179085;-0.03577647461601301;-0.014570030884018759;-0.061870854483884456;0.031583007423809345;0.07945226365868183;-0.012013893582900198;0.0012431486800625613;0.0033436118655587183;-0.022247213922862857;-0.07640427132397885;-0.07099680329358254;-0.09851114659284468;0.055357723477681614;0.05614587474667024;-0.07790862160268991;-0.01736350440479291;-0.0060388692479642625;-0.08845247092680147;0.01977621987960901;-0.08144677790512392;0.06696848358568311;-0.016014423292896374;0.006162657503434407;-0.0975953516685894;0.04574669307963458;0.04216885667201278;-0.08355793561514833-0.04954519352276521;-0.03468071054222591;-0.08760500842534669;-0.0369978849816858;-0.0872715381329709;-0.04068354976492015;0.06883128092076135;0.03011042889779561;0.09749434491121484;-0.07816158662868661;0.06980617995671409;0.03144380571318045;0.016035775960382276;0.03624186847696209;-0.019484626486677786;-0.026197462680073974;-0.07347670673389313;-0.028166780545376732;0.09116674220347018;0.028061619667617416;-0.009735364434783206;0.04011855814257534;0.07323038374940333;0.08542076816679;0.027954745525686636;-0.04894629349630941;-0.06431139847254;-0.08634560866749941;0.07592578511345976;-0.030705818671690574;-0.01871410390696364;-0.08663838788838563;-0.05760289076398049;0.07044520662083073;-0.03722101349212688;0.07421626536823397;-0.03627470995009148;0.09731171406537306;0.039186795904555816;-0.06878311655180043-0.04100850344906484;0.03949431044088633;0.051693057251538416;-0.06500843399739811;0.0020164440949390627;0.007373178647494247;-0.014066499069051844;-0.03934602335480739;0.019925874194690343;0.06445624390649432;-0.07631969495152571;-0.05829498005165493;-0.06721603302779484;0.006323430406199648;-0.03858023464416443;-0.049072008530649615;-0.0849383472619638;0.08452391804154616;0.05316993882945978;-0.07979956139286629;0.001886595320598608;0.01282611382248948;0.01673059719748722;0.046744140951348045;0.09529319625712149;-0.02653233201411441;-0.06006673310649067;-6.248885069065208E-4;-0.029527406975864853;0.02340546626551332;-0.013108793574570038;-0.07524638726320224;0.08202266918888718;-0.09943436293674171;0.004249413546649164;0.05363413704931;-0.029801962261331916;0.030093540738903246;-0.07256537651344952;-0.0928845831886833-0.01642267314260577;0.06469125595368404;0.03498032519978668;-0.029646939043605113;0.08629323806508243;-0.029888261693397304;0.02104899570304651;-0.01782117216438609;0.0810160115175665;0.0684176353786402;0.052482997174063;0.043288220990099636;0.09131911415279194;-0.07021175344877222;0.01508363443051093;0.07077551404102626;0.030352558239740108;0.08330310856794754;-0.08238719443340814;0.06879511596959488;0.06392727096742615;0.0711249628595911;-0.054493608156680334;-0.01675976496234325;0.0634916271714563;-0.09329927050892399;-0.07825834525303499;-0.04092853456764159;0.06394379377186828;-0.06912654327611858;-0.044025787347777706;-0.004728222883454216;-0.08171464638898339;0.06577115560485111;-0.09160079183861594;0.0032570514988109634;-0.045285852789174304;0.07418369803870628;0.040631924456135775;0.060792876773130560.058959145687826044;-0.06240528256838812;0.038287396684865735;-0.08115977470271567;0.09821517877371398;-0.02890954472346446;0.011441511382085162;-0.05072889882966828;0.03720692244881256;0.09667013769069711;0.040355174791461425;-0.013314865445048427;0.04929226782189253;-0.08840093040870066;0.08080968692759916;-0.07332068831998181;2.8527163758057896E-4;-0.06263475247284088;0.0393694040196753;0.04223285027402537;-0.03853371558235445;-0.07611518070638054;0.07712274850641303;0.0884029055405444;-0.08740593789273801;-0.04231816832482139;-0.07950062078627508;0.009641477986491896;0.049701081914630206;-0.03199832479995678;-0.039515501005558874;0.04476446562651146;0.0897645838443979;0.03072561119115764;-0.0336027072135795;0.035338683585806385;-0.022209792384582486;0.07771364098883017;-0.013170101311899676;-0.07037592555344221-0.038534872233518404;-0.0764696575465823;-0.02826548499115012;0.002543777594338952;0.019775127037973513;-0.08847880009730931;0.050624573016254795;-0.0034335843303929543;0.0205058160970107;-0.0598832908187605;-0.037999453326871255;0.04760061096323098;0.08550449994755506;-0.019204004902650472;-0.047809542821597405;-0.051017881039445635;0.07662176738009474;-0.0606102030233398;-0.008565583400051934;0.006711795505453113;-0.04199099544785422;0.009399147209161383;-0.07406395517786696;-0.006609707342898294;-0.05127059329349089;0.03121929551830628;0.03949727297498872;-0.09377077232146357;0.08416885581479398;0.0480071681758703;0.003985993051235729;-0.07930180749298973;-0.034184632941693605;0.05880080138421358;0.04124917269523933;-0.04866584118160858;-0.07928520838794578;-0.02082499543337216;0.07427707418676137;0.0031247918112371365-0.05754548046666924;-0.06557972609097062;0.03678971002797918;0.09536812731108177;0.0768121176482693;-0.025140148900645178;-0.06240598925721525;0.05907406352218645;-0.009676161095029976;0.03591054362478344;0.031395346663341414;-0.06004047496436572;0.027114451955973725;-0.0606242283907989;-0.03737271326680338;-0.007140975530575674;0.08877221068417014;-0.07120482622667203;0.05050558708750096;-