NN;3
fastlinearlayer;784;80;TanH
-0.0010303844206945162;0.001925781372689922;0.08669322088437978;-0.07439567811265811;0.051133081480505355;0.01334751295986858;-0.06498173687996142;-0.035616478057411236;-0.07442983940375761;0.06667112904132008;0.005479081946012612;-0.027123708970991506;0.053880782733714244;-0.07365127641419007;-0.002666933354814785;0.03709844266097778;0.010792309340759962;0.007772339362363795;-0.03140994244084304;-0.0903692593101845;-0.054590442559149445;0.008523962072935043;-0.03273765977908648;0.040868887475986215;0.01246477588436301;-0.06037448253469511;0.0626146335270289;0.010273532922928943;0.0035676543824093992;-0.04321113453424979;-0.023585898248273396;-0.042379743311203845;-0.021544670439566344;-0.008334184826663149;-0.08581965430068464;0.014249589141211577;0.09624237611064707;-0.016901883987644695;-0.003564582301517641;-0.06568300345075867;0.04667080986539268;-0.09163254515477932;0.08995380083379997;-0.0739571069025449;0.08136009087051002;0.014445465006301658;0.03901242394001919;0.08296262905812948;0.045057120498234876;0.049243717454356045;0.09664065871496952;0.015176496844844636;0.006886235579867228;0.09286372682612756;-0.04412968316754076;0.08059973408584886;0.09159921743960017;-0.011153048470522009;-0.01901434698436036;0.016212508816029675;-0.08917470205188337;-0.024575218084409406;0.038773359169673005;-0.030690050627631638;-0.005678867206368454;-0.08323143876627209;-0.07022742658443862;-0.07124789425594678;0.02122083435757864;-0.06576043513726146;0.019524868262350184;-0.0437860175518336;0.051285950946117126;0.03763901828558261;0.06982426858165353;0.017435520741422697;-0.04384453013650391;-0.04354192069892926;0.06996723083916107;0.01347160169353416;0.06430825610459243;-0.08913479455582705;0.0828447670539405;0.02028512133792422;-0.059381990333591705;0.0492949793699326;-0.09568014844968464;0.03468743108020783;-0.08727150693614821;-0.01963900937525702;0.02924753021380072;0.034859098046765985;-0.05555497574021682;-0.08109080478602182;-0.07140745177829654;0.0029617697182962727;0.034204272875271335;0.034729423362510226;-0.05142400015159794;-0.0832740675486974;0.09632424910685505;-0.06619467925174524;-0.008074685597624476;0.030700918276749978;0.04225431946589461;-0.06043558807476193;-8.757190937482423E-4;-0.04249508532104867;0.061825180794671974;-0.025871958442856988;0.029663028073372177;-0.05092504350693854;-0.09550109717216773;0.03956142889967926;-0.05671195995285681;-0.022083085177661957;-0.039381121633373706;0.09912361797482588;0.08125214233806538;0.018355524698422387;-0.05734013117941579;-0.04148249178865626;-0.05243549137761181;-0.07221564090256061;-0.03352203369731313;-0.05286014173680165;0.09024066456053265;-0.07208416426134756;0.03256061830941401;-6.687489150369041E-4;-0.01744752030541523;0.08603123282381495;-0.09272338038176214;-0.0643738545660423;-0.09572182873328168;-0.0037693399269617955;0.004126113125813416;-0.05599717991597395;0.022952311017849406;0.06068308936530406;0.06499059068616883;0.06113341936721001;0.07511580516420127;-0.02912367422566696;0.04138288500819892;0.053633930170081834;0.04756591907735247;-0.011132961790903173;-0.02430281460498311;0.09931418873239903;0.058606257260801514;0.028530727469454037;0.08245902070075084;0.06842787254459792;0.039296779089318334;-0.06318824311333701;0.029575278050127884;0.00492251310691294;0.014703790706438055;-0.02502667366051825;-0.038042627297744436;0.056517718757229524;-0.00809211413834758;0.06281251763535134;0.01780556604245838;-0.02177150341954097;-0.08277532422626893;-0.0010699144871627875;0.07782020777737936;0.05821322428367767;0.013929425259030223;-0.031893099641756864;0.03317344466720534;0.01097473790803731;-0.04694122252569613;-0.018883457055450956;0.06757892336659199;0.07636987900037731;-0.036184110326555954;0.039711610772859285;-0.011458199051390935;-0.049140509763991785;-0.035179580110431805;0.0678736958137931;-0.04139126245270824;-0.08124158299803969;0.09535852255780292;0.04306340099189415;0.026617894960657196;-0.01651448505930364;0.04663287096015806;-0.07252967909274682;0.05894893823395256;-0.0011863663480334574;-0.006987376954011637;-7.369297591532237E-4;0.07077303724290351;1.1963317721812305E-4;-0.0767165442022038;-0.016160741484304728;-0.04269712874280507;-0.06436562037762072;-0.028102454047145495;-0.014924505339656391;0.025042609662093512;-0.0023072681600537354;-0.04977642543331269;0.016577403493270776;-0.07696205963621375;-0.046016433145910224;0.07779672561608589;-0.0670703965357197;-0.025873952469228925;0.07879975760204538;-0.08643131837810741;-0.03905427984132233;-0.09381437788219829;0.08428818047782632;0.08715764013341057;0.030918387880518594;-0.01661314251132817;0.05169971989570418;0.030098297430258547;-0.09213076068507159;-0.06255854900053678;-0.037360739067239454;-0.0929081528746129;-0.07720108692818484;0.09885260260156203;0.03031569389236763;-0.05274400335051188;-0.09606295367157912;-0.07183498059486063;0.0307919129072044;-0.024625046066917955;-0.09200770868626845;-0.0527850886980648;0.034234814542272674;-0.05685057399046596;-0.048597706950132706;-0.0024771986719470396;0.014215511932713865;-0.02105000472607868;0.08800648439580658;0.05270909403973978;-0.09024093115466535;0.047974284357062386;-0.048565003633873664;-0.04096414800135726;-0.05955585980161422;-0.011535719886019619;0.027808593584143032;0.04027429168551269;0.006326724516903776;0.06308890763102629;-0.021262759822945745;0.04330353247321625;0.0758832431716272;0.04824999009035569;0.02487630342028721;-0.08063938912402875;-0.03273948411478711;0.015332277920325349;-0.07282343499349836;0.005290479897420999;-0.07047421905806424;-0.0880465905994518;-0.031865785566800156;0.004795987517082628;0.02391668261483415;-0.05678605124701324;-0.06695914568873498;-0.030312100119720617;-0.09490872054551931;-0.04705263239136617;0.09123348779210685;0.08113488872528582;0.0023780287358952934;0.004970047335818933;-0.022655458242406695;0.0309135486127953;-0.09897418737129049;-0.035668724591949655;-0.02744815469350062;0.00265836945190423;-0.07654608629661717;0.07856325965325037;0.08582864102351018;0.05311175670981183;-0.08949797081956196;-0.041068899220260496;-0.06480642759363392;0.09337402777966214;0.002680267298303285;-0.03831717251290259;-0.07103928996397274;0.07015340834838588;0.021419140700921588;-0.030700633988085202;0.04698952410265758;-0.052983962294760746;0.05031958068698647;-0.028255436682274523;0.02193488971416327;0.08563595616894912;0.016402915696390324;0.04771516558145489;-0.07950289885457157;0.027045125297412848;0.07136090046062105;-0.05410916457711226;-0.07532813775430754;0.0728834123346114;-0.02719431445148615;0.06618414827251007;-0.08699971421337581;0.06664859253891564;0.06551984353641566;0.04099058575911879;0.04181889281039622;-0.06504581101732312;-0.04871959849063876;0.047756653970619845;-0.00832487813044884;0.04226434876999763;0.08880567383089649;-0.0885940523703702;0.06442648114007768;0.08256826213804494;-0.0903865952386091;0.0498228486161392;-0.058009679160386796;0.05615253280839019;0.012955654704442182;0.025677997904005795;-0.03509101881489721;-0.0541156654398878;-0.06152244883579361;0.09984759763046422;-0.0702571274791519;-0.0515386065584639;-0.0025327260626311493;0.06266341416949037;-0.07967953650928923;-0.09433797935407989;-0.09589391201116895;0.06516278418539834;-0.06101170396759428;-0.06440492017796678;0.00671831076228839;0.0503386117457402;-0.06213902048983089;0.06395000802891318;-0.08097866388477977;-0.015610640526258296;0.050071178886961526;0.05524680390806963;-0.04862438346937126;0.08796906950306022;0.021019638659458176;0.04408603969754549;-0.057965324868899805;0.06743733376859443;0.03962515910932324;-0.03360115059587976;0.08839509981147262;-0.05389067311782858;-0.03042538274203213;-0.009303071103557964;-0.021753456668031898;0.0955057823838209;-0.019427050921711195;-0.05067745208091093;0.02102172937178963;0.06660299581513979;-0.020406844451734615;-0.030301458754994903;0.07904644368155647;0.02108283375312106;0.04212631168478828;-0.09442169123136841;0.09878954311713325;-0.03741726311648162;0.04343155173563079;-0.03170418738119214;-0.05788705618816679;-0.03205430076764737;0.08978608417374198;-0.0419844108271678;0.017521639150943888;0.018470286140437525;-0.05026482907124639;0.09498274020889755;-0.08858632397699845;0.031160631376279807;0.08534215430220235;0.050772921078294564;0.019330175774549027;0.08997643126874685;0.08343843619903635;-0.04068656800231079;-0.09036019292678472;0.07049923063481547;-0.07521518582742913;0.06576206715099925;0.07742168513445613;0.09373857302301664;-0.0631628653087242;-0.06593718140074485;-0.08604011787748798;0.08115543271598094;0.07014970567841114;0.07801260980983912;-0.024013493310574383;0.09999522506377259;0.02005936846024947;-0.011382154010129292;-0.032244369189927055;-0.06466216881598907;-0.029950058483962802;0.015344385122074783;0.02229331148197959;-0.028652389279010107;0.07300220641502353;0.047367580526223196;-0.017352426317882558;0.07252339672340369;-0.06755607346395584;-0.005177754065461768;0.08313840822486276;0.06494848158137603;0.08379983896501506;0.07005267123104406;0.03060778750134785;0.017540653627437286;0.07564164341219368;0.06886261434906046;0.0856696603571867;-0.07669785268923333;-0.04906197608800496;0.05176531105008972;-0.05604007091119248;-0.01943030530066922;-0.07169537418067591;0.02523347278177479;0.017386492004894324;0.07426448459482235;0.08325408048962393;0.022949272614928448;-0.08462080043890624;0.05714217529177973;0.029445973334511544;-0.012945633056650821;-0.07386010307854332;0.031042916277402743;-6.311361678065786E-5;0.04939987844061816;0.09789237413268043;0.028141316287188467;-0.07156964558269792;0.0127964028587539;-0.07986757641328834;0.09219645308381813;-0.06947311034931501;0.03226401284663502;0.004877790194988713;-0.040198107823258944;-0.015026017432145974;0.09628224984749373;-0.032081803931510305;-0.0583643451221898;0.01491609382134959;-0.09195986910242944;-0.08993466460454157;0.0037102459615626637;-0.03085534791027547;-0.033313853515927444;0.09840288422029145;0.048622636622016546;-0.09665193316333652;0.02401691373948811;-0.07371675480264928;-0.01932811949394142;0.06528493642760017;-0.09932872167348042;-0.010006232697070502;0.04435275258742055;-0.006734216134106824;0.08030362549069828;-0.05611752725969313;-0.016787556856801375;-0.09059767948577278;-0.018279461707582254;0.029012400690079848;-0.04372640321246679;0.036379907735665046;0.08697321882502901;0.03250373360347286;-0.048571519060621474;-0.09143396692587247;0.07260750171901781;0.018783774943728293;-0.08331100365355218;-0.09673968816235781;-0.05908615023521149;0.060836950769354664;0.09143666972776487;-0.028055502377711913;-0.04882264152385518;-0.028545170801231354;-0.0623273416628553;-0.028467536966181248;-0.049072257227623234;0.034486104112149946;0.07126774856620965;-0.004379783827928446;-0.092810640576865;-0.06391341220600708;-0.006787645452594429;-0.09426410970671283;0.03773118478982107;0.09596923337798066;0.020866519737250178;0.06258974837359041;-0.05768317167023518;-0.0013458814511601302;0.019209918499581424;0.057324181712005956;-0.06604547774145622;-0.07528154691394612;-0.06790815125189081;0.0427637144939394;-0.029852858985374917;0.08204656256571746;-0.08651875752963967;0.06466499047326407;-0.015857829939940893;-0.0629200772736602;0.05871665837023038;-0.007033204582804625;0.016181737266050183;-0.05393288067115836;-0.06424371356853593;0.05304003484768108;-0.055247403385188236;0.0863138765618938;-0.08357205943979287;-0.04306225543465361;0.017836126802582328;-0.0125669532957636;-0.09232093089104863;0.034645092232742536;-0.0158416582364294;0.06259461170792754;0.08282674453885394;-0.03467063594356634;0.02443987437181047;0.03977567584089478;0.012807670963450327;-0.09141000382743214;-0.03105398839722398;0.03469961345430217;0.0021389101478528627;0.05011560591745054;-0.02191288787065948;-0.048198641222470064;-0.009612128921605637;0.09485506199051941;-0.08200617440360336;0.07568731958726446;-3.7294542973223543E-4;0.031435196320620556;0.05819313611306792;-0.010623702159790693;-0.02480478380964682;0.06634282777037498;0.01514806309042896;-0.08186436042726566;-7.859478945618226E-6;0.03893831597587494;-0.06649234537088489;-0.08926878661267566;0.07572864348860522;0.002705545793596803;0.0673570047487902;0.02067742768204646;-0.09582341338769494;0.006501947510101025;-0.03853276812540516;0.08748722701839237;0.06841885549096738;0.07580848426917736;0.03254549308638213;-0.08207790555041546;0.014099380012619386;-0.006020348580081006;-0.04951501355297619;0.06724203894772166;0.030673115821183095;0.08349348182526137;0.019614935449323426;0.020455615613478237;0.03265606452617503;-0.012798457770176047;-0.04004939375451613;-0.026430092857214343;-0.05912474781084534;0.049578935588216855;0.088443298054485;0.014840529135370706;0.06371874655319229;0.09797430041311489;-0.09976965748984237;-0.09397835565600908;0.0783856534107108;0.023859807143099654;0.04988511194995465;0.06361594116088329;0.012136104030630895;-0.035918836548801944;-0.06733299315790392;-0.05987535809346509;0.02354126940760673;0.08210761657318894;0.06577146705457249;0.0052975081382219125;-0.01626663740966801;-0.05071805926525195;0.06957996822298657;-0.07261716596238095;0.05765562312845321;-0.07392954859931618;0.048910024078859915;-0.045622545300429335;0.08531232238110828;-0.056687007297917785;-0.02573482910345408;0.09527673653946808;-0.03698121627337368;0.08347295466577462;-0.0716942303061514;-0.006862715015084592;0.013030815546967028;0.08324806696804621;-0.08673965093259757;0.07677908230074765;-0.09055741909388913;-0.045840927442842495;0.05410595601408849;-0.006614680876138035;-0.014664284320379403;-0.09149983611357781;-0.009749554590572501;0.03806758728537191;-0.08152134068234436;-0.016350227783888532;-0.05436465050286057;0.09828365973316364;-0.013201445982885043;0.024957514440183723;-0.04001408923516961;0.08508749956572495;0.09963122395314347;-0.08300578595895765;-0.07993895670589411;-0.035620730934025804;0.02897119325365785;0.014801865419881197;-0.009096634363742459;-0.01184467914630409;0.04072166821108522;-0.02485633024739628;0.04708918600423423;-0.07424180798179154;-0.07405545070357543;-0.012245988758902746;-0.09602149763422552;0.09512662209288988;0.03211043721284332;0.006588472107526527;-0.05103500342392604;-0.005954473673780075;0.09434860914695173;-0.01892617923346307;-0.02727394168722408;-0.06860397144253313;0.06669704568402521;0.08735802383931576;4.7275536678086094E-4;0.058405434487729724;-0.04664758996048882;-0.04043977759513351;-0.07680014838322764;-1.0275928623282304E-4;0.03992006901378667;-0.07897922618360749;-0.07106419883811517;0.0855411378013621;-0.07533593373679942;0.015551204110713424;-0.06600724860493208;-0.018896995582010703;-0.050242850784703856;0.03868424982464869;0.014216537135754409;-0.08030508065312325;0.03253074532008521;-0.031076180654869168;0.036236692643921375;-0.0669748563012556;0.09672498002457383;-0.001004968254643246;0.088716433831829;0.08264813590609765;-0.09626132611433753;-0.032905815904634636;-0.08639732376145377;0.09121454287566289;0.08387933372258147;-0.011861230563436728;0.06402000705684127;0.030079421511324617;0.003163342897930882;0.0799232181547328;-0.07439415361789695;-0.09461724882915823;0.01958574669006226;-0.05715119666692079;0.06715612500444831;0.048796520004543875;-0.04077602538540881;-0.06017549462192404;0.06058925878609156;0.08269385687650907;0.02498398427662063;0.0343672479816956;0.06011125473515233;0.0320479820062681;0.04268434272764707;0.03321905555115523;0.08346573270547114;0.00568222270815584;-0.05769379355787463;0.0675970540471067;0.09318389643247746;0.07751999932834039;0.03924334003705229;0.07444345692066581;0.07783455523300578;-0.032165170936754375;-0.08444790971193313;0.07767558681322828;-0.06672589303790774;-0.0754996702220262;-0.09879858323003698;0.06943585851326659;-0.05610344028720902;0.004240214884031396;-0.04467713114697816;0.0913417768142881;0.06388351477297066;-0.04612170284224848;-0.05253940749833333;-0.08426403582488454;-0.001545835516727198;0.09158848361802002;-0.061178665907114606;-0.0730638801651742;0.08511530499623096;-0.011855220655302243;0.06352444125442086;0.002485053433495324;-0.025088665865771284;-0.051828705722724425;0.009851854762264509;-0.005599329050771346;-0.08632576565370316;0.0913922261716712;-0.09850189062115336;0.010425963615420253;0.023273594407928935;0.03388187633958059;-0.021179656368076477;0.09527903856126693;-0.017133392720960303;-0.03068535547379607;0.08008829469230308;-0.08809691015236416;-0.08985195289970263;-0.04978497919226082;-0.07726570674842913;0.022716411226183925;0.04260030281386856;-0.030792395689034177;-0.01539673265948735;-0.029137606002684252;0.01874334621905402;0.040267077229345;-0.014797256832695477;-0.038540472151626065;0.015400286421544493;0.017347419662806507;-0.09311931505931159;0.003071622857580364;0.031630739218436676;-0.08238621772004331;-0.011715680721628693;0.0861325094178231;0.09205016719665549;-0.041337945023150274;-0.04618656093071878;0.014213875062123613;-0.09076272545353475;-0.08512180785562294;0.09786437009233498;-0.09007444918919079;-0.007781476812649582;0.0899083981028237;-0.023093798882358102;0.09076262585580544;-0.022281886510361865;0.047909137625813114;-0.05926923537187334;3.554312624910877E-4;-0.03859198433993094;-0.055202874397373196;0.06370265330393873;-0.060280440565660065;0.029157944502955557;0.05949932862145266;0.07600920968477196;-0.0014941402642953266;-0.011714627075640902;-0.07479703344736682;0.09491053371357713;-0.013749574826095956;0.09880552457464184;0.060605520092378656;-0.04401052462088598;-0.03637538515590304;0.004681381392179468;-0.09883528255514606;-0.05559835177987156;-0.02631496236886259;0.06507367326568075;-0.06965145515387611;-0.07387459591348951;-0.026876455147873873;0.08559088855813249;0.010885236226472639;0.0792118555841688;-0.036482735377786416;0.0495392697295835;-0.08398671030518688;0.025034880638510892;-0.0774214472260997;0.04917281194016074;0.06073144528007765;-0.04045890274439843;-0.06459495489576668;0.016943258672853137;0.03304870439585958;-0.015500122973659741;-0.0742703917058935;0.056750124178385736;-0.0747656775170348;0.038753349689941485;-0.012829622745704247;-0.02480934964501555;0.06506780761242967;0.029466407697415653;-0.08551926415291829;0.012809858995572451;-0.05291108091146686;-0.036623322007505066;-0.06520067855026952;-0.024649491332464926;-0.03615232500748618;0.07804455637743626;0.038900029517974055;-0.06111515464028921;0.07981796972085883;0.03646099369950845;-0.053799702272855736;-0.06075980205716783;-0.09911069009944558;-0.09974682523209118;-0.014666841553015314;0.04453153868079687;0.03456291276561266;0.07477182901162341;-0.09214336847885173;0.026999618122150154;-0.030596597321413135;0.07623353989212653;0.01896741408534293;-0.007850636345815135;0.0725520396996032;0.04474405397263209;-0.006936141981604055;-0.040000153931539086;-0.029023242322546203;-0.07445171675360007;0.05499596631009593;0.046334305730969666;-0.0672778542837222;0.05028029554411337;-0.03868458076864261;0.04395014596974359;0.048159456464332034;-0.08178668313781437;-0.01847445910026002;0.003908917521769362;0.011236605462065258;-0.022490257368236982;0.07933132544961316;0.01678634470315217;-0.09927184143073653;0.006471110244708839;0.0938894214790689;-0.006077693124203587;-0.03851465080548247;0.09478814012492914;-0.07894185370084268;0.04867083779548001;-0.014313931297399468;0.024790696333427592;0.09464746740056737;0.07765014284132196;0.09408486874277441;0.052697809758237846;-0.03233098031690561;-0.05800741951753683;-0.08273703642290374;0.08986766852180073;0.0935860928827855;0.048594667586604995;-0.023121779512204177;0.08404762328950316;0.007563639860710264;-0.0686329152714519;0.06691517700674318;6.241806572877262E-4;0.007718272970802992;0.03248467255803425;0.03493502536236165;0.0038730174008881624;-0.06363173659206336;0.08363643114782063;-0.03667438817229787;0.0382089559820456;-0.038716450503306125;0.08727552232198618;-0.04944854306985711;0.00943599369890509;-0.04306428184195219;0.09786926304354146;0.09240373095760579;-0.03400271882753576;0.08574802213882968;0.0566623779501397;-0.05891778741426346;-0.03823980884265823;0.08485451311225016;0.035838213436332055;-0.007919638945797943;0.049784704902778996;-0.03633204124890284;0.05697230710675985;0.0030991436199785307;-0.013289265674808407;-0.07114653135213105;0.09116446847228088;-0.051039483706395467;0.03929286669536143;0.07848811322506445;0.05963291750180144;0.011229678343990624;-0.061284567039710594;0.036020697969934665;0.06275318600837688;0.008395503567386803;-0.08623836206362821;-0.02783854095435285;0.013321900535506546;0.03091131564308802;-0.08156024655681111;0.05479488205812978;0.06608187815980332;0.06652784746563939;0.06648986422916979;0.05417925112534208;0.05033324793455064;0.03839703736909138;0.060563776589353774;-0.004754158412040565;0.0998417120585344;0.0282114139578802;0.023106434136557216;-0.018246102462887076;0.08558581064604681;-0.08367261830413247;-0.06644017841547711;0.02610719121569628;0.04685809226003348;0.0064933806902547665;0.04533033417987461;0.08013618699701855;0.02010512688700288;0.05939151227114367;-0.06423521729681263;0.07112158323642767;0.07573975761638918;-0.07611847800351189;-0.07517871258247645;-0.07108462349933156;-0.06284652753680117;-0.031480305319432245;-0.0923222821192258;0.017941422816208398;0.030811326902877363;-0.08866310331738278;-0.012618582767522592;-0.031742226085100064;-0.09752833857019895;0.054394766753508475;-0.08322293347021319;-0.09117614966375825;0.05244862542623419;-0.08996411952534468;-0.09589433134268711;0.09643667734426219;-0.03247782300564502;0.036268654378601516;0.06400607151871705;-0.05243663288995686;-0.043831712558367666;0.06725140576628753;0.056032188854477354;0.06986176885491083;-2.3697627028744904E-4;0.032321558290688925;0.008844716687538138;-0.040998817977710066;0.008748159907333712;-0.05819095888028428;0.09562339474237615;0.0850519486813559;0.05060633998207565;-0.06835572729086307;0.08558925424499966;-0.08476627138530875;0.04137220437625247;0.09322049912447584;0.03489010348676736;-0.08728952464130985;-0.05059504769098372;0.037546999950742004;-0.010397968144959198;0.008781874642396133;0.07173721670947851;-0.026121620747881717;0.0715082968094432;0.06084122964580142;-0.08055077101189793;0.0019311051669193059;-0.05007804359951022;-0.02191781155113873;0.0961110421365058;-0.0241081311993375;-0.06654247272950836;-0.056465564382421195;-0.01887683234583539;0.0049701190808911135;0.04337581064655899;-0.059091056451697925;0.00902637292933179;-0.08659120669158492;0.09559165207393741;0.02315034841721877;-0.04844982740554438;-0.05618290402607724;-0.005312140504365007;-0.012426272874845464;0.002232041240425009;0.02236111299364586;-0.015617122743992858;0.05731495323202884;0.049075005778068934;0.04619641863924768;-0.03203102966218349;-0.027416090529038394;-0.02986728385364417;-0.03672340561697356;-0.03487501525473991;0.0642293157862717;0.08730222517475278;0.056538987983986655;-0.006763723140093073;-0.06511240698672532;0.08831443320717307;0.01909406164492395;-0.047047793720481054;-0.05929148480222524;0.07436128718431446;0.04440445847058028;-0.06596674113806199;0.0768048450312892;0.05405234341433477;0.09715888874829429;0.036721049742159846;0.05389293086186226;0.021528807990959655;0.0023756827194042194;-0.09971139754791336;-0.020206579641140532;0.04754842753398646;-0.07574200112490188;-0.0013559236963435932;0.04255875529839705;0.039130922313044054;-0.054352759373714005;-0.0602021172145597;-0.09881610119428191;-0.0864057351804936;-0.059316804730622404;0.0388523930164259;0.0038052214109239014;-0.04696059720878889;-0.05836744564013564;-0.08436438690736585;0.09849045546043071;-0.08478044267793308;-0.05140693942419228;0.03277968828061115;-0.0190887686813676;0.05001772419378079;0.03613688562669899;-0.08948954585576455;0.08830535197479523;0.030630370104472244;0.08425040185604712;0.05826084159129166;0.027615095180993064;0.08449992514444615;-0.08744893909956841;-0.09573988964779222;-0.089266049096169;-0.07435673103033728;0.006768531371527121;-0.06944321167128481;0.08333868220584886;0.08491163008130931;0.05477436329526257;5.158664431053191E-4;0.05558830602189027;0.04235088172459695;0.0739595708687888;0.09181016608615639;0.03653219862873758;-0.04430828792983058;-0.05456267126816286;0.027366421986301494;0.062050106013824866;-0.004288316209621382;-0.05668650041110682;0.007162521230626413;-0.07253493209086215;0.07379572613015202;0.06723273670437548;-0.06254266491720646;-0.08170648363417256;-0.024414896866768548;-0.027960920255742643;-0.034502089681036345;-0.056995982567087704;0.09149168779221248;-0.09836232531153317;0.007537195547549454;0.06232586321775643;-0.052634453995353485;0.017087114396017216;0.08146676367793203;0.021485628578349677;-0.06504699039062944;-0.07027035808373697;0.03942035448847796;-0.018784604170134816;0.047509375107050694;0.03307755015177206;0.09489185653446588;0.049511260143476274;0.005951054249545462;0.03272717729197279;-0.04150643225979371;0.011742981153908056;-0.00864850504715526;0.07681044718458913;-0.03252861253616571;0.06333380376112518;0.09914671489804322;-0.05970006169777751;-0.08486243086944964;-0.04206866812415632;-0.09505778721886414;-0.04547568120708894;-0.08127964951061459;-0.03379855012696911;-0.043354059931136946;0.06644661961230673;0.005926521064233929;-0.07212798747851927;-0.07241879952241691;0.03418609554538026;-0.0065219772590099255;-0.057912478069388866;0.07316271379146835;-0.006753593005290778;0.0708064917032336;0.07606299928818752;0.012143842305009398;0.03775271642451062;-0.018681600284547722;-0.05379565143288225;-0.0921466471981651;0.001825280888959786;0.0035758545517421505;0.09952487411707836;0.04949037610586425;0.04063076411558003;-0.06729619143895536;-0.005205467516654923;0.03333312224022974;0.011831387975608003;0.06148368796356283;-0.016233024092658133;-0.055964821329480045;0.05667357570805652;-0.03832404517802466;0.09256114566964124;-0.0642395136212505;-0.018639011218705516;0.0652574438548156;0.002773354268198581;0.01360468663371901;0.03822203946706566;0.04569415080264135;0.03278405954247216;0.01469140667064542;-0.09298609381002092;-8.929204816055334E-4;-0.08101294229790539;-0.010477814813039193;0.07610630217258993;0.02566627549063671;-0.00289767389185839;-0.01680415269942079;0.02384029302776021;0.010706162577687722;-0.01665484758720624;0.016634220602267713;-3.532606847207669E-4;0.006033131759892956;-0.04428277602099026;0.06779914133039898;0.00537462508679397;0.011231970314579084;-0.06475343600458634;0.053124238726877285;-0.023432410533246382;-0.04525633177849388;0.06725870817671481;0.008552514489732037;-0.036341758803809784;0.0753032812561735;0.002579208155912424;0.070838262007942;-0.08681509993631871;-0.09688237090090591;0.07884319148362466;-0.008272900365300304;-0.06568488413826312;0.07347663057894069;-0.009064328447421971;-0.020142064291292547;-0.08754058965372671;0.005271289717250466;-0.01793890094301065;-0.06558990688001418;-0.020053093130665278;0.018237430007660538;0.08433097240475071;-3.736749495972247E-5;0.022411959612031532;-0.00898216892650601;0.07134961738313472;-0.002965458678576449;-0.09075864518478921;0.09382020387603557;-0.08390120662416696;0.05333476076295804;-0.0751756682657857;0.019667205708825228;0.022187708357249702;0.03501216499124246;-1.9743514938272422E-4;0.015646434330325948;0.0551030040844723;-0.02209442685028709;-0.057679833054407006;-0.08583956896271179;-0.02654122592820239;-0.08120625352345696;0.06927370111397399;-0.03582332520258234;0.06024653984200601;-0.0733546175626883;0.037562159995758404;0.06247758830297204;-0.04591472513864852;-0.06613087326093564;0.07533699269133284;-0.015089467896571215;0.0804713897315329;-0.0324364325370194;0.013252072072049509;0.01763781363931413;0.08302873824329057;-0.01923277676342236;-0.0842862723440865;-0.011613318625129182;0.05475860852884193;0.08370856418846817;-0.08786927516091092;0.09769931595049369;-0.030710253003128463;-0.02494400285966855;0.028164264989032184;-0.049817145882280235;-0.0878716773371233;-0.026832125359257747;0.016978000438783725;-0.014240637989729521;-0.08809204295537812;0.0473424861176065;-0.00951198628152386;-0.08908414688142277;-0.028360293626122357;0.04906806393175775;0.050612844470556;-0.07004572055778294;0.0999620736104819;-0.05672721354967794;-0.07947654323963863;-0.02375845947625846;-0.05760899444476018;0.039574757278224265;-0.024106731028423242;-0.05654053433958439;0.012569881022127236;0.08494566025922196;-0.006407301804553581;-0.019290248513970182;-0.08494011535510089;-0.042570112394989645;-0.06233728385151227;-0.01440376885029293;-0.08409184234483041;0.06686730701353313;0.09299106056568468;0.01160907168148731;0.0033332472379616063;0.06643396830576695;0.025122551534098536;-0.008260011513096813;-0.01714810114457914;-0.010750244338419729;-1.416428797250957E-4;0.0795495526111;8.622033880405222E-4;-0.0703715847199862;0.06450599122820203;-0.0695828233241353;0.0258936009530836;-0.07567246762438712;-0.07087068556249923;-0.017208881301951445;-0.07014312421769123;0.033798546917779004;0.047798546762544275;-0.060561508131545864;-0.03070583101891014;0.023436739567798875;0.0998402357080933;0.04869525644932893;0.06662895254451576;0.04483124145773157;0.0710872898900414;-0.014283785347908903;0.09141605999790323;-0.08298496497140127;-0.064871035027556;-0.06627498554424782;-0.05840833064640616;0.007714942947646047;-0.06543913847452362;0.06526416832650075;0.024723306929376493;-0.08539835615230534;0.062234925863624085;0.023445015312873657;-0.06074015777378679;-0.05346034471606187;-0.057490543155662335;0.0031977516862686794;-0.044218499312641574;0.004837346493061584;-0.08750090223447365;0.03252142581867043;0.09824984367492373;0.06449694221166444;-0.09667515981601943;0.05373392113944728;0.02525778718946145;0.055464499672592676;-0.07863597524643778;0.004721986775863815;-0.08872039729184489;-0.056120066715012844;-0.07049966389706946;-0.09980880035174754;-0.07207910879908049;0.013327003551544953;-0.07162618738557083;-0.08708400190924195;-0.07483138324885426;-0.0539166791130582;0.03763083236111525;0.054989664808134914;-0.08735891644796648;0.03629845172276072;0.04705683820680112;-0.09959805222755101;-0.05709955249954564;0.06429666121203917;0.0890469817356164;0.02801054743438633;0.09029619342562265;-0.04473442830659644;0.004692629339535542;0.01507924976745792;0.010127183458998282;-0.02663377486938852;-0.0790613582605496;0.034539834947991344;-0.04548472469988316;-0.06688633808494357;-0.05210363120605402;0.07530310174308377;0.024373821048179534;-0.06937307159051953;-0.08990632507559336;0.07350884823222467;-0.09934231035307262;0.07487907555099055;0.07772491983663896;0.043775876370776345;-0.024386752393736194;0.01894715447384228;0.09790096904481657;0.010451990592990137;0.08402835760527072;0.0912622270333851;-0.07410079560457439;-0.06113599464428077;0.03448239795685054;0.026859352488149385;-0.04358651309250632;0.06656772884027365;-0.05940375667065128;0.09862759802379167;-0.045195793960445776;0.034597982417061995;-0.047717724729501115;0.048560034375878386;-0.0116517574701243;0.018718587327678754;-0.013005622169793285;0.019003728472437656;-0.042511018099361024;0.06067236626815253;0.060977942124030654;0.08390976885906548;-0.07291368395881435;-5.68849067341004E-4;0.020519861955965696;-0.019916771460844918;0.05766663585056983;0.0024457746560724997;0.07319853242145954;0.0384331933792354;-0.06332714929780028;0.0968960739972145;-0.08086614552910672;-0.084777242268245;-0.09028564871593281;-0.09905910967789817;0.08223723351259751;-0.07668099186306299;0.01181704992501495;-0.04503193159303698;0.041461572055403934;-0.036556954232346825;0.09867335833612731;0.05284446100171877;-0.03794870784648059;0.05541996715104655;-0.02210781378625397;-0.02683408746816318;0.02679230420721984;0.08366719237138945;-0.008288161699340726;0.029161936169109698;-0.04209611560635132;0.008267619688745745;-0.08173388844621239;0.08924112893755298;-0.04208477009402598;0.08485001454631991;0.05931063067698983;-0.07946346912720118;-0.004581541545984738;0.05258171161298142;0.07287565140564667;-0.06373056874372868;-0.0748459760287764;-0.055949544635214336;-0.04427567950710818;-0.06629347263949845;0.031220287474117564;0.06651439943304815;0.02460271976116979;0.07540992677743383;0.008323528331286245;-0.016847897027813488;0.09748981478636196;0.07048714676650014;-0.0569720802303944;0.09431254490895583;0.07484749894934437;-0.04415888043684138;0.09500556696533177;0.01876509944866496;-0.07912942509733141;0.07742017980603888;0.0782864646689238;-0.025050428813962397;0.04473674199770686;0.07146807878617739;0.04250852933567262;-0.03777384428973261;0.08185662841528088;0.04577397187416271;0.05416758655284623;-0.05787452826435331;0.07512375475094929;-0.03907756723062903;0.07786736442729941;0.019598539588015162;0.056164566145636335;0.011543434966646421;-0.04243048620482646;0.0242667954539951;0.026588410772080517;0.00756237792646601;-0.0021564132916546824;0.09167208476860125;-0.0607624518763946;-0.04454995232000561;-0.054882952296570364;0.04452666156331486;0.0794371453819617;0.03947266088064161;-0.031074726850146034;-0.02603681218584196;0.04624528570609804;0.002941840310279553;0.04316153867700362;0.020784738750232346;-0.0662970473209259;-0.07053538875291619;-0.07267294571491739;-0.04328519481797484;-0.08791594650200739;0.02419340975430459;-0.05221908399052766;-0.034352725031909406;0.009145394480215785;-0.004923906050730079;-0.021009864928872135;-0.08652104312852282;0.017774617580543772;-0.04561210095976607;-0.06895947155706444;0.05747970561354224;-0.0812492249393577;-0.028873776430389575;0.06069085879633779;-0.03541674024131573;0.05489350369600132;-0.014782891798036046;0.09986522886384766;0.06573113475999182;0.02681289177999202;-0.018607661295759928;0.08187026812596065;-0.04274209688717215;-0.041675403407527935;0.02540177581361841;0.0788431601950636;0.032141212329355545;-0.07230016146754666;0.09526334937018033;0.0330016667504249;-0.08874823284972305;-0.0010845958085334423;-0.08748694755042326;-0.012105896210531111;0.07460334751935888;0.0529036524071578;-0.026545061524071753;-0.08035064039769851;0.0926027937754037;0.01880250541572423;-0.01958886378388161;-0.03177310513515748;0.05730001270584642;-0.09479455403518595;0.07297184093222936;0.06866672485056444;0.013637983600351108;0.03141152932758773;0.059245305533977416;-0.01766055961474959;-0.009297259537450087;0.058675380415617956;0.047107855573006396;-0.07180380994126707;0.03297339892526535;0.02145718195109303;0.07545388635578781;0.014018701179651955;0.031572132501784755;-0.04132731053888972;-0.054554154844640504;0.0676692530464969;-0.04448582434077535;-0.05505678055012064;0.05176427004747711;0.06834070088259683;0.08295784179305662;-0.0781543385872166;0.013857742320030494;-0.022193533011444028;0.032454505438845926;-0.07083753101118527;-0.09280708065126937;-0.028329459164613935;-0.005801400614848351;-0.0638683429265253;0.09450452574954515;0.07061746127624507;-0.03872236735194756;0.07269681383283497;0.057045350491598285;-0.02833764163717918;-0.03907782135665039;0.06075708887574083;0.02583624997053549;0.07940091469544419;-0.03284977169852121;-0.02905729038746488;-0.0014006489596554428;-0.02225077948236051;0.033875471279497665;0.062074376461359215;0.07772062115926578;0.04603882662034772;0.09058134083623035;-0.019387735753079754;-0.0026022670930861552;0.07940246656410876;-0.053607476463010874;-0.09755563479190277;0.017860115394850412;-0.01001088854474938;-0.01704432886743519;-0.053706860786030514;-0.08751584113113756;-0.026592783159325936;0.03568941927881067;0.05496552354270379;0.049043227468081624;-0.010025297315582521;0.07503436453297471;0.0766029247790479;0.0709576630434069;0.04596896016631141;0.0877030860535157;0.045931228593217605;-0.02145522294500199;0.07487686146086589;-0.042069871443099906;0.06551077673722924;0.01026884843023372;0.018644739713834763;-0.05127798790351099;-0.013013590393658861;-0.07600886367716907;-0.09107158627773584;-0.01689276411903924;0.09233741641329607;0.07821987499057062;-0.051656835069175205;-0.07461374472935663;-0.024872431190933894;-0.08663974026767314;-0.008286246828836497;0.06238151539825948;0.021755112780346225;0.032964465607650706;0.02732439961870009;-0.015312571834741412;0.09270276650751247;0.08498164529472821;0.058168820413372346;0.06792037009977545;0.0037877152423475557;0.04300791502740947;-0.01679981124519278;-0.04603129594355429;0.007411624067160477;0.08753636735432802;0.0785811446812078;0.03224275919297087;0.07381062979227987;0.08720706601662662;0.07893381378893718;-0.07907516819169164;-0.027694667146452398;0.08005704976637981;0.058589787209083005;-0.05178080189820902;-0.047449183968097254;-0.045229669775447984;-0.08715986265319105;0.03360210905085265;0.025786633370642714;-0.06807211026104448;0.03918539785791961;0.038401228452175085;-0.09969050161822679;-0.052787913405936804;-0.02146563656511853;-0.025149160829359918;0.03570866327502323;-0.09739263847300049;-0.03286518758973389;0.06425948218563443;-0.04922106795259771;-0.031075466711280295;-0.0048775454490590925;-0.02608908629361749;-0.06298634883887974;0.007569661830726937;0.08951920814069392;-0.057853988766476516;-0.06022421123438629;0.01663095004918888;0.09684159904100301;-0.09038721889717612;0.0895479482017234;0.062128706625167035;0.01435080399753541;0.05051636006842622;0.03318236362447796;0.009265392311348597;-0.07869738651962277;-0.09613098609413501;0.06515089264564575;0.05367558277227588;-0.08980254885132498;-0.0952598639849171;0.05879502089721533;0.052675985068755676;0.018030372453652105;-0.08449374801608861;-0.00242412446442708;0.0565154392411078;-0.04245893675837545;-0.04289899372984205;-0.09367580595780399;0.039624913931949;0.04846382345585626;-0.059734812373287816;-0.017509644390775736;0.031867499028744445;-0.05122239551740593;-0.003203296137295683;-0.07260563515868566;0.04978842214821749;-0.014044030988935002;0.010800592367450054;0.0774758533388884;0.02786503531843673;0.08821711645858227;-0.050060981286533114;-0.06445591275815318;-0.05024318045770333;-0.08422612438690287;-0.00331871281958096;-0.09797204608834456;-0.020444610639001645;-0.007916299744017224;0.07955381253604357;0.006225975435522987;-0.006965517483631278;0.035098673725514895;0.004390154401953311;0.03755629828872031;-0.09110003250542645;0.08851551050012002;-0.014419002024740335;0.07680670087829339;0.020039839148901284;0.053025554801391706;-0.02267584736841141;0.02738459512631161;-0.07522577077629188;0.01756477621687451;0.07577596295038908;0.07941994097626548;0.06289393986855096;0.0315155042193625;0.05308410997854693;-0.04252776845120301;0.07762264268739633;-0.06804801153250402;-0.05183938809235449;-0.07155141390425362;-0.04386193345363079;0.043701828190867625;0.022198092798533436;-0.02788841128573538;0.0956008652644873;-0.06984813369831905;0.0036377256346031145;0.03078484841920695;-0.048954773643812205;-0.09212501777519007;0.06941921080823907;-0.009396980647167139;0.016628861438705053;0.027880094226105295;0.026230784409589036;0.06276178225148688;0.006883035382467109;0.05686215280000437;0.09175921757463809;-0.03523214726563072;0.03796252989638299;0.05845214597806975;0.07593982477397956;-0.09831101040769266;0.008895672678239278;-0.025532910263633385;-0.03779356068096869;-0.05259602374556427;-0.017165678138386764;0.006160042244698419;0.08874144549266458;0.025852640997896636;-0.03169612271512419;-0.004529896785319232;-0.07027424892481196;0.09228584139475271;-0.09954673208166301;0.006272389405957937;0.07658880755404765;-0.08548453037947433;0.02230496015301664;-0.09437193324316838;0.01925859755097184;0.05416446074296735;0.06600495118825428;-0.05496567112929061;-0.07258835688925745;0.047916777168972524;0.034072780300712174;-0.058325582774195306;0.03172299014810814;-0.01123258306665001;-0.01934848670871163;0.059667587740656336;0.005116237598180029;-0.09272758099263888;-0.007242234324951108;-0.008680848154545992;-0.05598650197851225;-0.04720115225436701;-0.02846832777302062;-0.0616295569524421;-0.05041456132469555;-0.025225186904141883;0.013486913152149532;-0.0067511628588013545;-0.09099874894060114;-0.09606054495429249;-0.00823930444760608;-0.07968226334560986;-0.028526172688779813;0.04745721466981298;-0.07390861360389665;-0.06588473906348555;0.012605531233128159;-0.07283656908053081;0.025757757885379012;0.0442241507406311;0.05942058390461713;0.09003915731802609;0.045074098820129416;-0.08005396567403078;-0.05971747866689958;-0.04664520341594441;-0.032829212941635766;-0.06277558441343552;-0.09909892259342978;-0.04046056779634358;0.008149408816051015;-0.0872135222595708;0.035582172065801054;0.00743084938521181;0.04833272001722849;-0.06460691061685084;-0.08152208860251796;0.08352552323159299;0.06351468513015787;-0.0029111685968940815;0.03483660262851024;0.09322861287282672;-0.04378955254186743;0.0244519523711256;0.01225274229819398;0.09210397348015684;-0.013093649905763588;-0.09015558964313762;0.05191701635138521;-0.08287584662105606;0.005309930054011175;-0.0573381597606238;-0.04013370274862056;0.01792039116156577;0.08159990346742776;0.0405835865828196;-0.02176633804555861;0.0880326128003168;-0.062323810486123635;-0.019177337993681376;0.01649836518084724;0.09615944366146975;-0.021590110346326963;0.03137579198058876;0.08273585738941014;-0.0825918033225211;-0.07710669141718243;-0.01772662084171979;-0.0851322091689229;-0.035455133520352344;0.03568992750403571;-0.023170469710799654;0.011911989839738762;0.01924415631335115;-0.041915565977766245;-0.057107973488876446;0.06523248370791637;0.06333945130907825;-0.06066730756469166;0.024092356225478256;-0.010210505141035053;-0.08992717248373941;0.06791177362960124;0.011095691348620984;-0.04461057298072327;0.035345054976637036;-0.09723007462929095;-0.02714910365433436;0.0179348772323423;0.008965594837153618;-0.09542340078129417;0.08784052534338335;-0.09502252057379235;0.02109629900213801;0.03002372265229733;0.01518358559807527;-0.029821660091424604;-0.05347534718773781;-0.0947047639787314;-0.027333035817106402;-6.247994980973226E-4;-0.07592559745067869;0.04060496802458621;0.06916632196117031;-0.06860372929234426;-0.07064339668725494;0.02842492094270127;-0.05590725649495139;-0.06733014675460133;-0.014105111271552756;-0.07054780334627773;-0.07460507786542664;0.07847434489098357;0.04637549860910631;-0.04614099954816238;-0.08919085712551196;0.03418824923566993;0.0738972708516589;-0.057457375995887405;0.04910928925288943;-0.06345984035707852;-0.07677836666520654;0.04837546407007304;0.021356847119650316;0.07485877498775764;0.022022625618766264;0.017455017379431184;-0.07784910643631933;-0.027677120366681796;0.05213686998126926;0.07035386954934714;-0.059121890327952877;0.06721137407137612;0.03081359311724613;-0.016630283215755368;0.04296276944723412;-0.005846765962723641;-0.008035376003149658;-0.030224663088320766;0.051116746605798874;0.06537755307137763;0.06741437980247433;-0.03893138593761363;-0.07341049352413508;-0.04803648942531194;-0.03185011535166685;0.0882225365282395;0.05041812173647364;-0.03490961543201557;0.06557074955702916;-0.03706482326118525;-0.0953227386651545;-0.06271244448976518;0.072739194159368;-0.04112028107832873;-0.046270814635893935;-0.09631549882367565;-0.07436996736861218;0.09295443013821941;-0.074526245157827;-0.016739208465218952;0.06438066857208496;-0.09346731503623139;0.09259842658948178;0.06009609852666295;-0.0854588892572345;-0.05328704559521087;-0.04617173401189494;0.06462018796305166;-0.031676026094764234;0.04756880673710209;-0.0848240819823793;-0.03241434119929028;0.07042244585663837;-0.044074288436639436;-0.008402509202478828;0.07094522542191536;-0.07115567017633109;-0.03294303516605919;0.08990710496576712;0.0501118289345886;0.004768870714364798;-0.018499579301537922;-0.04524683048526523;0.03225461684654124;0.05162559906609532;0.08714911167607522;-0.03330465241666476;0.09880300037855258;-0.0900832016508615;-0.008218675640290066;0.058991054544896476;0.016696647106921286;0.03846751549062627;-0.045689396020444556;0.04884544766948273;-0.030364526393983196;0.045675538615934874;-0.08396425891485222;-0.031338545470767046;0.08932965001176016;0.020761416513326664;0.0318907820693147;-0.0027102522404807844;-0.013250401375360085;0.0650184482962696;0.00169503373165647;-0.008721241436876137;0.08337601039412199;0.02306269690761449;0.0014030469804006407;0.016124660412094566;-0.057550192241121345;0.014082963880753294;0.014354642257508515;0.07752140043331504;2.2217901259183326E-4;-0.03690918225504239;-0.037475124640863486;0.05261066522896654;0.09720457094650445;-0.06782942823323082;0.03777406286074256;0.021231897360937488;0.009418672551275625;0.051729300434409375;0.03309778668056662;-0.0028277060461603803;-0.020353562538145437;0.05174682613986645;0.07387686586055672;0.05941681125848847;0.04868006765933561;-0.006974273277391571;-0.05087261800852472;0.08339815431422298;-0.013427978985328964;-0.0015586599669364098;0.04275066291475399;0.0722467785321537;0.023885003931222684;-0.015808249385292197;0.06478330516736791;0.08804090319934027;-0.017058012170828363;-0.008952202752222721;-0.017352851257006405;-0.016943510779818233;0.009076183906676305;-0.08439692546748301;-0.047600712384045646;-0.06898273545847694;0.006552351158222197;0.022850352345683;0.09320370367131248;-0.0777440452394843;-0.08092862381541976;0.038327555298259514;-0.012085687316751484;-0.09706119938324653;-0.013863113616833012;0.014690780195714084;0.013452924119345927;-0.005423898238253552;0.06354981790628333;-0.008357062343908914;-0.04524744918338508;-0.06134089825024891;-0.08931222275099726;0.057776106242051845;-0.00905212586124074;0.016193219204258535;-0.028244983244612443;-0.06817847415151568;0.07662523140332153;0.02894800842304962;-0.04296753921134677;-0.056100411890119384;-0.0769273728493139;0.08070720044952037;0.02412768719784926;0.01676985064957233;-0.020470288369471984;-0.04148131844086927;-0.04077506737360226;0.04708103046734033;0.014437809952209224;-0.08605550143205701;-0.0416648991991357;0.0866210092479534;0.09668990355145951;0.044310864141160644;0.008545746977871166;-0.07643318219191877;-0.023119370461549327;0.07395813527957681;0.06927109219333244;0.06373465928622654;0.068556283026103;-0.06450915156956466;0.05350201963029619;-0.08817011535105859;0.029464834359552772;-0.048972313947049574;0.009056065026321808;-0.0473029841192407;-0.05719410431832803;0.013451499808238607;0.09982743092271551;-0.06743027254912415;0.0984807500834648;-0.03234070499376816;-0.012963022928092219;0.040320866522848775;-0.025657657988554836;-0.008187761105551555;0.010482228726224216;0.08871241952011752;0.017445264694781984;-0.02141433403346829;-0.030212638915201387;0.09564555021709623;0.025295783335231137;-0.08358094653153383;-0.09434678645719163;0.06541058120585497;-0.07289818342618358;0.07076605948967105;0.08110729201978084;-0.03006301569650309;-0.03497704925993517;-0.03465551345171261;0.0800986896219735;0.036657006708162826;0.08899985826517623;0.04266307768312172;0.08437361894571221;-0.03959963509028759;0.027561226108559406;0.07688646302493116;0.02993826312470177;0.007786586063328632;0.07264121298967802;-0.05785988233353743;-0.023705988114204518;-0.06291280816026959;0.020734615410330753;0.06259523571124123;0.014741565548788402;-0.003814466102628894;0.015760543492056606;0.06765980851453812;0.09963094108001416;-0.046173229866287295;-0.019687578930733182;0.02322866351952166;0.07961147516570927;-0.0691321292611772;0.046907991742841854;0.06293343454806724;-0.07111818165531894;0.03152763616990001;-0.01076068102673651;0.019392567854354142;-0.021560058938095567;-0.025363326597451538;0.05342277425281822;0.05546133413892673;-0.052666881139507196;-0.07511259205516085;-0.010750950880341573;0.09548181374066553;-0.02609203474261497;-0.0759159190497904;0.0814331582311669;0.05653291461131274;0.04706038713299418;-0.07760724472893908;-0.019135578424304356;0.07968034558651466;0.037485617606894256;0.009591297670496518;-0.06414352053314068;-0.03877335669895621;-0.07107178386904743;0.04631940573754442;0.02339729859713202;-0.016038839638997632;0.04943203878013963;0.09532859009889627;-0.01960085767134294;-0.05158994350374231;-0.09740972589155186;0.05273216557134269;0.03494860952939846;0.004086316534968021;-0.001204583580064783;0.07925527807699581;-0.06244339811628155;0.08073974155601801;0.08648928672348027;0.031484886855028094;-0.007591655152864529;-0.08039305697831359;-0.016586991015940633;0.09311975859434005;0.08861338475922423;-0.09533864520829252;0.007857037037967626;0.006220491368550379;-0.06854443490511011;0.09386322725593862;0.04440287591261771;-0.0615514058045525;-0.09845783702277709;-0.014092351775856132;0.018078885875673967;-0.0961383418809476;-0.037797913852165355;-0.012038705461241597;-0.05640368702573582;-0.020252741475962302;0.08473070460825896;0.06293937224312429;-0.05785197713076351;-0.09027438018191239;0.07775373904512548;-0.022948778321177143;0.0801050877572593;0.052907694760937846;0.0357001334912565;0.052621907488233755;0.05026682297179835;0.06514515636186927;0.020052059144089654;0.049342213492260756;0.05311075205852031;-0.01971959532163739;-0.05940509969729322;0.04551864948898665;0.0780426314553408;0.09139655275312769;0.036667273087417934;-0.08067655684883326;-0.015353572511242988;0.03206744831391933;-0.04158898862320966;0.030044549805115922;-0.01606565894610419;0.05760765375010202;0.04802117360630331;0.09933564730843455;-0.0804032064484571;-0.07367754112823083;0.020996043606538464;0.0924661309277342;-0.05074757823413137;-0.01924212719276315;0.04738711952044111;0.09957112609775698;0.02569809360377956;0.02895062484123384;0.03304912954267186;0.01690147137817251;-0.021841102987820243;0.025678174193788927;-0.09910998214336447;0.028073734192929217;-0.006461862164071075;-0.04629130106250792;0.07212096335406518;0.08532020868821266;0.0976673495967294;-0.09494890614454735;-0.052493646348878015;-0.009261098330525505;0.03655629135108432;-0.03779501083911692;-0.011386193211788492;0.07754355430124846;-0.04235706041220895;0.07941072749343128;-9.35836872522966E-4;0.09131361612325062;0.09104348906613169;-0.03610062034146784;0.005781486190990087;0.0712442727106598;0.030802371535456674;-0.04285726645533097;-0.059756945441756075;0.031396422670450036;0.008120557265884829;-0.021509174621303057;0.06362583788157725;0.05862158485335897;-0.00586699907769081;0.060525564366370355;-0.032816826487205034;0.036972251263341;-0.064137905863694;-0.06229850586239447;0.024151620049851122;-0.080224917856494;-0.03771865726722499;-0.09207171368828604;-0.027919885326551874;0.004921437372396878;-0.09767236647457318;-0.04810851951841475;0.014105991245884783;0.03870354559375863;0.016151238880263735;0.06430250069809648;-0.04979504790801781;-0.052935479299051916;-0.07363420554302998;-0.014851354867568237;-0.09155891849673888;-0.03315164552051457;-0.05070166940551715;-0.06905689743950827;0.07621684136072598;-0.022950084789929576;0.026239247072150362;-0.07402507287594817;0.03152307867857748;0.030064955212295214;0.05469232363367682;-0.06644094220459595;0.07418900632583558;0.08294010050696377;0.01962472455060331;-0.012713685999859087;-0.042867771548554395;-0.07137714164019526;-0.07528302065606965;-0.077726611740293;0.017608721205900985;-0.07278838709574467;-0.07638697986984687;-0.09358714030442346;-0.09153715077434713;-0.0627943673148258;0.051170135520794136;-0.02837682226889196;-0.07062265960573162;0.04675505734092861;-0.04529099799202621;-0.05490131844381374;-0.04187668575223105;-0.0950890888924282;0.0252636736267301;-0.019440416170922806;-0.018189737303746692;0.052875095461394545;-0.071168413481501;0.0895019662992119;0.028136057567610118;0.05525039070217366;-0.06237644842633381;0.07244780821252494;0.09663695815123091;0.03129045753642029;0.06131376197527999;0.05019494915168396;0.08993758893940051;-0.01385017028006838;-0.021710214158397162;-0.004932873617875505;-0.054999037927828766;-0.057866069457799596;0.03502635011318139;-0.04088071214986114;8.207386444742115E-4;-0.0223266690693171;-0.028207919701739886;-0.0060914403865750255;-0.06117862776212726;-0.06774719533508207;-0.030888202846173538;-0.05683689429753269;-0.03189723288300754;0.0900397703209973;0.09138400095938704;0.0861404369452071;0.006609575577928142;0.08149413246632092;0.005411986923946593;0.09981534850528931;-0.03468377336108355;-0.07458191436150585;-0.038346176327543335;0.0401299281708338;-0.07052306567089331;0.010206101772473122;-0.02452762952471696;-0.07675646217888406;-0.06012429998313251;0.07509493848933554;0.008385276596280009;-0.09321716338350124;-0.025923685261907067;-0.008586352614948417;-0.0506850372405288;0.07109175352441707;-0.07232765337665188;-0.05616644450283519;-0.004161352680786129;4.815224302383292E-4;-0.004462844852895692;0.011618276573795175;0.035438330707111915;-0.03551935725768196;0.05307387855488427;-0.05012628659805447;0.026750794780089987;0.0990849115226283;0.037465445132265435;-0.029201945824656447;-0.019182388890835386;-0.011992592066329147;-0.07107543340751038;-0.07506823709818074;-0.05766486265271409;0.04392849258655149;-0.06805625363476606;0.08240760557346935;-0.029095492363284722;0.08974581582975069;0.05654525808305927;-0.08579938624805555;-0.07771835314173939;-0.060175685883034236;0.09953117771203909;0.07337811967931038;0.029627272959582923;-0.018753799585511738;0.02573335309751143;-0.023650262255271365;0.08475687544164465;-0.04493901260886388;-0.05073657880645366;-0.015882642127933583;0.019390735568409756;-0.06246454303599463;-0.08523719258897987;-0.016474834270403776;0.0864039227346855;-0.07859631353136534;0.07865272198545736;-0.03149037282309097;-0.003468476685551598;-0.08419275516566507;0.07641479624067721;-0.06506757127933946;-0.06668644349170874;-0.023280079479830875;-0.09115054865296097;0.0851034973915267;-0.05675093854770308;0.07185083979413211;0.07630244509411499;-0.05747230130583681;-0.0016521495305267375;-0.027512337913485695;0.05125763791851921;0.032843772889582915;0.0793749861521646;-0.0335455028323487;-0.06944283064421827;0.013895343539640137;0.007095873887549029;0.08942188615859552;0.06671014506331328;-0.09304647514014908;0.07352517760025955;-0.04391893532194283;0.0990637661520848;-0.07202137318782093;0.07319110782931249;-0.008540579101223359;-0.01488394744735566;-0.08110830579407359;-0.06563798180659416;0.06216671513961163;0.03173673411543868;-0.02123377393880703;-0.049684566008406685;-0.092389542100856;-0.07358389463897563;0.09515342792087719;0.010582451912685878;-0.02874041444895691;-0.03146162821019786;-0.02473179722599321;0.032187222650291926;0.03190232300209014;-0.09940991358859974;0.07728874822515465;-0.00908086637402567;0.03489529355145205;-0.06053596352528503;0.04156440457340844;-0.04743882603320125;-0.07657531605666137;0.0076458144531133185;-0.07811237933989564;-0.09584844431533382;0.06968665382743014;-0.035463257978622785;0.016753076662775614;-0.014761329962003088;-0.09372341921527383;0.037642835600194546;-0.09942528813345454;-0.08090120024007792;-0.042748150239755825;0.053854494052821264;0.05497524110222909;0.04404250953503155;0.06957079674822339;0.07067611833198063;-0.09999365830056434;-0.05539153681344824;0.04425978913804171;0.007511456845885017;0.025417518451143546;0.08285206533014401;0.06757573881406341;0.07688037975907569;0.021867275729796194;0.019114138848497574;-0.09789699667889724;-0.055319457063234344;-0.004070843659859291;0.09008565626899032;0.09079817665821754;0.08773739892855381;0.0485903029032271;0.023361850196354936;0.004087551434276271;-0.062446645909406;-0.007769072363634701;-0.0210067926020419;0.025875093239448532;0.006642816695546474;0.023281457495868196;0.04243954279452002;-0.014523763975714471;-0.026506253258938777;0.02431444413634828;-0.09468036512548947;0.03921228139664045;-0.03625297590114343;0.04543487136154705;-0.05246864726875469;-0.04861409912984123;0.031374417552472375;-0.01443282794440928;-0.08221444969599918;-0.02472379916284366;0.04004186021231814;0.07334889462441689;0.01482889683905823;-0.0645543237280421;-0.05580331258377977;-0.051478850767729754;-0.03101633417626409;-0.09235067852277169;0.07035158890879749;-0.05629073728548123;-0.07638506863135415;-0.09898482730992504;-9.958874672869585E-4;-0.03516064654089241;-0.0841731906753332;-0.06114888649003378;0.04398174451878356;-0.027068838380791407;-0.04194987529895727;-0.0596630263896979;-0.06367896020944444;0.06521220149575871;-0.0807721041914773;8.264589379300254E-4;-0.0954646429611602;-0.0437377089348946;0.00659797709998845;0.0744568590852548;-0.04677252300625337;0.05951668365763632;0.04425893733920186;0.05392345202776271;-0.05158747539614143;-0.03192238115531403;-0.04030640007325747;0.05409342876847151;0.09744191285926977;-0.06339666229305659;0.05996557571720964;0.08920465391189558;0.02834485462501707;-0.03811218493005331;-0.0848407857199488;-0.04152952666218097;0.07256768486703441;0.0646135700333019;0.03965633977398814;-0.0752293304509713;-0.0521264771988264;-0.029860884043583988;0.030161462727992267;-0.03100005913221677;-0.05172283432753093;-0.023131290489855558;0.07006049847529684;0.0313540901722721;-0.029918090043578545;0.08978313887617374;0.02058103449484608;0.03946074682201155;0.026600680171348;0.0920704643586405;-0.0373971440025238;0.02498836484955144;-0.06765084183139602;0.0725076892120335;-0.010835419967653607;0.06480489478192986;-0.014081025343733341;0.030192668287848543;-0.07754358864236602;0.006261313982105205;0.08495275562495716;-0.015574316720052526;0.07026540311241149;0.006673328563844356;0.06507842538995286;-0.043023715048962206;-0.05990129904153316;0.040101960933751485;0.03092040500639485;0.04214151524825614;-0.03987992040661478;0.07282979295598792;0.08286577021908598;-0.028673037559615727;0.030785734748301548;-0.05425354676381648;0.04927095949991252;0.04874374842595967;0.052261747986309344;-0.059201992636850415;0.037820660040419486;0.06396164996965689;0.04785540084540688;0.09314729443787317;-0.09097800923431075;0.032054050324741595;0.09658591911526127;-0.060368152801080176;-0.10730178744947003;-0.07222138029761434;0.07456656252100845;0.017338883560111113;0.06907370573942098;0.012681729358013922;-0.01818277915741933;0.04367883972784627;0.05419401970549049;-0.03382679778369442;0.014749190686541219;-0.017019348231370458;0.02265785683615956;0.021979387868321883;0.04834284431632312;0.10017801902597806;0.02016739707930133;0.09087712694862879;0.013087569641293265;0.08693641420944724;0.03593901894033913;0.09725383876170575;0.08937026405818713;-0.005059313707945838;-0.08232299189451697;-0.08762232723082483;0.04564375922201578;0.0703478884069131;0.09026674728433275;0.08048848672863668;-0.00522465834113454;-0.037823097438999545;0.07833977101928843;0.03628069752119711;-0.02722824349445536;0.06211933874955546;-0.1011486098052748;-6.55424632457247E-4;0.09657996075437889;0.007123634425134098;0.05962774942453656;0.06822111868708929;-0.08362559012052596;0.05321696767881125;0.010730846303091617;0.03980537247101998;-0.04844640741980061;0.07840092341854653;0.0774000250768807;0.02385815107743888;0.05169290923848241;-0.06038736309878532;0.010124537410697227;-0.04754833675125354;0.015493813568738486;0.08887562029227945;-0.023355432878408546;-0.08284222764743647;-0.053342709514994875;0.08718249557421372;-0.05290385064027849;-0.019676050656405836;0.016368311533642117;0.08495899365542911;0.06661783450352492;0.04131104828771202;0.07803552599731522;-0.09606816459569263;0.03593238608586226;0.027793752294792126;0.04412931945916453;0.0845354299993481;-0.07140644814358175;0.03716113732448387;0.054779006857754754;0.03423953696497955;0.07185100481008883;-0.06669269956822278;0.05625843391963338;0.0385580901459135;-0.010770742568304674;-0.06338486185162447;0.00462712016634864;-0.0160300095547824;0.04892281108958801;-8.681446476467833E-4;0.04554341351339068;0.026178038461315615;0.034791133124043125;-0.0255327801468848;-0.03801239186818704;0.04716126378068917;0.02848563415828078;0.035164386686862996;0.06950117140525039;0.10164418301746118;-0.007744549158284954;-0.003528089303966391;0.0880966715614541;-0.0630228196549153;0.03875030574950196;-0.05274536230036326;0.045226723544873296;0.03268888639819576;-0.06931607894176083;0.012132014085169377;0.07470081540250359;-0.04276575313085941;-0.08132375540992184;-0.06363663807226161;0.024670437772116537;0.00854398329974814;0.055863108569942345;-0.028798326614844664;0.009013426546643902;-0.002925837784147633;-0.03616145341469694;-0.008247044161253584;-0.009382167156905697;0.09913528619547349;0.0035360116055122843;0.0924362599350361;-0.0936258565089462;0.04319579976276118;-0.03757997583915408;0.023246438992873097;0.04441155552235533;0.06479767279601875;0.08361004638031402;-0.036025574542864154;0.058317425050463154;-0.06710416461473506;-0.08287606566017706;-0.071022529763485;0.03445720605060751;-0.0055805423748795935;-0.07693978565937978;0.04770813635704857;-0.09818384360498254;-0.018494048351735976;-0.0660983052751575;-0.06055129536281671;0.03792186116441863;0.07271341298312045;-0.04103558125183808;-0.030596754161925067;-0.0593167778852597;0.09799911275498357;0.03816544853346104;-0.0968936178484182;0.04091359953741521;-0.013486241414973515;0.06754398365624614;0.09541112307563318;-0.05131403930347228;-0.014146367972559044;-0.010572897698457538;-0.054858084779832346;0.05062673337491921;-0.08109536844046762;-0.08014900498857974;-0.06956108303528723;-0.009401206723062138;-0.04221341592826322;0.07671372098075288;0.021335163833312614;0.058814005879228665;-0.06399580990164647;0.05312949029413867;-0.06828083455033743;-0.0386812761724671;-0.12250978371642968;0.045021074453949525;-0.06321611945878099;0.08590887017539674;0.021551966633990692;-0.031884749122156476;-0.09476255624602375;0.06616249551318465;-0.07041953242273416;0.13544991709856166;-0.062079661941665476;-0.062285785917276446;0.03270512524819522;0.032697899114485555;-0.0036826166787217304;-0.02700009225936336;-0.08350767213413872;-0.03174832481646932;-0.07377975165958735;0.05596739253010326;0.03702456246501114;0.02923018667026201;0.08223402634328346;0.03777290431115922;0.07808979764725078;-0.0022441615867630025;-0.006098786466921256;-0.014074828077489155;0.08189491898757321;-0.05373890687040031;-0.07169918648773084;0.08489709760685676;-0.030667240279870608;-0.09569308017232654;0.04244862092013942;0.08927122078967215;0.004960640727165149;0.01590158483685641;-0.019073426922384822;-0.008480109667305245;0.06775602197816465;0.020313607134370956;-0.07645392224569865;-0.07338628416433135;-0.050895253913508326;-0.09533977527902104;-0.06700301910109184;0.0487149049974362;0.006618842141532502;0.034646005272818955;-0.04247591733169515;-0.01423721029648717;0.06985125814504332;-0.008022016900761807;-0.03628032896717248;-0.046271795392455684;-0.08594736494550954;0.08206116433962914;1.0338702391657375E-4;-0.014459069807462926;-0.0630644335886494;0.01400352596310805;0.09430291868092987;-0.07092403202439486;0.04132301187226941;-0.06003536532675241;0.09744272516620194;-0.020619057805053246;-0.06974668926024864;0.019574261691809383;0.010892716374010573;0.0889114201015134;-0.050096960075646145;0.013270059490484414;0.03280757556854558;0.10572308145476098;0.02816498431541446;0.01763778407086972;0.05771502130373635;0.0024540597557627143;-0.11321996650331367;-0.08467569662136164;-0.04108743159383859;-0.09252799775864443;0.037195477971342546;-0.06877757746840665;0.04831663779158134;-0.06270982521421271;0.08048860197449022;-0.012705533213050194;-0.013970923884579616;-0.08250532025214437;-0.039102919612464274;0.04100226386497349;0.04316965616601239;0.09148428393002994;-0.029717430743892714;0.051704238497312;-0.007950794720610313;-0.09027967297884329;-0.04953916814641567;0.05650559641786016;0.07977885369920248;-0.08820089668579005;0.08735259738960288;-0.0491915952992351;-0.08184342112794758;-0.08201559436471241;-0.09923853175957173;-0.03572206654611021;-0.04018337863315098;0.04654937720133666;-0.013657912524865586;-0.033629487480176114;-0.01558142711610725;0.10361382463111862;-0.09117357862035953;0.08129999001344795;-0.08336604472393039;0.08704771460789384;-0.08978347985467486;0.0034376274635708704;-0.07695688385487452;-0.03719333954657544;0.0911194483007063;-0.08419604045646233;-0.025045843432597196;-0.03173859191298247;0.06765496204327588;0.07156967366011974;-0.04026000673734786;-0.07856270100232512;-0.03222072182859037;0.06875571177789072;0.01173481884848433;0.022494437555570995;-0.06950704218901824;0.014408106108893608;0.05081636899353222;-0.010452246717361155;0.04364681165303296;0.07159655521095652;-0.06860147067901731;-0.017034223515402805;0.07318704455612222;-0.0981341942132594;-0.0837807220391824;-0.09103681769851071;0.014391874543305426;-0.06446383298956135;0.07630105150745722;0.01617676542566842;-0.041496200859049565;-0.015325540664932922;-0.022843676251062428;0.07503753756686438;-0.06568764038406733;0.025923396775418255;0.022287986294707064;-0.008766183365438726;-0.11451384139575566;-0.0844547496467684;0.007100358935525066;0.01912267161999186;0.0854797689169138;-7.771703603179381E-4;-0.005630790267756045;-0.09626174880442284;0.01665251714977276;0.09808235557995584;-0.0808261512171115;-0.07679348335497917;-0.0805589657613004;0.02074640183581919;0.04084880477043108;0.0501478105781162;-0.06590883676301303;0.026745732272451594;-0.044469488025114245;-0.07396598798935422;-0.05359814110199401;0.061502073122081675;-0.0504605406442912;-0.04567416501623299;0.054531325689648615;-0.061053611168862904;-0.06183334942643621;-0.030360228720474534;-0.06339074789535853;0.09719135482807109;-0.09889519419070486;0.08894067825327738;0.08454307624703514;-0.05099939112253142;-0.053631491009649625;-0.007595688340258613;0.06967916246330981;0.09572715056884722;0.09158029001101996;-0.046203273206301666;-0.08638243838150503;0.07394084285444238;-0.02180148015313753;2.6086165713525564E-4;-0.07952786279685173;-0.028560704300911097;-0.0713853008139831;-0.08953161696085679;-0.02678811685823777;0.00657411798553601;0.03800391733100576;-0.08741629145867807;1.2655111440861082E-4;0.0867844266253121;0.016834569966947804;0.030222857896876475;-0.09868408281086281;0.006553943185770253;-0.03569645609587098;-0.080864870807979;-0.04699296765864395;0.05608159927438556;-0.060854809420193695;0.06428254674396927;-0.02539266162286579;-0.103639677665366;-0.08056220928412933;-0.08402158118024342;-0.05081726392961515;-0.08739096605767777;0.03851369638109366;0.058858589171378095;-0.09959061134305583;0.04840740206362142;-0.091493971797459;9.176514736047417E-4;0.042057419375554295;0.0029730857851798906;0.038496811046128024;7.791396955315055E-4;-0.027447705716722698;-0.11135078879241311;0.016352841383593397;0.06136364641132566;0.0800968590691073;0.08531728622185329;0.05320211894034141;-0.014840873798258344;0.030468876779800855;0.06624414098491194;0.020870965179025557;-0.08614834342026384;-0.0013849642979278645;-0.045975877992280804;-0.05029610184995679;-0.057423335606477006;-0.04359309397982374;-0.0038028961709606025;-0.057009531972987394;0.06340322520365936;0.05808595434315341;0.019380986297763136;-0.017611829014958627;0.05416249050001767;-0.08512342274962136;-0.09142639501569115;-0.08552938596105557;-0.08786959690715317;-0.07219869211474952;0.06941449316722063;0.061621332515886335;0.08573038316342198;-0.06769217429646439;0.09680929114636634;0.09481232955049965;-0.07977717583920735;0.016219597305019755;-0.060118385168378974;0.028023866971921843;-0.062064325157533934;-0.06094614468028006;-0.05516935472396776;0.08728070695243592;0.06350422376062297;0.03061378993182718;0.04343547812781784;-0.07454948598116963;-0.004319936182900109;0.10380145853308621;-0.07918793945707742;-0.062103976786121;0.09562206331575329;0.0037107011122246244;0.04394097277841499;0.08094212137574609;0.08304252304379928;-0.018012229926282344;-0.10585727436854671;-0.004794590036326316;-0.036676810434917925;-0.07602467304515244;0.05358706270901179;-0.031944700263932896;-0.04188235511242486;-0.006136955550390352;0.07623348720998756;-0.08498594541522925;-0.014714878395210516;0.09618651883225364;-0.02655910084615563;-0.034480889001020275;0.03229121894159788;-0.019149172599807227;0.07065028441108369;-0.0390856428005262;0.11788079050545537;0.09310094080583023;-0.08503592516074564;-0.0744153074395676;0.034435172465007574;-0.035627383927517006;0.007318790026050017;-0.07931653829240064;0.023574700550021307;-0.0751650365422562;0.08283594183721793;0.034415692873035475;0.05058131829090772;-0.05501408317295483;0.09622877782222386;0.07160295169627398;-0.01948744439962127;0.038197457932432045;-0.025410771138924784;0.05812488463617739;-8.376173350023886E-4;-0.07086483375012327;-0.006193379597078852;0.10546182293075239;0.07609467250529633;-0.05849868609485208;0.0858600968765621;-0.02583114558812482;-0.060247628359742775;0.059328341131286204;0.02957928516665037;-0.08132677701589126;-0.011440238276618745;0.09658470789314548;0.05595918139271817;-0.027249219365969794;0.06714225867543083;-0.028765191876296826;-0.016407970555089895;-0.07776832622701882;-0.061885598181991186;-0.08988883949620606;-0.03116977905395591;-0.07462206611621483;-0.009293402771126091;0.06765248671424823;-0.08100426379749628;-0.08104833977336534;-0.005150906214498928;-0.06112494201066629;0.055576190907657225;-0.022638406575877054;-0.006527808973700776;0.05654251563872116;-0.04924734158283501;-0.07859646163478289;-0.018824833318247414;0.05803800229893717;0.0018574980267449014;0.029809203029968867;0.15118890917946376;0.019689538584504465;-0.08291403991636662;-0.04617161098716757;-0.1053822133527306;0.026820667295729378;0.07789609266156397;-0.05336150024686179;0.017968074903844156;0.0272030013261476;0.018496944975684586;-0.07712044777247973;0.03464818723285735;-0.080598959995999;-0.06055105742781247;0.0625970395127768;0.039481225060743315;-0.02566368259717023;-0.07209996137598765;-0.04871177865288313;0.06083574927935195;0.04148413328842707;0.011869228376801712;-0.06170949845473378;-0.031058597338034594;-0.12557391552224048;-0.02937322973755484;0.003643135930441533;-0.04018152145247276;0.06104153280701579;-0.07439463739755754;0.026346337716021333;-0.08485433036714088;0.09638258943669942;0.0014435871772041796;0.09924988260842443;0.07164651142078497;0.08665636319528745;0.06345843379343338;-0.05528655815691823;0.01929883825879268;-0.015214629480364701;0.09242491452245732;0.07312760617811744;-0.07499060634252075;0.03149052342573458;-0.08585146523973515;0.07395360310552582;-0.08611543195215783;0.021562171675321044;-0.014026244526284431;-0.012976843023164342;-0.05702865263098011;0.0021004210773404816;-0.015783593470879403;0.07771775025312255;-0.056828396096987276;-0.08902364694341865;0.05366623917991986;0.08324791200265937;-0.0683839264606427;-0.031038339787732207;-0.05713910628193881;0.07788328349182104;-0.053187943370361784;-0.1020542050773772;0.041320799256455445;-0.03571786921143849;0.058010262824459126;0.05266034710946327;0.07676310283922631;0.048511955041742445;0.021051694020757114;0.09943616827352086;0.08795031362577896;0.09701450421410265;0.019692524109634603;-0.06020913036651161;0.027052284549984477;-0.06123300415858483;0.08663304860519563;-0.015499396035424768;0.046600036484700715;-0.02127150602968995;-0.024773208222609047;0.026864805976612432;-0.04392638581375489;0.09897860243808496;-0.09918108315897751;0.0774519669488192;-0.031896389425575135;0.008377356549159888;-0.021073125080737488;0.004387795191576394;-0.020824767991637644;-0.004999358470218397;-0.07230870713553393;-0.059924581636487166;0.0093499123093994;0.04833870666956396;0.007881987338674592;-0.0812050914622295;-0.019284834885227416;-0.0891171973682527;0.06916599194349848;-0.13993864261836453;0.08007769587947834;-0.011773774065341214;0.09093974213067534;0.08929353611307138;-0.07204275552400527;0.0605983997396166;-0.05601321113985547;-0.02707749368961975;-0.004701983600694855;0.025014195106211307;-0.02422360931480811;-0.008702438914342636;0.020017188435077094;0.054820942843956326;0.07602397159137485;-0.06847298369576948;-0.042434924053622154;0.017589767188007147;-0.03428920190087875;-0.09319077263661185;0.0282959457451251;0.018795963267942334;0.07763172591599898;-0.08081611604821258;0.09097337748869397;-0.012709115974241961;0.047102184597553706;0.08461775515817148;0.004874247981410926;0.03448923493803684;-0.056206790787351794;-0.04009308812880758;0.02618659694981878;-0.04366085279400731;0.11358154332921534;-0.05715897000891373;0.030759628499393954;-0.05983686346476409;0.10252738387071803;-0.016831637092009882;-0.052961443570363975;-0.003358161309336377;-0.04136361155309868;0.10394207971015335;-0.06438912895951228;-0.06059209424188342;-0.018690019159576948;-0.0075684006236302745;0.029530150243192284;0.048698390425031414;-0.04261319000112192;-0.0857397607032068;-0.08075420982750371;-0.018375626730058145;0.0035470941591313797;0.1118254957592437;-0.04683999665415179;-0.02816499447290597;0.06027996092627347;0.04364699832099859;0.04956684117010137;0.0534083589895045;-0.07030948976336611;-0.0808425218392276;-0.005376743373991726;0.007854572158092208;-0.05097976018519889;0.02511426045650639;-0.06082330840753455;0.022508913149313355;-0.10825331398115492;0.037610985754648586;-0.06842434817667546;-0.010564749265066476;0.07989574843847534;-0.07638639965920715;0.011080133439793227;-0.07330041599022008;0.028644459871592073;-0.06884269659952291;-0.00927461502775959;0.004416341884851147;0.04837712366365518;-0.06998081821194248;0.11294525097063313;-0.010954906768605248;-0.07837098872814562;-0.08418508537768953;-0.04849929810013562;0.016171187958144116;0.014948940133587241;-0.09377601911547545;0.07760805657717962;-0.023467438229146802;-0.04616285789720586;0.09332674004884996;-0.005323159684685788;0.03234127614912324;-0.07228477551755903;0.046975815540813086;0.059587731224923855;-0.08001963982932161;0.009677187782935762;0.040026450736540035;0.0455730117936358;-0.0068275479222191975;0.05572298859285703;0.043996984980314485;0.10138521640703876;0.03077894650328435;0.006439346564630171;0.05259015677752354;0.032598585170583214;-0.00399488366384489;-0.06608889632749537;0.03134511155745939;-0.08296603133587696;0.04177381570741392;0.03618902861572337;-0.04057422493079582;0.06448422970047218;0.09128095239708452;-0.10050245934503162;0.038035939449184084;0.07286425447247838;0.003476483615516525;-0.05185802817488703;-0.07517119694133766;-0.07518565456573603;0.02214971033356383;-0.017555967767303803;0.0011796237009693237;0.04347727307008499;-0.011046544581052534;-0.06997803610651458;-0.029878421790177512;-0.03920503864845515;0.002372981063783451;-0.013264779463225412;0.060274551023300364;-0.03748070773769279;0.052211506107200566;0.09855580300960805;-0.057184272735185566;-0.007702885862117989;0.008416723152092314;-0.02793459605433445;0.09623778153112877;0.0356035076396435;0.13182849451130646;-0.14524651057570293;0.03323774395861841;0.09795218019330952;0.07461954600504443;0.05373637675887791;-0.03975822054229126;0.002856605496973964;-0.018652335429191945;-0.05412438648134212;-0.02607851799914513;0.004068228685857878;0.0027469513122638568;0.06843189828516391;0.04816738835648844;0.030211497434048957;0.01394238234926428;0.0881774271963565;-0.08082897343127048;-0.062300669916020755;0.035126237104261215;-0.09229553596180902;-0.09472402162555689;0.009159672101370923;-0.09146113270547754;0.05464586464308674;0.10581932086401931;0.006883358622978861;-0.034989088699976696;-0.01309985200753873;-0.03598126756020654;0.05907194518907152;0.023278518110171287;0.009889066284581256;-0.073162853247554;-0.09398962929718155;0.02133615296310881;0.09380553351365818;-0.029045000055229156;-0.05836340982704494;-0.09807108597292115;-0.04608781265902378;-0.051128770903966225;0.017906501923189416;0.09598172227103877;-0.01622214333055798;0.02695070521796862;-0.0064026647617779755;0.06952244989312663;0.04577288706965957;-0.052535256812979644;-0.021500475402380256;0.025229002799052318;0.05131171236146426;-0.0392245815724236;0.007746688361568413;0.005863908758539763;0.003850963926137793;0.02144483188387403;-0.016993639844214186;0.09604111020467226;0.011721997223120945;-0.03380412822233359;0.0673933834021466;0.001638109311984574;0.12748491358648073;-0.0685655098231804;0.037267443191587216;0.0709167964480872;-0.0644193385426792;0.03365444357120551;-0.044764262022563776;-0.003835126912381721;-0.0980303177910114;-0.09848457091211595;-0.024676433424352957;0.08112249676181794;9.82062061225387E-4;-0.09398929522075901;-0.07559907637194374;-0.06104225318909924;0.01765221430963627;0.05992282788187696;-0.03895093576573784;-0.056000621482796095;0.012417814889850528;-0.09608033865203387;-0.011936768979888488;-0.013981816511913474;-0.06041646914081578;-0.04393567475797606;-0.011826357837968671;0.04248711353639637;0.011075893422913078;-0.07133605894321471;0.004756525244877272;-0.056214874142584734;-0.083721096312216;-0.07679666804552919;-0.058374264878642675;0.04295134522876735;-0.0784582723605225;0.031236713097266444;-0.0657605283597518;0.026569299639836168;-0.03831964930978424;0.018598186898381264;-0.0895000322695725;-0.06512459444623496;0.07147399182556421;-0.058748554410744606;0.006943038316386349;0.07168429206108315;-0.056200684997111415;-0.04970794337018766;-0.09452078049465422;-0.012569751373222913;-0.09534797713610871;0.07319397747011777;0.02219278378220505;-0.06573918468188363;-0.012390766893237473;0.0930703867414787;-0.009910909378096225;-0.029503313213785052;-0.06220361889703898;0.07734463704159823;-0.06188843395056302;0.050350110393656285;-0.07910977620737324;-0.0844568622636653;-0.009585192067212487;0.07905373064324897;-0.10119070971172468;0.06294415953439392;-0.001012529187931484;-0.06733782277626293;-0.0676133163004077;0.03496777296317601;0.09676927032837487;0.08672507207561461;0.09191267547721843;-0.017301006961983913;0.011961669128045508;0.023017007843520353;0.0758584715905386;0.0021074617045020202;-0.009504324792089087;-0.06791177126998689;0.09156673810086835;0.053424908162923126;-0.03283442407815607;0.04665916067451602;0.050085338966986345;-0.07572591382039157;0.025174344232040523;-0.02814607970455894;0.03089101926124819;-0.07022569078401356;0.00577809609275229;0.02459529525829658;0.06397835629241924;0.06230570635289098;0.008471777175096834;-0.043721739533103404;-0.04466794356284195;-0.08265735650900725;0.08987185591620392;0.08705616283873603;-0.08927151086036891;0.012039255363120874;0.011624831995049018;0.03723333231623555;0.02768274551989162;-0.02272978365851071;-0.07700918938818288;0.058500443513442774;-0.040575586749466416;-0.03825397783631569;-0.07940297561152876;-0.03321074406172546;-0.0544399872073781;-0.08967459627497879;-0.049444196911709766;0.06670947429452638;-0.0942608389005703;-0.010020694821191214;0.024307638469162618;0.08040004648099042;-0.06686009435594696;0.005095478035217984;0.07883682674921015;-0.057779521361125435;0.006733966079918384;0.0997093526393598;0.01609583588581143;-0.0023174277462610898;-0.0955406610552643;0.028889541834777047;-0.02227505628473705;0.09087894777729465;0.06171910693874543;0.023264448889105914;0.0504781835897484;-0.06586027172608716;-0.045220958178512655;-0.05094948635587611;-0.03263744967368284;0.034654205956592014;0.04020961953969172;0.039349580205158906;0.03848808880197078;0.07040238872490118;-0.027103900542311526;-0.04207449966928363;-0.056952452488251974;-0.0818834911434444;-0.010711619758941245;0.07116361342932077;-0.06109327560066788;0.02406968013069363;0.03805872226829651;-0.059859272135998835;0.00861989560649255;-0.09629652683537977;0.06606884120752367;0.013801682083854412;0.052623402878231744;0.04716854928621128;-0.050300904450503954;0.07251387109768137;0.09374028414539817;0.017500875231592414;-0.07716352783501375;-0.035658383581840376;-0.012675498305871662;0.04750523165693007;-0.0945661798778944;0.018682751467814503;-0.11046408604044088;0.04818113615148498;-0.045248833930900574;0.005382374603720838;0.04219883757575765;-0.043163859360108435;0.05303579715276163;-0.06944458270380702;0.012835926743123621;-0.06392061775035117;-0.04730898891302709;0.0012029721510412538;0.022881137120440542;-0.04956179792576174;0.1011172350101563;0.0507289791990163;-0.012171758008063513;-0.05735159837402652;-0.051949011707750084;0.03592247735039692;-0.011872944054306169;0.03739388706642981;-0.08452340484362408;-0.09518128738511095;-0.06267001772250981;0.0810331326926557;-0.03979343495551268;-0.07001240535035996;1.2568425713283278E-4;0.06272596320269813;0.05102756356820667;0.03507725469324307;-0.04272465601980416;0.05506970732305279;-0.06035967908382171;-0.0034776533858242795;0.05681336515038818;-0.08151506279153552;0.06125775187144111;0.08235973817130854;-0.039648015173623985;-0.09252921831233683;-0.03154599048827323;-0.03633630878876695;-0.018582440072553788;0.026301126824910728;-0.018708449683126183;-0.028288540730787577;0.023679424374612935;-0.07103435841761563;-0.035514068847462325;0.08371250634292379;-0.04613296149163431;-0.04232287888522315;0.004797400840874738;0.04428271900761454;0.06555971766348477;-0.0018084547372873435;0.03088767435397124;0.08127887380832832;-0.08866624814855117;-0.08810671268508788;0.012862802536451896;0.044393960609385025;-0.07627340742257206;0.09635337052576982;0.06303016086220438;-0.041966526032125535;0.036277584050204495;0.022201715386178163;-0.08844300476222793;-0.0945665525371205;-0.04273971970084045;-0.013262018505792226;0.018009825521680324;0.02008231643130657;-0.08577916274971753;-0.024504753477782467;-0.09061432229250521;-0.05347140609155268;-0.0055607996673863675;0.0929326437298365;3.225825371946726E-4;0.055451218623898846;-0.0694387551824193;-0.012475151489815487;0.0575068602773189;0.07864282515547553;0.07146012624666531;0.0869014982624051;0.08126568392693352;-0.0619858600655867;-0.10629566792477137;0.024323116998012023;0.08015320404590696;0.005835042873578781;0.05951432738336578;0.0679709653137884;0.04826524185982525;0.0647775703053923;0.0746104816480415;-0.023109543861452263;-0.04498747065447093;0.017773930930794764;-0.0646571563072463;-0.014043543916171995;-0.014822683379804266;0.06766811553699735;0.048264559569529845;0.08647434873374331;-0.0920493073886174;-0.07236785012404433;0.059021083033662436;0.08092237309276497;-0.08285892381440052;0.07164216017197213;0.06592288323098984;0.07873618828318663;0.026047731360316448;-0.06744975093762262;0.08260797043432079;-0.0022855394122758203;-0.037892238903443294;0.03555558674489208;-0.0354991775579596;0.028265776419603927;-0.060058816872421796;0.08931052814524204;0.09153843594991863;0.014210719227515966;-0.09724004479100265;0.07278841593450347;0.02065262304140677;0.0929221696718976;0.0478900085301528;-0.06930367252511842;-0.007744221515799384;0.03229040974103745;0.09203140528554142;0.02466458250295534;-0.004886923595962563;0.020427614681953664;-0.0801990983917921;0.045654108413708316;0.06282023137864517;0.0490713133891783;-0.08310673852574399;0.07744154712715019;-0.0688399389070221;-0.0657418388904036;-0.003157425783702514;0.08094600158330116;-0.03542327943045482;2.893523685757705E-4;-0.03832584415009675;-0.023441263165966068;-0.04218417561737624;-0.01974188920445403;0.09326446779658096;-0.06578669719246255;-0.08207703668330228;0.08740844129124124;0.12441990925372612;0.026984027408141455;0.07177592719290261;-0.10060096335534188;-0.05998096502624028;-0.05026416942542881;-0.03135284415352761;0.04150411397160178;-0.04164253255216305;0.050731744460397715;-0.05699135468621129;0.046731384896945734;-0.027274323262577376;-0.0560912003274717;0.09181361718358674;0.08078752210115413;0.07761518431324023;-0.062314451492578374;-0.0334766987278105;-0.022286025129320246;-0.002503649020118012;-0.02789339247677233;0.06052086168162486;-0.057007660029721956;-0.047779235555315054;-0.031981425617706276;-0.05239799807444468;0.04101725681428949;-0.0012599542368943886;-0.09453234807560187;-0.06438873615042484;0.06344171698039432;0.02029934679075382;-0.036135239149248106;-0.04059515353444651;0.04093371697339147;-0.07150386361431463;0.09845157048393965;-0.05710447457811153;0.032495291730911174;-0.08661751318040373;-0.005216971775174831;-0.05776777890178934;0.008599002276000755;0.04551488170679632;0.04210557849630647;-0.04029713094199035;-0.08662941030097707;-0.01849272293336832;0.0548100545880618;0.0546138149021196;-0.04580943293285153;-0.08923348293772913;0.018577193115093742;0.0749064520570913;0.02827290072516531;0.08379494152812654;-0.004324003409027634;-1.9381426142829305E-4;-0.07618443557513668;-0.06286657606038965;0.0905996077329736;0.0652607896281291;-0.04511182489683077;0.037985425027474304;-0.05375749600698355;0.09117094608970984;0.048135546095709796;-0.006152174714037939;-0.09643298734176212;0.025250496240574034;0.09228277247989003;0.012520170684560178;-0.08370745936646204;0.04775905709082074;0.03325029326521197;0.0049232922556949315;0.09056315857559599;-0.06582301067284246;0.05797788889960162;-0.05781923175103723;0.0021950364794860165;-0.01173360357808411;0.08842903860316262;-0.016137737904244893;0.051093771855339296;-0.07715909718126089;-0.07952453057958773;0.09805626480615441;-0.033692475278917576;0.02550583706532232;-0.036690260624143815;0.06244975974911542;-0.02114734614134115;-0.03222653264405431;-0.03662676116456575;-0.08034001818537068;0.08461116886490141;-0.04587427269582928;-0.06009246320814058;0.03706882017788186;0.040027056242724485;-0.0116557060694184;-0.08813440338718924;0.013310182538954359;0.06794758736468827;0.0341085613854778;0.024776414943262874;-0.057888578952619896;-0.011034252039751632;0.08801776805449267;0.055621873746681476;0.09675027220353395;0.016371082797491335;-0.06615724329348215;0.0034053101475094993;0.06688017314038137;-0.08849849963529807;0.06085191507825607;-0.048127635885681246;0.0650292682693508;0.03970649125775813;-0.07390675305927334;0.038037578884001236;-0.05448453956865374;0.05288239526756179;-0.0844398351381073;-0.02759613469362905;-0.02713032423524387;0.059894611276874746;-0.0749887104118952;3.7019196128391496E-4;0.010041318067796436;0.017071263241162614;-0.07285696963648992;-0.06116801539150704;0.09555286193692339;0.0908573613091467;-0.0265895771190573;0.07103644152902228;0.028124999945770737;0.07175373800398878;-0.04132797750418306;0.0039464526387649095;-0.04839134808715565;-0.0837803202668437;0.009743743642669762;0.009193851800740319;-0.07792209186312482;-0.03797798148978634;0.07312284424266603;0.03227249172880776;-0.09306507373972807;0.08729792794341049;0.07002430758633725;0.03350496950498312;-0.048522960811658335;-0.09499840498202629;-0.08938800946559454;0.009974702027323744;-0.028815770439244093;-0.07095458169726612;0.07474367959838454;-0.04315144724512381;-0.041803054016554424;-0.021671771131935885;-0.053145486821652474;0.044398365997538665;0.001597063301888041;-0.06418416479837219;0.026713550423107742;0.01847904821660599;-0.0155620728396551;-0.06308513005519537;0.0017823407714640388;-0.04082265620644663;0.07804508369938881;-0.03757870869392764;-0.0781004795477618;0.08087167514199965;0.036662790714661365;0.002043140700408569;-0.07887369440924889;-0.09667848514682863;-0.02931845720255115;0.048915067087170264;0.06283019304001546;0.02375939488697091;-0.04494244421772016;0.01258369739203391;0.03028743723374347;0.014028646305013173;0.034839630115236886;-0.0274896670161692;0.08182979337456328;0.08148384877586465;0.06560909161723344;-0.061996925268376996;0.06899075593299539;0.07494722790264235;0.020476642487190166;-0.05675255287253816;0.0014838097385585919;-0.05588665918036276;0.00357104871839084;-0.0887404525782585;-0.06433450547899588;0.04313231448581706;0.08128914615207913;0.08513604273609912;0.0057854407662349255;-0.038140145281344795;-0.08645417135033823;0.05930415525538574;0.05523631914548974;-0.042892792455755925;-0.014975939893230067;0.010771680202192144;0.0678038853119591;-0.01610878706539247;0.03642487752662363;-0.06962302301071571;-0.0010830527886372676;-0.07331574278288269;0.095717379192235;0.054038978253432346;0.006897391997172139;0.030664302969947738;-0.09061127822069158;0.09400717504738171;0.08421016526211719;-0.06703512280572108;-0.02630585570876938;0.07011162289344972;0.0887132770917827;0.09392507438766143;-0.03409305866988725;-0.05898704620241298;-0.025092182941097968;0.028339553656916067;-0.024431524889148376;0.035452355480883935;0.025187921533934732;-0.06329145820850138;-0.06426182146550574;0.08350158935409624;0.08109081252121775;-0.06351217260383255;0.05424354336044113;0.04781298763054534;-0.02545323205022458;0.09333877290504483;0.04493013818097186;-0.04513056744237545;-0.04087086929285158;0.05237830573405233;-0.041088409367015924;-0.07376561368774598;-0.05869568828724175;0.06942890645311436;0.015819596431822375;0.009801876192851666;-0.08831820402849598;0.04226864762230925;0.035053913503946044;0.011046491732233155;-0.02373586925403437;-0.058118853798714044;-0.007921598074662556;0.05752976345857794;-0.032876821760424835;0.08663516153228398;-0.03362156028866639;-0.004226496862749535;0.03682636881018672;-0.0634873771623867;0.01806770844330574;0.051183446106578295;0.001110826064901163;0.056669044867695195;0.03716077853072247;0.07819372358351248;0.09640836875691955;-0.06688795053512278;0.0768192061041939;0.06469794302993828;0.06292278240816984;-0.07406627827550871;0.03460151299203612;0.013299180050168835;0.025879823127729684;-0.04943936532509823;-0.06628680946130622;0.022559991150064268;-0.02322277856975126;-0.040996185647090955;0.004256706403395066;-0.03174761224686806;0.054634686054371384;0.021108776404726554;-0.035518494601658346;-0.015392121238031867;0.0272438869195335;0.005805506062545596;-0.09796600755449403;-0.05443257330703524;-0.027581520193989253;0.062358453022261034;-0.044792439763088554;-0.05396852764364242;-0.0407559196289812;-0.09838345579740931;-0.005807433769035031;-0.0168900672858157;-0.07067171117123856;0.07726318458326562;-0.09767366054888832;0.03737218681731366;-0.021949330073004744;0.06706624314205906;0.05734317834379313;-0.04590289653427402;0.035812759745684514;-0.045871934386093965;0.012624366517798552;-0.0754769937160835;-0.05071192154387967;-0.09186453063137104;-0.021551850259402427;-0.032902295638591816;-0.037327895662979144;0.06660974722936022;-0.0967602453420762;0.00872847520954853;-0.0010677015454204353;0.016156665330500336;-0.04517863122966055;-0.033967934400300034;-0.05894191238073796;0.07371645501521149;0.0016621561725869427;0.026584701342126787;-0.08668911689461017;-0.03218617142523102;0.09412826435224358;-0.06982792677697565;-0.03752594831299168;-0.08019203779464162;-0.06594514701368412;0.09069387675595553;-0.016154943471791847;0.07588665816527804;-0.08178036320841608;-0.01559639686508045;0.08844908728357445;0.08826601194256459;-0.02573157861742799;0.043135479492638934;0.056728711604642074;0.08616546475757317;-0.058951325681523;0.0838528281815697;-0.07053378353761108;0.029889408572446874;0.04409000088775386;-0.0069864111823876585;0.09975101244751403;-0.08513815255606694;0.026854121849506085;0.0578203347645215;0.04422964727461487;-0.09712358301197493;0.08198490183882434;0.09747026279622525;0.05435578650380998;0.05334638596321073;-0.017441675872055445;-0.00559478743853295;-0.03235976401438685;0.054554648913023945;0.013332501150193063;0.025561638364731742;0.098900922582556;-0.045096272250707004;-0.09800232093653272;-0.00637937136911286;-0.02848709828709904;0.09416577631562137;-0.049573772587444935;-0.04174209549179957;0.04865836489435399;0.034732578990403634;-0.03407734736668798;-0.03260619344957476;0.06457662344591963;0.09286554630960961;-0.007526421225715715;-0.011556688798788836;-0.04418586906722502;0.06994571356980023;0.0419977699415825;0.03956602641688772;-0.007525551013268711;-0.016276248647927163;0.025596116980969058;-0.07908381569098394;-0.09053170938726643;-4.3003885515494056E-4;0.08480162714017747;-0.05410735727236274;0.03776348004885771;-0.03827573797405812;-0.07717054454551685;0.07238889578521743;0.035634984151881266;-0.07545378689253024;-0.06417312347237053;0.03404306053873485;0.019914890138673758;0.08376500021790387;-0.055876710904691755;0.07148789049385751;0.0972424131299098;-0.09227056251466366;-0.07651977047066286;0.06360075930679779;0.09531390369378165;0.06865795998002808;-0.0019864530364807897;0.07854426489303826;-0.017624552150757228;0.08430296942236723;-0.09542418017846606;0.01629967671844268;-0.005753296062775595;-0.09492835495431536;0.03893410604969211;-0.017472858070346417;-0.06648794089777593;-0.04364050509798672;0.07959670702806282;-0.06553883614782255;0.0349603357513307;-6.622126980757315E-4;0.012945461557424959;0.032522271148320264;0.03187888742591577;-0.011011172512245704;-0.08551424585196164;0.021567043987351875;-0.06269638992936363;0.05535595698167983;-0.06990351543460456;0.012138086571489987;0.025268935421045025;0.08479354399309455;0.05728010592131458;0.06171404436536787;0.012057818430734946;-0.09878299339145857;-0.07358739683961146;-0.04404040847682045;0.037451766421736504;0.047352782337464705;-0.018006519512870134;-0.010024557842316997;0.04598081161050144;-0.03401163975716144;0.06389579945706408;-0.05045165925242243;-0.03182648060332645;-0.018777749513081116;-0.011383857437982953;0.09240107638673942;-0.09819300036790786;0.07971400454094332;-0.06947536357995293;-0.07055753574909772;0.09315688808747252;0.09193420857274084;0.003114933242125681;0.00601735984689282;-0.08175263929835848;0.073414482794806;0.040254228061605224;0.08315664643977591;0.06410112696914724;0.08599748081237313;-0.022566750858403622;-0.08117274771767778;-0.09001056773143463;-0.020913099107580504;0.033016254342810136;0.04918213208168912;-0.09131793980919423;-0.029102535549886205;0.0894910453727931;-0.030189712790879716;-0.03230268301397468;0.029704936258516085;0.07471895223284061;-0.08301325879383777;0.030552060714024692;0.055096108895490714;-0.05681515551300023;0.04892255999436412;0.0580116737702322;0.059218816992941736;-0.04517794757005227;0.09194870558095522;-0.033581823528108054;-0.03530496035396723;0.005806753425723565;-0.0281570766625195;0.08611079906432137;-0.061052925039213606;0.06118587939170772;-0.054716932366332106;0.014096718501368552;0.03732390175413369;0.09559371777266396;-0.007783454568950826;0.01258956223903171;-0.0687414796367565;-0.033364249784789066;-0.01662555623980906;0.04239916539277494;-0.0014073872689982087;0.046138646700489866;-0.0884784523047799;-0.00581845897166175;-0.04517343663923064;0.05140027159776134;-0.07729367147397258;-0.08031109888350452;0.08436943854788853;0.07643968375753743;-0.052489047207903705;0.06301964470525764;0.07178899839374434;0.023247127664017417;-0.06769871762436486;0.09186836695370176;0.03306169689889682;0.0330340394886845;0.07047686267378059;-0.07122415567605798;-0.05317732092401899;-0.0825169468560977;0.03372092567196211;-0.01762093552341555;0.0856157840230714;-0.010002011544881478;0.003250416859124264;-0.021338812379159952;0.04714353607611754;0.09695385125399694;-0.09893404938262447;-0.007798432530717395;-0.014482852117691472;0.04894685731340764;0.021201840117442833;0.07742576027167788;0.04250653837459867;0.05204439369754024;0.0609760974118039;0.09985550404648999;-0.02120969693748269;-0.0609649513426416;-0.04775958435357402;-0.03264126940505728;0.005205737967159105;6.785968225710703E-4;0.09263017809459492;0.06139956559415183;0.013998821832922809;0.01695601419592578;-0.023185526848791466;0.06828832571002494;0.010074237082269136;0.08831945738471528;0.027746067603818758;0.01043151272992944;-0.057754650952772574;0.06694228157530327;0.02791142758738957;0.07758182557675361;-0.06551579095723989;-0.0871230267475903;0.03408806421243421;0.025802301461948923;-0.05965646654147534;0.010099483306515472;-0.07193016371135333;0.03232058821258613;0.09434462626029272;0.011328603434902898;-0.09767398429192807;-0.09166345107700478;-0.003708326898631986;0.06694649160486399;0.06667784962148113;0.0031886468424585646;-0.034881530931294785;0.04556040910663836;0.06948417977144397;0.025065437041372374;0.0989214102206172;0.015252709470674766;-0.021108550709016585;-0.07774442082963398;-0.043790508555266894;-0.07516915175348203;-0.0359162964582338;-0.03560217362243659;0.03715429835549189;0.085077380860767;-0.023467420968635966;0.023731020186308863;0.0648400200532617;0.049999948554104;0.031247316172372946;0.05634412113567966;0.06651344400206569;0.09808130306134283;0.08802474223921011;-0.016573835084807004;0.05483395090730775;-0.08647070745154217;-0.06730070991230233;-0.027483701034216976;-0.09087647848557256;0.06752685351007764;0.058392993032788526;-0.08124623456340228;0.05661673148662574;0.09948203246930115;-0.05323452325394007;-0.07387209797681066;-0.04628923881624783;-0.001722042986434677;-0.05073603394563167;-0.01127185123383094;-0.032784618400666196;0.08352287239562259;-0.03162672018242478;0.0719940339882362;0.05560296413946239;0.08680010958917625;-0.06113416227279822;-0.006034804006005895;0.05025847848075238;0.0329180950677678;-0.09094833587514833;-0.09346864291394952;-0.0632705125519332;-0.07883964239656847;-0.07797162904099227;-0.0233176517549345;-0.06402384320659571;0.006535529104884932;0.09693116756391906;0.06775809804701316;-0.01437874992637514;0.08102732757432549;-0.08981713254174412;0.020698621580442667;0.02120012650840808;-0.08736179164060416;-0.07455151577742286;-0.06219205726975127;0.035759822099074856;0.07554677319169739;-0.05566225600923045;-0.06910116751367353;-0.0931727908004476;0.01749414614217091;-0.016561282326807054;-0.08822950549070874;-0.08215195811314405;0.056992465795663826;0.06644020070720774;0.01740633517509803;-0.02264686525918618;-0.017641000412413354;0.019629374134799527;-0.07966892227563024;0.062271080311225094;-0.01689273716567266;0.0033392144995365493;-0.040205619344424584;-0.0509476291637283;-0.01897919789851995;0.042941455919246814;0.07305443693556644;-0.05504691598779708;-0.03829398191441669;-0.03955715739420916;-0.07330884011823284;0.019364017790450258;-0.09448890929250152;-0.09460310685647103;0.04772382670193337;-0.06502086432049979;-0.0810653307408935;0.08640047424605223;-0.045042646800767035;-0.02098281303141691;-0.03407162060789172;-0.09779863048632943;0.09023113429497696;0.09457136722710276;-0.0010673740159155842;0.07301368311629987;-0.05040647276049675;0.01180264810006298;0.0904772952435201;-0.0282679086418547;0.014689831178726047;-0.020823118886676116;-0.03590958373120921;-0.04478072134578958;0.0837552158216713;0.09473569287285369;-0.07428123179389468;0.09552627505008196;0.0032549914924454837;0.03736424809442574;-0.005055946870351173;-0.08884205365569828;-0.0012261781001332856;-0.0020196742888244617;0.03623672338361719;0.0982862220352176;0.00644065434304209;0.010875931612307124;0.09020687939757417;0.06209175818208583;0.004140683898273598;0.0848660976772296;-0.09518582610352927;0.04787260483491102;-0.05722176482071377;-0.06536249428419415;0.06671565837353659;0.07247531484786413;0.07752191530445628;-0.0881553645321038;0.08477213893506072;0.07502018331387826;-0.044836836356910485;-0.07450889907343128;0.08638554013518984;-0.05984507330481333;0.05396331449214725;-0.004062702317825645;0.027666064565002108;0.07229974110176277;0.04610173036666012;0.05327427637649388;-0.04786494351939792;-0.01448307939637099;-0.026063128525887633;-0.017276029031019807;-0.04965923853452508;-0.017248519236164044;0.017274026527279517;-0.04955674195747086;-0.06526711963984687;-0.06285264507817885;0.07017452737096874;-0.016834949387869932;0.026341355549831844;0.07520207057657871;-0.07521791552293121;-0.049266216351123306;-0.06577300986124242;-0.04470506153013122;0.05200437029308179;-0.05303555088357786;-0.06402452616431986;0.05168970463583689;-0.01720486343974249;0.06981807080097564;0.06033214026479806;-0.06726343770560846;0.08784519403472817;0.00542199235930557;0.06660870943782321;0.045543005339561814;-0.038247198724283976;0.00635183228740193;0.028607242690311688;0.09419002928745904;0.0013482725828444485;0.07396117332745489;-0.08572310981281908;0.023393128781169663;-0.012421503415249759;-0.05977224290182446;-0.035523556184254894;-0.0026923679110025917;0.07394473158164538;0.04843815415942924;0.08405286316229503;-0.016752203992399496;-0.04931639208352333;-0.0653932180501692;-0.0031558095109339513;-0.06885283306674404;0.04391735597215846;0.007700839234889952;0.07120217149691883;-0.044262572708888503;0.08874243160921362;-0.06692775669593583;0.06355657940756489;-0.08258630804079309;-0.09112294179625464;0.012230278660952732;-0.09084420096951042;0.0035466519413069907;0.0028258110198404623;-0.03585008463049417;-0.08950495825397344;-0.0901540781619488;-0.0795398335900014;-0.09413064896292818;0.03488297428743095;0.05632951269232534;0.0017163216411152232;0.02794928116777089;0.008224520474622864;-0.018580171266435668;0.07182563318912961;-0.011194863912927216;-0.014613074173503422;0.002637306808099678;0.08155982295214545;-0.05541743673354732;0.0564541829251715;0.05296567055063023;0.04011132251531482;0.07590334040744598;-0.08728760173588457;-0