layer;784;196;49;10
0.09000034108877328;-0.05799110554648841;-0.06578267007617591;0.08385644425431996;0.051589888915254595;0.01627374044743435;-0.03599621157138193;0.09918551047559185;-0.056375144064629824;0.004682266813038252;0.08052931942953259;-0.039144233273969986;0.047506066144004544;0.0025447115531570114;0.07453525281493995;-0.046691029326366554;-0.0591322317071634;-0.04255116504875707;0.030982272905757613;-0.01049205881791486;0.07826993192242018;0.0017955670641180282;0.024005575907145763;0.054012638252072004;0.07654700318744942;0.09466785161407565;-0.015074459162231185;0.03885203784749505;8.396381312913981E-4;0.08395191763651635;-0.05704628948414725;0.012505496472131922;0.08737515694604125;-0.09626824593080602;-0.031101901224985726;-0.01796616619203842;-0.08964857055254367;-0.09267098524996797;0.014085822841254175;0.00937703757122707;0.002817979048950342;-0.09703767054746455;0.029885118649975756;-0.07493801781937595;-0.024762812451819105;-0.09314860309909195;0.07762292883818084;0.046040132005587375;0.040447509616905075;-0.04230710982200103;-0.005641777226238001;0.04910174570175141;-0.049960295919373614;-0.05321328876320419;-0.03311465391316866;0.07728969687201853;0.07469608901587207;-0.09030723050781667;0.08450570274384225;0.06396257966762;-0.08016801432030199;-0.0018500951412166733;-0.009479791985684868;-0.05236672403590779;-0.042082516368955596;0.005090307930272958;-0.06694110614281804;-0.07956417691221769;0.08014678181379967;0.05093410891107039;0.027778291037443892;-0.09595012585899504;0.022661405388760575;0.05595067204745699;-0.01187897846314645;0.07913872189220414;0.006322634271439906;-0.07867558882617443;-0.04675358213680676;-0.0921667357373534;-0.055932359234675905;-0.07933531338721488;-0.05059528218403591;0.08352106540321799;-0.08382731175795335;0.06405082686864372;-0.04255831397284633;0.01817599761040782;-0.00871390184604745;-0.06169506627700479;-0.07271550094500019;0.03469067034458248;0.0798824729068516;-0.049963385781692175;-0.020326279168600414;-0.02984959689750659;-0.053171074746166606;0.0021054207226214733;0.0660704163474734;0.01571393846429972;-0.01895701164924983;0.019498311525498746;-0.0804186984001243;-0.08025718334591697;0.0227610664472762;0.007221006312925188;0.022909156378929346;-0.0369522109012949;0.0827252456162369;0.07065366168366602;-0.056250494721567026;-0.021402750004815313;-0.04736459264141016;0.05792288822607344;-0.056281152592439;-0.06724081171586652;-0.09749739881932946;-0.005806313854237466;0.053813699906336054;0.011124822252908423;0.08807880056475231;0.06938635525815193;0.027563760214643074;-0.040811497272013345;-0.049672947950521844;0.013675189002997287;-0.06754340691886479;0.016635141259264283;-0.02106474176769864;0.04922706978453517;0.02087527939243919;-0.046287029719037025;-0.06683416874356346;0.04198990104524464;-0.06629541103242911;0.0691459116976125;-0.03412752696982167;-0.006057846413342574;0.032925217098614706;-0.05873347732714467;0.08030448337468526;0.014066548925613057;-0.06607027993283596;0.037527000262236515;-0.03564199475298213;-0.014587694139195556;-0.08604209426042449;-0.017727817881779823;0.09322268681391963;-0.09403791238698248;0.00996339090788348;-0.041364730783161344;0.06891132577482201;-0.0773787990940039;0.08738719088559449;-0.02235667135091482;0.07394909042426931;4.983201604981113E-4;-0.03927179565910806;-0.013903667469493869;0.056538000733447336;-0.026251592227375817;-0.022535392601813503;0.004510049350185022;0.03580140883056898;0.009600207048121964;-0.06120592070844466;0.0873895564077603;-0.08174774342832432;0.08379213152298012;0.023825028455715186;0.08032685890331231;0.050418015705319896;-0.08650794216422764;-0.09173506487793444;-0.08810745965237624;-0.002405834774303034;-0.07712205463035304;-0.07568402341962391;-0.09698201377500378;-0.06501271612560197;0.026907911855011013;0.09540223936971226;-0.09745869928946241;-0.03495229245771546;-0.08959015536467117;-0.002483115137575792;-0.035183472965091875;0.03358094275624582;0.052472296204968405;0.048391552457122844;-0.02623755491787197;-0.09273402906123099;2.1981713206631337E-4;0.00635457050048005;0.08745368843164567
0.09649768265709299;-0.0685923247679709;-0.027341563826036544;-0.07166644505769387;0.06000974397743902;-0.03812780019135003;0.03422111795669863;0.07635439402085603;-0.08847673698810035;-0.04827520385045572;0.058139911680484185;0.03582806045835171;-0.036294312169447146;-0.05672092562129086;0.055000462157842295;0.04149546822176914;-0.008986626534924352;0.024052180902345205;-0.03508224812398471;0.045300817459884346;0.07053045013160195;-0.05021705057345349;0.08840993013580217;-0.0174173242523179;0.06870550339055348;0.08526105982937296;0.08361979835314579;-0.04512935193736936;0.08192685499541022;-0.07513702574738511;0.08206296150315223;0.0862028602184399;0.01016605533422417;0.04004193315420537;0.03699564887545165;-0.089143836222632;-0.054541490629264146;-0.03237906953440935;-0.08834073533283611;0.03260744150917594;-0.00922101370948078;-0.09941093073215862;-0.060927137613861954;0.059120979088993025;0.0899090206027214;0.07220329277654;-0.05929132462853475;0.05978347257999064;0.045182163122315905;0.03454913924456865;-0.02169997102442109;0.021284698417088244;-0.07246790764683204;0.02431551410504898;0.031194949136798877;-0.017531405633014807;-0.05794222882975386;0.08139028612446206;-0.058917155635462515;-0.08154412465998095;-0.0976412481294917;-0.06001509159079952;-0.0534142532605187;0.013766058186890556;-0.011817077872549639;-0.05265215818561584;-0.05788042641604594;-0.08485682946825918;0.013467953405713315;-0.018271727061776447;-0.06140492738877493;0.08701609612118064;0.015646816617134074;-0.06089706797349379;0.07794201509587881;-0.09399899882933507;-0.007873172842716797;0.037280589047027635;-0.04089561195397731;0.025579890788295256;0.056140632880942926;-0.053649709115302584;-0.02993167231530676;0.018065900819182218;-0.03829321573111233;-0.003959055238436565;-0.01135133941213004;-0.041807579500485505;0.056226415059126705;0.03341144068118279;0.014173889477727769;0.05113987806284445;0.059281760673851464;-0.09160792663148071;0.022873638540253552;0.027540349250722768;0.03749123528852116;0.05004956884462988;0.0016865111912831299;0.028976946714202895;-0.05218515243704789;-0.03695039199507269;-0.09162946998520682;0.0897213016205976;-0.04450714905474687;-0.0783577349473551;0.030212177431511555;0.08392918590576162;-0.0021604728052663225;0.06759739436712356;0.06929439185124095;-0.04775925283824194;-0.03859690003424026;-0.07113152411818675;0.06919762771535293;-0.05229151053399972;-0.03245818304090056;0.06736511797682992;0.016172454019827892;-0.05179732210678505;0.020255334549181672;-0.06293416752231613;-0.002764008725883421;-0.029079710112766624;0.06014953296280662;0.08780441378021542;-0.02169134645427817;0.09435044802192147;0.08970207507995984;-0.014585349476696069;-0.022578241007301922;0.044025519097273674;0.08753490899240116;-0.06448018862474783;0.051190560353218645;-0.06938608073136882;-0.08681081989665247;0.09610482802416107;0.0871612990964408;0.04238701832797645;-0.08106312101923717;-0.05688933274805286;-0.09969493407302055;-0.011180789109595413;-0.06854721279164275;0.013641935717790751;-0.031154816452645437;0.06805671144669659;0.04370922157989629;0.09298042989018351;-0.08723104986728965;0.08821730655344726;0.066245223793306;0.03444868241253951;-0.08221137436098357;0.010959701889671103;-0.07299917122746191;-0.09473059450896928;-0.061819325257145265;-0.09451222904497808;-0.019803802297224643;-0.06308195738684005;0.07384617803269272;0.002131620974404183;0.08727436120020873;0.02506732399265707;0.010099609906779008;-0.08312623870710817;0.06671548608265931;0.07207432559527654;0.033107025996677614;-0.01833454819493989;0.07456954170946714;0.0940619312612325;0.08955894227324121;0.060104704200210496;0.07384338624851636;-0.07500162655138157;0.04607710406754256;0.054024059690393894;-0.02158269639960378;-0.058220121204250734;-0.07798145597968671;-0.08623721996905132;-0.08404487543784277;-0.09282681337743273;0.018754262116814552;-0.04662529753794329;-0.05568891766801918;-0.01842385571227108;-0.050835982772123894;0.0417495091178515;0.07722560781109064;-0.010093801233412941;-0.016997250725087648;-0.008398229015684586
0.02764149250037995;-0.05347178287815999;0.0669581824170444;5.086906664923119E-4;0.060760580465423236;0.03898446214618151;-0.04736671807100486;-0.08834601593080865;-0.03599937628954164;-0.049608644825915364;0.07135125698407985;-0.043338051325717844;-0.01269939640072501;-0.0392809973201514;-0.06840510578890613;-0.08111766869857476;0.08476221354785732;-0.09122888429885943;0.08305599980373024;-0.08728688979397306;0.09740401272862206;0.01953458650616806;0.09068490722863792;0.01302496265529951;0.05684396554463947;0.005669381740897234;0.0927939917336301;-0.011522328094993137;-0.03898487120840384;-0.06273887714617883;-0.020816848621245637;-0.006504683082391827;-0.02444178776874051;-0.059439771621195604;0.018419422172016725;0.05589366202755752;0.04832397340046893;0.03428301515913579;0.08781680631065841;-0.03937027792852297;-0.010542747737343677;-0.05884818993306389;-0.0846734709513447;0.07487003020048885;-0.03417624783946331;-0.07729736993033998;-0.07053796390912025;-0.01444929845920466;0.08607953041877989;-0.023009495428087695;0.03154697746460802;-0.07217105181475636;-0.08852767112707148;-0.08832578733036563;0.053988681317631626;0.07130228650518686;-0.08249703884485785;0.05906361543798638;0.04894345400084335;5.981791801056707E-4;-0.047136064954956924;-0.06493556008239229;0.06365430345824;-0.022086483968782475;-0.0053883654608370135;-0.03944312996844308;-0.09809433196599533;0.007309781225185774;-0.01768256561681532;0.06159589741869945;-0.05454625966207194;-0.06595357328011582;0.028982144153139433;-0.05607707286343893;0.014955104134560207;0.0069614438025271674;0.05278728983355693;0.0976297057944241;0.08683053212886674;-0.09211523422985524;0.05129578325018988;-0.07058281071846356;0.05066463194903431;0.009296635279207766;0.04850356029676442;0.04274356240107097;-0.008843615781634256;-0.04008032895599352;-0.014817093141469756;-0.009742867722307189;-0.09070061828346482;0.017659888597986367;0.09424715355813537;0.008261441050832305;-0.04061505565126897;0.05028858034513875;0.005405621183814893;-0.09043855732156801;-0.028414979866514353;0.006483386472093636;-0.042833434298531994;0.05889120803609241;0.05428617216637108;-0.07667639991451825;0.05928515313919547;-0.015774834791155157;0.02600973487899158;-0.01893881608047257;-0.05495761131719008;0.08762638966049013;-0.08633250934417332;-0.0580343791162081;-0.019719946097749658;-0.08911284167379625;-0.027933852548626;-0.08273273633387589;0.05490581186152463;0.08406836000798018;0.02898803186897836;-0.005299624002075995;0.07262156697669583;0.039146079331489364;0.04083944027655714;0.028873686256843584;-0.024082596364396608;0.006325164781996295;-0.04422781718361766;0.047672746526069065;0.09591235489116681;-0.07281887284248748;-0.07565211355359985;0.060125088519067615;4.123527848763908E-4;-0.08335669491976211;-0.027771293321913082;-0.035364471349743104;0.02859485093798514;-0.01506613292831796;0.055042126162193616;-0.04877420927276597;-0.05298150707801555;0.09092861796102886;-0.04751832946714605;0.06738892066374255;0.03919551502082225;0.040007307304450845;-0.0731306888138172;0.07439573482016737;0.04975334180882984;0.062312611939441126;0.07081945625325328;-0.040633011731046435;-0.055748801080586774;-0.08856147945094753;-6.914715684353395E-4;0.08815153041170548;0.017006358238961086;0.008920458344124846;0.0033680723545101293;-0.014972647523428056;0.08182388364895166;-0.07349895260121392;-0.024216425180012213;-0.092531149682507;-0.08568727576046711;-0.05400313296706514;-0.05640496996647213;-0.05229963991745643;-0.020489938722452194;-0.03430666258544131;0.09785951092828074;-0.0625175819341299;-0.02517509553287188;0.03254615319654039;-0.0019499466599696424;-0.04144606514001024;0.045850998547405236;0.071069493201149;-0.053370924015750144;-0.03162016343369241;0.09138814600981898;-0.04735731648502775;-0.02125115649712099;-0.060669530719406534;-0.03594989451073294;-0.09693149685055565;0.09269534851990477;-0.020854465324011626;-0.005873690949446703;-0.01843197521242837;0.05860615990292825;-0.04848812705395181;-0.08309628656898849;-0.019001686840266152;-0.013843170880731212;-0.052188956414917165
-0.03255586353005234;-0.0030690479911436447;0.006324466027680248;-0.025430857985509467;0.021851463238206678;0.09233088873063774;-0.07199878516980998;0.015867887211898496;0.010352309630204615;-0.05507334757818616;-0.03285560157124488;0.005952614976336368;0.00505256199390465;-0.0940353986625202;0.014314120653466086;0.004499285117407159;-0.00597848386259045;-0.07810865936433474;0.005863299566855981;0.005479235851074238;-0.006605791206735698;0.07461012475735326;-0.005291022554437849;-0.06971299869583861;0.020471744203590436;0.08130849765997195;0.07852805915420036;0.05677300357048087;-0.046661646017032224;-0.03854389775100373;0.03638439890113815;0.018049512077129348;0.03630309944125279;0.026423057720605797;-0.05079145786799937;-0.03158508181100035;-0.04448689108770265;-0.02372909117447175;0.03521520373829812;-0.04153223476330077;0.005374363182121672;-0.0013802487608939318;0.018257807659829317;-0.012541333238260052;0.09395504652175946;-0.043903377993334325;-0.03471658593501685;0.00815480957962697;-0.005664410357080429;0.02172183396362841;0.07846540768526492;-0.0520317850104253;-0.061091401922586046;0.07569158042276583;0.008255420519769213;-0.020174482195653917;-0.02507911496601052;0.012366501530092638;0.065510006723557;0.027233706914219113;0.05208886535294949;0.02287772263347161;0.05401161281375022;0.020222623681884627;-0.0030922282681634244;-0.08338680291000727;-0.08088244669882219;-0.06767822829245795;-0.05668597772477535;0.023948926090880424;0.01393465583595413;-0.07654459165248224;0.03564926123988829;-0.017058917028730775;-0.07866870613316926;-0.010383412316070983;0.0974136447068254;-0.04570331982895759;0.038262774023965634;-0.022592795579663955;0.0680849332603019;-0.06820805191629892;-0.07170018656981647;0.06000790539796072;-0.04968088295061584;0.019409246148484938;-0.021085827991860567;-0.00913201126913507;-0.01886273171924302;0.03181471921720452;-0.03801057497566514;0.05238229501960698;-0.05675754714890471;-0.05859934855138585;0.08918891995840666;-9.516469366782354E-4;-0.033600479431750804;-0.057032058178188266;0.07822712652495292;0.05807387796372904;0.03384974217716505;0.036225672542806564;0.001754522539141587;-0.004868952303277149;-0.09497872384418929;0.036636382026439235;0.07748033814361796;-0.021069247168206906;0.09333545414815461;0.016737131469299296;0.07632143880633044;0.08551637970084688;0.09669808553218537;-0.04708193666884475;0.07477976280794554;-0.028346566242882815;0.06830388638110804;0.006741724419685902;0.05841478238332262;-0.08358228111420406;-0.0633286977906603;0.00523793890388731;-0.004808505170829008;0.08106147097841895;0.036364009109933454;-0.09878937160202879;0.040648482660450375;0.06946332928616691;-0.0053555471971560575;0.09244449950523426;-0.08875523473662822;0.08494458216379905;-0.06565611305854702;0.057801138664663076;-0.03209190089810475;-0.026039177708057887;-4.7766612500217687E-4;0.028545519462440577;-0.011278546162643205;0.02315446878027627;-0.011968953277005201;-0.04515439169517093;-0.02215138440131359;-0.06651955516323613;0.08387913584376097;0.050239227305151735;0.05721367090877999;-0.06640636439980352;-0.07765508363658546;-0.0990360826993788;-0.08188657963774595;-0.0855865384972015;0.09206183242073013;-0.08760286224332087;0.07185570175416489;-0.03224259000862732;0.08084767477121313;-0.06854430672663475;0.031680704420108535;-0.005838100912849059;0.005835018162050121;0.03165477357886495;-0.017363551728724252;-0.09151452836830197;0.03349972566848938;0.07662864687628446;0.051743566164453664;0.016615869275668202;-0.008526425843468674;-0.011733418980499316;-0.022301257654092008;-0.03742096285897466;-0.09843396439338599;0.0372190875407617;-0.0024699405143459446;0.05257475734060241;0.02220927737963571;-0.053618787773906544;-0.0829682997577947;-0.04905990181209472;0.07857962493828605;-0.04793892654570689;0.012469435688461789;-0.08723150302168048;0.07993768456377226;0.002893524568533354;0.02296240732995662;0.06888880839014497;0.07626841779918728;-0.006839728096149786;0.03611082417350259;0.011135196851783408;-0.009908452325405048;-0.07497057893937614;-0.056146851298419946;0.03931540713596682
0.07435172644285068;-0.026671095113350862;-0.048799423250046964;-0.07398862975356053;-0.0064130705789127995;-0.013180080924067888;-0.04258953543856536;-0.06867718114190365;0.003112625155790222;0.0015379470191271977;0.09732461741945692;0.05689099019085975;0.009748363805977031;0.06462057601826882;-0.06998770190576963;-0.03298376606882765;0.03765242502151531;0.07114287763043567;0.09252191967919945;0.024409676585070983;-0.005880735583062194;0.0018326159288874627;0.09845941783763065;0.08909594532537507;0.03273357479593439;-0.08386078185375784;-0.04572455426639262;-0.08878979360451196;0.0450638196668737;-0.09701808301684878;-0.009442568560351375;-0.08809038543366905;0.07711713806801021;-0.0793959253072351;-0.03871319473683946;0.09134562216693656;-0.0369333493005649;0.0673122291907308;0.05093560709860254;-0.07137971863267467;-0.003698820581247736;-0.08351997121445907;-0.05255918534217803;0.04587619696591186;0.01663649351980527;-0.07795126990198234;-0.011491223647135312;0.09714634263794511;0.08256628276809816;-0.04514251274562567;-0.030633736462594888;0.012316505673584444;-0.08127991281041327;-0.03451171070306751;-0.08801146995218004;-0.02247023989911312;-0.018765568195242444;-0.014088125497898549;-0.061000863478390316;-0.034411188431132875;0.06753262352314535;-0.01992738340596216;-0.030150002461453676;0.04338873265186535;-0.08795246917713334;0.03265183040268341;0.06255450915519417;0.0781390881555114;-0.044289091168198215;0.025600594608677557;0.06116042840621347;0.04011108822400883;0.054571794370411125;0.09363471199964399;-0.02268661765770641;0.05687186580203893;-0.09830445900083613;-0.02726400997443794;0.03367586823682869;-0.08755533145542008;-0.02346572341731583;0.05980560552373082;-0.07236927067035293;0.004560179935107961;-0.09275164772823041;-0.013033145298666102;0.03561211048742269;0.07414089449018271;0.033997779036551296;-0.019383836717904668;-0.028429038521784564;-0.09661313153035023;0.09501133015125116;0.023172824261578323;-0.06250374675879253;0.0423078733451458;-0.07771962031341835;0.06457942276403703;0.05957709431353325;0.06827347584486451;0.030013333827415334;0.04095656131282041;-0.009494961593549095;-0.09087085522784125;0.006525841090326875;0.04941695976851093;0.07657986330764352;-0.03234701100232951;0.07903075744368923;-0.09910434627601504;-0.06230370827021312;-0.026395535947245113;-0.08916884908537902;0.026954549289721214;-0.011046981271104414;0.0593426760537413;0.011708509788391025;-0.04812888771615094;0.044539648629286804;-0.09403121949852165;0.09483746038076207;0.05792262189100611;0.08772105944326658;-0.060826724580534064;0.09734744233176532;-0.030371160716275727;-0.034847129193034385;0.06744570381308407;-0.0033093934147759574;-0.03818226152283049;-0.03057431284244881;-0.04996920735607775;0.001264572850501161;-0.043269801079146776;0.01064994907686137;0.057991656479744136;-0.028722460511943784;-0.0830186034725614;-0.05394285884969912;0.048967127402224114;0.03463229169396814;-0.03595194637882297;0.036007310779406554;0.014687057191673;-0.09735509045892413;-0.04394770317811339;0.02545681270003003;-0.019964207560319025;-0.03829718998296197;-0.056035583451532325;0.011854322747881785;0.03343067524361615;0.01950597134512251;0.09194846567988743;0.05359720537925458;0.05050901686358841;0.018324157733132895;0.09542604118511466;-0.002405652897090979;-0.06340652149112663;0.09274215914625936;0.05953537813471807;0.06014566873608759;0.05813240174477233;0.04565388471412285;0.01101415934632069;0.08226263769832295;0.059288205900384555;0.0438055297933255;-0.09186364065629765;0.09871800878485942;-0.0329265393511593;0.09297678342152707;-0.01381537556199744;-0.0904726997782932;-0.02308908613514135;0.04292833508940913;-0.0699584368600279;-0.07677165230680878;-0.019779773529689376;0.09353288931365314;-0.09916526758508684;0.05323955459909932;-0.05338925875948042;0.02604597727417357;0.06017167240490448;0.09174136141896333;-0.09451375920171252;0.06726194757302681;-0.06664706000362258;-0.040060428119008944;0.08534412861340418;0.009339566356239185;-0.06794731873792688;-0.06076672486481294;-0.036221909204413816
-0.045629342366957176;0.01730773918511326;0.02472412276900074;-0.04283019644198863;0.03030441498893982;0.025257970826996323;-0.08933224735319643;0.03628186495426822;0.03362891534062787;9.319598005947255E-4;0.016882308470233462;0.09244069488154807;-0.005749410229123633;-0.010526138810297694;-0.004207013378272784;-0.0012753713655088844;-0.07069869388068262;-0.08044129606186866;-0.07829440833279772;0.011549100668615808;-0.0448580902011174;0.08034501378705178;0.05706625548025976;0.04026730714092114;0.060620097281743696;0.04116522727848915;-0.08512160916026586;-0.024118686521281102;0.00967950688447769;0.09225584449009558;0.09211213306578755;-0.08531486166163271;0.03770601712860816;-0.004819051192515106;0.035855507880805715;-0.061362048502483946;0.03353633677130444;0.023204185962841392;-0.07787932494458381;-0.07850803217805441;-0.04215702191394899;-0.055284124441827;-0.023367382029940084;0.018176316713369806;-0.061351242745256364;-0.04307644219684921;0.04759176376310703;0.06466466636260562;0.0060131134748785675;0.012365717812372543;0.05231604545334831;0.06653091418117421;-0.019528486632628378;0.09741015934250266;0.06283193082362079;0.08662387856833495;0.013598286653677377;0.01974986663521186;0.06989816645075947;-0.0442315242032429;0.09410235729016045;-0.058989072775932884;0.070609831959253;-0.0748726309291715;0.07915434825195969;0.05093856729396731;0.06164456508393085;0.05483371652115321;0.08818253735484335;0.021228872473606025;-0.01162329625152117;-0.009267793529623286;0.005164420934775177;-7.45142331519677E-5;0.09949930043638122;0.019542021936780007;-0.024520599811377775;-0.08859805767490361;0.08745796616767923;-0.08751791139833727;-0.04532256473913057;-0.08769803535990046;0.056914469252190125;0.06837540981375476;-0.030942583637438473;0.02041168857081785;-0.04337767980342436;0.04947594951544271;-0.018261865018937007;-0.018710874634056934;0.03451033058967806;-0.03326207268451893;-0.07705622624293401;-0.033422043594637546;-0.06856551511296456;-0.08402578418620801;-0.06048511886282391;-0.09171579592319282;0.01597227131272924;-0.007673219671856274;0.046194913080779054;-0.03510413787773735;0.08079790977483073;-0.08230109511204385;-0.07996856394473009;-0.011922750383838207;-0.029409197359511002;0.004275441479859213;-0.0307298487535842;-0.08722871593649154;0.09209366812877293;0.046983782194761015;0.029409004439465147;-0.07110550203427862;0.06885091879214109;-0.011275012859479253;0.09161867912301647;-0.09058880670482126;0.04632179092088415;0.03443091764211653;-0.0474752173044336;0.06742466646826883;-0.0725230322856376;-0.0965201213243532;-0.01061376714990589;-0.005975030566697459;-0.07534871573506939;-0.09527020287519171;0.01099325643785043;0.08898437324739009;0.050339387279902115;0.0944045023202651;-0.08785240738717173;-0.06200698829810112;-0.06221489042151127;-0.06570468412993413;0.0683764987983625;0.012979025061150534;0.0816294792966239;0.006216645693238029;0.0475712333957522;-0.02384110355444488;0.01954633196296593;0.05838084986723702;0.08652974376474987;0.05381530001484974;-0.062291495319998474;-0.03966575829066121;0.0829223754914008;0.012401327103498727;0.07609173244802447;0.025322664985832022;-0.013011556047390932;0.017421581780929896;-0.06596264293497539;0.022431529597278038;0.04231061474010345;0.0846420786936915;0.03215908214424951;0.04557195393358235;-0.07869693233313334;-0.0564674522529032;0.07359302817504743;0.03236099209319637;0.028588474154704474;-0.07555371734831987;-0.03424560369774868;-0.06682929447551852;-0.09577205252381785;-0.046105829116818514;-0.08682182264216581;-0.08090277403159661;-0.05119292968255989;0.09637121383959785;0.07268533502960495;-0.012672349785147419;0.013670326376415937;-0.08345465778185124;0.07402997539296591;0.07335905578704632;-0.047864851714095914;0.05221985553459263;0.0523470939957906;-0.08824940186388026;0.01130596592121566;-0.013667520483973822;-0.0868654545883248;5.661210681789514E-4;-0.040852242628515036;0.08535552789171505;-0.04383306153450677;-0.08060866241359464;0.08776745196495034;-0.06818678271654977;-0.07834679469405498;-0.07321383222824003
-0.08860917102221232;0.020233779694619217;-0.009886280479923237;0.020259390838120672;0.08631153110360756;0.008705554128416032;0.06686678827433792;0.08032933537781153;0.020127805182784703;-0.0776921815417032;0.012678557100028881;-0.060039119839708756;0.008871725217592122;-0.009961347559292386;-0.055955743687795725;0.021645648126525738;-0.056825249384437074;-0.03653625722780918;-0.08026703832703277;-0.03338127210290594;0.05840240073984848;0.013161536773492771;0.05464191160594309;0.044181991257737585;0.06873001733525769;0.028141775951986914;-0.042329318021984766;0.07383045393216131;-0.07857938693106448;-0.04623404704821554;-0.022760592772081728;-0.08114519087024277;-0.06489518967357935;0.09529982598319042;0.05623944485289334;-0.08268017134720214;0.044651990667327196;0.08707966557969149;0.0476188129178719;-0.0952052341771542;0.06526088872130259;0.08137554251257961;-0.07753107921186597;-0.04706137164760944;-0.09031320998018011;0.04638637103554194;0.014393028244520906;-9.803695606987323E-4;-0.05493834649424998;0.07940319438052804;0.0871011184676693;-0.026325283087514514;-0.04044744860479008;-0.060971447199366494;-0.01341027408251079;0.04769165303741246;-0.07585717149300958;-0.02055846303982993;-0.05507051915456205;0.01332273199524936;0.08110943443205726;-0.06995051547709895;0.039597145855467086;-0.008384361723048045;0.06830906141592702;-0.09453096995069461;0.08045290836900351;0.01447366366278531;-0.0028254035635260077;0.053630652526958394;0.09587793023133104;-0.03136598897432852;0.04236263823117262;-0.046097491474208496;0.02025097742948123;-0.09152056174887091;-0.027718198808769842;0.062480819563082435;-0.053142720133018996;0.04557508845505137;-0.047729441098710204;-0.0311042753731519;0.0034866049807392024;0.005048942936892092;0.08598256006935429;-0.024666970181196762;-0.06760829584498618;0.0024108394637231134;-0.07442372962952162;-0.060426143387557654;0.011942405055430913;0.03913159935402899;-0.02240500525836206;0.032705736752532105;0.04422453014104938;0.04128035936786084;0.058962261590810555;0.05436033263772108;-0.049003004428596286;0.07274478311789712;0.016306733702034032;0.021084373144401286;0.0698345368211436;-0.056964681654780504;0.011869791374280195;0.09755219423476122;-0.07705254801779055;0.09940136599720686;-0.09946196362929327;-0.02432044464543963;0.04308388475845304;0.043963627963392954;-0.024918000158633213;-0.07669976949056889;-0.01591572207602951;0.04879358669394698;-0.05952855939255482;-0.0780817752071747;-0.08192841660605271;0.05534758278885307;-0.006823362913522479;-0.007849837412069419;0.02692498361408252;-0.06061048345892857;-0.0723458413123621;-0.034176079919958594;0.03259882559775909;-0.0014872532606822891;0.06975467918847683;0.005301090047292817;0.0790126823871434;-0.02340159792604664;-0.05442054352124144;0.09344249333586915;-0.02234764714018664;-0.021976237800145862;-0.06564891842205475;-0.07826250474430703;-0.0403141815246699;0.044161056908077534;-0.07484666227289204;0.08946944172161223;-0.06068785658657734;-0.034316563498115876;-6.611524492010357E-5;0.09339103970858861;0.08622538128431778;0.08642165193420245;-0.0010473256845520834;0.035235204925699815;0.029489680567805876;0.017991264413988378;0.08989798644487154;-0.09651166049193977;0.07078576248532983;-0.07086293416735007;-0.04181887622721958;0.09620456842800376;-0.028096982452705352;-2.8231985108444213E-4;-0.03654024802989679;-0.05675888350596606;-4.8438435523907863E-4;-0.06351990127564555;-0.03377095506763368;-0.04085349018044229;-0.040305066633911604;-0.06374969964629487;-0.08164121562061402;0.012034803396277466;-0.06472515062001102;-0.048107210063516016;-0.06725633787784682;-0.07086929300998657;-0.048899638236348665;-0.03263163036905635;-2.2693663632003536E-4;0.07627196822341356;0.03535410333200431;0.020446066704342417;0.00211573795753843;-0.05349307225977265;-0.08043054819539489;-0.07489831951112413;-0.005646289576477434;-0.027973216220662248;-0.07439711586292806;0.0403619960798042;0.06028900065028936;0.03402361350962879;0.02475237809321776;0.008330231422454565;0.03828563253377998;0.0866667629820205;0.022372667474687774;-0.05864509587910632
0.013798572492500716;-0.06575814855621172;-0.07924773334307698;0.07678083690852247;-0.08171970270220469;-0.09540196197085478;-0.05631881341258789;0.03744755863683846;0.04494464989976024;-0.05259899274129747;0.06805240958326736;-0.06292302165081687;-0.005593109652366507;-0.04770958846385709;0.0010041433143836154;0.05191872277657608;0.09700768912298305;0.029892292103368884;-0.034475947491668296;0.04349811123667105;-0.07633190244851687;-0.07226152591764815;0.01310063206955478;-0.03796169595275017;0.09341136142413031;0.06349645392077866;0.06892100999741221;0.08610471310342938;0.013226761294799674;0.049514973077495944;-0.06672149762436055;0.06124634495591219;0.044739473710744965;0.055541900781573866;0.012267328841013808;-0.011114710979178669;0.08218968468868845;-0.08942726516520948;0.03150590121098085;0.08643211711387447;0.047513191440209185;0.08013948990386333;-0.0014557233413173137;0.09058159685844225;-0.03914522216218468;-0.02804862606329872;0.0227752669739308;-0.09203045139435584;0.028634725515985726;0.020650201916592142;0.07608291010640211;-0.06915162685754878;0.006327884096337291;0.0815450157837431;-0.01687399410886374;-0.06983472522590545;-0.06059620236499348;0.023542004115418;0.06706843302485221;-0.08559625427103251;0.06341543425054005;0.053087333467569636;-0.055267869875096756;-2.2448310816583494E-4;-0.046986905017698026;0.023792099916746287;-0.03543736690307042;-0.02417336053707589;-0.050300743874136924;-0.009489894512769007;-0.08853893990617101;0.07024805353844649;0.06942898551866725;-0.048009148132399426;0.0644506505651937;0.01765740127155968;-0.006300215585453711;0.09283155223648296;0.0863098747322206;-0.0806544318702779;-0.018436257989638327;0.08330362757104445;-0.051281720339214076;-0.055542107251587994;0.005033838779154282;-0.0752692751637498;-0.04787472074228408;0.06780656142263158;-0.09335449418649706;0.03844675902728323;0.08646613527064201;-0.03451268010963844;-0.09452665831191734;-0.01203584195347232;0.09701348327554218;0.09670013479390244;-0.06330773312564217;-0.0031660324318258243;0.06906681247885382;0.08865001675115047;0.09981112764702443;0.07878108318356408;-0.07415372183966258;0.011130846526994406;-0.0880038986109961;-0.06795058342693278;-0.0541285435543794;-0.021628542855726837;-0.0845598517727237;-0.033506609575130394;0.04926956167826671;-0.05205003670338651;0.07152388844926849;-0.07019632291152039;-0.02312819083511604;5.875437203180234E-5;0.08955231247171377;-0.021643317378507512;-0.008379441442777066;-0.024870763930131615;-0.015859182846124087;0.09852887135753871;-0.03127586880742242;-0.07619814394157275;-0.067136835738698;-0.07408146003535232;-0.09084003738389773;-0.019546395430402555;-0.08543713472142561;0.03276920338577377;0.010541167704598425;0.009971740256278588;0.04876876288284243;0.05799039872090389;0.060025298334776434;0.09718893418699506;0.027944538632432153;0.03952316390093391;0.07585843925725652;0.04937180649519651;-0.06315913443719076;-0.024600858968729433;0.01731168426238386;-0.035618865645230716;0.08700815203185366;-0.01230635881484654;0.007181084723838785;-0.01940122460861546;0.059566782678324104;0.09267478855757771;0.0666863482996263;-0.030557134914027922;-0.054379206501989935;0.0908021938447042;0.049517529329463794;-0.04273073186584835;0.0012401102083680893;0.08183041038253552;0.0799430161579325;0.07068409873334708;-0.007274638612288747;-0.016876272573531192;-0.05069376642993111;-0.012231613079309755;-0.002091434404984799;-0.01660935460255268;0.0059025304817550694;0.0474427690063105;-0.049468197347631374;0.09939783839695465;0.08514172292201647;-0.0798234891326287;-0.03271475666350447;-0.08017506680731455;-0.02993408418582122;0.07547176684982973;0.08087490170194081;0.01827308080402809;-0.05329377285614874;-0.004969432625650708;0.017529455387111703;-0.003458165686606132;0.024426120232235643;-0.024761447524782557;-0.09635522957974699;0.0796403550621951;-0.07168689625527867;0.0385760307246317;0.06380348013639711;0.025600606911217266;0.03884468310477582;-0.06920641496742197;-0.018803588839675617;0.03601173527636928;0.05346834014832308;0.01916585872057397
0.03151142527567469;-0.04270366726233091;0.075399635795212;-0.07313612055194108;-0.02735555186820264;-0.05189902522191206;0.0968563612809479;-0.06053728698372984;-0.02487352084942676;-0.045225170454603815;0.03711081174629621;0.0018278963859918174;0.011949445202702955;-0.015238135271913311;0.02015642966191053;0.08710059497264572;0.09151280210125898;0.09683356982726243;0.03244885935820194;0.06422802270501274;-0.08629808404153066;0.037440812119062666;0.0880958393929617;-0.08353776475685798;0.056648244472089104;-0.055935066143407666;-0.052965825669794575;0.0704769184037029;-0.03948961705435366;-0.09070020733897224;0.08114617771392027;0.08422845087318606;-0.03534572756745284;0.05349796182420061;-0.03606792085009025;0.011413947191704715;0.07589965303801402;0.08916597186739184;0.07126890767519273;0.01135572020448336;-0.001960796645452234;-0.02310511017781869;0.02395038146368708;0.005367959231273978;0.03662561965894867;-0.029535753318274877;0.0771165232426721;-0.005861770399537128;0.008061112516461424;-0.07214125079097639;0.06734564348263106;0.04538267447766081;0.028312813932010544;0.025288927947650225;-0.03490449196605737;-0.06298934728527494;0.03411659185510135;-0.047091770830590934;-0.05165556428127465;-0.0017391050698542382;0.09832096035933008;0.09377085629494755;0.012697368372792894;0.029747890986847547;0.04106166442149389;0.09167605965151554;-0.03611430290085153;-0.09691614766334787;-0.09025321854850084;-0.001103841666719882;5.039882522394346E-4;-0.058281959442251854;0.003371051652952234;0.061387238174820724;-0.0120093717646194;0.06686187347016087;0.05046732329982129;-0.05306708066465607;-0.050726457379606155;-0.04415516633953109;-0.08495791331353778;0.050773213149966995;0.05316620860259408;-0.0950273647528215;0.0011309943605626593;0.02362201953398517;0.06851321210902725;-0.0850641907522317;-0.04585050086189449;0.058578411278672915;0.0702486824496068;-0.0759566934545739;-0.08399734350271607;-0.05371162107734828;-0.06705499732561082;-0.09696757038005298;0.08095732732062669;0.06181528277001491;0.0280932427756794;0.09493274617298697;0.02056894713984958;0.0820288621540691;-0.04672915080485676;0.03443846486951935;-0.0015057734627630104;-0.05107587769903821;0.06451613749502963;-0.0865299238021772;0.07981010157073651;-0.007866910083376102;0.05764329010569835;-0.02691719322814079;0.05449837428946422;0.0029939273743362638;0.049895482259641105;0.09660584330326413;0.041044533173393516;0.012893424774622325;-0.04975201997335135;0.05487301754715604;-0.08636171574949066;-0.029799428626403945;-0.025163000409108058;-0.08836798563730593;0.005252424261996208;0.03296033165830739;-0.036595766406713345;-0.0643041220591786;0.07891572835180374;-0.0013815558108678794;0.08331097624116049;-0.01387289616434928;-0.06921543702439353;0.07739945102525977;-0.030410083382266542;-0.062278880651724204;-0.008842937557050831;-0.017438032644421148;-0.057333372856504375;0.09628261510357367;-0.07663730773287321;-0.04139346727499822;0.06979690013739256;-0.0833353523553758;0.08549914742215473;0.0976130724998403;0.09193017724201799;0.08126708589683945;0.016277587098548874;-0.09576343290168676;0.024623293647491912;-0.07733251632171492;0.033776183649094405;-0.038509008075200774;-0.0402071221266537;0.0812840048679305;-0.005308813032352644;-0.0776967014040181;0.044508811651218866;-0.022553303203357217;0.051713634146022064;-0.094079408310556;-0.006304798063510655;-0.05302019845446922;0.06794892388169643;-0.08639458476487039;0.00551938402696861;-0.05962546598895389;-1.6441430849387095E-4;0.0946554604098134;-0.008586498423276592;-0.08214181880525827;0.04380859227486958;-0.008364354628563553;0.007087386697952794;0.08614202563957177;0.0569916651980919;0.07281208695950647;0.07655534430868957;-0.08264291420563448;-0.09150802897964226;-0.07987098214749877;0.03811367909961044;0.06666332516917142;-0.00459009928861058;-0.017328732721532278;0.009369782992023998;0.06224445877913362;-0.03353458858646843;0.028406518520776775;-0.03216233749258868;-0.020122964136584848;-0.06381832130543483;-0.06889693398178574;-0.02572115139955418;0.033989164793286175
-0.05614425120132105;0.014670421483059942;-0.07211826503475921;-0.08189930307916893;-0.08591493078343776;0.04377158797115638;0.03553643328076442;0.009763204850476104;-0.09059236302329782;0.09740752662485869;0.0018762331973185137;0.018594841152478628;0.030652815249290866;-0.008724265489550256;-0.09757907434157892;-0.09926845910649909;-0.08311129372032644;0.025056556454642248;-0.010928758285811746;0.08899267032388533;0.024391181696191852;0.0223823057862758;0.09536772863312323;0.09528580276917106;-0.07715132127769575;-0.09590404283265803;0.058341456353279114;-0.06974820261711268;-0.06294408881641728;-0.010492422288611497;0.054448020131070224;-0.04512195590967838;-0.016361237859928685;0.055708376383618;-0.04100965015575937;-0.07021587294952221;0.0048916118772918404;-0.09839628700829242;-0.018400090590928925;-0.03988911890496316;-0.014402464299788392;-0.03882197181841123;-0.09524007948313228;-0.05257971921716438;-0.046259284422486974;-0.010393827512299975;0.05801832702531115;0.054740209287301334;0.012309599521495754;0.006177234268816029;0.09745225833077281;-0.03313530430383245;-0.07307163735317473;-0.08040156599173456;-0.07189017657619041;-0.014753220184917468;-0.09715677685926719;-0.015901625737016145;-0.09343085473037237;0.03529772150614935;-0.07517061370302001;0.038850245917628146;-0.008581434926507023;0.08363285868226486;0.004873237249712184;-0.031412506304070484;-0.028623963962158078;0.063780927029986;0.08502368871440766;-0.01011436525990006;0.09392980592693925;-0.008899738818746977;-0.023404553346098922;0.01543581910074146;-0.05820347267597628;-0.08887811185118799;-0.018053766295889534;0.07773700292169405;0.06015698455891813;0.07026595335022617;-0.05866120155420851;0.003985430286698705;0.024543713723153143;0.023854691130193784;-0.025062056138455358;0.025541448016602686;-0.042581163491509005;-0.09642849162848784;-0.05121847477031403;-0.021794632526026675;-0.04910544502690806;-0.04500757828166087;0.08360369267948786;0.003635673730189165;0.03371264089235798;-0.0744573202494786;-0.05332242065279738;-0.0024056526030521025;0.03251360044329593;-0.06579215144019845;-0.08061628910806587;0.06730565537894598;-0.07941006432108111;0.08655530915625156;-0.08300044739168498;-0.04193354603507926;0.02173225662611411;-0.08790137945388335;0.05224457809050237;-0.01165265175731664;-0.05755908543194859;0.0957638143715254;0.08040434532314317;0.09297593735591575;-0.057310123486684496;-0.04880685657220951;0.04139614722760654;-0.08440534051607228;0.023593778771311857;0.04084855421012773;-0.07707215380546384;-0.08556255012053343;-0.0902570822970109;0.08635346869212276;0.008940547709900645;-0.05042898765706978;-0.0653647359118574;0.03223828455656472;0.04881487345561816;0.005097940400942885;-4.5158317298081563E-4;0.02723136750986463;0.08535960426543238;-0.03357936761381852;0.06935862402337253;-0.03053605274868472;-0.08660940142079716;-0.07948357609542041;0.09322802267393268;-0.07456608172715373;-0.09425314545907755;0.07627589792787767;-0.006254724069450629;-0.022699938888405574;-0.06012024788292032;-0.08769201045119189;0.05501886688976004;0.07905477009676085;-0.014309516758905974;-0.04878301575998578;0.05838643115952488;-0.09065002381799225;-0.025920189355664022;0.03220812223001937;0.0638174654578737;0.09722743316298169;0.05571333341472681;-0.0920199800090859;0.015750890860858388;-0.03326878568848317;0.08079444201497563;0.027213765083350494;-0.0359770180054898;0.09735672400092915;0.0831763529324959;0.08057004364239592;0.033705267330698785;-0.07048285924018177;-0.06406653100124032;0.08595723816976017;-0.04791399417219531;-0.04231524318200162;-0.039448376649775324;0.06793499761689797;-0.05330704887049094;-0.05140872811405844;-0.08181443854969539;-0.053530647138866266;-0.03483079877098223;0.09784760748844884;0.08897130387063834;0.09185699283046775;0.035977942297262616;0.09557040550764112;0.054169960293730196;-0.07451209279185961;-0.011674026686796915;-0.08992103766788756;-0.06404132813008281;-0.04978287538370046;0.08035995679555838;-0.08154716720921303;0.020973433043080386;0.07946787349037754;-0.05339651835397868;0.013716996013494742
0.09624757035039497;-0.09920993779608225;0.0687669011673103;-0.09935205508280016;0.05997875073076439;-0.04255053825659177;0.09847621412917462;-0.044329279343332154;0.034596463157211266;0.0607246763874105;0.01613108929155478;-0.028956615388341003;-0.09410909764448211;0.05594036897211102;0.09701637322501253;0.02950205199664599;-0.060496619991943404;-0.043133035199285685;-0.026044629780045722;0.06276609302943056;0.08486731437039041;-0.06403156788238146;-0.064792681614778;-0.06422015490654426;-0.033272004612813585;-0.0879185157009411;-0.023024535023381837;-0.031706581523677155;-0.01434164460274831;0.012460927432038887;0.04180635101682387;0.056362173741797056;0.0015270652383143346;0.0027275990384032778;-0.0826752516369558;-0.011429417671680459;-0.04233570614945688;0.07610680138346168;0.04416304263701984;-0.0347369430713242;-0.08149046743721339;-0.027553262639304313;-0.012392323207745151;-0.07620924048011923;-0.06018494726823991;0.057858041472771765;-0.03560059999930616;0.04875992882364594;-0.03198255311850706;-0.06258303243309477;-0.01571175726480556;0.003493989991808416;-0.025821060291795678;-0.0037735085437176907;0.06535805444106643;-0.04260194583607466;-0.03206091533716192;-0.03176893964631715;0.012799533123823939;0.0036411829381140653;0.00820665054389233;0.017532267201645982;0.012724836262531333;0.062548198930069;0.029860405244416965;0.08355438226827014;-0.01421921727520789;0.04831948835731481;0.039516767209526404;-0.010739858253950962;0.06973184841048352;-0.05982624927611746;-0.001538858566133866;0.040718807329024165;-0.044151900334100214;0.043735239633066525;-0.09287098851348861;-0.043319930804808005;0.0908473957868185;-0.04553642360748172;0.03306178001594018;-0.04159109675067499;-0.02569486358993725;-0.05784921513707297;0.08305150072389755;-0.07711190466734363;-0.06914102466700348;0.06398683664241109;0.010227661315828196;0.0565966583883884;0.01719995339444727;0.08342136446655965;0.06812825613242021;-0.017576027900343336;-0.06424443745005459;0.023026040716646975;0.07633646049633977;0.04888101331733127;-0.0298656826629546;-0.08821162187585688;0.04605322964602582;0.06862164483862288;0.031815490473778574;7.445593893067315E-4;-0.07098469492905057;-0.02761159797074833;-0.08676829621989386;0.015585220928040044;0.0994570565216876;0.024848924990264254;-0.020693859614674848;0.09084486593933155;0.056353754057425876;0.09039058307294764;-0.002329773498820284;0.08751199454558753;-0.05802716005896413;-0.040207451570001586;0.007201664276526548;0.03437375166965956;0.012798927526706264;-0.04720397922666682;0.055186761871074935;0.05313528966733885;-0.029812820745045612;0.09694492766304774;0.09532509097203082;-0.07166923671756137;0.060638992600231506;-0.0503289672568166;-0.06804146301691319;0.06526932914734285;0.08938269300037158;-0.021551224287654464;0.02032092417033031;-0.05726388983381985;-0.044018691938551506;-0.05705301379899235;-0.011731641264289161;-0.08810528569661072;0.016978300484461722;-0.06654408263086534;-0.06813538440478722;-0.08118569470306346;-0.09186859765774323;0.011469784631657487;0.05535984657051701;0.03527100566927849;0.01757353243699518;-0.028843494126463767;0.07551506771547054;-0.029050252423767978;-0.008720863776063098;-0.005452145711221434;-0.00911119120550341;0.00989940897924986;0.07350304064873689;-0.09136511530095129;-0.07138352081181956;0.06507057338282271;-0.06260180031863534;-0.03084503702720419;0.024377070054258626;-0.02300818891232788;-0.0551923260458205;-0.006291614476054669;0.06565572771663528;-0.0038830520918879674;0.08926525993737724;0.045944046310870956;-0.06592497748827653;-0.01689760362900479;0.022528262164304994;-0.06709474114983756;-0.08051840099211055;0.03725007487846649;-0.05749502576891122;-0.08077168414200714;-0.05336092731187614;0.020578146429595323;-0.07077157088593909;0.08473802984276271;0.05479205801111717;-0.016541778105873067;-0.04443284394518479;0.056085927063652063;-0.09896970622113628;0.017484398502216086;0.070652637525006;0.02842851906393365;0.020295857710700083;-0.03778410157307051;-0.04345771398833625;0.05974441138780193;0.06804056120428911;0.07466176988098608
-0.007574232523698196;-0.031759231479459346;0.09595469804651977;0.03385258056407947;-0.07427832458004319;-0.007598865780718889;0.06685230089487212;0.09757068483447692;0.045700426714157055;0.08357810524861509;-0.0982877950966009;0.0542871091093787;-0.017191479989854666;0.09263607377748287;-0.02996175122473317;0.02057974725178835;-0.08434174564023456;-0.014999341150281925;0.08411598197530176;-0.07721592384700415;0.05768603114097534;-0.027426890365244525;-0.06159262968275186;0.07135418508431188;0.016771530984785385;0.08631950410779998;-0.052761028826436164;-0.012611567480575153;-0.026350982518869942;0.029946087728113996;-0.02289678207341292;-0.026999311225685912;0.008731212073138844;-0.0470762742700134;-0.05569361220418814;0.030694576070423862;-0.077994971412811;0.060225947355294684;0.05436100467397517;0.031624805671997824;-0.06305220232404282;-0.06350335064439805;-0.0035655413257392743;-0.09139386013846479;-0.043048577106686615;-0.09603488705126073;0.07432958719843327;-0.09304279482039853;-0.04846885515236093;0.05627747180186554;0.054887239950858174;-0.03525720771695655;-0.010365452460578004;0.014515437612656834;0.045364658645059175;-0.08629495930081177;0.00865557159485468;-0.06297544593791679;-0.026742240910752862;-0.006849780989861151;0.010297295695718217;0.08127589972663407;0.03519938469868414;-0.048715361813933704;0.008216425981686884;0.06383662641604756;0.0059796787948580565;-0.028030411537668345;-0.08257870115420916;0.09362638579454147;-0.045601271559003426;0.00959182232111104;0.07168447955355631;0.06398816171788566;0.09957584517227577;0.0407227704346641;-0.017230017566754283;0.08070370272767743;0.059503707523516275;0.048466040068472244;-0.08593578409489103;-0.02406485315043956;-0.006950152244264096;0.0438694829408951;0.03123878554745846;0.012176181053104695;-0.08272814528404948;0.09850461498367921;-0.08613750872611317;-0.08435249308485158;-0.006173095431936976;0.013292686105036866;0.06441871493887721;-0.004827001174924961;0.021420102970574395;0.08088336207408492;-0.06502638436678249;4.2447027862771436E-4;-0.05434964965436644;0.012368453275714716;-0.09322044062856116;-0.04747539289799321;-0.09672359966516275;0.0938397520353976;0.0043872223876677136;0.040349061965073735;-0.04516010345658759;0.01427653836194942;-0.09662102218410468;0.01747039719772421;0.0277462117778442;-0.036525036555281415;-3.748743537757837E-4;-0.042461979021422125;0.09131797553031687;-0.0627920425183161;-0.051996306385701324;-0.07001009138696393;0.01600025647628242;-0.09346897187488863;-0.05018653685891077;-0.05665661878914996;-0.0691895893953535;0.00912574282689349;-0.029350883102082767;-0.030086152503534774;-0.013710334062352642;0.0027993054441087795;0.004296292474815819;0.013661953379291741;0.05462762738228519;0.08473522408950401;0.06324352755105184;0.011971105761729744;0.05429484147088065;0.0248165697373377;-0.027303003121801547;0.0725089730004751;0.07343272418333568;-0.012680024019552566;0.0725232050780181;-0.06207191799677403;0.08441423363517825;0.02250494214931953;-0.009666354190096912;0.044012159288394526;-0.008597450085332345;-0.0019002143040364877;-0.06103535488365626;0.09097654947141023;0.03339935644975128;-0.08958809213074136;-0.08710535875172282;0.08298242763168492;-0.02281184971259291;0.06576681611637963;-0.08931984194363635;-0.09247371268728875;0.07774219790053691;-0.04479328587112999;0.09428086504178237;-0.07578247710908492;0.05808076215928665;-0.04114374548351538;0.01118312213059676;-0.08844124837169198;-0.03377866494370639;-0.08891067413493488;0.05152054939001291;0.08069479679864028;-0.09621039491782445;0.03360766578609614;-0.010070919365157499;-0.09330194528953065;0.08901301218762608;7.682537860570215E-4;-0.02933679347885157;0.050809416074832275;-0.08376222051518872;-0.060026640688553345;0.03453900183798092;0.05115544407417158;0.00477337844266465;-0.01033653100339331;0.0575587487407212;-0.05518578887067396;0.0917824415948971;0.03842991550029795;-0.026389110247702074;-0.049296419064871345;0.01709819264677699;0.05099067272737129;-0.012571821869086786;-0.00938254952621495;-0.02773443397929605;-0.04975076078406196
-0.05097396101065441;-0.045163120212591126;0.04176619625038508;-0.03061683338348431;-0.04286803633578105;0.029094764125869227;0.05130153017133429;-0.08611467664412678;-0.013343831933240763;0.0912740850521345;0.05617245156145209;0.08070755483564482;0.09404246861941132;-0.04092851526316928;0.05220774053870203;0.07013296020026635;-0.055622321802559084;-0.07604058351410373;0.07235785671752579;-0.0042704422191117;0.02542663100026546;-0.05786835388350156;-0.056015406865084376;0.048714707445572936;-0.03370071466242382;0.06971850849421096;0.025041103241463525;0.005286170111311564;0.06224510934325034;0.027409879574670393;0.011751013440092772;0.07895230631529007;0.02210929487663589;-0.04127467248284203;0.01605931892816484;-0.08537958843695348;-0.09872577374525549;-0.09347749413259665;-0.051958225723022555;0.0971788303510637;-0.039551246665215214;0.07393645803541271;0.006623684258178275;-0.09546505942578135;-5.431002877553243E-4;-0.04120601282870311;-0.018627078095993094;-0.02645218855009826;-0.04478330570321598;-0.045351149533270886;0.09879618908958596;0.06702073891592839;0.02438880655327222;-0.0030649109716744116;-0.09151851658877451;0.030895572576905728;0.07371383066698309;0.09933739318888299;-0.002406124061438364;-0.08698282836296561;0.03484608888585197;-0.026671087786032263;-0.05335423664104913;0.07831304501170766;-0.05446918042259481;-0.04707148330193021;0.09512674703081855;-4.0373952351235864E-5;0.09526079569020438;-0.042918889801486;-0.027507542122113884;0.03208332190976629;-0.03891259117984598;0.013666065478898176;0.06817562331981386;0.07677101169734918;0.07805030627053186;-0.05800949271139946;-0.03630319076603576;0.04664115004078745;0.0787287595192668;-0.05527428138933728;-0.06938379433038389;-0.006046661515936691;0.05770704852594655;0.09559638394501815;-0.09001788896699461;-0.07178933636051305;-0.0307149114896466;0.025734196176153884;-0.06790445555808407;0.07643567720137295;-0.04944529643487625;-0.09054135712627415;-0.09017524720419744;0.05377760246409563;0.07700098027744198;-0.0706504958145185;-0.05563276227945622;-0.09316533249387181;-0.09592285444126519;-0.03917281055865407;0.019271100667670654;0.06805224200190296;0.025740564069435368;0.05805844167012503;0.026691548021697903;-0.08321607321204856;-0.010273579887046913;0.045856675937075486;0.06927242534481678;0.08107927940735568;0.04937481216828346;-0.07365233114671275;-0.08829327058896014;0.03398851747194079;0.003115943002861249;0.0945229179003175;-0.08205583644924608;-0.060849029832767944;-0.02474276907280279;-0.07659544441858457;0.0031777593462094106;0.08266077706232089;0.02550522403916955;-0.07260276216578834;0.054155740536393104;-0.008320281154726203;-0.06030582180073168;0.04150404782820591;-0.07297118366025238;0.08499375637520187;0.050482356021602254;-0.035565061273877915;-0.08114280327633193;0.026686399529286586;0.0643160474823817;0.0052378474518785245;-0.07293435737331602;0.061328479371110606;0.029750458813420255;0.04593421484932758;-0.039451089958678014;0.09756064956622607;-0.027744404385848354;0.08674209384320475;0.04679413442189226;-0.023328680790712458;-0.05807556379038914;-0.024178290282448084;0.0913005870372515;0.013749389856539201;0.07303964093172441;-0.057920140963646775;0.08874138388808978;-0.06878227371384511;-0.06175580459992247;0.04742100035437283;0.059725881371263334;-0.08197020109800024;-0.0048996076610994255;0.05393467323224288;-0.0073146470230720795;-0.057461461195043945;0.06911064348699278;0.061860195397406365;-0.09268122150003143;0.02302302815097894;-0.0051873354923739345;0.015771316310545;-0.07580043729352681;-0.08291485408835685;-0.05464932506735958;-7.249918443087144E-4;-0.07544193507546644;0.029604899246435;0.020963214324331195;-0.05737984066474973;0.014918922903230075;0.058669753315522016;-0.061882587757153766;-0.047036554053429575;-0.02681387338874204;-1.302231567526374E-4;-0.03644156258311071;-0.05635869495901307;-0.05406697810298773;0.011576996097757017;-0.028668025142916026;-0.013351578303802361;0.09106827723652497;-0.09269601573995088;0.06587674182906117;0.041624726368387155;0.015713109975290157;0.08596314713613004
0.010572947653272546;0.02500451406658577;-0.0539610392961257;-0.06317512632420304;-0.07132823831772571;-0.0254172719683899;-0.01602098587106604;-0.0368008386211935;0.0023199298365956522;-0.06239482237702405;-0.04485905635187557;0.057341922606580525;-0.014567303400834966;-0.03540908620495846;0.032912261109348834;-0.07118615537136186;0.06745726260467025;0.02644655628875403;-0.06433608759024811;0.03949601158627811;-0.02239193063116536;-0.010966028968766972;0.03712160609578555;-0.06930665614261103;0.0029443118880463637;-0.022795752204706227;0.004388552941551244;-0.058766797367503745;0.008699060968377734;-0.060587549233247634;-0.016232685971719563;0.010193261122458039;-0.004441513485248766;-0.015620781432447453;0.09144251471973888;-0.06613077442453563;0.006128767574697852;-0.09713313776141073;0.0342503059683901;-0.09618043126602378;-0.09838274664108058;0.01048911691501933;0.08517438033489097;-0.008699048401813347;0.06979356997360722;0.05157530636138699;-0.031127430302761813;0.06313469181984419;0.09658542071930487;-0.01053873109454087;0.07445200756220874;0.015021065535870945;0.036202860162445644;0.0751808613298999;0.005874957343852752;-0.00945512813840492;-0.05152608576518661;0.03438354965675755;0.0047914087998681965;0.017592238634678584;0.03711344817355;-0.0585949703064336;0.036258711138782956;0.03862516989806891;0.01893631807296836;-0.04023053938209094;-0.08527755920236764;0.037236996926537286;0.08156479109679712;0.020003476518874505;-0.03420310179949791;0.07063829598547183;-0.054030592811436455;0.07849358024247918;-0.031202424637272214;-0.0938004115898224;-0.05977860137900999;0.05522028005955831;-0.09435792988238832;0.029903547614884812;0.012123950838996533;0.08355368137268032;-0.04635001924820488;0.04553605760618007;0.06092857942405233;-0.0781030173351687;0.0029363327047022547;-0.08432790715037197;0.05213198484133086;0.0748157766147077;-0.04649281705419957;-0.0910112125371744;0.09438783653820049;-0.04960732920372422;-0.047169859795230897;-0.08683515636935896;0.0038568968325730923;0.040898300086856215;-0.02843348583502546;-0.05139822172470228;0.05885815201598138;0.055471343571387555;0.08331598888522582;0.07542920120588567;0.056472446022290734;-0.043648269965568434;-0.08636135386712647;0.024732892302590542;0.022789369185564665;-0.045687184904327466;-0.04571665036761177;0.004670858037170489;-2.2290104803954214E-4;-0.09571017655992563;4.654556797631104E-4;0.033119323313858084;0.03429398583686721;0.008803405530946579;0.06220100108042623;0.03071698135377146;0.028549819141450022;0.08462881629734184;-0.07488157964336042;-0.02834746982062833;0.07636355023562194;0.07726265275068933;0.09183308052791425;0.03426698803822159;-0.09414635107634461;0.018090747265120832;-0.07811614725514848;-0.0804810898709013;0.07673595393545823;0.010762336783006976;0.0063950603715777765;-0.087412845942743;0.03919327648199308;-0.09387280272404358;-0.03695879161446254;0.05136242546209488;0.05131984457754579;0.07919400567868712;-0.08244406994253642;-0.0646946529005521;0.073432856356312;-0.043080291385886385;-0.05005930892277506;0.05912546678030425;-0.08991757268410575;0.06224131735664215;-0.07330719530982384;0.08796205857727518;0.05438033156622055;-0.062386929761788036;0.014786430698941741;0.004224185901468738;-0.09569311747179138;-0.009586603504962293;-0.02119576715017249;-0.04902590034889629;0.06694452710750973;0.06293783568226374;0.09953148859962291;0.07271453831137364;-0.0558743419804191;-0.028704516232501018;0.020488453069548718;-0.0883329117410183;-0.09822877130200232;-0.019621833567361205;0.02829091057686789;-0.04389467059510797;0.06523592447367821;-0.01382688625440505;0.003392822349378946;-0.04296693650249009;-0.04573547304071171;0.06204140436769043;-0.06032088026126534;0.03047444328129345;-0.02629663555814321;-0.007813899742890859;-0.07545928764702013;-0.05513056370590297;0.00989964836135064;0.06338550639070037;-0.004522150099884575;-0.04345542334451367;0.04776062385799765;-0.08483147769207029;-0.055057937609679745;-0.09904445433937992;0.01973356950768909;0.05896068374811658;-0.06795908968273531;-0.026625320997598997
0.02550662170146689;-0.03166897637026181;0.0778939101647528;-0.06007694519922027;0.020019610756036504;0.01532140449571577;0.07084201668469492;0.008323375302583286;0.057413003582629546;-0.018058367627625624;-0.011622903161791306;0.05747644891058876;-1.677195796332409E-4;0.01126509415408336;0.054571938964875666;-0.02405940812228506;0.05254395424482902;0.07916137376992205;0.09495539437724199;0.09161987937509655;-0.029391343553758123;-0.034446278671749986;0.025191211405763997;0.08844368999633723;0.09739567412877079;0.08319091061159903;0.015583375413287331;5.46611730439614E-4;-0.05848752303248961;-0.017725442860723;0.010344650846253384;0.050434278564662094;-0.023738305239912827;0.09088448285637996;0.0487291648013862;0.05484730272281124;-0.04547272717002846;0.07399635037692617;-0.06545603706275943;0.060512032934488896;0.07203034853683449;0.09798735291022928;0.031218430363648242;-0.00830659593342467;-0.016815273098932687;0.07287714314621357;-0.07847534593380943;-0.0075582656435216194;-0.02367939208916492;0.01115307707870472;-0.035794219686090686;0.028651883960447405;-0.051165438041221534;-0.010119996810346726;0.004183494340228439;-0.021470254647906556;-0.012137442614449115;0.03189677842137015;0.048679875676020806;0.08478757439478016;-0.04163784759040119;-0.06774706806933828;0.008502828391793019;0.06786627411325721;-0.07197125538316029;0.047640722149268566;0.021908480326527993;0.006709333818760335;-0.0827398279404225;-0.060570827734136225;0.027867918267119818;0.08208953442456088;-0.04757735129269321;-0.0849915820342738;-0.06377031008105308;0.04721634363136765;-0.07803953426227744;-0.05249584421973777;-0.0458163624866697;0.041328194450207634;0.08743055519397061;-0.029476486761164863;-0.028404391486002628;0.09420072061432153;0.08533246146610371;-0.05755459568990469;-0.017803300765721605;-0.017021747827036332;0.07064301770542633;-0.04613027922260449;-0.07672527241595398;-0.0025372496401786515;0.09925428564397396;0.01219155549188547;0.053429720839654166;0.045970666752308625;-0.07594775503794199;-0.021131986193774238;0.05611922704228586;-0.008905041916023065;0.08816293221291857;0.05779680785099503;0.05613334849063137;-0.056814067237110556;-0.06106841137486485;0.037327404928311825;0.06680348425734425;0.05909126078397378;-0.042510338318603846;-0.026222965955653432;0.04766270969388703;-0.005328092791040226;0.0013034006328858788;-0.02907456412854026;-0.05455998184557356;-0.05816249197304673;0.09088690199952573;-0.04218621222483472;0.015684400656003114;-0.05567892521420703;0.03690155920902133;0.09627478868423756;-0.02202087990898398;-0.0688604147068052;-0.09984709684159299;0.05997250514846572;-0.05537967397608961;0.03266357469479611;0.004534829363791085;-0.08166790399496078;-0.01920157009932237;0.05144536779007022;-0.018239586965520416;-0.06840893510962023;0.003734587192571276;0.04843216703273187;-0.08324261163451765;0.017305353618476002;-0.09111128077620362;0.07491679849713762;0.08389559506076902;-0.016004951566817624;-0.07673030938803747;-0.068444557309733;0.016752695413487978;0.044216085938617616;0.02904207644380627;0.06800827852106525;-0.062086564125983616;0.01719590452224809;0.07503831548792192;-0.04976451392730801;0.0903370225798111;0.010272549914115373;0.09944882538319919;0.017207677793422846;0.05811593355499728;0.028728259509014614;0.023876919759500098;-0.07523370393185297;-0.05801114543766222;-0.09478976918725829;0.04710935866682203;-0.06840380259660128;0.06375926543719423;-0.03721734899812397;-0.03363262542645;0.02074911944190283;-0.08618960465940938;-0.07024413379345346;0.08446718065385109;0.06988330070139684;-0.07280376346805838;0.00978990070710821;-0.07676704766720506;0.08436108999888178;-0.023672513865156758;0.0773712620459775;0.05666937511862061;-0.010426973578041523;0.002060203074858852;-0.08338655563511586;0.0018148719491525717;-0.05766674830295378;-0.02996585555289835;0.050433141614512816;0.060860770229954175;-0.034082118409546336;-0.06460322924842554;0.017505758616559633;0.09503562654077566;-0.060705627535115214;0.026587955569142896;-0.05399472513912296;0.02891805326207847;-0.021683424692077888
0.01764949041976349;-0.05401474811788101;0.033255447706315444;0.035136690980616;0.04856262319366492;-0.003640857688567034;0.01503007331409667;-0.08818812090463975;-0.025594207229028096;0.03778978143570305;0.055428007935230145;0.035059918229721654;-0.023336099917075415;0.09939939745109724;-0.02046944086087213;0.07134478697498337;0.05380946968586928;0.08506310266334816;-0.08403825640014922;-0.025050335589364467;0.023315117514067382;-0.07584964653683318;-0.08961041278236281;-0.04357866601455143;-0.08645415611137647;-0.04806954409577402;-0.006307023916050675;-0.06525334378143273;-0.09848137762762328;0.026459744805359453;-0.0262300816024139;0.09384820607543304;0.061306013630193446;0.011619592389164393;0.019377089813882836;0.0024628480220616478;-0.07210066087847036;0.06007605656767934;0.03505459635045652;-0.023806522279189113;0.05263629463472255;0.015283431266694264;0.08810404756507106;-0.038499176745288535;-0.07116331643429899;0.01825560205395442;-0.058248075324338094;0.003628692166210354;-0.09992080015476866;0.05268064476005391;0.07304445859651401;-0.07606736426977584;-0.07140884260868828;0.09105565792393391;0.009684184609960594;-0.0231914493992635;-0.002487841821054687;-0.08512960228193307;0.006932463594829394;-0.01760563349614544;0.04833176248641158;-0.026530134350001996;0.003866268288913094;-0.0615555912226363;-0.08640976316746696;0.019077498370190057;0.04769168625318701;0.0032526905296676317;0.0949705923376992;-0.0904377839240502;-0.04451949243938794;0.01122792934217047;0.05819912646212161;-0.09411578811937965;0.09461051099627185;-0.06630038898252999;-0.031289223243927716;0.0077557379150898775;0.006353949294648831;-0.07023897271184086;0.07582462844638893;-0.031095031820215224;-0.028527085675088618;0.0454317227940996;0.06821405229409191;0.01243230085235894;-0.07765568900705469;0.01414845232948507;0.0697448812058585;-0.07289972919760222;-0.05694888325792107;-0.012429844877668544;-0.07770575959550151;-0.03300034740236668;-0.03295910404237812;-0.017090799254865938;0.010951610980295817;-1.1404970644127155E-4;-0.01863369789458147;-0.028522478990581246;-0.07295718817415241;0.05358202157880432;0.07718668543125212;0.052863024491950794;-0.0642933783144096;-0.0048058491315383645;0.048123657956957944;0.060128048790500405;-0.08270712860153218;-0.05550952236258449;-0.06877212644636976;0.023648297191282253;-0.014360192238093553;-0.02935783442501763;-0.0902720237754255;-0.015312769530524656;-0.048672250752610995;0.0506293570835156;-0.04760290019669453;0.09452746157577133;-0.005705108776559123;-0.022034528608186665;0.05128606337553265;-0.03904282696661208;-0.06225953750001452;-0.09800504807691875;-0.062263374603501204;0.011136349293003403;-0.025970813806918444;0.050871164448029166;-0.09399776333043999;0.0283438993060727;-0.016649660726772722;-0.05457727061846767;0.05446767403898636;-0.010166424699201038;-0.09282639743688303;0.04646803205781247;0.0663731213191106;0.08400292611813515;-0.00891701881856699;0.09473936647331269;-0.004887740500513396;-0.08269370671949311;0.09535918461470988;4.2958245562869923E-4;-0.006411982246298381;0.03481924863984279;0.08671988739185552;0.01847578974513693;-0.0672263347341608;-0.026911460364934442;-0.029083649956313545;-0.09395382197150413;-0.008458920872053952;-0.06012188323146799;-0.09657606414949622;2.9751835392137493E-4;-0.03201810571783548;0.07264843312667654;-0.07574681666011818;0.07732263316377394;0.061861578700980274;0.06608271304559551;0.0029470134130937797;0.057308516998276965;0.008510276380033141;-0.021299531848328668;-0.04888104954229007;-0.09372256407983631;-0.09363153300622587;0.029575122465003684;-0.03757400502612012;0.05138488517678855;0.07356955289195075;-0.021600844703629593;-0.02634085746840112;0.07459987864441864;-0.006644512078790243;0.045616720039703074;-0.09432661134076636;-0.02130548968419617;0.06378563351076835;0.07407026654302473;-0.06083175015336968;-0.0701786106382057;0.054113165564125015;-0.04041569162668453;-0.09213116921255567;0.07255907531495004;0.08836729868972315;0.08513591343766522;0.050446554446514524;-0.013842789518061213;0.02609378921717692;-0.01826177501920309
-0.04744227767036611;0.004814555503681525;0.0908700888403203;-0.0911102650395407;-0.0683328320787863;-0.039825198415131505;-0.09087424244844655;0.09841867262932602;-0.03013675429244285;-0.07917348937954183;-0.0350373568080526;0.0377784338412136;-0.01634041065469942;0.001445108358383962;0.05108348552430972;-0.01767350010633921;-0.06518199849088416;0.09331644240842421;0.001601716159387312;0.08084589782748591;0.03251599649831874;0.028333004416112473;0.029419099272791155;0.07454475523269175;0.05472152928933119;0.030155375917691685;-0.04097783760567258;0.08699619084154583;0.025426546828348773;-0.07091685209468786;-0.05503776263513876;-0.03904284315518911;-0.07557003157111906;-0.07871896207388934;0.09694808409435987;-0.08226838671925592;-0.02235005251635369;0.038357507479560043;-0.005605862550204871;0.01571981501987048;-0.02151592893611838;-0.04010521092148625;-0.0335685757050094;-0.03297786125072884;0.024525503818329936;-0.05061924366790822;0.037802310289280855;-0.06555756879826342;0.018981869252621283;-0.0769054107209981;-0.0032757242859263735;-0.024037583954946623;0.08243295189058567;-0.028150114277537483;-0.07227799147440456;0.029735207661199636;0.04810220988303979;0.04710026469496803;-0.029408899042662515;-0.060127336938724275;0.07260625902739129;-0.004235809501302673;0.016070784715816508;0.01177772626591822;0.08418542819422356;0.08222729183243216;-0.0705328439938381;-0.04450038986615841;-0.08829228563449501;-0.028668086027392042;-0.09461764656028254;0.02656607048029247;0.09027736894536306;0.06276538343266178;0.09986936793056828;-0.09402617901562538;-0.07693150208693032;0.0651098193893846;-0.039253979282231226;-0.02550560903258446;-0.005956906839334142;-0.0230819038800002;0.08246588573289176;-0.06882038713493391;-0.027497990191557894;0.0025319202148435804;-0.05114207912113278;-0.01807278276179454;0.027956394547054286;-0.028040262899706736;-0.004789428343623503;0.08119379527649614;0.08259621239559164;-0.04301639481099857;0.020590343485724832;-0.051581258948160305;0.06867151268697247;-0.020234208670039264;-0.08805130194223919;4.495546629767616E-4;-0.07060878238115419;-0.00442256045681258;-0.09651464083489869;-0.05776470198332704;-0.09551682246605485;0.09787313602427922;-0.012099920074808757;-0.05971837153937674;0.07534838576737246;-0.05821313806191167;0.020579010559534233;0.06683736101261159;0.009781290356825886;-0.08877369584193628;-0.08657410229028036;0.04750913017537195;0.04251715168089787;-0.03490593104924998;-0.09803766463772062;0.07097721376959606;0.0554065112609439;-0.010233985346511848;-0.012514543057001032;-0.07328781772280342;-0.02019409445818754;0.057808263454562386;-0.09451457344264513;0.025068628653978242;0.03381294667337892;0.047016259220427015;-0.04781084727952254;-0.07614132164539411;-0.07173692865052683;0.009210613854548577;-0.08698915697999939;0.036484754250347556;-0.07205578562884685;0.09482615013302154;-0.02014614874996383;0.028937368568577537;-0.06172525850570783;-0.06281791884952484;-0.08137743185113322;0.026440490596993188;-0.09727082966334684;-0.020577185562498462;0.05396699379827205;-0.05474645336335631;-0.05741498202199746;0.08747044737905987;0.07519678647187503;0.04111554425151137;0.0481034722010589;-0.06606841195120194;0.03546561884309471;-0.07695639161779477;-0.060954618555213294;0.06075270389790874;0.015740725070897937;0.019674517040667097;-0.04753669620677255;0.032519707314127594;-0.04426341458690275;0.005064669182706788;0.08699932648650979;0.07764914647350493;-0.08409418662407642;-0.008159834463277588;0.03545746088678309;0.08131983345746943;-0.07225576336426381;-0.018184440474418362;-0.028791527371965248;-0.058154633071680145;0.014081421584895254;-0.07232384021763294;0.01902407646926141;-0.06871042976978654;-0.08330824481765692;0.004045420278269152;-0.06277354646914574;0.011478373570426692;-0.04452460301277712;-0.08776442781622054;-0.03442178904196712;0.04816329677085546;0.06162244516165424;0.05020609916204036;0.052126786370435885;-0.06105681933758411;-0.023412340062727924;-0.03226869560545301;-0.03774340984279743;0.024652507291455517;0.08936723834348054;0.09650472053766285
0.09449101945516697;-0.010724006645251971;-0.003516845248250383;0.0958847680465936;-0.019874291070369934;-0.0299490308370763;0.012244619031068965;0.08721251823393106;0.02756336153241218;-0.0027296373869858392;-0.06872966765932784;-0.0368909653985766;0.08725956102652516;-0.03759911047326752;-0.04908077476935744;0.05288635866138991;0.059478092339685984;0.07348244997528428;-0.0018085535652077322;-0.09881730283786079;0.044593271163291565;-0.0016236203466216265;-0.026174564824388888;-0.025840984369928613;0.04446594145517574;0.0192817423963431;0.025730957938342014;-0.05392930322755305;-0.03654119515254435;-0.07395955855213682;0.09456209999639223;0.03875461368275934;0.028945757357359492;0.06110340320859392;0.03614818770893652;0.0875484052169371;-0.04629086811486756;0.09563176979286511;0.01866474798461222;-0.010614601779850075;-0.0035923537026264496;-0.03594146759879617;0.016840621071974635;-0.0477148561668354;-0.058663042022895386;-0.08646245404396125;0.08116147339669005;-0.08981391617346657;-0.08500610157647433;0.035058598243193434;0.046943940296386016;-0.0069565502786727434;0.08449434519667118;-0.06539145295544746;0.06631875030895579;0.04934207765316426;0.041683894172654;-0.0243897088996972;-0.004424807190589755;-0.09334969984549671;0.06681948924230086;-0.022027204092865404;0.0509834545047641;-0.0744322199058874;0.08698926515435987;-0.005563005583889405;0.05812523545225015;0.05339656038164778;-0.0030231494223904865;0.0015039587475620814;0.06292733539587009;0.016091261101881277;0.09406557555850453;0.04008322056478683;0.047006765696737174;-0.09947907923939465;0.09331691778250956;-0.07989917637165833;-0.004399846096697191;-0.026198510954393503;-0.06385325384206564;0.06365814545119505;0.0032641561207735342;-0.03756546076049303;-0.017438135696956625;0.0029340388163101583;0.07069777449360401;-0.028785549307738384;-0.01379151753352463;0.07187462979885881;-0.054548625249517826;-0.039657346366308;0.09142330390805933;-0.06518362290632251;-0.01004853843166291;0.018914346664263365;-0.03723305448456089;-0.019460182211858038;0.022184176274390927;-0.026080568129412715;0.06005847607569967;0.07685280482402082;-0.032455410573419594;-0.043873860140861524;0.005718973002280997;-0.0713462885840301;-0.01522705938510241;0.007692287396782002;-0.04372900639783093;-0.08847340641545409;0.08456306517214171;0.06107570525964354;0.08612997155547922;-0.03672812468556588;-0.053657773856831265;0.0447919204691489;-0.08063747313087913;-0.09262231390110061;0.056885690176484455;0.07879380348569917;-0.09612410037201563;0.0552885437397376;0.043843484058176674;-0.08927568300540056;-0.0874584116454321;0.08842961239637623;-0.042079289704728184;-0.0859797915270813;0.07704546325342407;0.05629640814846118;0.06936702654800106;-0.08017900604747055;-0.08720429907342807;0.04352121412540591;0.08759479386056387;0.08686410583084714;0.0770087966559167;0.05667931087900843;-0.01284041948484091;-0.07297629928719894;-0.08286680453899498;-0.03930064179177928;0.029000724899476277;0.09887715634068381;0.013058933231961833;0.055094095043003305;-0.09724632405371741;0.05765985187227271;-0.005899106989569414;-0.07817102921972074;-0.015889971750405518;-0.09280462756195598;0.02053226885980315;0.09949784955554267;-0.09938493787289289;0.03786491731399971;0.059483909614817115;-0.0574233961062131;-0.07004322025071837;-0.045593906637944936;0.05631427686113186;-0.09012314843685712;0.01671447677901361;0.09830805852316313;-0.09490616846944873;0.0929237690713389;-0.013301135633227032;0.05179632155528366;-0.04436329213703456;0.04283337516282448;0.062429962808203704;0.07387722643303576;0.05955155112252786;0.08336631426402089;0.03896291607468552;0.06363864490102952;0.05407258901886555;-0.09181330599685247;0.06618600856991724;-0.02802003635855624;-0.09002907076060329;-0.04804390232849814;-0.0981207723341895;-0.009828982186705276;-0.07136481717835966;-0.002255522046918257;-0.0507642534280917;-0.06788378283188407;-0.03655035266756612;-0.0626588231360739;-0.026787193797711953;0.09692662427584714;0.061887218476578854;-0.06359913774430932;-0.09800752689145649;-0.05062065948161423
-0.022726616154321366;0.0729608039160416;-0.037003085551904055;-0.011929890743266752;0.08296662908305255;0.0157173968030951;-0.0226832538985198;-0.015458413246709532;-0.06326032633254494;0.08755143754279118;-0.05792473049339624;-0.028603620757083267;0.08943504947900305;-0.07985679091600846;0.06716526254352792;-0.0666196794946366;-0.09049242824012474;0.04712004655552679;9.592107009175344E-4;-0.08735171336639623;0.0038552767037127456;0.0060305064838040295;0.07900786073850133;-0.0220988193952929;0.05537953489073896;0.023540952880975463;0.060406039211205326;0.026809376385190486;-0.030995943288146255;-0.05639818145602918;-0.021581215341324705;0.09211451513195829;-0.0795783827475478;-0.07506753686985601;0.02512481021428986;-0.09597199184372307;0.035626308397128714;-0.01797492941222667;0.01424853624114042;-0.07497874947272526;-0.005671685083773609;0.07296951758778111;-0.07798420356902375;-0.0821709393421108;0.04663712620675742;-0.05224711515113947;0.09278255874291422;-0.06653552664141174;-0.04006170651302102;-0.037711360117745146;-0.08565006488116084;0.013269479303290338;0.07167779608476044;-0.0637177532965243;-0.08270704968376355;0.08750302197881973;-0.08619275698988656;0.08714141769657999;-0.06670558367882334;-0.07730605610202115;-0.004067936792718815;-0.09250915577431201;-0.040610464139477935;-0.07903671528108565;0.08674410492641357;-0.0295472305317529;-0.08180925323840266;-0.09325314661073772;-0.08289112418291476;0.044706333405576865;-0.021423529019573298;-0.05017454136697402;0.04321694343843524;-0.01955975617013446;-0.09300850959168544;-0.03170305535085956;0.05449792557686492;-0.012335256627644078;0.05642068375475609;-0.06889946452183451;-0.011465334148504258;-0.030049391771612255;0.06826196496331871;-0.06306928302208888;-0.07599584340557669;0.09951429035366222;-0.03826163460142249;0.08485429129638436;0.06271091938694015;0.02366996900457874;0.016153105731313788;0.07167099569351038;-0.016932443911214443;-0.021979130152706763;-0.0867941949075482;0.052034443463796015;-0.050083695044208135;0.04836366893968588;-2.4821046536556424E-4;0.07957681394458094;-6.255847584112628E-4;0.07113145550348285;0.05580075174893748;0.010757315649499444;-0.017574712455469085;-0.008697752235660092;0.00821484950053944;0.09788088799775235;0.0472663836336111;-0.09294836603913662;0.017480635243188797;0.02371025054462947;-0.03203607269017042;-0.07797035243835125;0.08309302421326523;0.037320994777228084;0.08575350134044352;0.09899358311035866;-0.03749618949371013;-0.06067408440061344;0.019364770800854053;0.06262998879265133;-0.020748908571254304;-0.06567864147595764;-0.07796252006690044;-0.06524931422274685;0.007800161478494647;0.019384921932321303;-0.08456487971672287;-0.09835088175239844;-0.03420953290271525;0.009680467111790964;0.014451519275580013;0.011255072884636272;-0.0812027672086368;-0.08429715348457048;-0.028055082234401632;-0.023172824324904154;0.008380476678719911;-0.0185785676632213;0.01872284642856839;0.024274307459976857;0.05110820382422296;0.06855801968480515;0.05164052279667736;-0.038201522749938044;0.024404566084318596;0.029461238723466315;0.03146426206115793;0.07340348417651729;-0.04551207782222353;0.04951626791818625;-0.007809389795735894;-0.058085086541209585;-0.04767228265552546;0.059755044336991386;-0.06519903438359462;0.09250901390577088;-0.09453675584494037;0.021308880051825893;-0.01902955550830951;0.014349131249820554;0.02669130206377454;-0.034428132287167124;0.09603886267622483;0.06578027707572848;0.08504396038733247;-0.06257995798767997;0.05559078835494449;-0.0023662408763773374;-0.09985839651016758;0.0335578527076002;-0.07371938465939498;-0.060454532534877294;-0.032079486038028945;-0.04595999325429237;-0.0409222964725918;0.08579292563837915;-0.09610166884545601;0.09224339322695271;0.05189573294397806;-0.009992170400134975;-0.06044519441877943;-0.022959760050872996;0.028609437339487703;-0.06777772214925792;-0.011930734963156137;0.050650349867765176;-0.09724910909196641;0.057058565188403604;0.007570312480387087;-0.08337325280741743;0.04671675303819578;0.09847384106595292;-0.06678261252171055;-0.0753443998025898
-0.028893253258399712;-0.09567733906404952;-0.07615224546043274;0.07232794373551174;0.033852824238226054;0.05310185936097672;0.07458669195461615;0.0987672128218017;0.045087525923506594;0.015593846119099905;0.0837326013727192;-0.07902682125160934;0.011239047079230707;-0.044274049195543966;0.030392912195648436;0.020969455672631934;-0.029370372692465924;-0.012185018565382122;0.01876063147643159;0.030318282694649173;0.012892981357924119;-0.0885322131274057;-0.02441449768225734;-0.021707108587456683;-0.05418456415124391;-0.06923989610479711;-0.05069218512954743;0.07097429279650103;0.07574464158938946;0.03091757485047758;0.05248696095941702;0.050765849364821675;0.0014986742467613945;-0.06642561094713773;-0.08642923541499353;-0.050704302972246755;-0.013252544935544536;0.08078654228713122;-0.040284043255784344;-0.008596543169105436;-0.02787249336296993;-0.09167174020694752;0.03928396733219869;-0.06611562907128905;0.015890061663920735;-0.03959825151257899;0.010800325709720407;0.029890553474892223;-0.0893283649711226;-0.02925808658895937;-0.025419831643360688;0.09836549255194438;-0.08598472601339174;0.08919938187595919;0.0038862475250285716;0.04761468504959965;-0.04844034026423771;-0.031763493355551536;-0.0556000446003035;0.053091679869492286;-0.09564759615553303;0.04037289652833098;0.0939499408466283;0.021705450969225604;0.07553291916440161;0.015468253982158758;-0.05114298040947732;-0.011568389381705457;0.04666920364624488;0.005832136273990707;-0.09108202547138289;0.08573643329575548;0.08032212938231903;-0.0524983315072676;0.06996515160930936;-0.0977006504570815;0.002949713659569045;-0.07237021672513587;0.0011025424877757761;0.0047460039960555145;-0.08894700736333006;0.050778261587277246;-0.09686664890186654;-0.06541933761611868;0.08350421449912604;-0.01898870412471601;-0.024642047578597226;-0.08776680219663968;-0.045712953929860904;0.0820368370826012;-0.0201647626950459;-0.018887456939250757;-0.09758241969887452;-0.05575531098142681;0.08536452269646214;0.006784966911820442;-0.05039593267175135;0.03534173919295841;0.09785901525648408;0.009872219987270683;0.021242236402089137;0.04038630265439247;-0.06055380129728963;-0.04400900559307069;0.022632193564931624;-0.032624755049482854;-0.07445572067718949;-0.047968127561927476;0.009842009531567525;0.08613886821879968;0.0073280963994001025;0.005302378190158025;-0.006567969692426387;0.04115038170670404;0.09641187121658668;0.09053534227568635;0.0032931235106585383;0.03295812440938192;0.0692402292139302;0.03949042041514553;-0.03585891598780429;-0.0016996114732404227;0.06059305193792683;-0.08114695635477279;0.08374853160838203;0.03556421336125379;-0.0012263009622705406;0.09436174925715432;0.039784602545002296;-0.07989891426161788;0.009464256861890674;0.0925713574356081;0.06617191752393922;0.03301407715384369;-0.07910444467632015;0.06638603038488097;0.0861592572587464;-0.012617576399140323;0.039893635365160524;-0.05352723771155541;-0.08315244236297246;0.07749121241413232;0.03652861048094652;0.017892559031324362;0.07869577027164595;-5.14583758962267E-4;-0.02549430663737022;0.09976290401691429;0.08357231241924568;0.09596887926662706;0.05510244686395935;-0.07450808596312085;0.04620681779929173;0.0624207631149612;-0.09562977326053937;-0.07789908070928189;0.06643600074352105;0.01990314772771032;0.026481863318278148;-0.03062102778806204;0.06342645470831096;-0.09361463734857745;-0.029478170223341052;0.0830892079988278;0.008096396672388262;0.06811196571149697;0.013678983169040884;-0.08882645663167604;-0.003752756379267974;-0.057207016916648826;-0.04928377532974715;0.05787895375488958;-0.06754487816644031;0.017996505084968195;0.09775537443273943;-0.042045193352335856;-0.04643855748370871;0.020975359198269122;0.06782965600898769;-0.08845239069129043;-0.08935935534858899;-0.04973894214363133;0.05632027747815224;-0.039854112527820965;0.04961241777034914;0.09470992785968427;0.08630757991934673;-0.06509543562769496;0.08320466401317109;0.0022876897608018476;-0.09296865394852538;0.04090475127565085;-0.06923744240149708;0.05873050828354884;0.013068958798035449;-0.045618636874325616
-0.08256185920749698;-0.0846780245189255;-0.042495974796317865;0.004677719067375435;-0.02941604731665648;0.06537709968851929;-0.03072766081332512;-0.011337428808403008;-0.07128680926572702;0.010625952732268212;0.05303590796017524;-0.07742817281954094;0.08717807872130776;0.0815411157151904;0.04935001625826091;-0.0252863391652679;-0.055242908307619625;0.07975469544401045;-0.03644774463449883;-0.05779774271888847;-0.013369271706435537;0.09606227740687165;0.03371650568350271;-0.06413790386928617;0.04176470962152942;-0.07588740888514092;-0.09882100656900535;0.019671143926915574;0.08650843126923399;0.03773341113138873;0.07155757121230061;0.014587910864589881;-0.06874447372064169;-0.07105431169989801;0.009849358207089126;-0.07866603064055376;0.023302672239640332;-0.08593059547108316;-0.09989389824583333;0.04267997431534601;0.026581535786902866;-0.09307363826995714;-0.0816494870610478;0.09300982152678211;0.09772807415643825;-0.06900342866432263;0.016811013277158476;-0.028585725061233316;0.06799231072298395;0.0964864479334697;0.09821634578010036;0.04429170564977225;0.061780840281036725;0.0036186975400131355;0.07080550954226392;-0.06558960524636756;0.035163393141787125;0.050055213602318044;0.017872713908117926;-0.05438674165670903;-0.09853627952429103;-0.08178403839385376;-0.009919139398469112;-0.03417753578963126;-0.0739056306962475;-0.0026416650957997723;-0.06555862619042613;-0.01427198860702368;-0.08091629993350456;0.05563304443550085;0.010772049468157269;0.04652083442214053;0.031282784999158736;-0.08106581409618147;0.014608850167216109;0.08725755866903287;0.06902872946235339;0.036212641172403776;0.02496144141648568;9.207431264616622E-4;-0.017919812761170245;0.015023630691211348;-0.0740334945317211;0.027964747945621315;-0.049070326610849695;0.09643062346882103;-0.08659319901185498;0.01711418592533967;-0.09786340626738795;-0.09501037815180108;0.09022805233617037;0.06540829134054973;-0.08588621548809008;0.05738911944923872;-0.02040014562434904;0.012961246820283462;0.04083952244809011;-0.05757715991588744;0.03973073941193683;0.012634923594370157;-0.022744061581563876;-0.004676232559072818;0.05156169096726834;-0.07920281249295516;-0.08234604133388986;0.08108959869601945;-0.03137350697909368;-0.03743456813186233;-0.08286616510005601;-0.025718650384063554;0.06778119129363522;0.013411485371428888;0.05626941417732198;-0.023121709102105287;0.02016925290148866;-0.09126921090305216;-0.06960650958132555;0.051124110783893034;0.013702824333783115;0.04395508537837306;0.0374603830206188;0.06090062006523039;-0.09849525004113624;-0.039985400160431596;-0.07776876585129835;0.013016978912759464;-0.07483003583184931;0.02243214967294567;0.0495664095024457;-0.03109610160988717;0.06736895388972255;0.09705819645952571;-0.07410157033810194;-0.0424460476165087;-0.07476993851435575;-0.09856748504883289;-0.03450192561202706;-0.037849439884056625;-0.03589851516560809;0.06798452752273629;0.0069352136214204385;0.07567986906563681;-0.08929216367637999;0.09376112800825967;0.025175047947879448;0.024921277664845684;0.07538021541239201;0.07109718667785692;0.0560395078273522;0.04756388927503952;-0.04504715308064904;-0.005379314086494086;0.05230258578720012;-0.026202168702717007;-0.03891669485630687;-0.0777892299019565;-0.07552249193998531;-0.088419174255698;-0.056832442161514285;-0.06899621152777452;-0.015607394290830717;-0.036117976240618924;-0.06931507807607332;0.05426882879390513;0.005941937358021149;-0.08344330709969315;0.006722290571268746;0.010950774289753176;-0.055064336574014106;0.027106860592937515;0.04259092086802391;-0.05309431714750193;0.018764307409721154;-0.08256538695019895;-0.027136818747854938;-0.004670456372420431;-0.06336993181255551;-0.0722037020055738;-0.029179290141437497;0.0336083236790114;-0.007612570498490484;-0.07548256760416978;0.09621950336154497;-0.03520640251893317;0.0845743533213453;0.0706297446253066;-0.06955846513960764;-0.015865345095289113;-0.08799557384777168;0.06644320385753899;-0.011483482681625024;0.004574579677622398;0.008329385969995218;0.0461676267105276;-0.09683849774532892;-0.09015564980814256
-0.07472949873158691;0.07704985534345246;-0.0870998324308925;-0.02023450370955268;-0.04824363173038389;0.04909420431765141;0.05448748929749411;0.08959855326719296;0.06499371845949575;0.06628527048621324;0.05927982931513057;-0.07624905761989045;-0.050463055778485866;0.05433397050522923;0.08385428230799213;0.0638846552013416;0.09171102299597353;-0.014680987427962311;0.06709537333018584;0.01244052078987165;-0.04071829824527036;0.08619778099971873;0.09913114882537669;-0.005177534837196518;-0.0899442325195305;0.04601196784669778;-0.08808519683637923;-0.05303822146332515;-0.06186669639946858;-0.03428494347961189;0.05691208648225912;0.03970790982610872;0.06282300502690008;0.004900140421408655;-0.0777313010913878;0.017468820191734485;0.09277048432440979;-0.02869173945420654;0.05999604573080683;-0.06424933740057333;0.0566387846857008;0.07184889135170494;-0.05687225879740343;-0.029277089618395438;-0.018280806670467137;0.09796590970465446;0.05346329615337256;0.04366178867736756;-0.07686032732280895;0.05353377513653229;-0.08757046675221294;0.05410130676005251;-0.001122898194189606;0.050070371738780234;-0.08924571733200792;-0.052252182484916344;0.06956881314718313;-0.008095639912047509;-0.032938980149013086;0.05869057448684059;0.01715774002748445;-0.04696330817040711;-0.04884285714949763;-0.039832666800244665;-0.07730526736459345;0.007787145585552976;0.044702672096747026;0.034120571409691575;0.021160538107688073;0.01891872160740979;-0.019889829411084997;-0.07299352207570767;-0.08004087104483643;-0.09021607756717549;-0.0020592022521621206;-0.002204515374362545;0.007772957636736771;0.05113876034259382;-0.006274523732049259;-0.01617047092520725;0.051759948512566434;-0.02137821083262266;0.0870541266155749;0.011178019701177044;0.08361101562479989;-0.07650300395122232;-0.061059896632603805;-0.04163920238490544;0.0087759257085471;-0.012888923335055466;-0.032119027120561916;0.045783112796629166;-0.06179552688766408;0.018616978349013477;-0.029299209422572275;-0.032045826317148765;0.03823892570489312;-0.03413257481851906;-0.0588267825241591;-0.08846268385206094;-0.07816716659325376;0.06098338252284696;0.09758873021164674;0.009506479163615397;0.0630602418457584;0.07495429746574497;0.07984336932212155;-0.02983979222018522;0.006918537047572171;0.029728286154355354;-0.042709519271467156;-0.010529048332754254;0.06771716964439281;-0.008397897948785399;-0.09948908875729144;0.006224001235425686;-0.03811651197212243;0.08632226697297948;-0.0866786709922373;0.09162702712370213;0.004806108464319836;0.0741602923161104;0.09575423257690191;0.07854760039829509;-0.08362476570085187;-0.097673490965481;-0.08559263400965418;0.030262791616143203;-0.07383163173655748;0.012438557305849265;0.09347437668696246;0.02458143165381174;-0.053230974995798985;0.022362182620753707;0.007932456590083375;-0.01357380334729788;0.092495014486693;-0.07540651668225373;0.05977687703374554;-0.05956079243109089;-0.039148017471182885;-0.052546582374606125;0.04885645242192044;0.07490145766868664;0.06531695976814478;-0.08928316050480878;0.011777842983345346;0.0092329260251304;0.010595672911350551;0.07389998232286327;-0.004489173235418309;0.03956672549023027;0.03528655059158467;-0.07671822446596568;-0.04325930432814338;-0.09963266204021702;0.011923275448124396;0.07283606030330694;0.033677965564119505;-0.07521059564245838;0.09065691866522349;0.06460320246758078;0.023949656977191675;0.012450162318426522;-0.09962232175276507;-0.05436871335584037;0.02036047718004741;-0.07948470584437034;-0.020134662291037803;0.0714685507556134;0.005726336790762149;0.08247422623910092;-0.09840335158549048;0.04029031242202871;-0.01135339880127273;0.028707851474497142;-0.027873184823241748;-0.0029047801427899422;-0.026004375544023198;-0.06607213281393204;0.04550143193644596;-0.035992820665366396;-0.09492185690932331;0.048793760557725496;0.06994421474680354;-0.04942908201687575;0.08880716251113838;-0.01351019961455309;-0.0968950635857726;-0.02296930543959899;-0.07907295665132913;0.029771154955043178;0.07744110184915726;0.003933168954591754;-0.03478140778758586;-3.5308577030754296E-5
-0.025154167657869042;-0.09700286916117476;0.008786908045525649;-0.013363374196495914;0.07842363637575056;0.027044225097467095;0.014946951792475446;-0.024884274726915304;0.009354745455933483;0.040886434448612785;-0.07411425495099731;-0.07121261711515803;-0.07192232943026428;0.06041765266774063;0.029194272389216597;-0.015949622653027157;-0.018441125645483253;0.013758210932423506;0.09552609723215691;0.09805473865629852;0.012207377729213126;0.08615280340536491;-0.08094613266090973;-0.047184320681191785;-0.09096880451053767;-0.06057621401583085;0.048058931655508064;-0.03597482737598556;-0.022078351301537832;-0.09286652403465517;-0.02009667748343305;0.06885918084748507;-0.06450944454683179;-0.04178949445056308;-0.08720259099586876;-0.025694709202455868;-0.010325559779320412;0.09464696443174278;0.0961906491415839;-0.06398809259626959;-0.039641090482175234;0.002974594906740638;-0.09772311817476459;-0.09261317416412498;-0.08543455227408328;0.014579781272275508;-0.04698032322805044;0.04964951680992746;-0.0567180666599078;-0.053481189184375215;-0.019732678154753075;-0.07423197310381746;0.09080722255322679;-0.007653728689335532;-0.02905892511312079;0.014687968113623301;0.06251924145184365;-0.08842889631868803;-0.045055565985116265;0.07698763992999824;-0.016734931072189332;-0.07329358549477179;-0.06964486706730905;-0.020930134831092656;-0.043889475611565934;-0.021519412103088137;0.08862572759669485;0.040227715679313325;0.07997594947064887;-0.08737098824086298;-0.09806733809513515;0.005397810898376765;-0.07527622600013349;-0.02421297013769841;-0.034522244250048836;-0.03385847192631862;0.033552634723628155;0.08335655602116737;-0.05053983329099652;-0.0466290549593122;0.025091907306199812;0.08882013842965117;0.008600828200032717;-0.09243713736741566;-0.09862064323991103;-0.06817202156797295;-0.07848437891754217;0.09568100880698979;0.032944034438490866;0.07148486876481916;0.08789737417452817;-0.011247154184583108;-0.011494787205384521;0.021615603067527994;0.09838103157206063;-0.05997590714003609;-0.09566242775186069;0.09638903778563798;-0.08986971447483488;-0.08915930437724134;0.04714159525327066;0.047532456820309404;-0.08940192682410192;-0.020115652036230044;0.014297507240456447;-0.07153053932380267;-0.06742257831186427;0.04111449137559958;0.036669842064035146;0.056066287342898175;-0.0044269319188181555;-0.053254040740113334;-0.09833095631200353;-0.04272714849615085;-0.008311412969573315;-0.01618162871160571;0.09806542088155457;0.08579646986647996;-0.09136250973162828;-0.013610436320630817;0.09908985564285364;0.07304780919675166;0.08815116670506609;-0.019887745727505374;0.04664484249607054;-0.06204993507891554;0.05497030764674585;0.031929392074999646;0.07698824575868835;0.021804041011591807;0.019770724112316035;-0.0651495396868347;-0.06295839925063747;0.037253301648874027;0.05878840260609841;0.09624739754024075;-0.019486589729823534;-0.07550485376057905;0.0035727833426263678;-0.08216458920664932;-0.09568264344068236;-0.006765273615503206;0.03621127685151637;0.05648059040370759;0.08830409962959984;0.09548117635423534;0.07853206244547498;0.037202659427760076;-0.06488538877810854;-0.07786377288079892;0.0882063603820698;-0.04678213032172618;-0.02799809753952165;-0.054572763762292475;-0.06966463251113425;0.03259356482054132;0.072757165568231;0.03958827932091638;-0.019978900812071057;0.07706253420062478;-0.014584606845870332;0.0037943680166753896;0.029584486269299104;-0.014228241547437112;0.01020454607073025;0.0842055298496818;0.02350814003662638;-0.034783175664866245;-0.0377585472745563;-0.053921040204948145;0.02484520073990233;-0.0036602495959874998;0.07476671682753072;-0.017740907247165705;0.02874980927471918;0.08074462532381071;0.05124989447528103;-0.03904304491056694;-0.01805120275032905;-0.07978813314853253;0.058485283851211683;0.01358174371479462;0.04138818166382757;-0.0028313004525235552;0.06783780689379457;0.04248910375995271;-0.08904774524373134;-0.08150022031124114;-0.0019125654047394969;-0.011137748654703558;0.03206694362788595;-0.03894139588811443;-0.009140297861283564;0.042543454249737156;0.07216335450476993;0.0144668893660094
0.058418924942312184;-0.0015148442394651296;-0.04560867542115952;-0.044734420932434876;0.08363983036884504;-0.03140855435631687;0.0026369941528054663;-0.0937921801939487;-0.07673773132910287;-0.05692781653275234;0.037812364772622314;0.035460701257890664;-0.03192712805358791;0.062033726344222634;0.05454896324553993;-0.0672907686416921;-0.05255353006310673;-0.09411842824869779;0.03184173226787049;-0.03736755245686425;0.030719235168229997;0.04221205340444828;0.08685336616339359;-0.0590517401768234;-0.025845511940908436;0.07722155863602725;-0.031996650011348104;0.004200047331635481;-0.010198734583384828;-0.04873655747036847;0.0016300284220921446;0.05168478005641683;-0.028665279989225065;-0.008965701799182851;0.05592811251887839;0.026398748794290272;-0.09799343790245107;0.08497286765321033;0.0665280709578405;-0.028396202283768032;0.091122730139855;0.08380639325025449;-0.020002095544163573;0.05059334442087976;-0.06199532799583168;-0.05521924092556701;0.014711933142907418;-0.050535863629889356;0.006179478246795406;0.0359624049620593;-0.0870548224012126;0.09617615927056752;-0.09441657151126115;-0.0038984977938126414;-0.03628391570128546;-0.07609021240089076;0.02685230981553774;0.005897440607026488;0.012814359894814858;-0.01729424630224914;-0.050688844092630615;0.06810926191612363;0.04461468806043814;0.06060006002420257;-0.04693504792392276;-0.08319476887667515;0.019691328085902945;0.013942616921326326;-0.09436898978926306;0.08014730619739391;0.08291243402824364;-0.07368516620237608;0.06484275734216308;0.006457807088899578;0.018607191647448368;-0.08356193999484261;0.042293688556127335;0.029917149681769034;-0.07743716764839997;-0.002308798974915427;-0.09462056120711348;-0.09990687622040983;0.08502263933369922;0.05533260994978953;-0.038965219695825004;0.028603692221570887;0.034520196112606705;0.052247642199601846;-0.03944838982291077;-0.08343316524621021;-0.020700890668631455;2.0091111457024025E-5;0.09240298482502765;0.01809268050376167;-0.09876844499928457;0.03935209212851537;-0.011212752050515015;-0.03207553816675453;-0.09343697013343258;-0.03766628796029621;0.061645478908131796;0.05543668431390622;-0.08152522270115542;0.07879009758848499;0.005194487155206623;0.06255023989697903;0.008369371894795918;0.07991036332117277;0.054556633868390714;0.09972586027905184;0.005949109400597702;0.08458932631273425;-0.02614313191844371;0.07204887392711598;-0.09742924673144376;-0.03261062849480437;-0.037803618465831516;0.08651974984153818;-0.03197556776967528;-0.03824336002385394;-0.08779863696271678;0.07201645841139553;0.03779838518615805;0.00810199963535678;-0.06661554843836692;-0.07500362911826318;0.09605543931539026;-0.026415936201835896;-0.03865459690382003;0.01685678014987209;0.07896107200407418;-0.09109208586931127;0.013876753928938348;-0.09702515472861538;-0.046332971568193965;-0.07282017182379663;0.026329134327541415;-0.04120068731489051;-0.009831479056253895;0.09083486830753815;0.0011300977622993036;0.03496778750283963;-0.06358290779891726;0.07488074493406635;0.04013922914852128;0.07127510999233358;-0.0685147631498095;-0.061822131520641026;0.09356159932361499;-0.061580245209547725;0.04724306363445149;0.07920221131724114;-0.044569596655223115;-0.01319314450521955;-0.06407879362075825;-0.021285973268127353;-0.036791075881906624;0.07328797931903275;-0.020901665052915352;0.03898204620504983;0.017850942042694662;0.009569326194769495;-0.01693432789724396;-0.08231053683160082;-0.06930233620253133;0.030121621940845694;0.04618492799020807;0.024374411438387783;-0.07512147325938134;0.012776517554926398;-0.06422977077918174;0.09823433804316106;-0.028577892443793523;0.0017958320711065207;-0.04481143408382713;0.018350116610337697;-0.07592749872051481;0.08105166954857532;0.05628744553249712;0.010862434691893103;-0.06815436431940258;0.024056803909578872;0.05792243948776041;0.01235947230154863;-0.04535106110425642;0.007936470806163803;0.06827135507336321;-0.07528858906953742;-0.015173009522213635;0.0200341688725435;-0.023214055693341867;0.053814039281494946;-0.013715314510130833;0.008695655944765984;-0.018954035023445476;-0.036819945105785595
