layers;784;40;10
0.7052982424537084;-0.48575750428027065;0.5537432216631744;-0.6588217632608784;0.9145493049919242;-0.2365794839091484;0.6822156433795694;-0.16861576579213788;-0.11970914390451592;0.23536497425578484;0.6454207650018478;0.18020675565466027;0.8216581994098635;-0.2057130111145753;-0.8008930224669446;0.8783048210706417;0.015088663783813017;-0.5366330772752155;-0.07974508343269204;-0.36280907904958526;0.16713055778473973;0.33572053520162926;0.3064119433185841;0.49013938368576837;0.7101665294368609;-0.9474793479868566;-0.6546654800530145;0.26472449615048355;-0.5086722966262569;0.1334922877658733;0.6590043099917606;0.7600570671541917;-0.5169232001661899;-0.9436741830120265;-0.4844649081343324;0.8543665955063855;-0.13535714527815967;-0.34461718705496747;0.7544426796667061;0.723654003148646
-0.8933070746183365;0.14639526110248258;0.9852011332078172;0.3697184198930419;0.5373287430889515;-0.11731193206079538;0.2959636547798268;0.7359388225965133;0.2757000016827129;-0.19021633094096568;0.14877820356250804;-0.16822922403499785;-0.609770906127171;-0.49092652943491055;-0.8604184767872498;0.4919949984199914;0.6716448014026224;0.7075711956297881;0.8657084705923961;0.6643343324686419;-0.49327427431099347;-0.8204100329112607;0.2706068797001171;-0.550867681318715;-0.0031419775987360232;0.0775140077668357;0.5249005621534617;0.5073655585332797;-0.31378616711752394;-0.09733716802916748;-0.24510315198292232;0.9083402747682847;-0.9524388422865204;-0.4364247656948974;-0.25591207579473263;0.006000580958993806;-0.7805816176757987;-0.7321326914993669;-0.8898512287707803;-0.4871443499327053
-0.6035298976056993;-0.6448520227321368;-0.6006133832534131;0.583109592399708;-0.2541364206804888;-0.3976975946729242;0.04255109248222233;0.4216569298454995;0.7552088117866322;-0.9812167318694662;-0.8196333534919733;-0.2968156694186126;-0.48619180062896716;0.6983760786946285;-0.005897525949904336;0.9156976240746315;-0.4131554847216772;-0.09476461698818772;0.3659475749213992;0.635370768715593;-0.13704052921989285;0.24581396475856065;-0.5540872867934727;-0.30530802671527657;-0.9611419167713091;0.514637385246663;0.016432723614886013;0.22346035681210474;0.25027742566083555;-0.3992958085673082;0.42279767982993155;-0.3777356903844613;0.7668607978116866;0.7026183109324222;0.27699270105258966;0.6706511940916373;0.6391826874727617;-0.9756089251058193;0.14448032928944055;0.17727558785804653
-0.2806286808291427;-0.8898239867080702;0.9879124384570617;-0.1531074234895109;0.5724804918148492;-0.9749704701561461;0.26871119271416677;0.36913888019417906;-0.5460356788492866;0.7001169473345141;0.29691280136011255;-0.8733750596519205;0.7493121353485783;0.9346134903849546;0.67161966803608;-0.6250631423110851;0.05510373863347362;-0.21712408771906477;0.46886035397288217;0.264727736898382;-0.5735517559829331;0.3542903047292574;-0.7893900539575001;0.6561533651673166;-0.7760266624578336;0.4145282998318145;0.5881767450518298;-0.6815119808245713;0.46423456368972227;-0.3992263593657881;-0.5848871796772548;-0.1871681109868586;-0.3893833296294449;0.5498070759841118;0.3492616053760058;0.12340181373789605;0.33750417266100663;-0.2133320772374927;0.5505066341996494;0.9329731884344312
-0.04130112501887573;0.8329372381902764;-0.3697602450399884;0.33062110324643457;-0.06823248051259712;-0.33248409990544014;-0.9994800602661678;0.6949846960176047;0.13320364613029723;-0.5908999797318866;-0.954653047155285;-0.4861411346122222;-0.5550063955541258;0.8883825881027403;0.4134276764788043;-0.01900584816944839;0.601376570863418;0.6393398103734123;-0.8287349677063833;-0.6464355277613476;-0.784705531942874;-0.237211966815974;0.5573539368131077;-0.7411597889932959;-0.56277132122069;0.1017255031004125;0.6427203115102205;0.40618235763952604;-0.20517481263012738;0.2168009072635173;-0.6700061741178496;0.49055190792529757;0.4199114728127553;0.7615795937488627;-0.18734302792950452;0.46630576491288855;-0.9097873389634912;-0.968894247405466;0.8680667528190367;0.8251302086581158
0.2962770978196032;-0.3064130704621564;-0.8277016733896947;0.029539063641394137;0.8898247729287796;-0.9861434447800177;-0.798186681449655;-0.1665561522776804;-0.22206492347436768;-0.761404006328567;0.2264078318746623;0.863879956102241;-0.4018067697749921;0.23712885617310397;-0.6001508051614011;0.5430515036179158;-0.6568810129981901;0.9779250095654188;-0.9809366799883488;0.19743534519517691;0.4979020382465047;-0.030216965821191266;0.6496873701058417;-0.9692362838164754;-0.5863249970346132;-0.5920146015865728;-0.9947439491018657;-0.4697179794522677;-0.6407457923798561;0.4395509242302216;0.21924238020747588;-0.16924353386144575;0.9774850899241965;0.6980351605237336;0.46362774545570096;-0.42171399085911854;-0.28197052439140524;0.057159165760867436;-0.25537184697948123;0.9160485830490552
-0.7733628192050619;0.4138746092969985;0.14565757527300427;-0.6433080591461764;0.6416453838654499;0.23530059542093373;-0.2104377345484285;0.5111565263119386;-0.7183449206906682;0.5902971325843225;-0.6433879550244743;-0.08870427607187992;0.30403385370681524;0.4352670334745523;-0.8783104916726492;0.4937380646448981;-0.4278996596668758;-0.9648929920354907;-0.8364302722422474;-0.2949874785001858;-0.8104535196748948;0.5740558666113085;-0.34886361941864874;-0.3569622718755354;0.9438586220920866;0.2475174384182517;-0.0741657177428714;-0.8323471675385508;-0.7537997450970617;0.424762271171635;0.4766100191470919;0.49294661624198133;0.0634232511683055;-0.16625906075374108;0.8430470406325077;0.4167191893432518;-0.19142295963899492;0.14307071637568214;0.9843531710703552;0.047488944281605994
0.1894884803597472;0.8025841847265933;-0.2836872400607573;0.6570356059231428;-0.3893114754010385;0.5526570104100326;-0.5547315688711882;-0.8834521928180004;0.8821643607025298;0.6238609205731913;-0.3823497412026824;0.2670228087954849;0.7091195448295482;0.3223143948514009;0.05552372400046468;-0.470357263099094;0.7201267359290067;0.4324340821153667;-0.3369191093052786;-0.9205687485022196;0.6367623562311766;-0.332384557979992;-0.1340481778643643;0.9855714281361518;-0.4039861812749017;0.26070097758000177;-0.41533269392063055;0.8643447219078062;-0.3925457234168177;0.7099228584104162;-0.454443749097045;-0.20427159786263305;-0.33961718764350923;0.6823326018904237;0.296814664820231;0.5222671226556894;0.09183078837067127;-0.8744385892714868;0.42443620825130357;0.2789127897468595
0.4845381711375929;-0.24991907453748752;-0.8478527868730386;0.9951043560948998;0.5847074091916675;0.21796313890927554;0.7614428057546891;0.06543783949117299;0.512544680190804;0.6104658939642849;-0.917727419776204;-0.5971453464641188;-0.11569790097089871;-0.9544007799665886;0.6818794519970963;-0.9316451465976003;-0.6272625006870509;-0.3218453128815171;-0.6812539318829285;0.41381923558281763;0.7036110532843545;0.7385098875582907;-0.2694415085508026;0.3796036944547827;0.1190419490650807;-0.2471540589101131;-0.11045195028864563;-0.643854235891258;-0.06574956010356048;-0.36375382788738064;-0.5144730057002267;-0.15109738700083608;0.9724150497920567;0.9614713782287518;0.5863858992473523;0.0785176797035454;-0.6169238603180103;0.3800345553458755;0.17777361667863323;-0.39680994237854894
0.6327219344147981;0.9085274146016382;-0.40186561011954547;-0.9321986066082306;-0.6981052216229682;0.5919782583784836;0.7622298588675551;-0.7355697805701369;-0.2686407201879162;-0.08265109404102722;-0.49427430074898604;-0.1685361546905444;-0.4694224418272406;-0.7258929836970363;0.38537753662791197;-0.876404175436688;-0.505061912126749;-0.25486205470268164;0.8338022873129647;0.05257330810776906;-0.4261095992563073;-0.439912057305055;-0.3052248177061072;0.028640117640779783;-0.8096612790021271;0.6545599769738142;-0.145554767315478;0.5251954560343484;-0.5676480457360746;0.9524099465318865;0.9358159209168848;-0.7557297752593002;0.42145056782726575;0.22471997661799614;-0.1617102728343669;-0.622002377836417;-0.4925670682936347;0.6778545289958129;0.2810293443948284;0.041335373449803425
0.8479086926409374;-0.21566935112592733;-0.5516587763432397;-0.4061263925465215;0.4014080796009245;0.2940650500288806;0.3372397947616603;-0.7263587504003888;0.39614000811559835;0.8498858541548584;0.4718042798503703;0.3334012339434107;-0.06782517430814439;0.18002712820530675;-0.724106494935147;-0.2999959870664888;-0.4669685708120226;0.45165126114393117;-0.4147639418898905;-0.9300543236773149;-0.8166505870681318;-0.9567273040778494;-0.46813258866248475;0.30935613049111477;-0.32746699034493965;0.7302849146865693;-0.6516617326551024;0.04422068967839676;-0.0900455956595494;0.07662017975738578;-0.4839284076452557;0.40671601513322897;0.2855077592937707;0.6869001181373866;0.12169877713602228;-0.9538797240858172;0.12000939434415159;-0.10273671670572959;0.2871585828143679;-0.2821651352094856
-0.216858990976736;0.4693833645087062;-0.8962038912208188;-0.9683664824040228;-0.8476626640887093;0.9010210657778668;-0.37234888569958513;-0.7296673846466362;-0.2557779201257051;-0.9222205378321475;-0.8174208787156829;-0.41734519120802505;0.07089934727897407;0.1645614511760154;0.4698016339775828;0.30913564282684813;0.5566105719458694;0.8715566043285603;0.7969342774313322;-0.28249789264521774;-0.3040294583046659;0.5284109355164193;-0.8835041740727083;-0.9959714103957391;-0.9568007010432626;0.7615639304160331;0.5033533592674886;0.05995566173037936;-0.9075313736122199;-0.006437149410441156;-0.7974876027111741;-0.7928667365925048;-0.8573127872479358;0.46949386661485604;0.44311367541787217;0.8746299708523289;-0.16425103843040856;0.06449714560419317;-0.1585482435524903;0.018126462207141092
-0.7845379699885723;0.7376617787611861;-0.594718434825968;0.9764907894570077;-0.12482339941320064;0.17128523728054382;0.8994005141226934;-0.5850088998549152;0.04499117521054849;0.8766612757311094;0.6808070868674404;-0.9774143300633071;-0.6842057898708723;-0.19514503571166647;0.8703643763019345;-0.2819279099812137;0.10477208721989384;-0.505867341197099;0.40333606848308196;-0.807985195804859;0.9383899390920362;0.49330482590260777;-0.7903841429264791;-0.9239497197261042;-0.8383943907078303;0.9192244439446772;0.5941224863908624;-0.23269073923885686;0.7782819345328363;0.2628136642942642;-0.2810775809498726;-0.061405298753096284;-0.2153784317487685;-0.007348650016051092;-0.5527702388553755;-0.38389368266200535;0.5830314604867567;-0.2983338820496302;-0.2198171502422936;-0.5704685350237612
0.8334507012113657;0.7337419740960555;0.5300230030212932;0.08985583845722836;0.469866398155471;-0.7282654430801648;0.9629464106164877;-0.2788497295363385;-0.51239694024377;0.8888426994501768;-0.20563805825637727;0.34257601484443606;0.602180872302227;-0.0028146207427945076;0.9863315065480881;0.4849228422631587;0.9005723991312004;0.3906284722375034;-0.607106424007306;0.5753523289437956;-0.7935218955666474;0.1537323162921082;-0.7105762669750819;0.09012662165773049;-0.9634387387207033;-0.8894153440560827;0.5674713580727232;0.22584185079031568;0.7493886868637925;-0.8847695301267277;-0.5185594699272537;-0.7419127247823921;0.7653351673400481;0.7403672499086205;0.6131326661890557;0.5910904193389821;0.5950922817814688;-0.04204147129346609;-0.20876323617078238;0.16847227158720568
-0.20854238746679488;0.9797982642370926;0.6419149305739904;-0.08902204971326871;0.9644638025194342;0.9829116116057824;-0.34541588248422755;0.03251525829715518;-0.5317599169594569;0.6566968264328427;0.5914222939367209;-0.5915964981758847;-0.48585730653925935;0.7746570761339499;0.82780879792172;-0.5614880066813024;0.09809045247864304;0.07823206671647304;-0.07988623244022837;-0.7020712271742753;0.3581924998794096;-0.06648953488493495;-0.03262690320941704;0.8786741758558176;0.7594245548717258;0.45803112682035463;0.1411602206073873;0.2701140664121436;-0.1488463333965749;-0.8860645109278573;0.13626442869345948;-0.805516871344131;0.24734533200413877;0.12539125424935932;-0.7657406031022831;0.459395686970899;-0.046679269430704225;-0.49926666485929494;-0.8265415608611306;0.19403820675880312
0.19446751553993846;-0.07235505478179786;0.08300144812932278;0.4032805053015088;0.49849628356475834;0.3575952859007247;-0.628254849235174;0.20400895029662636;-0.059034047620655825;0.7073531660679454;-0.3651524706794639;-0.9993074999073439;0.18451293020703918;0.7792033247201553;-0.5815463010347183;-0.18818895002958758;-0.7745841795189897;0.23782811356456854;-0.02531655798363915;-0.022723775913016647;0.6068518924381175;-0.7193743925362529;0.028248324601763467;-0.44409862984325477;-0.733665431913715;-0.5004325688135298;-0.9882143441403513;0.8654704759345271;0.15566316815329825;-0.6434635775371661;-0.77055236294871;-0.17741515568454835;-0.6952537551930297;0.6804267116187921;0.9727375495020811;-0.9928343552603912;-0.9034985826861344;-0.356937379163746;-0.26048436188454677;-0.2934423498111055
0.17816767322855487;-0.2176150924447866;-0.6034571947915761;-0.4132441885716447;-0.34490910749779013;-0.18485696653260164;-0.6218704198131195;0.09335464380724079;0.9962417778161812;-0.7823298882211345;-0.17280089282074784;-0.7976006932430331;-0.573569679382667;-0.14785338408813353;-0.03691971867214083;0.7213934265192368;-0.5116170839538212;0.27708549468041155;-0.10113134189371609;0.9832997756691266;0.9285517369766223;0.8045993733801957;0.6336444779144794;-0.5185550021042491;-0.9062705029004037;-0.1466609331479689;-0.9908611050194163;-0.23917999935553125;0.6212449628945758;-0.3051786510240688;0.04741449562980704;0.7113442219421406;0.363718522534795;0.3021902544712325;0.27557756733531336;0.3012414630690947;-0.7899398363403833;-0.31571331017245496;0.3954937027908463;-0.2562484444368105
0.7475944707301974;-0.17577308042017292;-0.029069486424667;0.10798181941182627;-0.4440983828123688;-0.8594796065441006;0.6815055985363312;-0.5352208018505609;-0.6688343148643658;-0.7499154355655595;0.13226969443038383;0.801082775093158;-0.989475381623049;-0.26365701021895704;-0.7902908923880563;-0.8587058673118879;-0.4008798794235031;-0.3880797245413308;0.539403972938052;0.5817813232215976;-0.5017520119181089;0.21427707402941465;-0.2724673208074204;0.2747102693393826;-0.20878694563645017;-0.6160456427922374;0.7578648695924044;0.7899759519158318;-0.8358045322647609;0.9489269608464039;0.16784012245741775;0.7390824761134587;0.9226395254234412;0.7748915115213626;-0.5582196367902141;0.06240148774197607;-0.09062276825957838;0.9401447639277309;-0.5637598047878729;0.9613145138741324
-0.9610961153146527;0.9550345867809873;0.5919486234209537;0.09932380645532168;-0.36707476920257887;-0.6302050983685032;0.18875277396583656;0.4012943606588395;0.7754986089911837;0.6009033633954006;0.9644243728120157;-0.4524319661276466;0.5017942688354244;0.3549298709483688;0.045143845274621563;-0.9102317876160106;-0.2072943292643552;0.6401702828434623;-0.6750691177895634;-0.9923078315829736;-0.9317587994870755;0.03018972242542639;0.18324192324171373;-0.5182334891848484;0.15583200455590251;0.5797265251707582;0.7444091199468394;0.6731183325567636;0.5553951205337404;-0.407762711340411;0.7595485353175411;0.38339413523705046;-0.7688076516239359;0.2996900889498628;-0.36898259868442085;0.6090351790964075;0.13123079762922285;0.43904262713627307;-0.8985449316345815;-0.7902024128376894
-0.8318485081354687;-0.30383091511455884;-0.30610632998757636;0.17888260156314728;0.4912580605423369;0.03682808927926873;-0.883621248753552;-0.6678790680151219;0.5375387476733748;-0.9444078198038985;-0.46600694258225905;-0.3737672932156757;-0.42976071544423666;-0.3525126874252871;0.8631295741511265;-0.22873591312372188;0.19674681262831006;-0.45658093777250186;-0.9426870739906632;-0.6801220544285993;0.7032479392194475;-0.45070978181260224;-0.26917814029561926;0.9962549953132154;-0.04817209125580568;-0.30995694785630157;0.4058183556977224;0.669940553327089;0.05638015210464542;-0.11631335961995926;-0.8293582652714415;-0.9149514526222169;-0.9131008224804593;0.2566990500756883;-0.398619884544813;-0.777185550191335;0.6474324727573089;-0.23897877850327975;-0.5742163336518686;-0.9944349471825147
0.3311705601116701;0.364188301824105;-0.40196196567202835;0.9427529601029223;0.7768575979627679;-0.24202829291721795;-0.795131243266721;0.2747801574308615;-0.6660930568690946;0.26723357082642285;-0.06209823050056906;-0.8120856743903446;-0.8106887426042868;-0.560476322766227;-0.25584363425814316;0.7536791438763686;0.21763743012639813;0.6572763097938086;0.7060021984178695;0.38867787535080667;-0.2138979643314043;0.038293595425965554;-0.7961370074467014;0.8358880588132762;0.27992421885656715;0.8765288941872305;0.9794050303255843;0.9360430797219106;-0.7911425956417477;0.9240131960198723;-0.1561008340099097;0.7877939965246175;-0.5859963685076444;0.9260942122926128;0.465900057917896;0.2879243122994828;-0.8852822450749609;0.9959874642183406;0.9243387067540416;0.49796714484372573
0.31861155432886745;0.6509652121286253;-0.4724222810254928;-0.198846651894109;-0.5366285174131389;0.6313387379323068;0.7759312751857637;-0.6063029125528256;0.067306027868683;-0.01528349376819893;-0.7153938646277713;-0.7029973525372215;-0.3637568644202043;0.3218493194462535;-0.01402840080089951;0.7824560428414529;0.10759943756751644;0.636701483918761;-0.0054792983472335965;-0.1319586504735577;0.7081479033851201;0.6322155584701219;0.1448376520045962;-0.6238989278297968;0.26021273318112303;0.10456600389011839;0.40233892861861054;-0.06586287105562927;0.6917235493836063;0.6125250643128257;-0.9014896750924479;-0.7443718403132358;0.7887641419052818;-0.6051073020788742;-0.7431870431425713;0.055415675813564436;-0.9250458506983394;0.2977705601070797;0.15238687969591802;0.034290749361812534
-0.8897948242232041;0.3347873310326679;0.6881321327436187;0.5099909672810108;-0.5279036614211832;-0.5727878588711779;-0.828298961172039;-0.5231053271046264;0.21631602599830035;0.8572198034750274;-0.3576112974326464;0.14427855290293223;-0.29167797231018655;-0.9835996078415026;0.023861834022177897;-0.6669173960540498;0.37657298074204903;-0.8570668974368243;0.06811822757823438;-0.4962960060769481;-0.8416111005016333;0.9146737799563689;-0.6919758838371193;-0.35757974303189033;0.192700599845403;0.0017317317135734367;-0.9497721499003153;-0.2483801740240863;-0.34034802287638;0.9809415688050733;-0.1827972273818863;-0.7309033540925913;-0.4247791789828075;-0.6240375372147675;0.5866248330650701;-0.615757336165141;0.8197286343788264;0.01056571989507149;0.6782435399821727;0.9240514407078617
-0.2876883435381288;-0.6509996155123381;-0.7971421078159295;-0.7505766442253052;-0.9608707803238494;-0.9538463069415419;0.6149627712637697;-0.567658874066773;-0.39871185372104634;0.5415518859643915;0.1000833109566086;0.8770627747441362;0.0691659783815397;0.20507509008614488;-0.720231386601565;0.503557282579375;-0.7869825920192144;-0.7214121983655621;-0.9683307630886238;-0.3710143974249027;-0.574546944538848;0.6565145200698772;0.09907596900736637;-0.2368908704873105;-0.1404186127406999;-0.5902810922566306;-0.3962501040334794;0.6760844709064888;-0.5226905561605726;-0.11912752138531646;0.5778283092289249;0.30218249822235266;0.835498687408806;-0.834173882462176;0.19504251234192482;0.3105472471832762;0.5333781818509371;0.8443282157874712;0.5084379515857633;-0.4958115646960872
-0.09718146880750012;-0.06524176393260883;-0.8087605095154924;-0.399020185492708;-0.2562265285090075;0.22137562468814043;-0.9705418471641487;0.4055132636352743;-0.30960023262064773;0.33890960662655023;-0.2707115770814408;-0.10176314942150366;0.13906885693438165;-0.7018544556363504;-0.020701026502906172;-0.6516167778432944;0.5776862025008731;-0.5025099222930975;-0.3531281304650673;0.19977302900898541;0.6264386267655342;-0.31067349267080013;-0.5097004959654201;0.18365550031484235;-0.8667079805793996;-0.14370030302180692;0.8324004110042595;0.8803273717658546;0.26326520686044996;0.5014968634809738;0.2684694077779626;-0.21865125762120452;-0.32129067677496437;0.4678212019182939;0.6708302512757545;0.7967529525078052;0.6285244838462756;0.07568026596111888;-0.49578865762211577;0.1067254188336344
-0.9525504058255707;0.10444201325606706;0.7806193039804568;-0.7251951863179515;0.6122624668287959;-0.05806250453711215;-0.14066205497415463;0.619738082076905;-0.8900667511094853;0.08761869653915033;0.7371326353691168;0.9856982226405886;0.4434747355754065;-0.8811931381436309;-0.5243053994802755;-0.7443470979987494;0.1344377335139273;-0.78420358244555;0.9778111240977709;0.2202498167180571;0.2767022467566036;-0.6095943321155997;-0.5492980394785913;0.7446618281365507;0.5544184543165325;-0.3261042540342245;-0.4155847017240166;-0.4315852688943438;-0.8423450386652784;0.6940053761404514;-0.2748709990449296;-0.4717028237340115;-0.7874861811324128;-0.6928208608186956;0.13765664546886458;0.512031231283258;0.6881766709878587;0.25089288957226064;0.828410779607643;-0.9695400883163392
0.651547605454194;0.1423102505768541;0.33952923523636525;-0.06141398164997125;0.2108629485937179;-0.4266694877827917;-0.5731776783700371;-0.4591249753232103;0.522840664011869;-0.4615823956738918;-0.40134591598860014;-0.9161873024089007;0.8336449003067272;-0.01957307409259612;0.11982120057588319;-0.5312138504313442;0.6821450619575551;0.8509759746788681;0.27394858035965797;-0.08906444955947168;0.11465143401470868;-0.24426811623907962;0.42987222453226503;-0.7752984734957058;0.04351239505883897;0.9913176824907304;-0.22806607803669876;0.4343713534978211;-0.27233791904146964;0.5793670903076049;0.4310654091691615;-0.5119948886560388;-0.23859066797178174;0.7645859398512056;-0.8070078775878189;0.9957019361012129;0.9284633386207521;-0.6324944034631317;0.9618406919665836;0.11824327881752117
-0.18860712706459837;0.36894348379380104;0.7218865077202541;-2.7074846049313095E-4;-0.8575792048158852;0.15201234362865668;0.8671317168365729;0.46790180347327337;0.5396573321440401;0.9388484362199874;0.45785670930786404;0.11842659217882257;-0.5064205178747585;-0.8669415928275772;0.2152406979843371;0.35448402551036584;-0.7482335353609715;-0.48479018854329436;-0.12039823955681417;0.47059723184773206;-0.40439479301727776;0.5375214415248546;0.934757601198007;-0.5502965295820006;0.41088183747994433;-0.6747642440312533;-0.3595365795294141;0.785053842635077;0.42487897013824427;-0.5840155262201776;0.8168355173003159;-0.6563969038907276;0.5158015954036579;-0.2452134010810485;-0.1108781711980833;0.05513105722870626;0.5960574709696747;0.01114615794890983;-0.6718648469726216;-0.9585859658584825
-0.7708792031825082;0.8960450083360243;-0.18888338862370047;0.6923433169553743;-0.13958823748872207;0.8304543557039337;0.17975062699225486;-0.8490341055971473;0.8258264708281577;0.05331644916999134;-0.41349414551120534;-0.312999340227897;0.14725671725326772;0.05577634799490783;0.09742936188802553;0.5184612465370568;0.5326397487395889;0.08977177605910391;0.4589747722924955;0.7835952887238207;0.9687840337681262;-0.5770830968550753;-0.2616019033247108;-0.4295727733449983;0.8284175501126381;-0.002055513464034986;-0.8882924293407912;0.178770993972295;0.5086106272320288;-0.796201793910011;-0.7998916387482269;-0.8803440263660809;-0.7240736890697892;0.5767960619209218;-0.9546657408025503;0.7496881348007263;0.21435592329034647;-0.5758868723149835;-0.9337869053777363;-0.1070529031275238
-0.04469969153338571;0.5981603868109067;0.15326512435137674;0.3205964186117862;-0.7854405934027529;0.9492644827383625;0.4350869295026769;0.5384642821342873;-0.9305027656825426;-0.6546189530592073;0.18972561375719055;-0.024571473949822398;-0.6197481310274375;0.5714031415040841;-0.12379646198998295;0.3705187754118411;-0.20793713016568893;-0.09304665430836123;0.32580364442604526;0.9242265659477618;0.3514922598489023;0.730377300567594;-0.2403184370057596;-0.3904080442484026;-0.07248172462031466;0.1079837810404427;-0.5111777511572275;0.931213917484008;0.34918312201619117;-0.9985948628960197;0.9043118591115207;0.37540969226874976;0.45468148175698087;0.46227931496409824;0.6803499738808174;-0.1876745285600665;-0.9075235293668795;0.9822838229968998;0.9893789838052478;0.1908812178330519
-0.4767639925537954;-0.9721209868205969;0.9681614250820438;0.010007740153522793;-0.357916737574532;0.712947078093839;0.6755890513466423;0.2547144248926565;0.9738593075871982;-0.45115924023916243;-0.65253964369935;0.7531028166302722;0.48979877497677293;-0.7398160738387354;-0.11958363143931883;-0.7594794605652126;0.952222777986593;-0.23390498642964141;-0.8333217811995102;0.8096269520622699;-0.28544419376506114;0.6003309669259063;-0.8468181852445971;-0.11977931050220203;0.6871770310378467;-0.7198210482091421;0.3131601674736906;-0.6597421634824105;-0.47468054044710817;0.43275081286453587;-0.4048253158742907;0.08956641526260678;0.0034335452899343366;0.8486623267475968;0.8540515127756709;0.860342112012626;0.011134485613705447;0.05690934685519089;-0.7298683464956868;0.8935873970972847
0.6390563906528912;-0.4989210971500926;0.3276965713409601;0.8182356381072278;-0.5813610385405139;-0.054136251002370184;0.5503840721903033;-0.09022213256250544;0.9380757121210617;0.35417463592470266;-0.6191371110262325;0.7977899614850443;0.7773560081313269;0.1489745596635781;-0.6560130761964094;-0.3531646147920857;-0.011464056154643743;0.5102863574659544;0.9471032211113743;0.8527960344439907;-0.8069234030172756;-0.8433464666305435;-0.3518581063079089;0.3767633641615338;-0.22370889301237673;0.9216622899844549;0.6615675440997206;0.9811987678696956;0.6296453398888631;-0.6400396133806254;-0.625773225747188;-0.16184927908242397;0.4248595522408305;0.6035378132553149;0.7075778847106138;0.24689484942482487;-0.5005376418823548;-0.2621395225668517;-0.1102564924167464;0.5284404662086055
0.09165078357022272;0.07877844839744341;-0.20972174385890985;0.5569255200796777;0.8830133783018608;0.9049566975303716;0.22249833461590945;-0.15699964632235924;-0.40912290341181845;-0.5630972505744329;0.4326722575989309;0.6018778871065235;-0.3022592811360554;0.15257056207132016;-0.6276752093859886;0.8189574994094236;0.3134619379610575;0.890297617715975;-0.7106386248564209;-0.03269369725086632;-0.3634326420189755;0.6155345267269271;0.6756659155288047;-0.2594397314255614;0.5142580909338199;0.21043840615107015;0.6733260304067892;-0.07601283682409332;-0.8036127589418175;-0.8011307759928592;0.6683195665298985;-0.6329714726868099;-0.4631126540126235;-0.07307344520810356;-0.009154352144667107;-0.09518114936153066;0.6168334660136239;0.3948860104132689;-0.6083272838726093;-0.964546017874384
0.0465174122910749;-0.32784298955473085;0.28052462535858885;-0.8238197547299023;0.04974582384752924;-0.37421115903661567;-0.41256513449896437;-0.5981703358558098;0.8408794220687072;-0.44557356806888315;-0.449366433067064;-0.2884424038283027;-0.22110795723335577;0.24375329624437092;0.728210354465128;0.07965672091128727;-0.6901463804432719;0.9423055478450195;-0.8887595971437501;0.7752596363755635;-0.1878745381766951;0.8182918994955584;0.3231808883707463;0.9012091531404;-0.8860793146018624;-0.45722712680566374;-0.40431643900974523;0.22402122500319627;0.6653255881393215;-0.14632965551595328;-0.5457699480367851;0.16063415882206983;-0.8482014117081188;0.1579583699061117;-0.13308911383496602;0.034320236317400665;-0.34624629450579114;-0.4465538980219064;-0.022129096439735155;-0.57254855238607
0.38760144400489355;0.9973066095852856;0.5032600308899142;0.0664128277779702;-0.4727879998913075;0.7752760665636758;-0.6680684794565668;-0.6536557969718918;-0.3923121469939093;-0.0639720728613612;0.06235837142711802;0.5505045371321768;0.7263271362741547;-0.1653822193909247;-0.5269520168261956;-0.7206070083243865;-0.32209437910547756;-0.39404634944489175;0.8161880442050373;0.37593946500416126;-0.8201345859567261;0.1649694256339306;0.6552319821712338;0.9953565470316968;0.37091819995889186;0.6618769557085542;-0.8424169902351076;0.53806056495958;-0.20393126821925314;0.7263328527117727;-0.1411100548161318;-0.8928601952611708;0.33439029728057834;-0.7874659172022448;0.2905649101662627;0.9861033423935763;0.6658830010681631;-0.9382718181261539;-0.5128824624681358;-0.1303209301475726
-0.7289066634937472;0.6062802076580619;-0.3191250125408191;-0.888524626142643;-0.8638856834088124;-0.4953016054992685;0.9290006955055854;-0.4636271474785393;-0.1021437922925574;0.7054456274726262;-0.46599651544660886;-0.9203856583266494;-0.37363013612249424;0.31392193447680616;0.012388364279143322;-0.6956106810428709;-0.24023712330360814;-0.20456497002175222;-0.18460509635230674;-0.506066858768314;-0.3647171372554227;0.42438481303622044;-0.5602374537096376;-0.3353573813642288;-0.5364795720584837;-0.7767371895206999;-0.5431172644482243;-0.7831665548325583;0.4466900672402577;0.8921518713023556;0.6660760778713305;0.8669489149735211;0.4037415563268736;0.8778265082060773;-0.2946420642385077;0.19173921592597415;0.2552488352226027;-0.9748218528291617;-0.7058651506423297;-0.726496124483833
-0.45729925330738685;0.7210231622884626;0.9031129655686017;-0.12120847962524482;-0.8238779709886447;0.16836761716943266;-1.0226947284827965;-0.5845837702397091;-0.6102540601628086;-0.4975034012058048;-0.9032089295666258;-0.856668422935506;0.6629641503834043;0.26447919666677144;-0.42186186936443765;-0.05266507545845946;-0.4941654558489023;0.5888347902124363;0.6882373843217446;-0.5699322115026232;0.16342809553552892;0.39895971351275905;0.8194044123147519;0.3342438714654128;-0.9729993232946585;-0.04088185487056157;-0.6521016752376609;-0.274106505645563;0.13089820478279743;-0.29810173215675495;0.7852089776458412;0.044668922288056113;-0.6578984892658621;0.6904492595129087;-0.5979648589046175;0.4917534041640182;-0.4872849717008781;0.4855490369843011;-0.3302728594831897;0.016171737908202602
-0.7323908014857243;0.0965270521691476;-0.12360230468239244;-0.21504053253065006;-0.258506425659081;0.8905454444512891;0.15819954406782827;-0.6178999392992857;-0.808669750210584;0.23226552426193517;-0.568733562384798;-0.1397565353955775;0.2570890368573941;-0.6359584385685089;0.7156143073040206;-0.8431474659913484;-0.7530117120229118;-0.46759732574116525;-0.2372038467100252;0.5894540245342532;0.8066236723159241;-0.0879838780614535;-0.03760668232730953;-0.42677894569663616;-0.8333816866198874;-0.7880379263645739;-0.5595673553485643;0.7450891045760515;0.2669314418761021;-0.12963296869957253;-0.788352131602578;0.7378279198451221;-0.22259413130015454;-0.35900579047547304;-0.5671534641866445;0.7143935279252022;0.5357673775792887;-0.6792507827182698;0.6367832056343334;-0.1077007388244585
0.7917140691588589;-0.35980118201361455;0.341354272865851;0.5359929253328418;-0.028370359515142718;-0.2668940025885498;0.8610061478623643;-0.13932851729070903;-0.06030573209928138;-0.24698222147445872;-0.775803791306794;-0.10947937508879384;0.05382250549852248;0.30275491593491005;0.6282683817263631;-0.6663984544017058;0.9366983102304958;-0.732910960653449;0.37204984714933226;0.9872884124147036;0.8467943703932366;0.14137882123609283;-0.7562965980607472;0.1391960206217824;0.5728359219155648;0.09641630109359287;0.6429774454553252;-0.19912185918953013;-0.4788376604192191;-0.19070042736842535;-0.4987779465204658;-0.37480745410706007;-0.7956874449099025;-0.6352900957817116;0.9811753432476671;-0.14305493904986769;-0.5643300136635659;0.34202133921244443;0.8676070745180915;-0.195637521301696
-0.10644619085861409;-1.0362708445380573;0.13784615886985957;0.7902362230982026;-0.3401386817759413;-0.42818680651062346;-0.6370299994777671;0.8629608031425359;-0.11562577773942265;-0.28880223577599023;0.27268248956275937;0.9748075357353386;0.6535743889594718;0.8149124823035102;-0.659074652093539;0.9620903731010605;0.028119212950921103;-0.21519911579364034;-0.3473688435831557;-0.4596914257098452;0.5792472271478389;0.6634665360968582;-0.03658371708311906;-0.19200168210682103;-0.5951366406809704;0.005811336038731597;-0.7041084274188061;-0.20802339308493106;0.22859973771086267;-0.29135457638327056;-0.6617477684327882;-0.8400899632800317;-0.4181180160211124;-0.8371438525816379;-0.5296401834447747;0.7197768459136754;0.24805915414498006;-0.9360369146137063;-0.3358339651976162;0.6709764943086356
0.28546301709186156;0.8453058982123492;-0.41584228251885774;-0.6794625358786814;0.3245003108955703;0.37777416262189933;-0.8526890007859045;0.05481091384972147;-0.8520880071954846;0.48164350711882065;0.18520622977529183;-0.46926715199412;-0.4250072713665599;0.2504548295936095;0.23022659332831277;-0.2862339593012917;0.6381887239926977;0.403208714417201;0.13774694721468533;-0.4144520998176714;0.6356463164962125;0.36891232868737955;0.24092141787657892;0.5899938322216822;-0.9177497945069727;0.5110636871199595;0.9705812447565502;0.2107308017689174;0.19392980442036076;-0.8335033433393313;0.17995031001895215;-0.04535065644171453;-0.07195604694892221;-0.44962024654463617;0.39223260287333983;-0.6568045770913633;0.6612852007993413;-0.8341318627018812;-0.45489790089199456;0.5632172023306696
-0.027528994691464744;0.43274975212303485;0.09662278896499045;-0.44836836051011053;0.509047352562901;0.30283844938983523;0.3742022025567434;0.25297464432751765;0.8524308220797682;0.940869669876839;0.1417074085282499;-0.2997240859195148;-0.8824710141472238;-0.12422674096728382;-0.05229747736193654;0.4348970746514937;-0.7936215696205968;-0.1518517889073132;-0.3224892613174144;0.22761877644219078;-0.278154796156946;-0.8932250430071353;-0.021756938621332923;-0.5715978552904368;0.7801571765788426;0.8499208710327067;0.8283344345382915;-0.4824929363991124;0.7285062553967498;0.2510236851742923;0.5887495078203273;-0.10736066965236117;0.5847277087292991;-0.7753574682968719;0.738096105227549;-0.8961630782047348;0.9689037835995881;-0.12424919944500601;-0.5616493288896344;0.04443826758811972
-0.22499720826489208;0.8431470455218082;-0.9894655392967564;0.8908284318395224;0.3476028961706635;-0.7022398390182357;0.560468882616696;-0.28866959582574386;0.14937497737816333;0.39635405083586644;0.6155751953366715;-0.27212305286306604;0.9880000831160789;-0.0934845197357493;0.044870130484471395;0.5675624859572639;0.4379882971471119;0.823884086202604;0.8650643790847439;0.4160465587994826;0.19640676313874525;-0.1438678451292554;0.4106869958013735;0.008453087117122386;0.3957581468785962;-0.6346786458475515;0.42573938219757923;-0.6128718110299604;0.7709893113819026;0.4108679241230501;-0.7246333771844908;0.3713573771937777;0.5149806542794853;-0.010772631431382268;-0.7351924716631697;0.8167036117093756;0.19278423553838286;0.85069645653252;-0.7139968002489205;0.14213311719864513
-0.46185843834951357;0.36036782563196773;-0.5887121846951098;0.4109418243492391;0.7770902119242419;0.2209150988854982;-0.8081493782018986;0.8170275198307345;-0.9930503995014429;-0.6803004305689757;0.641169005450786;4.838911729998262E-4;0.1081357952259221;-0.031188514943672998;0.7192261893871101;-0.0652528042935372;0.8181206861104556;0.01619229812333685;-0.7927579239235221;-0.08989475619733224;1.0137120103233344;-0.696847765401099;0.5749196084580317;-0.24584163402951204;-0.6132509538257401;-0.3799353708759945;0.6408231289768708;0.287293981097088;0.3699989453586892;0.2390279474206614;0.16391997259245716;-0.17111708187575145;0.46103768227757386;0.9158512876957476;-0.5151839266297106;0.7106918984121444;-0.2655807212914953;-0.6280335002593165;0.5203613990166704;-0.8681501306145363
-0.50847792503778;0.7430095413938494;0.8175494829268294;-0.5342065951468846;0.6258400362087978;0.636636177952259;-0.34812312562024644;0.3214089322044476;0.7572785235701301;0.12779074871141705;0.4551953235173924;-0.5468540248161952;-0.6092772232494932;0.26489678758637825;0.34263700927019647;-0.26470153273442026;-0.829068635328135;-0.24341977656144134;0.9313539077343829;0.8717423094954384;0.29193357078452153;0.7632901686313767;-0.9998707317661621;0.5600387136070927;0.05598800838513784;-0.66301619377305;0.8026567184023964;0.2299603951566829;0.3785893116865936;-0.15829436632010174;0.9730247840761551;0.010785407196552035;0.4616090000609196;-0.9315584248695238;-0.4011558439063031;0.5544136242843264;-0.4756014797155771;-0.02340069461521692;0.7541282736639519;0.10599059280655894
0.9320389838750462;0.3483923683946467;-0.5240966830797441;-0.42159439780953734;0.5944534100744314;-0.4384669512964837;0.38931132188738665;-0.946124576195244;-0.9104068771492401;-0.20031914034685164;-0.833803186075769;0.001656723690619923;-0.760976501469903;-0.1197273822338086;0.9698573830414257;0.4291816177307809;-0.9790065573038984;-0.6132887558256193;-0.6271248754791812;0.010675862979914328;0.8294177188095404;-0.880541816042942;-0.37877691732618224;0.44386399126612186;0.19486975766278297;-0.952140414031248;0.48175535603581215;0.4931118159065537;-0.8150925432580699;-0.41748807887676437;0.6272742115452155;0.3449028662839126;0.2227005020784818;-0.1494084698542554;0.1411968478654619;0.9394825353730586;0.05098741526406202;-0.6616452903314815;-0.5425020424948874;0.27323885304163403
0.9355885002780719;0.09878806997761738;-0.17990560310261838;-0.1854811158335697;0.8065591586960476;0.628788975119908;0.633704642787898;0.19588416357833804;0.8528347726802374;0.47158165699862364;-0.8442382134892711;0.5733208862770458;0.00947505716712139;0.8322495476941276;-0.6174040043344434;-0.8715652105071433;0.8197744595871042;0.1099012859957264;0.2644319969951874;-0.5949203542883997;0.7412554774491111;0.026357480389250114;-0.6299650682408646;-0.12218364540682473;-0.12016669452359227;-0.9197921246397449;-0.42254893918943476;-0.7256547303107915;-0.1743724686548577;0.7069054219257183;-0.6663365987457375;0.8097709380184858;-0.658313531916328;0.6423045963944749;0.7099901036131829;0.954759125929519;0.11881309783657369;-0.8036400014727859;-0.6436511820013286;-0.9398583173245297
0.2532183100275353;0.02966637020860186;0.5878305455331329;-0.7676115615946838;0.6240335994237188;-1.0119643123049167;0.033633404994695706;-0.011583885797584547;-0.00764252308232452;0.7841810394098688;-0.42451863486078706;-0.7288793540378354;0.8589538022044018;0.02785236131070319;0.909333247777146;-0.06598763590497844;-0.22136358865566894;-0.524152075357004;0.7494084514319456;0.9689875721574956;-0.6149750162964309;0.6622446680491028;-0.06430066434862293;0.41225095409972545;-0.06554208292040054;-0.7635658194093877;0.09313373781560948;0.8029542857372816;-0.6042334347220754;-0.9575430263875391;-0.05367722437656666;-0.46817119657572603;-0.17613441494054702;0.1466277004667896;-0.5321524887824233;0.03544536554407903;-0.9977450025366418;0.6189809471471024;0.0563400035090554;-0.22605366412153838
0.05214128416807966;-0.5570554329299335;0.04106462923965445;0.43920763938901025;-0.6277950473225464;-0.14873870969543843;0.1780286531157346;-0.8788059468170659;-0.9464823233294163;-0.8070464766567232;-0.3321011631847716;0.31920941935480235;-0.14978359799051633;-0.515514045501037;0.2517215587856023;-0.5482942548685655;0.5763321013337784;0.8266071861809137;-0.25983795857173175;-0.10354420458664361;0.11473833415661018;-0.28265909635875913;-0.10353315275336072;0.6400745156144608;-0.8369504383936448;-0.6295071934385326;0.49529762785651904;-0.4549808252678522;-0.7299904103182446;-0.5411943804504395;-0.04138817152096409;0.5548116911342263;-0.7811967574399572;-0.12899124086704283;-0.2190802487655551;0.5222521911759999;-0.4301350726420653;-0.27683055041539956;0.8688065627298575;0.7490160470054604
-0.33533478767470737;-0.20279381116225664;-0.8793441503365349;-0.38872331869392873;0.515815239863625;-0.885466501674748;0.1633197743122695;-0.6302801970254511;0.8191939375405809;0.9730216540533666;-0.7986754558212646;-0.6077199164492854;-0.48991910073023026;-0.08024512768455368;-0.34807248205293695;-0.35182204562080077;0.5854251138248334;-0.4374932852056576;-0.9777323375645502;0.9339725627392832;0.1909041482207035;0.6317761826395724;0.1026210375208944;0.5262632063148595;-0.5802702841790125;-0.9802266895300529;-0.319425164253693;-0.02193899670740752;0.9832161212660284;-0.718890641120211;-0.4470725138134736;-0.9098536530406733;0.2829382641018987;-0.7467581520586144;0.8278864538505155;-0.3251939634868609;-0.004879642554775875;-0.48330448787931907;0.8408799259933584;-0.10041546504796958
0.010089182591883053;0.0705508317980331;-0.28292614438133157;0.4119515894464267;-0.15103790061616704;-0.7936353731932118;0.574776626592613;0.2012721807199619;-0.7571860967423796;-0.8555748868676234;-0.14756947221562453;0.9578834578395943;0.2016917167056491;-0.7670124884472643;-0.3966102138475198;-0.6778090464675511;0.5710073961042601;-0.585673643980312;-0.45644972370502646;-0.16732330311209814;0.9406706841927367;-0.28174704846049525;0.2184341454928784;-0.45378384034755764;0.7594023613342453;-0.625756042186049;0.30646522396593007;0.9166636224293426;-0.889474101525191;-0.2580447473092617;-0.5966318024193997;0.5822930011749058;-0.17968321901869755;-0.006266490293199567;-0.8054211005484639;0.4914391224774844;-0.05421517965089297;0.44458098393393686;0.10620996416460501;-0.7305560380249101
-0.14636037194963541;0.8247200286683357;-0.11366437918272118;-0.9879129801887049;-0.5853377153451793;-0.4070459968834139;0.9825377604614786;-0.15338717881233543;-0.6458194615885635;0.04381612371281325;-0.2734257687237874;0.1637838264202306;0.23284273256341695;-0.11567293417186582;-0.441909674833576;-0.21925703017305379;0.9712772757590781;-0.14089701359433635;-0.3101781211149627;0.8319491984206424;-0.42776929190608565;-0.3933214934130712;0.22392149367599412;0.8738983505805632;-0.6918813389405093;-0.8223318420592192;-0.35547341469833343;0.026178076181664626;-0.7809681444749715;0.07708485318647391;-0.945075042828561;0.11378468668555346;-0.1519485017682122;-0.1058496874634096;-0.2865696285366144;-0.8052794205529041;-0.37455964728959784;-0.5630525399442494;-0.11875388204861884;0.7628915348418529
0.5665047559062308;-0.30276757315276237;0.31314489422598424;-0.9962834346427456;-0.38012899868979755;-0.25661560756088253;0.519053492926367;-0.8759134127387591;0.29972512005586127;0.7693237612835109;-0.023396830147265346;0.049648327671216075;0.08098991872822614;-0.5936007793893756;0.7071604069225415;0.7370492855252253;0.443289585048102;0.2649062536466127;0.7927844124752061;-0.4740614468985267;0.4207763619589562;-0.40407755201707585;-0.456552066795771;0.157004469836163;-0.9519847087219548;0.9504752888896411;-0.4469769135647794;0.34963067179736673;-0.8121702940181919;-0.23811687898841827;-0.986277359470692;-0.8371362789824703;0.8852102613483945;0.8884408009054292;-0.6518601933059505;-0.24403536594793884;0.6120948664368253;-0.672551862630417;0.46998203702702757;0.6198942564850696
-0.4489696642915302;-0.4520922448288236;0.7990493824213019;0.8686608742267994;-0.5885716104495966;-0.8119525357734925;-0.46704147272814844;-0.24046371717074932;0.18033287495999084;0.22514943805375243;0.6175690138649219;-0.7462753234411921;0.6803181178123772;-0.8510018021217585;-0.6399800361494168;-0.8658526217762863;-0.1596597248332554;-0.8434146367522688;-0.3072608978938143;0.964583552399674;0.1810686619029993;-0.06546034854640226;0.7237390928391678;0.004486175205117737;-0.8255747229277788;0.20707662654774173;-0.6020306526295911;-0.9136297839207332;0.8577649466212471;0.9010921417119553;-0.15355568073455816;-0.5822523185749946;-0.6336688099318766;0.5163511899794369;-0.6856774194039035;0.28716348581996143;-0.1066732979370848;-0.9124482936382337;-0.5639355056944126;0.7339627622388312
0.9951389373120272;0.9863714645546775;0.06524857179957433;-0.6160003776095677;-0.8700334596710428;-0.26456617475460575;0.868580344005653;-0.1414253259242586;-0.148706329691924;-0.007543074005027073;-0.541919129114564;0.4314669534644162;0.17336334162312927;0.9116779744887795;-0.0376055782879714;-0.060995378888716756;-0.7159963508894787;-0.799026150433293;0.6276085817131443;-0.65930437417854;8.643797809366749E-4;-0.6330741961606652;-0.7100670360385357;-0.2169808205168493;-0.8496764446812899;0.8764052410989029;-0.6229641580519472;-0.4634442941159227;-0.605971865393645;-0.7379143247386017;0.4717912488924545;-0.24328812550347312;-0.06376522988944133;0.5606129162166056;0.4116416992687333;0.660875455827175;-0.9841796283078594;-0.10400434734193031;0.3987358518297375;-0.5800882896443529
-0.8799645151623128;-0.49289547826143165;0.6604523964996531;0.8294930802599763;0.45277604804780824;-0.9330022447054336;-0.17312449858813883;-0.3431694346608838;-0.6516473153090632;-0.24688187817541984;0.38123924797940667;-0.5490465720104087;0.042439668914579176;-0.7987644501092392;-0.7086865310224304;0.5597629821124979;0.4950887090466698;-0.7876637959520367;-0.7558463422024528;0.1146631375815641;-0.1936038078446256;-0.11951167390829043;-0.21640598585517634;0.823649506136491;0.17361501014786218;0.6710426965540544;-0.9106871056560994;-0.4436839460467512;0.3092057761514122;0.9023535279524879;0.13825523815292673;0.9093173551839531;-0.22747458860096392;-0.9294656402581185;-0.4463518132954325;-0.7915981764299425;0.7635535884249789;0.5055905818380098;-0.4261994450228168;0.7332099454531116
-0.4147387067860542;-0.04140016929453627;-0.737671823796793;0.34360968919553225;0.20192861166985576;-0.10656198310843945;0.33340230897829115;-0.8585815834597059;-0.8960783217526818;0.4928782948195547;-0.21992998122129048;0.3189407344919879;0.03514288792639331;-0.31228284741681933;-0.12935133868886317;0.9258273811140947;-0.952429996800368;0.878911047805097;0.01765076916649666;-0.07165962409474003;0.8180043776234955;0.44653414518349366;0.5256471993493805;-0.35981277800955924;0.19535083214829685;0.6256971328976622;-0.7110687915358924;0.3716637709850201;0.542455187148887;-0.12160688366884553;-0.8632024910624077;0.9739260416189874;0.5947282836930565;0.5015673148319484;-0.2862947920156922;0.8477868793473462;0.27848865459431504;-0.11446681628036481;-0.46645483465046933;-0.05848699446497885
-0.7848406774391501;-0.42681291647271413;-0.838313462343365;0.27967565171591535;-0.5168432059826853;-0.9306987322946678;-0.6445703341136211;-0.35481391952083485;0.6175139412776922;-0.7894973637371598;0.43294601816552536;-0.8207745873037462;-0.2020186058489033;0.8303739856010355;-0.8572611953029785;-0.13114348031331868;-0.29044496017389543;0.4404413507913292;0.8701111784056774;0.15968352366701866;0.6550807934448268;-0.3033598650722864;0.14408190844604585;0.26100269371731;0.15779022261074838;-0.46782000217463526;-0.9023585782490813;0.10346734673926372;0.5123248674066359;-0.9884426394892869;-0.21380522386174472;-0.6356343955737234;0.5260083653542771;-0.8032076307419871;0.08349054979285464;-0.5068094187334962;0.03783109949781749;-0.3842055678124736;0.2512882201847415;-0.7497415430700063
0.7108129179263224;-0.7159101165239365;0.21846963214439974;0.9137094127112413;0.06411356207215715;-0.3450275889299668;0.10725224839499538;0.015303476533272152;-0.2555346827317313;-0.6405335284014222;0.6086189000353048;-0.7669974262878361;-0.36780099092572693;0.14631772388193134;-0.56396480262118;0.898407452587519;0.535349865469118;0.043560188847731086;-0.724072694131669;0.4696961151388266;-0.05398189646755471;-0.5629633451003709;-0.5945105901632125;-0.7242105438317299;-0.3836263631852939;0.4975500247643026;-0.5373666895243066;0.855046707481482;0.557391973973455;0.1872224663931315;-0.26996955723016414;-0.7081274796238408;0.47161309050963757;-0.06311420173904136;-0.26544893978629847;0.09719505504865644;0.6019183740801493;-0.9898224525261787;-0.0346117126144216;0.38384982800613765
-0.48847902592074693;-0.449707825067211;0.078602745117397;-0.6444979217273117;0.4068865561015047;-0.5973892443921616;-0.9166221062050859;0.45781954928039625;0.26700399974465827;-0.25124757203187975;0.6899508200588471;0.9327842247664122;-0.7141467425025625;-0.9015606536676195;0.26850576339856796;0.9739409596033484;-0.12731380018541394;-1.9934787049348418E-4;0.6440085843747286;-0.8067529122482554;-0.14277357052982848;-0.5224316681266562;0.36651988689551823;-0.3009159729694217;0.4096692658622369;-0.6480295036900808;0.14917225839213166;0.713952391889988;-0.32121746326760436;-0.8361342789686438;0.08439646860075137;-0.6288957871641038;0.1780717739759506;-0.2152215108097769;0.580804190606652;0.17760889426836712;-0.45319941485497206;0.44189047546640114;0.9017716644286345;-0.875991746350759
0.4698717423233089;-0.5437710111784222;0.9395562811618783;-0.9854687289155627;0.2589989974158678;-0.3574354524941362;0.4546672503939745;-0.34048810110930655;-0.08826869681595897;-0.870683890936841;0.10537629282227988;0.3014398446197876;0.19621062194588576;-0.9206898854619158;-0.9786400075453724;0.37501197903455963;0.9491718579942569;-0.315248658378155;0.2654692368902318;-0.07467778442439185;0.45528141471312816;0.7520801564046423;-0.4627315006720859;0.25058133747255834;-0.45864666312300567;-0.8670475297414257;0.0538344294581955;0.519492480620754;0.9985415172871124;0.36856414020405537;-0.5246487642319626;-0.46321836507574354;-0.36257882855264734;-0.04608938964232542;-0.12772082808412455;-0.819669396535309;-0.5044223595858579;0.8654632160876523;-0.6062158572619514;-0.5932375528857312
0.504432327446728;0.19764503556270605;0.6621128890999086;0.4721236128196322;-0.7368498193718322;-0.9593948761980249;-0.12347868219752316;-0.711261004730758;-0.5224167703253865;0.1927776569269909;-0.1430932263793573;0.7277311319729245;-0.9034530258141846;-0.5322469424797706;0.5347262026698706;0.28154241012102393;-0.7979724006621847;-0.72850058822041;0.6142980615373047;0.15427441538008246;0.31497488194204176;0.20490599396707265;-0.33164196642705984;-0.8419396008049587;0.9382804394044914;-0.6286704354943783;-0.8636145910404407;-0.25122633012527285;0.8484468905147861;-0.3440956087728406;-0.4946912940828007;0.6351124858158326;-9.695967394635686E-5;0.9197360656983121;-0.8254956815648554;0.5298356133050495;0.6625482330965803;-0.03589752733165879;0.44020362139478675;-0.9200340379869197
-0.10579306439935013;0.858803040323525;-0.5098958832171397;-0.8866148185594933;-0.6111992923761379;-0.7879508776299478;0.21847427466699085;0.4756041696208457;0.2383185700102763;-0.7888292321589242;0.43441221857395584;0.0903568787351481;-0.5986293704286593;-0.7551182185530564;0.6348374096007564;-0.7718067165374405;0.015172319819069168;-0.9255695602035746;0.2931691046255341;0.29605881699197933;0.2901592662499335;-0.5676971352506438;0.3393784141665763;0.07813405718786282;0.24880367519301688;-0.5958066991084183;0.7553307817780244;0.37066012354473815;0.9020363280337551;-0.5034343114062414;-0.31139102202661684;0.14391882801766934;0.6600248039531736;0.5114766460397197;0.8881437292111443;-0.2811395601730547;-0.17575175233721257;-0.030541744368470816;-0.7646387909931694;-0.07776775635719306
-0.621706158746062;0.5070218754481959;0.22177565746891773;-0.6338840935548945;-0.24486065758455736;-0.28210914162674505;0.35094747947834687;-0.6403090083174664;-0.71627046932921;0.019317583965577548;-0.5938266965580412;-0.417688430904668;-0.7156627770977473;0.10577852982094796;-0.7993347385185523;-0.5092786246005239;-0.9722854653995899;-0.373860148881717;-0.5645082733061751;-0.022615317850450258;0.887242317987974;-0.4900177369171814;0.8848999184787661;0.22996854182205587;-0.6668876119605316;-0.5306625576407561;-0.2974613515138456;0.02582132315039839;-0.7445570293353404;-0.42324571657444615;0.3866780380573776;0.3417264114949324;-0.3254312293736089;-0.7937440676354051;0.21970808664343933;0.2889504127635986;0.14129694405840393;0.5726994211092572;0.722032234533534;-0.9840692371085352
0.7145207058689896;-0.3475942702440311;0.04816133680359005;-0.11694534951741808;0.6310667767439296;0.05851114706940366;0.28333401586952073;-0.669678705119117;0.963766467914655;-0.3480112659331654;-0.5275972989819023;0.9736797743849143;-0.13608327647895993;-0.40099069870964865;0.671118299121315;0.714796094186334;-0.3221677264351183;0.46944395010888923;0.7460164198438224;0.88796998631587;-0.9714930368201706;-0.8743255498029244;0.32999877963597446;-0.5811177545632907;-0.32660608223746324;-0.2753828882220184;-0.43330262906562567;0.33502197063148426;0.9177945323110452;0.42613539005426354;0.8130518736506637;0.10592638331289635;-0.8044312207182158;-0.6630153130363402;0.9832034549293271;0.053730569879849144;0.6729436339353628;0.9498428704983217;0.6886464556382349;-0.9113436670208159
0.9427470499709628;-0.3356301010206669;0.8839182922980526;0.5787964234354075;0.10674815447536995;0.5860783993646673;-0.5593763707291404;0.10583969333747197;-0.8942627983698115;-0.752094568240798;0.2696462178399477;-0.06676508087318173;-0.6113405691482121;-0.8759191488427005;0.8538966994569627;0.6012158809607615;-0.873458452258232;-0.20667659733206412;0.16026364128990686;0.24081809176630248;0.834027260117246;1.0493566861437689;-0.6270166519873449;0.8064171804036985;0.2893792193369701;0.02559867721539325;0.1986270152750169;0.8218284817654257;0.5782446351295534;-0.3827480756054343;-0.38119127384985685;0.04132812691901169;0.057287038846587084;-0.5325493366846846;-0.027080305565968132;0.41445320106946604;-0.8053314922177998;-0.7391435052365347;0.4654443021808798;0.015783515091652513
0.7802137141594577;0.8196541932566692;-0.3903351900872625;0.7179798289088717;1.0686255121875703;-0.024778885861572727;0.3972349438831989;0.6223316281518891;-0.8643490480611697;0.4480638476645874;-0.2926971645789118;0.8343580183547774;-0.09410169665948459;0.9803277465501715;0.32825860292604203;0.8639863201717951;0.32152273951794036;0.5201611289101371;-0.7273622575168781;0.5594805614329185;-0.66676523753658;0.04998758379459065;0.05451852316284152;-0.5691832843626051;0.17197869185331746;-0.4552234343036714;-0.39517142192348353;-0.7770514657988845;0.9193374429252358;-0.4014211762423425;0.019818158547157017;0.8614076643759052;0.16586783715579254;-0.3810600005858307;0.7813865120590364;0.12186727353832577;0.024317789008399055;0.7449779313715399;-0.25773211440164745;-0.4012946626577687
0.6416315151871936;0.11178587920532118;-0.4288525239185474;0.48028356832121677;-0.21187767216838388;-1.1072589350947522;-0.6418576831773214;0.44457069102217345;-0.18318532392920253;0.18513001935109824;-0.8630758387896865;0.08328421856453279;-0.7247324738840217;0.4733210305180175;-0.9580461129488196;0.01600217033260655;0.19077870643562503;-0.6672968937124694;0.38199603046518865;0.09443859402950931;-0.2481772365462179;0.7151307406523884;-0.7256070904851755;0.421821799052083;0.42199495163552797;0.3969302548921566;1.227751357186657;1.0706284309306744;0.7845489215019649;-0.32451399503255224;-0.012208837171616749;-0.3795403067910845;0.0519033124348839;-0.2581119743866323;-0.18438394920763893;-0.6494397437533377;-0.8207287667522652;0.09097930383376546;0.5166999398007682;0.3590915999858583
-0.29654475845728123;0.4516044038093496;0.539695966189942;-0.8612580056533979;-0.14667571266561463;-0.14584161663338868;0.1395280852732147;0.5390329594940917;0.7903589670248786;0.9999715715983005;-0.8066267500650431;-0.1847167429132927;-0.052980887243185705;0.7288033370321148;-0.5652030818965823;1.115200686179373;0.7427514203614671;-0.5203357265259752;-0.8981317419504454;-0.7887507830157122;0.10358041508835628;0.3971817948326747;0.31461722359909333;-1.0741024111763968;0.6916985266993273;-1.2768339691788373;-0.4033228744594834;-0.1731074300348234;-0.4689000387877258;-0.11136822796750807;-0.5846105702070852;-0.5476998693117991;0.6284437705672105;0.015176518031248165;-0.2951956095989258;0.3250243256397771;0.2842674255249907;-0.7439447762069085;-0.06429992213655675;0.11948572681804948
0.49922590951433643;0.4869811286871469;0.3358788082641637;-0.5737487033562649;1.0645128416648326;0.15190246943423577;-0.9365893522061906;-0.7550957167599773;0.4549915568821016;0.17690759882753426;-0.4663617341905251;0.03906920220327491;0.047031688275526284;-0.16672549660827526;-1.0747876341746738;-0.6470295446401697;0.26300911658042814;0.31267456116907555;-0.8261383534867216;-0.298032388862358;-0.7673931938893196;-0.8077143396607737;-0.4665974905703045;-0.12231231951615407;-0.11224989804587494;0.26256952518792825;1.0690379783815043;0.23808873284245988;-0.4977065174131396;0.6776667717813124;0.009207255290571866;-0.5084545907224084;0.47986568065619845;-0.6138130460601116;-0.44390073126931356;-0.33464885118234106;0.10791089685663549;-0.08803581730010773;-0.3492011727141486;-0.14657512669611406
-0.9092328570402552;-0.5262436828369431;-0.2749283350083611;-0.8214778496209788;0.44305590515510673;0.07950009730768852;-1.0686829466208676;-0.7678203984642525;-0.5740816128218559;0.9429712384197787;0.1816731237244032;-0.46502831579609244;0.3053327275042267;0.32602802076751786;-0.09632592058979124;0.11042735611018814;0.3726823381283336;-0.9490039023312333;0.9099830211358658;0.3649082021055794;-0.8791891458884141;0.6170574436584703;-0.40080790341257555;0.7240898874423785;-0.8927710084482742;-0.9076610815859618;0.7396212272782807;-0.06069226093987166;-0.5328305531235782;0.6723793220610635;1.1268464214481548;-0.5440191430794735;-0.0531883545666288;0.5199729263969528;-0.837612659872005;-0.561051251557573;-0.3691893351071551;0.2859870509453184;0.30087483087652694;-0.3369693528314416
0.09355649098455011;-0.3605419458450641;-0.43144974787781004;-0.030266270785389744;0.31718549715727035;-0.5758822533673169;-0.8992923572232677;0.19490032513475208;-0.6498913905646231;-0.4043876572929577;-1.1526527327934766;0.18523871715747148;0.7753310332534474;0.14717611138471534;0.6239589361151208;-0.8025420458192066;0.8735562786133617;-0.5952257832464568;0.7193020505295225;-0.1705182410656858;-0.5986727383103321;0.4420413053905955;-0.42153957553903;0.7042716468081541;-0.32423623630243864;-1.2529220478624667;0.13356984414222778;0.6570452867956741;-0.737743125005527;-0.23318707122831103;0.6726253497180058;0.24020773458365177;0.18163447800786112;0.4984547231345233;-0.7085883804378544;0.7725173992627498;-0.018416837388061658;-1.1759897916641233;-0.2842359392371989;0.07502566119629808
-0.3788831659995497;0.0011408582649391197;-0.5744285580099087;0.35410444324803764;1.183103691922285;-0.6538389111835297;0.03697265505170889;-0.6148154552933909;1.088065864376107;-0.19239988734937793;-0.6436810998079121;-0.08207550940447378;0.10838831735502116;-0.3441057696252486;-0.9376472913072177;0.5306413354939623;-0.616214355949995;-0.3511196290253464;-0.34301070158012315;0.6446899515545914;0.9908117407037554;0.957535666407384;-0.05401769759433778;0.23977005685090502;-0.078115839923582;0.09373280366348621;-0.28062350996040314;0.3407456019786559;-0.8833285142729701;1.0048877666704028;0.044914663627952364;0.18575879072664886;0.6546202923985767;-0.22997337769168624;-0.44465176087471314;0.6365717836637544;0.35611748004070826;-1.6135440809471935;0.49470562220650316;0.11748814714785802
0.1310289752086493;-0.5459900815411398;-0.4457556941976603;0.029198595713184377;-0.7995663418829341;-0.20996145680310618;-0.028348242193954147;-0.048288268262304666;0.9593913154195883;0.19668726593287453;-0.37406775544320336;0.929265505443189;-0.7942175374010494;0.1678435936085702;-0.1682636612330627;0.11702379639895169;0.3139413576968815;-0.736091933907048;1.10254328939678;0.684607200857482;-0.5785592424077983;-0.4201661669971206;-0.7395115073042813;0.8786894217668966;-0.18220894926687897;-1.1759332243661837;-0.043393536335120386;-0.47558592844831415;-0.5304664910326867;-0.8069642783941359;-0.08241918997731622;0.23443639668905614;-1.1378144521187277;-0.6357826607687945;-0.7983707100962613;0.8108992415360918;-0.691540864988287;0.3981728223456478;0.4224058336149269;0.27973578354042733
-0.7927950626570118;-0.23216335965547172;0.5629957701152596;-0.26326905234743286;-0.8202819363177647;-0.10040763590808698;-1.2026768626768973;0.28257365266583667;0.23220227950674713;-0.4964082413965454;-0.24403416983583218;-0.6390105856492768;0.19458705132726192;-0.019331009481450268;-0.04713289110953977;-0.48231919553681285;-0.5357325649072107;-1.239260312386594;-0.16466417165893724;-1.0122469985503324;-0.7061658516786924;-0.14034611366000296;-0.6696839590607558;-0.3082570299970114;0.7275150773792344;-0.061336437686729056;-0.11113480224958051;-0.08974624221118235;0.592007629166288;0.12101202216676224;-0.2469933122479444;0.38194784316733515;-0.8165854847211065;-0.4274955360264756;0.32127829647657913;-0.18175919245387362;0.13319309503002055;-0.22879639869619;0.4532398400440351;-0.36245721959596094
-0.7880797241048391;0.6280631057439863;-0.9554588993272307;0.10570056256668542;-1.022382749249226;-0.4664536640003311;-1.197668901315905;0.5780677669286557;-0.5235171557862729;-0.4811349053316124;0.22513912427434618;0.19748520380243662;-0.042121427146258834;0.5117857548941153;0.08911012902174548;-0.020845377106797094;-0.8732901709718044;0.45394382483010165;0.17460841782185405;-0.8568641435897834;1.1685113954193016;0.19484956115503604;0.6783979395180162;-0.1448659294223419;-0.8345988588936123;-0.56276590222968;-0.28578271294901675;0.035937279775097954;-1.2256390389931988;0.8990687785683567;-0.5355474006446603;-0.6633114149949862;0.4022905408017748;0.11954911614885796;0.34480328244130404;-0.07302902749319568;-0.8769109676571311;-0.5982460484231832;0.07957075013507835;0.679283182514411
-0.8043533022556187;0.5582193842140248;-0.29583119673186603;0.12988336772893544;0.43042736543637095;0.029375612653617107;-0.763246258267472;-0.5703432544518635;0.0939978013165858;-0.5198709145338314;-0.462717790403367;0.5139640440699914;0.771156102091742;-0.4712683467803617;0.17103896139137775;0.9646504380395893;-0.9923416638137903;0.7843106754666801;0.5646772140186985;0.7010207227825764;-0.5149628860364193;0.5384433614045725;-0.6303527455157072;0.4472404895854884;-0.36753903439967894;0.05848279661801698;-0.2552833910077302;0.8932134356152802;0.37259136962661504;0.8815488455816776;0.6641066503818505;0.024710476599174632;0.4657168099051041;0.27791530816583915;0.1526272004407578;-0.49179759261832134;-0.48815109963761094;0.34534391350793;0.0021409385779994736;0.6582439848133136
-0.3971211847059315;-0.6955917182912353;0.4831229797371325;0.1235439561676012;-0.10755608766238123;0.15319773434765607;-0.8784820519456495;-0.6815877621480729;-0.5073524816805522;-0.5073894090867996;-0.8104433477612302;-0.6271063561650843;0.6883091014085029;0.170429534547751;-0.9048501079242919;-0.38322336964563325;-0.7465130876432007;0.5010759547538106;-0.8688456339416867;0.5789818149076644;0.6008079403205825;0.3659077159555092;-0.11355277986457826;0.4306460880789155;0.6839118744915577;-0.4047485881222359;-0.857671184051118;0.6709458143057435;-0.016972751234992447;0.9527319116773657;-0.8335586716901716;0.7439680258562598;0.5312476327055442;-1.0224849366073312;-0.841151591004953;0.4011369198228676;0.32017185703580125;-0.7362985105878194;-0.7461995945027483;-0.6147146058454249
0.0801372014589454;-0.4942878796353266;0.546245431505352;-0.8321758862059979;-0.4195266919046806;0.5560587753818519;-1.004902726887676;0.2446545514485123;-0.7669787655340127;-0.8124832749003582;-0.9494308731884049;-0.0032042250487259627;0.4202127383203102;0.1763131045936362;0.9366462308614117;-0.2790139579060176;0.9210199162746135;0.18402271951289392;0.9268752039210617;0.21877951294864;1.0995088766034502;0.13258100615466248;0.8322933385653865;0.2950421117725653;0.8684382765076852;-0.4869735375060558;0.3472446873810885;0.5584040147367335;-0.3888372395358615;0.35841164966971367;-0.6658138188869455;-0.41592548752966846;0.7150024797538286;-0.5749855199425038;0.1984878046860031;-0.019919101362896097;0.6045376144733097;-0.46927430295730366;0.12634307766090366;-0.4980070778055118
-0.19988164609089432;0.2152656988741288;0.5437320287413726;0.9477580338433439;-0.6661531804556586;0.6523569430418542;0.6780525256346135;0.09845539316964041;-0.39376504062573425;0.3861801061017556;-0.8589237531661505;0.8919445943112223;-1.000320477748375;0.31997469186745864;-0.9981010249444315;-0.6092893250158228;-0.14346363443276464;0.008509638680780638;-0.7214623363320097;-0.3500539050027878;0.7605536335051851;0.18441301716547912;-0.9544702512205546;-0.33784535638387436;0.4144856037000551;-0.9372367072749628;-0.6987198719591045;0.6802959437729479;-0.5986205617454836;0.914678274112061;0.23746946401152683;-0.9934666667220656;0.11573300533747041;0.3095271896442072;0.22893802399528526;-0.6326071637512758;0.9334258742727225;0.6957123054363576;-0.6771789416555026;-0.642429393830538
-0.1380145685881062;-0.6298282195975924;-0.6829191797755898;0.2157744851670246;0.5120240259538527;0.802175692454191;0.2711674150970641;0.13700888731509683;-0.8782379334547649;0.9779619896382414;0.469860063536801;-0.2114204242926912;-0.5410556047106752;0.9359381074707699;0.18872308881475436;0.006455867933085036;0.33210886364752995;-0.017104326516352405;-0.3450094772563899;-0.1866946688441946;-0.08158968304458601;0.7941823352145623;-0.058877822406673115;-0.8294020916012455;-0.8298717649370616;0.8349631861477419;-0.1438744163410871;1.0668172115047296;0.2371897195888428;-0.43615552279673825;-0.24519989233546535;-0.1430767382094844;0.8543703490005274;0.8027372869675418;0.8300851928584141;-0.5449411231539688;-0.31923558159434634;0.6208157647726018;-0.7814572785867977;0.5927711654892862
-0.04928560360710944;0.26879059568663105;-0.6763656953751284;0.546855693019177;-0.6868203400065255;-0.525389603380062;-0.003477251278263218;-0.21347496938964955;-0.6886975185319041;-0.25831757192419863;0.18379181106124287;0.6809662341710873;0.01753092057659306;-0.21483220888381047;0.12601647319165538;-0.3066220829523162;-0.34548394501626434;0.4021508752112372;-0.02680209427175759;-0.976944090982572;0.46864411286540464;0.9700181333215495;-0.3235216325382641;8.575056475096217E-4;-0.7957566386795916;0.6369697099754961;0.8740209756958912;1.029764137224745;-0.5323696971452688;-0.5104763604762714;-0.28520161816587125;0.2034499720684161;-0.5074474229170802;0.1918881228496987;0.40851407460448097;-0.6584357026881876;0.3970190076386132;0.9203571968925905;-0.6036006482925511;0.4994531682675405
-0.08086649532158763;-0.247806376160286;0.6166196268326571;-0.9936485735810217;-0.9411580481694994;-0.8898951081545472;0.5970598567623349;-0.4974224599447643;0.08329133331542349;0.33713135017501084;0.8646812692738048;0.3586962334089068;-0.028110152496170215;-0.9660272482788861;-0.0979082533542408;-0.4945651501540482;-0.48257823348287743;-0.6019849991488628;-0.9718029718726628;-0.25625068692491326;-0.972308872607349;0.47832835699209175;0.3435812130528615;0.5595158981909529;0.8536442125078167;0.997088998487281;0.19429175719858072;0.4849014790595234;0.8158090741042627;0.18670396382112875;0.4846554707088524;-0.8714567667761655;-0.9909053028893611;-0.04675274703632426;0.6092070120800654;-0.8607515466105049;-0.5633073891452756;0.6006429026681965;0.775762429601508;-0.4269994671941193
-0.5429693280740304;0.33635935468050016;-0.9438740472224432;-0.5993617153361723;0.1234282210969666;-0.17179238967589194;-0.37213123396209324;-0.7763485634799434;-0.8456922452807734;-0.8068368488162694;0.36007332301591655;0.6581145888477973;-0.507480083461143;-0.027039301600867427;0.1478897723634831;0.3018601055096535;0.19554143345396424;0.8875378571123045;0.2152029807298388;0.7175674324619297;0.7440104824275506;-0.5437671605827656;0.9816631804516716;0.44452591481743164;0.7642652529383691;-0.06203073793051961;-0.9702141210724016;0.6944050563073862;0.6312553290784024;-0.5345113634872398;-0.7902208682793308;0.09144504795956676;0.45139915627102534;0.7350200091810191;0.9842106883107964;0.5850583638213365;-0.47933715092297224;-0.8383959060325821;-0.25842057244125516;-0.5070888549294912
-0.4886602764285495;-0.9783829993186051;0.997309439297595;0.5251312082922313;0.36171262403394655;0.7778674953343081;0.15263791999024257;0.595368087277439;0.12598447516399758;0.5189689479941413;0.7963210155823572;-0.757991790686718;0.887564769372789;0.24351645702066005;0.4110351913648629;-0.4370735125048497;0.2470042615782866;0.5809261673510207;-0.2141951976266141;-0.2902663457552992;-0.13342765782321386;-0.535376335569389;-0.5622606916034334;0.19255749184067827;-0.9133258060987772;-0.7404048235198668;0.9108170681219261;0.5139729915455895;0.725009728045491;0.895143686010651;0.9464058142358467;0.9807755661666366;-0.17242278865042815;0.6650209235645492;0.20966245738993683;-0.06513013920157329;0.3613294535270981;-0.4690666724044137;-0.4920909729762273;-0.9003770370582518
-0.378507725582248;0.001748682460933626;-0.7484667220220722;0.25561152229270334;-0.5277406284971728;-0.04044155606171285;0.2849173168732373;-0.9602314586446692;-0.5522208801985617;0.1650784304785946;0.15434885565223122;0.30451415577570096;-0.7889462163241712;0.5986989992688201;0.3818247724525139;0.1785335017637757;0.9015732194805364;0.27982396622583594;-0.621892226296539;0.7384418002077995;-0.5017901932088502;-0.24403460192564297;0.2553519738200405;0.030656185815132853;-0.5178976115762033;-0.9356102820655017;0.9890650471581088;-0.9246295809685383;0.8049625914426939;0.6429387273116489;0.13112796976115204;0.4396085480733305;0.4514379829440509;0.40297712724054113;0.5900472723924477;-0.01609010578418868;-0.2701291955981533;0.9762465156331464;0.8715664295954186;0.467277180635038
-0.166006509827987;-0.9994840411454955;-0.3877822316725497;0.8375995099337906;-0.8113504112385374;-0.7015117961450569;-0.7596530499684164;0.23980279955618244;-0.372917777957472;0.5606557401482862;0.16617326047608877;-0.9601876587110321;0.5386574577155309;0.6518189502800802;0.008822250912649321;0.48718224220631723;0.7928699757405321;-0.8029409514945128;-0.8702964556451946;0.1408448179737657;-0.548569727893062;0.7370131998817092;-0.15036051945241666;-0.8235874788115494;0.09623203108947787;-0.2473200341255922;0.7214687516422043;0.21507830684198886;-0.11550719816251298;0.19168283762940064;0.4621745041154297;0.5714868594173023;-0.6011847647546301;0.5925083553602178;-0.8339956875508376;0.5655944266025206;0.890959386815078;-0.8855905394764668;0.8797734651885408;-0.324182465849419
0.36028292303735304;-0.5043659663756773;-0.2647112889915516;-0.7766382726268931;-0.2785940509432398;0.4839847971385588;-0.6070731741821639;0.14323563586810342;0.31543690089681997;-0.5463479868457858;0.8069486279153366;0.23941495286594683;0.8842757678693817;-0.4117218740696379;0.043801614674597394;-0.7233443880795785;-0.8006183107035266;-0.5076054633381237;0.1608820637642917;0.3266656101720786;-0.36172231890611684;-0.9096875148709013;-0.9177156925173958;-0.20097146232834087;0.20802197866485597;-0.8154424012400586;-0.8162996483871701;0.8014504730846681;0.5872842268329233;-0.09898813425662853;-0.2653818182356793;0.5790479359552346;-0.7632905758966284;-0.05359523262401615;-0.7677987194352679;-0.6212936459478636;0.8162100219749421;0.4622643720962831;0.45328560354364233;-0.6159761510132582
0.6421246517928516;-0.4857732613898381;0.66328185585299;0.8135482179139809;-0.6613076659298928;-0.4391109566660639;-0.21426658649006033;0.07875968961957248;-0.5651483429822668;-0.31962345411070126;0.23403057484986445;-0.16844589008013425;-0.8392744573697649;0.3185228357811044;-0.9495514244799985;-0.5700391495768031;0.4587460630981296;-0.027717035854516386;-0.28294178245733037;0.5709889022415321;0.8364027585872903;-0.4694364739294815;0.1527626904762333;0.23879429072946676;-0.38845754656667286;-0.6648398042517649;0.792171408517192;0.6900887087225445;0.7596785887105814;0.9399616970882584;0.6296031995045169;0.7203603071379627;0.6996811924272895;0.7239626417692014;0.38501236905933556;-0.5059518635987588;0.09101657018992768;-0.44564753053998646;0.49319999764173783;0.8046731562335705
-0.016645863976922314;0.13691822748874566;-0.2173864617287218;-0.6015829566479325;0.5705530753030261;0.8223614369327769;-0.8479807418556695;-0.8464582775354802;-0.9908920489851485;-0.3106000482426379;-0.656555127863522;0.7762675409738129;0.12974581674651833;0.04460207725729323;-0.5100642568656156;-0.44709428466880496;0.7187037992455662;-0.4681012697605457;0.7500233460016288;0.6893000600282059;-0.6345096587744993;0.6706294379623255;-0.27574790373767527;0.5943065503166203;0.5543854436485045;0.9504171880499606;-0.247358407028447;0.5887116637933834;-0.6695162878391824;-0.5654442303826323;-0.9558981613590568;-0.5636263031158174;0.4486240659990805;0.7440885588196692;0.37747744246617865;0.3880535272428652;-0.10794915993969968;0.9678229753970543;0.5288522334345318;-0.8156703558539568
0.4591043952130479;-0.24092622395607766;0.4968299901166297;0.8420029740795564;0.8507229494212897;0.4327308761870131;0.9428034899905102;0.31765389236102043;0.8610762950956087;-0.939106299755866;0.8803476434337897;-0.9136935659034482;-0.42412192017586564;0.721087057018207;-0.4612558004022606;-0.1835912695139341;0.6893250293876201;0.01823155060015621;0.28529095487963074;-0.00998470890406465;0.4502891407447149;0.9793339821634324;-0.49033918875270494;0.278182726538798;0.238763231444877;-0.21814610047920868;0.004324930549523687;0.8899991273022921;-0.30065761415816056;-0.4911890507314488;0.045452404816981026;0.8058948301967175;0.6164630912684738;-0.2205183812578047;-0.6965996147643707;-0.11122204971303286;0.11018412542621268;-0.5625712215524201;0.42605636626099846;-0.6043553730168247
-0.8786051280070925;-0.15289876740008765;0.4282612154394529;-0.0016569015046696831;0.18771885176788553;0.6273312906784433;-0.38814811358688006;-0.48857553801933107;-0.15557206876847476;-0.2965541952944748;-0.7697071098104349;0.42638473347686584;1.0229988560467362;-0.7291578641873508;-0.8694881673690613;0.06027225615575848;0.4782472658376743;-0.7384994692004021;-0.7759719968321274;0.26068774274730766;-0.19609090271173418;-0.7637334632705766;0.9687798366963156;-0.3854235635389594;0.689978299162646;-0.07493114156878355;-0.10108826160002568;0.35990103285487896;0.933358255178443;0.018698885299164764;-0.1850137970248323;0.29990833682248974;-0.7723821282707031;0.46484611110674445;0.5942584941582285;0.7682103016719478;0.5743656742068193;-0.6066603597567427;0.29149295285066457;0.6365099513166856
-0.6366647445738205;-0.5150362736394082;0.41814906041985983;-0.34014521905392864;0.28710570028652793;0.5924513333638601;0.9343165838005222;-0.7246930400302606;0.7771014735076571;0.12494082751872392;-0.08934758678619201;0.08086804714739598;1.0382439059289712;0.7846156578740676;0.8242972293165186;0.8918986742215483;-0.38031231825491446;-0.7706785293994369;-1.0674248203487713;0.21228484794693947;-0.6752340566506099;1.0472038558187526;1.0553996507253662;0.18852035526452357;-0.7992954836940988;-0.16335794408170853;-0.2265055934045647;-0.7427730863901635;0.5616270542266737;0.5372612790678983;0.8933151053127335;-0.5132022712912083;-0.5046295824667429;0.4426158101105785;0.7093846979918875;0.583380208013199;-0.3915093105829986;-0.16245488859195212;-0.44680821669718784;0.20434799828023362
-0.6322453508980015;-0.5346572643196862;-1.0943841225147355;-0.05316141932958079;1.3506590909941014;-1.2631230807524676;-0.005219387536596674;-0.44384190061651724;-0.2503023914420663;-0.0691528363636119;-0.04267083907287311;-0.5519801071373274;0.8332797744364463;-0.392149855464264;-0.20316748648224492;-0.6622978780392733;0.49445512978274586;-0.594591959343255;-1.153283674627388;-0.4713083344077753;1.0139216056391658;0.91889876425082;0.4983093991686092;0.7557800356074242;0.1518006889913253;-0.4992985615773842;0.9680784705046633;0.4758903997066803;0.5590757201404005;0.5893471243922969;-0.24818061897021068;0.3877182083051002;-0.7361189499510321;-0.9471043398297959;0.645608053198136;-0.641370943991987;0.44147454623580945;-0.9857918474137025;0.880043575523709;0.04637456775993112
0.9602650992353753;-0.29872606581947553;-0.014701785556313962;-0.0889962385803181;-0.21670696435448333;0.3953489318095753;-0.34016734882079613;-0.05102379420602126;0.9007610977988127;-0.2991132851226358;0.1589195437823607;-0.21396723257583428;-0.5520602140703975;0.86380370440036;0.07752873800418095;-0.2772537628319939;-0.18158670621770945;-1.910296068554709;0.47461171534383184;-0.5006315866986089;1.2777451762253613;1.145852595098763;1.167522219738789;0.8635777877010556;0.4032346039366979;0.1434775813649317;1.074923129173895;-0.16450449248787144;-0.18165736092577117;0.5767095998608606;1.424903090177565;-0.7005234451034122;0.3587475654323526;0.2703292744972419;0.3064727544459594;0.2627238542312189;-0.6700603943151362;-0.9755660360215199;0.7747120591421632;0.06657279710259933
0.4920256751791312;0.5141059488134894;0.598807230140806;-1.0662050063693254;-0.24340989952229625;0.4949437999642198;0.5571259077557882;-1.1841345620423196;0.24421611330833218;0.5600845470810908;-0.20362272074518575;0.07619626342258672;-0.9765549094831439;-0.6344415887075179;1.291304571514682;-0.6506618989036806;-0.11682006656921572;-1.4414946245756861;0.7814256977686008;-0.03287262020188558;-0.4066520145438117;-0.4605515323706823;0.37617768603862234;-0.4258122520159251;0.6810999158735255;-0.5212466477199695;0.6929953735002724;-0.5444786852730535;-0.3378120927222757;-1.0322437960443716;0.9143293866587815;-0.46675990970492415;-1.32171348176316;0.2348077214198354;-0.6531977070208922;0.12821242912765726;0.489949961862111;0.7843019914958528;0.5800936620799297;-1.111166480963531
-0.005288501991524546;-0.1523144503386837;0.5672201136801116;-1.4910665949629982;0.6275222953373892;0.5773697708081599;0.8803350185452694;-0.4621885015746798;-0.5035189377197538;0.13957765557490884;-0.2971917754502534;0.4989902681942309;0.3138610796025872;-0.45567253785707224;-0.12571084034284075;-0.32760949770545805;0.3203133664649218;-2.0707740467280518;-0.4441353431191668;0.3739803191983438;-0.5628122828604518;0.8021522824406326;-0.17691464104156923;0.8215100603854479;-0.6682591527626629;-1.8556010543306924;1.3614549250542165;1.0667820054829393;-0.0786627285234526;-1.221392926301219;0.8584648607850508;-0.37479254411392565;-1.5207524796562057;-0.30723634030445646;0.8342427936335888;0.6276770404551273;-1.109092884018351;0.6660305945989791;0.02824005405397015;-0.6423989447556339
-0.8305209925819174;-0.1765969079167119;-0.9541870831584817;0.24926584602638163;0.7726036238239969;-0.737349503995409;0.0733422241566747;-1.751204397035018;1.066204876507419;-0.815463160410354;0.2786661225418184;0.3224639230687918;-0.26929978998564225;-0.09471577115703654;0.3187860854338227;1.272409082641378;-0.7043126501733106;-1.0710297839609821;-0.7116419286517824;-0.49173094240734644;0.3154271514970901;-0.28535569447901526;-0.259439152420027;0.520389803095449;0.15612260570393777;-0.779674519871927;0.8692377511277637;0.2059680455552606;0.07315063364856264;0.5970620638806521;-0.13573898408232377;-0.7005988494555926;0.19990237523563;0.1485252555637062;-0.5799421587036837;-0.9247080270842911;-1.1114105451304037;0.37329668524954013;1.0043996562952584;0.06422104616576908
0.722861146512579;-0.4604027613787783;-0.6713711171883584;-0.592991285767301;0.8360743915604769;-0.07526076006864724;0.37996732985624204;-0.8688379859076696;0.5882104929944247;-0.8847249336294875;-0.0424991328086357;-0.236815353593029;-0.27954993025517905;0.8536602583441047;-0.6469193484423417;1.793559816880919;-1.5623043786045607;-1.5600759052924047;0.6328218049660613;0.33200323990221015;-0.14178729722395783;-0.6860245026019682;0.057351468272102614;-1.008017128231231;-0.6767788750588354;-2.1010441434993274;0.4485187121424008;0.8096940511725267;0.22396141136183856;-0.8003727162173574;-0.3462840004102421;-0.20543761240666772;0.012272900640072616;0.19669104170197899;-0.06146605331776521;-0.7949365445800993;0.5604577874810683;-1.5958595208147792;-0.028877743092150472;-0.9322418336231199
-0.2964410914613826;0.7989518752859751;-0.13643769650529883;0.4635806324437349;0.14885038393286862;0.03900205854667754;-0.7597271117216358;-1.5570587384600398;0.6243933922689422;-0.4889350480463518;-0.9223043201319439;0.23630311409870036;0.4110921954768474;0.9144653505689211;0.5029313306278307;1.8833214132927303;-0.850617334189886;-0.48288752694056597;0.2150187105206579;0.41411205111567856;0.14445054125431805;-0.07669325650406518;-1.229294215622848;-0.33439815441804266;-0.3528343538761688;-0.9271607156580067;-0.20331440129944656;0.7251895318774468;1.20451302882342;-0.24070036815914772;-0.2789992966691539;-0.4594435723820869;-0.07955725479670077;-1.451471524551233;-0.4723758423084202;-0.22881250067216818;0.756882507903486;-0.9025248621604424;0.5035957352718646;0.21543571675563716
-1.130488205108932;-0.6862494663049856;-0.05322848615395722;-0.20055507092312103;-0.18634660120623253;0.2662509599760388;-0.5452247067892452;-0.05411042561949213;0.64587251861119;-0.9363477237343649;-0.6756553624854327;0.3924193091100064;0.3562240678717462;-0.05002023902622986;-1.0660645235972155;-0.31308764027216685;-0.7507802997230065;-1.401231241671183;-0.11077167204481415;0.16422731179390188;0.7342664238116591;-0.15566408691492872;-1.232218648642799;-1.1797359936940395;0.1620807763498527;-0.5916633915586962;-0.4506226552386825;0.6827399545824835;1.0437881838702097;0.6105925709020384;0.9549879452890577;-0.7207688099552093;0.41834825045510277;0.33753362600646114;-0.25952295235419437;-0.4371066819228321;-0.5728195129085705;-1.0603986348303271;0.9415155735027949;0.25833929746201345
-0.1340084864025689;-0.2525125933411209;0.3581688061325549;1.0632687353607249;-0.8323617296734643;0.8225024988043775;-0.5289211957642246;-0.8188576771275696;-0.5152823608871568;0.5264144474763798;0.4222286437223531;0.4605243323572429;-0.7900541892410203;1.053303938201762;-1.099462346813166;0.6593824590587428;0.023024201301234705;-1.516797294556173;0.15365311506029636;0.9916730949333594;-0.08265887212491718;1.2043859549057423;-0.008349048658328131;-0.9395662047657103;0.21315341866364795;-0.8722812998885129;0.7766280034483691;-0.426509396388908;0.053444799956089105;0.2508233269760769;0.9679108053091708;-0.00457165716255289;-1.0049802380033699;-0.5211486207073456;-0.5900356508076887;0.47038068692787444;-0.30841833900187227;-0.9610029825086348;0.6663392348711451;-0.08506663185842539
-0.2286792748049296;0.1060246462433374;-0.13287589446126385;1.999407224484807;-0.2205365561689211;1.3343251766618707;-1.6055436295717964;-0.12879757553851792;0.1062542210860208;-0.49099271661193816;-0.3562149061258404;0.4374149686491969;0.09852055872923422;1.4397346920420004;-0.4901934041410786;0.6033184400006742;-0.9030851855611276;0.20027815812634658;0.7286576934373964;-0.2033402078558201;0.9598887316029601;-0.29027477082005504;-0.3825977027860039;0.051544381722203575;-0.9534702130116834;0.9874133954666491;0.220494997925726;1.0304723734266903;0.18767276822531273;-1.0141838555217393;-0.09048499511119748;-0.105193311474357;0.3886886709451154;-0.005409536493875655;-0.1908387241044513;-0.32608192968072;-0.023384387589962356;-0.5017154288241643;0.40242821372772836;0.7509339644524883
-0.7467980723294386;0.6596835106284713;-0.6933300377210014;0.241661132385816;-0.148152299831461;0.7362968913546477;-0.20842452667184405;0.3963320907139065;0.9818622154323513;0.7559631466096556;-0.04847603534217325;-0.17018252194906633;-0.9922842222496866;0.9949045335789853;-0.13339913646751894;0.708041347173703;-0.49147229883987853;-0.8107173129695103;0.9802422884807008;0.4444555123324154;-0.40442307911545794;-0.5558578866423662;-0.518429752296297;0.0883796059228384;0.19624538461306576;0.0084786297000132;-0.002953162774616197;-0.4753465350514304;0.27818871276730506;0.9647986974675928;-0.39236600131351834;-0.8229121218314724;-1.005465522218592;-0.3716016049504204;0.3120500011134393;-0.6360157892539676;-0.2732873081091937;0.8370957546427905;1.7210484656138751;-0.24405545537507362
0.4474586766267904;-0.4333925141603148;-0.9726583117790073;1.0010095910236727;0.319735907779889;1.2531679127113422;-0.7692122168827883;-0.16263191463783355;0.30921707711711155;-0.7140331414036931;0.04415785991517098;1.3826844110228609;-0.805653286853473;-0.7857580890713748;0.3155185933660618;0.8529447249557677;-0.15598454461286843;0.3062576208432756;0.3446890451213924;0.4973945225144265;0.522488107825141;-0.4528288578143881;-0.5701417044314153;-0.022811827176123584;-0.6743339557326024;0.29079432847068054;0.3143593290054082;0.4644392376188653;-0.9198146754873987;0.6722396690196828;-0.49968165406498305;-0.4555017760007172;0.3639180922813906;-0.2718072344603995;-1.2284576729500492;-0.6815348231984566;0.5509156467369618;0.7739027220386804;0.6953063379739116;-0.16171633116631948
-0.7527522234892002;0.9567157993600015;-0.5130612408007823;-0.05750567188468228;-0.3898274056606893;0.47331748989535;-0.7711379587524831;0.7797866217367899;-0.9041374679389362;-0.006840622208731416;0.03638479576563016;1.2855276396604058;0.04851857793155948;0.05893547679864801;0.2732127225794501;1.566451809722349;0.6392870772922727;0.24284309372300905;-0.5206715244069078;-0.3235187501709038;0.42189898241834317;1.3138851209831213;0.26529851800974186;-0.30429496188120375;-0.7907615863930022;0.22278694742138846;-0.5897907090872241;0.7558381949255502;0.08448125148237755;0.01943613857701523;0.4129716499227819;0.011043739429496068;-0.874030601932011;-0.9889469540197594;-0.5940841213068695;1.0514818741478411;1.2721887755193626;-0.35500570891553723;0.4903251716444156;0.8895228385873769
0.5048379402291289;-0.1545162925299023;0.17995941834075765;0.2775158725092727;0.4077561668397033;0.22018902632869142;-0.8777747812948674;-0.06419118589505099;-0.4539842245901986;-0.6300252436742447;0.14535859707807405;0.12666602627519533;-0.7110925447075007;1.0318912805585982;0.36630838724374165;1.0532221507682533;-1.0808184388678972;0.3628612312072479;-0.8544164058617976;0.4895346453768258;0.13524656523415537;-0.18285619894305014;-0.02128516812714399;-0.41845366674907203;0.343357622195714;0.40249185490398864;-0.46963980297182367;-0.6963576115338826;-0.7319043012980683;-0.24423352619503638;0.5644575728715713;0.9594756235369781;-0.3737173631022066;0.18314477360851816;0.6174232189536696;0.09335716631179984;-0.08197178149723576;0.9548763415917751;-0.22183835734807067;-0.9038611288586327
0.3157655751115039;-0.5091527691873936;-0.7734015935959846;-0.29125649006601667;-0.6505368301028037;-0.6048307095482971;-0.820438387939982;0.11867120208404394;0.7461639898608255;-0.9010863570638596;0.7052091606707277;0.3679984211844393;0.30372576698193127;0.056004295522498304;0.5170624111560973;0.5808721719754434;-0.3339051268958824;-0.7572491494165344;-1.0857852527803356;0.7781600547302129;0.656875585433206;0.5263692196247983;-0.2788051231222142;0.7090413499244202;-0.4960231022032689;-0.05973584315712214;-0.3433053897255336;-1.0903290578765146;-0.28649081450081665;-0.2103094656843456;0.9976164149831901;-0.7959082671947673;0.4288983835751169;0.2892852332400917;-0.18529424961100271;0.2823379860437383;0.0036042492232246912;0.8205063545497773;0.32669838838484067;0.7827209070617303
0.8367160773465364;0.6785576982706049;0.2523783721197656;-0.331508313239481;0.1536941529094811;0.5999479169940667;-0.5845197339082264;-0.4805808177500193;-0.847552091300467;-0.10767628929973028;-0.9437505536270117;0.22124150487497057;-0.6718007539341002;0.9727840560772743;0.6202721462429236;-0.9020028594606017;0.18437932870067933;-0.19735431879392;0.20397235187787036;0.04167548597991027;0.8415706287095455;0.7579408611302338;0.12870171513283774;-0.33905075195434725;-0.002563741717746477;0.5492787689641196;0.587625982220801;-0.12896816391089386;0.22994567607910923;-0.33344022424549635;0.20170883960087707;0.949963452466633;0.5458583873054698;0.6681171469294244;0.7902647858364101;0.5404076133116171;-0.7022783280412195;0.9496392858621657;-0.8899111136662918;0.7506343845295549
-0.9543822059103015;-0.09603639962835263;0.14893416907566;-0.8257324836636722;0.2701607336193383;0.3158189493243605;-0.4870610883133312;-0.9090649118024815;-0.01715332362658561;-0.22521265040122165;-0.9018440863780414;0.7774792338926136;0.8743316451034189;0.2751607404470143;-0.08615761345496059;-0.8727454935526059;-0.7909802480689817;0.8216464901756511;-0.7629126921873305;-0.018841115177463393;-0.5559492000591426;0.012637965475707925;-0.39335473076360133;0.8950378097761054;0.09383537299827956;0.9102720550901869;0.6783332003940116;0.8203246090411745;-0.47340948405629474;-0.252673636709093;-0.2951019308497974;-0.6610810612988299;0.2688617226729095;-0.6450144624955176;-0.14580958579264208;-0.536854343369683;-0.22225149396531907;0.6868441962107792;-0.24484223707650085;-0.8777818815687455
-0.07415834125426037;0.7115452799161885;-0.6460161456904066;0.25882080772761556;-0.6424695560899666;0.06081680750330708;-0.6740650490071517;0.9704884507717636;0.856599929953914;0.787614903240698;-0.7211889561349615;0.5559166160459087;-0.3799334459533913;-0.6741756492340051;0.15721409185119206;0.4985559934490792;-0.31431165260616173;0.5895552921559136;-0.05560162601497132;0.043754757721018445;-0.1817083252179472;0.7327711034641557;-0.5198711066165008;-0.8668746702706217;-0.6578192504722656;0.01874949884851762;-0.4739511185686397;0.6029719401746825;-0.5257506649548025;0.1398253670848998;0.032607603518091596;0.6074272328016692;-0.4915394427550515;0.8702867758519273;0.4159818581115271;0.773393893224259;0.16740419541855173;-0.21374931710684517;0.6697531379365442;-0.5388262284661323
0.8493907852734695;0.40735414817550675;0.4434130631880333;0.733977755040609;-0.31690611441947913;0.028023726275962613;0.03012229573421532;0.15966960507422856;0.8483866229174637;0.9740031580492112;0.9839699872064782;-0.3838941650722336;0.9680169740617841;0.9947230044916502;0.2408937486689562;0.18106461985979383;-0.8136686222607998;0.5992848657932133;0.6780665607643983;-0.7885497162502748;-0.37541542663345506;-0.16885271994785422;0.026871817113799823;0.7963861260498886;-0.752189307599304;0.8554507582433615;0.46944318448941624;-0.08859559754298818;-0.8434984383140363;-0.3440814586597656;-0.7466964356483208;-0.19397837511120475;0.8495388015725911;0.12459614405689501;0.22308966419863063;-0.5754355543550576;-0.8994684659252923;0.8765229805439498;-0.7046981604368081;0.9901904987885173
-0.25208671848220465;-0.7672438020223067;-0.40852672376555077;-0.7253744239177031;-0.0801450592163202;-0.01100498709944242;0.19710318097933577;-0.46878226340735707;-0.0017452124651649026;0.8233822199105121;0.32815476582755143;0.5864862756098199;0.9717681694455513;-0.5041117877336456;0.06386956800760824;-0.8345781397414185;-0.26395625473618445;0.3530097330117461;-0.25589592501080927;-0.8316271391695242;0.3700359729749818;-0.9246553729676699;0.6313469401460599;-0.6775704753307541;-0.5495336432613069;-0.9080678911849298;-0.497970846393607;0.39779748799865233;0.06220956308902226;0.634075110146904;-0.5413079927586799;-0.9902706408571906;0.32058312398515154;0.012691000872791625;0.44402993336432384;0.9191610422104959;-0.05777673695209251;0.3770633342598353;-0.3102186135077243;0.7002778650783195
0.6844316401029001;-0.05080535387049096;0.6478897601869467;0.6608145784246381;-0.6814182399117112;-0.47319391895496365;0.8283877067491558;-0.019032096863236755;-0.7886236411257657;-0.09070744516935081;0.4073242707894157;-0.8206089478577799;0.558476912805682;-0.17510074034849005;0.47202080971345406;-0.7802185934440993;-0.15198163999331077;-0.07643011490567879;0.33144433071626545;0.8392199490189621;0.22796305221377824;0.44880156694581164;-0.548716773056554;0.009413510470669288;0.10797734546704298;-0.686744073649939;-0.7410626194552726;-0.1653622703024522;-0.4509455589252598;-0.523469227657018;-0.6824714704774847;-0.3547780322584666;0.7758262849396701;-0.24002223247956514;-0.8180789773170447;0.5630058488386762;0.49313814433848124;-0.46779936902834246;-0.373429536525594;-0.6047265915016855
-0.4042970241218903;-0.967954492374997;0.8751139090741319;-0.6437277469324967;0.33140030840052465;-0.2548544336898522;0.9636824139294775;0.8202635350318171;0.01429252847693902;-0.052713240133551026;0.4347780607972931;0.07201498515983447;-0.03410542796878538;0.6552980355055714;0.1467217137055214;0.8318168180952744;0.5495812383276233;0.8635912168569312;-0.6421243428367673;0.5985086595754161;-0.16133438698072874;-0.8017722605230441;0.5791022213771138;-0.7662598856945911;0.83481353560768;0.08056276684485263;-0.4470440714859043;-0.3504699994513139;-0.16271459843864225;-0.5953787245313079;-0.8486554978111615;-0.9513752458517065;-0.9543768695299176;0.9474044359338906;0.6462195811770277;0.04558140161505544;-0.23847917469310456;0.9269073344375498;-0.30335588991980067;0.2797639567481028
-0.6282735969328865;0.9494485045789753;0.1171821545234083;0.8758997817071271;0.08897089159138918;0.09067815036191945;-0.6166469785773608;-0.43936733267064915;-0.2187234951410284;0.9994371149548376;0.7505945054581934;-0.5088867985697437;0.41017462485929274;0.48546563230376966;-0.9855543385139738;0.20113719921356005;-0.5244087100355671;0.6771651101635515;0.6667436517372678;-0.9874212523811335;0.19131520662350684;0.8700920901153872;0.7641111563416934;0.1322753901392133;-1.0039364879797548;-0.5541788050459302;-0.3699447031694038;-0.8120545356725469;0.5107542371161986;0.39530402600970316;-0.9178160047131106;-0.18993211149280678;-0.035607573866084305;-0.5419015500131984;-0.18786500974852327;-0.8076013084593935;0.08809571408534736;-0.0988277513178489;-0.5405438016436329;-0.807609171019663
-0.08579313082793544;0.03165727822364454;-0.3076278084064421;-0.5942824111604487;-0.3822626478217712;0.2426815818131134;-0.12643747094963245;0.6777483221244955;0.5971071581435089;0.046322865145619466;0.3902802198939367;-0.4305118085131145;0.38614580067379534;-0.42923466892096496;0.25199122196234697;0.048090300897659005;-0.2640289505276454;0.8106723880930747;-0.013549581528561222;-0.5781105550993905;0.38526151365098976;-0.679436256592856;0.2027499380138675;-0.6060491661448515;0.16515209638740727;-0.5428766285967929;-0.06287415955549372;0.5790498277569958;0.9025585735311892;-0.14219548325754228;-0.8074412148899205;-0.8639684923048053;0.94602730276916;0.15990927793458468;0.837413050324886;-0.7618239817466369;-0.524680495431274;0.8240347209641177;0.14451100983021084;0.08478714508783042
-0.5482972060273393;0.034594543442446536;-0.14742509039814808;0.5408012002886655;0.25294742248640456;-0.21317965413280504;0.11946454809343648;-0.6695032809909002;0.41065551359489927;-0.30828375175485406;0.42045689915438444;-0.020114888197244885;0.5858518253723652;0.7334430407939874;-0.6191110415732642;-1.1731774901847534;0.7109296192369231;-0.33571212200316924;-0.6692410961948658;0.4646230608095092;0.05939808267964001;-0.7811759705768128;0.4199332538714128;0.23793109551903172;0.8211164680553797;-0.3006649356980545;-0.25515674014478607;-0.02926033535042199;-0.5474718817576777;-0.14222781031867665;-0.6761825495961683;-0.42442538208889663;-0.7515210664603087;-0.5771009239543339;0.03779804092451026;0.49982054585926083;-0.17749510005998234;0.710670182042432;0.02174080750956117;-0.11671302398776175
-0.4339144329455757;0.03246969323562208;-0.967980063018078;0.44281724651025156;-0.9447770467941145;-0.41076119370047537;0.4645821059976158;-1.2163715176766774;-0.3239771824438746;-0.8372040026614862;0.6171390528828362;0.5697603640488839;-0.4208804625714518;0.10845281774508891;1.325041417229462;0.6707806342782956;0.44092248641781845;0.35111740491986354;-0.23925708954119468;0.28394900991874633;0.7854229013889372;0.8653728276775391;0.9106956924694946;-0.7281993973287862;-0.6657795692283651;0.368995721459512;-0.8795556923624861;1.0121771903847143;0.5024897105881765;-0.48293219911871693;-1.2831514720998023;-0.40633923195460475;0.3477721452051027;-0.30556637309564416;0.8757651690677722;-0.303417264929809;0.5152673312847085;-0.6259868784412851;-1.003810142843366;-0.7735957114833883
-0.7189837250510989;-0.16232176143404037;0.6921709735153082;-0.7193269016562645;-0.058455278074449106;0.9662982492345173;0.6349484911113247;-0.3149261029396943;1.0470503933072235;0.4715441622928319;0.274845551036792;-0.8792784529808728;-0.467860805300084;0.28839412743041365;1.1613460675795737;-0.8493370445182099;-0.28946638477341846;0.2917663107874945;-0.3890128350794715;-0.023678645989375132;0.8694102685142596;0.15045371041690087;0.14152619521393572;-0.9249536921162121;-0.19011460569786037;0.9503280042303643;-0.7918846294419778;-0.8296120371196443;0.9227210225959906;-0.3277567212958042;-0.3080826105555855;0.41231387772189104;-0.4379202322642077;-0.8418066133993629;0.025812221716552286;0.8775053891368421;0.33065213466763477;0.7257803545409063;-0.7566286764521641;-0.03239434765345317
-0.4911882999368891;-0.85779382433817;0.02975866713239552;-0.6783755637738452;0.9169080282992988;-0.1107668005054373;1.251140196031537;-0.9150251401845251;0.47757836090269984;0.055138351863733726;-0.25927653722345056;-0.07374467633574465;-0.6010836278168827;0.6914553042681049;1.5826255181586122;0.25297324159329293;-1.1034653060740067;-0.8845353591092346;-0.10010890057986858;-0.25343697319226116;0.17099693648071035;0.36669672424466737;0.4560877755657005;-0.3540405882522152;-0.3768625629745382;-0.9156455566704758;0.3665808073906438;0.2046020361421702;-0.33959316742891904;-1.2187783175655267;0.7013887190220499;-0.5308147221785074;-0.6977511372694336;-1.1185080024418022;0.014883845185039409;0.9490226998167975;0.04164170756866889;0.5696198641873662;-0.6069180351784417;0.614638195115055
-0.7110138668213698;-0.2551414224738604;-0.5855352046228974;-1.2960891147479525;1.2032940592716206;-0.1421477577945387;-0.5918796462380379;-1.2058587384969548;0.16175898469211333;0.21592339056011786;-0.3604756978420205;-0.9157132829639171;0.8588076649288987;-0.19063812177471098;0.803039220948156;-1.0943785979308862;-0.2515522232277528;0.27176434576291064;-0.7601827333211715;-0.3192133880831041;0.13508240435574512;0.5996247962031889;0.05707164350465773;-0.9625549316055236;1.1523349844182391;-0.5003458922230677;1.6356007421941114;-0.14524292763995034;-0.6294772940268399;-1.3827987990023414;1.206565747715925;-0.4047110526963454;-0.13107024838826226;-0.7102553746066939;0.6129246911678906;-0.22343306678100996;-0.3934379414841879;0.30448890890325153;-0.47356873200910615;0.12009583155328032
0.04410285531756083;0.22510933840671893;-0.3542970753535248;-0.15238229971294584;0.34825430628608434;0.5033908773774667;0.8539746188787305;-0.5833941227071694;0.6431229677680238;1.1645836940197707;0.15579979048388506;0.24534398389831563;0.3548731206506155;-0.6863995848859779;0.17759087711646587;0.5911472482344734;-1.0537352504093658;-0.6646814953179107;-0.8584751248160518;0.4259328495452535;0.9635507129779749;0.8962025045177457;0.13336752398427176;-0.7985194210912053;-0.7007467053657219;-1.3161526372064436;-0.14223726669530487;-0.07995360010156342;1.5148249997522587;-0.03283370202905064;0.4159911491823107;-0.11332469085591663;-0.8088678951865662;-1.3799080895076468;-0.16460234133279364;-0.5184424799215371;-0.7472546491969632;0.6402860036865179;0.8307694701803376;0.20465941845085361
-0.9248326380504549;0.028084617954417405;0.13587008957777896;-1.869636897325879;1.2094697748040961;-0.24834413621286183;1.4635166491172262;-1.0531466495510309;-0.33410381539006734;0.3133305368332125;-0.8787963146848583;-0.9050755623226614;-0.19184683547836703;-0.6011922882571424;-0.14837395448674637;0.0380667217866298;-0.8602018899749656;-2.0727160306751413;0.5459454317794212;0.6332827834910568;0.3962854470774111;0.3791781737085149;0.4932901618738604;0.5161864555015093;-0.29009044523107824;0.37674101377324654;0.07482403801526681;-0.04269526085667454;1.0959288902984519;-0.22343058160212104;-0.2924621746527106;0.1725120681353956;-0.4410905630312275;-1.4769822159223325;0.20398768739600537;-0.4814404965869011;-0.84325808566932;0.30029967343610253;0.43986489046738847;-0.7205463948160946
-0.42692201968211757;-0.6249313148779813;0.573029871944744;-0.21491476836466458;2.1546239287449063;-0.9728873363170676;0.3102830602693604;-1.6021986238218495;0.09126082049912465;0.7570200130129552;-0.3797264241638603;0.22027270804852597;0.4644227794530393;-0.2164817396198062;0.12965486126147363;-0.5257047566486978;-0.057786215041471835;-0.6396215842192007;0.5467638845580632;-0.2105390697934606;-1.460850757366696;1.150200296894781;0.8890744596696778;-0.7901539588079195;1.1386924865809787;0.06473727417506811;0.3983639442097573;-0.6708411451365278;1.2833402413659916;-0.2819715551126739;-0.7313116781167398;-0.579957478630562;-1.1199900466380246;-1.3988305595527473;0.17522702788744254;-0.5721595612265085;-1.641950635570599;0.4501550937428412;0.9352186269919359;-0.9051530572004131
-0.9235210622800709;-0.6820764708219211;-0.5247531663869822;-0.5674238596127801;2.059830249887825;-0.07591591571891493;-0.2251092526595851;-0.9985058423736354;-0.40372311880182543;-0.161151026149365;0.22562058832215248;-0.9379399434478731;-0.2760542796891235;0.023602028972170046;-0.37511556476731484;-0.5278898632274837;-1.0625615988285473;-1.3563407776616896;-0.006838077364913633;0.5409726254162146;-1.0443552886114615;0.8008931231388062;0.9971249651498201;-0.658107088157296;0.440231189769047;-1.0534985789502271;0.3700417032368667;0.5020720065275921;1.6131170173702745;-0.5411745991633805;-0.8650326722223616;-0.8814334313170359;-0.3018152432644673;-1.5249596986796037;0.44664428710035353;-0.15671772380190332;-0.8342767421241194;0.731836184512722;0.5840441649299315;-0.9836964996313001
