NN;3
fastlinearlayer;784;40;TanH
5.193705053514047E-4;0.09604642992790677;0.03638478729117536;-0.05093458278688861;0.04244536126780751;-0.06852937681730138;-0.04515460753523211;-0.016392536164579363;0.021109940390876727;0.09440915939332092;-0.06294110417289252;-0.03668920247358064;0.03372105634473027;-0.08783662055893737;-0.08575184809543482;0.047147899495886436;-0.05917104833243583;0.07068939874074653;-0.028396714876283924;-0.05662896887836395;-0.052423861528184436;-0.004151875529803159;-0.07046829593942545;0.09076224521852091;-0.01505256346474411;0.03465525193808108;-0.0750918843101702;0.03988336750511304;0.09101992794558164;0.036531246050590965;-0.0076754961287057305;0.034326025754100264;-0.007787007788724695;-0.06544862059746434;0.04534013167821016;-0.008038389602658597;0.08453829368875074;-0.07330430711760323;0.05773156160694923;0.08619132751812073;-0.03839607586617704;-0.050423478749234855;-0.04680400498485535;0.048005986582295435;0.010957633937655253;0.07864317937285178;0.0031858991509296775;-0.09421378023984817;0.02792411463369046;0.08021775600323375;0.08893839953476662;0.04018152409826678;0.02169424008236212;-0.03764108291988364;0.06933307713954362;0.06284554016780622;-0.09135117404055554;-0.051872224404264866;-0.07393553178889911;0.016059345209719605;-0.056391388032208736;-0.09316212023144094;-0.005107953520030711;0.003981462168568914;-0.04891569634628057;-0.01469478090311252;-0.003109776745497214;0.02389785084496407;-0.0434734722033423;0.03909822445198208;0.06969835943493943;-0.0025280860508402475;0.01757586230460126;0.06378777711189607;-0.001229255255091835;0.0019945001744198915;0.0553128273665473;0.02619718799298079;0.0486266216664189;-0.0983661046505468;0.09486944454702337;0.008680767098962455;0.028380328470956534;0.052013773485771686;-0.07143841404247553;-0.049403441029290285;8.475192686887567E-4;0.05266930128129063;-0.07558105752068095;-0.012261806066718312;-0.0702577925044585;0.06911452328552917;-0.07389171255744205;-0.05354628048224835;0.07917183099520061;-0.09170558568614368;0.038490232354706305;0.03459751717170639;0.015062681108922643;-7.147194629822939E-4;-0.09113075736010492;-0.07721966412000883;0.08640989755326053;0.07454478714141569;0.008243623575950237;0.025619254259880986;-0.09347253968244251;0.05116194426613882;-0.08744445502555914;-0.017012291778639083;0.034298205403298254;-0.08789289215884809;-0.01605899374391724;-0.05873452309584455;0.055423813741370564;-0.0125180165942812;0.05197985815055425;0.03458868947638305;0.06367480905002323;0.03576961800589579;-0.08364359649158466;-0.07142202911865221;-0.07516246727539953;0.08975050043043067;-0.050721115716244713;-0.09710928640145407;0.01587571515463637;-0.028182766456334843;0.08522040385496629;0.07429658713222057;0.09390401942703586;-0.07135523167322817;0.046117882217667744;0.010328817219892317;-0.044744883537458514;0.01856834318870046;0.03551223639813106;-0.007062858818350962;-0.05650932052547966;0.07996469550154711;0.06979839693768913;-0.050262205397767046;0.08065138555221235;0.06250206020357024;-0.09052471436587323;-0.014736475164782076;-0.001493085736253577;-0.04160981371639963;-0.009604156052980511;-0.08778642231490326;0.06980595519985344;-0.06636967951710504;-0.0449829982015731;-0.017296298029238336;-0.06047381428474348;0.05926521781908348;-0.016350294021768505;0.019516151108752863;0.05612431423517089;0.04262913124848686;0.030401899664901755;0.033307128713868345;0.08012969581486093;-0.06734069357053114;-0.05863155882796154;0.050276895792136594;-0.08177749905306633;0.05653814246291175;0.08313501205144014;-0.0070078951305043435;-0.054948037564588326;0.06552270113279104;-0.032413767574732785;0.08751278952105515;-0.06281833637025616;-0.026991783133443886;-0.01872287140929199;0.07988189454937761;0.03647058031739897;0.002997839463494703;-0.033316864651714836;0.017375269372088067;-0.06867689012573758;-0.028647372517657463;0.0034501042906266016;0.029751676310645153;0.037939052731316786;0.06704154460912545;-0.010355705790157127;-0.08949721006158491;0.08156362364364506;0.03339147092616229;0.023002370445601578;0.09810319940897833;0.07773744507804034;-0.05066279773986069;-0.017818586826101906;0.0572603899228101;-0.08645344747845532;0.010671425688326422;0.017168126610646553;0.08817046429054079;-0.012445838024231853;0.06532858497681074;0.011150633924316408;0.018222437355950943;-0.030154674858331496;-0.05136998132759196;-0.0316369070534885;0.028529676281193656;-0.008507587018963286;-0.017673336368463133;0.01131196238921113;-0.08092028512301197;-0.05558283798314421;0.014727587448026117;0.05914675809980119;0.04431564709297528;0.03280937191454608;-0.03577758507903937;0.05891006805536783;-0.055613860968220255;0.004376908555329684;0.05053134304897455;0.016787537554668358;-0.023604585859019894;-0.018404292890404947;0.025955138143151424;0.02935788421242483;-0.05434671987166831;0.09295977213002923;0.0066251299596919305;-0.08515710492777612;-0.0630749126683525;-0.09576883725641124;-0.09624678820695386;0.04435742073918475;-0.05431822350435387;0.04969001956672239;0.054881846529510364;-0.06346095810946813;0.09308786165617222;0.08024441478383415;0.022187178885963083;-0.09623389830453254;-0.042113350878652915;0.031800063082827484;0.032299917038851905;-0.05017511572368816;-0.038532225908687816;-0.08710917158710876;0.07914723267559506;-0.09559108306317142;0.020600580183758294;0.04493997508266914;0.05638444870042747;0.05098370790561152;0.07613887352430243;-0.0562322497651538;0.02237636137541832;0.008036735253345875;-0.025729061514160725;8.413608424813201E-4;0.0814472351981968;0.010327444750766551;-0.05223047041396507;-0.035475007571409076;0.06513081864130371;-0.009862740352455074;0.09724187828598158;0.021329809904339372;0.013420324128756017;0.058519578530247196;0.0723796789272266;0.07716394350606795;0.05601843781493396;-0.013450229799940011;-0.04679088658817903;0.0385824926137176;0.09358732042277138;0.05535255887485943;-0.005481521809871798;0.062166894589003874;0.061915719419369686;-0.01314279932300548;-0.0019935743084433383;-0.012093959237642046;0.029387248838488672;0.009487047990540676;-0.05147829677671212;-0.09568350515729836;-0.03840829387560179;0.0065048487934017685;-0.013650839412105903;-0.04559166532618422;-3.249375770757179E-5;-0.03651950818046194;0.03689327979911944;-0.0508762501551606;0.03669768821946465;0.0995409843003568;-0.058071841216265234;0.09858707307584061;0.04595991672855598;-0.0013795345311105461;-0.009152460213123687;-0.056645248001257476;0.015176504532429289;-0.05928979483719202;0.05191478115297163;0.0856653745824296;0.07626436936393394;0.033108605407673075;-0.09648712320961877;-0.0793103501456298;0.03688506829170879;-0.05832881290097867;-0.034605551186049355;-0.03221957859520577;-0.08830520367680153;-0.05016095455234329;0.052330697684034394;-0.022483147552156343;-0.09615776609250065;0.05887899991593798;0.08454280840724168;0.04371513846151709;-0.03172815929394572;0.04851796622659804;-0.03597118412579717;0.055897268082200274;0.040387336019446524;-0.03600601164747862;0.09990920530467176;0.08589429832370643;0.003558473987332486;0.09904364363604931;0.04511550108534204;0.04466082520380718;0.07559104162988092;-0.02284795488271392;0.07764026611792119;0.06352498011207439;-0.01002312988322393;-0.0671971591178265;-0.018212907773491827;0.075438426177722;-0.022856183766101504;0.0927282074501003;0.029420602485899783;-0.0037736334416227785;-0.054294220387207374;-0.04284113299663009;-0.03878353154894172;-0.09416246813277447;0.0637126871775798;-0.01892592518565421;-0.032088614336672275;0.029594194422246173;-0.060099486645341815;-0.004090922381564721;0.09466450335690596;-0.04820153020326563;0.07796960217777299;0.008452631095624968;0.003950153901117082;0.09906064154793318;-0.0015972748389204011;-0.07960429578834648;0.08869631057058505;-0.028708267088298656;-0.03275112088762887;0.04111989900347146;0.00500394511693443;-0.05173480323715134;-0.08509287491562695;-0.0713969904787239;0.06538270717221648;0.07397567058541724;0.04381021248761646;0.020669024901876012;0.0700009481838994;0.0878889914669749;0.059674585144034786;0.0662381205211266;-0.06206429339316082;0.05619217831035403;0.002750381380096173;-0.043423327011776515;-0.061577289023355644;0.0030434498081773204;0.0790714192187745;-0.04345276062279089;-0.0778936170169597;-0.05817778738493898;0.09170522031453948;-0.06414143373919819;-0.047710162436998355;-0.09362093557902061;0.07200299216509554;0.062029145236127015;-0.055680403529657176;-0.06924847054587624;0.05079162212681451;0.035808772067736444;-0.017565257461883615;-0.08016903497012975;-0.01913833329563648;0.07717319904150993;-0.021820359285101065;0.0939546463807453;0.062029522009151294;0.03809759679313915;-0.009375190320932633;0.09936655075156561;-0.042209246997359354;0.07940725087622963;0.008003365355066433;-0.06821424119677207;-0.09857147768854249;-0.04797247614252827;0.028961009830670126;0.017656440549738;-0.02273640893441886;0.07823389787808255;-0.05619394098273778;0.09539786811732995;0.0019043167563022323;0.03290194270944141;0.015759416665936304;0.09665440764195979;0.00549664811394876;0.024757316591280262;-0.037795412873384865;0.02754552606796029;-0.08702585021206573;-0.022374215048732493;0.035937670225776513;0.04991578602576688;0.025307964441928926;-0.0018746966046953861;0.04793050491431164;-0.04557390002207123;0.08923953532311299;0.09348511038746815;-0.06624848504568573;0.06824566756647849;0.023092719108240803;0.07879238397809218;-0.033168527807565726;0.07645269245567865;0.07157970086477147;0.017898411639420825;-0.07990547631557261;-0.03075266996065687;3.7977594278790217E-4;0.06016473719921733;-0.015212405155935582;0.08796500328924203;0.059119975628644905;-0.02828685247714853;-0.09826965367710401;0.05632638049649216;-0.08737489550899576;0.06667569197794113;0.09256520837605561;-0.08831261122426569;-0.02783228783823931;-0.061555330883560334;-0.008992650337046576;0.03628919776698841;-0.07328190508070956;-0.009077362801419062;-0.025905294347385352;0.08850824506075963;0.07419431217286063;-0.030227596144801305;0.09343796232553458;-0.06589379202103568;0.052712182085413284;0.09665978094219813;-0.02230783199241286;-0.06659352651596236;0.06264885737026174;-0.05326204015892564;0.05628250085683309;-0.07559481452239095;-0.013627190916154691;-0.01436735255987942;0.04625507050725841;-0.08821756486292281;0.05048420449571775;-0.07298168045247824;-0.059501166969725364;-0.0710302164299298;-0.0597146706926925;-0.030603887278387074;-0.037958103111176825;-0.015149558122409479;0.06184262277572625;-0.022656182341511122;-0.054698465793621434;0.04500927646255351;-0.07676331995792492;0.06276588748077508;-0.08266581988497741;0.012982832219719714;-0.08418772765885528;-0.03385655397360142;0.0790854201825896;-0.08849070089878573;0.09542832250763159;0.037784254414107626;-0.013359989377633719;0.06377852934599462;-0.03629209567578802;0.019072755095029342;-0.06752813725999521;0.07468203980815694;0.049288262731242066;-0.09530402180937801;-0.022404333498507678;-0.062051183910140285;-0.058742885873292267;0.032147943939819734;-0.08664981299320172;-0.012673675587044977;-0.02943924120208362;-0.019495614896848507;-0.004824561567371433;-0.014583436107696829;0.01980814268110956;0.0422378789038029;0.022126639655072222;-0.022689491858211536;-0.030420862239760912;-0.027129677808269734;-0.08587917527007621;-0.01322653465020665;-0.06305955683354253;0.022222916635631668;-0.05681315403395231;0.04749505155024039;-0.09330443559037581;-0.03433380138159828;-0.0352846319419539;0.03433919965642129;-0.03736516864716839;-0.0646299994127554;0.048708880100320096;0.09459416849482591;-0.08121461659562411;0.05155348690959319;-0.08896831624072697;0.07922251309595205;-0.049338818468181604;0.05373513310461567;-0.05534010961378948;-0.025888873489310862;0.02651299941442098;-0.07345248853073268;-0.07708025592670387;0.08315803436433689;-0.08148202166356665;-0.040919516571854254;0.0788850555379224;0.03679915897717053;-0.03561943482953318;0.06811994186602094;0.06467259481813123;0.050029839632280436;0.08805773811405188;0.040860115530277664;-0.08637619410203458;0.03880493620018416;-0.015809809153882533;0.09443726788818625;-0.045419528034225484;0.08937234311997963;-0.013627342135628278;-0.047772128618047256;0.09476421593171935;-0.06639675740638484;-0.054887896925001546;-0.07372771224959432;0.09958796135555084;0.03461142075729579;-0.08863080616725545;-7.435895536393247E-4;0.07562510747116538;0.0653298869055687;0.018001410151112143;-0.09461637316656236;-0.04942206575404137;-0.009670109395935652;-0.04002552983108928;0.010950431768276208;-0.0419700497882273;-0.05067683824350371;0.07488989292300367;0.08241429586903828;0.04866585020660587;0.0928805171876902;0.07935005842924207;-0.09428760568342705;0.09159568588149816;-0.06672534716472585;0.08843905222539264;-0.0801435608489756;-0.004373314602641579;0.05101789021812284;0.03537935076983198;0.06203058252838395;0.017580289061958573;0.06118437477462851;0.03254604762223362;-0.08092009047082166;0.021791725041066662;-0.00730430951214912;-0.01969627100810716;0.032763293555820756;0.01991507350284289;-0.01150790828418911;0.08097459959718244;0.03716526512310422;0.09462072281999581;0.05972149893603198;-0.017881420767097325;-0.00621293979345765;-0.06012878033921157;0.002954183524802644;-0.09120278058097013;-0.0791879968500308;-0.014557248827636845;-0.06557984753446684;-0.010628858185445764;-0.0791850524122285;-0.05343739537841093;0.033083408118426694;-0.01704270863384506;0.007905971969841314;0.06027350706774098;-0.07566538665526233;-0.03788065834760276;0.08828048707131654;-0.07409668533323954;-0.022007600572358687;0.09436408867743606;-0.0535798765780406;-0.08319544165369282;-0.09059127386934802;0.09593382471745104;0.02813855892856112;0.05855474885206114;-0.08739063542529228;0.023222980333262703;-0.016891270199101076;-0.05143360203878193;-0.02547115979456139;-0.0886489638264718;0.017639761481646064;-0.05329318466979259;0.022221772175048993;-0.06351523568336613;0.08267567345332306;-0.051723670240628676;-0.07076343822880454;0.010264036852077588;0.05925224614105157;-0.024856286288833445;0.08149335882204876;-0.037837686148446084;-0.06242660134442951;-0.05037315549272903;-0.03819403577231916;-0.08523521558878204;-0.005616579558737917;0.0958813873846995;-0.055917788420685295;0.06086441790397378;-0.044130570750255164;-0.09028656621129232;-0.0645489196890615;0.06135305302756301;0.03056445284243882;0.07404085503427611;0.06797034739612574;0.00693868219862892;0.06022453744016911;-0.07016597415668469;0.011224798157986472;0.042147507895071795;-0.03793843418015266;0.05478311343934254;0.0992240532049267;0.012756049925233959;0.09680368510000655;-0.026847165685856426;-0.07515499111593156;-0.07043092139233025;0.09499346832986436;-0.011338028118387338;-0.03483795199278936;-0.0036221646016614557;0.08941159108571939;0.01429481281861539;0.017066391039964112;0.04350145850191821;-0.05294150897534863;0.005270357107272797;0.025842687758688695;-0.040769866939809385;0.10002630549442218;-0.01098931639376202;-0.08301194552019772;-0.07996350200785778;-0.023925491787508715;0.09989333885983664;0.029714304441025595;0.02110321100188487;0.07170973291837446;-0.022937286482024893;-0.002907900273693559;0.09744174273289141;0.0538517017810434;0.011221979918490096;-0.003417520415212441;0.08596923913028517;-0.07479311380835148;-0.09540261906036987;0.08751496426246883;-0.00709260417846283;-0.06829659103645352;-0.002873562376393718;0.008914604788325259;-0.08855308857580735;-0.07422426833051524;-0.044434479587619036;-0.05306221459064658;-0.09777767158582118;0.047614673361185605;0.054739835084697125;0.016122254231084265;0.07456203098376299;0.0064174024668395;0.05879345041635853;-0.059362911707013535;0.06773825780067194;-0.03836257727186563;-0.09756071886297313;-0.06446726983055631;-0.06778290311418247;0.004234597880303698;-0.027790920172284822;-0.012009040994377579;0.010908474530558293;0.03792513460892352;-0.012296547339860492;-0.0614250907629442;0.020416174016283067;0.03728642642633201;0.04394488572434896;0.08559186250448747;-0.003954643658313911;0.01553953668390154;0.09554043414116767;-0.03628215313830037;0.04907352905026813;-0.03277440542638124;0.06584922655001976;-0.06972644565786133;-0.050765124722933444;0.04078603184874233;0.038362127687060044;0.03700242583146654;-2.7147979386736576E-4;-0.07592121523295359;0.06879902134487412;-0.05931060887979234;-0.058392401561240176;-0.024371701345698507;-0.08364121486636328;0.03441090326955196;0.08502923769533874;-0.04412448541363854;-0.025030698994943285;-0.0212150925879514;0.04050457231953439;-0.041572114126426855;0.004537459815857736;0.03322085425578333;0.05014874486153473;-0.05869063525713643;0.06219915397032988;-0.012830304292837644;-0.0810690982991656;0.05821040690122056;0.033569276023345807;0.09137389837508975;-0.054075817291445775;-0.033904924108567436;5.279736125685437E-4;0.06121602654549096;-0.0651482020146053;0.007145089636610144;-0.002963185639071623;-0.09394009898863498;0.08556560146259048;-0.0802525497470328;0.02444145570766638;0.06365638530462929;0.08125421135776996;0.049924163452979446;-0.06426615824041972;-0.01969779444773314;0.09759700508560298;0.08926644725690427;-0.025306501281491395;-0.06215716385051994;-0.008820647993390196;0.055601106569118035;-0.043922125253641135;0.0349649545684203;0.0807026137847898;0.07379632693301043;0.04793447301731187;-0.03143203528778371;-0.0715021800316981;-0.04221877736698576;-0.04827422711704037;0.014781134351601336;-0.07868573622881928;-0.008590749396266714;0.0849381725601281;0.01042615540541572;0.05190363935103195;-0.09034790916203679;-0.03885837030825289;-0.0657871065970885;-0.10000380999307565;-0.04725117034759685;-0.0871983633681914;0.015887557254676887;0.04291859309448566;-0.08780232038615061;-0.01864718721004366;0.06374273200368648;0.0770031067046859;0.010293347032889852;-0.08989564822194727;-0.0026725068913154696;-0.001184520104487777;0.007367034309213758;-0.04102184241011373;0.040651413021498696;-0.0907206732863718;0.047016413506118765;-0.07163655329014018;-0.08757996309793027;-0.037882377082215625;0.08356216526513324;-0.01652128579295104;0.057560895359908555;-0.005157372302563915;-0.0895894125908178;0.09252579811039134;0.07926346870045871;-0.038280044888481864;-0.0036943559449612983;0.05062671187030726;-0.03128465084452271;-0.03798080529972272;-0.085933762160658;-0.08009308376888573;-0.062265810469477725;0.07343607932207614;-0.028528688268369806;0.053007863527692586;0.04966483466153988;-0.018437778197657826;-0.08112675420146348;-0.03479503401617857;0.008058829492502716;-0.0021693757599984946;9.608060872698459E-4;-0.01374240567350734;0.06872002687152248;-0.04292755550017132;0.06985961487426544;0.01973729404440391;-8.255443586602434E-4;-0.07629125087516056;0.06919258141424868;0.07384947480085209;0.03990279219659058;-0.016181007942250934;0.0016341362308177323;-0.01543621395491683;0.020089297844506547;-0.016740472472933268;2.387389850918852E-4;0.07884923906668248;0.03959373830795049;0.008233398569830247;0.0021393514472878425;0.07398102320624296;-0.04773256428402639;0.07102331066126012;0.042879650923100886;-0.06033629627328958;0.043244000039336164;-0.016602910548319777;-0.06890770977370658;0.0023836945412098135;-0.08619636532010681;0.04353870888145199;-0.07120543638840342;0.006422781179265389;-0.038299718716671795;-0.08735771397573733;0.0785700701348711;-0.08443803211672953;-0.020615332442982755;0.04285296043012627;0.005135306338196616;-0.020177534132828648;0.03415415745697413;-0.04720162954294959;0.07035572552424182;0.07200878926451001;-0.08492854274994781;-0.09821890756914306;0.06120435673597922;0.0939115766990894;0.03463008016936652;0.05194330478576825;-0.009396159360236656;0.053542835625256496;-0.02052939969658728;0.023595077517955483;0.012918830492583118;-0.032226006540265716;0.04277720195652126;0.025384037438425898;-0.05678765861844503;0.02226440026582037;-0.041190944109483554;-0.007334594122746846;0.009273419152365047;0.07233349818115038;0.027862104565280394;-0.0937070195723958;-0.02757035491488519;0.010902927963629688;0.05325939204975905;-0.0671080217841493;0.05728144329851134;0.06760628601673313;0.0711353560744236;-0.051285807837453776;-0.05024033712309379;-1.6050597145332704E-4;-0.05805389750019865;0.01102644462943959;0.01327795389002651;-0.04653168036211988;-0.01963353082042454;5.736174811363706E-4;0.022502144469158776;-0.0698951495561809;0.022501590863528282;-0.02822487244955165;-0.061411471411419144;-0.0861309305396818;0.02438806197280353;0.04678228354416718;-0.09764910219684955;-0.03788991496752268;-0.09959612016464867;0.0022282401309370757;0.004713683484922056;-0.03294835405281033;-0.09469594367935608;0.049737746255069916;0.05974407968170169;0.05669222674534656;0.01771894987869927;0.022055700170334064;1.3857520401341184E-4;-0.044759403602150756;-0.08290432122354226;-0.05423957714881635;0.05132136077124237;-0.010493307367987008;-0.031118675289777728;0.028695974958511127;-0.0883442058172855;0.048129612677445276;0.004768629774048252;0.03615530045185617;0.006648117772891017;0.009535535101250034;0.0657292873131087;-0.08889438093091077;-0.08067484337367746;0.06390869216588374;-0.07517875925588434;0.04636014389912426;-0.058821947669119294;0.040386997155088686;0.0946283444709731;-0.08034112930038942;-0.0081886628918146;-0.010961569460155219;-0.01734797055423414;-0.027735899909388267;0.07370398139795052;0.05038265557103866;0.09327947654397589;-0.04975170597806198;-0.09799965456718114;0.0839917504556918;0.059139813423781794;-0.06435597376389943;-0.06535034210203583;-0.09760436043203441;0.07265791718349561;-0.021646749571002488;0.0055798759881835564;0.09951931612856606;-0.08327781482972786;-0.07375630990074505;-0.04501874531378179;0.0853302811135184;-0.0035339448765150964;0.05723429969446952;0.060415998841804805;-0.08588743855733066;-0.029617732695390312;-0.09013947194959161;-0.06529318875422874;-0.03187634502648039;0.01639937444284889;-0.07433806126170349;-0.019943927810375794;0.08151009212459492;-0.06659099405338272;-0.07182614587378788;0.03874730953711397;0.013985522706194978;-0.0220437825524408;-0.06685697056977308;0.06755611599161523;-0.034251000056088235;0.02374163992276121;-0.03215018778511684;-0.022579310674319647;-0.088525323618402;-0.06074647824148849;0.07467466468323988;-0.08530819062262851;0.08156180471955726;0.06901769978616792;-0.007651874227955657;-0.05761712832899431;0.04338473269226989;-0.08515239093895521;0.03720085073294152;-0.07858014452720943;-0.01745709311318444;0.01709428072037114;-0.015586420811890406;-0.008108660469824142;-0.01588912939916856;0.035896345801713275;-0.05073284316992399;0.054298511850740305;-0.08611173531929767;0.03243003310093279;0.06839252433897891;0.0016838212805146968;0.035748320206753836;-0.0311973006709432;0.07486607110900867;0.04259210456469667;0.05391284077396569;0.07283871824931246;0.044414890140804936;-0.09616623378819873;0.09570380193921046;-0.09652542204833794;0.08901805804687576;-0.05763383563096976;0.041604575868815774;0.022922763457215403;0.06082030804661445;-0.04153057749691567;-0.05176622861284408;-0.0976564726116785;0.053726639121291525;-0.07300359285844622;-0.020404728677312772;0.05309486472972699;-0.065347697303858;-0.0713772496822077;-0.06167180465182272;-0.04201747366724662;0.07477280422361354;0.08109682731230769;-0.0030430716139564495;0.0025100204985453872;0.08077389582591843;0.07048977313717117;0.029141101329975994;0.006128608600854915;-0.07389841020078941;0.08244547517856937;-0.0590743954508856;-0.0465126933307106;0.08221215721660205;0.03686739526940502;-0.04303540534885826;0.029079613542782046;-0.07413514476123764;0.02107922751652451;-0.024687985390661263;-0.011887003230670448;0.016528845732910552;0.060045740954332155;0.01193824684047691;-0.022975571364838673;-0.04417274089299235;-0.0048577867771259775;-0.09498883147398425;0.04210252032189524;0.05949755488500716;-0.07711691484293198;0.09315033552552443;-0.024599958590290294;-0.06564614544826805;-0.023828042845454186;-0.003323065958959953;0.09598391922541791;0.05953694090094849;-0.09444841445650526;-0.0011361604302133343;0.031185247131238547;-0.03223573963632678;0.060453890871428856;0.027185565588301402;0.09784927195194143;0.026579913415550188;-0.0295500427467371;-0.06543169835647211;0.08358540822408242;0.01960465988538955;-0.07349997722130995;0.08063988885903225;0.028017222642916867;-0.07221407275606147;-0.07971852675714786;0.003530610740623913;-0.057611461270723675;-0.01401830558739832;-0.06773932704784527;0.08213232091576847;-0.033751943824749844;-0.055551539553142626;-0.022135895758580743;0.07367261763514721;-0.0974879648266577;0.08855036871339891;0.07221143651931103;0.045556944137333494;0.06032481258244865;0.008623767246684635;-0.02371583780268946;0.0688650502957216;0.010317530429452756;0.014304319703256699;0.028175581881684314;0.049601010593052275;0.01585815388375174;-0.034222994545126895;-0.025659177651989218;-0.040056787706383906;0.06430146240969165;-0.09497388031835996;8.46815772686707E-4;0.06949435553638572;0.09823904687946752;0.08708527346514416;-0.035377682292546994;-0.02346853167069067;0.04674932754764921;0.011287393881584812;0.024707901212062497;0.03925588280058495;0.05664752434199105;0.05251473005537077;0.06381065948655014;-0.047657777567659536;0.07427865730173108;-0.047487165150492915;0.024859165311126183;0.005512694827143203;-0.02088970352439059;-0.07703345740617595;-0.0530405197509429;-0.020779939287862606;-0.03048126576573218;-0.07564179169706313;0.07332125235686632;0.05943261290828049;0.0638690864999234;-0.044570941044036264;-0.029186752543435307;0.024480538132838514;-0.05526679574374628;-0.05740772184129971;0.0069928130849623744;-0.07644648909371027;0.03907971681082093;0.03238416958112272;0.03508904302229618;-0.03653947274173532;-0.004824354497748419;0.06048348097343737;0.07320461436017904;-0.014335962835422676;-0.02919877411141373;0.04174742050355001;-0.012429482448157036;-0.05373225560635229;-0.08859342533487323;0.04988676937701306;-0.03007207691884937;0.004401970654696246;0.02610606205088788;0.09378157351153336;-0.08279657078661617;0.007244174192004177;-0.07334541931310203;0.0826102228874491;-0.0052610606214317755;0.004383399616044706;-0.05905131649429099;0.019065340088497574;0.004121229435508477;-0.08679256445326855;-0.01528691285215615;-0.10031046656628358;-0.04769337317939871;0.02643886581939838;-0.060303832463028145;-0.0019930601389119614;0.09665974073378243;0.060470118139730314;-0.09677948290151427;-0.054698732438704434;0.05116179410332296;0.0702825709228433;-0.08685611798811657;-0.0716740594299968;-0.060189476698413846;0.013388091211709486;0.05330868639568555;-0.05201445536771862;-0.08428208161602531;0.056064998982506366;0.02611670553735796;0.0027160693977132553;-0.0957451106584735;-0.10288105863793277;0.06542529475919019;0.010390655893841791;-0.08864972370846017;-0.058530507540998415;0.03661396055317019;-0.08970735617524772;-0.03338735955923024;-0.012039802711789997;0.04249573859727383;-0.024351959413108967;0.07738390976963878;-0.0874935837731877;-0.034972576633883326;-0.030540856117415003;-0.03552664856536678;-0.05839597596269763;0.01660716783747665;-0.09060008195078523;0.02981153183586593;0.02473581490114291;-0.049933436536182096;-0.09139407792899763;0.09106236557250984;-0.08744243970090665;-0.07587899996189652;0.039412452714179654;-0.06301263180698682;-0.07873335406207285;0.07811865568747237;-0.016695101457668976;-0.06840781716250907;-0.052354415263931545;0.08662032768771252;-0.06284594764645828;-0.017185327029525823;0.024454772430980636;-0.01663294836521291;0.04835358046622942;-0.06392944272530687;0.09394095989424756;-0.07644229281295373;-0.013589234124135752;-0.06822122889684039;0.03285090848835933;-0.06713559177355342;0.09393271413540567;-0.007062411144094548;-0.040043840200705554;-0.04468020718346055;0.05354691951474014;-0.01959660390929048;-0.009263789869747263;0.0488912745761969;0.005811978354889058;0.05878562551718649;0.0313759031539973;-0.0639338174935863;-0.061707664116970026;0.021263440450154124;0.04191596978349994;0.09178004860922237;0.049972958451704616;0.03638878632412694;0.06343614640646622;-0.018136995908337034;0.02941624776083125;0.07370904601755203;0.04563531695147866;0.09287654739471074;-0.09905311035278894;-0.06000543727572055;0.08542791408813356;-0.04243433502392798;0.039594321837670636;-0.09224222113843565;0.0525727992015691;-0.004604725228643333;0.014057403493172378;-0.05082380347499291;0.019240304981460444;-0.060324210992627816;0.01585457129816491;-0.037815137624118256;-0.09922391196880005;0.061805599758830446;0.08399474974128678;-0.06101390149088847;0.07317365731010374;0.052100545227381265;0.06760243200745206;0.05957988712501981;0.041432710222432376;0.0796469547205314;0.02723937682199843;-0.08964227262875761;0.06991379991682464;-0.04362456093789203;0.07865148324437689;0.0070395052869122576;-0.07024629450222641;0.06372181076131136;0.01901179511115279;0.01729184128300465;0.06424113728581551;-0.024311538080975692;-0.0420840439674276;0.041696732980802356;0.06988323551565075;-0.05997629817633597;-6.210525498344193E-4;0.09525041654278373;-0.02197710504502532;-0.040818126341377554;-0.0777302875890984;-0.011523157071003556;-0.0641922941375642;0.0720376594784532;0.06214689256013754;0.008811314832409186;0.08735580471544507;0.034929868123766805;-0.007596165753578004;0.001592605349312469;0.05548157586980716;0.002561060034576698;0.005189629057611232;-0.09702982260438553;0.06443407093379402;-0.03221526377288689;0.039334995360519154;0.062039674415626106;-0.04703247432069779;9.294200735992381E-4;0.06426274275179772;0.02877209169834813;0.025826191415857153;-0.08938894104797808;-0.09946054942128171;0.07381650716685711;0.02816169809478794;-3.130123056715728E-4;-0.05806873851267791;0.06505099582144772;-0.0648328067429786;0.03386853155072769;0.0778708171333628;-0.0011673537759577385;0.08332731977447258;-0.027028974345667908;0.024707274666716003;-0.06875245579995437;-0.09833176766554562;-0.09783618339559404;0.05695627851230539;-0.09063922259817403;0.04300758412176478;-0.036779759792244154;-0.06145001420479124;-0.09753355416734032;-0.08479546563760049;0.08576764392360478;0.05408706196344226;-0.06666235445141352;0.012409743946336135;-0.08146261751362407;-0.05991733252995271;7.458191053149072E-4;0.08537992850964883;-0.020423969453964984;-0.03162572348044461;0.08834472139882618;0.08923423501110014;-0.08595513943852823;-0.007033868986912175;0.057699655137976924;-0.03287431124251633;0.0541002296089025;0.0853951835220111;-0.06142894098132514;0.09856428281769118;0.0653890854928329;-0.018371028651947986;-0.02389399820525452;-0.07679058408286595;-0.0818838424307043;-0.029669357984849737;0.011955632073989936;-0.07779895954030548;0.07017749008603508;0.07192805784715525;0.06532086117374047;6.787051561579082E-4;0.04790688950272547;0.02039010641740096;-0.08508379670067004;0.06758863430604602;0.02742851896049976;0.04522606383602507;0.07933795951835525;0.01732200780651116;0.01544949686686009;0.051795509149753144;-0.0010065766650437355;-0.08809413873791237;0.030876190194579215;0.002378859821051561;-0.014484577056566346;-0.003895711629397469;0.054287146477743256;0.07147599454517414;-0.051082130184454906;-0.09839598430082828;0.025087357449226858;-0.040566546229423156;0.015687829371792725;-0.025643333673626416;-0.04621305954617695;-0.0314294338835963;-0.0841320494420454;-0.08252878645567446;0.031606926883240766;-0.078771296292054;-0.05731863736058299;-0.05044787130482476;-0.08596479337982942;0.09008186018945843;-0.017544308983941694;0.03676087992393068;-0.029088325662576752;0.007577545161208718;-0.05616960097032709;-0.06324356935971477;-0.08735705226891258;-0.09754992589844808;-0.0038552029900624967;0.015515895898190886;0.022478005903817818;-0.0615359739416545;-0.008129878912452036;0.08246739976113883;-0.016815475446960947;0.036263590954507575;-0.09534864584940737;0.031149100893457588;-0.0880385062927307;-0.09717229848594375;0.024350372919757585;-0.09649602187365597;0.07551696087730057;0.016969418449060452;-9.527924176785308E-4;-0.07136614264857818;0.025417421192787545;-0.09111946292536803;-0.03301723779178509;0.07688789979767437;0.018955832903773676;0.094631115112776;-0.07057875688601967;0.04388193296823431;0.06678494870153268;-0.08802387115524246;-0.06739354437314958;-0.07085962976798932;-0.07057087415985812;0.09230704355755547;-0.05089020369467423;-0.0825094015478003;0.047268282924284866;-0.015934126737526966;-0.04930634413091385;-0.005549729833592009;0.008641975685415984;0.04776816208981996;0.01022843866938294;-0.010805344422611286;0.03291894086616828;-0.040462294350143806;-0.03989569393955626;0.0675848369794218;0.0424391638167468;0.06465375727063635;0.0879597460619213;0.035196953307753624;-0.05000323985665462;0.05579807456479746;0.03986996801986004;0.037619433364546435;-0.036422182371827004;0.04411706902564817;0.007425645191225975;-0.09177886496595018;0.03957841081893166;0.016810052879026968;-0.025750844294407042;-0.07187075149349638;-0.005789726822579058;0.082277943737797;-0.08240904668426634;0.08386728219571406;0.09095181351419913;0.010759081324611982;-0.08156059558699326;-0.03918160307496409;0.03562715758811201;-0.017254880497600215;-0.07926055066839148;0.0587051369387658;-0.03164777092294959;0.04978490903299852;0.031835439522236775;-0.031930791935434216;-0.028075159391376017;0.08023496974739174;0.08915682078661574;0.055671583922528564;0.00570852755293909;-0.06523030650902505;-0.032062424317077315;0.01571859385842019;0.041373997754772206;-0.05690794082272995;-0.09117802089444892;0.013408403001786372;-0.023012933415769165;0.04791307129745459;-0.05937599202197665;-0.04774148957362326;-0.040519819530077585;0.03656971312201738;0.046461359917568515;-0.06146699508067204;0.07738729674781221;0.07534987496146191;0.08060375525601335;0.09716756883459803;-0.09295562105763326;0.0916993493256717;0.07224175541313534;-0.058203248264089714;-0.07037452634671469;0.09408707844456499;0.08966276672285059;-9.605658625520162E-4;0.05083754480598366;-0.09573705536237932;-0.09195912005612927;-0.07190913484559393;0.07669670676467387;0.0754037277234809;-0.06900104680918455;-0.03278485057806713;0.030774945646604154;0.07229068476129381;0.010075124294081365;0.06643754977780227;-0.033886328286833224;-0.0674168584241819;0.01787745065731125;0.08208000277685173;-0.03524242344678844;-0.046649957972025154;-0.004898689061985537;-0.024440959808524752;0.04813898905484961;-0.07787299403540443;0.04624674237683688;-0.027387925070643936;-0.03732721072530667;0.033755603278588335;0.024789104974649923;0.07962320476939967;0.02501540495916975;-0.03186007131861941;0.010931127020628362;0.00904643654702618;-0.09461600978137837;-0.0014746391743255846;0.06104872302607936;-0.09500959313401958;0.03818355618737476;-0.07011427338563231;0.08542926060272181;-0.09329601228916459;-0.03777515888917778;0.08686715970521548;-0.03775538232444336;0.050309900211448176;0.017180724215294714;-0.024510961229441755;-0.03403291373525402;-0.008717541114319915;0.07911801067890195;0.07715845213117828;-0.05362080625957178;-0.0016734677934423373;-0.10822470362779821;-0.06215287930047207;0.02415699409225423;-0.03421418702683276;0.06413501332786022;-0.06086246602824512;-0.03927631594279186;0.0827767309101585;0.03893359285765553;-0.023738467879317545;0.02749183154206981;-0.02312723436790846;0.07127894581881992;0.02665041003062275;0.0410921581257059;0.01735417621572832;0.0710483784119559;0.0034622440278489564;-0.06253247834359478;-0.07444395617962557;0.03314101376363297;-0.0911133628711284;-0.024480814124603872;0.0680085791525221;-0.046648890620703834;0.0754760612772664;0.0019734295884959096;0.05833426872874131;0.06343450291683668;-0.09754956595170948;-0.0407949807423974;0.006339059786946096;-0.07182931703335688;-0.07719669028280285;-0.06136019558356686;-0.009880214439356116;0.09858498736759834;0.08895322075948227;0.07892912013055284;-0.031494529847426025;0.008781410008110066;0.07224911468478863;0.04484965848345846;0.019677073126623684;0.0858695672946155;-0.0895948621040304;-0.09922963998401878;0.08794937673467938;-0.03027886104963662;-0.06443221408760133;0.04344600875562049;0.05392562874945649;-0.0011176433468670908;-0.05302567691108313;0.02660771511922435;-0.0915646164916593;0.028292910257013134;-0.02894129053260865;0.09663907776639567;-0.05484006434854231;0.021414713670602343;-0.07011456130365348;-0.09901481702106202;0.01984573815357107;0.025039308936860048;-0.07738544874059687;-0.07856092219295711;-0.07239631256647039;-0.026032320882960244;0.07200956423846827;-0.027335808965757068;-0.05699128629164202;-0.014663921737538803;0.004743493674710003;-0.09471692899460736;0.09883446659869527;-0.08548945260455226;0.020859399211194035;-0.00870103741048222;-0.01441339777429432;0.0561817145076412;0.022629537903848466;0.01241466094777544;0.02357245740637564;-0.07428321494597834;0.022120253920106737;0.011706081851793358;0.08327826474876708;-0.052652211422568845;-0.0912058765670109;0.005664361060262622;0.03777687133875132;-0.07823207761754039;0.10155235885540365;-0.09781777468584008;0.06579796126303372;-0.09526387453870837;0.0526436846073356;-0.07777026608780876;0.006268410446061654;3.9991701474575763E-4;-0.05683535392387596;-0.011566292411523214;-0.032985995069690154;-0.06363546652634665;0.033080052114351985;0.0781577171854162;0.026181286893964976;-0.02709186621109692;0.06590780417760227;-0.022420005963305897;0.030936981973156377;0.05285794073508813;0.009176648087398107;0.031223413795514715;-0.0758130374276234;0.009646607196178457;0.05194969664239349;-0.019159117364787672;-0.008989269247004286;-0.0892240246620961;0.006891065835152108;0.10318354306778497;-0.013782534799860661;-0.10012682718337623;0.05725259680288911;0.0073600915633583236;-0.0018517679827223157;-0.07861954238675288;-0.028075048405551754;0.06722677757850416;0.03265133034764458;-0.09284995681815694;-0.03688325986150423;-0.040519707889515866;0.009043606244979543;0.09688816883894298;-0.07488585398982629;-0.08678370100791413;-0.09301823431809164;-0.027187323896480042;1.875265883784269E-4;-0.08169420156743377;-0.04901742454441921;0.0694732891570425;0.08788621714902026;-0.010033166916858969;0.0690558661012704;0.049380159939666546;0.09411901224530293;0.022168724962729734;-0.08639208660392182;-0.0359850145496153;-0.039944336578507995;-0.031197388953804164;0.06751626132754132;0.06767474920038517;0.082896924032395;-0.0721911842282157;0.10302137340523222;0.03333463347358608;-0.036691462037868806;-0.059879548609355585;-0.005638263855381075;0.04657063198934022;0.01673154025849489;0.033399328117140796;-0.017638157666948956;-0.04835063572307517;0.04437537708473832;-0.03230363683896839;-0.055647640185353266;0.034959305885011324;-0.06529538579895013;-0.009576713934653293;-0.08566073243805185;-0.04344730102618795;0.08674348736607747;-0.04739020050454244;0.07585373300499054;0.08105495553356253;-0.07985006882525035;0.014248984100595424;0.05124736734932244;0.10258073399432173;-0.06118517630716021;-0.061486169968101745;-0.020025981501750372;0.0398098929817224;0.07022619789355403;0.013078192725427127;-0.032982839210609134;-0.02279782424763318;-0.038647333767081626;0.07009685439617541;-0.038576114548736;-0.0918841981600768;0.04112681992207426;0.024750186269744;0.039771445470240877;0.011394498146524414;0.009846589970896992;-0.07639410977156032;0.09477382361989134;-0.005295060663408394;-0.08884362053359515;0.039329521129091355;-0.08426478131680652;0.07942800036408029;0.052802135504368464;0.011859301547115035;-0.08695258426870463;-0.0368445216249995;-0.004853024525237039;0.08961752063307539;-0.04900907737778322;-0.07016077054826123;0.0861136114363478;0.020634117825970893;-0.05460019850561891;0.011392285708595403;0.017858150161917875;0.06228185065162344;0.03546975780739272;0.06364936722172852;-0.07221656794835737;-0.08631530156930707;0.025421048632826904;-0.07764101582555673;-0.05584247760778563;0.07718940138105591;0.06947803045017333;-0.007527259561276969;-0.06917757897936548;-0.07529525354990327;0.015378708237558412;-0.05543346111803933;0.004155645212336947;0.09460599153324815;-0.07799390714624706;0.0383649071279531;0.06567274794278723;-0.013930315719572813;0.01669982278176761;-0.08355558322311799;-0.07092641851557419;-0.0975667948267279;0.009087786468850207;0.04241408676925655;0.08550544683172398;0.03141372435861292;0.016854144256065712;-0.039053999940012254;0.047398644026115114;-0.09222382290971257;0.08098227973513843;-0.043129563192910926;0.04030676862298633;0.027559126329721084;-0.02869488603287973;-0.022321941963491708;-0.07809264129199002;-0.023958713578779278;0.02331065633467752;0.09541626001948945;0.01675936156590277;-0.033809705132349585;0.03354220242070674;-0.035499747693028404;0.05513882114374209;0.04101476412358391;-0.019319118303915524;0.0600806980330974;-0.033177314953835524;-0.014724086548429861;0.033882403525433466;0.027114930843857094;0.05218766141358322;-0.01835963241452007;-0.09528073523634949;0.050772694323534574;-0.04180449999490559;-0.04952734235071849;0.07318971279607724;-0.09847147727873576;0.06031633132001388;-0.05792459519953591;-0.06497085848695218;0.02501702172865746;0.07299027615301942;0.07305360089532523;-0.09665774889869211;0.03289170314663879;-0.08769552184398062;-0.01166978664100004;0.021318087529748144;-0.032100800688436695;-0.07190769902828564;-0.014619736985684728;0.03979203116410552;-0.09785603216889668;0.08431836557464828;-0.06527621602747402;-0.06072585927993542;-0.01601900486305332;0.09236236967500751;0.02762337059101267;-0.039168496889191586;0.05277971019917475;0.08835840809453753;0.014135586986686998;-0.03814882603339949;-0.07800875823514702;0.07479965301001683;-0.03680802491201583;0.09332357926686295;-0.015798635018456308;-0.051834375758996465;-0.023497336915053214;-0.018217986597041578;0.027912159843341278;-0.08402672352482127;-0.0251305481880395;0.028460182466110064;-0.06988896919094806;-0.06449010510957266;-0.06191826620613732;-0.014242734788098142;0.004888519517757044;-0.03450386756084348;0.008794877413443342;0.02233812374877162;-0.055360430802232984;0.04864943792354421;0.05807103146368981;-0.023021526056444117;-0.005541141087736798;0.09379920509928247;0.041357374018093106;-0.061042037857384726;0.030060832051802794;-0.1011587563728528;0.03539353389564752;0.054263707027497235;-0.09573339631904536;0.033853599735895114;0.050788761492352015;-0.06300953310538347;-0.012585472538102317;-0.07618798584499384;0.08928043024868956;0.056455477481368754;0.0804749355602597;-0.06611168205671009;-0.03723330076674326;0.0957433603043033;0.08702849496425218;0.06122456259239938;0.058943116304374266;-0.04923523692031825;0.07504918004447665;-0.014057579041490378;-0.021805417518813867;-0.08441202073993094;0.0036255911090020097;-0.02731862626878786;0.017138947551225393;0.07522431085835145;-0.04596099275218058;-0.04949494824146174;-0.02142572184832873;0.07688168246639672;0.06899735762260537;-0.08335422130035137;0.06261249375255122;0.027257680220950087;0.03735250089996167;0.057480639330088776;-0.07121674519754366;0.0967518317715335;0.035951417100154794;0.009867608818635644;0.07490352116161039;0.06756413087236829;0.06976830751073149;-0.044716362375956345;-0.08664588252218998;0.062499454158988436;0.05611667925776408;0.0269028981327413;0.0448449514822223;-0.03525842791265579;-0.035690767931528096;0.03770454974912345;-0.060257864495577455;0.05844418833228215;-0.043123918124384514;0.03765278983980048;-0.04748004987925028;0.04411651255192865;0.09648639764632258;-0.0020864051118523047;0.010938927292372882;-0.0895043890360478;-0.09670513498797384;-0.02405995470961389;-0.05758768083250789;-0.05700130883596074;0.07411618748639791;0.021137001577342013;-0.03449341972302302;0.06526251425572097;-0.02384815709220114;-0.088971197122795;0.01922545869292092;-0.08641658309051306;-0.08684346249330639;-0.08095021145112948;0.05797946737345735;-0.008164333606619141;-0.050441171775451286;-0.02506217367233739;0.061799586315142395;-0.06072914712193893;-0.029301342704204397;0.02642762489422332;-0.056771575588876654;-0.03456352196756894;0.033415368797429665;0.041646052131245836;0.08188091059274316;-0.05335014213205729;-0.04930515479590143;-0.012838944074430434;0.0701576490278894;0.09222144400167454;0.08264214246824081;0.03032811948845148;-0.04394168487371837;0.03569641962204931;-0.10090029774844587;0.08362465243605012;-0.006494214632929145;-0.07517792961479094;-0.022094236597014958;0.01263436236730618;0.019105187950953575;-0.09243257324215867;-0.018198451834678955;-0.004613466367401008;-0.0489948056357488;0.09817597382200775;0.08336517244431035;0.01891285781898884;-0.006994417213172245;-0.0523166034645488;0.054948903202767053;-0.05601453615345956;0.039164726487867126;-0.09157558158723972;-0.03988257878442986;-0.0619760472683056;-0.04367733414071078;-0.05895095439345569;0.017915355681718134;0.0880404096107426;-0.032167219283490395;-0.08130187469473114;-0.09306089024171924;-0.1007161185949707;0.07343129360721644;0.03758918124429057;-0.002585089480565341;-0.07428988503154993;0.07182518782180339;0.0689786513486434;-0.015181292530249323;0.006373812940762588;0.006948303880510963;-0.031527650831150444;-0.08341533201023095;0.08768045963403247;-0.008326855895712176;-0.06622468790554699;0.027500972428248293;0.06115282137654863;0.037966216610643255;0.012729404255428812;-0.030098729129459705;-0.01065978710218219;-0.09128986271667046;-0.06414436854097849;0.034599815077970025;-0.048133362131988294;-0.021990912168815588;0.008411978717202756;0.08400097260741399;-0.08934211321693403;0.05754219696103671;-0.06568115134426647;0.047292264908454174;0.034446656182453045;-0.020607476354763316;-0.09578052346250604;-0.05874477197190602;0.08373091409641528;0.015352599841439815;-0.08122092694460886;-0.03699411219098561;-0.030344382184637628;-0.041825574629667364;0.06993482815078164;-0.028755275035022496;0.035262681945506774;0.0028194866352163617;0.022145896950500663;-0.03249329427866075;-0.06325899691108801;0.027708718717178282;0.09364340358528461;-0.022588735228153772;-0.07532355421947812;0.07597255389699772;-0.06231954009064529;-0.06808768494247722;-0.07469815071318481;0.03670088077008521;0.023782133556052937;-0.051451769276532125;0.021747022483531595;0.011055426622679485;-0.06885362658147504;-0.06295698783568376;-0.05096924174679965;0.025789050742069358;-0.06419140936299111;0.013964815499946354;0.003247653589866256;-0.018352506536400234;0.07419742715071662;0.05017174455077811;-0.09455934925925534;-0.0700187267522366;-0.03945511968881876;-0.0815196198307586;-0.06728594482313646;-0.05211446179491226;-0.08235993440514625;0.08307693960988957;0.036354303206721894;0.06945007363984793;-0.09192076691248732;-0.06923272784781676;-0.02692004538115858;0.017009285751921593;0.06551576012681568;-0.09777315719765467;0.036291706185943906;-0.06760778783926588;0.025910158846012277;0.02325076069869958;-0.012677621652961685;-0.09182747949172539;0.05878006285603138;0.03600375089259647;-0.013313077248866295;-0.08108149591812008;-0.0015497622305740422;-0.06972982022648036;-0.07466757913974463;0.06584241967068488;0.07086666434558672;-0.012448524734033545;0.013253278704221633;0.06539708701424349;0.008411334807004109;0.022068923600798845;0.011234550942064908;-0.042981728157286916;-0.09066468809451862;-0.07912787531326977;0.022458715648421126;-0.06015279263269538;0.05189665047166589;0.09016408477597646;0.07990185210356801;0.022461174208373486;0.019101955562600276;-0.06379115173676178;-0.08808642839317789;0.004123475901635892;0.07995635200747434;0.046581494053543115;-0.07653297125445775;0.05603346506833323;-0.029286492402442993;-0.028581865089680233;-0.022591097138189922;-0.09742348703901621;0.07612562349357407;0.004665919783704342;-0.02429058173786998;0.002574044574243997;0.010693442514478763;-0.03466697280184983;0.04071232568411001;-0.06946649180933998;-8.37693958671143E-5;-0.021261314537872278;0.09638491654569692;-0.01358272481168532;-0.06715058603412824;-0.08886176161836504;-0.06838916963603034;0.08740739248397911;-0.06423822915483049;-0.07306178998976914;-0.019175619801931193;-0.08881936050181533;-0.0024544376051579136;0.004797682446955914;-0.04962645699898083;-0.08085806178210542;0.02593444127101807;0.025732176502647364;0.07150882212711018;-0.08027010436488367;0.08350826080437276;0.03341589058917249;-0.05404809473953318;0.09966681576096306;0.018943048271170285;0.06543173061488311;-0.02285432059065698;0.05520868779785684;0.09826104074918271;-0.015478719724574569;0.0015042160980927727;0.02339520411405427;0.03608066136896432;-0.0901651750112697;-0.08033721661876868;-0.08670026350507905;0.026866513446519635;0.048181334106752016;-0.07227216300412934;-0.06272064588254292;-0.023820598561938994;-0.07472153303093498;-0.051472967624219115;-0.08621713513390142;-0.018788538789192493;-0.04733527066823906;-0.017154127249337583;0.0159027414566542;0.09529996726356985;0.09632303469176126;-0.04121814683529196;0.06658861507263189;0.016855289923854853;-0.06389537605013054;-0.08542616778898221;0.05632480696154476;0.00847405174089416;-0.07809909721682452;0.09485194240186448;0.03010304637552384;-5.830918521204404E-4;-0.00165635422994501;0.024606366500390813;-0.05271143692415926;0.05291309495015268;0.08068458783044148;0.04718981704920148;-0.01821538189562977;0.0753267742316384;-0.08598643942526935;-0.056401116677823424;-0.007094722582183378;0.07604673165466988;-0.01020303040412687;0.05823975342661488;0.016782685942631236;0.04234119242663785;0.011454903841857326;-0.027801170019229427;-0.07198157102721442;0.0567603961340541;-0.05101739971103089;-0.04050778410914026;0.018012420381485154;-0.07524356089147126;0.06971408956315955;0.04311016838350289;0.024294970359215882;-0.0019580920691538582;0.033975594167419305;0.06566981087173067;-0.08143861036675622;0.09021606229344993;-0.01991312629054375;0.06956156822333924;-0.05416851911057764;-0.03420319636216361;0.008128084704826443;0.07604746584788706;-0.06243040001994471;0.0854866125978523;0.06913993946820585;-0.007981598834392728;-0.017559258525358938;-0.10202849622287845;0.08118107185095498;-0.09820608603700122;0.01106877078439935;0.05014501432123717;-0.0017489476949094274;0.023066137090087275;0.09792978721466128;0.05793095113940915;0.041369614694771996;-0.03591758433446316;0.021336440496853924;0.019441774406882616;-0.014511045858942508;0.03232208769219482;-0.06075544922289792;0.04850234158728996;0.015412874322888057;0.09502129325353562;-0.05511471917629555;0.04334633238899766;0.0389535397397313;-0.052859510265485736;-0.02651176431039609;-0.051313057364788486;0.08728498482383647;0.10008558865401275;0.0034192734186072574;-0.04906915566602223;-0.038924840642428425;0.05433243950639324;0.09190605213655292;-0.09324216087712708;-0.015871854692206755;0.04404500497360867;-0.0786633364400532;0.019990290569121855;-0.004850137529400314;0.05919767865000442;-0.08417053996358193;-0.02155558068724845;-0.08800659729492837;-0.0033919532770005528;0.07996334681037853;0.020970250371348146;0.04704989147022709;0.05589082183909449;-0.05188978294709733;0.053302478691751774;-0.004450127844530538;0.05353792718118007;-0.003408756762446418;0.01111513020088282;-0.03285442722049231;-0.019088512569504716;-0.03397968261916117;-0.05152205408253311;0.09014098258072467;-0.09028377768893789;-0.01990311218768026;-0.0034000278026833225;0.029726306743273877;-0.09108997049432026;-0.09207079853589656;-0.0391840688110853;-0.10019255424309839;-0.050822189390520384;0.06747837181290045;-0.042961602929508014;-0.08699460866406324;-0.018335699289389266;-0.08415148646288638;-0.052938538670440995;-0.004083308162484006;0.09964524747096244;0.04532395928429954;0.07247065070440954;-0.07350231146184608;0.023600142918237185;-0.03754380564225285;0.040786689515367715;-0.05158951277632635;0.061515627682313376;-0.03320063278819828;0.03156819656399905;-0.0475657532738036;-3.2126016612461E-4;-0.04580052300567709;0.07160471883262119;-0.004634373427145653;0.03343035572515236;0.07373903705108271;0.05630791825812152;0.08172799178065464;-0.016657584249855827;-0.08695297023114029;0.05842652558603176;-0.052315674145799615;0.06469171979886217;0.08091648705231402;-0.01455054373353222;0.018087625808897022;0.05895295100496402;-0.04657940245920908;0.05368305473774883;-0.09285832096331015;-0.03310952652510265;-0.011267415711252598;-0.07551277155782425;0.0976250843927046;0.021017911361193135;-0.04825930225833184;0.055455833052515946;-0.07720017538231044;0.09448492001845027;-0.07190431173295565;0.09132924740568729;-0.022318537869096867;-0.03624986293416997;-0.013029550133055656;-0.07198855109214165;-0.006129600199693252;0.034523829731970275;0.07929334648720766;0.021110998246828154;-0.0964264291836831;-0.025568743902902646;-0.09121010495494637;0.04687709914598212;-0.04789990952552725;0.028514353128492122;0.022443721872916315;-0.01940090613168563;-0.039718353901589384;0.09563160939730458;0.07567173406556321;0.004112368398305886;-0.009080343503423875;-0.012278582653518017;-0.05556301295511161;-0.01161810180366036;0.08726235546649748;-0.039164557562539545;0.09405406452654622;0.044187206253116035;0.08592591429899571;0.08990797439561984;-0.06789967208420684;-0.053877131266737724;-0.09518940811001705;0.039401067268168465;-0.006262944953303829;0.012047141227581902;0.06465201750241022;0.005980655544178263;0.06968784386506609;-0.0017549860494475672;-0.09264928961574018;-0.013094932079662057;-0.06464067122122816;0.02796635707234082;-0.07304068831339748;-0.08336469825997223;0.08436397457978667;-0.07374031752971304;0.09803214239950138;-0.007416998053109234;0.05796637747258077;-0.05129793106428844;0.011711239462847746;0.010180724826297899;-0.022035301046191724;-0.08781350158271653;0.003487813407526099;0.09340272011083724;0.07592123694320539;-0.07051633558281489;0.08380748811558122;0.02381811753313173;0.05069448475122044;0.06366698482416695;-0.06912106610827806;-0.0396301384664161;-0.040848742480171216;-0.03920882882261696;-0.02642957269994224;-0.017218753002249218;-0.003564965483705454;-0.07733778221719165;0.08874601507144306;0.02306792801842486;0.02361279245095089;0.0625392816211184;0.022066003704152466;0.05654110003336497;-0.05367597998671862;-0.06806599985490759;-0.06291002336872312;-0.09554551745323207;0.09562995127550425;0.09765897888696823;0.023405876884956506;-0.009038659235936601;0.008970630823389471;-0.06044169037797633;0.0636394118754043;-0.06692946500740474;0.014099754733140636;0.015208106931804277;0.0262233272133087;-0.07197176540840972;0.0054064155686792785;0.04381091363283805;0.03053189671329477;-0.07794919377581898;0.03194832339181675;-0.09948589325511108;-0.058024044797338366;-0.005717637092141469;0.004271777924894258;-0.05297875370706396;-0.048759001320813164;0.07205740593176568;0.09826019891936126;0.07672390289205534;0.08743337653999907;0.032763572222445116;-0.03459159275518677;-0.04728601086519725;0.04181901271086025;-0.07509968352708016;0.04796559351770692;-0.046916113825955806;0.013622697969638487;-0.0529230964854775;0.01961355906366443;-0.004925057439603512;-0.02435105199966771;-0.06469081733046221;0.02498576497408323;-0.05443872385785878;0.031693667687028075;0.07470729674766308;-0.09285214994326128;-0.06960390290804885;-0.020441290605716252;-0.027890911864655994;0.049514376159059965;0.0873847904464091;-0.0019310406918032737;-0.07891671161566097;-0.015668601852499513;0.010858854967972587;-5.005746327277983E-4;0.07058718700681084;0.05726145819580437;0.04194725760638482;-0.07058746500076996;0.06875894838067771;-0.039372413305789174;-0.04571739493707086;0.002697706154517346;0.04968472508654223;-0.01689702583769715;0.030692499902623824;-0.07013403321366005;-0.0738226834410407;-0.04105101363119829;-0.059663520218810294;-0.025098553289948165;0.02911816775789316;-0.023300582879184312;0.07346315048999477;-0.032796196844635285;-0.039469931438421715;-0.08649192381418273;-0.01094198798460645;-0.09162867145656818;0.04457327127735039;-0.0024377820860349776;0.04252499093410366;0.038782266768039336;0.012024057832144145;0.058300964371080774;-0.012375413881821933;6.088694528343438E-4;-0.05275135105007194;0.015154471216259645;-0.05691456368950455;0.01952468648498151;0.0502283576895909;-0.05823942161320015;-0.09765368913363769;0.056812895924280724;-0.009574540055485095;-0.02373189925220024;0.07496147459638382;-2.4900906672772514E-5;0.02415588414278456;0.08724561595769846;-0.06178817109918207;0.0071302074177502645;-0.013332786439034572;-0.026215575043833976;0.08595005871623043;-0.011383208136589905;0.07567618515251673;-0.006832609458354634;0.030608395014501872;-0.060710755284057505;0.02949669020469041;0.01125312316585743;0.06281759667989466;-0.07397221228817699;-0.09751964134064213;0.08628864910948515;0.05274695094731833;0.05579371425550913;0.0927643784637159;-0.0031305033976395825;0.0903871987836511;0.04589524546431108;0.05141611594656979;0.07354299809591318;-0.055462212008122055;-0.012774450702165617;0.07171897509592277;-0.045947374964789046;0.08665680135635218;0.0020069935022164753;-0.03588105671670386;-0.06799194864386904;0.050205523876348475;0.0765512449636604;-0.020473334570758603;0.03875109956902858;0.005260650123546654;0.02083559008129204;0.03406520830031451;-0.04429315098384172;0.04207986995816802;-0.046683344935646263;-0.10304341432713769;0.017414501746420976;-0.07293343779996528;0.06487790183825166;-0.028327686811954418;-0.05692816576405757;-0.02979304298739152;0.037080408943654136;-0.008980170042528312;-0.02729833428503883;0.031048522845789562;0.0952850146001569;-0.021120565256231655;-0.07347988929747896;0.09123817944219886;-0.03872693166174889;-0.07179799350676974;0.05220913014172458;0.0052402530378261;-0.08211181006489965;0.05611148115516225;-0.07202473988965903;0.08380418018306911;-0.07305160816950754;-0.005107482719879332;-0.020116181965723522;-0.04309979455706378;0.05803122205259267;-0.07956285066092342;-0.024961403084478306;-0.04907667469960129;-0.0829703994981051;-0.08350237592520558;0.08462555335411216;-0.07020291471452576;-7.715411873601101E-5;0.09462069462812991;0.021487864485006662;-0.06273215369046727;-0.06428899984279564;0.05876167021659614;-0.007003069771920076;0.044602281976313135;-0.06816594699125832;0.0950751341129648;0.06499182596237517;-0.04789902468968236;-0.0716797638362582;0.06280414611973073;-0.03910841496329095;0.07574307970549415;-0.029832612315089397;0.06350744895085679;-0.011797147129322356;0.08199683581750387;0.02120243393148683;0.04658527694669573;0.0825404835820041;0.005483460145371093;0.042111048903399007;-0.0476639377194159;0.0012114425198271573;-0.056942257463614594;-0.0511633384737205;-0.013323155109286163;0.05330274694374737;-0.058807019824136414;-0.048496261695708094;-0.08751563160592579;0.0717437453560851;0.030357400304643935;-0.033732834507282476;0.12040911125461404;-0.08406935333014981;-0.09669169505845095;0.05727897477827741;-0.008641798961428358;-0.002476814754558608;0.11136853396017687;-0.04770766912183888;-0.0073763153105551055;0.005120760847700726;-0.0030521142762140563;0.03022968340121783;0.07514623834248597;0.009763913073142885;-0.06422999345459372;0.026447035360180695;-0.03866758978984277;-0.07194848490438725;0.04085771594222808;-0.053902424863585006;-0.028339409457497147;0.04945727657795509;-0.059785542055700684;-0.08057372137997688;0.02484643916483185;0.04408938134362393;0.06676676786772422;-0.01540593627704997;0.00522437172232431;-0.05425528128966928;0.06685231525727227;0.041017143138489316;-0.045815046331138906;0.06505664378204877;0.020863997563842156;0.07570296682736466;0.11014495094631871;-0.09364925526271058;-0.05446432651983049;-0.019535443755304818;-0.084077758702922;-0.0293819479548782;0.07284432173625241;-0.031321893607042274;0.00866908260900232;-0.026686705025188336;-0.046584504235826246;-0.0621257360751106;-2.1317748187920336E-4;-0.021446893361851807;-0.08237505845557379;-0.00464520342299274;0.07556990522437511;-0.03965039760965373;0.05377138422220057;-0.00791548445444892;-0.01736698961861055;-0.006360558041465075;-0.024254730806341617;-0.07273507502218211;-0.03602655494123845;-0.11258087236432951;-0.0271161632447282;0.05420234126044855;0.09686976787593732;-0.02092267469150543;0.07155656341264097;0.07629618913260484;-0.0817457214734277;-0.09831818950319025;-0.04924250344003336;0.04462302741336671;0.0747465581322295;0.09418511427075811;-0.08439281865564151;0.09289802775059959;-0.046671319425324445;0.02260744191358582;0.023133575771677062;0.03405942030695042;0.01158638978486722;-0.05935344863900466;0.0029517585677944283;-0.026968219323813332;0.0024328825678226447;-0.026102566796429718;-0.045910168828085664;0.04442578914658625;0.03838916303920961;0.02037305580196157;0.03499873732330778;0.07910048611175477;-0.03478401897333955;-0.03195024600378839;-0.09136927348629699;-0.08754284298685766;0.060580930370168734;-7.473602253452022E-4;0.024409569342270346;0.05860817381927771;-0.08611897519626555;0.04962337312859499;-0.08945814549899632;0.0941570145149816;-0.05420391236143969;0.009956445141087206;0.10249105500293154;-0.07763898138714115;-0.03855161726158343;-0.03187263440740798;0.08732045869212124;-0.08441313471481125;-0.004897915266632952;-0.030991360773039982;-0.055396194280824144;-0.09653931037634611;-0.010942140930793296;0.061874266551018554;-0.09126822368985985;0.011120597871502142;0.006637641260467417;-0.043433695454825;-0.06169765725922149;-0.07154642306459875;0.09081244800488529;0.06600443057369458;-0.011195596657436137;0.06355372231109077;0.036574710034000514;-0.05238916236529989;0.07644089845959655;-0.07567869517691639;-0.06047281800826959;0.07239527542850083;0.08241818328289852;-0.0500052537867386;-0.03878650322944228;-0.06548233619836269;0.049796914488302396;0.03136271623475155;0.09955335509630785;-0.004471834157518015;0.03885442381201546;-0.047108046188161126;-0.042474715176646055;-0.01720964556293053;-0.06396060302304632;-0.02482724177284037;0.007650018574042133;-0.03189623165985221;0.062304482740815056;0.005040867039949725;-0.03661410889870125;-0.022091537901370067;0.022061215433509047;0.013470086665437465;0.037282818543102794;-0.0937835312666695;-0.056859910780783895;-0.023236576033322656;-0.06370746364902564;-0.010150158139430087;0.08457691222364198;-0.08613951537004882;-0.017355408113245104;0.05196293441598141;-0.08227523518046281;0.031198333296506633;0.020446190599931826;-0.08654966369402776;0.05927074296253273;0.08658805183617171;-0.09746140656576037;0.09814540622632324;0.08590537288295351;0.07547169145510353;0.08682514932265845;0.040741831060296205;0.04700996964673786;-0.02853666309877031;-0.06626003195476006;0.04747075839659127;-0.06178355174264508;-0.025260039518176142;-0.04149101171514891;0.054306111091040256;-0.05728784520166064;-0.04472636145607623;-0.053239977593144486;-0.04571044206132001;-0.07632038921947389;0.06370293030783314;-0.033445606805592554;0.03686156064560947;0.07349803537361485;-0.010721939201523029;0.08593142266619552;-0.00767033332293645;0.03999669508332769;-0.025911676208386615;0.00879534071122209;6.491258016048077E-4;-0.014229763452357711;0.08319824900890925;0.06420012894472832;0.02135489499357202;0.032994897065867224;-0.07261539403217544;0.07074151629335458;0.06486299374293347;-0.09461809318495625;-0.06842366474822845;0.09498024268490249;-0.04201927732972427;-0.082708225354874;-0.011360299579741762;0.1064015213469352;0.06278547116921722;0.05853521118642926;-0.047568242827802275;0.029148625678765697;0.04847966429326296;0.021440192947489937;-0.02888446062446472;-0.09028443010820861;0.08753734303434055;0.06304276862154178;-0.04200452565729712;0.06585955284301351;0.039129853397984436;-0.03535125245745786;0.062439762697745795;-0.025978573615302716;-0.0690414263609452;-0.08326614860087807;-0.030963425779505966;0.01668049390078179;0.019123228327592664;-0.08182556043504338;-0.0338633113012895;-0.016267515972652104;-0.07439490729122762;0.060758732771899554;0.07683775965753571;-0.09977087196194546;-0.06482696716432447;0.003708704301768757;-0.044026029728638505;0.04903907770422092;0.012879673304469076;0.009106763109565725;-0.03159424191156604;0.007299659260430578;0.10317673634528708;-0.011350303523329285;-0.0760256403294168;-0.03135473407896063;0.06783417609174462;0.01083463998851025;-0.010619120829255034;0.08311999673392906;-0.06523917521810779;-0.06778693374070853;-0.08362488568363871;-0.10243323852617058;-0.06873318481847773;0.07118747759334942;-0.05417982194471531;-0.03958015180395182;-0.07783189805078856;0.0333936678035623;-0.07682685352390754;-0.023933917147615738;-0.058454638815106985;0.04164252011969375;0.05571699958911532;-0.016677470955943585;0.09306279693088594;-0.00245875131952658;0.02722619327402359;-0.07050886420976853;-0.04915219563140812;0.0030912781639074382;-0.013354365063858484;-0.07801023297095894;0.0154422307233261;-0.012035080604669148;0.06289169288164989;0.052730097041449785;0.05033205771601382;-0.01826635164945149;0.01973004575580982;0.024108474393006188;0.10004002506562723;-0.07829498069759597;0.010114481172858927;0.03833334766891995;0.049794504593652755;0.04182946179230869;0.08170549481308535;0.029972452227685527;-0.015006481914022346;-0.08958423144551031;-0.07336740341044422;0.092568366017426;0.06584892412338804;-0.05740324418340643;0.027546094912780122;-0.06511890918566778;0.01956710665880333;0.08420615963417681;0.024246445420108145;0.0912363223130731;-0.07909303345319209;-0.014120981202011475;-0.0767213557851817;-0.056904060650929796;-0.059139116354950755;-0.0778965025212343;0.05719855819223635;-0.04913592182851346;-1.2897337266900313E-4;-0.043932677793161345;-0.06773871186100536;-0.05542128268106253;-0.025136450375437977;-0.08908818296605892;-0.07718138975372499;0.07188143018961728;-0.07999821883682996;0.06243455260545115;0.042306202125357;-0.07364322478154992;0.0785097705036642;0.08602692319823983;0.014929339709938165;3.777508241825588E-4;-0.030930071754843923;0.01360322074980169;-0.07507765776659411;0.026777123476326308;-0.05997990581024759;0.03298473239004616;-0.046989629311194894;-0.05034056161090069;0.06646326734365071;0.046229176502615675;-0.05313724057306713;0.023818340721151125;-0.08828101174935137;0.022909426441397276;0.05623730642107602;0.08787116124948806;-0.054083079382630496;0.004117757214171419;-0.00911961539034848;0.02423463357434157;-0.04764791894632306;0.09143610880164724;0.00619368211524159;0.05094544687470164;-0.07593576031143708;0.04194433990439075;0.042138384972082166;0.040098761360661685;0.03529862895567341;-0.09293535762189907;0.0335431594525276;-0.026928196683028736;-0.004162506657451267;0.09285015341066359;0.09023192930601914;0.01693405618339719;0.09530661307645126;-0.03833618388744167;0.07188225150078228;-0.07339571423244977;-0.01114557494268949;-0.10813571394646514;-0.023207423544721665;-0.007659262211764138;0.054556054154962265;-0.026506086818941937;0.0121966135833231;-0.08797451834199779;0.07440709256403935;0.00835016927473605;-0.04705174097332422;-0.07653652177141211;0.09261931812489439;-0.04074844663773314;0.07197305641143616;-0.04190900728812718;0.054783758380377155;-0.04397108231307778;0.04365270696727458;-0.07640874025626405;0.08335846839037256;-0.018135496344478794;-0.0776185455687492;0.06909284665250505;0.007717092665183317;0.07082813320720328;0.03129379317317688;-0.09933715836493184;-0.03148951788224109;0.08751874925542398;-0.07108866559577556;-0.032741827714295645;-0.097425940644652;0.05368980363771219;-0.09359254288844412;0.011376723685678354;-0.0926512918633663;-0.03252445469531271;0.08065369755124442;-0.012008786421888866;0.006954900589705459;0.056958237192261806;-0.09174588833868488;0.028901150267283984;-0.04596897215948947;0.06384046107939598;0.0949227083892373;-0.08481573109392855;-0.052338903405775294;-0.09028247586799645;-0.01865915447259137;0.054104990822136816;-0.0335719047121304;-0.007427489864618549;-0.062406470069016694;0.0889765544778488;0.03315937461126314;0.04595241559922494;-0.08084994204539073;0.030344180034110796;-0.045766561968416705;0.06766606744839941;0.07118167861320375;0.07349358785720043;0.09473908707378972;-0.028122057606124063;-0.09607835225461135;-0.05001542671650533;0.06257316870639296;0.06080114277328232;-0.05655200657125482;-0.08600673261075324;-0.02624538231542494;-0.0551394280391487;0.051214955578492496;0.04308004178020463;0.10014622360320743;0.012411375878067192;4.1770115179083005E-4;-0.006421073085105226;-0.06588576840264318;-0.04748062910829104;-0.02101279344515248;-0.0036443782681790065;-0.042254319297334836;-0.05118058549676155;-0.040131946048702224;-0.023488315832896636;0.055714472488160006;0.07738482042380497;-0.0663939131799789;-0.0166259182589284;-0.06746118699216884;-0.02856439700205615;-0.056573320013619664;0.03005195261327361;-0.03192818017056454;0.01714766665814018;-0.09085154298347194;-0.08984894776917847;0.03657443246821824;0.027710290119964214;0.06513039466384687;0.039550439309100745;-0.06380287355366432;0.03707913475450053;-0.010188210730227637;0.07902510224136661;0.09019261680344001;0.036573484978835086;-0.07827525728940854;-0.01947663122986351;0.08365056509188196;-0.03771952605603728;-0.013324837380518817;-0.001314176505806522;0.09816026246632725;0.08325661170353812;0.044663303949907196;0.013725286041238682;-0.03552350899983352;0.06957857616165061;-0.08983412780543287;-0.06040339290561565;-0.09888961720481577;0.09939189993067968;0.026040923293647877;0.038948489483895676;-0.004420588120947214;-0.059839043731676235;-0.055222150428145225;0.0043734890253810665;0.08565739504352243;0.029918962896023166;0.00974740739869187;0.03965799747658913;0.04062451652446972;-0.04148199928145646;0.03645168822433001;-0.05896774470347217;0.042517284136604105;-0.051121021100620494;-0.00622586866127392;-0.021579635595416133;0.06737857183490972;-0.06175833151850055;0.08522953663074226;-0.02330974078360952;0.024222867696622047;-0.006380674856872742;-0.06966110464958174;-0.025505212016311424;-0.015542809352878217;-0.0677060207815027;0.05936762240921528;0.09208835356543085;0.017823599279484542;-0.07903633965871922;-0.02085638030235973;-0.08037846446584503;0.03581284348362357;0.0639810499174541;0.020084643304343716;0.09678027579029988;-0.07941782225290005;0.06917784254209222;-0.05110005274333247;-0.06764548617624995;0.056205356777906584;-0.020885264338311865;0.09984029106435793;-0.06451179680175503;0.05992264900864544;-0.0976685688425987;-0.09405206167741845;-0.05307070176653359;-0.08660918566208194;-0.05540336903215848;0.030306655314941783;0.07027975260805455;0.09393312359496739;-0.05984195536721831;0.09729172153742352;0.003245520942856281;-0.09421064285730614;-0.017007618064290367;0.023819907439783905;-0.03111342471466512;-0.07595177066420056;0.051083139267833116;0.07297528181836008;0.05312305356658348;-0.09017530476994805;0.06567402880620848;-0.08663752565836123;-0.0021127177459738106;0.015166051242270134;-0.07294251738906331;0.09278836057822826;-0.08321316543660569;-0.08707811426558983;0.08514912235718677;-0.07543726443680945;-0.07714621310117319;-0.0978253079439801;0.061409982740376484;0.03885329154263584;0.09129063282909691;0.08948987385277743;0.030096504863782153;-0.03606435883634544;0.040720267534525095;-0.029834255585434663;-4.894495122260006E-4;-0.0925566950985375;-0.08556399496355326;0.009483523043312639;-0.006750622463967515;-0.06238229257275701;-0.03834844033610701;0.02395735526269467;0.031455660305248184;-0.035441805162385626;-0.0812489367169418;-0.03741572359657956;-0.0879325111868041;-0.07852798983915368;-0.009460944295322488;-0.03188373920959363;0.011390611387057131;0.027691947733572808;0.054229853442952225;-0.06372425646797486;-0.03315817123367186;0.04901631464979911;0.0809548633714971;0.0635282933773737;0.030626541899069465;-0.09788114383293488;-0.04052973155751634;0.044014275891389065;-0.022118183801334942;-0.09241352515351937;0.07026591660676179;0.08257961426335944;0.052262789627294276;0.012336627939840222;-0.022025271589457288;-0.07397419271855042;-0.0028073450923294524;0.020867345364149248;0.0626226851676025;0.0943599175049045;0.08711268345803172;0.02650722383429141;-0.04912116498712138;-0.08795542864281865;-0.04126779537635361;0.042665423975928846;-0.05269470402416541;-0.060752034820453577;0.04227861471064315;0.03408167339886664;0.0656072441526632;0.0030938623439750873;-0.007252610999928424;-0.05192373917027937;0.05988293764127664;0.06985016100836003;-0.096649063824213;-0.01953760580913014;-0.08375397986509987;-0.09141694601200274;0.08187736122076421;-0.0854076548007155;0.04471865731991309;-0.06086024671661792;-0.035566462903823926;-0.07836522795053488;-0.0363629544036846;-0.0053673765698998245;0.04193577577130432;-0.08603183082802171;0.03162151155525046;-0.058933648433375736;0.0063589383398513855;-0.022614822981418092;-0.05811065970417138;-0.04703941437778555;0.02831655696951594;0.05092931805365613;0.018439627939923736;-4.225331258566117E-4;0.04565723982742021;0.0023471451041476477;0.08099576503153492;-0.07655923039924344;0.039093563720624946;-0.08137532337489667;-0.06202991403567062;-0.07574114963945863;-0.08823089151051422;-0.01688705464313866;0.06561403177651538;0.035017154486139485;-0.019977698578804964;-0.05022949153132643;0.08268907905799734;-0.03274173104749474;-0.06577844809618286;0.07587303191893159;-0.05795438532784292;0.05638337275124132;-0.02220073222462413;0.08355506857438792;-0.06972098007536107;-0.010922423167703008;-0.06747583649537889;0.09620775869904452;-0.04693599000960508;0.09603680734529645;-0.042372465110450966;0.06829360447000299;0.05908876621602242;-0.031745372833736525;-0.060431621020760634;-0.020565644120104358;-0.06254649647003728;-0.053370042879437946;-0.0038735799686586726;-0.04479715946681548;-0.040561528411793;0.09005061797586066;0.0620155627336589;-0.044531200404069854;-0.01092186402069732;0.0864350504505251;-0.021462497610261044;-0.025631469632575215;0.001099689637404797;0.003762214533547311;0.01237792143777512;-0.05896593310620021;-0.0033657161006110073;-0.01684407569538011;0.05725890428517946;-0.0010124760861765158;0.08578177560892018;0.07227859343499111;-0.024667010802482167;-0.01214093271152669;-0.008341733441117414;-0.021637785334552292;0.07066820874164628;-0.04213960788915585;-0.05662219666644845;-0.03236748149274352;-0.06108241611145941;0.020229723405393106;0.011024373192854639;-0.09813159123886872;-0.00586633928790462;0.05336016906021554;0.02187201934296187;-0.07340037632002451;0.015413509008505957;0.011883539754877302;0.060044434299546194;-0.021840390390533745;0.05610648635242915;0.08117188703776751;0.024658137563038474;0.03343622919516282;-0.06366293655934784;-0.009527220461729049;0.018898097100388186;0.0494683010917804;-0.05829002641601369;-0.08005068580503376;0.06634211037143554;-0.01810397978242063;-0.005381342199769879;0.003423114592536797;0.07389346662065793;-0.09780627697950257;-0.06194237895550671;0.05481810338871336;-0.07540210056363104;2.1099526613443421E-4;-0.024337847217499087;-0.09159803417690833;-0.11440931934470695;-0.011013369591376415;0.067452397116656;0.0779141498785923;0.09173392895958754;-0.0011623753565489442;0.05193853358093607;0.030894686478857576;0.03964767569388379;-0.03032031993950836;0.02975727807806307;0.042423323870646776;-0.048885908495412696;0.1006197478022031;-0.014831460242077031;0.07310391888255016;-0.0031673849885484437;-0.021473494870481388;0.057942151226827714;-0.05716965743542724;-0.07804211979902438;-0.0886797742008437;-0.035058441869135176;0.0887875175528371;0.06902174383399778;0.08733599727311787;0.09587983490899467;-0.020778018416422035;-0.0527864254706744;0.06299114031680923;-0.03829361529646296;-0.024806329353179585;0.06191397343725834;-0.08450428263170708;-0.08991822331909997;-0.019206145082785092;0.019309297409728077;-0.02394725469527281;0.013223806257046784;0.03551081042656055;-0.08570469043055196;-0.027563377421262403;0.011943148459540084;0.027100948198863217;-0.024572560947736397;0.015679919502726514;0.09040440273403928;-0.06552887512623025;0.04787581952770961;0.0931906431810356;-0.07072032163550514;-0.059587760467645794;-0.025523801289842767;-0.03784167529079217;8.243646462765421E-4;0.04375718792039994;-0.07713093894757857;-0.04481427629209983;-0.04949420410387567;0.10433503800995703;0.026218704217961204;-0.06553898935148644;0.007515872123786069;0.06341052754037482;0.09299450148724592;-0.07604283532000866;-0.027510479044574498;-0.04249942645160875;0.004546954967985172;0.0315221516151702;-0.09746954388498218;0.09279791931040929;-0.011678175435193784;0.06860962149150197;0.07142427639012283;-0.08828970674466757;0.006735544181859167;-0.07918209877792114;-7.987407860355293E-4;0.02726130464892453;0.07249429776337062;-0.05945852131823612;-0.06105032783512524;0.08004425097956393;-0.016269953791136868;-0.08582034539597141;0.060090994361661994;-0.08982961029215973;0.005611367728367503;0.07511927735824364;0.07351497680417253;0.06097409764131576;-0.03992687757757261;-0.05989863355183478;-0.08473532419252158;0.033523599727101006;-0.09305369655057938;0.018065478964094894;0.03682627103951037;0.00892525289940111;-0.05015980486923774;-0.02934795949102666;-0.01868568904884658;-0.06165905838377858;0.0949308422435511;-0.08656134796012943;0.08424158785519294;-0.05577334885507272;0.026409989391668894;-0.02622488757963744;0.001395449278794763;-0.002208239848911391;0.03536507049980563;-0.002189314662448801;0.07651150664918607;0.04931835403513175;-0.08158040181090706;0.0462271050294621;0.08219239714823548;-0.011731591197258685;-0.06383586565162869;0.020480519351588865;-0.10559707127000409;0.01122697322853043;0.0841574293787812;-0.08883747986927815;-0.0029283673833201958;0.08259864695464779;0.06743682581018219;-0.06976684592736998;-0.07857121352347649;-0.06142900850156007;0.04391211874519656;-0.010825207318236508;-0.07823301159514633;-0.07969404890830646;-0.01998173783121822;-0.07145918533222007;0.09025445234444253;0.023609235887373688;-0.029494077376312686;-0.08714922683812107;-0.0174825433139143;-0.017300364330287234;0.054522415323624784;-0.043542475095331976;-0.0256663375857437;-0.0287179385333798;-0.009450820561756968;-0.07850223376474198;0.03155850215687596;0.03253582218714563;0.019687319034036962;-0.04207764035860954;-0.0692239902388325;-0.00513967648456361;0.060434575917797266;0.02851902389517766;0.07916961903576143;0.038475298552131505;0.07627008917976262;0.03459922253604509;-0.07225639241567945;-0.012159823860501708;0.046326317365139;0.0836909025857424;-0.026539208528277493;-0.04491177032924155;-0.019767431429905846;-0.04231678292170756;0.039199383644607066;-0.06036195472292855;-0.02068514206051942;0.01564532216367758;-0.04825767107800935;0.0660181831395207;-0.0940715280653514;-0.03136717245299179;0.04083463547581189;-0.022731532068634454;0.02855367682561006;0.08588802011394969;-0.10721332308295749;-0.10389853450879229;-0.0830080167437282;0.0010419497313284743;-0.10060659983804944;0.0349969869809534;-0.06062367195074437;0.08122809917981313;0.0870962357358641;-0.017043046884408594;-0.003650890401614391;0.01885642484210477;0.013367438850465463;-0.03431790811819097;-0.015330148700644846;0.056179993137578245;0.07978091445106628;0.08823948701275365;0.08112601515102993;0.03683801467411562;-0.014087662971983054;-0.100570048839008;-0.012094951610393614;-0.0741023256189679;-0.04334775946823677;0.019533544473045027;0.030299398885356862;-0.07878075185671128;0.09427087298267516;-0.04423805532266403;-0.07851597721575303;-0.03471356012293626;-0.02994326974534279;-0.04465144845335063;-0.003002240421919488;0.07365845961561629;-0.08553896344215899;-0.07589385258007048;0.11019215346650095;-0.0838322273098366;0.07341920344340298;0.07062330174335552;-0.05857558443145475;-0.06997413269224713;-0.01512272740836518;0.01314102431104993;0.04327619138392685;0.10720657937744497;0.058328159182353116;-0.013480475575546432;-0.07393926222257513;0.013972603578326729;-0.08431048547902717;-0.040184068740622574;0.024843432483219845;-0.06424787894532186;-0.043142675792035644;0.05183242552739533;0.0865398605688256;0.0568706956453357;-0.0018315459591874102;-0.0984662374479349;0.08393501771822687;-0.0668622855436903;-0.0759934766491591;-0.020897327470774166;-0.0056083682098319295;0.06933165349580796;-0.06699586106116535;0.025828092617258196;0.0689088923325388;0.03217042145410161;0.01888522323323659;0.07024965665538087;0.0170903103007988;-0.0899669388090881;0.044103792529800914;0.081067988595505;0.08282062961188136;-0.08620872045137734;0.06772511022265836;-0.03445480308699259;-0.06628971840213058;-0.09459039735299667;-0.004245555781489371;0.030463461801546462;-0.043323557831801196;-0.0723052837578251;0.05672692787392196;0.007998678309740109;-0.02583386050115392;-0.03504407095610631;0.024085319486613275;-0.05224405980638858;-0.061894206694365184;-0.05632435398927956;-0.05621243659003539;-0.03719186961879032;-0.004800914029525041;0.06008360957809509;-0.07798398019178086;-8.557523965307562E-4;-0.0613377711583643;0.018768407744870513;-0.05036827338465559;0.015070484585289354;-0.009662268200320864;-0.017110046380990774;-0.0568033766095905;-0.05483099974024005;-0.041371632736717665;0.005148013516963939;0.08200605329787936;0.023387891491433072;-0.06707225332581371;-0.0796821138720454;0.05141115684140341;0.12443136936631474;0.05500291830293568;0.005195908360399339;-0.10920298535758716;-0.040353365158173705;0.08103268301322021;-0.06147270371822815;0.06390856267106346;0.08847516233203602;0.05114374154947434;0.029291512681057844;-0.016072321559512204;-0.07591308851791852;0.07708452303790496;-0.03603675568667185;0.061644849027347966;0.0530772742280028;-0.07813401933289663;-0.09623752255229821;0.001810588859863267;0.03648351664056622;-0.027768166110523098;0.05272823751202144;-0.02908302334529611;0.07460831303111976;0.005832813969881123;-0.05654911082278395;-0.08277441000731901;0.033084232400051435;-0.0357075158023917;-0.018257200356879864;0.005980573280624147;0.025613094007107595;-0.027629272302226796;-0.0671104575803879;-0.05224505701645037;0.009514221639457702;0.02857005991846224;4.1248890977579E-4;-0.04526928470466172;0.005670849823480016;-0.07465349199109554;-0.05792099139190498;0.043718666754842796;0.0463011942792416;-0.025425152318925993;0.0658114378471641;0.06848235202109566;-0.022708090495332754;0.07652916875490824;-0.014493935111016177;0.05033858742993609;-0.021425609971722607;-0.05904741250691851;-0.0897056495372099;-0.04985389260303611;0.07811062031443838;-0.08594956340020389;0.01682283512847393;0.1031807180637852;0.027796679859152754;-0.023876258999178435;-0.08467058791933464;-0.012739358113413;0.10559313586830792;0.07524345715588425;-0.0810250430646508;0.051650716319366644;0.07282323211301583;0.10430239398656513;-0.058838656070190426;-0.04460750662590631;-0.02988410369990973;0.017985768480991315;-0.07971378404693788;0.04406109890038613;-0.02309213256889624;-0.040825804226111276;-0.07341453081309464;-0.07524789934071621;-0.019105008078175566;-0.057795857270790216;0.048865653355675755;-0.07169384404495886;-0.08151633596113682;0.07686516354179479;-0.03943913992386845;-0.03047975096794347;0.03877779180397851;0.0814044945715455;0.05977167500722722;0.04598737327047993;0.06491411818285198;-0.046453381425806135;0.004250899843584307;-0.04675107032317825;0.03387565348439478;0.023299707914196572;-0.0817786003582165;0.047327786416686134;-0.011879338278013015;0.002805490638837915;0.02547317619879061;0.00950593500761443;-0.044411897215072375;0.0549728613533472;0.08450503136239661;-0.1017630563158872;0.06611365519814368;0.035318457867185196;0.03778326670591735;-0.05279290332968782;0.04038230660135283;-0.09305581037521693;-0.028510152288380285;0.07622555510416112;-0.0030488615177749158;0.05583974291721221;0.065310356511227;-0.03934629754547979;-0.06750052187577024;0.05724585249307985;0.04734141550841823;0.05288552403178254;-0.02814617518739167;-0.0940598690953242;-0.03500302485319786;-0.001120894524254205;-0.04447706683778391;-0.05177316106676903;8.808691572585201E-4;0.09897280465008658;-0.04870956142071996;0.08324015480197794;-0.001776276791882365;-0.06868933018915603;-0.08636661818252171;0.03397886161999847;0.015969477943686763;0.06282554317638556;-0.0732253852481648;0.012746596883162946;-0.0777704735933423;0.04522447990892664;-0.08090560280631033;-0.0488558711797416;-0.07837661973921546;0.05490699411387108;-0.054728134893330845;-0.07433551394755522;0.10327867745266822;0.08292497083737844;0.1029113607289163;0.08909524470232778;-0.04338042017429796;-0.02843484408622222;-0.06271833960106277;0.035912988288957566;-0.028720403513596986;0.0394783494154979;0.07595505596056097;-0.029938952614540933;-9.979491962795353E-4;-0.06385976197444643;-0.004129499742941628;-0.04165191119901358;-0.024911147865440245;-0.014542135501026522;0.018387707887714502;-0.016414444609206366;0.029707037128471503;-0.010533562660796695;0.10186341720397663;-0.07968090006328661;-0.05683584531312928;-0.04226417929434582;0.09678853390215245;0.07441419106276635;-0.035323201770867604;-0.010588861889495798;0.08291505595944819;0.031658886523030505;0.08669713429384655;-0.027205899533675165;-0.07554856854481175;0.05194105378083798;-0.10140759405082145;-0.02499310413455361;0.043230820673499835;0.037523860752291825;0.10522755095334888;-0.024131910826716996;-0.0133503382229239;0.0962191367316066;0.030342397647328708;0.045235030847300836;-0.0010090428921125695;0.07718298994995118;0.011219318730181504;-0.05651396280615499;0.037982414544848665;-0.10655491898091816;0.05958661510156796;-0.0651949262176658;0.08183236640039725;0.08786451699401723;0.024166360820361707;0.04130550674603492;0.0755220706081045;0.016367259290219094;-0.07193840001145085;0.05933236412684402;0.07213917261349657;0.1006469678479906;0.1046811079704599;-0.044643436317030716;0.04835489781314628;-0.0508730536205473;-0.0605290025299062;-0.057115986818205886;0.06402569118178716;0.039378098562520614;0.10368861939651983;-0.06729839493584586;0.011919054052091357;0.08789623577199077;-0.08089006886102884;0.0097622226542066;0.07269662490709779;-0.01645792557694175;-0.08085355258838672;-0.04748526136845937;-0.007890839388447653;-0.038613056200937246;0.012836444469380447;-0.07289823721984161;-0.024996332610521674;-0.02493703388860202;0.08151146899826463;-0.001490330955244783;-0.0751720304937587;0.07772634114737774;-0.09534372408717307;-0.016130945176881288;0.061302691110356626;-0.03712269331204342;0.009536301533714778;-0.06019945423239013;0.01966952665325844;0.10938422986820144;0.02101388683123017;0.051170820491533556;-0.03577847668174782;0.03208905741555521;0.031700718389473644;0.08088223913398128;-0.05447007279495797;0.027611439340129947;-0.05828224712249057;-0.02702550121218244;0.04200815436894479;-0.0522906503947655;0.10170845822074905;0.0868291827815971;0.09753328541934352;-8.952424869873403E-5;-0.04628826574502765;-0.037162236755293246;0.04854742051423888;0.031399806012308684;-0.04670868176224363;-0.04819424521290526;0.09689495270370857;0.016524842298070785;0.08560757914555947;0.047136356894299326;0.029950128926108262;-0.07911176939310682;0.06727660930360518;-0.00560965596239226;-0.04900180168294788;-0.09839454378964115;-0.07178198406801174;0.06653648142029626;-0.0798242560669212;-0.08151307259480339;-0.07074273533900437;-0.07117864034763768;-0.09868294900900484;-0.05604357281716564;-0.04387064822755648;0.010822347253269873;-0.04892098211306221;0.026103192042139123;-0.07499507246127236;0.03917339918699312;0.004793784164569142;-0.07720613205906124;-0.09808979240971026;-0.029989152089261503;0.09508839452649928;-0.07557423346250898;-0.08926194748593709;0.03394646106621256;-0.02721202854612252;0.08038008946423791;-0.023453351274959556;-0.009327598201632164;0.0020728312377268406;-0.0016371183506201368;-0.03756047257220213;-0.09110895573871036;-0.025519536288028305;-0.08334249175154637;-0.11262345509077214;-0.027500858374701367;-0.05252401546056577;-0.08687730670516906;-0.03285905038066708;-0.01894092168413202;-0.00822144719480301;-0.05563056469386703;0.0681054914039636;-0.0029646082822743394;0.07038205807566929;-0.05117744000652298;0.03976811613482522;0.05243982445541626;0.04314720380883614;0.07524089133345253;-0.019286929638190946;-0.020602288882651136;-0.08753171528413206;0.023346629688364554;0.09438841378646295;0.002964251938152771;0.06741866217219032;-0.09058115324017856;0.0870562974461237;0.02667213246596027;-0.029328529567728058;0.08112974580118687;0.010657329544184855;0.05701735888016108;-0.07125116500768848;0.0011747672523234236;-0.09603195056569822;0.05831269041305528;-0.07055471089530133;0.06640995444791893;0.08308275331090553;-0.09884750142285302;-0.015228321056546463;0.07170618546847864;-0.09201803250967057;-0.015271619741510646;-0.08670187148699636;0.07064840309781177;0.05378325242839386;-0.04814471116567418;0.07581298009969845;0.029931754915733858;0.03414546767297504;-0.013224675391905555;-0.0636178926313627;0.037030779743074664;-0.04374337028029317;-0.019459842006729358;-0.10602716773993223;-0.06409282205927781;0.05828070780767282;0.033788047814135004;-0.00762807356130682;-0.046591340757088984;0.0016727168336239068;0.05008594434791611;0.029213732190091418;-0.01826578390706769;0.047355011928595994;0.019252557850233998;-0.09837815772804616;-0.014417693741457543;-0.0055150181258254456;-0.013418225644877208;0.0989869312013996;0.08799734301193474;0.07076806353525937;-0.060527095844087796;-0.02752478141223128;0.03394253742208649;0.020294256993738918;-0.01558857155269171;-0.058195866755700196;0.01147981920058835;8.08470908978899E-4;-0.09812941477188125;0.009601136999791331;0.04484020542022821;0.05890841364269659;-0.09716102571516477;-0.09158359219455073;0.0863183417672111;-0.08716999246938054;-0.0015937078255740924;-0.04912177244596263;-0.09983492579454595;-0.04413885783944716;-0.012224697008933886;0.08893865020986093;-0.08440082578918377;0.06782460482587101;0.059433445298315055;0.07294202735338312;-0.07447158593535605;-0.08735067418755686;-0.02518204189243631;0.03393701765503926;-0.013704209272550949;-0.070689477162793;0.02983909115494866;0.04303390058611417;0.005824826164903206;-0.0914203453071934;0.03920075437677025;-0.09744183085569945;0.08699415843574297;0.006095034967115118;-0.04095545082806604;0.05089747367600264;-0.0030950743652072604;-0.08854336940917275;0.04273211995626364;-0.07070098128319754;-0.017629133036028328;0.009428258371071474;-0.029085288795692357;0.06285394489838828;-0.08158933630994253;0.054654365222538095;0.05617753062671069;0.010127700408337742;0.03831873941161087;0.039059287707420315;0.0931092248077384;0.09942416852285275;0.09030984864175436;0.022628393182077825;-0.036458089881619915;-0.06721055168795743;0.01873113031595548;0.013727622316526937;-0.07772007178364577;-0.04474459149336539;-0.06921394972748483;0.09709526103582282;-0.005683605779006978;-0.04187735837313922;0.005950750899036011;0.07624544550491635;0.042490599655441;-0.07688850245030694;0.06285458771936091;0.06460256651885064;0.0028624479235220125;-0.09077943046993285;0.03363812673647731;0.026510885921613353;-0.0601186192634904;0.09434596296746589;-0.08183631585194716;0.019320117228440827;0.06180922465595291;0.09949564439565135;0.04274312318999446;0.051053855260984014;0.06583650491626883;-0.06143343043995183;0.0752463143497285;0.017888379226668975;0.03985484237960166;0.00277951584746439;0.0033500839030778415;0.052087020981784485;-0.0766305606147538;0.051044037731814484;-0.06443381921685838;-0.039034135049293726;0.004366227562588095;-0.026258835603475604;0.04788285238557469;-0.02084925743664804;0.002484375997355409;-0.010081193125179676;-0.009921649335339608;-0.05438303596570401;-0.03901216222094003;0.02447033673631552;0.04642962460518649;0.06613570145162687;0.01798150091681772;-0.05845589315880359;0.06830926544691383;-0.05884858095372876;-0.002208091629334139;0.016839839733257454;-0.05183775736094473;0.011041987568294253;-0.04004849966745291;0.03357358189939906;0.066429953177933;0.08026459706061978;0.04144994942541838;-0.0992254285024432;-0.008367871018529108;-0.08210886755234063;9.512899050709428E-4;0.002547999122369289;0.025535016911187987;0.0841892380394258;0.041566314063349985;0.029664743970753474;0.03408122600922613;-0.04168135692309666;0.05059990421476399;0.01178361664661767;0.08074941461392993;-0.024262474965264;0.021800192749404812;-0.05316179233755327;0.05411268939308485;0.056359885807432376;0.09748029967893286;0.033987693876708455;-0.09823792455741528;0.035356495973944524;-0.009754719362092457;-0.09556740189798046;0.059365427036275224;0.08303976995957046;-0.0105743855207521;0.07409748376976105;0.06329000198668275;0.09056758901777359;-0.03415086796896834;0.07333887052653901;-0.0016364291119733004;-0.016884067680370013;-0.08869576838158587;-0.07829173808303275;-0.049358552323113286;-0.09668069568371924;-0.0458659586943909;0.07583551883823533;0.09761837181117614;-0.00788455732292101;0.09129741438895117;-0.06872125672457963;0.026029806909908138;0.06999530422661882;0.06961892427462166;-0.0962257447021802;0.013101932650689527;-0.0817469342170742;0.06703886531683903;-0.08951341206332311;-0.09219833353046342;-0.03976386904388823;-0.02613673740325427;0.051258508884996945;0.012086631616510801;-0.0574048779541317;0.07401385785943751;0.08986100345434408;-0.03784481220376839;0.016533889820353795;-0.07372188666761421;-0.06475671862650387;0.009696408164208734;0.029520587427788875;0.0011080144610155218;0.011876921619204145;0.09507342043780795;-0.08214537939887585;-0.067997278477894;-0.0402046068575036;-0.08496762706240642;-0.04078165977958997;-0.007097984408840019;-0.01782847125455686;0.020306026328918578;0.024583542190210264;-0.031754907220858636;-0.05238494121494169;-0.015622225960909786;0.06301040363673013;-0.09662795279425483;-0.03155089244744931;0.007256893394609817;0.03289748151083269;0.03577383980009116;-0.06803982898528577;0.04672853826372442;0.033231717151519374;-0.07365768819509877;0.031648121377408744;-0.050396265320789405;0.03483841700755272;-0.00937981364025231;0.0984762116490405;-0.0170305996969837;0.011631275082330333;0.030051064123837262;-0.06787892277618951;-0.03456167187188419;0.07186236855666886;-0.03677058110120501;0.03222273150449867;-0.0016008208789385636;-0.037859454151032604;0.025889786063472697;0.07004579010957862;-0.017779596073929024;-0.07718681311056699;-0.02188189112592487;-0.09516353303690993;0.06599611270661704;0.058276851347015574;-0.06925784542811941;0.09497709887804753;0.026632548918096993;0.05837559626017194;-0.03575374792900869;0.0354203862714792;-0.052621076404177264;-0.08151673473847983;0.05995699734517962;0.017273818808843627;0.00295173239020681;-0.07924650611362194;0.08129328257828458;0.009049665811407467;0.04078475789506883;0.015369691039443939;-0.04498371640864283;0.0379149845450161;-0.037720933984522524;0.0017950651649611127;0.05247945621050232;-0.029058377451599712;-0.09594698872371084;-0.08997740918776267;-0.02912145246411804;0.09635620208008902;0.019192224249293233;-0.018174950293029596;-0.08549841365090737;-0.09520985371142605;0.058499631762911924;0.07771251057945339;0.04796697779184286;0.0965739252096158;0.014574362349460218;0.07226710775853926;-0.051463802112058234;0.057834524277958516;-0.025176263691913156;0.056670369278628646;-0.037001755982518536;-0.026502893280316145;0.003187528391225089;0.015342044525609097;-0.06793746647694306;-0.057486108033123706;-0.09118611692263999;-0.03042067625389687;0.04112844176761671;-0.08366045517073013;0.06116588950085128;0.008806844101065178;0.051535272425272644;-0.06981883037308406;0.021271572604368585;-0.0781733162015508;-0.06818773050463878;-0.06575168077598775;-0.02702609782727923;0.02806835324564433;0.08892862931650478;0.025002971280177172;-0.04581921005424421;0.008838813024000497;-4.5652616234648224E-4;0.07640955814590436;0.0881150867312607;-0.06142753495873601;0.04125588647400466;-0.02881504794546612;0.01456458249809392;0.0939164273812756;-0.002404123039517639;0.09959468800492455;-0.0014860516494967294;0.014951519418551938;0.048967640369085644;-0.008296823748380103;-0.009144662257914306;0.06930921244384715;-0.0011979341976980362;-0.07325339620217797;0.057147150695655506;0.08557865586122214;0.08774583375060616;-0.03768870053703307;-0.0726464339924421;-0.029141769603501344;-0.04483997395165545;0.07511266860809149;-0.0295761288813335;-0.008275806084043108;-0.07981332178396354;0.042174533711917955;0.07628917633012806;0.05572955169792009;0.0633660742768824;-0.07821075786240267;-0.06370293162015919;-0.0074824851922651574;-0.09239431228527763;-0.06476799908878118;-0.07495267640645513;0.035205142993587374;0.09934604412277412;-0.05219538006677861;-0.018463074089445027;-0.09862451876170228;0.09028641988303218;-0.050264818504776626;0.0900811133803409;0.009675499799571682;0.006182814991135968;-0.013572442749775586;-0.09106616477817772;0.014959607540919443;0.06999024104510224;-0.03335482636897563;-0.00909147332249853;0.030388230689940267;0.06640642673677251;0.013269981082867612;0.01646742308835237;-0.07896380532896367;-0.015397844873844876;-0.03203528960459261;0.07206524538276464;0.04283062143821205;-0.06562609057301008;0.027634479153635146;0.019974496038377577;-0.0340206059316553;0.07098897004769786;0.0729343086519439;0.04819287044972852;0.009524938681918301;-0.06265449978538357;-0.005118457946615593;-0.01624905511131167;-0.026075720712639396;-0.014120451446537306;0.03326700592923592;0.03530814781121052;0.07136919241484535;-0.08837678891356748;-0.09326188674144364;-0.07746128045888433;0.05366671110708122;-0.010180941089316737;-0.0647648448055784;0.0025625269088977113;-0.07914130905180661;-0.006268730663718196;0.01231564212516496;-0.03159087304644745;-0.029321822837853343;0.046752366166235806;-3.170800165796929E-4;-0.042259830004190584;0.06285088518773836;0.015709795807049974;-0.062054459086055024;-0.03579238617801532;-0.09571817324596292;-0.08370494483721248;-0.05991962952789825;0.09125347402740226;0.011166123879033265;0.03664432913036304;0.01751712320384369;0.0880444899978944;0.015726762743418377;-0.019174455352789162;0.012312908279914847;0.04719768110846233;0.09152166320069366;2.2266237864908956E-4;-0.045355773837713886;0.08233489905782226;-0.07547207310919916;0.06259782228012462;-0.06748462739333395;-0.03951252182188526;0.09630297168583035;0.08237766542459062;-0.02430338810144639;0.09665954950213472;0.04134449084103939;0.09773439137448373;0.07527129154487304;0.07614285336758969;0.030959943244775214;-0.04878188619652039;0.06843104471927847;0.05921888684288998;-0.003357155049600495;-0.03752493152592895;0.029699008496941827;0.043376537092368814;-0.03297740432353742;-0.07628884326828583;-0.03332558536188623;-0.10360675391674831;-0.08699109584693793;0.06850347755894318;-0.045433839314257256;0.05877278242911298;-0.02470533875362115;0.0037102463168914796;-0.05529582048359867;0.005287799270820508;-0.06172050860253815;0.029740279821505903;0.09348733571818586;-0.09165747154918295;-0.057508199988200094;0.09854490059396856;-0.05042729658860035;0.07188302006057652;-0.09031839317216778;0.006089186574805795;0.06539961655847784;0.04691788348844177;-0.03524373834106732;-0.06238593699321475;0.015940126914039215;0.10517567995407404;0.026603738620298318;0.06197117733612304;-0.06409048908225645;-0.052573360015847066;-0.08991577011319259;-0.03582944839697593;0.042371236035184626;0.06709574388948039;-0.04769822078284176;0.07909666613411225;-0.007628191009537745;-0.02486118462371616;0.019557574481787257;-0.046141197101496806;-0.007929872759677;-0.09126766900935959;0.01468648621098158;0.04917819714067199;-0.08476080962297736;0.009981239504872556;-0.04134301075193835;-0.059940129237751424;0.08130256819993256;0.006653636341118004;-0.08216685096677874;-0.0852356055617386;0.04258949551691549;-0.014276711607577089;-0.057761146693291424;-0.0446530029705277;0.009514958964610742;0.03278749870109205;-0.028474807717820894;0.006929173852278854;-0.09887117968951678;0.011597812705805132;0.089387807488517;-0.043055382339804806;0.05647772617662977;0.09603291977934045;-0.036730286102462935;0.08368034369627624;-0.030023100074834216;-0.07398450198295425;6.306796820770917E-4;0.10045451807540937;-0.012058554890075257;0.08363902762596817;0.036661586101589004;-0.0320027852963899;0.05083246638765696;0.08980977650915964;-0.061200256662079754;-0.040356074646352394;-0.05695263690619131;0.03098482572642075;-0.04729372517156597;-0.04488933211922583;0.08234292089268329;-0.0014884128083137587;0.003971620089581853;0.06984477336634;-7.543069327693574E-4;0.012124151599707566;-0.012974066381169354;0.008088389730766239;0.001266396489860248;0.08531633227974786;-0.06798382131186262;-0.07823392716441517;-0.011029273327183538;-0.08053341153927429;-0.08728579275462858;-0.10279899534930614;-0.014073529411816044;-0.09480239414223864;-0.027115859560741876;0.07406075196595924;0.08897553364992876;-0.09274468154413475;0.06999025837666213;-0.02232837320328949;-0.11159134601397779;-0.06194436127940445;0.023819269857182357;-0.10633486413231297;0.06558646283255667;-0.06517153903777351;-0.04479288042611801;0.013830568207212169;0.0670027499573458;-0.03467126428619435;0.001605139313848945;-0.02850