layers;784;48;10
-0.05719879662601151;0.059192643502077674;0.03183038872145136;-0.03991955750155667;0.05373642283504618;-0.018376623174199372;-0.08340514392242658;-0.018673798211296708;0.009272345631529233;0.06156946775897623;-0.05524365287373354;-0.039920556544203435;-0.0738022257790598;-0.06090662378645846;0.05475493530901343;0.04383627961695413;0.07140542820352877;0.05420989913983437;0.027963313410738738;0.03735992879526534;-0.08263970478846781;-0.0923958016009565;0.03970429010660467;-0.09823213959071449;-0.053275597737036454;0.023101731228028097;-0.02091896104444871;-0.06039766771283897;0.002921387175982046;0.03977701078277612;0.05637615423885217;-0.049099687448119746;-0.046067829299918796;-0.03509145802250875;0.06540852956812254;0.051723887106301936;0.01337078241800696;0.07855744122282338;0.02311971456890201;0.009307710001256075
0.04589723946791904;0.09636773885437253;-0.03020569071110908;0.06692524822988039;-0.026717862085110095;-0.030743535224432614;0.08070177957721109;-0.09322903012732314;-0.007054463456552515;-0.07301787316064899;-0.08642022815103215;0.030600906135699157;-0.07744962528400699;0.05715039548529577;-0.0037379507749252527;0.025569338650885842;-0.007761361030076783;0.05203612436532798;0.0448866898127121;-0.07335537788505322;0.02035613347899179;-0.04732880043293637;0.09550324580984254;-0.012817421590735095;-0.07098029120425989;-0.027032026452542546;-0.06946973489177669;0.025681101357577008;-0.01736153297240277;-0.0037816052440861336;-0.013602642732986767;-0.07056501536860418;-0.03449167377870098;-0.09787083336221912;0.03983890273801749;0.06475524290293874;-0.04614284617997262;-0.09537622846170368;-0.01231076084100502;0.06861261235310157
-0.016774489661628797;-0.04103773332169325;-0.04133804124745351;-0.02198990530312883;-0.036174251258353746;0.031300220410299257;0.025478855117927496;0.09108484370905953;0.054530176868237856;0.014628518628386517;-0.07815324992293034;-0.05211511287941933;-0.029603285122103112;-0.07789413935460172;0.011163343867823292;-0.03103836663107014;-0.030851755693074176;0.09211636188500247;-0.0975339838202213;-0.003635722297137378;-0.06122015344173795;0.09895476216691698;-0.03597977313390342;0.04431763498254823;0.09147567513672525;0.07886216447589675;-0.0539228246940203;-0.01418982110913132;0.05827526921285037;0.053205523063129506;-0.008287032958522539;0.07651446614297155;0.07443673354776625;-0.041085580515740655;0.08829451907263439;-0.05109270585959778;0.047202195039903194;0.0808588974826519;0.09200014945501309;-0.0028476030566867705
0.005678589866648737;0.021672633087821344;0.043955659835857974;-0.08274628517056735;-0.05319523080034816;0.04159575283932959;-0.011070495208033243;-0.03281736828069508;0.01188367681553984;-0.04576780307486501;-0.09383652553654434;0.06812777925173341;0.05491618702293641;-0.026313352078184638;0.0667980867444509;-0.019288454950556644;-0.003019067730919006;-0.02563355116008674;-0.056515211110362444;0.058962434435625655;-0.09983760838195797;-0.05319578900073432;-0.08484024286261993;-0.08997197776684965;0.04003720697265012;0.011177177463307195;0.033587021752020135;0.06905837506042214;0.0074865427949769164;-0.015230400912463388;0.048161336051179726;-0.0636148076968861;0.028610146232905947;-0.009555128457458317;-0.07840588059509507;-0.08193277445247274;0.05577555924006644;-0.05973569759607414;0.011488587185113808;-0.038932157626962186
-0.0466562966552454;-0.0682901214212955;-0.058557075386979365;0.08077594870170463;0.07836995615252706;0.05353852600101064;-0.059796683261487044;0.04127668663802728;-0.060412419645379606;0.014115825836173462;0.0885213067493707;0.06772381105446107;0.007238210240436763;-0.02285259484295317;0.08075284993108164;-0.05463920776011826;-0.05817811941596867;0.01804645189519924;-0.018130713301543963;0.091183104676336;-0.08840302587445517;0.09874629992452452;0.040433111285501894;-0.02807057378839349;0.07666815079422734;-4.128473637030894E-4;-0.09577559170740678;-0.013965135287038286;-0.06824171288228015;0.043976423924229346;-0.02241344359776501;0.027374493093079988;0.020268107846614813;-0.09515748053193396;-0.041807450750538315;0.005070918012250042;-0.04101487025954747;0.09147205129628808;-0.004183748614804278;0.0063349183292703976
-0.05418869328406975;0.08114102914582835;0.02682553817754213;-0.04174662754253087;-0.03786348781842093;0.082020561365897;0.0554972716522788;-0.03036584550647954;-0.07300703128498642;0.0921582568700193;0.07688669760188988;0.015462940488094046;-0.08811665578713737;0.05390655748463036;-0.03413324049721993;0.06422208349090677;-0.016816768741597057;0.09398971985765758;-0.006914318932978933;-0.05773275036343748;-0.0967236055282284;0.08647133301607252;0.07097380472511039;-0.020347450101279183;-0.007910903861819585;0.07920474542757092;-0.018436247418437968;-0.011759566274960553;-0.07255247146543681;0.08391889857492968;0.09277046228487162;-0.014372185009643462;-0.05430972047524916;-0.0540874889741626;0.030910824307375462;0.09736522758577937;-0.006774509539355725;0.08139985391917742;0.04462511757029225;0.04514114126767638
0.07523024513633253;-0.0011284555661234819;-0.031004505364870982;-0.039951136580461455;-0.0505525008062959;-0.09459565308339396;-0.021460512096882572;-0.05225122530360071;0.0210436759439058;-0.06032605367541018;-0.09611070622945633;0.07628395440272304;0.00874789916761716;0.07049535083125599;-0.02064952771793209;0.057502559801557135;0.07300160178040496;0.05303553847236683;0.08716645198897724;0.049485659187376047;0.02360509328924283;0.04441353662377606;0.06919810081405928;-0.07992553177139271;-0.04264453346689401;-0.053776730182186094;0.08786036937037356;-0.019463628980780398;0.015428046819952496;0.06358495810015155;-0.0644591222433179;0.02360425357550648;0.09576136867927296;0.048651016637796085;0.015358112603046287;0.08156917594402197;-0.092536429043499;-0.06893715402565542;0.04599971449283885;0.05780153247284317
-0.08773427840888762;-0.07132485074521513;-0.020485877861324026;0.07902133127808594;0.06230567910342158;0.07893472122871334;-0.03668826705000741;0.06583344362257279;0.014033589721840142;-0.0653789820726209;0.02626441505385374;0.025488983481156385;0.07478822612767716;0.02722606870345562;-0.07632480908078043;-0.06647070048860612;-0.07839903650981205;-0.08292835160039397;0.03702253991624066;-0.010085532495375513;-0.07895787790236906;0.021331887097188362;-0.008233248328007245;-0.08956671136800567;0.07443220066294728;0.03944991747004217;-0.06986152486663987;-0.05436268414375576;0.014498302484863501;0.08000728627445094;-0.044287610436977265;-0.09276337942353596;0.08756388662206496;-0.06607458885848927;-0.047298146258036945;0.0258403209443549;-0.030382195554573;-0.06405157428949851;-0.02470686833465799;-0.03587968064340173
0.0851163785687917;-0.09032273597539885;-0.0990294384252811;-0.03407814804148583;-0.07586990013337412;9.950409651170028E-4;0.04666694649746825;-0.06546011106773236;-0.013545715438718714;-0.02945583979597398;-0.04229382330120839;0.002325693853614655;-0.07943899947675588;-0.06201420013829855;-0.003112036502444626;0.07898312931826817;0.07077709922477413;0.04909286725675038;0.08469732239502767;-0.052640326230619275;0.09783136798569406;0.07129773079306517;-0.028495679106677163;-0.08676762953580541;-0.004078730617494947;-0.08586361620687125;-0.04124768336430418;0.0095342813575576;0.09370784974669238;-0.08189900387738257;0.028515892677897503;-0.09433769756002884;0.09715495465983656;0.05873313330474639;0.08944226930566107;-0.02104744718096145;-0.0911130497951403;-0.027639751368012375;-0.09802691345788597;0.06810475703843352
0.041746695214995994;-0.07430169593829138;0.006875922208080337;0.047282527941253705;-0.06650638524151793;-0.07638619922955059;0.048498051390258645;-0.06518841196484262;-0.03491075580166261;0.07765866502506358;0.057787503798908596;-0.01815659460319681;0.08677565501934045;-0.057438100208540614;-0.05999053308170621;0.07404696796402507;0.06415986799059056;-0.03131790092186726;-0.001781206146476727;0.023336766688418914;0.07077519488996242;-0.08450468083982428;0.01593221662864444;-0.07315966641465588;0.07409827794470145;0.024513077744190356;0.02107669534172904;-0.07324594490400178;-0.011241586639861675;-0.040404457074009886;-0.04182685790744192;0.01743120998815792;-0.09631649586769249;-0.011554644052830493;-0.09315247787450397;0.014991571232317605;0.029184872544532364;0.0011377638747521318;0.0021442170870222405;0.029937182756465813
-0.04450904620439309;-0.06013689050728075;0.03574930720627459;-0.035295767342069656;-0.03400237811938736;0.048627991526228515;0.04711426640156141;0.0957762794334309;-0.09348910502979338;0.042481789355942545;0.04960332076472965;0.09392937555313349;0.07601534465698809;0.04290546247927021;-0.020829388844735036;0.0863749805394611;-0.02499041139180054;-0.07068005921488679;0.0017060833482284155;-0.028988197315859512;-0.07579217429177204;0.016241662581274754;0.0700717788304129;-0.04430687415140977;-0.050585611356790565;0.08143320319317324;0.08298313348438227;0.014361360131693604;-0.08236403974734773;-0.05753285104593145;-0.03472739527124556;0.027096979392412013;-0.09499601882740899;0.007441796960837022;0.06270576504051828;0.002574275331458667;-0.021162430701877108;-0.08984252013731925;0.02440293309226424;-0.030888342198767335
-0.015814928232291275;0.08088269673182721;0.032052004038195;0.06444954336478395;-0.060559753937327314;-0.09909052824842893;0.02748119840083124;0.054584252506920616;0.06613674126131505;-0.05758222502767425;0.0887930834560049;-0.03156846108512967;-0.0952174579516298;-0.09526097264020922;-0.08985590342117883;-0.05221120769740957;0.0016037149479596613;0.02392914070714003;0.05138664847687488;-0.018989821920163102;0.09032465612049562;-0.04536820552722545;0.04117363109331626;-0.08599561278558801;-0.061380155477397835;0.001532943793622052;-0.05924202991538268;0.013609853651328788;0.0806299665228642;-0.08772206054462335;0.005602783909107914;-0.0039022357443245503;-0.08505702830256022;0.034542880076653376;0.01805034731187867;0.027498356291442844;-0.0883014114471171;0.08702219528607025;-0.09331897673244344;-0.04735858468100303
-0.05587458763522633;0.09724101649879426;0.016628996355784936;-0.08370459676923067;0.027434930209603175;0.020764330989352677;0.049976629042836965;-7.449429192357842E-4;0.06467954990998041;-0.036302840642118764;0.05833420686919714;-0.06471595587290213;0.010949830263196795;0.016216494347331502;-0.0774243576683053;0.0729532237755296;0.09037756511473358;0.035059143870156476;-0.02023717783860719;-0.002425331243722441;0.04064743482769502;0.05311221116104513;0.03283290364486167;0.06689031514397996;0.03266722717856781;-0.08511905748910448;0.09384699014992559;0.009459572203639386;0.07987739312458592;-0.04300352868826637;0.01807130557599295;0.041667553430852156;0.0023028931440141932;-0.03612868856813193;-0.028484762320426425;0.047202926512766696;0.02422058847749998;-0.03653193063590907;0.09196074525799845;-0.02775937484339513
-0.09660119015592056;0.045362434905353924;-0.040591585805420556;0.09040264928431468;-0.04336986160428235;0.06346407950207965;-0.06266669427934783;-0.03807007266671713;0.0035543230393213043;-0.08960161460253203;0.0032516136019184044;-0.04152299262585907;0.0019326055772053237;-0.056630995169509445;0.012939892229969541;-0.0016386069322133962;-0.0029060663321384935;0.09622245095408404;0.08268796164304767;0.09599194275103513;0.03024497279819027;0.0346154388717878;0.08642654825353195;0.0628159747324334;-0.03545308760093422;-0.05509321239943093;0.011757807983430018;-0.02100971953255137;0.04374762273416981;-0.03425571425588036;0.04947139072332464;-0.09164053953216972;0.08217287247699775;-0.022935118076366272;-0.02602114845583301;0.007856397544505565;-0.09333121194260968;0.0222333369748446;-0.060625304809268116;-0.03560465700217712
0.06189545378521596;0.03404439197583207;-0.02360687795548477;0.07089265099024449;0.07270332367525814;0.05167228108162104;-0.07256577964556048;0.051411590343172726;0.05197197605440223;0.07688016698778792;0.08870811879682987;0.03292858450274021;-0.02048820203116465;0.07675612523703018;0.08378263178645497;0.025032495490360424;0.04533102340934989;0.08019171342317162;-0.03092205901607187;0.09795990459419546;0.07298440409731194;-0.03932634239073662;-0.019665905170319263;0.06126634730201367;0.057189893107841075;-0.07042014172945807;0.05637509127019534;0.014293742712997657;0.09070705706895003;-0.09527754626758549;0.053766577011543686;0.08585484418462366;0.01889631168476251;0.06814103474684925;-0.053877785180247294;-0.09636850333836229;-0.010193066179956236;0.008896062751771338;0.0799466158691116;0.0772406859689541
-0.0608004697782011;0.07419984612361497;-0.0749287146406073;0.03667104188835365;-0.08973616427590546;-0.020920274589232228;-0.01050682691358148;0.04517700912458094;-0.02255786030605856;0.034075262118016994;-0.07898520427704267;0.023065129028278078;0.02292385980630339;-0.08888835892953643;0.06876475701715325;-0.07058832272313251;0.0945735587379307;0.08198383885179418;-0.05740615713242528;0.04874500881165599;-0.03423192409487097;-0.06482216599649815;0.07361032575556915;-0.09044614758347601;0.011687353220727009;-0.092063971422921;-0.045944911652977635;0.09234746186028121;0.018540019629856637;-0.04843625394630804;0.012850603727931143;0.07356211357819425;0.05095906566796178;0.09174976055471241;-0.02835398814676757;0.09312166464394092;0.01613046206545042;-0.059456746997989245;0.016406878547194793;0.038061916338666756
0.08429017630155852;-0.028516059645525935;0.0194825348306413;0.08539891303825417;0.05181842497507136;-0.021907460876170903;-0.048474660769252845;-0.03458231143534196;0.06613929879445687;0.0020586086481063914;0.033928296276866166;-0.028216414116110228;0.07097163957641456;-0.060530239569585254;0.09966528053667736;0.07208847398223311;0.07590756977800517;0.011780407247353075;0.05419697001995569;0.05307125643326194;-0.0938991480344402;-0.07724826674651614;0.05791534240484761;-0.027334797369749156;0.04583817872445345;0.013432575467056646;0.08775246577127002;0.08494278034380082;-0.0459731684415025;0.07431826342567302;0.07795971060346904;0.05422387226594447;1.4002368442096735E-4;0.07714464907319032;0.08869630445693374;0.08105861048284924;-0.05408105067889435;-0.05165508097898659;-0.09405105794161017;-0.07450874040732475
0.08113841402930355;0.02201710462153464;-0.0625630005947861;-0.06804301495849714;-0.08899917849193649;-0.017679505220917033;0.03654069720580996;0.03535862440250728;0.0882309290746413;-0.06646053723171574;-0.04007758489706237;-0.0406841062759604;0.08470175289171439;-0.07937643164669839;-0.05560593506857819;0.005274766997717159;-0.0945702494639304;-0.03616692006456916;-0.025283605908311343;-0.02488991489033869;-0.037964790111820926;0.06818936174746812;-0.09360124237180026;0.07004976345525257;0.04327162658199454;-0.07825007299583171;-0.09379917588970854;0.06519430452252423;-0.05301438566227541;-0.09370178556310592;0.0779204129268696;0.07160056099206333;-0.02912321903573281;0.009858547166263928;0.05218449714908299;-0.03315590743799328;0.0986846868565727;0.05251687706788488;-0.063656721858835;-0.09983025839595804
-0.036062001993312595;-0.08465151286370678;-0.055800083868796625;-0.040214679781854695;-0.07484142759737569;-0.0031761407837665317;0.05519148268946289;-0.07245131160943817;0.04442113881808343;-0.08811556591218316;-0.011230642326961665;0.040243765392214054;0.02542704104727775;0.09595018165950833;0.02211019688664688;0.02683635693910444;0.03775829417782359;0.0794413033425658;-0.07207858034526592;-0.002454053019487007;0.03073597722430718;-0.042033383857926834;-0.03601211912232512;0.023264991980209412;0.02331493525875103;-8.484744330094635E-4;0.007239315859318293;0.06280248110820574;-0.05429558382469153;-8.511668769227293E-4;-0.0074990853438810234;0.0706239395331742;-0.0960878232616857;-0.06980417232092773;-0.010277858059001013;0.04920521292417501;0.04016739301674277;0.005151601581115134;-0.06663815874863983;0.09781289624285289
0.0701854851506786;-0.07423134063779609;0.003740385411988359;-0.04653064870916693;0.09249582291495029;-0.021476683175469177;-0.04744754110659042;-0.07994422854004431;-0.01443892928977164;-0.004850352694109633;0.06336693818109379;0.03795190597345541;0.0351747180272996;0.004592109159542002;-0.05717695658712914;0.059306475452991836;-0.03236878351690815;0.06891219181717256;-0.05063517080087363;0.06297759654844631;-0.09657909841868417;-0.08224518020402785;-0.01626109460742335;-0.03162220410678761;0.09170972800280172;-0.025699428468752505;-0.010887047864352656;-0.011096421171295903;0.03762158286448247;1.999970049862132E-4;0.038555618462710106;0.003324754976850322;-0.007651104212478804;0.07780671705878855;-0.07624896902592418;-0.08254584346462134;-0.05962506885518191;-0.004903725095460415;-0.0987959676411383;-0.06138647859083684
-0.011400957903758308;-0.09802202987539393;-0.0991749239020629;0.0918567808008218;0.03891397802225155;-0.03372267486016081;0.05666647419005699;0.06960727110469153;0.008792069713354736;0.07348702926828848;0.08071458120585545;0.025310569307015418;0.05369507414774852;-0.013545382825343427;-0.03197474995391024;-0.0030997995316585786;0.040630130292603595;0.009495364388791977;-0.004877302763207331;0.07731856866812487;-0.07606786704733484;0.08598928325903546;-0.046535186861706684;0.03703087302509844;0.08236075107366411;-6.586675039414319E-4;0.04591065599487934;0.047415082758544835;0.09085791861772002;-0.055745686641578376;0.0665087567966837;0.054106289527496854;0.020819640320371452;-0.011415745400111366;-0.017442327795241533;0.005819223539859933;-0.010506336921876039;0.05561832097546096;0.04277293742284721;-0.04313221368727047
-0.08787761636602738;0.02243570249042437;0.04652759221644012;0.030546026459597447;0.049708205219266915;-0.047917854617371726;0.026515964697660044;-0.04426988521438169;-0.009213651652030946;-0.04439077893219978;-0.07917645955767082;-0.029493723455619292;-0.04265205847015146;-0.08540044645132468;0.04026828218682549;-0.07567509336288843;-0.016935984391490605;0.08561979905030975;0.07301176767043135;0.004126430473728598;-0.023781148597689983;0.05511323426137016;0.010821154619471668;0.060079789757677;-0.04973104249088234;0.016564252623883724;-0.0700039716676788;0.013019734563510063;-0.018298246272880764;-0.0986625852152582;0.014856708986872594;0.08836437584653337;-0.062124224258736205;-0.08958615768719017;-0.027176322541166906;0.040239901593556726;-0.09321778854727365;0.0663182940434186;0.057500400870831914;-0.09526557509077445
-0.04382481514310865;-0.06714966021144692;0.08980475628752962;-0.04735143289215138;-0.048723844178875875;0.03480354667635205;-0.0529229602622527;-1.9462662818511833E-4;0.06826554915382888;-0.049323199178386325;-0.023774684630563064;0.07692772569911929;-0.044967408183467165;-0.051547811189937835;0.0793517311968498;0.06128653845476972;0.011162069691244697;-0.012165695693350659;0.018936230728057196;0.028768476684771255;-0.014105375079734084;-0.07808402206269015;-0.005463134511712611;-0.002292821915751281;0.025804928955955375;-0.002944123687104311;-0.04590124255220174;0.004767254353974876;0.043199993385478;0.07182369288562848;0.020346547452450306;0.07836574133560215;0.021747564354773874;-0.0458110976965207;0.03636806283378652;0.05656087070272514;0.027602448942863622;0.09069947967266517;-0.035620431065998576;-0.06596652770449277
0.05230642126707474;-0.06778279077724633;-0.09220398220712651;-0.08326847949524496;-0.022004858161197863;0.04784651535544901;0.06911229354003443;0.012943679985821285;-0.07404666253874677;0.062014145927226955;0.00473445132489865;-0.003986889092248466;0.026317348646668515;-0.05077273641261291;0.0927826247412813;-0.06340209272897493;0.029731884277281406;-0.06314216379136835;-0.008979833854470473;0.02133008775451406;-0.02897427591522017;0.03837157548022194;0.029446360180566483;0.0499202085743293;0.09047885661217306;0.06773990457249776;-0.04427708414060738;0.03420001502025702;0.020011366107865067;0.07034384838999055;0.031487137450099595;-0.08970910997627841;0.04963222667974851;0.04649891011554105;-0.036262341903906745;-0.08096880271512985;-0.09625607532064002;0.04080053049688903;-0.05213873622900853;-0.09000918394521769
0.07740671632860738;-0.07619026348883554;-0.0024977383239030287;0.08084658225982813;0.009424012198976192;-0.09783078192924598;-0.058641363673298266;0.07658767036421787;0.0021183580239966665;-0.0409398340041979;-0.021878028211743228;-0.058034869529448765;0.03692516834458803;0.04898055431591053;0.09816105611461498;-0.05420467856546105;0.08043919480713496;-0.05085403565844047;0.004181833597701343;-0.022827981245988768;-0.0726933731279267;0.004384234801625753;-0.007020886244752028;0.051337613468607185;0.0843633924801312;-0.0067843832089714284;-0.0034715844812286817;0.056908812518319335;0.06467812670133902;-0.010119649276339265;0.023048987376187657;0.0263477880887745;-0.06933391430658715;3.960404496133052E-4;-0.012698043424203734;-0.08198505488811536;0.002198037183909679;-0.08970271887415618;-0.025729688361246922;-0.0391652123961195
-0.07136392527838986;0.09753053381065235;-0.058499719423483754;0.031551694383176676;0.012985996666941918;-0.06395255271645611;-0.06723356730749327;-0.0902522728447812;-0.028136232379500345;-0.056039879474448134;0.049355698378487856;-0.0127600782370106;0.016731425146126355;-0.08530784919121942;-0.09485173077963067;0.09616974929183489;0.04986550094223258;0.01037965985292344;0.07780615603665988;-0.03595713323174608;0.08277899240316688;0.09384670586083735;-0.03923695481436804;0.004172514013595557;-0.09467446017586537;-0.07120011165047793;0.019341839681646114;-0.0935748256575546;-0.03952752456401181;0.08745721070175208;-0.04079088108603264;0.0058626048876178755;-0.0872629529095042;0.07064665645850163;-0.07349144100812721;0.07581944644151536;-0.06246189405112854;0.06748009894509385;-0.02360181246722004;0.0171510640433626
-0.09577683427955577;-0.03997133984165038;0.07034908583645802;0.0968315891577107;-0.022711249186414498;0.01299580530658731;-0.007553895187958931;-0.07322267377883314;-0.08168041670252346;-0.02079516850976071;0.01106376548165236;0.0677161588733593;-0.06456986793304226;0.09878774133929025;0.05467357205743947;-0.006881215948969038;0.09749972428385581;0.07328272538006306;0.019171569487116763;-0.04534703169382914;-0.09274966154113068;-0.044582112350320884;-0.021002091192444755;0.05331729198933688;0.010223907443009897;0.011179097865324089;-0.06454706400292601;-0.06064375614501627;0.005973911112040528;-0.017169830234858116;-0.09700278486004842;0.03925374423276565;-0.07670633955325806;0.009873925226299707;0.007955562082260961;0.03954751613135232;-0.07693828492554433;-0.05048705051879279;0.05392815468963358;-0.05509788698675453
2.9245597469547413E-4;-0.02101082016894222;0.09434445062435046;-0.0281764395821206;0.07123785101358746;-0.040748151967159064;-0.05502143561347544;0.03959409302401051;0.051894122437646545;0.09272349149433529;0.06787745239469242;0.07645058234973362;-0.03897509921034346;-0.0824958639394084;0.06303621985318947;-0.028274331654855087;-0.08617977507549524;0.04617408615578161;-0.0847124761373437;-0.026384050831021383;-0.08843132079930066;0.07942596781067629;-0.038745062862519;0.05743677891112997;-0.021772466095972054;0.0030771321676922037;0.06485299055925628;0.0706686573778062;0.04653383481051249;-0.08841631887125619;-0.08030071541295802;0.09879543418120815;0.05430700692123466;0.09199781894250958;-0.06706295005761354;0.08987985949204111;-0.024148547219263336;-0.05061954292231603;-0.012650814621880155;-0.07398256533619596
-0.01612460365082835;-0.04199861979339612;-0.07272224558448406;0.0362546183692688;0.014100010068729338;-0.017770470553219148;0.0687456025492397;-0.09174698829708683;0.08774079965754311;-0.07316366852368593;-0.004690278142784596;0.07492621926353413;0.03630082846190846;-0.05149474264591099;-0.031441393576298146;-0.07252840464846931;-0.03137661702196744;-0.01133883470480039;0.055798872427894025;0.03766422447223908;-0.07809063462059668;-0.02769674730055348;-0.04264095243611132;-0.04002402843380098;0.04641253035283091;0.058345751496742315;-0.09792863996503552;-0.07197244248617925;-0.01221644801331137;0.024040859278725873;0.07187510384890758;0.060077111563436064;0.051541659877014395;0.019378675600635747;0.015118019574555913;0.04469385683613408;0.06091040977556045;-0.0630707993512884;0.013014914387743132;-0.009539129502869878
-0.047738012566507476;-0.0915881673576408;-0.02514446143587175;-0.007503648278550837;0.09167224605221372;-0.03865193177876894;-0.04506338792718792;-0.006222157231988462;0.04159644793873074;0.047473418647089705;0.007825628090507991;-0.09930049216143147;0.05843361627241289;0.08915488902766885;0.02844694811458434;0.049987593476028824;-0.04024496755377369;-0.019119322719214543;0.05961342999990524;0.018044678716697723;-0.03576961206081471;0.02995902824121449;0.09200976522786797;0.013988569718016736;0.07779284192302566;-0.07611642779830019;0.03026638608059981;-0.09590295811598837;-0.023657952191570145;-0.02860733857237445;0.05364563947029108;0.07806487696881312;-0.08170797783105417;0.08007068751086252;0.06099490004217206;0.08642506041589923;0.009528600528915437;-0.09459049113524223;0.05700380882277953;0.05368120487670283
-0.06115109695446961;0.03456857599861976;0.010435936085579536;-0.09685631841939624;-0.09628675036410664;-0.04735740611404411;0.09488777556778868;0.017157151786338143;0.05414753777684064;0.08006579947124101;-0.09123911960239323;-0.09964740471637286;-0.003107863990891052;-0.03314758555489608;0.06351575270915252;-0.08624780195265624;-0.07759904494170043;-0.017307034208697128;0.027908888340143767;0.004000738666641995;-0.05594762313149975;-0.048503380177029556;-0.07920278815079423;-0.03530743896952189;0.07194130334441279;-0.055210078020761166;0.056226958731201065;-0.06429167961155209;0.08287965210616288;0.07045257422206794;0.061906814525751364;-0.028328777857305615;-0.006259819319926516;-0.028408548776866716;-0.0842019809171209;-0.007922373060362434;0.09703658847844956;0.08492396622488663;0.07543692631000007;0.06335230064844455
-0.024359594557801942;0.0988626554958901;0.010738231900760092;-0.04297616763555481;-0.02220678621124242;0.0985627698667998;0.09341005378258369;0.07841112270309805;-0.09591956954068355;-0.01148472225046171;-0.05525522240226604;-0.03334290390681552;-0.0652093175889595;-0.05716222260673796;-0.0015676901885471467;0.02964115295523828;-0.090907274088679;0.049236269065443844;-0.0038245909366538405;-0.0037528401720641202;-0.04328043336366075;-0.015319018859608888;0.0012693232446825409;-0.056340915030356015;-0.021642703775905048;0.0891597846947316;0.08894097830738185;0.08880173265523883;-0.027306035633798992;-0.011556982842025956;-0.04787429708765441;0.020739309981783083;-0.08390835406958785;-0.0423861020235905;0.047492184025174494;0.09478987681856452;0.015102620777732945;-0.08581104751566282;-0.0010905979849810121;-0.09069094125449018
0.0725653663370005;0.0829740856724122;-0.025818175670073322;-0.057459341946551085;0.034718393255427575;-0.015630778127481433;0.05576220403253199;-0.06036677389973603;-0.08003000168216351;0.06364916084847536;0.037283249482964124;-0.09114452616927295;0.06883841581664599;8.7305878118536E-4;-0.0048629025108454385;0.011235753171811786;5.851248143364952E-4;-0.08075234754463463;0.007948289424977922;0.009343777802575243;-0.08669996424639717;-0.055437053609007504;-0.0732920737723505;0.07854086582303238;0.02273723039506575;0.05892898416460546;-0.06561070791438176;0.07804949322476631;0.09895421722283887;-0.06078077439200804;-0.02362419919365307;0.0293461970926248;-0.06935538215367727;0.07398632163453556;-0.00846833968392461;-0.04413803869927552;0.023729639775188695;-0.08798442023093304;0.028692122383001145;5.854349913150903E-4
0.023740920150242935;-0.08829680674907955;-0.0054893837889800935;0.05726160044963416;-0.05931345355870894;-0.06747799696181898;-0.05407499310637828;0.02558060126519123;0.05108237634641504;0.03758046234185049;-0.08584391927379288;0.03496856387296896;-0.04693101893666494;0.06218789629415679;0.027092726664152723;-0.040179599862584535;0.057761555790128316;0.04255609122097118;-0.017073695618685696;-0.08812409163155521;0.017245134101355267;-0.003341501517253853;-0.07990097305207387;0.0722458809588252;0.0063041025084942925;0.003172115660111014;0.029174454395416025;-0.09993794595080834;0.0037703567730214154;0.03233442511183496;0.051266239849811664;-0.04068383923739714;0.052958464943449426;-0.04953016801457704;-0.07097406674231008;-0.024766462425749588;-0.08193387866518462;-0.06008460942659741;0.08235488374345389;0.06344901771734822
3.8720041365108445E-4;0.055248442862747174;-0.08766050748885773;-0.06787568501750886;0.031330910678772465;-0.022097322965670525;-0.03616736786134473;-0.06817751816452383;-0.09252575587851947;-0.008530866092169846;-0.08614677800081924;0.07516805445305898;-0.0787383291652776;-0.08233226871658585;-0.008034542992602334;-0.07529188742111126;0.07472706464064294;-0.036812245642454694;0.00263456195363367;-0.016574537027688494;0.07564168458762795;0.04556827805634844;-0.06913917551826823;0.055416206563303864;0.08835125906288516;6.1993695863615E-4;-0.018152186904249683;0.00911695440656443;-0.03775599803373508;0.0661630088978252;-0.0465906190488041;0.08743198110711733;0.047575298236967184;0.0639204404850192;-0.07902484752454579;-0.024204125706894616;0.0917107448943961;-0.002761948182933797;0.0368097768387157;-0.03625585027903336
-0.05697613004887879;0.07987200309605738;-0.08266745776084998;0.0019705218981154347;-0.057198704757170614;-0.09147077089366809;0.03915618408301484;-0.03187160059338797;0.03029773195556287;-0.03333575043176795;0.08329027721810611;0.024496097343654863;0.0722501566635355;0.021504550944801793;-0.08909260938044662;-0.06738266898830267;0.04321942357344586;0.024352624189778356;0.08361521527502143;0.016843490675599607;0.08709318427128916;0.023377411155500603;0.058771834031394306;0.066259404221816;0.012071170527858766;-0.07397184505141562;0.0649575643346362;-0.0860226697053442;0.0546637598599015;-0.09265647676495757;0.0901386909432227;0.09255523866345447;0.031068405971891186;0.09303073545498941;-0.028786450247614573;-0.07725222824003299;0.049728638852004195;-0.05972358069106928;0.06490450196582606;0.009649711382091317
0.0022494937003476436;0.06261960105942553;-0.07659480926981241;-2.1350155818307932E-4;-0.06550330020098577;0.029313870275419915;-0.013380720359725005;-0.10417005148614115;0.09952397236811472;0.06015110511392223;0.04550971469599601;-0.06530115290433544;0.05074839331628034;0.032993437884532455;0.010738974795156005;-0.030932014646292163;0.08855915171833162;0.012188375355391697;-0.03485745395925597;0.04712195739720456;-0.02251332459079746;0.015352695549996296;-0.09530482832588645;-0.03845559717764744;-0.01998695822993649;-0.029809559268579602;-0.010304482447183632;-0.07035006669314198;0.0022933226288036845;0.04501003722935994;-0.05704218368593982;-0.07966515714824463;-0.03756016466545273;0.09823834188050344;-0.05914247045751055;-0.07304886687642582;-0.07987434598624421;-0.0341133142533285;0.013948496759584424;0.03494436881775476
-0.029352272866550292;0.0014469687050489548;-0.008627344293650089;-0.01662823102719949;-0.057639280785172324;0.09908717340349882;-0.06153291056505554;-0.016906874970832077;0.03953815451766674;0.0043549194967286995;-0.04416506647015558;-0.06571830017432582;-0.0376279876290844;0.04091590262438933;-0.06182515534171986;-0.020880339738777367;0.0870413998440982;0.0027162024865019325;0.08065412881734092;0.02476363937969218;0.03906938082931762;0.0066276827338953535;-0.00990039123886227;0.013129894403232745;0.06479088187991092;-0.07462490934157433;0.023414192379018525;0.04517285941262731;-0.04968451925574391;-0.026874549219484553;-0.06806095617085119;-0.05428410092237953;-0.0755639856165301;0.024384832240353795;-0.01377420243332179;-0.11097614967386368;0.04390475860117191;-0.04461377788772254;0.0333800856280289;0.03176056816340839
0.009010063738485027;-0.0630954832089433;-0.08371294769752463;0.032611479425201116;0.03710603172943959;0.08990010120022256;0.05482097734193145;-0.09120120579320427;0.041226552171746034;-0.09202259437330494;-0.07933847181161843;0.004609582589706592;-0.02663084894266393;-0.09787667046255609;0.001970021965948165;-0.020381520691281307;0.025273083009337685;-0.0666936708847527;-0.0621022925745815;0.039894907069853394;0.020230123229220867;-0.07227958851165613;-0.0772866231074453;0.09136739142820628;-0.0011833935307035447;0.013513546579048455;-0.10158615222377747;-0.048107465179520775;0.036439875827010644;0.06016546116993455;0.0976244068738219;-0.05123781501047745;-0.02782717632143532;0.07967926643898894;0.04460242066785856;0.011790348225522062;0.06055780477518136;0.010256950984662378;0.07044801171268626;0.0829899215395177
-0.03613754067631158;-0.0550627834529614;-0.030262227338836396;0.08882027510949936;0.03931958157730172;-0.03665996033447668;0.07259125888926653;-0.08821935903900578;-0.03079419689832179;0.07580658762841036;-0.07559995151407077;0.08854591333217776;0.08119400375974092;0.06892377580111467;-0.007488014182653212;-0.004622509568174671;0.020709330726092042;0.061019602387316116;-0.017049976914405508;0.08803535228097416;-0.034528717796358945;0.012017285333254933;0.08076540702038297;-0.00571497852293396;-0.007141104753590924;0.04486720893574979;0.0811614649696759;-0.04457160161742122;0.026364347138247635;0.10220027210227504;0.0487516768464077;-0.038545347158132584;-0.06548323249996617;-0.01013271818873674;-0.06164870717314267;-0.048683705263104574;-0.045772418472010794;-0.018116461921437347;-0.019885965825811147;-0.05341159738850454
-0.026593585600697342;0.08561265660637478;-0.03269574025516089;0.07696532144892214;0.06017713950218911;-0.060184648647655846;-0.005326949851554267;0.017686526299059573;-0.020013091323960768;0.05541839029484074;0.05803597484372426;-0.028175580993939044;0.02325786613358947;0.03861002608821983;-0.009929390545409273;-0.006154166537109593;-0.07702577574997621;-0.08556890726009227;0.05818415926693678;0.08807549534833473;0.015580565197554729;-0.0671801796738398;-0.007738805378982004;-0.07283303380651249;-0.07361739236233815;0.0280331646275432;-0.11528711864199652;-0.03556985144496605;-0.045018567164529726;0.07572397611492024;0.07455139626081918;0.016229788188388685;0.047520906016467995;0.11813246307836407;-0.07883208070041173;-0.11380401966825728;0.054252621642816905;0.03577204195393458;-0.06992750567821758;0.09954350101867954
-0.09169028473910326;-0.04526875096088429;0.007108317349858962;-0.09435325323094793;0.019467654916994353;-0.03659677337332746;-0.06267542001584643;-0.03245680498230107;0.04131714714796249;-0.07740923104032983;0.04260020338404198;-0.001615551529780965;-0.038304579817565354;-0.002368058499123663;-0.045405342694142446;-0.036680270631785826;-0.045434372426279505;0.03755592007575425;0.05765860404097885;0.06047487170619397;-0.024535753099929367;-0.018801891737265354;0.004248303066011736;-0.04315624408065941;4.983098754896728E-4;0.08086380807176334;-0.04715079601519271;0.06707523744568711;-0.04540465897232235;0.030959248284566157;-0.029829924963706563;0.0733920604178089;-0.07823596900323589;0.016678133382555093;-0.06145150739368425;-0.05803689023808369;0.03757671922555363;-0.06780888060913999;-0.07039481168442127;0.048132638917542346
0.024117845746279974;-0.03994477680246463;0.015935025051951088;0.02972412900312226;-0.0074525503356597704;-0.005113264977853943;-0.017754884904218202;-0.05101114517501257;-0.04497289818885925;-0.0019311464476505225;-0.05749919850400081;-0.04003006105032569;-0.06970745326980607;-0.04543940300922451;0.08686568074385807;0.06749338200682303;-0.09885177767741263;0.0029276135382625074;-0.09156390812660474;0.07291839864131514;-0.029165151766959774;-0.048325709614933925;0.08353016820788584;0.025395437241137797;-0.03886969181061757;0.04623436842232464;-0.10219406710269736;-0.04841960230893885;-0.09228987457351928;-0.08240090525362911;-0.03803727497517491;0.08460011084030421;0.015153873654303906;-0.059758134680373956;-0.07199387207493445;-0.09239175917049845;0.02943609855607189;-0.035749589969745005;0.07959738190803986;0.08437106451695217
-0.07570347411610809;-0.06621787807890554;0.09920678796963657;0.016814109720858755;-0.0019236908444491352;-0.05832041199841406;0.07861341531801151;0.054078094710997004;0.010556756481768344;0.01869526604996444;-0.032230101888510596;-0.0574125577720334;0.07075069349835619;-0.07897193387765686;0.009584451200263109;-0.06170815646952302;-0.025946538625978045;0.08669196640807011;-0.05813281610081679;-0.07851354411110043;0.051127626619370405;-0.04367967617973469;0.02324276814582217;-0.03520811774302174;-0.004536962628455124;0.025726500120272413;0.04793057167800167;-0.07346832616932626;0.015360233228544127;-0.0645315089711078;-0.006842848561259072;0.06582872052910978;0.005219679594461014;0.04150017701439693;-0.07347831285640624;-0.15487397624733915;0.05006132607261468;-0.032763365073420064;0.08838672138319426;-0.03422978710605751
-0.03321294377269024;0.02268904326522849;-0.05508796305243342;0.01891688573713053;0.09464352223672753;-0.02484157743967119;0.03190895468224746;-0.055426706524017044;-0.04265253864631863;0.017834197543001428;0.017878380435813572;-0.05225571372538156;0.08393844238872317;-0.09830644491913683;0.062010399319294036;-0.08688070621420609;0.08365951381444336;-0.008648124985691882;0.024375917081867322;-0.08965176121627715;0.06778658150179226;-0.056156752030191597;-0.024305900238354532;8.865001813231858E-4;-0.006520293203896794;-0.04288259634636643;-0.011172596942757976;-0.08911939209529278;0.005294849571523886;-0.03263349169695538;0.08228546918223638;-0.018666991918798018;-0.06424904673287697;-0.12058886404769256;0.009900317287886228;0.02647936221816882;6.857953734044645E-4;-0.01945701879719021;0.08942217675981651;-0.0043628252679894656
-0.004637318919208261;0.04260824847930041;0.03723518148825551;-0.027811330878276613;-0.09670839342171936;0.04428747443575384;-0.08363591556350797;-0.07050562933489707;0.04526630875044994;-0.05714101220946222;-0.08692566042709847;-0.027713547084667105;-0.020900081044995564;0.07913757565069682;0.029881474869726952;0.07142976540101412;0.09848103451438207;-0.04619978801769391;0.0363862115871847;0.017387586907097716;0.09385639044628068;0.07201780709930461;-0.07143807695740131;-0.02522154291610776;0.06053481104810707;-0.00794205798389843;-0.03176695611264498;-0.059669682654573494;-0.057491275847046476;-0.08951180867722085;0.047399810278861705;0.06480228197507364;-0.02357147583234535;0.0979204556973179;-0.05862239894167737;-0.061119199050643995;-0.10034257523697679;0.040129159393103506;0.07827711631748246;0.08521858459130326
-0.05737770181232566;-0.046257236535566244;-0.005513886700102693;0.05247187533799548;0.07872151022260611;-0.015868389274101828;0.07526236344156433;-0.05348494521937589;-0.04996805850343268;0.09963406979979236;0.07182263392495301;0.07759962380543631;0.03311621891609952;-0.09458244979395845;0.044119097872854764;-0.01842203595741346;0.09691724161555584;0.051052541113472925;-0.020574914407189428;-0.019341732193352296;0.007092507815995219;0.023610402271748602;0.05950210704090675;-0.0178075464623698;0.04662082603588764;-0.034980520912027295;0.03655693467311636;0.11042207233060622;-0.02679185915921595;-0.060307496185172116;0.07048840692236681;-0.010977204863123148;-0.03290001098373268;-0.04108701906456261;0.045044333699280834;0.06464815843029209;0.021565686813352688;0.08112985068038507;0.019648977770468135;-0.023484816715843057
-0.07957781412742855;0.019539185145485017;0.06145484308940207;0.085351417170552;-0.05876615948929147;-0.026521270557095758;0.06836480608220567;-0.08583289668961538;-0.032900579087816684;-0.043933356641840476;-0.06286439138014696;0.026124143847262166;-0.03691390867398293;-0.02294306957850657;0.020431845698966212;-0.02468247922631173;-0.04115871384837296;-0.04058860006569493;-0.05935008683378748;0.01234127896316949;0.07412084498039251;0.006388214065235467;0.02136281808078377;-0.02068596141281716;-0.06414493143704357;0.00851483081075334;-0.0025549448433971104;0.04889348319583092;-0.04749209200140195;-0.08779816696207417;0.06371897488724024;0.05696290478771958;0.05452652520272742;0.14504078778509588;0.08032321109709305;0.052191973240897964;-0.03831079788638844;-0.09661139555565976;-0.029978863809892443;0.09131562114224384
0.044210884858595596;-0.038372237016771414;-0.08559654685191921;0.05448303575842855;-0.04775503723058412;0.06531432838824928;0.05108012169938135;0.029246268118794137;0.0564251970439537;-0.007957093690114743;0.09206141825533552;-0.08410552711108883;0.0721943031094779;0.014251996827065756;0.016149161935678388;0.03193225363623432;0.05220162130482973;-0.06633943300886794;0.07359473845964795;-0.02189814001347452;0.007588499471189799;0.029592106835976163;0.05721755473203815;-0.02641368317118755;0.04764453870446308;0.025903407479873526;-0.03268531234731726;0.07765046961064018;-0.017997575785080995;0.09248778946410018;0.016565179392294547;-0.07215163920784926;-0.043149602316832694;0.08897173835610597;-0.05978880061453201;-0.09106308553823624;0.06811824936026857;0.08838969975239969;0.08280720335521854;-0.07924071205165494
0.07292930164524043;-0.08322598963708513;-0.0864587298069431;0.023670207961917752;0.03596380478154911;-0.08248759072887167;-0.050362274387054214;-0.032341786161076067;0.05741582809114837;0.07474397681838424;-0.09516617999693627;0.08030413310919175;-0.044521247974948254;-0.07124770953490019;-0.09818968619593499;0.04679984342742766;0.024881081704564875;0.09512645974661871;-0.05487126792278271;-0.04294144980562104;0.029829066342212635;-0.057073187789043835;0.043793556438222345;0.0482483909704331;0.08265988617150864;-0.0629289441585251;-0.028056987347024137;-0.04385036634710748;0.02259204141970492;0.009931280904796308;0.03018296510580361;0.09020640532980069;-0.09880257467624379;-0.034700145468527774;0.045709631654995656;-0.03284599364196896;-0.03403657382009635;-0.05262868516810958;-0.010646914364979469;0.08548512221459337
-0.008812640936130154;-0.048966310596343654;0.08304376555761932;-0.06881962601526671;0.03327389043322212;0.060866471703317285;0.027414836354665514;-0.07029025818407664;-0.009034437290186206;0.061992559725751156;-0.03853150869731401;4.069890819561569E-4;-0.035100478779715755;0.008013816196770059;0.02732503917149168;-0.021175866302814275;-0.04698479941658491;-0.06486149883520115;0.07659493847311608;0.0186604972963126;-0.04921394488332719;-0.02310177581319378;-1.7876769525036572E-4;-0.08149587088937076;0.02420878270122442;0.04527471966156166;0.01785520778754572;0.060917292774282567;0.007097397025236983;-0.021340860869345894;0.023824270516009174;-0.05304252057818525;0.0923332167913018;-0.05291317123067837;-0.04211858741005044;-0.020656025489430265;0.04635062927737254;0.05933560382338652;0.053577585752655935;0.08635558872782677
0.09996853213598045;-0.03387014254516182;-0.0061237884756946415;0.0029990881655116144;0.029762191911634643;-0.08430035699643852;-0.07338231310748852;0.043750671737524144;-0.009278592796372267;-0.01078365370528457;-0.0455010743133386;-0.0021703710513526282;0.012342168522854474;0.08033771638510957;0.04658236354068641;0.08983119724087008;-0.027232603612004174;0.0026087892028958024;0.010626548756905859;-0.022694526750648158;0.06662238759489197;-0.001395416775633707;0.07482293047516934;-0.022141787636650614;0.041105594187676765;-0.09574921814627964;-0.023275244454017848;0.09233310257051021;-0.05880883196721057;0.0810017989054726;-0.006384222032374094;0.06716102829092996;-0.09232452382886795;0.05143319535683957;-0.01828944618919378;0.00832081432921323;-0.07616953271183478;0.00836414856850567;-0.09269117182220699;0.005362921320894433
-0.008517000861974267;-0.08545313602974942;-3.479051505574232E-4;-0.06532309484785431;-0.06608706586602248;-0.025911042351768027;-0.06482205061058216;-0.023243296595504018;-0.06995481539409468;-0.005883237376516887;-0.06727517538122457;-0.06385762288009185;-0.07989328378086709;-0.08824348388026862;0.015085011378514215;-0.0566270788876754;-0.06034526321586218;-0.00772902773118285;-0.041188899443297226;0.04203337484960604;-0.01932597294551522;0.0909752487676429;0.037410327068828214;0.03906418772259851;0.00344201192812614;-0.08890600737977233;-0.0517558465126611;-0.07022530842662261;-0.06499255643111801;-0.012990581331371348;-0.09404813498050597;-0.09086085208242989;-0.08936346850657961;-0.02433014069374137;-0.016150528290285265;0.03739902242856549;0.04133805118738232;-0.051500939967613714;-0.010361809364381469;0.040690444059276104
0.023586815515418164;-0.058033470793234135;0.07288956972587732;0.09636120979830201;-0.05337727375988369;0.04704967470645349;0.07915706168434908;-0.022163075689513298;0.09821039464086209;-0.0038612297433022053;-0.01080325386700498;0.015341199719019788;0.02150219145810517;-0.059493932509620144;0.011662668225468617;-0.033529786978147055;-0.06634471998026123;-0.09771928344558128;0.03377507952695649;0.0845670678190509;0.08111117927146297;0.031941468058254874;-0.023157291937993735;0.02303696794926549;0.07695405776241632;-0.09434060063125044;-0.047847079049293396;-0.07981072567803721;-0.05747817918648282;0.0563932817487344;-0.032373412090926104;0.07188799463842002;0.05845194230492137;-0.05153951210207879;0.09676710640283379;0.018237487207278913;-0.08039835249965827;0.07737662745236795;0.08881598758001791;0.045725526149325874
0.08379002244241793;0.00507746841822862;-0.027339826728374608;0.03769111965119176;0.00606736630260396;-0.07479302643706996;0.08691902821426367;0.09367987571065592;-0.041775122088403865;-0.0060244372691938;-0.04522817641838433;-0.017805074689737202;-0.05248431021902496;-0.04083686695942959;-0.0855306779209225;0.09154677792725471;0.069065923961672;-0.026838434629519334;0.01510584490215297;0.09995085270501375;0.05321245799792815;0.08552180189361655;-0.007888895263511442;0.09871656801617465;-0.09798834565587533;-0.023709077163136333;-0.051946210080461165;-0.02868258565044772;0.04842135274868237;0.013494930439048897;0.08173177926165937;0.05632654300676282;0.017166073105647467;0.09644323878198899;0.03215665979493737;-0.09635216404086938;-0.08194667649505603;-0.018898773612575887;-0.06607698481058118;0.07116771249469747
0.06051653478827132;0.07459751500361095;-0.08341421646887;0.002898207109108486;-0.057581821003836686;0.03300291668960925;-0.07694823981254713;0.07987718304771688;0.03665428193102002;0.09983832558951464;-0.02937577659306674;-0.058463078971039154;-0.024140609193731663;-0.017660838931582296;-0.06677766455492726;-0.06205254611160356;-0.08148109605259496;-0.021675776368858646;-0.01557009384706505;0.0922866234146863;0.0690534779739754;0.03858723970216188;0.008410893799901412;0.02808382175811769;-0.08005204588094515;0.07804955848037004;-0.040638269048787694;-0.05277006142825374;-0.014244794760847723;-0.06651713224992203;-0.06994647068942764;-0.06755876631765398;0.006813000933850427;-0.09356892997701582;-0.023850061130693587;-0.00818980871822464;0.014769810441374306;0.027030811340701788;-0.06463079446092862;-0.036728263632471767
0.07252337584083621;0.02775037684790349;-0.020808048402251547;0.053258444859256876;-0.07206645413278759;-0.07436289444091296;0.039698798701396754;-0.003486155441549982;0.053678823614820875;0.07748369647350392;-0.03474504930963236;-0.007021999224286216;-0.015116231576096248;-0.005605907732687362;0.07614154662980627;-0.09714493499678462;-0.08834767812671535;0.08055003520951065;-0.08513353670879538;0.06241772055074518;-0.06460017977742383;-0.004450458958733056;0.015770064104759493;-0.07920124320634346;0.055884363855359415;-0.06949094680454687;0.05467414955133837;0.09196532571827043;0.020095977662044587;-0.06480888870870877;-0.018294750227505235;-0.03373326986877434;0.03466985924678903;-0.06326007286921405;0.08905612775490776;-0.06760800068559154;0.020247691224841158;0.050177381596767434;0.02033229139994841;-0.0767313534329963
-0.03078097386320966;-0.003367621015238867;0.08926298318380399;0.018379490888954436;0.05753236278405863;-0.08265326438532997;-0.05706095747110789;0.010169627236226123;0.05677341547967782;-1.788112691925442E-4;-0.02162718984863958;-0.02633901558811272;0.09446596458905526;-0.08296470666073485;0.001058017514131121;-0.033912779947188804;-0.08144164378944747;-0.07850459441289791;3.4048240834724797E-4;0.02730700111232892;-0.06368335012894683;-0.06706479163458508;0.00879322585357438;0.0519490414872083;0.01835311586987931;-0.08818647634597379;0.011422377671960235;0.06068757426964619;-0.01472327668832818;0.020324539304179573;-0.02458684909045117;-0.08925772779474271;0.027459950147311868;-0.06154415909946214;0.08225789304214223;-0.045358093100644696;0.04767412578577582;0.02469992510609212;-0.03850892246210898;-0.01851365545688119
0.061966473476938747;-0.010639377043340706;-0.051111098001181285;-0.04362516541504587;-0.05499528036706871;-0.0171485083263114;-0.07812600507291165;0.011102020872000932;-0.03271137505763623;0.09256782953744618;-0.09881593006636212;0.035695484431982956;-0.07067905530501924;-0.01167675708014063;-0.0512390141555941;0.0612196408717608;0.07816554241769283;0.06052504707535718;-0.05434802859318094;0.04987792274297962;-0.04421670754543122;0.053678760974050735;-0.021870814558759513;0.04682716200765946;-0.07411487107036173;-0.08465165608976835;-0.06506583390609874;-0.012902661866484895;-0.09414104688919803;-0.04933525957433483;0.0731024626077086;-0.08555224160770365;0.022552520109660804;0.002522606250158029;-0.005075621042461513;0.007507410212593301;-0.0730651994782095;0.06167916880525331;0.04659130618253926;-0.009865352996512526
0.09568515257465653;0.05014911549806201;0.04685078493707775;0.05191770593498164;0.06992537121793643;-0.07645392550455911;0.038078410396202536;-0.09816107438742697;2.2857103431007052E-4;0.0808560482907238;0.05448574874837512;0.03717984137791691;0.09156504621158915;-0.004938526554775469;-0.09368483611859771;-0.08295544459237052;-0.01952262585904964;-0.0707364681358528;0.08985690112661687;-0.0917865051847939;-0.0866671547873167;0.03254114396704025;-0.048437302925851945;-0.012946989027330599;0.020719445576130657;-0.014458950528883345;-0.04535375758862277;0.06594689491584999;0.09147436483116529;-0.09532277636350357;-0.067554225741852;0.05204760002580538;0.028276358436948812;-4.000060366914286E-4;-0.056802999889073925;-0.05984588044960142;0.09732346666690173;-0.07541902241433936;-0.013253147694345796;-0.01140540234173234
-0.07648422080809497;0.07617162769576535;-0.010933595103412545;-0.06922756778288623;0.061060581775166496;0.03833532113583315;-0.07696613257637505;0.054535287322513136;0.06650561113661534;0.0017166856775756153;0.08096529026936948;-0.024284632852727885;0.07284855011020852;0.046768257462002034;-0.002445622198987106;-0.07705695821825166;-0.028352798745148556;-0.08164682211392854;0.08622567970686731;0.08306352385037898;0.0043045623299752984;0.09406431183413998;-0.0680223260281074;0.04125828815383363;0.07978704203713374;-0.0017245935929989015;-0.026911981790678365;-0.02035532307776302;0.03829102081114114;-0.09488501216134941;-0.003996635084667179;-0.06898031340759352;0.013848266845915683;0.027365761406272924;0.06450530052586557;-0.0946905174372759;-0.03387355992929802;-0.09619299114868546;0.009482855291835932;0.04555882414159119
-0.00943885476770737;0.05336108242517448;0.018569005707006512;0.020444752231407314;-0.05047742318138619;-0.004527795244629215;-0.018538301720006325;-0.0993633371161062;-0.08004565388246697;-0.09064177607523938;0.06790329954045635;-0.056677420610453326;0.09883388992480553;0.0417241985675016;-0.050535748998860715;0.021354459914676462;-0.035388904747185534;0.06272414825597307;-0.09005978963029054;-0.007553348667928971;0.06889290648620096;-0.08558512707093226;0.029158870880818092;0.07373732486491176;-0.016850286652993613;-0.09453965791464786;0.08453720210712148;-0.051962956819174434;-0.0775247913782374;0.05782873720880961;-0.05530308441063853;0.07625307150064095;-0.062198796521821996;0.03451078990380456;-0.07032869320934157;0.0012047687117400366;-0.03861233103916133;-0.05823261807988138;-0.061214476802686296;-0.0693433085178254
-0.010558049917603753;-0.06510377029086467;0.04582234056277501;0.03476582477375475;0.07995182732651653;0.03846477581341455;0.0474343070756015;0.03589540155505013;0.05666584438816364;-0.07329761753014194;0.08287724825326828;-0.06829572554696242;0.03229429789120352;0.0020190387211185207;-0.06707842109328167;0.11001689909496921;0.053550079330113805;0.040377561309608276;0.01228746863619216;0.05260669861732643;0.08592811209444315;-0.011621668915115914;-0.06770069368170524;-0.06041421776967599;-0.05003611118484621;-0.09539981321487385;-0.05836863944486328;0.030306573328613112;-0.07968771016230648;0.0953687668091299;-0.08673962313045573;0.047904119938052325;-0.02172348410753649;0.03577011091187769;-0.05453017308712993;0.031142106456088794;-0.030699848026551502;-0.05022482807950835;-0.09661416501335945;0.03882820465361594
-0.10859426518484125;0.018489597978046887;-0.021044675327530356;-0.08916536331011582;0.011483248617021227;-0.0734983960554035;-0.009029284590593772;-0.05149741626547587;0.03103496260044811;-0.04454997806304984;-0.07137813965843028;0.06634067943650976;-0.0700556987187003;-0.0711815557265084;-0.08591351537839874;0.10969635962081138;0.05219226627248543;0.06408481996925014;-0.06932422001594718;-0.00603370639552602;0.020879838262136755;-0.04539470484402399;-0.06870820308658823;0.008547010786597649;5.759239005871297E-4;-0.044731036499962726;-0.010615514085782044;-0.05739813098320699;0.04611069259331724;-0.03418745788353419;-0.08568758656403079;-0.09221721440626524;-0.030247258014110795;-0.014998810496938592;-0.07962748821834159;-0.0278036299004301;-0.08460590178626241;-0.0926822046063474;-0.02625218256235578;0.10012618910375716
0.051694440042904626;-0.026552337735144097;-0.08213233419126324;-0.011042562805678276;-0.0025875538959922516;0.0378636495844606;0.004841230722951844;-0.17550968946267065;0.08568660058220856;0.0328160159955795;0.013072373892706263;0.09899645494620996;0.07196184592974578;0.07835309101559576;-0.052507029887655425;0.03179043974991374;-0.016763630170071295;0.04235734099332233;-0.021472247300460278;-0.08453242397638529;-0.08093915764832395;0.01868395286855257;-0.07982705417902534;-0.058580163756174974;0.05977869821826922;-0.09853930135539106;-0.037002987191276;0.022237855407486965;0.025711773803236325;0.06281467293556275;-0.028828571501587325;0.050179503965737546;-0.0764223758676274;0.030233544426603347;0.015754535947253342;-0.033708095749455894;0.00439319247996358;-0.010772806850374623;0.08146204359018738;-0.08015668653639299
0.021906279728833317;-0.03708748570227041;-0.0012983665844370628;0.016786980310702006;0.06538976061536023;-0.05513485355142374;-0.12776184521778408;-0.02938831013953071;0.08698486003764956;-0.05722334981285471;0.02841368066427134;0.04112202565521772;0.006517491671886547;-0.02087853595537437;0.00441122287805196;-0.027925304948607947;-0.06596026153548612;-0.08150590209401047;-0.09332824466354338;-0.024529709920152864;-0.033311543806349334;0.06266815267125501;-0.10589101133982219;-0.05599923206718725;-0.03339982304201118;-0.05731861246065819;-0.03420263386173374;0.025002525160777625;0.014584522383760902;-0.09648393505673224;-0.09186048227854642;-0.03674489554267909;0.07961036145705401;0.03067730648724853;-0.04562722693755071;-0.01817207974347288;-0.08654209305051487;0.010620857851886406;0.00589726442348542;1.4310216839018018E-4
0.06392561147098422;-0.08236820189622227;0.07351192300674096;-0.02099804193386357;0.04463064792114009;0.019712769313689052;-0.10516677097806348;-0.032010569548263645;-0.09684067281668944;-0.013550714875866496;0.026285843655169817;0.05370960856256412;0.007188818353162569;0.010465572828349883;0.08259619536537192;0.11399797463984039;-0.061904467934058974;-0.067744748848988;-0.08178778938356245;-0.03223456095926194;-0.09538490128181597;0.08988320779290088;0.06284510822689957;0.05048152447235811;0.055780127890080716;-0.03924550602075198;0.032553958224627755;0.03176054249003108;-0.010698170337595828;0.05767105749256135;-0.014371645819594079;0.010403074198073929;-0.04548018433100847;0.09873500857788145;0.014943912565594868;-0.08101981864624122;-0.11630812312764817;-0.08860604448005487;0.08737502210742988;0.024553193575799603
-0.08070501649089303;-0.05016665892106703;0.11010458400559371;0.038826058117708034;-0.08998386886236152;-0.06339588474644846;-0.0687401740374306;-0.032750522613702204;0.06993980260292249;-0.013322500031532326;-0.013280860021640346;-0.018700831336867223;-0.09707910486813376;0.04100195481341331;0.14387682456973086;-0.003331596466682796;-0.030724498163187834;0.07779295067885518;0.06597844061137573;-0.02430071857584957;0.08725400161997758;0.06000140953952922;-0.053325561592077415;0.11454215033085875;-0.03159091773699577;-0.03905741882040709;0.02878888415438678;0.13985941616587755;0.05577712386703774;0.05409796201411413;0.028878504051305057;-0.12334377969833343;-0.014759416319974347;0.07215962577166264;-0.025651073083754646;-0.07413447450244186;-0.11918112284920443;-0.0776107094817091;-0.03071196459737126;-0.018729924051094242
0.04873610843712908;0.04196135605834094;0.058214153690000735;-0.053019971735452004;0.076483940057935;-0.007113893637903106;0.010651503908178988;-0.11598261366283079;0.08098206834806922;0.09385532482491026;0.09664862164837536;-0.010869946067786265;-0.02626709557818462;-0.02375622638728963;-0.020184946098673617;0.1837701217028237;-0.05216935989480258;0.00236344024283099;-0.01605540094189366;0.015469231392937271;-0.07903538106414067;-0.018719056929342535;-0.10122474963957444;-0.04909936123802284;-0.0251043606241283;0.026982137318029002;-0.034137005199021096;0.08682191051585848;0.10598077171754826;-0.07275058036251643;0.008170821420084006;-0.046380375212424635;-0.014327068112327012;-0.07677833566133412;0.024510137360242313;-0.24402475910243385;-0.1594660964716839;-0.027731980159012716;0.04520406192382273;-0.061649181595166504
-0.111672872314309;0.01907985134007581;0.10056490027378914;-0.07662520656210138;-0.10697749957855834;0.10592090224122629;-0.08489162125756324;0.014990026457248031;0.1067665073073538;0.03589371011403319;0.06142734430528235;0.10540176627935612;-0.024104496160702895;0.05073824348325572;0.072883486223033;-0.012913966684193966;-0.058894973213389226;0.092295918212224;-0.07094244370368982;-0.08766159206335895;0.04458675930349822;0.052243944849830554;-0.09564454959081445;0.021865988827849347;-0.03788674798293944;0.07082856078712782;-0.08373928681635255;0.013162727087958652;0.09409804796628057;-0.05389616223418816;0.06656651637592365;0.028214816445745573;-0.009920243615183085;-0.09302673244963607;-0.047412283351880455;-0.17137873770700332;-0.0649567082814169;-0.004327547508177531;-0.007522664390284523;-0.07433804405912812
-0.06014472348712125;-0.067345767272963;0.05172239960479542;0.0316275068960588;0.04695000519959864;-0.0710497509984495;0.05749105840816419;-0.11300417672715526;-0.01378305131948253;0.05547926257066232;-0.021799270978947082;0.07866530528079212;-0.0378767709392428;-0.004694830053088635;0.102010743838465;-0.003823815375629425;-0.07338975341236273;0.015187365927978784;0.010453271784944493;0.08462696149149652;0.04571936841717256;0.044845691748416704;0.008672877630757522;0.039507512153311684;0.054267040158724786;0.04072905781665493;-0.08157854715900822;0.026034128863325044;0.01900416815706774;-0.07209339189809748;-0.04089802320449904;0.021474736342732836;0.02736107032768311;0.012641461127685747;0.07568030357225575;-0.05788777241279736;-0.1155914640947865;0.09049246617271936;0.03196988803034061;-0.005822063863614403
-0.004041225239611761;0.029676122575872974;0.08539899556605349;0.11914499239641585;0.054544046937051456;-0.02237872827247877;0.08598165571044968;-0.0454015251173836;0.09579954416908198;-0.05370138804686287;0.15094985261286054;0.09403794312608076;0.06941580738722701;0.10375013352883856;-0.03861508994579975;-0.027826335619094575;-0.14025862855986249;-0.012089438743464428;-0.0310396431624565;-0.005226098251277785;-0.029446741835926032;-0.03552863436847051;0.017372939385251467;-0.09839025307632707;0.0033561089050860673;-0.024055870682109643;-0.10868359964755944;5.509423012191691E-4;8.118483665994722E-4;-0.010341946231482478;-0.07941483728651771;0.024764268807125157;0.011318259015863572;0.06593952959629855;-0.07392357666101113;-0.20895105838278588;-0.1890196106013183;-0.00422562799976539;0.09721766002545178;-0.04949842128184051
0.06668111796202347;0.01658561084933738;0.0854356226026307;0.11715554891547214;0.017098560989871257;-0.011203761499423126;0.07737265418957517;-0.15283993107077162;-0.02051500996745375;-0.04737686419177944;0.05254308169039339;-0.03397021386233859;0.07492791069816512;-0.013367478683521507;-0.04893152238730978;-0.11183122815989635;-0.20973398303266924;-0.0560477334016711;-0.09419125894840343;0.0945629212899003;0.03172174490541126;0.009211944712045303;0.04532339181530118;0.04603262809799468;0.019354949782759912;0.06172731809255066;0.03934368580484344;-0.037601955015110336;-0.04818152693462268;-0.03864274009848608;-0.07219907882423351;0.03337618083581196;-0.007585363002880869;0.07347465823436497;-0.09820502338427117;-0.34961414378930167;-0.08866144091909749;-0.010245059117832734;0.08543974563655367;-0.07214959217064566
-0.05064077996581756;-0.02328769381537304;-0.04065245447063706;0.06334360126900657;0.037922661140238935;-0.02588008142985765;0.0521794156707928;-0.09428638791223788;-0.07520341965401132;0.023251732982634662;0.139575057826515;0.09521841387262273;-0.02650273043129245;-0.04452006806861235;0.030505010208782133;0.05304872270273206;-0.0716782240744202;0.029483157828525997;-0.04346472230011146;-0.06707441548189173;-0.018652002003498595;-0.03832876842669609;0.0752728568175085;-0.03726611513623313;-0.11450730021035187;0.08524264037854297;-0.045038265524549134;0.029145172295714897;-0.02986122811876216;0.04046389340741482;0.003375481350281461;0.08740002501603851;0.06632932347635316;0.0394597732629241;-0.02917783404937754;-0.0018913837716820641;-0.14121749482582657;0.08483800177673573;-0.07428294350908769;0.09535838686909211
-0.010670279777218185;0.047446940534067984;0.06938720034083991;-0.019661800650978157;0.012745233220986609;0.0032599319153807757;0.0945026210199378;-0.08564893357456052;0.08889138058706544;0.012552893154022228;0.04098348681628957;-0.05486223653351472;0.06517763119446547;0.11647310741540186;0.06053279095346031;0.003506067577790383;-0.1896345379918659;0.025029195761073424;0.008573203131203529;-0.033779964260797324;-0.005002336400552313;0.10264887193102015;-0.006802191914056072;0.053580587764873414;-0.13078502142114368;-0.029524091406020837;0.06081010651358012;0.08916211426039075;0.030363661952987404;0.023216479105409558;-0.11545637988163357;-0.007672747890118781;-0.054232294600420526;0.009161597341737476;-0.08426001473552087;0.02205080401228191;-0.09780278799405125;0.04491086945377434;0.059755816970277584;0.04325385198092134
-0.031653414224933396;-0.007095864305751453;-0.08700608757833242;0.05032910539875399;-0.06567518700391624;-0.026570682324777488;-0.08573900946183999;0.027050653158225767;0.01059377965230617;0.00812859685243149;0.03198213593670696;-0.024301074513818577;-0.012744103837213562;-0.06254468502204433;-0.08519967396276264;0.007837666132379864;-0.08143866802202643;-0.02686153949137585;-0.10589332865246223;-0.032809034713842125;0.061349086103582987;0.10397838880600609;0.03894556708583181;-0.006228068321554971;0.04038057777074702;-0.08429190786345069;-0.09612055721740885;0.13970890436226532;-0.04914455561190612;0.08290939913282538;0.04605947998452656;-0.0748926265173683;-0.0025772735109062554;0.08574977398332576;-0.07293070802794221;-0.0836278824705727;-0.023863949575753256;-0.04841563269102265;-0.013208406741239907;0.05439844528400811
-0.019908608002926233;-0.0997962244396538;-0.0019360140251251114;0.04032673178515923;0.10854698734754493;0.11400055402656334;0.024957377356704603;-0.009173100668409782;-0.05030660989788612;-0.07162858699373618;0.06308831751743633;0.08819610209929468;0.0964725000206195;0.13655030733192133;-0.08895791263313817;0.08180354639132646;-0.017200530951529173;0.017912538318642087;-0.10628773171933951;0.0875325290448352;0.07162729047509372;0.02196728802046267;-0.09341498863293442;0.0068780044881272245;0.01571166010846817;-0.0018282096091745818;-0.06171251266672486;0.08615365746332902;0.035976144707475906;-0.07444052157820831;0.022456523756421737;-0.048979211520434204;0.006815661881743514;0.02285061112799603;-0.0492089575453096;0.05253481874509539;0.0567537929855992;0.10022924564914663;0.03148218177318587;-0.09796287731796875
0.03784887158781523;0.09638397284591144;0.06365552568535125;0.10503487972843514;0.05136631004369835;-0.02110866846906319;-0.036996121228156854;-0.08984830933074092;0.028567816936186707;0.05463288596012616;0.006459284870899445;0.056542575526902956;-0.014310118805480896;0.1216447605131794;-0.006054798143001761;0.128815593137368;0.018508431710771232;0.09127270725357259;0.05823922546546721;0.037078171550111776;0.014969948556362602;0.02840162181148009;-0.06417419269189364;0.06672289685089258;0.0490552718083737;0.02935724879716894;-0.08528558792721318;0.10743915978472768;-0.005330010418333954;0.10782199573379792;-0.03529632192402035;0.048986025049548416;0.08310615560450117;-0.016256892262175516;0.06641219616858388;-0.07543633948688987;0.045007067507004825;0.030070418538271096;0.0499578624986763;-0.07462812027395628
-0.023903600428173823;0.0544197224328551;0.02465652371260034;0.1063439209721279;-0.08836572946892048;0.04744833853135019;-0.0677298593626707;-0.02588537100347315;0.011048723458566846;-0.056113979654857905;0.04835386710658848;0.06533730696996069;0.06987622138523333;-0.050323944542266866;-0.08946905159609457;0.005954124858316889;-0.06350993122356871;0.007013304899337619;0.03326071806618545;-0.018879855090947962;-0.05236201032708538;0.07305437142432272;0.06695980021897656;0.05473883024388359;-0.003300642215246642;0.05992226787691677;0.01524172400665763;-0.049228562078819336;0.041020201917809265;0.10957587465712869;-4.850495348018518E-4;-0.05907774371837218;-0.09863646393875491;0.007563440118497243;0.01774803062650991;0.10793488469401373;-0.08326465526391841;-0.07674071142994149;-0.08395382230853571;0.031324552323949956
-0.09247760987715466;-0.048607280178236616;0.06770854725137308;0.023962136444275823;-0.016533374895850078;0.06737090886703044;-0.06016888961515815;-0.032457245551549496;-0.07105770723500868;-0.051679835952969655;-0.010353587248973624;-0.0554452059081189;0.05679673793750722;-0.05576984825806325;-0.007125901853659027;0.12066830355870586;-0.06723689979507674;0.05783819150058382;0.002420359313946802;-0.08092038899781324;-0.08530117376249376;-0.038432090218365085;0.0318886321571706;-0.012215634979287255;0.003274610229025426;0.01498686848442267;-0.05484960610492013;0.07180718960799184;-0.03690513830382323;-0.036943202784863495;-0.07863477446743476;-0.046341892719732276;-0.008762772009941272;-0.028308122274851095;0.06933992440131284;-0.01591910557164188;-0.06026560319394899;-0.02872663441839749;-0.0877746548242747;0.029405827883788323
-0.036561188434512025;0.04801192899367633;-0.06931130008965236;-0.04768222132026115;0.006851988842738135;0.05162679657972409;-0.04965744248327881;0.04525647847720949;-0.006460387619487981;-0.08708522330205648;0.04849386229855836;-0.07713835889562233;-0.010945058327953816;0.04676631717041314;0.010444161840102368;0.0650001531965049;-0.023234766023582553;0.0027259769298925833;0.048354840406911084;0.011552271598603872;0.07403001699704338;-0.08925098607768599;0.026265032170108654;-0.012857406073593798;-0.0038748389120281906;0.024201647453100494;-0.014938034442789473;0.00413015822246771;-0.06571539064677531;-0.10559358863827462;-0.06382417665583204;-0.05117772990037945;-0.04170926530581995;-0.09084362185976141;0.011053681556309277;-0.061658956052539515;0.07596562741247798;-0.05572641093778422;-0.04440709426969837;0.02015218983614292
-0.07988512375703043;0.07091798593574304;0.06399393965069058;0.035152724157796536;0.042160415753223296;-0.05696822972963984;0.06697398698656866;0.05960682894302396;-0.08484989688164649;0.01360890187215725;-0.00761072185062348;-0.017863639806671022;0.0657144202198599;-0.08870903303621241;0.03664087930526191;-0.08146090107585324;0.02539149793027455;0.05451361665355759;0.028546966631312;0.025188179197274573;-0.04575597083495184;0.0036895573088327597;0.03739663338715955;-0.00630425601550092;0.01760732969329418;-0.07294427895609269;0.08555038351488731;-0.08561697399005688;-0.06426707099852323;0.09300122766418482;-0.038541781956154465;-0.07391149735693107;0.09490681021742012;0.06026717762666837;-0.016305755782996274;-0.09254887638826607;-0.050594255401396164;0.04532520857594247;0.05611475400181108;-0.006247910013350942
-0.05979795693123853;-0.08633708991943151;0.06012718093113151;0.010174624179365405;-0.03542930805769649;0.08353718826089646;-0.09897367096043946;0.07337786358548967;-0.06036224375245347;-0.010192177130936203;0.06717860008984344;-0.0629668662332939;0.02403234054447108;3.6026631750744886E-4;0.00626954931300705;0.08628577611207319;-0.04416996579396504;0.03100760022440191;-0.08696703935086446;0.08163655164833092;0.03391620840434881;-0.08380838006599028;-0.014869447786745899;-0.08417329903465831;-0.04570815719693009;0.0014797471574805876;-0.03504131017069877;-0.03379637274105843;0.0020115372681956123;0.09590101985071683;0.05254442999217479;-0.09976081962170458;-0.00504873551946268;0.05048466561663084;0.048326139753742836;0.02331803235077437;0.07736115720220524;0.013935071729320653;0.06449658674338907;0.04560892141130796
-0.03083353862313616;0.05719737795179755;-0.07028065804736652;0.08877674215602602;-0.008762357236938495;-0.044261970634905;-0.095587906662154;-0.046511083201500526;-0.0926416773430357;0.07168520732502309;-0.07757674079705973;0.025114710853164746;-0.049622255905190274;0.0875441269171002;0.07981116141867572;-0.09228854011174321;-0.06695799774844696;0.009022634019267839;-0.09743222389828386;-0.054662935799285654;0.08325638445410724;-0.023427191076623832;0.04251194991254195;0.014923314166920693;-0.01096131492598977;0.0035746337693943336;0.07420968541578762;-0.0436099581121451;-0.009818537233207539;-0.006342006765874306;-0.0043379625309274;-0.05662473120260308;-0.088351267226579;0.08047973047839349;0.0716338892530044;-0.008098017499113874;-0.002009311357158164;0.0803426815548828;8.79695309445358E-4;0.05449734215182714
0.07856753964139795;0.0513639696049;0.03715511829177745;-0.046274441677077505;-0.029868268333977932;0.012470158530912073;0.048786313267215;-0.02820912479911089;-0.0936747279169533;-0.00868285855737723;-0.0372986431783674;0.031812539454821265;-0.027093065262951507;-0.05769697895085644;0.006211198439078219;0.0815687782289787;-0.07696815239834137;-0.09583755581353946;0.033460299183248915;-0.07804766529215204;-0.05133621761052601;0.0512012861394707;0.003349942766470604;-0.08992482577204108;-0.007791734387269628;0.03305082510884513;-0.038130008911962325;-0.08909445445728759;-0.0032875233248688823;-0.005109179358168875;0.07415769966509636;-0.028484337794406553;-0.08651431969043584;-0.07658866273742193;-0.04976499624252711;0.04846377007466757;-0.08724822273431863;0.07335337231333675;-0.08674146526915222;-0.06847049216365717
0.07595334726755867;-0.004711343843612131;-0.029750665404635265;0.07596696047452972;0.08758439429210116;-0.09263057680986896;0.06265219510956305;-0.019365043621565076;0.08993678483561243;0.032099071467731694;0.09770727057457748;0.030809545453337528;-0.08409678873193603;0.05374513444742712;0.09149940742478255;-0.03782105004708676;-0.02701266584418678;0.042836180195455376;0.09068352875078964;0.09646651536226475;-0.08407048811989282;0.04125459314159172;-0.01773286919266026;0.049322490302174754;-0.08413559031399574;0.004757541182538794;0.049463860910965024;-0.08242911127835557;0.010684549085303738;-0.04067132372867169;-0.013485147430795763;0.015592879949868937;-0.09570832974000028;0.043583533802818486;0.04650740249646251;0.04957356250550771;0.07167564073014021;-0.01847825596805927;0.06360329495088465;-0.0064658590058018495
-0.07742239352376173;0.05832515127138968;0.0651430882938994;0.06388574846091256;0.07569304859734802;0.05567155793473382;0.0727782123881442;0.06518766812452956;-0.08730690440531602;0.04758275556824429;0.0327428006438605;0.06845134924204885;0.075452934264235;0.04362239981636125;0.07930648785158764;0.08086646052492208;-0.07875069014249754;0.04377623453302469;-0.007470809282199177;0.094622383739368;0.0382467545237576;0.039386476614343885;0.0052714963140436276;-0.04055581202858438;0.1042665818205962;0.014427634094992741;0.09803857492446828;-0.0468545695396303;0.038038011919053205;0.05648356581853136;0.03716704507304333;-0.08324210545175847;0.0885103983206273;-0.06289640728443448;-0.041386477505078983;-0.014111623690037883;-0.010517313970990233;0.09635954372702481;0.08917152933831111;0.06438651837128928
-0.023536588521284225;0.09697322520777006;-0.042169167834316554;-0.05065157417930514;0.054680531186964636;-0.0787691780028315;0.09811519030434225;0.06089188964759644;0.017837235777876475;-0.06076689975648858;-0.06623972211398095;-0.028859303734921776;0.08564659528564846;-0.008278314550677967;-0.08790438905077894;-0.03913591224060384;0.03440189080117103;-0.028301129705164227;-0.052569398130352024;-0.021927056779176488;0.05943286506247496;0.04011610788459899;0.08282521782473283;0.02623556695637955;0.044531480102617975;0.04875672970793348;0.08099041556530175;-0.06953017670675252;-0.017346491564038086;0.054768993345665665;0.08994535537217103;0.052502231175504566;0.09396483877329138;-0.08420252870862656;-0.0026312323295014416;0.0436321996996829;0.002819643810264425;-0.05929892920565643;0.03740020006958927;-0.041861408571629254
-0.07449727176371139;0.09112749184624531;-0.00710814956807462;0.018534732125450697;-0.0020216575235761525;0.05843347941358237;0.08379310344049755;0.06442017983611967;0.10137631774080176;-0.0467350016143312;-0.05879710974416601;-0.09546825948646945;-0.09204691032218502;-0.04515918420990858;-0.0835545248836462;0.09487439679612049;-0.004373011008624478;-0.01064951280104863;-0.09517023082703403;0.0021514670517426217;0.03145859714582414;-0.06521041078437151;0.01633839054316989;0.009576133335137398;0.0727563789670058;0.09588872093163547;0.05073097143042496;0.08955565896598797;0.01760218449967306;0.04623319334837903;-0.031431147179308686;-0.05158403110123095;5.879520941037492E-4;0.060527709879915084;-0.007345529547276854;0.0038497320991466586;0.03162145072626361;-0.002639391811596984;0.017259994664983822;0.04768672518987159
-0.09157704537384458;-0.0458989050695283;-0.04984273491896591;-0.015975378428246933;0.05141881880622605;0.02660626894927822;0.055040271850817835;0.036917225602139954;0.0802122549544405;0.024310677158491268;0.047903556934162976;-0.036614514638236166;0.032746814414244395;0.034489373144291256;-0.05085919132515098;0.06794090589942466;-0.06540199042664589;-0.03219003318683263;0.06273188208915087;0.0865990103261227;-0.06204476644245114;0.00136586627680278;0.04051307203867202;-0.040496896380771405;-0.06743869216086834;-0.018409216396817196;0.01385910427499699;-0.0839860352091281;0.02699938461786364;0.04015366358479774;0.05866204326004025;0.086992171883475;0.005991049379565697;-0.0910712165344458;-0.09813855709089397;-0.033969209438110354;0.05996192747551138;-0.03435283707226991;0.07866954139433181;0.0771067982493398
0.005006306757695283;-0.05033570154348344;0.018881665075997603;-0.047827010367290534;-0.024932757065109782;-0.09841370048622415;0.03764529859260497;0.01032312288622702;0.017422980526999025;0.0757473919690863;-0.0787604991149604;-0.0779863115063235;0.03081359453362677;0.009428385894657464;-0.08827861910376174;0.10601941331357267;2.422240184808933E-4;-0.0614709443761608;0.06588802188270339;0.05928362259943203;-0.06480320725458796;0.10277810921952962;-0.014559899390929812;-0.04973460401366813;0.04068666117522788;-0.09553757164090323;0.0781417965671272;0.0658751447699497;-0.0014308547453146306;0.09204846993025159;-0.09352359490285816;0.028621769020662206;0.05287823206662102;0.08746158108222296;-0.05659847726697732;-0.07689834654497289;-0.10650109499557832;0.06542620273762802;-0.05419535086695645;0.0012292792165276485
0.04920588867664863;-0.04237156077384818;-2.9536420357586585E-4;0.05073903382286894;-0.08521797738266841;-0.04851252622622906;-0.061380472815545435;-0.1414652760063077;0.07368597447176621;0.05265044929519659;0.09584989964996264;-0.07861293287244647;0.03574820333902296;0.09369861849588813;0.03346318031875442;0.09721646585458994;0.03755827973122809;0.05564636775037995;-0.04526731874261745;0.03159707257899152;0.019350577914352275;-0.07822010092897046;-0.05748393226269488;0.011130108814036156;-0.04925565669109935;0.0328631990182573;-0.004757690594856811;0.019054826277914726;-0.07508652590033237;0.013640473245004855;0.06680245583175498;-0.07169479490224738;0.08385916614049249;-0.028576265548060514;0.027500262452903625;-0.12678003140704602;0.008355460746570084;-0.020847357640514687;-0.08042554317351737;-0.031148646218350576
-0.024455309986577356;-0.04174928047458859;-0.07790933285225929;-0.060312852182287276;-0.04490509821352189;-0.01551300489348347;-0.06843554366202302;-0.23818713979730766;0.10520545560950845;-0.030018227725240588;-0.02467208236775751;-0.0728517101635467;0.010845798292718218;-0.006744579628786478;-0.07269566594365974;-0.06464236829983784;-0.1334257071544912;-0.0952459249563801;0.00551601237135644;0.03462873427155744;0.03557328200213832;-0.048883036162729876;-0.013421877087180538;-0.058278297094300664;0.04183975769920874;-0.05540543109948333;-0.11826075318172814;-0.10507903164966086;-0.04507673048603958;-0.11256614234235499;0.05778946071763218;0.007688637827881202;-0.06526480330164254;-0.11117139098383215;-0.09369004887482663;-0.21859874698828993;-0.1337675517286095;0.08022003422585752;0.09641421736002495;0.030992392016147695
0.006894910260083154;-0.027692029461799918;0.04407998824803846;0.0446883319483086;0.020282365537665867;-0.028875770312920136;-0.11215568107666832;-0.23290330127439457;-0.08642342361864082;-0.03855911027930218;0.04029057548675275;0.028969178213543157;-0.12307106027204684;0.06188320978660057;-0.012150680492404533;0.0440904776599596;-0.18746801779106134;-0.08255417482200737;0.057431389142904285;0.02207653200533214;-0.05976401923878736;-0.020588766324422393;-0.017144746463933633;0.018512123346279927;-0.11144440980609718;0.09676222809314258;-0.022177664080312125;0.022538825863593865;-0.05943784859775435;-0.032760509325518945;0.07368219027136677;-0.003992724742216167;0.15647397714405528;-0.06230188862028412;-0.08061514304429007;-0.2861796264057499;-0.11996110318556111;0.03132006462633845;0.08079283354875716;0.06868059954087843
0.03838768799538879;-0.05649644245858641;-0.040951247634427555;-0.036675570895321155;0.05379985200558193;-0.009684341703107389;-0.11900461157205906;-0.2517381457896635;-0.03551085792429196;-0.08389571821534508;-0.02629497663484978;-0.07847362968048212;-0.058615802221928984;0.09375337876686182;0.10543653659218263;-0.0441964063787484;-0.2165219057732105;0.05315018538529493;-0.028490924421717655;0.08547552382710578;-0.10888574572466876;0.041679319743315735;-0.14728263405120096;0.025702840420608518;0.02958351532406953;0.05853209618100952;-0.09454931570779643;-0.009921347814191635;-0.016434401002356026;-0.013168105448891404;-0.06716300001340399;0.07393835319879749;0.17684517788247284;-0.1500331700928438;0.05134812823264597;-0.26169941921312934;-0.15892488850947084;0.09946824318150996;0.0676412009379423;0.07414588383299708
0.06901032930110682;-0.016555473153612412;0.07178772518132544;0.06488606749975089;0.02809936596761917;-0.23603345786965388;-0.16493910520956762;-0.15635345630050165;0.17135408181765904;-0.1552959207097057;0.05897860424579528;-0.07514242708020563;-0.02209782275327241;-0.0277651193028889;0.17411472507830356;-0.08908496810491143;-0.21625228118112558;-0.08903662903656723;-0.09650392043079117;0.09514936178387987;0.06394399818016691;0.07661171306099987;-0.10466918013475654;0.19226138418012284;0.006774515420525073;0.08334635253982998;-0.11689239111180323;0.018004441603683648;-0.06526688233094358;0.023295563669687835;-0.010644453555451431;0.15436442240645684;0.16109833476673252;-0.044783303987535335;0.08135716758944597;-0.3908440243930648;-0.20827382520387147;-0.03693201988494026;-0.008887720083479891;-0.0026244099497312067
0.046046739186351646;-0.1097133728521724;-0.0010791266528926736;0.035481005302373636;0.1322311735719229;-0.10882848667253307;-0.09624698392581037;-0.23311900988136128;0.01582238652025051;-0.2755948015404252;0.10918920351260845;0.02018832461816476;-0.12619328086352807;-0.08689370464166338;0.09892240308474846;-0.09440778512438928;-0.20730521444558178;0.07125371228840291;-0.07566212176824655;-0.041123462799107904;-0.09138827150145276;0.22558679393675307;-0.04636168536562044;0.17508404074995643;-0.172650911314098;0.02078827514751906;-0.140232067566402;-0.010481626679612142;0.009378505056505206;0.01500182760060297;0.13728795666512822;0.09161553605493977;0.15868737627609833;-0.06404677270017317;0.03276608374348916;-0.35614856772877335;-0.1132801556858955;0.04384241146537339;-0.004487598414312483;-0.03612766175073114
-0.15940035383405068;-0.234699210942108;0.15217492024210164;0.14972485208060474;0.02626018582263285;-0.06003976191031407;-0.16084773116599105;-0.2830355328711692;0.09645425551795475;-0.24906417143943269;0.07238883269792926;0.10697577245641422;0.003205924897379537;-0.04225834887545353;0.10727251207403818;-0.10145657270290068;-0.1797944086197263;0.08777776869088233;-0.021473872001935488;0.08077316966135137;-3.5985307810217116E-5;0.19140688449478646;-0.0569738189876101;-0.0028078872546565426;-0.22679505979504178;0.09099111917229932;-0.13854290141660064;-0.03707697886419871;0.09331525190275296;0.08770792783123774;0.05932223452763369;0.1931631687381889;0.07859400613642119;-0.1424473113985963;0.03246630302406255;-0.5367426894804022;-0.1324381949894598;-0.09201733911888968;0.09608041656158023;-0.052724945888205164
-0.09169606846015566;-0.254433425207593;0.13830527711032842;0.15212539473767445;0.05215368678500548;-0.02059537529894276;-0.1041882448815356;-0.2791049939895705;0.15884837112301806;-0.1998874245589689;0.09735582863802823;0.08119047352234306;-0.008104696304979815;-0.08726176008430846;0.1127736807882764;0.12828007891425264;-0.07332884248895186;0.07777591071708836;-0.0645848122978716;0.17496202096564642;-0.018518928670362294;0.21631661661230123;0.09561802636592084;0.09354258536786603;-0.35306205937760277;-0.08774181487328289;-0.058427671125908874;0.0022700924401598383;0.07508441961935686;0.1991718211130705;0.13731243087254844;0.2475841262454942;0.05536965164115045;-0.016716685421871713;0.03899238581890861;-0.36435084095236503;-0.19040810718593035;-0.08617919004514198;0.04660326890093698;0.06883446401179064
-0.017888284624071653;-0.17237065478056748;0.15202885181985148;0.10065183751415649;0.0451731344857633;-0.024733478785275185;-0.11147059908731237;-0.12918557307619263;0.05279923363056212;-0.1770211761312563;-9.613063844259267E-4;0.07133000973954685;0.08222821396910182;-0.03756195280375154;0.13485661491009066;-0.06367050226394697;-0.20729699196740684;0.1454991452662825;-0.13030534327883395;0.3290943338037738;0.05334821780118778;0.07217165253075764;0.02636419758965636;-0.02273079200690678;-0.14828003331709136;0.057857492013322125;-0.16372812151527477;0.046568686151351374;0.17877995435678753;0.1766582778529668;-0.009581601304726862;0.1500652377653691;0.14944850203915197;0.03812873352488854;0.08486984908670982;-0.25065662620402973;-0.059824420182503626;-0.04401415094080358;0.06755888129567014;-0.02370333750461379
-0.016086259782532652;-0.21888373914227724;0.030671655544030226;0.1622749713400394;-0.02276641541586555;-0.01781197035708993;-0.15145806603205988;-0.12572085315990392;0.07219194080896514;-0.07830308784040448;0.16342517959912145;0.06577937768014912;0.0837908768220268;0.021854239796872968;0.1334000129626032;0.03721509667558265;-0.16721432661476374;-0.03414871780431333;-0.13602628335867892;0.046773864910942965;0.11597663060435778;0.21860581330967485;-0.028729546817027787;0.004254846976506126;-0.19461056273310487;-0.08633743782063903;-0.10104222563855944;0.04094380319489953;0.006609804278292129;0.1860086588267147;0.11319575303077656;0.22072678807168097;0.16841102234151947;-0.02030294110144417;-0.010855787828100448;-0.3628162678528186;-0.15313289228146157;-0.0964628733149178;0.10047238042511385;0.02684131930530932
-0.08579240464630213;-0.10992330560022616;0.11706826834954728;0.15998726076503175;0.14671102847631784;0.08909166315421517;-0.14931016501688008;-0.06165780200100153;0.013366540117787836;-0.15444581011093397;0.046199425389359366;0.05159203551925526;0.0043494815140144895;0.04976056568290324;-0.033937652234641534;0.15836245312312086;-0.10042452839026741;-0.030896031649880164;-0.040636041274024017;0.13191940558899193;-0.022031455897942878;0.09793875321324036;-0.029600610993388194;-0.05721595450763094;-0.08730253703071367;-0.024844076474233194;0.023620893776011304;-0.08212514314739364;0.18268781005599719;0.11833720306903792;-0.08734700862172819;0.10156884561145905;-0.022684153174944495;-0.0140428657800159;0.0643884616476518;-0.2620984972558451;0.031085264833904093;0.02687618794406462;-0.0031451155236502312;-0.004452127776496381
-0.10906316750756263;-0.12599526021662516;-0.01120637686060085;0.19264756670667552;0.1878377679345883;-0.03893530621002215;-0.10635844024557084;-0.04185969447071842;-0.04169149714695839;-0.10186371852949978;0.029331347361605704;0.10171735000102768;-0.07222039709424863;-0.08532343634869555;-0.033205595566859966;0.09993657478750737;-0.1947736104701381;0.02894396366236383;-0.13124007552514705;0.21352732898615914;0.05063002559309612;0.18792558949096097;-0.04527343415801486;-0.10421198083989873;-0.11052384733075046;-0.058820832733337276;0.06660651417538742;0.06168676892044901;0.15502751664761377;0.14935400808213428;-0.02703308126488801;0.0834103050222462;0.08489622693219964;0.15809142165941523;-0.07601945413065075;-0.06293433580940265;-0.0075915928661483755;0.04079689832391531;0.01249502287690988;0.04956228847903041
-0.07526579141592026;-0.04374281645556657;-0.045920027503731795;0.07102528849779974;0.13733513344253445;0.0062766764280787445;-0.06789804776709375;-0.1147879959187672;-0.05698223759245287;0.001622424828676357;0.059093858567325436;-0.08915213875089291;-0.02796028303168949;0.05856018339843479;-0.03551759701229018;0.24193731348139685;-0.157765611065009;0.03604786529633805;-0.006918052317193474;-0.010978256194659931;0.014176504147902022;0.02633664818698948;0.026281541269066896;0.044295051594328075;-0.05072264555915028;-0.11986199213975898;0.09160095579751759;0.07990585863402414;0.03637326954459134;0.13984119777701473;-0.10709091502406194;0.011989482942681725;-0.04279537472431021;0.15732127823882822;-0.06467152936873082;0.025867801126472672;0.0016502663002885816;0.029268286712282758;-0.0321234762533193;-0.01916097195525438
-0.021318155652075958;-0.03983177781977089;0.04761676082682046;0.09699437485901272;0.11066393893235973;0.13964818041191876;-0.0994044446970374;-0.14706176735909518;0.06144777571073557;-0.004604070651410193;-0.025581378405666353;0.09404789821195061;0.014315027186675997;-0.07370189289938958;-0.06966293324935195;0.2392934327725828;-0.15753274734507594;0.024251895651679505;-0.02340301816820528;0.0177264075210044;-0.009801122429128332;0.04480630292160995;0.07516042975504075;-0.05197003159475554;-0.1074218564795615;-0.179252614323298;0.02012814529762657;0.050151190381936044;0.03350444839763646;0.12405219108517342;0.0881713023894763;-0.014149488770455744;-0.055654273663423716;0.21245765539081687;-0.0051772190561910035;0.05027417060408239;-0.08604992888410164;0.026532158510819522;0.08703408322273687;0.09809983375130661
0.024453252146439317;0.0022382744166954066;0.07350995880354472;0.1702927191176593;0.04087283382426678;0.047151135225774604;0.03787464201631644;-0.15782500386245776;-0.040265797219256855;0.15845952864297191;0.1029802959438845;0.007468211121469867;0.0698604669130802;-0.03012243218929831;0.0093153642453048;0.20417013779946866;-0.174755011275194;0.06756922133566055;-0.1157398557825096;0.12485142487162255;0.0900586201005865;0.013577078766714778;0.04815952572431847;-0.04047531922356738;-0.11526597141789875;0.0015816662649012889;-0.03863531760714907;0.019911769339167152;0.1909065146515486;0.13931179646969133;0.054412991389656565;-0.1515982480851076;-0.07077074233302717;0.1714427787641132;0.037962655855216104;0.11522092876739548;-0.09677846081744489;0.018153118771908675;0.043815610416801654;0.045266051379666286
-0.07961453179098439;0.06260464431797955;-0.010713847349920405;0.0054577197439986975;-0.02576127083524101;-0.015472241444423007;-0.03169562744477976;-0.06357563456141796;0.04151965668369381;0.10460542585186433;-0.011231438007841607;-0.01211451186500087;0.05517058153328808;0.07490016755519695;-0.1476516826740956;0.14568972452377008;-0.1403270591294118;0.04817655339901008;-0.018939610421941512;0.05254263872561362;0.07602627879072389;-0.09319226369867467;0.08311519847488881;-0.07235670776579452;0.055291400291338964;-0.13706810852532456;-0.07165840082460746;0.16629918393929433;0.02509259569275587;-0.0024614031334146253;-0.05481816133965583;-0.05675442725269205;-0.06925355177152905;0.023062352469224962;0.062201881115097356;0.04193512675963455;-0.01105047315585063;-0.03058140940743948;0.09962719239633692;0.02585357617567846
-0.022358648773733832;-0.07026860239370428;0.025252192517974954;-0.005903613268829286;-0.06656910794346425;0.06404871337745123;-0.03116842488984565;-0.06795564958821597;-0.10074229887872602;0.05270452927198604;0.05252341509058894;-0.012364701568928825;-0.04109879246541669;0.0046342583513589025;0.05676235506634592;0.05199755768531238;0.0015497349577562004;-0.06976270870558324;-0.07504032127017395;0.054007729453640865;0.05613831516870433;0.021502484359847106;-0.051098059119835865;0.13844991692812406;-0.06969438962499093;-0.09902181746831937;-0.04229310615339489;0.11086126178753504;-0.06779808080868416;0.050769993843126575;0.0012134872597361428;-0.08185121181724844;0.009975469608368804;0.1357474989243524;-0.009456484736542297;0.07685940693925107;-0.07052595377924221;0.10100858933076039;0.03798136548158368;0.08185611238887636
0.01083503802209304;-0.008777248136264515;-0.030156995179455102;0.019914867916309774;0.015276280974006013;0.031579843348428054;-0.12579298901590732;0.007829806943532042;0.07921627426047911;0.11039892442659689;0.08625503485510731;0.04220825911246794;0.09085050605073354;-0.07444067678704505;-0.06860313124953231;0.01842331066466563;0.09687797690059292;-0.03373875168067329;-0.09151383103328824;0.04702100346238988;0.08368952346670708;0.0064008547418831305;0.08442158941440246;-0.03872488525457736;0.0026535611047961835;-0.037665177537307595;0.02369996804387651;0.10999137349384767;1.902806138309617E-4;0.0065476862330011674;-0.0325972946107684;0.06629184518130612;0.014523185027166357;0.1066269435102995;0.03076352129895161;0.052831590986441565;-0.019067496346738166;-0.06041587527140904;0.020442167080001718;0.005056264706312881
0.08967329189175041;-0.08601168761797198;-0.030983061694040737;-0.09168617754899444;-0.09660054996751276;0.10231385633833108;0.03842207207068943;-0.008742085526245742;0.08362014967665765;-0.09718550532054282;0.02449803488665509;0.0430378797714896;0.03556219160831545;-0.10560537042508714;-0.08183853841684739;-0.06237649172409338;0.01423124622047303;0.07452691169954102;0.05010913248599637;-0.013418914030587538;-0.051924125298016675;0.06817726523112709;0.05038159576976438;-0.09056985080009931;-0.06237193825895415;-0.0025368610766319222;0.022446392393809213;-0.12593576801382061;-0.032735583409489684;-0.05656800112348924;-0.08026938347352329;0.07581361074068414;0.056243210770891464;-0.0012583101025239454;-0.017023620548048048;0.04361074232280551;0.10627383256330089;-0.02462124585210666;-0.021972944745107394;0.03293095862989838
0.08586430820768849;-0.09196045669627664;0.08255327772047308;0.038706367567531166;0.030821668328338322;0.006263158534718086;0.08025607708496031;0.02991835992406496;-0.06207297870858781;0.06506501931555159;-0.05481912018662727;-0.04620765429489546;0.07037828636024551;0.08553337398897405;-0.027022743775955416;-0.002106906723767638;-0.009562269953554713;-0.08516026483544384;0.09129744691941359;0.004862484532311179;-0.007712393220063371;0.051770328613609806;-0.026005619228356907;-0.07292215138907095;0.009028869797449546;0.037861987004114625;0.09425491088399592;-0.043582895583366435;0.02203286043821522;0.05603009197378213;0.07486655652563473;-0.02379973358033427;-0.032722013885357504;-0.007434026693895464;0.027460091213208554;-0.08916958585302227;-0.06192748224615468;0.024084056940363682;0.05515295746153564;0.015008151952546362
-0.042392664858694334;0.02101318334835338;-0.001940953956914404;0.032309518942961496;0.07013094737755757;-0.027775666336932445;-0.050234939955473484;0.04684697609019903;-0.07661600941834693;-0.04378011131190396;-0.018374086730900352;0.039805081809853704;0.07612961932451628;0.019233502879305614;0.054097157036984145;0.086990086933289;-0.06992954832338374;0.039211795225783885;0.03765389733278984;-0.06687452141592648;-0.03494558600381441;-0.013103298577653424;0.03467735710253289;0.05699554909868185;0.08411812902882154;-0.09606932562601067;-0.032641266819510115;0.07280432630797856;-0.027426869639409657;-0.09483136250744431;0.07654843151196727;8.12663533725333E-4;0.08334810118022304;-0.04679918539509642;-0.0373886319499476;-0.01573846704930401;-0.024941978047702262;0.05016093657871784;0.09173199866607817;0.02978488325256451
0.04977903489867558;0.04521451227989645;0.08974550847954102;-0.09503923584516905;0.06426556993691726;0.06569235386337888;0.050454304155647944;0.03934466994161023;-0.07864590484714173;0.04565472887792282;0.09652195764446175;-0.055725540625591125;-0.01244421520771713;-0.05225823535490735;-0.051580629967944706;0.09193144498473663;-0.07165202875274995;0.052486274390782406;0.08053087489690719;-0.024412417730320254;0.0044323288534377225;-0.07616475327549047;-0.026589266548757026;0.010663985549253546;-0.06976463908936059;-0.04955336102028061;0.007313316622693938;0.03017140719852693;-0.039815354574761;-0.09060146929671818;0.084503079045362;-0.021701582556802684;0.038802117786023715;0.00226780136892972;-0.08351674861537228;0.012358599685798027;0.02741343886376779;0.07310599356192318;0.06716495687263918;-0.013996855045826956
0.003283209007167487;0.03366167373975217;-0.09586944340773514;0.0055509491644560064;0.016221973075525305;0.09325989129097904;-0.022466108121242685;0.02648188201946823;0.08328860136684645;0.019094321185991397;0.019796529337552164;0.08858976350058395;0.003830754926979465;-0.06278369365132717;-0.06085412864099351;-0.02402387585796285;-0.014641259953453395;-0.07461212104931635;0.06625301129467752;0.032025158298549745;0.08452667502245825;0.045925410218616985;-0.09460845255116944;-0.0403219476071218;0.08882994298992558;-0.07982243169835979;-0.059503123188251926;0.09380233155075425;0.09037853560889358;0.05557373703718909;0.051020070810714135;0.04507528385843678;0.03689195673824144;-0.09771966343004346;0.004027270840124116;-0.016080018590660505;-0.015975492948258393;0.03838403998380572;-0.09412228784892623;-0.04216707296340454
0.0187777219803161;-0.03889242958482127;0.022379076976746032;-0.07766431580404422;0.0736267643993701;0.09356116068743928;0.018855770452480186;-0.03552834163060281;-0.08255707989920934;0.022249309854272953;0.05187536950439298;-0.0737427494634464;0.0524033606211627;-0.022015316936632504;-0.014902099433416248;-0.0954970755070934;-0.04749337502902445;-0.017269735643112967;-0.058111770883708995;0.05545641270993375;-0.08963114811057761;0.08292022196356207;0.07317556578996375;-0.09670554184301505;0.10695946831069368;-0.09808715625316068;0.09630799654008357;0.05357299012625342;0.020576795591320095;-0.004391631534396822;-0.0689017206969783;-0.0029368396740887216;-0.06417546865674267;0.053444402305377295;0.05292307522067366;0.075299014945532;-0.030420348062461883;-0.021596634280682217;0.09299555157306615;0.0571632422399738
-0.06680004838650266;0.06596357831948571;-0.08283245343053339;0.008855517956335527;0.033727223941719994;0.005361797928811788;0.07297027335197966;-0.04518622614653006;0.007569481251993794;-0.07799654544924632;-0.019604782033614942;0.029197443865435588;0.004973598545719848;0.06280573705006486;0.057578621285422356;-0.08434510579781745;0.012823084512431717;-0.08478237642898202;-0.09103072495144185;0.021117767136663246;0.09600733051227606;-0.04574962038866805;-0.08339970417666268;-0.014267703527629063;0.08026749120891821;-0.02749653813236911;0.019824749823295493;3.9137433772370555E-4;-0.00913936437085575;0.0316785496155322;0.079311637275095;0.07470780463405353;0.0015770746666131752;0.07936186739326612;-0.02936817802209155;0.058037207699816205;-0.08397437843441226;0.02302397434171686;-0.002908332450484502;0.09713737079524137
-0.01926685481919434;-0.022695909071999813;0.007972283123024306;0.010878165505380566;-0.05644167005679902;-0.05538880183305581;-0.027768823074165717;0.07012269652826501;0.09759290083086507;-0.009111397768943779;-0.021663436011022077;0.035060895499125916;-0.09568709851259159;-0.054515377457326035;0.05968526807682124;0.05565116216223831;0.03309926183605858;0.06930538883300572;-0.0038395226695394956;-0.05271009383712627;-0.08800758469113722;-0.06352150195548101;0.10484737935750103;-0.03250247178793968;0.08499100105151895;0.002985459985611386;0.031592492181784164;-0.05466136370889317;0.013897270264633024;0.0025580012092131462;-0.07705961572688842;0.03450866105676702;-0.07015821933653565;-0.04091653691311852;-0.024615937642768298;-0.04314227469444393;-0.08792249646844529;0.025605864816440158;0.04685925003853493;-0.05048502808981366
-0.07145337296290627;0.10298073826362121;-0.04265239969496754;0.06767963131424645;0.028826492004577653;0.03210232396469667;0.07331542732592307;0.03333782360095929;0.04316900480193656;-0.10200304528903964;-0.00273281116546501;-0.06606635014303065;-0.09657323189174721;0.029565551078445322;0.03314192036467098;-0.037739384997166184;0.03688520872825044;0.011864295006775454;0.047823144964824926;0.03507514557155775;-0.05986059828229249;0.011589658091421982;0.03888542711553208;0.0674710476302801;0.027694971027676988;-0.037745772163816575;-0.10141535055830501;0.09509974988105231;-0.13627269268556724;0.05424983365627237;0.07170570272216113;0.04341760169266198;-0.07951845715746676;-0.005034084925916737;-0.036191005392120244;-0.09411665637497478;0.02665028872923373;0.041506413968724815;-0.031649939597435145;-0.038488267556162054
0.06297468143935073;-0.060305115442363874;-0.051785831796053276;-0.06357540339829902;0.11544325738201446;0.016419008014626642;0.028091448327798713;-0.006405487258665379;-0.0665053607245071;-0.0590495593987639;0.026457416197169237;0.029146527491190725;8.011526132863692E-4;-0.05619161240725681;0.10016407700790479;-0.09082471135484542;0.03823869164376666;-0.034688539431781545;-0.07818196804362432;-0.0652790836484251;0.008801278282139934;-0.04807508188935691;0.11346593749562338;0.09780830314305639;-0.06767775238999503;-0.1398604391811154;-0.01880660178337266;0.10582770376072842;-0.09435620323406502;-0.08344419116995236;0.09960430063196878;-0.09730245515616344;0.0905078473070146;0.023869245217572194;-0.06387113899678068;-0.1941535462496486;-0.091947177684662;0.047865814294192156;0.0999196803920835;-0.007263696370566856
-0.04086139737408898;0.064791860268503;0.10720926286821288;0.05725616431163098;0.1283786598068827;-0.1254530770949697;-0.08922525222466088;-0.16919902706337844;0.031160776572024214;0.049016009056332695;0.07390141666570793;-0.0656794605136881;0.010804519569305561;-0.02580339663756095;0.06681482715887;-0.01621712083800791;-0.15386558991379876;0.017464643591598387;-0.06260122476600095;0.1424790865295195;0.0492366995886848;-0.04930031910969923;-0.0850667266984784;0.07876041109331572;-0.04580755652554685;-0.08067823351957237;0.10977267138309715;-0.035154835819010466;-0.05016241455281924;-0.09150447339381669;0.07408780330169801;0.04300127957573344;-0.03132957243409866;0.03510252143798078;0.05856478214286622;-0.22698921934259453;-0.022307253597639992;0.011645254631051915;-0.05225430460954132;0.03930906201726828
