layer;784;196;49;10
0.02855375283151082;-0.098406266793226;-0.049399311811423055;-0.05580918919147648;-0.03931498206793971;-0.0807948859692101;-0.03378870423414633;0.09518785033574298;0.05920670334201006;0.020931077932175815;-0.09309970720442623;-5.5365997244455345E-5;0.02303916087199946;-0.07724972959208486;-0.03430309262407083;0.09471632135951011;0.09443051216844864;-0.07872484317296238;-0.003742951411983733;0.091721216441177;0.07265245273804685;0.08054395583150367;-0.09915225469619691;0.04519648167746118;-0.06003493456835956;-0.08424892661947565;-0.04052667912753727;-0.03991367124802974;0.0031526525199229577;0.07375127796499767;-0.0390352495173453;0.03274869047136314;-0.03571583711431485;-0.00291316680089386;0.02283037935002885;0.04060538807613179;-0.07404667667486092;-0.02354902800540451;-0.006107354661676043;0.05644996492151283;0.009105187782352947;-0.05408492462988521;-0.07778804384714227;-0.04683370052992511;0.015657316722182693;0.0559109977257696;0.040525612562048785;0.08590024933904292;0.0034754500584742443;0.07087411739847449;0.07240604021873284;0.09126568127727552;-0.04213498076935338;-0.018383399595510677;-0.005430726938616043;-0.0730448455630594;-0.05840856269511139;0.09691459483442175;-0.09575884394030271;0.09016474981257686;-0.015456320764111964;0.08445705118838295;-0.06478470801603511;-4.6848899873501437E-4;-0.06549277041780874;-0.03178212387280746;0.042213348903512304;0.0028210411001624858;-0.06788602460144719;-0.042522662417687075;-0.06961516185429012;-0.018608128627381815;0.09588831701218017;-0.017867440845534127;0.04526014959579211;0.06250228226171667;0.007410146326667658;-0.06039895192419369;-0.041802903881977764;-0.07818570743145617;0.0719670955817514;-0.07946468510083976;0.08333776657362241;-0.039011360530386945;-0.0033301112257644594;0.0737306631822846;0.044319194886384056;0.07905360747259765;0.07585623985501047;0.09502224018210886;-0.027542267895100322;0.02126959694712252;-0.09728969311886636;-0.019368397084220404;-0.03714632366101858;-0.014499519332139749;-0.06362373173651732;0.07233707581929322;0.04083929629779809;0.09364171628222259;0.04544613908975867;-0.059993847992003115;0.09841983024485015;0.09444442404819928;-0.07844648989899694;0.09644246254297384;-0.051166223296907676;0.0541135081852574;-0.08909349199968375;-0.07983638560847091;-0.0829148543599487;0.012347111998417898;-0.05305528908298545;0.07364054188156577;0.03527713466200058;0.034023709170398736;0.08390648089495975;-0.05230711171246194;-0.05619693329943292;-0.029467845114680508;0.028944588252867054;0.03714907284748148;0.012927035396108372;-0.040220838981514566;0.04952965490023695;0.05854375530917977;-0.005986597141794128;0.04019765723978069;0.09323250437938882;0.05753943868301434;0.08564060189727649;0.031618592951772995;0.09857800236398565;-0.07807690868963163;0.057061535044607675;0.0446577864270877;0.0985145903320642;0.015442632557098573;0.009949171768157863;0.020308517789215344;0.022145296214380966;0.07841226705917917;0.07909274844812916;-0.027280436553312915;0.08571748641197327;-0.09707034840268491;0.0736862715415749;-0.08932249225985969;-0.06952971617794944;-0.016287983499055844;-0.05692209629584331;-0.05289881936523964;0.012790037919175615;-0.030027628241297594;0.014325038653227984;0.07089511325900441;-0.018774084278085204;0.09942096469441838;-0.0063732871713657185;0.05179806834158615;0.08526911277681029;0.08239130758176733;-0.05031860350693005;-0.023598373455904514;0.05240085583019691;-0.0777458934028844;-0.09575515179336874;-0.02769703679696503;-0.057234139558915875;-0.09230360062328753;0.043639199298771886;-0.03260498282213753;0.04492951841849982;0.09310750179888119;-0.06530883862345013;0.05258623435083182;-0.0884713988928378;-0.004772879872433203;0.07955357036022867;-0.031218768939072827;-0.049773107246935094;-0.02262463537890784;0.07609126227353957;0.022742712730350154;-0.016761348804911466;0.06699816833287323;-0.03601125582415468;-0.04850590777939317;0.06778442301285098;-0.04207410038282949;0.03146364775586685;-0.09878873354047202;0.030195290517026768;0.08565694519930475;0.033446616658042716;-0.035908877674359824
0.007983140319556159;-0.06785798132156691;0.029314738856284217;0.02547338676917904;0.017046160718672418;-0.08404085053991169;0.08674228273628523;0.013531462353649187;-0.034719651234108515;-0.04556669382775927;-0.08204101869052392;0.015137031928637995;0.019219286985081463;0.046168624159614535;-0.08431723305481463;-0.07595780812848017;-0.003073894511403802;0.015625384707747547;0.038220289821471715;-0.07868801971403233;-0.0917869441828664;0.08578782592901552;-0.04329473938134168;-0.04702074131255982;0.0923657117358849;6.330077230780329E-4;0.022171111331507773;0.06618289363306765;0.013900324477598452;0.006025064505134209;-0.06386893915313148;-0.007410699076265764;0.06848450712988072;-0.08417694913925787;-0.08443468826369126;-0.07331353429545003;-0.07599707512243509;-0.06059513635384198;0.031691481603574295;0.03657860258143597;-0.0241488025152303;-0.07252627912546475;0.0716211866592423;0.06619873334108348;0.030892890984162313;0.00492757480506216;-0.07701799776393022;0.040395397590516746;-0.048884040792601294;0.002736221089959162;-0.08618919777556673;-0.03186103762102453;0.08587651903837348;0.07518459918448453;-0.04649912246826937;-0.04586815462690306;-0.0992804210467418;-0.005494922577530523;-0.08468807083460901;0.07539624987168542;0.07111763585746775;0.051835428510331766;0.07692847008301434;-0.043048144339348116;0.051069899876778235;0.06160340420872021;-0.0072211537363093825;-0.010514848112972944;-0.05064373651299119;0.06585271560647452;-0.08969644252287201;-0.028048948680127153;0.05034176907388663;-0.03431058928734006;-0.037911787627729426;0.033336536600282185;-0.0984210533015117;0.06894170580723721;0.06675287354209822;-0.009644888996814371;-0.04294319923087549;0.036290274079689044;-0.046283679728210306;0.031629970436866994;-0.08720300730769914;-0.06745979696286239;-0.009569907037911538;-0.016037262834779978;-0.09940084866461595;0.045369776458280275;-0.06459608477667159;0.012573841455121443;0.016088870130602423;0.020805376262607284;-0.03367942935223722;0.03473950765251049;0.04882359238635836;0.0828358275919244;-0.06023511896493472;-0.014960494628878232;-0.04493701145243876;0.053993590575961065;0.02756803474372832;-0.03953114508239493;-0.03208787577663312;-0.025605787513726316;0.04449501375911591;-0.005044349034494064;0.07489721404001928;-0.07136038220982124;-0.0670204925940473;-0.03463358830664719;-0.09036464223788164;0.03315477039096454;0.002837163484423838;-0.08513079843335021;-0.09788880821565363;0.010941361630934926;0.03736470736548497;0.09456402529307614;0.011174938513513283;-0.013603746196091726;0.07195893304945186;0.07057895978099735;-0.07677206589948316;0.06975641217130499;-0.0726338497031524;-0.07863041748514987;0.042663269056253145;-0.031103838345617543;0.03689927225509207;0.058748257030586615;-0.07751927178208701;0.06561668529498918;-0.054563752798972256;-0.05379096476755361;-0.012403254539168754;-0.0757682865836745;0.07774013106956917;-0.04059715661921997;0.08872176136912513;0.062167359015470325;-0.025382378708216052;0.036156764180815315;-0.00872121354558697;0.005458307481998631;-0.022340511945986602;-0.002779689489320128;-0.04831135299364564;-0.02356362713224039;-0.09321712644026117;0.08396056820065162;0.06244891101931621;0.016571673760785277;0.019521954753380616;-0.04448276586459426;0.057785075423102183;-0.06565923670509247;0.06699011734075355;-0.08453243602858673;-0.03674591489992954;-0.013840086668435614;-0.031336753050578245;0.09684036002515284;-0.054468067981822355;0.04783605803256649;-0.08338957287356386;-0.0756428193206735;-0.027281405398117617;0.014651794555852055;-0.010475260088342986;-0.005932008381997991;0.030845030488784092;0.08011497112134378;0.007883571117111535;-0.03691244001827931;0.05886874731187247;-0.013432547713451676;-0.0062056387098467225;-0.07407205639546469;0.06229576395658115;-0.08473831437477533;0.012558156363827691;0.06896155912527094;0.04466854618696836;-0.010822210455973688;-0.03228987031685608;-0.0591618088309778;0.05651093605242488;-0.0012320656066343583;0.09727255450960978;0.054218657148679544;0.002922709655511585;-0.07102117782828453;0.07618248076458048;-0.057023434145815545
0.0738679870468312;-0.034682817665185064;-0.03166724961241807;0.039058981398883696;-0.034696820113655075;0.08738721666908478;-0.008608282683138707;0.004485670947672757;0.04464188152221332;-0.07975693757106816;-0.04145655874696692;0.05650570511748845;0.08065545145907102;0.007063254263596511;-0.05648317808862511;-0.042280652014246314;-0.09424010199408744;0.09106844195675143;-0.021251392116799092;-0.09198791749965592;0.007740898642151911;-0.049732506228721364;0.041251841922232496;-0.028563167000331235;-0.04167938760795247;0.015531275646415016;0.006737803365463951;0.09871935559569053;-0.022428576718272655;0.020657415481318206;0.059766137769892064;0.06485098029376432;0.0060332336148140875;0.08250351343943593;0.03617440017922499;-0.06872819012540046;0.010492626839795932;0.08993016513236349;-0.056235276548442584;-0.036563306129030027;0.08473366535764779;0.09220936113195241;0.0582020846055438;0.08709517558623511;0.023171749608481756;-0.07928215736140583;-0.07669505593854425;-0.04959411381980403;0.04313341798821074;-0.04785093824004299;0.09838581671806024;0.07404468898456576;0.010646659615186113;-0.07285859156035182;-0.009974222527595056;0.017755180297148662;0.08495773109256902;0.07513453919602217;-0.01835650418456622;-0.030670996911531925;-0.06140784638314454;0.0644295642156125;-0.0685540353513608;0.07079263199976746;0.032629068051425875;0.09584306735616266;-0.052175368494772535;-0.06338372452709906;0.03095971411736656;-0.010991183558266143;-0.02901276361020487;-0.009950316620565697;-0.07734770614205498;-0.027704709906922795;0.09059219026400409;0.046228567618792654;-0.011852840850153992;0.08047098862697419;-0.08862110985014192;0.004484625939274525;-0.0071422502259069764;-0.011336216513383346;0.04226396685739514;-0.02266906750684687;-0.07914576809962277;-0.033175589917425335;-0.07090002271960921;0.07988384591546147;-0.028341504208099763;0.025818445374585164;-0.022730354025438215;0.031021350219026633;0.03478053264224118;0.04443506047579937;0.017515317088941024;0.07636702099436674;0.029477974729704426;-0.08398504997167788;0.05687983640558267;-0.06677221133098243;-0.04867803328298557;-0.06593609751462917;-0.07363836766537918;0.07890262907831999;0.0025042839931576077;-0.05186748741696437;0.0878633489144329;-0.04368132449812463;-5.780364898253926E-4;0.06440664754109715;0.0952399882790835;-0.04526009301961882;-0.05107254960790844;0.03986723838023834;0.01772892414016651;-0.06166702944098095;0.06373377277787173;0.024542221236873968;-0.07122908812872247;0.04166359734914726;-0.05218423559707952;-0.05671274138111096;-0.06079231087045261;0.028736111729442987;0.02424999939520009;-0.023303825110322612;0.011068255465030097;-0.07902229633961673;-0.09921240242011778;-0.09984404123497066;-0.07336738709126563;0.039608117077200244;0.07255569629367367;0.07072527258082756;-0.0928117661980966;0.07912447087709393;-0.05336515853881696;0.013429520488028299;0.07687112197809154;-0.06882995369555343;0.039861246693698005;0.05172953442481018;0.049209789555460015;-0.08815512132994899;-0.050945720085361405;0.051335016517999155;-0.02253273018263205;0.010555087952964823;-0.07802873549734218;-0.09780203906841252;0.054602541825794326;-0.025213083045543067;-0.032356905636362954;0.05043532240586801;0.07464956913125331;0.07273055439330717;0.03634580507917459;0.010094214737336737;0.07453858165894278;0.03446783079697946;0.07231481830836514;-0.06591288710713447;0.06386079896616711;-0.037523036912376885;0.0964100750010175;0.004288459237574774;0.019804397292237194;-0.07650337617965214;-0.08870809666977984;0.012698166637786001;0.075466081692803;0.08633053534914367;-0.061731035670338844;0.0487416914923669;-0.038030876835245;0.05396308613590001;0.09283124428678746;0.08219021571634591;0.07829538850332557;0.0533952836338083;0.08498258851885715;0.03684871678351476;0.057465364101492666;0.09289956589581233;0.09083882439518981;0.08707364261714146;-0.02632323307237519;0.07393103795851486;-0.016440873792690575;-0.022653914197856048;-0.007761087609945289;-0.04627827781680352;0.034529796618750164;-0.03545976120320511;-0.0973834273028361;-0.005376478613281679
-1.7880184264973398E-4;-0.08680876725633056;-0.005376448956045096;-0.09244542183042528;-0.0077097857911616885;-0.06401975443759758;-0.06121709441649024;0.09944289223108349;-0.09369798453482317;-0.03518096454922007;-0.08590283886645744;0.0683500273212983;0.009896677643010762;-0.037669981996255736;-0.010051493791892366;0.054996828641247386;0.04832756465628768;-0.060817917924982146;-0.08642450215799571;-0.04429786010337203;0.013250121242127169;-0.07034354921301751;-0.01945060161299106;0.029284568756047513;0.023441101005046927;-0.004019136092518874;-0.027100243730093718;0.08926643592608574;-0.06421995603954392;-0.01861548899734429;0.03801549377397745;0.06275802530163971;-0.04067385234344283;-0.08750982860135757;0.05117426035328884;0.018689434664893548;0.08067538527971121;0.06357405711283187;0.0555294090930126;0.020596293937545515;-0.07461570575848922;-0.061612061650214184;0.005610495756558434;0.04295469886417272;-0.021901716354194828;-3.4775700337215387E-4;0.053869776798708385;-0.0949001812266827;0.0631240387558007;0.08199275914199258;0.01453373814880228;-0.07694835936364777;0.047537045039133224;0.0610077472337186;0.014995262202583431;-0.042889601242706354;0.07051688741940584;-0.08068365366308217;-0.0977914560816295;-0.05812668528795975;0.025454486101482904;0.049853032747728704;-0.08997443358631546;0.02536332369210692;-0.07452296771774564;0.06733722057051533;0.013139302580286866;-0.08475051476468363;-0.03161205188205585;-0.03923904705494896;0.09427562068101866;-0.06732206466287444;-0.01637924874387779;-0.08709822956615072;-0.06649782395413875;0.00802118742435079;0.09165721929260587;-0.06271808009820115;0.09199932152157358;0.01789275483099613;0.03546192335595977;0.038659077080163085;0.007364610598020432;0.059063038951869457;-0.046163372656257876;0.09004788963967436;0.04349889152207603;0.0824515449101578;-0.041800248324359114;0.037435627841298696;0.04534871842952376;-0.03084043739449341;-0.0528524765340028;-0.007230609525726697;-0.06274369986513312;0.020546452626843292;0.04725508539140966;0.05645625249787539;0.07339472203816061;-0.0443582353482495;-0.0960725639234502;-0.07746808048793359;-2.571423317519611E-4;0.06172456676976734;-0.03728852942907697;0.06281747652177985;0.01928079260876772;-0.07230979784868195;0.07933214966543631;-0.03920216655820335;0.0655633139736683;0.004864084864848989;0.07581727786779704;0.07161959364293724;0.08455543842325963;0.08621082686303147;0.02042691117109137;-0.07847987424824082;5.906301643999051E-4;0.07242638670626608;0.05070510691501204;0.028163647588566848;-4.6121812090915704E-4;-0.0978101952886386;0.0818230892367435;-0.0772257760307169;-0.09925221383948918;0.06389017204228462;-0.05351529328139142;0.08561963577770529;0.009048894568388727;0.07743362080645247;-0.00198357232603745;0.06831413199865663;0.03909276408257861;-0.0627259318553612;-0.025134294257655704;0.06957213823024552;0.08650953644875589;-0.05839933249832161;-0.027416705515080464;-0.04454089669212098;-0.016136978884881276;-0.0023462140902501954;0.0984663567120728;-0.029150370661021704;-0.07590458657631566;-0.010569411775359597;-0.005608969483247822;-0.024282813568241662;-0.0398643053198144;-0.07841979809164773;-0.09503542358053002;-0.04195624227972897;0.09657136343857403;-0.0879223673188152;-0.05902128285678992;0.02455177042720927;-0.022240252256124957;0.09630455679052649;0.042247528767236586;0.05112479367734182;0.04648158690041354;-0.07354573810431804;0.0792646145684692;0.08669750602094115;0.09821637905257197;0.0027170237830667354;-0.05028402081866266;0.047559525021415416;-0.011654756389734983;0.05649125123656282;0.02373652011283134;0.013431740516203522;0.06306388675016356;0.020904907721641594;0.07089968204345123;-0.05766215600191367;0.07951464079508727;0.0702205611827931;0.06228126082229571;0.05820782878773367;-0.04337677476355746;0.08723675368665057;-0.017459927517439217;-0.06668570436663698;0.055352291214672084;0.026587201628539864;0.009809612975085494;-0.012943549019006656;0.025560600180112997;0.08187853478814944;-0.07470352201474531;-0.046729236808507185;-0.02361698026337196;0.03589634309043316
-1.6712078160592558E-4;0.030161276893097;0.028023223827450455;0.0756482533030457;0.07123210477239486;-0.07989333016248149;-0.014922514727962619;0.08780196170943819;0.07414737865553064;-0.008984789530468593;-0.06501542895032009;0.015115153022142086;-0.08676389768142712;-0.05343719485855927;0.019923229409495466;0.050743198396051015;0.08078308508707827;0.07956340687257274;0.056455370028832774;0.07484983379686233;0.011537849203298284;8.85130184962904E-4;0.08443963503143531;-0.003265249696727965;0.040372694058218084;0.08573941029444238;-0.0847834705556529;-0.04426853534687889;-0.017530166294198873;-0.04016523323475896;-0.08120706543734689;0.05541750924874031;-0.008902671416141095;-0.04019943824225987;0.04073032695725548;0.058218405833682096;0.06463528276320396;0.04545042759906706;-0.02833239505866239;0.05127568629432891;-0.027634825365461357;-0.08413101217670707;-0.09411395851728473;-0.0905115772745798;0.047636854589417466;0.08696952133411412;0.02005031727472531;0.027926733962132994;0.05737926370531707;0.025084428226434557;0.07923631977505505;0.07335482736480681;-0.0014774439749051516;0.09931423248404048;0.03458278274003293;0.013390211417833725;-0.005249322840650342;-0.08522489839685457;-0.08461946418798633;0.02186469322513085;0.07110530273401197;-0.08045123609951965;-0.061860347738023735;0.03024196519513153;0.06931338817824537;0.040052895639274555;-0.043848687197059366;0.09748550729098043;-0.06668784930412658;0.09271403146790544;-0.04471220188351852;0.00455976632188386;0.04229704432310452;0.04423912997810414;0.06526059892796826;-0.05521359934685002;-0.0022803784187398063;0.04844604184775331;-0.09971683073543075;0.07756673022804014;0.08101389312729504;-0.025472882875281752;-0.03093860340253292;0.040520287356826806;0.09043132480230462;0.059784247428154524;0.0012615023724175944;0.07387872139077076;0.038216119452191444;-0.030712172203035;-0.07391849495364344;0.0010131168112145622;0.04345407679750671;-0.07442397563096424;-0.09172086454411954;-0.06973796517578792;0.09127983129960651;0.08342483678764134;0.09798546098920083;-0.004233470739686718;-0.0542711738574774;-0.032116341203985696;-0.017139831147435045;-0.06119245406158916;0.0013719881441138504;-0.03181516656405184;0.044620979036133435;0.046180094291038726;0.03797261037731198;-0.014199999556093995;0.01670621598939595;-0.09157233591174202;-0.09724354367507326;-0.02817001844867839;0.015806095967050113;0.038299488933626225;0.08648780098741221;0.057079033202695556;-0.022775003900648863;-0.001417770817069064;-0.017604506988887575;0.07757832199060508;-0.037486728609718384;-0.07150325384332992;-0.07890511819876507;-0.07101232167101637;0.027534051588431196;0.02913972989000177;0.060002874572245485;-0.05478151067937736;0.04010675468143016;0.07098893180185939;0.0723450038301083;-0.010214996220163017;-0.08140420994751657;-0.0797200455074759;-0.07129503658230063;-0.027194997177656277;0.02628939175242717;0.04610140311250352;0.09316859310539852;0.06223516884310229;-0.09885987380563713;-0.03365553067546671;-0.033534096195294835;-0.05515962206327421;-0.07358484080524613;0.01818198752939848;1.1622920746004461E-4;-0.08943975377132954;-0.04496903016535039;0.09754102839269235;-0.021566754851275155;0.08335029903691535;0.08882368428350201;-0.09792773081920199;-0.08065193939006421;0.0022392880476554133;-0.016267160263246178;-0.06659169536083015;0.08036021760893972;-0.031741907823686716;0.0028529594100606542;0.06704226064527977;0.07252800284636204;-0.0839401700019617;0.0715337674832413;0.08194705390406284;0.08326092718996211;0.04346480873264255;0.0021865794655649695;-0.04290531235259423;0.0877789960534131;0.037828043721548604;-0.048819129038009404;-0.011675884546504589;0.08945470854361598;0.07504106472020891;-0.053808359292564736;0.056545192577173775;0.07085551574367563;0.03514388811252561;0.0795847035844863;0.08705534076019769;0.060155865458992236;-0.02206298625428231;0.0019036549631153699;0.07978461147746871;-0.07831038216736366;0.052647417389467405;-0.030751236734792436;0.061573823110256526;-0.0352348808189898;0.077616567087399;0.0993146758178684;-0.08587032043565711
0.03146681757101741;0.019142517733856917;0.07308030453731951;0.06508960465946109;-0.02798109039092732;-0.07697775963707945;0.08262089676342263;0.09466833631561156;-0.05461207007481699;-0.09199561621106811;-0.029761220280902043;0.006647160497245896;-0.006847078329889816;0.01727677155827892;0.03008595222699692;0.040005921117598875;0.02627326791429896;0.0422768861235831;0.050678089759198214;0.05628686465386015;-0.06276406427599826;0.08252784070931632;0.06517624255225865;-0.07218150243925292;0.004165304095227196;-0.014133827753513795;-0.05396101591375649;-0.026783269841815102;0.08883043837066176;-0.07465791183788169;0.031624408053499364;-0.06088045478014077;-0.05291380084558211;0.012236665686696235;0.0045477677391013716;-0.08909937042805618;0.06813607016503764;0.01905468570801712;0.055077358151200656;0.05014630022305541;0.03810628342627076;-0.007984207685234695;-0.04242239407050757;0.002969304499006009;0.0837722408110636;-0.030519248603228744;0.06398494941783547;7.719610934718013E-4;-0.006120118113816117;-0.009086364326484242;-0.024471280086133376;0.08386033026239126;0.03835620440765289;0.08039482805097617;-0.007614309770127586;-0.0816499841641921;0.009804656354612556;-0.08063621358246449;-0.039316380215072916;-0.05190661551918805;0.0970327360730262;0.08518464028935369;0.037245618008892034;-0.07410302619302306;-0.033039295041371916;0.025291612962502652;-0.025306270845501674;0.002086978286780755;-0.0208882453254767;-0.038914514317457766;-0.006993283683030829;-0.08648030275179629;0.0859857609704209;0.07141626761723752;-0.051646406468281586;0.012422973586144664;0.08297008514425902;-0.007598636909673148;-0.06399901946367144;-0.0980063616304334;0.06304260440936738;0.0884925703629704;0.07131893349093621;-0.09553490870532573;0.004373644013010589;0.09911924297776228;-0.018613490170760347;0.07739818431490902;-0.026964937200223887;0.04589916352887785;-0.09057520149171357;0.01523765795564666;0.05837629677699327;0.09732258722947723;0.08526179818315122;0.0257153905661425;0.07522876662499664;0.030979033334775863;-0.05273993681018588;0.05447088359090155;0.06495157685259592;0.007810494947406349;-0.08538549462051569;-0.053701660612462225;-0.09356704310614816;-0.021461233781951375;-0.09634546779906553;0.0777188719957099;-0.0914863735075574;-0.020671383976091112;0.057760944766076766;0.07311538151728408;0.09689956847460679;0.04191272681278449;0.017734891149750534;0.025456663780514893;0.03148351514518091;0.04281816576215322;0.09793253737925953;-0.017323485901809613;-0.0059041536207012635;-0.05300154155702699;-0.04679426751888782;0.03206247909721377;0.07205720473527971;-0.036910774450906514;-0.07733446662944872;-0.08245189313879075;0.029506755906544557;-0.07933052935400771;0.01851197559032565;-0.04140847259173404;-0.09366854109373134;-0.09567535055812743;0.091650120643849;-0.09563769147018902;0.013623430414605647;0.03497177270276919;0.05053882229654558;0.0532475408054828;0.004943889707780175;0.07582073932123598;-0.06430464274133205;0.09522726648273483;-0.005726113659612536;0.05851031024026129;-0.04049438096117711;0.0934582834978436;0.0643834253587803;-0.02562896917546767;-0.09053401060922006;0.011444546777441195;-0.03654770159001419;-0.04356837337025974;-0.017290216673881337;0.013461389180404557;-0.07687257614021133;0.08969936016246585;-0.029352457768028264;0.018439871180514086;-0.05219696663598126;0.030408922637802316;-0.05522291019166579;0.07130661350075634;0.022761711616125432;-0.01065147726026186;0.008195869299909939;0.010813521054434977;0.06791573663347236;-0.059964141594672164;0.07207453757466092;0.05918091741008957;-0.07576021474397028;-0.05056925416219152;-0.007672567199106875;-0.06358339627686821;0.0015876986015050942;0.09703524885957368;-0.04105790744381543;-0.08903750009223702;0.0394373976911597;-0.052353807597405246;-0.031093471171315765;0.03835946113026634;-0.06379022746480234;-0.026311010815960392;-0.06660048677199804;-0.08908987704925649;-0.0118411633612239;0.08497584485521417;0.07088577623580325;-0.05614156421582677;-0.054567969410442334;-0.08310461023650105;-0.0800155016465119;-0.04260609186842637
0.04075108834091276;-0.04754510492849726;-0.030543960252894325;-0.021172706825076132;-0.024734485095615266;-0.0907397591624428;-0.05262150539392534;-0.014426089356667296;-0.04351781871120866;-0.09056701800216807;0.03756211360260797;-0.0628805156350106;0.07477623592363492;-0.03137223905184493;0.09847629105246863;-0.09706730069092062;-0.022160071980242307;0.08972749394604493;-0.05155967115119589;-0.016672396926727243;-0.04347229209733577;-0.0725421984315565;-0.049444260177211846;0.04156815133669406;-0.009092683418370592;0.0020761742170184866;0.08183444781833807;0.018046127076668417;0.021928294432396273;-0.016544545452133214;0.0032038208486277614;-0.01884718574375384;-0.08802915725257793;0.04129530819043384;-0.039454040256555904;0.0845038861657709;0.03663954814754908;0.06285934982426247;0.04165530207767859;0.04646596174441919;0.010517979441047376;0.07654971711921763;-0.010024848526167515;0.045472350949238766;0.09120188152295908;0.08779491669768419;0.03320025029881951;0.03340469430300169;-0.07121994789479165;-0.06685917962504134;0.023309143240355004;0.009356046162636411;-0.06796626346613954;0.08909881118013749;0.004316633555491195;-0.032619733369726525;0.007976795448239968;0.034219019694968295;-0.07498687812590435;0.03437138692216865;-0.0020394382280486123;-0.04397918301139461;-0.0038157192879177543;-0.051994053541303736;-0.018581194833176634;-0.0811733641151488;-0.044718944700462296;0.08972010299833108;-0.05257018603306307;0.06420938842288318;0.04623643170055891;-0.016017405851682237;-0.05537584736925856;0.0026776768592285255;0.048102178825979974;-0.0973364489599926;-0.08843176262891582;0.07338719782989533;-0.006594866418745779;-0.027911721759888458;-0.037394595561189334;-0.0019193250749388602;-0.09440064920866087;-0.029595811397486044;-0.04176229498829518;0.036122818643111315;-0.045283255742745165;0.02417812072901053;-0.07551668367772753;0.05941080811522126;0.08129574540632922;0.06568036238862593;-0.09775417986519633;0.009104875406294524;-0.029106241256833948;-0.0038993321106538525;-0.09441657010626558;-0.02946235966569176;0.07496593713978736;0.014980796314794903;0.04686755439422857;0.008324894588213463;-0.031380710136849246;-0.07756301511720019;-0.05282817765356527;-0.059385371930868375;-0.0882722583248752;-0.021715090540149307;0.09183418518455266;-4.2493012162414523E-4;0.0371203065203137;-0.08903121064691176;0.01398627485482351;0.02463672395550838;-0.07196896979867057;-0.09076473244799005;0.09294576843888977;0.06566723984540798;0.06672607615126866;-0.09921818819332372;-0.06028090362981096;0.03517228008809417;-0.06280025353206828;-0.07535155144678679;0.00846336011604143;-0.05822069792104732;0.04705785341319835;-0.06208932138777046;0.02060787005243854;0.06167554113176052;-0.0028165776564855055;-0.037729503643490286;0.017437343397582156;-0.03966469045735546;-0.027493754674032547;0.072431530750074;-0.03270966928044419;-0.036214080309575514;0.05317439895543752;-0.04431671959158463;0.045127954119876273;0.09682553137356373;-0.04734762610724666;0.03090866669379491;-0.024920307290091023;0.0550203663435847;-0.022252979161850026;0.005267960603937;-0.019325574463374823;0.05797267766212763;-0.0247108453369546;0.06810141808489342;-0.07718339475350755;0.04326504617797994;-0.01882493171770909;0.07413185291444596;-0.07783114463224797;0.003650568957705963;0.019698947862044777;0.051837554033213634;-0.039545973613930044;-0.05552743283060138;0.014583634217190153;-0.012095076591698548;0.03429113427383548;-0.056038468009695745;0.06784374110789046;0.08495940035231761;-0.004468722421078278;-0.06402893090039649;0.038591754032336695;-0.032687872851748484;0.05366116835200238;-0.097121312385339;0.011124255941310349;0.018249021716583977;0.03869346114368577;-0.03420868743484509;0.08010199318031128;-0.027572065635546525;-0.07293538888714723;-0.010140532398600619;-0.09963590602424384;0.05823859195444764;0.018412599540544056;-0.015581844260748642;0.04989324583245364;-0.012480824549476813;-0.08229159243021499;-0.029163454346911657;0.036675268699020575;-0.07618767718370188;-0.07493336744635584;-0.08462746688860266;-0.056326956692923424;0.025382563572731887
-0.035337656451447624;-0.020007517983048714;0.05086131771055;0.05550610474365955;-0.005467394065967163;-0.06896969848572546;0.09924553464441438;0.08008306071243115;-0.06935707479983955;0.06372430134474763;-0.03098574649139943;0.03141119272526735;0.09145024274828853;0.05008412279692323;0.03245148126148467;-0.09300060324200801;0.023295732651105697;0.09820425697796567;-0.08803836745193061;-0.0064119017827546365;-0.0976877824269155;-0.07694533648300904;0.02453646531395473;-0.04091705826098946;-0.07486738401256904;0.0719430385617556;-0.07378003954998691;-0.06110296935618911;-0.001462706511569295;-0.07774261021036757;0.0836035389592499;0.058236248269646046;0.01727989389787596;-0.025238331284840307;0.0941106966924089;-0.02184893713324325;0.07968264946040671;-0.09736886515219495;-0.04719335323167036;0.030717424060708376;-0.06780615282332333;-0.01542162900695683;-0.07930488906415911;-0.0825016850336942;-0.04304839574026598;0.04983477556607269;0.0879409933460728;-0.014523326080896654;-0.07950025957301897;0.093416560989967;0.04518422600146002;-0.034060611163884244;0.08715301235293524;0.08201818507184974;-0.02291337864752814;-0.03566880953423816;-0.03288935222584166;-0.03595963647918836;-0.02551987501312479;0.022886292800733177;-0.08273144271606175;-0.07832620975438309;0.024961483743287077;-0.057115307242473934;0.041782284637530226;0.05862375259409708;-0.013495170774882714;0.04966914985303533;-0.05021579244793981;0.003974923585782927;0.07464025009038591;0.011097844198183202;-0.08073984435752807;-0.06914032908079211;9.730677857007902E-4;0.07889688252635957;0.08894209775713222;0.0380072401251948;0.08929502798240663;0.012415775908429835;0.054175201349902585;0.022915319540784546;0.06526509902932584;0.06557816054827761;0.07806903892293879;0.08729945593019625;-0.03338561311253273;-0.02964097110365603;0.04584429113801519;-0.04136008377303915;-0.04694409657487151;0.0339088624052436;0.08813798186449381;0.08605966247795965;-0.09144320753713112;0.08148408010338717;0.07813165699641494;-0.02556889722610381;0.02335697221701563;0.023632272890079936;-0.03228140272280833;-0.04247656679014411;0.019094792499914748;-0.09638021198074453;-0.030472281614471797;-0.020833656933350528;-0.06237306484793004;-0.010121703926264061;-0.0855267020965283;-0.04917996532888396;0.052606162326574196;0.01828593933187876;-0.08139865029191647;-0.01539452731266569;0.08260730401162583;0.06038791918432876;-0.021645105232759157;0.06276290638048496;0.08556827784042317;0.0962001831320555;0.07998201521355314;0.09767071061816382;-0.0034604591146692315;0.004029193423856131;0.05666219047995047;0.06097074717209533;-0.06578802087111349;-0.05522039582552001;-0.04397214880543792;-0.0839896391144507;-0.05358026164039425;0.014510926972455457;0.09110972098008252;0.07472539152477103;-0.009208883146708272;-0.03345685428127308;0.03933612178627047;0.01825243273647567;0.0539471429125615;-0.03679955587255028;0.02706789059541173;-0.030027220651681938;0.001124108428752768;-0.09267879055212713;-0.008747852400755568;0.0903545070310971;0.0178227833548094;-0.07504845526770641;-0.0548702032735823;-0.025126789807407263;-0.043936296373026075;0.02317858785402227;0.09153303961950632;0.07945597164453122;-0.06994556886212389;0.03084899549091913;0.025160939866382598;0.07230718683902046;-0.0804487834014652;0.044957043177373424;-0.055677529773385165;0.01663900273562824;-0.06607582923906227;-0.04822423668148426;0.052988125687359916;-0.07425693840790218;0.0659114760958108;-0.030656229755521916;0.0755927437280069;4.469809988430495E-6;-0.07872518247160439;-0.03329073579028444;0.02988372063488004;-0.04512722318049398;0.0490447792052959;-0.04462800678266335;-0.09278964495291471;0.07946903265652858;-0.08322856146273235;0.01965285118626406;0.09500164077626802;0.02742186388453524;0.07617204225595434;0.05525991422747423;0.04278139582083171;0.034689666199399144;0.04679418881494307;0.01910881629526269;0.02092118319137433;0.08354007695606833;-0.09121059111960704;-0.0415056779788332;0.050432950350828926;0.0875219096567591;0.040618791501964624;0.08399914959157365
-0.007544930780217826;0.05917880646831303;0.06348862363442262;-0.021934946742010422;-0.022313214470824266;0.04041801495344913;0.06154083674748331;0.08994028984233779;0.028877861007355426;-0.07513844814201652;-0.06470065378481832;-0.042243380940794745;0.08358159192211964;-0.017828666007562347;-0.08439981500131827;-0.08022185882036573;0.059731065531894834;-0.09374627498900932;0.016209692331647957;0.029403161135957145;-0.07680000480372828;-0.04758690559989309;-0.06443828061273127;0.0722895770281883;-0.08563887817656263;0.002938029773670997;0.03152126418456297;-9.869305347047774E-4;-0.030243391518725668;0.006267916761297454;0.08780867776004567;-0.0670432780745675;-0.06465341891138221;-0.028198363193450524;0.06669488061367332;-0.009330513061239137;0.009403367205527327;-0.029425763629775586;0.099804891013033;0.06072022809048011;-0.024029334976185687;-0.008558563611430703;0.007343301161751414;0.027112912252152344;-0.006091605352898391;0.033075942280048454;0.05578202565582277;0.0946177792447867;-0.008104492443850697;0.07399360484106138;0.06502714666271911;0.07591219947688674;0.08636467400911715;-0.04400856606988277;-0.04169173693610926;-0.06578584970023221;0.08719428168834464;-0.059206270073517336;0.011510332955079305;-0.059869809086445416;0.08508471714718505;-0.04463361123784864;0.003394517815881598;0.09772896749729798;-0.07510247288268541;-0.07172621397450621;-0.005868825865621388;0.02239022057332203;0.06083756685295144;-0.06238353058340338;-0.033205454382785424;0.011768511029403614;0.0622098430495934;-0.05949788048921465;0.05494551515927393;0.04124974127905387;0.09258428556844062;0.034666196865191096;-0.05084490463891278;0.03656775985737176;0.020553272314293297;-0.0852272008037833;-0.07370195722565472;0.028787349984715355;0.03686826892535072;0.029090311948284653;-0.02232751883980151;0.08064892687927147;-0.049406430491103714;-0.08334949132904555;-0.0745219235503008;-0.011690581888673515;-0.08398343768402648;-0.0893362213427307;0.011911673765972644;-0.09119723387750336;0.002405668847762568;0.03087726536171606;0.021116114960375243;0.04108262384976852;-0.03969150048161803;0.055726765041703236;-0.04855568745942101;0.09729887477835295;-0.039065483863547336;0.06454721018803153;-0.006022677413573846;-0.059001405281167686;-0.010732168848255494;-0.02922920468537786;0.09296174782934197;0.04023125238378783;-0.04309240902744094;-0.07104432036206115;0.06480822906656847;0.08607693199683444;0.06723468135591934;-0.008347643118443673;-0.06548050149244085;0.0609053712597252;-0.08664467021025611;0.016528895026109394;0.011892945005447617;0.005712880449486965;0.0183735079217677;-0.020159824761742898;0.07456923901967005;-0.06782702866272833;0.037895723691614785;-0.060759559471316685;0.05097506702963375;-0.047424140161949624;0.03627336701343731;-0.09289752824491088;0.00343469621444506;-0.04037909946351897;-0.07906072960030382;0.04492080068181867;2.0155204065112897E-4;0.07806512908103641;0.07329670688288586;0.07004037407972497;0.03488759264587904;0.03152017657604131;0.04997068688246356;-0.022133765263521593;-0.09725515934159855;-0.0797711721343039;-0.05516706639663212;-0.07412623115587576;0.07547997343009158;0.08944157796752586;6.342638913059417E-5;1.5318852100106028E-4;-0.07024056679263785;-0.01694734086802023;-0.06638694780169069;-0.009114109912928048;-0.020710885577320856;-0.07655604055591786;0.010783428806898504;0.04006456739757977;0.036329190888339136;0.0360244318932296;-0.070758473645488;0.09293279449745886;0.08573127877136386;0.04574158914638721;-0.09036175507709426;0.08403403967175627;0.09306161168175467;0.012880747187801453;-0.011898251987035355;-0.08057594883775061;-0.011899425257320018;0.04675676093027187;-0.007772160170051293;-0.021485358113009584;0.0659853402142054;0.03844206003692191;0.04879124065469259;0.052180893781867854;0.030489162506033923;0.08746385245897242;-0.08074672284802671;-0.04182198519416296;0.06740712686159986;-0.03755763704992646;-0.011757100341928561;-0.06942199044501224;0.08074505234306581;0.03193119718335363;-0.05946037937915425;0.06685039100806223;-0.049615479347415815;0.02925975812588552
0.05368855596769448;0.03437534233555811;-0.022876244623307035;-0.026033069557751753;0.006229172724016727;0.08759167035781143;-0.03052944852129806;-0.03754584952122242;-0.0443789542481871;0.027646014228592863;0.09629003077788034;-0.038224901189897145;-0.02469856685181368;0.048323836890496547;0.08038660123837657;-0.006981666890317345;-0.04308895006330287;0.055206753658370994;-0.05967401988629498;-0.02547175492186053;-0.018424063028281007;0.01941489392908921;-0.09872021352361188;0.010248677979586729;-0.05676499002542375;0.032956947486618565;0.09040174024534006;0.054762807170054634;0.0673542644338336;-0.030375332161964905;0.00822102681395978;0.06414172873618501;-0.09002969226241851;0.023532703724203435;-0.07523497903082316;-0.0494965475186179;0.044857440347845445;0.0968186229518061;0.08760010235961432;0.09822290398204486;-0.04928604222017772;0.03868205880519163;-0.05129424479901108;0.07102272319644376;-0.004384956701307896;0.09985605745781476;-0.08192605258839242;0.041713612404923245;0.08258113546058779;0.05976763997087417;0.0341520587225235;0.0101421453644535;0.06796215775540113;-0.09194120256126688;0.004724398705480054;0.03994293590456405;0.09343968635278993;-0.08219698044937457;-0.08344615671365355;-0.059018880825829935;0.08280054139279522;0.03466675736382524;-0.061918338091190385;0.051910264093010444;0.04623697768254409;-0.0755709864273269;-0.05328977503596924;0.036059780461566465;-0.0922198249742354;-0.029313442749975493;6.697667707723093E-4;0.09390499606962213;-0.07442477916727404;-0.004763837018243192;-0.05480294187753179;-0.0833378327188107;0.010057476553317943;0.08553942322133412;-0.006269759644077014;0.05808967347632302;-0.03830836689301862;0.05683966628803325;0.057050821850014005;-0.01463417057838845;0.04778644019305725;-0.04908529377145437;-0.09321975656217196;0.08495267712554658;0.016999608020163023;-0.02088699062521493;-0.045634916581000634;-0.0543557510316772;0.010498909387598981;0.054235181582860004;-0.09733854538374098;-0.08146310558022823;0.07034717141458718;-0.07601349980546934;-0.015544182239614249;0.06244822320550533;0.06853027595602454;-0.08185958212819278;-0.059264128762342466;-0.07664958912103721;0.08414898356516803;0.05221704199794305;-0.08874817011116234;-0.032327486114952536;-0.05835315185544696;0.09239448370929318;0.010884920461056352;0.09186567322794012;-0.01045187268008027;-0.020464672506799064;-0.05243346905821838;0.06441401399202212;0.047031113094295;-0.06537581000891396;9.679556718516363E-4;0.02151321461289986;-0.025236097794251885;0.023576714564490536;0.02590728645852164;0.03392765407859524;-0.06321884722844369;-0.05370582663952546;0.07039653009549576;0.09007629552179286;-0.08821805051735854;-0.06699794315563586;-0.0945213632631889;-8.136902735941948E-4;-0.014919497046455316;0.0803250319664551;0.05248062265128481;-0.09160732832281371;0.006542878902350127;0.04021472145646826;-0.03696439359716519;-0.05104902457725156;-0.06480536466120652;0.08676080282790286;0.05820308421867279;-0.020730287163783043;0.007785684901761458;0.029080056792533893;-0.03475664018136593;0.07625743213793007;-0.03354962527310308;0.01289195165294861;-0.09592142080593341;-0.058480819376193385;-0.040297780155392385;-0.04094647971159975;-0.029800543284168368;-0.0647743186602874;-0.008645546311386448;0.02424024340317052;0.03675321451461161;0.028017878902936055;-0.06644108481583517;0.03712380803911913;-0.04422504277089217;-0.029901637698600422;-0.056992478858720164;-0.037188366840615106;0.07700117126005698;0.01670042371338676;0.02344208223557491;0.0789770933998985;0.022430620287473196;0.020414438850524158;0.06296974317559834;-0.09097650657542017;-0.044225461540208455;0.0033903954565793065;-0.058717050842222986;0.050788801349551466;0.06816444900713664;0.05622439476643837;0.049734373643502555;0.06371240235739534;0.06496264186439746;-0.02462388113219874;-0.0036812147948103863;-0.06695102937108707;0.08324683449459455;0.047253159898767466;-0.022034535854398227;-0.08337124010213809;0.09551707177916036;0.014637337923801577;0.09414625841831811;-0.0021723352964393428;0.06239956213455372;-0.08008292970997731
-0.05134402083080099;-0.08217556011247647;0.08559868930783876;0.009628988013677314;0.040523379303544355;0.04088648803365158;-0.017925111442054414;0.006101053081897831;0.08036256797177202;-0.08166020270027884;0.051402870238427684;0.00452839063555803;0.0850761751811567;-0.039957419216641046;-0.059509018323149455;0.037602343958891005;-0.09832673358850941;0.09659621931065362;0.023319216745387172;-0.035147979207050414;0.0900664581826906;-0.07880868912462202;0.008079963274028906;-0.009853070601106712;0.05506434306675784;-0.0630995158073048;-0.03991803515236787;-0.011651793374086394;-0.04062317587394304;0.003393891981722394;-0.013995211580651604;-0.06911498000573041;0.07230255241553538;0.07646722255883129;0.06356740869383767;0.04007192784222141;0.012869225878019239;0.06443620447080795;-0.07959876154629236;0.07327175456365406;0.03154906157050427;0.08736565106237604;0.06689449957889856;-0.05945199755179904;0.04127331356679284;0.01826504045146457;0.07000122157961061;0.09323942194647533;-0.04367872391208088;-0.0902031015871928;-0.08151502794446419;-0.014071098639894003;0.026760806278173177;-0.03429194261554565;0.07479373379491314;0.010567437453337547;0.06646884177701928;-0.09689184211312432;-0.06526085836615672;0.029053437182358033;-0.03563783044564735;0.06988366885271702;-0.07662038986609643;-0.010643694270024068;0.041320025676113425;-0.0690501374838136;-0.05601629889920608;-0.09968740793453577;0.06938181117476913;-0.08229287433151829;-0.03332359743903819;0.06151187406313771;-0.09484521260512807;-0.05301777111088253;-0.005652252130650459;0.09722871453868509;-0.09403195281359616;-0.041100964720023295;0.0756296113385054;0.027146040830882318;-0.004839242600011562;-0.002462656603467714;0.048223245709555246;-0.07834564827962925;0.021994153480883627;0.06390257414599171;0.09058648253483001;0.035800263358786805;-0.07797164553240953;0.0076430429818361845;-0.0640337319897957;0.0934969512713881;-0.0745933568729032;0.09211564849160467;-0.04001131656982804;0.0023980403153629065;0.08334133487548304;-0.03318509421413665;0.09149514396706757;-0.08012429007462958;0.08719711306888361;0.011844229801121958;0.016040072956947343;0.06183265181341138;-0.06008101083267257;-0.018977466288311873;0.04244190103987305;-0.05138322237076196;-0.09384611168663858;-0.03661683632508865;0.08500579697610969;-0.08390357377206502;-0.08473374328990263;-0.09276360389375321;0.07751310868275288;0.08499311647946303;0.020549656717717996;-0.09336938268858497;-0.020200989537800473;-0.022142276979979572;0.02828799026819237;-0.06303849549928506;-0.03628349076023851;6.15207096249154E-4;0.001921416377348245;-0.05535747764444843;-0.02748858085387544;0.06439195869183961;0.01942365720682708;-0.05483585858707316;0.03610956336192542;-0.08662107304692518;-0.08390101912276833;0.06453319178583883;0.09454394417835985;0.04577284877090254;-0.019641348566451416;0.07099792954505915;0.03272626752522173;0.06737675307063404;0.08663821390769874;0.08712834986227325;-0.03800628124711574;-0.09876980258093869;-0.05253142429380995;0.046735418186265754;0.09733841719954447;0.09167864190482983;0.045815356225655884;0.0667768983485611;0.0739536830016396;0.08758039713358409;-0.030847374797255175;0.04131155510987258;0.02270758831143889;0.06688876715006181;-0.09166141184978845;0.03272758799527936;-0.018618955785642988;-0.026364052215943096;0.007212439432050369;0.03488515073936174;0.056984113368673345;-0.02161561664915712;0.05293316822203123;0.013476914027214182;-0.025809198361687824;-0.05549973376909059;0.08243256083134676;-0.0091752777557369;0.045909257834204575;0.08514307799937368;0.04695633442873115;-0.0645055968686627;-0.015769344933082283;0.029653924405967785;-0.07548116714307179;-0.058475141387146316;-0.0665231134713491;-0.016935357240793605;-8.017524691220218E-4;0.037731662842733577;0.05179347411997254;-0.041261295179995196;0.036550969791267984;-0.045540560771513694;0.09371085098080256;-0.008306163076559764;-0.023974796875960963;0.09332130867087537;-0.0466763332040137;-0.0010543513694064588;-0.06589451048819653;-0.005122124691345625;0.01621432641052381;-0.05674973370300127
-0.03397857673611089;-0.020127891428881745;0.03797357502556678;-0.022086662286261508;-0.03079463487559951;-0.048449279855340845;-0.08185259176027052;-0.09712835981938167;-0.0717144366072648;-0.010233425157244194;-0.029333703098951003;-0.05395732323032605;-7.474594869168738E-4;-0.05802920187052307;-0.09471085533827306;-0.0010233241603009036;-0.09046166072821943;-0.07813275975950561;-0.07067897096131691;-0.017865524979167866;0.01109963143637735;0.06341617019948617;-0.045159680365045744;-0.007346133057953841;0.0651973575034254;0.0460378677521964;0.05389732129797975;0.09625597581319739;0.06041702725731346;0.006281179554967403;0.042623197104076305;0.0649823778970727;0.06957552901595113;0.08188586510242332;-0.0050856045709418984;0.03374267093195221;-0.06348834913755903;-0.0039182015725113956;-0.012665508359362018;-0.04880867620613952;0.050359275754756516;-0.016867868917115225;0.059101805133654345;0.03424161797808872;0.012753644010966167;-0.019458481731027863;0.03450779567774517;5.636784991394361E-4;0.03252271772751253;-0.030985396720790523;0.09983772769143451;0.04970250373957577;-0.007232816484698423;0.028164109928800807;0.052841756843179516;-0.009008924917070102;-0.07316578394970662;0.09413174174572458;-0.049968938180742044;-0.0247772938235737;-0.08745825831226313;-0.045300585762627146;0.06555021619390786;-0.022914308040922204;-0.05188861089340627;0.0981321898854528;0.04510365916793774;0.09665263222592602;0.008619986023708254;0.04390844336886285;0.08939054274186356;-0.09924442019449027;-0.001619038924988575;-0.07334310373915386;-0.06627112246481093;0.008867534873535574;-0.08748141165699225;-0.020965928879227366;-0.09597351018709777;-0.05685044142355571;9.960315087353955E-5;-0.035060056937186015;0.023982751906874683;-0.09138789989322738;0.08153820839486767;-0.04861646861173206;0.024381747534047565;0.04687803520103906;0.014592116286772594;0.07547425916531944;-0.03743600922325345;0.015824029549327906;0.026118861053500142;-0.03757102534132151;-0.0013595530445273674;0.08741593237547013;0.030863066603458;-0.018851415807492167;0.09473909534690961;-0.07265711593925256;-0.056103006795211546;-0.014167654982474853;0.0045509346435959885;0.02259399410630472;-0.040061698727795525;-0.014738157845868405;-0.09733119839137361;-0.04308958143071635;0.020620403454787842;-0.0941991561172714;-0.03331102062557803;-9.152655919138358E-4;0.019892424727664088;0.069821215080313;-0.030227852623963797;-0.034631319126172344;-0.09192262006543617;-0.0018208300573262781;0.06733672827338882;0.044789233718230625;-0.053281401062669945;0.06353016312826057;0.06878435086136298;0.03496213001449994;-0.06080378235576694;-0.029315140370687387;-0.026366403617404388;0.0260311105269157;-0.08380314065467163;0.020872611556522674;0.021164831176391383;-0.008350029048110524;0.09047141163457961;0.028692933993257952;-0.046344546804728506;-0.0015361555271456995;-0.08808276875948938;0.0036996270353161637;0.02551153201681189;0.029335013308582514;-0.04812726335705611;0.08297610031612718;-0.0959218126796543;-0.06940229461305623;-0.07538613054099702;-0.09327527826787257;0.002637880404329815;-0.06008469395273211;0.014393522892802352;0.06580679628347605;-0.03791792608825702;0.028852618016644238;0.017966501700836177;0.018334168735883977;-0.04503143292488679;-0.09693527678127507;0.03539430440106414;-0.028172744981875483;0.024153066258398123;-0.05695688888516846;-0.05397463590185925;0.05811844788738482;-0.012089559843659933;0.03964886441269022;0.09189815695308357;0.09009396075359963;-0.05556266366816601;-0.01879834768622779;0.05741598829068659;0.08253116534615257;0.09085473001185723;-0.017317592207993754;-0.018006063637914724;-0.056297426390281236;0.03530525572275467;-0.08735337077332471;0.07147995265032903;-0.09991834314152144;0.02546690136906038;-0.0302657489691585;0.0845036611573114;-0.09660023075403984;-0.05721883588476038;-0.0117988097193827;-0.03849201775788516;0.08746754206090193;-0.08107968366466296;0.010686633171682086;0.03707033227397366;0.09158807334475955;0.01949501689221078;0.05646923999596523;0.030221532515351646;-0.05194655276552549;0.009730017827226115;-0.06524546155078667
0.04282239067595267;0.04313003984283234;-0.032187653062390714;-0.09492523503680801;-0.0873408168021344;0.00410219811672341;0.04384285725377196;-0.029328444275718304;0.06577110399421102;0.03935799740392448;-0.024201372241394625;0.0057708552676660335;0.0916240831849959;0.06416467485468877;0.06864022084293003;-0.03605143240825408;0.025097099503139597;0.08169561619354246;0.018674420839214265;0.09232453651854869;-0.039151374624945647;-0.04296536482370257;0.02250959782401081;-0.014888648091676143;-0.05151769379440179;-0.07870248502128213;0.048417428621311986;0.05008378766319427;-0.07896726321593767;0.0736747112744944;-0.03235875663509573;-0.0671764869823884;0.09464356954246872;0.011113230648815059;0.04416784049477246;0.046132908917017934;0.04391187199441082;-0.09148015077150969;0.0637062077892768;-0.014199125407786672;-0.09477583575542117;0.09678169120428176;-0.053906908297396194;0.07894250919198212;0.08951110570106743;0.04156446053154031;0.03007194771957994;0.007423651532378589;0.09619947629339651;0.012762569443648647;-0.054631608749633624;-0.02357959896669566;-0.0882585324557264;0.05263947557345697;0.09421177726001861;0.0569526028765428;0.04895308397870021;-0.09988934011420623;0.052929170018189226;-0.07873039162745576;-0.06250516994426343;-0.0907143642975008;0.07396443297984578;0.0112554459102647;-0.08882048054956211;-0.08770040493698368;-0.08034817546382296;0.03255974679446602;0.05439359870550378;0.019629185402633434;0.0912999974000869;-0.04905021143674673;0.06776991244077471;-0.07449888326237418;-0.06938113857207551;-0.0175819483387077;0.09235140311781562;-0.00833372412116598;0.06524837576790657;0.014868805146681069;0.09183681692505086;0.019726151122366198;0.04612480159165269;0.07674626163768072;-0.06589892430397312;-0.009637682417657695;-0.018353332320731844;0.07675590506989638;-0.06396557015176947;-0.05276600544553638;-0.08792094209783859;0.07886965829201392;-0.06015378343732716;0.03397250207146754;-0.01263838507694566;0.048094668762562326;-0.02566950178478493;0.054615758865837694;0.012462018843241857;-0.0949755470739434;0.021192474592578184;0.02098978289391333;0.006643394091608926;0.060980298951219786;-0.04561389868014076;-0.025041567926903083;0.08649062188920095;-0.029410165280384537;-0.05048508949969049;-0.07087345666320666;0.02726702324771932;0.034938782540148094;-0.02930038515812297;0.05649572896183194;0.0831496326538646;0.015970875812604077;-0.06608238502676259;0.07773620049718474;0.05411758115754234;-0.01839987401553897;0.018671083819610773;-0.05584800966871999;-0.024255084884172676;0.09103857015824529;-0.04605809838209063;-0.004918995188178135;-0.02212442456528227;0.05113176254776433;-0.06025675284714327;-0.019614535083701673;0.00913491340866393;0.027033259884342492;-0.01782077166051077;0.08185228896912652;0.056458620852269686;-0.025661468414784228;0.017775477896624176;-0.058262920729239914;0.002296599192431817;-0.02516233211817713;0.08194521907602939;-0.08765061489095766;-0.043124282026059314;0.004335377418145714;-0.06319311352963038;0.07749106688221366;-0.021117842750755816;0.03852585145224546;0.0151709052346604;0.06472351340770197;-0.044849603820429955;-0.0883009378571657;0.06036482571160892;0.06685367654085955;0.048422640967500874;0.08309422569801933;0.04566756024158031;0.021692841580884095;-0.058031055819063385;0.037005115935525856;0.04247506426995812;-0.03894385205159663;-0.08916515795464944;0.04528103258178548;0.07292128082559887;-0.06686501884961307;-0.06829002130836756;0.05465633558755348;0.03052986280015843;0.026788298269477318;0.006887628429713202;-0.07361961801303368;0.08157361245119746;0.08196320196366144;0.02251164736307694;-0.04809103308419589;-0.029829776079516243;0.05736891208153627;-0.01271597090589327;0.09595719749256848;-0.058255521680896254;-0.05530743326416268;0.0050326197926906235;-0.022997021360056102;-0.027661468976423784;-0.03194081545139381;0.023015270497775547;-0.014630703987744825;0.04535360653233017;-0.011897746306559223;0.067563226791331;-0.039697509644055384;-0.047342139682845376;-0.058074504788590824;-0.07035696710144841;-0.09999716284677365
-0.08640320319793862;-0.0065996698163024725;0.09514293896891265;0.0623527994502345;0.003294209493846331;0.042657748808198004;-0.07183379264213258;-0.07087261216380017;-0.03926685470458198;-0.05070276808232502;-0.08965958183455601;0.05276008895552306;0.007457878233755627;0.060749532206618384;-0.08487167226696268;-0.017723088952278337;0.04933964499540383;0.0053941406756994326;0.053352438584647416;0.07380019413739805;0.05670023946867156;0.009446316410350736;-0.035377971469317565;0.03106282144808664;-0.07781075111737504;0.027292612000850258;-0.050922099273418;0.09266257984820211;0.08116222750861049;-0.06313199810531785;0.034846692485604236;0.08532547184039385;0.0459087462538634;-0.055168421346258815;-0.04117681121716386;0.0962358453425261;-0.04706933575957611;-0.02928796823558824;-0.09812443427670847;0.0825302445164561;0.05157268700858875;-0.06514189033340279;0.06429512886338012;-0.0676590154132515;-0.02734120728746646;-0.0380567050076821;-0.0067113719499963115;-0.08068548835269135;0.007389565637691484;-0.07006193581911793;-0.01846219085054164;-0.04868137214012485;0.09960722127191105;-0.05612289169341636;0.04432741129199652;-0.09590823460609355;0.008636545939121706;-0.005587041188275951;-0.047530547713613425;0.051876574634494826;-0.06473849995413135;0.07306154219877678;-0.05077196912390865;-0.04038092389249009;0.019998990348780304;-0.040790730320218294;-0.0883243079922836;-0.0148962115991913;-0.07931737616813879;-0.03163474107862532;0.03038872043070212;-0.04556578941221239;-0.04452898618341419;-0.04319357026073145;-0.02388457208664456;0.020557179813826515;0.05774669957914344;0.014677215863281232;-0.001971932455705233;-0.007931373117335244;0.03097329482362582;-0.05223024702640913;0.055395486713467806;-0.07167263180180293;-0.08556997366811736;0.04762440366244286;-0.07700977295065058;-0.06305741627937018;0.074844481189489;-0.0197454136795467;0.030270447145025248;0.08098972245879152;-0.0757041905737058;0.0857139292306428;-0.0046466378771362615;-0.09415134592478197;-0.06863768849302221;-0.02611215211780353;-0.002976222103319895;-0.07065311813767977;0.04033880896546371;0.02630563242109063;0.09149754635809992;-0.09607017418191177;-0.057549166933334256;0.0694333163582142;-0.07461343322732471;-0.04413096163340738;0.05334415777546811;0.0718215420435375;0.022288396470123956;0.034058534094707604;-0.05727013159906245;0.0356468079034728;-0.07234988886913125;0.05973823609699583;-0.06508344203062338;-0.09740160278956285;-0.014967320779347967;-0.041477219933145154;0.05306302041289246;0.07472758299823865;-0.013371398368012336;-0.022597100388655034;0.01533615539773725;0.06278947564389051;-0.008137851186292289;-0.05807435063648217;0.007760491899387614;0.017772192548725724;0.04012816486484144;-0.007451101293254478;0.05639732346387058;0.07572198621933154;0.09720183003539865;0.05420445491985368;5.928797934989793E-4;-0.04836302979679701;-0.030421519506668493;0.03939333011718055;-0.07061337570986104;0.05511629568789925;0.09697904064221921;-0.03732425845013479;0.08477233467461784;-0.031384469394998935;0.09048325786149652;-0.04679265975325822;0.058356129539680696;0.028573203640085587;0.02222940850432334;-0.007987526209989965;0.012057181796467309;-0.01966258350803514;-0.007654172064433751;0.07197415587617215;0.03884846275709236;0.039735549063649456;-2.4393773076769598E-4;-0.01894047634001024;0.04613637480974769;-0.012705806730968688;0.025726047602411622;0.0430886812603089;0.0922297112598788;-0.0544696448921943;-0.09750166103072669;-0.08460614412614212;-0.06455003663368669;0.04539925168265138;-0.015915166701874983;-0.06099521167903985;0.06578650834939245;0.07489783862004709;0.06226619180856163;-0.035464459441260296;0.08060184594380984;0.020987535267349713;-0.021927486464461896;0.035736647921991216;-0.06125646926937021;-0.03458657002715286;-0.0325034284826355;0.0027159567416308317;-0.018478923005473644;0.07566146660418588;-0.05008268418570541;0.058120293006146406;0.04435765677530992;0.04420915507857559;-0.08131194757348906;-0.057890708670405605;0.099527932702165;0.07238930843291991;-0.07442983592875947;-0.05425828461321711
0.06824502306702215;-0.03039944359768676;0.06416988575260205;0.05743374601765558;-0.0805389761782077;-0.055737773792934056;-0.047737905295831086;0.04343767654322994;-0.0669027498051576;-1.7455026339877056E-4;0.08886182426237585;-0.06917142675900984;0.04702170608027498;-0.08268371931694424;-0.0808694805192549;0.07027555060422724;-0.07005691135475041;0.005300721860018245;0.07868089931686528;0.09591326270862308;0.026492000616541972;-0.07117437541672347;-0.09142942368957507;0.07091842308152269;-0.09388829639532191;-0.009196523725567271;-0.06674859643337985;-0.09006489456652207;0.013982318152342813;0.03247313639455346;-0.024032166555905635;0.0032816786014649574;-0.029946125145488597;0.043982715751547025;-0.050425621982195246;0.032911371859374594;0.0913652157641218;0.03180473106917009;-0.09453140447017616;0.06638733546934214;0.023177370803988073;0.07660786441323209;0.04931279862591356;-0.05732761386588745;0.05605143375307825;0.03337363284406189;-0.060555948242508276;-0.07767758753163473;0.07885273260969031;-0.025039659571989156;-0.027651252274128346;-0.035288271341111926;-0.02823553020376189;0.06098082461330154;-0.07069548100898171;0.01620753059375246;-0.02125431280604964;0.025774450755751133;0.009268802708165172;-0.054250197230415936;0.015469933405259706;-0.07758203646014053;0.005320039492474657;0.04808201575230217;-0.03336748399207071;-0.06586614074393901;0.09543389595733007;-0.05008295612622025;0.005615948306610941;-0.02988105693091163;-0.08689641535330846;-0.09938822483663078;0.029854540237173738;-2.7014064068767163E-4;-0.06071010216604631;0.006462999448438533;0.04684083235879599;0.04712643722351381;0.014413066176103578;-0.023473856543824986;-0.031431949214478366;0.06788771602683072;-0.09242481583290148;-0.012102452208691244;-0.023695696751240544;-0.040220376267342296;-7.149688799748533E-5;-0.050309979626803836;0.0029458839682984517;-0.07823266944908132;0.04008140576563146;-0.05252952053935314;-0.053201511243022484;0.06852933992108998;0.011660493857869825;-0.0162825054155515;-0.021513101765016238;0.032144470569509476;0.01662374972757452;0.09489573164803952;-0.0682050384788419;0.038286937943892596;-0.07735369564194028;-0.07796678855258368;0.079589631828445;0.031178802454840338;-0.051123094414388254;0.03922647408696059;-0.012415960164843517;0.03971308882238361;-0.028410217197735843;0.0032877581935985;0.011546353487550648;-0.07342498535545766;-0.08026697244201537;-0.022212658787812603;-0.04233731978872706;-0.05714724432431533;1.0141634937847754E-4;-0.09396668903462335;0.061113784610143024;-0.07745675923767002;0.042837889551633146;-0.039929950594152365;-0.04547292043709919;0.09452262881434781;-0.00980531781332876;-0.02343423198965551;0.09581671243376427;-0.03603496317598408;0.06496153759786003;0.0054986061283704285;0.004026376810684712;-0.0791427464775621;0.04969503672008285;-0.05616036121122199;0.012140797983089022;-0.029828784746649392;-0.016140341280882736;-0.09602953549094635;0.08743360604182823;0.04642007315882851;0.0432177265039953;0.07536194161359144;-0.007229247852141588;-0.025262294933207405;0.004281918753127778;-0.021920272623490764;0.06639018820769843;0.07128569738026216;-0.0836292874477669;-0.02202862787212148;-0.016969794007990036;0.03770574244182562;0.00478351346491597;-0.06407120248293408;0.025880216307378634;-0.0025004131755060888;0.010838934852005405;0.09740894308531958;0.04667948293046903;0.046632637023850704;-0.062003789195066265;-0.006565387585938234;0.020390777828949602;-0.053678555315439774;-0.0819938136291924;0.02058639499145691;-0.0887724830820897;-0.027120657809653434;0.0370151152328104;0.09503578724041603;0.05841454108394423;0.057658543765394865;0.06877080400648292;-0.06554138765621012;0.06291418538071478;-4.58897060466229E-4;-0.04944261124845391;-0.08829313454782609;0.010450907321284147;-0.08690477270023114;-0.09278850207547384;0.04540629883509237;0.0015193174277092353;-0.012572603788810088;-0.020450809135884623;-0.054814039477721635;-0.024338070075829818;0.073924903011861;-0.05424049561891145;0.013035135827091218;-0.08484538820175783;-0.00450252246001312;0.037797139152525916;-0.08267797756506708
0.09233925638263449;-0.024409340073042227;0.0495333283414697;-0.09770228528818879;0.08519467292911911;0.022157705635630492;0.009400414110500008;0.07344798416760409;0.027338391202774315;0.06994087956965414;-0.0525076361894328;0.007844471938073944;-0.018496476721410665;-0.016173045680175663;0.02555990678737155;0.07868603221183973;0.029636465409918156;-0.043293994678275084;0.018065585169380532;-0.04549014079407317;0.0581127272732172;-0.0028236644315971643;0.03344056118657235;0.03609127573146112;0.08316979143523381;0.09560279240820554;0.04691159594392358;-0.07215996725921343;-0.09049256713823449;0.08144948497412657;0.07974316841526924;0.005540006255242064;-0.05589252304011914;-0.05952780516772789;-0.09553373146622234;-0.0614316924388818;0.09767660164249123;0.04726967957208464;-0.018358064108120464;0.052268871676463685;0.09771728858936554;-0.013142751019638022;-0.05906574910417353;0.07494459061597641;0.010083603907878796;-0.011660003870170368;-0.09225603209137943;-0.09602881821156782;-0.08001991487419934;0.0744271027675445;-0.053619451621569385;-0.05317492404086668;-0.04128648337156389;0.04244280517616372;0.04172701810872392;-0.054643457531520695;-0.020890984218923395;-0.0643464812478555;-0.02642153882806808;-0.024571537970281068;-0.01964669779030459;-0.061855165797324;-0.048688309591394835;-0.07091981375874051;0.062129750944581924;0.032146052243692436;-0.02872987717635188;0.032664898210176624;0.04826116581090817;0.09361403123695611;-0.064775627071302;0.03194813225887083;-0.03832197421490156;-0.02994782230109297;0.025495883030344724;-0.01605605691679861;0.05538130631247945;0.0839544935140227;0.0708071216963782;-0.06469549680452105;-0.09182932957680601;0.03592859572222332;0.05664879654762209;-0.061632215228168974;-0.020739657670646408;-0.05653425242081152;-0.06506919002287459;0.058507196168963466;-0.01749351407010842;0.044489998435920025;0.06991044205769556;0.060215956610525645;0.08882164176844184;0.019232542730888008;0.020867701882819348;-0.07560178716447535;0.09445308773387429;-0.06035848489445366;-0.0932756477934845;0.04562781194245091;-0.09684618900467049;-0.05754849178831689;-0.0762202145151725;0.08567484427965386;-0.03812389301455661;0.04020109939442479;0.09496329206275025;0.018388998741381293;0.06246960042055977;-0.06609915649344747;0.017479067294149192;0.09106798753319895;-0.024033138971324378;0.07171811142536863;0.045446626976444165;0.0487281844423931;-0.07860854276124273;-0.09004064807645412;-0.004883924580578583;0.02023385938138607;0.08762484329686232;-0.024205669308583394;0.09246404242184722;-0.05096969702779746;-0.07528001041853005;-0.09441899083235004;0.096452852241206;-0.03373468574592885;-0.09984873551791845;-0.06168630379290903;-0.07403813872742304;0.05037252220925417;0.07584162795128813;-0.019368618446704233;0.09437666454185364;0.09472906017228888;0.003409820950400738;-0.07201307201440516;0.013048216623260764;-0.08621073802105624;0.057931630478945534;0.02599209897739979;-0.03668931042237725;-0.04186500704058236;0.0346110727552883;0.08661739030844814;0.05647329729361328;-0.019827588359750986;0.01810879982734903;-0.06416038465801917;0.002177921423626314;-0.0052560915856425805;8.765371852741677E-4;-0.03750561485435131;-0.012259017756374974;0.012713108661590325;0.07469809851737563;0.06250458522788435;0.0345745307463097;-0.009380135189896638;0.04873886976762554;0.028320112513220086;0.04250802888175359;0.035791213831150526;0.05775741874067544;-0.0796819715861058;-0.04119100465027643;-0.066166626541275;-0.08426570322139426;-0.024923387213896905;-0.08407286999532318;-0.07578115997087308;0.04302475154884755;-0.04514944707176456;-0.02953685326655675;-0.06027820151538852;-0.050756398853374934;-0.0767611393019737;0.045590083326653624;0.046744101499583524;0.08944204873713044;0.04395091998545697;0.030131481300837037;-0.023886956290788186;0.027737892854077073;-0.05725966948333836;-0.08027272640188879;0.01772137945461541;0.04041196121721294;0.046990151460239826;-0.001005075331097241;-0.03258106091843056;-0.030414601331056293;-0.07690276658186085;-0.04168021571280622;0.06085435588511215
0.09894375166765595;-0.03128252929829907;-0.08511467827754744;-0.0934955224264298;0.06457556042649124;0.0850977092963229;-0.035219665646457066;-0.061081982466482956;-0.06315537960917278;-0.04586570030852038;-0.06850309506114147;0.053239176393403476;0.013316648379934376;0.07546218744196814;-0.004140665263696358;0.053365937037164995;-0.051887307008992606;-0.019207421982797415;0.09340097041277179;-0.051363168844670765;0.009663162449112986;0.03588124452076116;-0.05256773544402609;-0.03227093252973355;-0.09331210162824322;-0.035076350983643464;-0.030479942679605146;0.023489893645883234;-0.048670708038947845;0.08783706550688511;0.003824672082904962;0.05871225447510886;-0.061282962178734635;0.047803950249958316;0.017717808098655974;0.030404716492639122;0.013844618794598834;-0.07538506714133889;-0.05166899803781371;0.04889479906808977;-0.03051076356912745;0.07876378495348943;0.003160824450374647;-0.021856052470276152;0.07300840455846327;0.05191084512255939;-0.017416447742393953;0.024941238058250687;0.05519807314513059;-0.03875459284586287;0.04310876946645681;0.09718229183423124;-0.08900138755781195;0.0684416321376013;-0.04757228338917812;-0.004771374009906307;0.05968660900080461;-0.021683328230165458;-0.09921111356505435;0.015381907836452352;-0.008708000100975527;0.027963687397956377;-0.07204009402448486;0.0907966181686845;-0.013668418459023182;0.06404649579018726;0.0010112934064429313;-0.02730634005158357;0.037551502835696526;-0.02589327204087677;-0.06461575289186411;-0.036473502882207146;-0.07477698672614559;0.037148380364662836;0.09018121067468163;-0.04620945671250718;-0.09836289707323131;-0.010571325866708878;0.08834443290350155;-0.014544502836630044;0.025795467889777407;0.06329828311149771;-0.08663554807044108;0.06753944482501864;0.05589654923032614;-0.04990198683432785;0.016386859009759294;-0.09686739921444723;-0.044932769581767444;0.06253301745700854;-0.06893766524870602;-0.04778244197318089;0.09489205568722556;0.027609838975181156;-0.06178856179774664;0.05092212119835929;-0.04835635943197836;0.028135472789110577;-0.051647630484774415;0.03537967343011411;0.08171932630911585;0.028941832313472082;-0.02263381328232901;0.07716126715200672;0.035640830100415216;0.07341294399343931;-0.020949119114201636;-0.07271741973270927;0.02407508775201575;-0.08344356249929773;-0.03195805428419747;-0.012922044756815437;-0.01531386330819158;0.07277471365414942;-0.08244612224411496;0.0767728745967256;0.015229419985886075;0.09965547774029107;0.048623461710391974;-0.04362484337470218;-0.06384858615672864;0.01351523956278107;0.04101236902336075;0.06854438371916291;0.025059125851745245;-0.06190653929930443;-0.009346976266476376;0.019387964427857993;-0.0742244981570705;0.024709169793421373;0.014498427650032286;-0.009328546834000445;-0.023701627897762936;-0.0496441702224842;0.060862995813962845;-0.01428031781191777;-0.07716788042829748;0.09962438152535871;-0.07818177725342075;-0.04867560008470091;-0.008837131950827207;0.06700840229313848;0.06393339634029663;-0.010736831222289786;-0.028000592114334394;-0.02194061640936859;0.09462824613268869;0.07357329914573155;-0.056496145352907506;-0.07897575144288403;0.06363088226080169;-0.07648632692712626;-0.09791262010478588;-0.09498877024616402;-0.03748893512525102;-0.05281356350353288;-0.09835191480025154;0.016394275396231547;-0.07001472073992726;0.06707944004362831;-0.08822045983326668;0.0320803199545;-0.0033332586863348695;-0.03367037258410864;0.09708012863308432;0.06642772188384713;-0.08984001542809968;0.05329630809993646;-0.007455091204555148;0.07801820522694583;0.06987625655551058;0.032072659571248;-0.09587680708710973;0.043148883031549484;0.07067247744574626;-0.01214744298102928;-0.001123289114984119;-0.08517526670518466;0.005393157913731225;-0.05139087900316228;-0.034225276445214364;-0.07080375317905044;-0.09137885677309938;-0.03166971559494569;0.026013968872717952;-0.004199231725644695;-0.06258033654239517;0.09209584760113751;0.0508530597413282;0.01363033202644326;0.07957473398451925;-0.09043050598881484;0.005302259725838393;-0.008037290275075715;-0.044176500710031985;-0.018981727918021996
0.07761137170146268;0.02305648224224735;0.039780655256348024;0.0287612379484552;0.07734987593824691;0.053225099615117566;-0.04224829580097007;0.02698786763700886;-0.011024905188116968;0.0294688126674352;0.05034833180887591;-0.0058240232591998675;-0.04686434019659911;-0.0392424769285388;0.07879766985670428;-0.005121994228508009;0.014559210735390571;-0.0737783589417924;0.04106398354275412;-0.008566555882904156;-0.07677526947881713;0.08692208104725871;-0.07362236816323067;-0.04879559182039246;-0.09537848195986737;-0.08646540804945675;0.08149291990095955;0.011220283316048477;0.025248395966594867;-0.07080229812669739;0.08797289601656497;-0.07034348054810598;-0.02889178867763402;0.08493762956654188;0.05702574798453325;-0.08763831035816956;-0.07019556261473513;0.03449748191118357;0.03689404990820663;-0.007314029845806577;0.020947972371389748;0.05606230536515261;-0.002475371934654011;0.06415328283254193;-0.04506589794284204;-0.019714622594795034;0.00822337046733601;0.018058425738284825;-0.0832491239919845;0.02718543541746482;-0.04377407449287767;0.021859502093978397;0.06933195494054364;-0.07110157565740889;0.06759172411898787;-0.010724900391945888;-0.049931690335129675;-0.07906853474495151;-0.013444593804780317;-0.0607152541293319;-0.005555065231574813;-0.0785191662500287;0.04544617799917308;0.01877009020081613;0.06237017506723;0.08653978356512032;0.014512331936974807;0.07232353281538245;-0.03438320607831098;-0.07206392185893369;0.059464592819783835;-0.017210112537137404;-0.0011043469609352402;-0.08789677997071894;0.054278613363927114;-0.02260411632265838;-0.03756580248427841;-0.08069663726284065;-0.002226564273070039;0.09686124881198696;-0.06946627918315972;-0.06381599194888951;0.06470933954482797;0.05867424974415;0.06843076384276478;0.07896462250725275;-0.014374938791428787;0.010753684167815483;-0.07111027177226928;-0.09978661044516424;-0.00563912388658358;-0.031991840754522285;0.07030521878874482;-0.08091165820805613;-0.09180928518716867;0.05184286488163645;-0.07030576149393689;0.033081221576514525;0.012712849629754053;0.011452870100619877;0.05680998958021263;-0.08128354472290461;-0.08787447587586397;0.09578110524947381;0.06971042669360558;-0.09067828138341878;-0.024759821313338898;-0.033691684843108985;0.027466468594660343;-0.05009944891458873;0.05856169152542595;-0.006618740247696403;-0.06770376605306246;0.07230168004438461;0.019991506732949624;-0.037425495378651794;-0.028736845129322383;0.008293642202573753;-0.049813836375601044;-0.06737974823761579;0.08677759602948895;0.06381739165786174;0.04333019563487961;-0.06727029985499314;-0.07450703485402653;0.01460375829849217;0.005059052966794181;-0.035331549800270756;-0.04321107207979107;-0.04849354616857156;0.05249417981323726;-0.016262392781570795;-0.02511400790481476;-0.0966843832902627;0.09982897515596303;-0.02714878730429389;-0.09726286039691678;0.09548082519301171;0.04263091299315144;0.09518979453960472;0.001193865994933388;0.06508656652918393;-0.044998332101177166;0.013448774494886018;0.05354546480724173;-0.054412705969831145;0.09596367313137671;-0.002510360832932851;0.04338206156303673;0.05922315248578611;0.08491804764685781;0.007240785260851368;0.07283330176595265;-0.08929835002505887;0.050745453087810394;-0.06601598345001998;-0.02141363568612456;-0.037355538731930246;-0.014902014584355763;0.010701737092079222;0.09468834329389628;-0.008537215441335538;-0.06234329590391155;0.060948996995231985;0.08398973237857235;-0.02826145517979757;0.0796060960323636;-0.05424651988463772;-0.08581275259492072;-0.08214699936303466;0.031303184932001654;0.08933578107431922;0.08977582326627581;-0.0764818317991563;0.0010956897744458516;-0.08301884610049481;-0.03217890254142364;-0.016969257115112546;0.014470125720047841;0.02218317576319187;-0.01668455911327564;0.05248209159701758;0.026187253664496618;0.09521873254687321;0.08898187772248584;0.014822036812957212;0.0027890501739453455;0.09160277974284795;0.07474212909700928;-0.05041178098017116;-0.0611623841450013;-0.0035895344880679525;0.07366625357642129;-0.023723141065053133;0.0274733772945725;0.04924321094629033
0.08407318646422443;-0.06025522589956698;0.04435610225341308;0.03465441349447135;-0.05844712520765445;-0.0633033027740624;0.02377918059382826;0.01413954924997915;0.06003233595749999;-0.055774204720053545;-0.09327609412360482;0.07833439572932172;0.027609492604184827;0.004539570695039935;0.022847236298692855;-0.06814566813425726;-0.00926970107086375;-0.05558277146912016;0.0318729438110808;-0.011753447509393972;0.08938605387173323;0.06360871803754287;0.0945827311534019;-0.05118374802046169;0.016359541371003816;0.013299789204375648;-0.030419585178423122;-0.03337321600196126;0.06515012712427815;0.003931240582125767;0.03922876872459374;0.05576290266337383;0.004059425414649501;-0.06892506180394137;-0.04336465113011112;-0.0040146753223899295;-0.03197912107624619;-0.011267080071282382;0.07528998671281548;0.004193741938755657;0.09510801170953276;0.05134014551489585;0.07393336605976827;0.09665469757289125;0.05125776310787364;-0.051084491096317346;0.02146254785488419;-0.05026041027446418;0.08459679184143107;-0.06578028954804716;-0.059844068197636484;-0.018042708531978896;0.02986032165709901;-0.053557309104057184;-0.07977331271961258;-0.07364514807396756;-0.05625544678792785;-0.08714255892645453;0.014690279518558391;-0.06010119001104202;-0.00636476558607843;0.0980409719280454;-0.09924185701818788;-0.09476122507228352;0.04500668981470185;0.009677359417661388;0.032446381554196435;0.02029388143765702;0.0968869046396072;6.217914228695831E-4;-0.07118535220876243;0.0423919391853842;-0.09986385804486378;0.0688187187268734;-0.0567729065705241;0.0562299996496026;-0.040112170604411815;0.04983104896475521;-0.05874618004610508;-0.03128574804726002;0.07135225004080017;0.021151658539043633;-0.021692235818137146;0.09877613678342015;-0.03271498955778705;0.09313234642679169;-0.08716141550207138;0.026550702958606093;-0.034226194674918636;0.04827955896150646;-0.08311839369307204;0.09384220876380989;0.09859867401354924;-0.09116986170729709;0.05298651762495904;0.006591123726174208;0.07327243520800605;0.061934570451757404;0.07502702119890745;0.08009568213246251;-0.024030535736132674;0.05243911785727215;-0.019880776030960362;-0.010969790139833083;0.05790274158113193;-0.03482759721792231;-0.010146875578438547;0.03684156412296036;0.06431048454274332;0.061806003821535976;-0.02873191320545619;-0.057105990252578835;-0.036934719356166906;0.011772687088464545;0.021479784430303517;-0.03922801426183029;0.009020328942667313;0.06239003261495024;0.034592636581142144;-0.012560785008316519;0.0405587147620215;0.03025116306441855;-0.05449164797905035;4.917314048366317E-4;-0.05358655003610971;0.06410841781830415;0.0024677305449082726;0.0695314306961558;-0.03632258595877394;-0.07111007079596399;0.05863938965571189;-0.07227418081435218;0.07202398536888494;0.0911529434387868;0.09279584665824378;0.06090869087912332;0.03451065490079236;-0.05180798737469408;-0.029906411627402443;0.0741155283368359;0.0019394630868441176;-0.06381593881054087;0.03620074283218877;-0.07076349408531986;0.04559979315890339;-0.0228334961713597;-0.09850781708104431;-0.08749099349620292;-0.08767955981463316;-0.019691363827206973;-0.08324132991513318;0.08686063724842671;-0.09389045449586078;0.09985050547095661;-0.03214690695153331;-0.08834721073219216;0.09226253202265852;-0.029752341033532734;-0.07607652172351753;0.07116388479003852;-0.007330283369858748;-0.011525869920471624;-0.03764098331430202;-0.05680957754916352;-0.0048431138927212125;0.09410011470468133;0.06330180174450392;-0.03956686561335583;0.035043567003859105;0.009674865821380219;0.01755376995274731;-0.030125523321830563;-0.07629451027646086;-0.052890635593920446;-0.07606542151717005;-0.02085710435538375;-0.0032209174519752526;-0.0398325426644075;-0.0343769315303426;-0.006101797279623386;-0.06625248066845686;0.028838117382838313;0.04974118705612157;-0.003438379282919929;0.06099944402634297;-0.0017243867062887441;0.07041607025509836;0.09425303217771638;-0.007947074405239896;0.06315842895816245;-0.08721757937957303;0.07258698813114434;0.0814888635347282;-0.012268194585198303;0.053863858247723634;0.03201824504419529
0.0732396125458534;0.08246286044127213;-0.06400142222906857;0.05471647356459716;-0.0907698977216463;-0.07984865009906449;-0.010548842557277796;-0.047511004696662945;-0.06902963548948143;0.06750306422377378;0.06307886425598705;0.08005940505711667;0.05454988919190734;-0.06741290884605303;0.08539753171919826;-0.03695104202165199;-0.07141418179470832;-0.01573791259131259;0.023118422531157104;0.08629678135237226;-0.004971479689850761;0.08657086532820232;0.03020429127790722;0.015693873725351956;-0.03567027547383353;-0.09073340127850392;0.08771920256393909;0.08549509108920045;0.08932983013395931;-0.07495194089013042;0.023223393017883592;-0.026887782860521445;-0.023677263650780198;-0.015254681296555272;-0.03180907321209196;0.0046803981271870965;-0.0928921269865015;0.07361146660940751;0.06290452453835305;-0.012770760469495462;-0.03755900780794213;-0.004960125672269083;-0.04949160013015241;-0.052921103547831465;0.035146462580304544;0.002440719524624657;-0.08462330269216772;-0.03087937127089095;-0.09974426943283317;0.005674371449860827;0.015681420658958653;-0.022069741938487764;0.06988790874006168;-0.08464646034537193;0.03602056501878331;-0.020797911165493704;0.002190173583541302;-0.04351011611892999;-0.05680645450840338;-0.01122003613635525;-0.043492853548534674;-0.017624945350658866;-0.03331232802968072;0.016601000508130473;-0.008950012356635242;-0.04974986389519434;0.04516593786888562;0.04415689777831969;0.08468755258955382;-0.017768590316366933;-0.01877702584280054;-0.06338351590435412;-0.06891652514650348;0.028124651440859905;0.028902579012634738;0.06454243430522891;0.0012546138264886986;0.07117398299596497;0.0019468036349391121;0.07517409025695007;-2.721537880940039E-4;0.07345556966146027;-0.06452692717321173;-0.05046271664382765;0.049823817824079075;0.04454038880676264;0.059752557744511575;0.009181367370753063;0.035197746580087286;-0.06478559562620842;-0.04801071748306762;0.09513235391082825;0.09761893216114681;-0.092541443815088;0.02047637466355104;-0.06830943235369646;-0.05492766071177335;-0.08744499771221648;-0.05476791843107829;-0.09101016080342206;-0.040383083369841956;0.021100128472347948;-0.04980498124699533;-0.029225293063825417;-0.08896283640247662;-0.008131062569264769;0.014284463789729446;-0.022359150972579372;-0.019824210211589352;-0.05911058031893164;-0.05789175538327607;0.03102328339604682;-0.025062976307394735;0.07774961583865656;0.009827210174965045;-0.01049424823070308;0.08230162536274513;-0.0869258081559464;0.07766187973422015;-0.013436149386107848;0.041296180542967104;-0.09072872538793529;0.017753454163711144;-0.03235644694302786;0.044710968100630244;0.046064506125700566;0.044567884153261544;-0.09548426007631652;-0.018537952808154817;0.0029892328225035875;0.0547582998317567;0.01613651992339875;0.016844926622977582;0.022945880380813202;-0.0156223714073465;0.02778213497661372;-0.02547128903447962;0.014067543884852624;0.073559821172832;0.03401628656962513;-0.06800887292670851;0.07157300745787454;-0.007735346087773043;0.0960868156366915;0.07019644888879192;-0.043059663153764666;0.025407634271826435;-0.09936224376558565;-0.0713301120634789;-0.04134967793006139;-0.058326866071132646;0.03416174298125835;0.008723567250195102;-0.023086865212605986;-0.022464657792612128;0.086406965356183;-0.059559231470217466;0.024205576651551847;-0.043511661191720036;0.08599177714132053;-0.01687326392694663;0.014110326028630577;-0.06678695998246367;0.09276923193700423;0.06428578448309222;-0.0771372069988034;-0.09661469836018588;-0.0759771825185856;0.07878615092605412;-0.04882491025277356;0.05205621681859393;-0.024636214406276766;-0.03227447831156616;-0.011679239441520828;-0.07298805480909272;-0.0877605055687595;-0.02438830568044499;0.08612803365482699;0.018247208138392645;0.05425117587395553;0.04482446140680971;-0.012556687485011792;-0.0993370227532841;-0.04798117683180856;-0.052073602171128844;0.021790736563227137;-0.04567445699535704;-0.03488034814833184;0.08124163029242548;0.08036773687256085;-0.08489929426675065;-0.010334073888732712;0.04722344424597569;-0.08681949137865952;-0.07179666860115604;0.05537682895162335
0.038482990841670894;0.05303744486940545;-0.021820883697755505;-0.08546183262972247;0.002952952786335533;0.06428258738376136;-0.04893794997233685;-0.02096716249249922;0.01751169347662658;-0.061434750582529764;-0.05207260513146372;0.02666388508697798;0.02649477920173396;-0.08439397860105742;0.013786900334372992;-0.005718768249924525;-0.08812747916585924;-0.006166586775590316;-0.02825081139567054;-0.09723795455946785;-0.04652637103990172;-0.08607051519062803;-0.04040496141225656;-0.08231608815520408;-0.08951330237573055;0.04773681775342156;-0.0456061689055056;-0.060431018097796364;0.009572698951907085;0.005643323825601593;0.04051384750062942;-0.061133714478925086;0.06027341600063435;0.08747540226349393;0.027355817706711555;-0.09662144307728603;-0.06499791819079799;-0.05490600935033725;0.055365634152271054;-0.05037106765654889;-0.05124576956501812;-6.978012486391211E-4;0.04235869280559432;0.06470190218659219;0.052778242174094187;0.05933719700215878;0.01691485661132064;0.09138204336053321;0.016796634785595038;0.030133155251073573;-0.038420277218533874;-0.053046920912701516;-0.08402924719080938;-0.03929397521504501;-0.054165758318128004;0.07480883808712377;0.06165302472567313;-0.013574922217165858;0.06727151503280512;-0.031933144209415884;0.019072559653695226;-0.051399815527272956;0.03914597514566037;0.07566425986764089;-0.05954864326878513;0.03672780145061211;-0.03656315190544435;-0.09604514537698194;-0.09134993644461005;0.09190276158329877;-0.08920574013251628;0.060615150086119035;-0.06570632449791824;0.03431703273889983;-0.007786997308577723;-0.047293657850934936;0.0784292028456319;0.03343062244852135;0.05200545740968407;0.04702819780055839;0.08311884932798322;-0.07368607864593718;-0.06237821112711202;0.028439881400975364;0.08397384683931361;0.007824776422257845;-0.09090792873016358;0.05061187569771672;0.051485656960854415;0.06569774554611224;-0.06065844546127597;-0.03628787690478211;-0.037887290241103405;0.014286920881520698;0.026356857422941887;-0.07518134254400236;-0.06456740022196164;0.09261789889645822;-0.010842565413274038;-0.05061000446714634;0.09027104897086524;-0.06443156811534426;-0.04824675869388165;-0.05408630089967728;0.07057057236693129;-0.09858855819193434;0.03274603807459231;-0.009107532800431889;0.07086340918777564;0.04461806111529146;0.052958379081149004;0.04761630476861514;-0.04843528981879433;0.05973248763995731;-0.05054910627755831;0.009708256501700555;0.07590364821204043;-0.009705474019975763;0.04151501102044375;0.05922039076622085;0.023161656177747014;0.09619961370679628;-0.06729516524339299;0.06909562242085462;-0.06301151051665396;0.003550368227500253;0.05269847018374843;-0.04889980766802671;-0.047081510911503144;-0.07703235989881732;0.043755635970622236;0.052870546448433975;-0.0841891317017171;-0.0845068289006836;-0.02123500427872807;-0.058492508932779574;0.04578953288459564;-0.09037005281211322;-0.03864888768375339;-0.02381044269813866;-0.05964068452603151;0.028730538692607388;0.003237664796734957;-0.03143342682115076;-0.08927263987752368;-0.02514239828803637;3.991888475193828E-5;-0.04276657615279405;-0.058040391928659535;-0.06659503818258763;-0.06611383153806746;0.08137322479983305;-0.060545801701510985;-0.08781843183178423;-0.08025563559066994;-0.07130203376013876;-0.021685016896035567;0.009324906973462638;-0.017943315618447336;-0.04589605079363728;0.007559975905785457;0.016324226200117684;0.09926142301454963;0.017998262862062492;0.07770111851605938;0.005598337666102515;0.08600808813112124;-0.022958307176422596;0.05808329927643055;-0.07351353975514484;0.09634820120942303;-0.024907525243320433;-0.010527856917085465;-0.060825059389008264;-0.07408921870121117;0.02842435573603916;0.07773158945188882;0.05299655858387048;0.06704817449011483;0.07683157258665516;0.07603395849355521;0.0037032556164891817;0.028164349801624133;0.0810222737571874;0.02589661503055657;0.003727183545218865;-0.03308564034823054;-0.013258852413611327;0.03144106225314114;0.03010903980789434;0.006690332137244931;0.04735094032333656;-0.07337830655114447;0.07668666640840394;-0.09321428815648461;0.09914165262919672
-0.03822682000307083;0.09030105455163359;0.03885632141226447;-0.08257469423181898;-0.01632318398393237;-0.06480916041583432;0.08577301528413558;-0.05348677641528783;0.012447933106186998;0.08541053272787807;-0.07631232062173146;0.0929617300183917;0.028897893163504967;0.03202172667511413;-0.02588952528392484;0.09901142262000415;-0.02237422875826496;0.009970617527692308;-0.0799769002721546;0.07193402312381558;0.06394646314504615;-0.0010207402236849655;0.06852929290655355;0.03504008193048705;-0.023136546199967897;0.03344195442727846;0.012270246727320133;0.08738968989599805;-0.09435397958350317;0.06823234313160406;-0.0071905363748068635;-0.08821245365896578;-0.06582766774077645;-0.00950924417237875;-0.0985822384269881;-0.04556728676924071;-0.004948727341864578;0.04187546677740711;-0.033833945023880416;0.014632512634873127;0.0446376205625201;-0.07857444869546278;0.06895986105754945;0.029279038582144395;0.0804065378021985;-0.023902859883988728;-0.08787383069942177;-0.0856742046568839;0.06375502620573126;-0.04580113899895304;-0.08861021035937476;0.03429114035707806;-0.06585040848021759;-0.0036336107168015996;-0.06944705457489549;0.010854170658904844;-0.09535918258238703;0.0693800691820666;-0.007081637078232034;-0.047102228396717565;-0.0858828637042191;-0.08995641919839344;-0.09452728652462872;-0.007107349439236549;0.07827176913531098;-0.06049422726375924;-0.08592616172245987;0.048305240506886504;0.029108183174825303;-0.0671782010065467;0.07136166952086706;-0.008248668641441942;-0.03808890554400251;0.08421375200481049;-0.056160561422407954;-0.09009352846552246;0.018961629065556165;0.09540505305503058;0.010548253286217668;0.0587231732170061;-0.06912333133358323;0.032566953461279524;0.012984664904197737;0.08129402039243747;0.009304194026322987;-0.05317046618397414;0.0043875082774542246;0.04473886828117826;0.03880777919130657;0.03397362119095995;-0.0837532623992498;0.07378337365400434;-0.04887492854490175;0.02083420055642675;-0.08913634922759228;0.01123511372580148;-0.018413301868401705;-0.09089013314361977;0.021018380549995566;0.019352742460036848;-0.09466656078457468;-0.018313062724426676;-0.008722871486350911;-0.04885750645359524;-0.06992875334162987;0.082250977520294;0.030198197110399755;0.06690562600962605;0.08245515630897973;0.015872500671587103;-0.0413276178578901;0.04889926604260747;0.06679466730496522;0.08641761243147303;-0.0031400922542752785;0.07576234679595134;-0.0023751219368173954;0.08604857224143056;-0.029337399359384606;-0.041602755579685805;-0.08821097740291904;0.08274319857583609;0.03839665158260719;0.010286876516892265;-0.04897019135379848;-0.0863239094337736;-0.06069231468441867;0.027766086834625364;-0.02731161609082229;-0.014531182340871585;0.04779669196667474;0.0895551322640516;0.09396138199230547;0.006730177682206628;-0.019298314726100302;0.049902211612434244;-0.09573193972054889;0.03397172296034917;-0.05029333582300036;-0.00402895149134383;-0.009368908559974368;0.09889785795366238;0.07692597107732932;-0.032351442881028564;0.012576102759510294;-0.0967661870051868;0.09893869791884399;0.0967366626025194;0.03590672787365068;0.01666886993721961;0.07302436333781678;0.012531534627602328;-0.011186664478877839;0.09415633602661075;0.06907764067134783;0.0820824075538232;-0.0608746922347315;0.04072575922299876;-0.018343509613356485;0.005961290839126082;0.008118210390925015;-0.004873024954466648;-0.07115539426836273;0.0741639645348445;-0.0658611459496646;0.07803958999488614;0.01808562307326407;0.001801644801159366;-0.021587354861611646;0.056245684105777766;-0.04612684403137708;-0.08946816539128728;0.025749402131068327;0.011077411141411336;0.038157232514524464;0.09921589485000762;-0.025534814598710542;-0.03238459074978202;-0.028445705026098597;-0.04392007002173981;0.03268936264820255;0.04052783403096813;-0.09807549754115182;-0.09530526931449568;-0.057672327074274235;-0.016895954453951714;-0.013393427847318007;0.0473794023585799;0.03730357308227458;0.08795090993693663;-0.06442291172032064;-0.02782742415867623;0.009301749574120305;-0.01901618439034833;-0.014972444601462076;0.023303998345539464
-0.09791073331747853;-0.025241423690406162;-0.08567065914827568;1.3848688277109944E-4;-0.01540868429675342;-0.09714565782965837;0.06408286315596282;-0.054146845088481554;-0.03674984183577916;-0.05606808498533342;0.038924250071379035;0.01464801655094157;0.08579735432211633;0.06225565518512868;0.08598907060929284;-0.03492091533251883;0.06142099835220094;-0.05911850677447031;0.028409357567321908;0.01714210907072411;-0.02358877079905626;0.06437740754427529;-0.09705328094512178;0.032024163860433635;-0.08028125196248648;-0.08014301610469568;-0.09815910812745697;0.02597947209444429;0.04946282214743031;-0.0717294794917187;0.051179631436355566;-0.08642524795403006;-0.0707233378697628;0.09231241547201322;0.07157239497529938;0.09058850988989894;-0.05752034512551363;0.05296751056432175;0.06163688677954235;0.013137829420647146;0.052417572956204;0.08363315390573231;0.02078404434643455;-0.09285485249436379;-0.0810866735970373;-0.08108221112176356;-0.014986404587955332;-0.04895337901297068;0.0036225251998168034;0.014631030685888738;0.08790897363322397;-0.08531718023301899;0.0011894844391988901;0.0661441120144039;-0.021253212529036045;-0.09139856888651782;-0.0815488696830945;-0.025786248749916682;-0.0693872143136294;5.407864525374534E-4;-0.009462441147051442;-0.05947348466726654;0.053642641520412426;-0.01034793819253195;-0.029430220491255793;-3.651500189089385E-4;0.09198257154112549;-0.005942879479641644;-0.041243433407427955;0.04961990028452848;-0.07220867147067947;-0.0963720883954483;0.04704405774920306;-0.06926949654276318;-0.05841837247095823;-0.022587452875208913;0.04707316996945701;-0.08058841831552017;-0.014574309419334713;-0.07607788203894517;0.04205154414975679;-0.04545061378358728;-0.085973847151102;0.09253143111935741;0.05724828125727974;-0.006574966764232151;-0.011619977887978153;-0.07446405712941886;-0.020828731861365885;-0.09321815953420108;0.017740177887828265;-0.027053877920884872;-0.029911534426474193;0.06557606436984267;0.03780518050914822;-0.04411033822566195;0.022406109556842052;0.046394634894638354;0.0365449534671303;-0.020469055892953364;-0.023481652927968708;0.08818768008890554;-0.06620367187482364;0.042706213600005455;0.08609431528980108;0.06987750504597195;0.09673906173460253;0.0690120707503607;0.05637034044942127;0.046569909026726;-0.06941051066624854;-0.007126159293360884;0.0038664518297645695;-0.018492224263340518;-0.07767448684944829;-0.025840488803508907;-0.00995211551799971;0.04157078138035894;-0.0650167619002617;-0.013806010018595785;0.06680402152205425;0.08603933695774671;-0.048957938022884444;0.024567467446188804;-0.0617815197755379;-0.028495199957074155;0.04564168924502324;0.0179207321778327;-0.00904403496726254;0.020222111321846925;-0.06614902955462845;-0.013070626429890236;-0.02530725812058847;0.05486505529758556;-0.019064862794762466;0.0939979007059428;0.02436936272739698;-0.010441594810996643;0.09054453894649547;-0.04628626481473672;0.0076457763801111855;0.08522531299181346;-0.00702550093634717;-0.06709972598086075;-0.04620950955660655;0.02670228898828092;-0.055877428673320885;-0.04085283778588984;-0.025662958419082463;-0.040261724274053196;-0.08450410775297093;-0.022015010602812482;0.02119259747956792;-0.062091695010761644;0.006598082201258723;0.05141075925627525;0.0444850393309533;0.07263630376174737;0.04325152006094396;-0.025740545844347415;0.010286539934042743;0.05393574787830965;-0.06111252353747598;-4.38719451358871E-5;0.017453012696991024;0.015140796675055274;-0.009436809020964776;0.013472027017713509;0.013170623803022877;-0.04818525364121267;0.057441425940272656;0.0668472730472188;-0.05159806642436269;0.073186556730956;-0.07330531788341238;0.0014317043863061735;0.03727581928346263;-0.036119571617659954;-0.08972722081217484;-0.07896537873126491;0.08856704085787498;0.06436730669332816;0.03569915210349081;-0.04853695598062931;0.06276264257797087;-0.05951861220005559;0.09503760269269454;0.02446743120829882;0.0748141513110602;-0.09449132738361894;0.09839798515035358;-0.04209739892070992;0.010525969462831991;-0.017231275390649795;-0.05817420769736253;0.0689508301961696
-0.04636800410914854;-0.04772515543681475;-0.05585284321614108;-0.046456868588960504;-0.06903601099933497;-0.08802809212060254;-0.06668265726453082;0.09265371170950254;0.07471686772315975;0.0022152034470626775;-0.02995252526706016;0.004931769964906657;-0.02633243089082185;0.09156768733470519;-0.015039400775572462;-0.044826218649831655;-0.0606942176854669;-0.09734291329229516;-0.02474505213548288;-0.05057150564740092;-0.05181370547839437;0.06874834589441745;-0.04217124648894593;-0.09993401264959018;-0.061585571219515356;-0.04514893702572775;0.008047444425399203;0.02793107102178677;-0.06397260628401209;-0.04840451214391191;0.026810799458901025;-0.016259445674461442;-0.033863835195759306;-0.044225160746488745;-0.026696007673134056;0.017172759765224033;0.0640438526017848;0.08836567438989937;-0.023206796950548433;-3.630797957973886E-4;-0.05684171505841334;-0.03099784559613554;-0.0019470889592574786;0.015499023223331784;-6.320908107591838E-4;0.0652941055046441;-0.05051142793098036;-0.02342021537538412;-0.0643481686244354;-0.0339571743530218;0.0027450458870983407;0.08602950070510682;-0.023953759558962645;0.08932263183846056;0.013567507232327053;-0.019776447663996805;0.004691184187280276;-0.07043972643462285;-0.024091656543790446;0.011111467654264559;0.013533028081070902;0.07215830884679447;-0.01925003971534059;-0.003508603715071529;-0.028640301243541916;0.05987269382782534;0.09984002851410717;0.06197105945699238;0.037197207109310404;-0.017931197927448433;-0.05948769681995994;-0.07408481630737483;-0.06730238903327584;-0.023855764636185217;-0.07500737141507041;-0.06253149673003922;0.06100010614931542;0.07982083073894106;0.036066375762795144;-0.03221742228015241;0.013648491240300847;0.05367228915370778;0.04071009910882156;0.07586358739113838;0.04249978486748435;-0.09483205506107194;0.054266738401690856;-0.07700254181241824;0.09016047254744142;0.08867729056934101;-0.06002970910175048;-0.006502350895039477;0.07033821053538847;-0.06970614504576551;0.05210241935575774;-0.005439970915568762;0.06859853788563677;-0.06799883523640746;0.02579001726182356;-0.04570167010409279;-0.005632315227493828;0.04661757668536731;0.0924293609692409;-0.08542724814133196;-0.04337595083944486;-0.01687925497197093;-0.04305103599138696;-0.07598671193504324;0.058572598465719355;-0.09863331823892857;0.011599876826533712;0.07667845583448682;0.010697858098043175;0.08588235769212801;-0.01931128092644556;0.01307920854005426;-0.05305709346862253;-0.04967519843025443;-0.008354716268602513;0.0028367781614975635;0.09536316472787223;0.0173638662302891;-0.049956887177125056;0.06203231034587409;-0.09754452050755502;-0.05684026214378979;-0.04033195998716497;-0.07665471983335358;0.039464450657512834;0.011270399442567844;-0.026543808026269725;0.0733665857257709;0.029319626678990185;0.007738384260663714;0.08709959127482367;0.09901142679027106;0.02445864820627308;0.007270022102675688;0.09434400775616666;0.043746065258514266;-0.061356970019082135;-0.050165282434100456;-0.08851979110132502;-0.03561834472392622;0.08997488602912893;-0.03232440768931204;0.048256536781257714;4.773295516557752E-4;-0.05232567217309292;0.03463708538136234;0.053417006023950914;0.02093390308100243;0.09177900061278818;0.05287906841435322;-0.004704074325661084;0.09614851864075671;0.09277862557135944;-0.03353891073674849;-0.04862351364784021;0.05913967961379024;0.09729909317855587;0.09694451122656136;-0.02455265931571285;0.06534111481062141;0.06630215855227448;0.033074255726578766;0.08696777324625965;-0.06169791991964897;0.05386835564721271;0.07476600416972834;0.08447865356090356;-0.0026793111269965697;0.03748235270941877;0.03103878371757582;0.023372822316128222;0.0030758960802390184;0.014841446690590981;-0.09780320779104826;0.01806525832239199;0.0286129616128519;-0.03244042689930149;0.03847862805758415;0.029579852879877855;0.06557610947365997;0.05874065195587261;-0.03944414822611782;0.08179618314976597;0.009371306362572038;0.07924675901250242;-0.04832286856909947;-0.0869237298012639;-0.06801897301874434;0.08658807223438988;-0.01308186260313196;0.014717859085402088;0.04744204292625068
